{"model_data": {"model": "SimpleRNN", "input_size": 1, "skip": 1, "output_size": 1, "unit_type": "LSTM", "num_layers": 1, "hidden_size": 20, "bias_fl": true}, "state_dict": {"rec.weight_ih_l0": [[-0.15808837115764618], [-0.13718301057815552], [0.7709516882896423], [0.029913514852523804], [0.1591145396232605], [-0.015227284282445908], [0.6795449256896973], [-0.00204849592410028], [-0.015303184278309345], [-0.39388662576675415], [-0.01263219304382801], [0.11073052138090134], [-0.5658084154129028], [0.0034819182474166155], [-0.005523424595594406], [-0.009378289803862572], [-0.2487526834011078], [0.005983395967632532], [-0.00588981481269002], [0.3129483461380005], [-0.13247208297252655], [-0.481251984834671], [-0.15223583579063416], [0.0015435126842930913], [-0.0703241378068924], [-0.8425438404083252], [0.5563439726829529], [5.634607077809051e-05], [-0.2575693130493164], [1.5541088581085205], [-0.007265350315719843], [0.10081154853105545], [0.051178090274333954], [0.01740851067006588], [0.029047926887869835], [-0.0028488459065556526], [-0.31983867287635803], [0.00793728232383728], [-0.0010377049911767244], [0.12678852677345276], [0.6947953701019287], [-0.7252469062805176], [-1.1865103244781494], [0.5276681184768677], [-0.7354234457015991], [1.303245186805725], [-1.1885837316513062], [0.05390589311718941], [1.360422968864441], [0.8193510174751282], [-0.09864560514688492], [0.6704112887382507], [1.3576725721359253], [0.24110382795333862], [-0.29942193627357483], [0.26768186688423157], [0.0870751217007637], [0.3003363311290741], [0.12715104222297668], [-0.917971134185791], [-0.23181210458278656], [-0.9351661801338196], [0.36205920577049255], [0.025381701067090034], [0.1237601637840271], [-1.7290477752685547], [0.6932877898216248], [-0.0012449293863028288], [-0.2427930235862732], [0.9014681577682495], [-0.030644064769148827], [0.1424986869096756], [1.420703649520874], [0.006129342131316662], [0.0004962855600751936], [-0.016019141301512718], [-1.1315860748291016], [0.01753080077469349], [-0.006081439089030027], [0.39249810576438904]], "rec.weight_hh_l0": [[-0.03336022049188614, 0.015179583802819252, 0.03044937551021576, -0.037326082587242126, -0.03099210187792778, 0.13279305398464203, 0.039807166904211044, -0.005308300256729126, -0.0371675118803978, 0.01807381585240364, -0.007775573991239071, -0.02576277405023575, 0.1274588704109192, -0.01825973205268383, 0.011681798845529556, -0.01803070679306984, -0.0067983586341142654, -0.015570033341646194, -0.007192676886916161, 0.026208817958831787], [0.03491977974772453, 0.0847923755645752, 0.03167954832315445, 0.022857850417494774, -0.21278026700019836, -0.5678433179855347, 0.03238403797149658, 0.004292885772883892, 0.05903613194823265, -0.007800342049449682, 0.03990974277257919, 0.0018406707094982266, -0.2521243691444397, -0.007154733408242464, 0.018411260098218918, -0.045417215675115585, -0.049876756966114044, -0.05073684826493263, -0.00721394969150424, 0.06776408851146698], [-0.08650150150060654, 0.35020893812179565, 0.042972661554813385, -0.03141187131404877, -1.44942307472229, -0.9509250521659851, 0.4452163875102997, -0.009497544728219509, -0.11578327417373657, 0.04361367225646973, 0.08877002447843552, -0.00016708810289856046, 0.4348579943180084, -0.06268706172704697, 0.11075051128864288, -0.03352000191807747, 0.41806766390800476, -0.03234604001045227, -0.03369715437293053, 0.007921782322227955], [-0.00571041414514184, 0.015396633185446262, -0.005111572798341513, -0.006784889847040176, 0.0074193659238517284, 0.011130522936582565, 0.01761029288172722, -0.00024099474831018597, 0.0020861951634287834, 0.012845436111092567, -0.006412561982870102, -0.006058216094970703, 0.07623894512653351, -0.0017497147200629115, -0.0017159862909466028, -0.012985751032829285, -0.01398786623030901, -0.014437239617109299, -0.0012161361519247293, 0.013083300553262234], [-0.006667704321444035, 0.07147464901208878, 0.005465760361403227, -0.00926152989268303, 0.03020002692937851, -0.370449423789978, -0.2224554568529129, -0.0033360335510224104, -0.009783913381397724, -0.07105729728937149, 0.00013963536184746772, -0.02805391326546669, -0.8196174502372742, 0.004848375450819731, -0.00960475578904152, -0.07812144607305527, -0.27682414650917053, -0.0767715722322464, -0.005027966573834419, 0.19692082703113556], [0.07709166407585144, 0.006306197494268417, -0.7579600214958191, 0.2714463472366333, 0.5026857256889343, 0.3287534713745117, -0.8583410382270813, -0.004014500416815281, 0.24411359429359436, -0.2050599753856659, 0.032480791211128235, 0.1672748178243637, 1.4083471298217773, 0.01723550446331501, 0.009547349065542221, 0.03873201087117195, 0.5386000275611877, -0.015278375707566738, 0.010665327310562134, -0.48870423436164856], [0.07770229130983353, -0.19385437667369843, 0.055238671600818634, 0.056996796280145645, 0.30174991488456726, 0.13075022399425507, -0.19707238674163818, 0.018707601353526115, 0.08105534315109253, -0.02684316411614418, -0.05754489824175835, 0.013900217600166798, -0.13826236128807068, 0.06827901303768158, -0.09034661948680878, -0.0071976580657064915, -0.09267602115869522, -0.007194158621132374, 0.027219844982028008, 0.007142351940274239], [0.00036968133645132184, -0.0003631338768173009, -0.00043168742558918893, 8.226106729125604e-05, 0.0011753125581890345, 0.0014061019755899906, -6.284083792706951e-05, 4.72441352030728e-05, 0.00084049126598984, 0.0005102040595375001, -5.875512579223141e-05, -0.00012614592560566962, -0.0013669078471139073, 0.00026911607710644603, -0.0004016980528831482, -0.0008233655244112015, -0.002624266082420945, -0.0008303872309625149, 2.772550578811206e-05, 0.001141345244832337], [-0.06706149876117706, 0.13142120838165283, 0.07702525705099106, -0.06770449131727219, -0.4677006006240845, -0.2841207981109619, 0.15320655703544617, -0.011960203759372234, -0.11546975374221802, 0.02559097856283188, 0.013449800200760365, -0.04722831770777702, -0.052403565496206284, -0.043293971568346024, 0.05238613486289978, -0.034502118825912476, 0.16467253863811493, -0.019846932962536812, -0.024205783382058144, 0.006414902862161398], [-0.009918106719851494, 0.05676199495792389, 0.43973425030708313, 0.004361639730632305, -0.0968640074133873, -0.1570197492837906, -0.04750845953822136, 0.0020685356575995684, -0.16550306975841522, -0.20278126001358032, 0.0596340112388134, -0.05806621536612511, 0.055042851716279984, 0.0036418025847524405, -0.004878385458141565, 0.036738764494657516, 0.21353116631507874, 0.04740927740931511, 0.006311326753348112, 0.22501903772354126], [-0.0006004977622069418, 0.0011745666852220893, 0.0009286586428061128, -0.0006954646669328213, -0.002008420880883932, 0.0005304457736201584, 0.0015323545085266232, -0.0001788603258319199, -0.0006735609495081007, 0.0009071481763385236, 0.0007881329511292279, -0.0004757046699523926, -0.006747312843799591, -0.0007891210843808949, 0.000894351745955646, -0.00032104740967042744, 0.0010452148271724582, -0.0003020120784640312, -0.0003307891602162272, 0.0006567699019797146], [-0.015300026163458824, 0.046539973467588425, -0.016184229403734207, -0.00775658106431365, -0.02426617592573166, -0.049671173095703125, 0.03743439540266991, -0.0017599386628717184, -0.015098022297024727, 0.027487466111779213, 0.0028963980730623007, 0.0005372049636207521, 0.10862165689468384, -0.0036402123514562845, 0.004734078422188759, -0.0025397196877747774, 0.025226078927516937, -0.0017539296532049775, -0.0011808116687461734, -0.018213925883173943], [-0.08352676779031754, -0.15812398493289948, 0.01687668263912201, 0.03421935439109802, 0.05067741498351097, 0.10500286519527435, -0.2238178700208664, -0.01108446903526783, -0.2050211876630783, 0.053590137511491776, -0.008631263859570026, 0.05476284399628639, 0.1292341649532318, 0.02772662229835987, -0.007134517654776573, 0.11212087422609329, 0.4151459038257599, 0.117084801197052, 0.014188025146722794, -0.328274130821228], [0.006203638855367899, -0.0036115043330937624, -0.0022660531103610992, 0.003919059876352549, 0.010996637865900993, 0.0028575360774993896, -0.004503190517425537, 0.0018346664728596807, 0.009871024638414383, 0.0059285336174070835, -0.0004968983703292906, 0.0005793303716927767, -0.01758568361401558, 0.004658799152821302, -0.007137573789805174, -0.006239480338990688, -0.02649840898811817, -0.007143024820834398, 0.0009353019995614886, 0.010762413032352924], [0.010241462849080563, -0.013377726078033447, 0.0019301223801448941, 0.006210620980709791, 0.013407430611550808, -0.0006544589414261281, -0.0016732981894165277, 0.00265808985568583, 0.01530501153320074, 0.0053365519270300865, -0.0009663247037678957, 0.00017619424033910036, 0.012233301997184753, 0.007452100515365601, -0.010908279567956924, -0.011446664109826088, -0.03723398968577385, -0.012167811393737793, 0.0013476149179041386, 0.019772116094827652], [0.0011382467346265912, 0.0032601431012153625, 0.012723701074719429, -0.0016217958182096481, -0.005466222297400236, 0.008793165907263756, 0.013660714030265808, -0.00033493939554318786, 0.0016440586186945438, 0.004272368270903826, 0.009170242585241795, -0.0013375029666349292, 0.12025029957294464, -0.001696653082035482, 0.0021085646003484726, 0.00285514653660357, 0.0297072883695364, 0.0017799262423068285, -0.0004826697986572981, 0.0016467967070639133], [0.044523876160383224, -0.0008937586680985987, -0.01136840134859085, 0.027316169813275337, -0.29281532764434814, -0.13307201862335205, -0.35262832045555115, 0.004775277804583311, 0.14245133101940155, 0.01481372956186533, -0.045669469982385635, 0.011815765872597694, -0.6943215131759644, 0.01132845226675272, -0.018392594531178474, -0.03447480499744415, 0.13989250361919403, -0.038443032652139664, 0.00138645782135427, 0.12842713296413422], [-0.000818355125375092, 0.008769355714321136, 0.01886308565735817, -0.0033468883484601974, -0.009149148128926754, 0.0010889471741393209, 0.015031229704618454, -0.0009228342096321285, -0.0022183109540492296, 0.0014864375116303563, 0.0006506397621706128, -0.002346065593883395, 0.12223611027002335, -0.0041177114471793175, 0.005191062111407518, 0.0023556009400635958, 0.039573416113853455, 0.00288001517765224, -0.0010145781561732292, 0.0015011923387646675], [0.0008776108734309673, 0.00018376839580014348, 0.00025311234639957547, 0.00042147745261900127, 0.0020079025998711586, -0.0001339734735665843, 0.00019934050214942545, 0.00025546166580170393, 0.001261712983250618, 0.0005792791489511728, -6.007094634696841e-05, -1.8683083908399567e-05, -0.0009916129056364298, 0.0007082224474288523, -0.0010024291696026921, -0.00105527532286942, -0.004380769096314907, -0.001099940505810082, 0.0003338741953484714, 0.0021175292786210775], [0.021958094090223312, 0.03957301378250122, -0.08359202742576599, 0.04140346124768257, -0.16765718162059784, -0.28269773721694946, 0.054316919296979904, 0.008135334588587284, 0.053147610276937485, -0.008387790992856026, 0.010560408234596252, 0.02844333089888096, 0.24317634105682373, 0.028089191764593124, -0.025901012122631073, -0.02168888971209526, -0.049157723784446716, -0.02592034451663494, 0.008746893145143986, -0.035917170345783234], [-0.011653775349259377, 0.0046217180788517, -0.01942155323922634, -0.01296729501336813, 0.061785921454429626, 0.12662403285503387, -0.002113625407218933, -0.002546550240367651, -0.005391152109950781, 0.012331724166870117, 0.004440051503479481, -0.006870968732982874, 0.04037480428814888, -0.007739981170743704, 0.004859549459069967, -0.0008947188616730273, -0.0008669242961332202, 0.0001292008237214759, -0.001653551240451634, -0.013881557621061802], [0.016160711646080017, 0.041389696300029755, 0.0969245657324791, -0.008470240980386734, -0.10297886282205582, -0.553587794303894, 0.054150305688381195, -0.0024899670388549566, 0.027869829908013344, -0.010194450616836548, 0.057995665818452835, -0.02161582186818123, -0.1942436844110489, -0.029124874621629715, 0.042858272790908813, -0.04320277273654938, -0.0591951459646225, -0.04728400334715843, -0.014857877977192402, 0.09394039213657379], [0.04171447828412056, 0.06536491960287094, 0.04250897094607353, 0.04154159501194954, -0.2509373724460602, -0.2889688313007355, 0.08841943740844727, -0.0014828825369477272, 0.07360193878412247, -0.06581442058086395, 0.015488583594560623, 0.013579504564404488, 0.2659720480442047, -0.019912969321012497, 0.03866145387291908, -0.02921508066356182, 0.0839182510972023, -0.030629340559244156, -0.010437938384711742, 0.0439346581697464], [-0.002378033706918359, -0.0025408428627997637, 0.007633971516042948, -0.004382302053272724, 0.03213796019554138, 0.06180258467793465, -0.007292797788977623, -0.0008825802942737937, -6.747378211002797e-05, 0.006987620610743761, -0.00024909243802540004, -0.0044566793367266655, 0.06333354115486145, -0.0021252071019262075, 5.379261438065441e-06, -0.0022405192721635103, -0.0028282057028263807, -0.0023006207775324583, -0.0005607568891718984, 0.00814394187182188], [0.02697147987782955, -0.10339987277984619, 0.21547405421733856, 0.0011611036024987698, 0.10531999170780182, 0.09139341115951538, -0.13366742432117462, 0.005921151489019394, -0.027956249192357063, -0.01181303896009922, -0.0025418163277208805, -0.0062733059749007225, 0.27145999670028687, 0.0061551304534077644, -0.014493508264422417, 0.043652381747961044, 0.15571090579032898, 0.04397720843553543, 0.005959138739854097, 0.05558096244931221], [0.08195756375789642, -0.16156642138957977, -0.02326597459614277, 0.04411041736602783, 0.25296488404273987, 0.055888332426548004, -0.00959026999771595, 0.016154306009411812, 0.13835883140563965, -0.25431549549102783, -0.07520240545272827, -0.006947792135179043, -1.475485920906067, 0.05462775006890297, -0.09085018932819366, -0.06407240778207779, -0.7759494781494141, -0.05946189910173416, 0.037303145974874496, 0.22913755476474762], [0.07243116945028305, -0.053115203976631165, -0.15982431173324585, 0.08888643980026245, -0.09971719235181808, -0.19618898630142212, -0.10605056583881378, 0.01755652390420437, 0.1129007413983345, -0.011851995252072811, 0.007471065036952496, 0.05450531095266342, -0.37973326444625854, 0.06859098374843597, -0.07290177047252655, -0.019093375653028488, -0.12221623212099075, -0.02764512412250042, 0.023442139849066734, -0.030369777232408524], [0.0002831124875228852, -0.0004255901149008423, 0.00026339851319789886, -4.1720839362824336e-05, 0.0010530473664402962, 0.0019077366450801492, -0.00022743901354260743, 1.642699498916045e-05, 0.0005524908192455769, 0.00044463350786827505, -5.600144504569471e-05, -0.00020304039935581386, -0.003338542999699712, 0.00013500635395757854, -0.00026832398725673556, -0.0007564234547317028, -0.0024488039780408144, -0.0007346228812821209, 1.135776869887195e-06, 0.001351620419882238], [-0.017214534804224968, 0.032414838671684265, -0.018382053822278976, -0.022263815626502037, 0.012032655999064445, 0.10068422555923462, 0.013163864612579346, -0.006432380061596632, -0.023592643439769745, 0.005021931603550911, 0.0075849611312150955, -0.01124565303325653, 0.057595521211624146, -0.021697424352169037, 0.023615147918462753, 0.012733444571495056, 0.05836232006549835, 0.015071098692715168, -0.007196517661213875, -0.02813194878399372], [0.033006343990564346, -0.02284303866326809, 0.06474656611680984, 0.019901391118764877, -0.3853113353252411, 0.12044087052345276, -0.049447160214185715, 0.007176962215453386, 0.12421226501464844, 1.1585005521774292, -0.19537878036499023, -0.010290571488440037, 1.333144187927246, -0.008368820883333683, 0.009611126966774464, -0.06755846738815308, 0.20458272099494934, -0.08538950234651566, -0.027010545134544373, 0.19781231880187988], [-0.00038895211764611304, 0.0003058724105358124, 0.0008459719829261303, -0.0005098733818158507, -0.0004530464648269117, 0.0034808535128831863, 0.00016773177776485682, -0.0001612495252629742, -0.0004964435356669128, 0.0006512206746265292, 0.008379862643778324, -0.00032337798620574176, -0.024482637643814087, -0.0006509816157631576, 0.0006712371832691133, 3.1388422939926386e-05, 0.0019465350778773427, 8.396877092309296e-05, -0.00022816131240688264, 0.0004170335887465626], [-0.004255045671015978, 0.006226401310414076, -0.0053389230743050575, -0.0009098247392103076, 0.023629602044820786, 0.040068596601486206, -0.0029562655836343765, -0.0010302991140633821, -0.0043790447525680065, 0.0428258553147316, 8.109362534014508e-05, 0.0033683974761515856, 0.11568083614110947, -0.0014538796385750175, 0.0007451503188349307, 0.004753768444061279, 0.018804803490638733, 0.005336190108209848, 0.0003273541515227407, -0.012537842616438866], [-0.039317112416028976, -0.3452453017234802, 0.30261915922164917, -0.14903509616851807, 0.01569942571222782, 0.9194238185882568, 0.12838539481163025, -0.03337395563721657, 0.09880462288856506, 0.5204909443855286, -0.2038375735282898, -0.14317941665649414, -1.1273452043533325, -0.14795152842998505, 0.12067606300115585, -0.14981627464294434, -0.6378383040428162, -0.10559786856174469, -0.0582064613699913, 0.5517852306365967], [0.005823860410600901, -0.003305847058072686, 0.00022760810679756105, 0.0036797444336116314, 0.006650130730122328, 0.003910211380571127, -0.005883695557713509, 0.00160151906311512, 0.008740323595702648, 0.004993676673620939, -0.0006102866027504206, 0.000734189641661942, -0.032031964510679245, 0.0037477395962923765, -0.005480057094246149, -0.00519421324133873, -0.021435555070638657, -0.005787115544080734, 0.0008147926419042051, 0.010124330408871174], [0.009903122670948505, -0.010719839483499527, 0.003399305511265993, 0.006476142909377813, 0.0019575029145926237, -9.661418880568817e-05, -0.004505409859120846, 0.002443835139274597, 0.015421946533024311, 0.004541238769888878, -0.0009208981064148247, 0.0008241843897849321, -0.057563416659832, 0.006109415087848902, -0.008390252478420734, -0.01042331475764513, -0.03457944095134735, -0.011648645624518394, 0.0011385397519916296, 0.022572936490178108], [0.0013406063662841916, 0.002400722587481141, 0.006401008926331997, -0.0002695860748644918, -0.0050151473842561245, 0.004232359584420919, 0.006273800507187843, -8.504639117745683e-05, 0.0025614709593355656, 0.0028959880582988262, 0.0006719449884258211, -0.0002725220983847976, 0.04646727815270424, -0.0009202765650115907, 0.0011281800689175725, 0.000930336129385978, 0.011860698461532593, 0.0008207292994484305, -0.00019745377358049154, 0.0019847401417791843], [0.03509477898478508, -0.07047092169523239, 0.043116047978401184, 0.019411670044064522, 0.02759810909628868, 0.11175582557916641, -0.085257887840271, 0.002086121356114745, 0.03572336584329605, 0.0014001260278746486, 0.02582666091620922, 0.0038955481722950935, 0.16409406065940857, 0.010795393027365208, -0.021304350346326828, 0.003486068919301033, 0.11966580897569656, 0.0015900019789114594, 0.004534268286079168, 0.0625235065817833], [-1.0985558219545055e-05, 0.0050724344328045845, 0.01003517396748066, -0.0012880058493465185, -0.006685100495815277, -0.00038564964779652655, 0.007879095152020454, -0.0004130068700760603, 9.357621456729248e-05, 0.0009626872488297522, 0.00019963178783655167, -0.0008440742967650294, 0.03887704759836197, -0.002324432833120227, 0.0027409223839640617, 0.0007190947071649134, 0.012097540311515331, 0.0017017485806718469, -0.000493924249894917, 0.003282589837908745], [0.0006837405380792916, -2.8771875804523006e-05, 0.0007022860227152705, 0.00030990850063972175, 0.0012712632305920124, 0.001298151328228414, -0.0006401927676051855, 0.0001683657756075263, 0.0008844667463563383, 0.00050302007002756, -7.380689930869266e-05, -1.4746325405212701e-06, -0.004838102497160435, 0.00039874171488918364, -0.0005729207186959684, -0.0005528274923563004, -0.0025371790397912264, -0.0005786484107375145, 0.00041598742245696485, 0.0016322426963597536], [0.021395059302449226, -0.023579951375722885, -0.00039213322452269495, 0.023367634043097496, 0.007693060673773289, 0.015338444150984287, -0.027097061276435852, 0.0030159754678606987, 0.02608891762793064, -0.029060713946819305, -0.0013950393768027425, 0.012894519604742527, 0.21860221028327942, 0.013665272854268551, -0.017886687070131302, 0.003856259398162365, 0.028449689969420433, 0.0023473810870200396, 0.007162824273109436, -0.011331028304994106], [-0.07052938640117645, 0.11750778555870056, 0.04121210426092148, -0.07225599884986877, -0.6575912237167358, 0.04356909543275833, -0.12257535010576248, -0.00481033930554986, -0.13012611865997314, -0.21287333965301514, 0.24804125726222992, -0.047764185816049576, -0.4286859333515167, -0.011749578639864922, 0.0202840156853199, 0.008483645506203175, 0.3692130446434021, 0.023631077259778976, -0.01588103175163269, 0.18234167993068695], [0.17401137948036194, 0.20281505584716797, 0.19155210256576538, 0.17454735934734344, -0.16222594678401947, -1.0839053392410278, 0.3065950870513916, 0.03714907169342041, 0.17029745876789093, 0.032468438148498535, -0.0483258031308651, 0.09831429272890091, 0.3514699935913086, 0.044193658977746964, -0.04411034658551216, 0.027622302994132042, 0.0007208100287243724, -0.013875476084649563, 0.02777741849422455, -0.04782065749168396], [0.07804935425519943, -0.25136029720306396, 0.07426904141902924, 0.06430140137672424, 0.8387263417243958, 0.1847354918718338, 0.36995628476142883, 0.05366848409175873, -0.05984879285097122, -0.19057926535606384, -0.033763036131858826, 0.07710471749305725, 0.5633417963981628, 0.08680112659931183, -0.09864019602537155, 0.03545164689421654, -0.3431713283061981, 0.03929009288549423, 0.0490117222070694, -0.10427840799093246], [-3.4743166906991974e-05, 0.10530010610818863, -0.005546048283576965, -0.06307470053434372, -0.2796257734298706, -0.16388548910617828, -0.07888785749673843, -0.0029162694700062275, -0.03940541669726372, -0.15364114940166473, 0.1684449017047882, -0.014501764439046383, -0.23257844150066376, -0.012130501680076122, 0.007950669154524803, 0.009999196976423264, 0.1707421839237213, 0.006069730501621962, -0.017703011631965637, 0.035803262144327164], [0.31658563017845154, -0.26811209321022034, -0.02294260822236538, 0.03842800855636597, -0.8290872573852539, 0.44963571429252625, -0.6743016839027405, 0.014638303779065609, 0.1205158606171608, 0.09735139459371567, 0.051091961562633514, -0.026612792164087296, -1.1105021238327026, 0.10188371688127518, -0.12052021920681, 0.13288553059101105, 1.144852638244629, 0.09866450726985931, 0.042723823338747025, 0.1111261174082756], [0.07786139100790024, 0.27925652265548706, 0.40820416808128357, -0.004525144584476948, -0.6676860451698303, 0.6314847469329834, -0.13952518999576569, -0.03128115087747574, -0.0274511631578207, 0.32427018880844116, -0.007864254526793957, -0.007226941175758839, 0.2043655663728714, -0.09768456965684891, 0.11820071190595627, -0.12421320378780365, 0.31865978240966797, -0.18471601605415344, -0.04270752891898155, 0.17220765352249146], [0.21000215411186218, 0.032153259962797165, -0.21909508109092712, 0.005164480768144131, 0.21947550773620605, -0.6413558721542358, -0.49302318692207336, 0.018586887046694756, 0.589136004447937, 0.40983062982559204, -0.3872669041156769, -0.02610730193555355, 0.5268591046333313, -0.06486007571220398, 0.029308129101991653, -0.0630030408501625, -0.40514859557151794, -0.0627693310379982, 0.016686249524354935, -0.19019022583961487], [0.018609026446938515, -0.05277552828192711, 0.022963378578424454, 0.0058762202970683575, -0.03504782170057297, -0.06304141134023666, -0.021977735683321953, -0.013862996362149715, 0.025700800120830536, 0.12622873485088348, -0.07381104677915573, 0.0008841382223181427, -0.07298510521650314, -0.005236602853983641, -0.004749048035591841, -0.008591074496507645, -0.005226308014243841, -0.007108642719686031, 0.00808357261121273, 0.02949749305844307], [0.20712698996067047, 0.2639714181423187, 0.1961183249950409, -0.04255681112408638, -0.9347901940345764, 0.36664995551109314, -0.09331537038087845, -0.027197256684303284, -0.3291676342487335, -0.1636209487915039, 0.3367818593978882, -0.05842086672782898, -0.6913684606552124, -0.0021588157396763563, -0.04701264575123787, 0.08116552233695984, 0.6295627355575562, 0.006225363817065954, -0.013777222484350204, 0.24283654987812042], [-0.0410492904484272, 0.10742110759019852, -0.04817750304937363, -0.039532989263534546, -0.025266915559768677, -0.12181510031223297, 0.02588929980993271, -0.008251349441707134, 0.13696898519992828, 0.2586124837398529, -0.1421729177236557, 0.05423598363995552, 0.8040075302124023, -0.023020541295409203, -0.013758741319179535, -0.0035935738123953342, 0.3869837522506714, -0.04750359058380127, -0.08903221786022186, -0.04425167664885521], [0.0058608404360711575, -0.022069890052080154, -0.0353364571928978, 0.012466524727642536, 0.05321408063173294, -0.09564505517482758, -0.007281107362359762, 0.002282985020428896, 0.004295972175896168, -0.05004480853676796, -0.07755803316831589, 0.009180452674627304, 0.021326979622244835, 0.010280854068696499, -0.013005410321056843, -0.001866977079771459, -0.033457908779382706, -0.0013298098929226398, 0.004442837089300156, -0.021187443286180496], [-0.029523832723498344, 0.09782706201076508, 0.015893425792455673, -0.0949050560593605, -0.23068495094776154, -0.3237558901309967, -0.0012208750704303384, -0.011223233304917812, -0.03746889904141426, 0.02652641385793686, 0.01105975080281496, -0.09858516603708267, -0.18418894708156586, -0.03462245687842369, 0.036543481051921844, 0.005012526176869869, 0.07194475829601288, 0.013462105765938759, -0.025832151994109154, 0.0459817498922348], [-0.14904455840587616, 0.015974169597029686, 0.2872627377510071, -0.2934574484825134, 0.5866968035697937, 1.6719645261764526, -0.18383482098579407, -0.042941950261592865, 0.10684073716402054, 0.623275876045227, -0.19159972667694092, -0.15593983232975006, 0.1646772176027298, -0.12982745468616486, 0.09895011782646179, -0.04932035878300667, 0.4058440327644348, -0.039293646812438965, -0.03178797662258148, 0.09112393856048584], [0.021482624113559723, -0.036800406873226166, -0.10061554610729218, 0.036904480308294296, -0.0784527063369751, -0.09546298533678055, -0.06937667727470398, 0.014699484221637249, 0.03511413559317589, 0.1274937242269516, -0.06768286973237991, 0.03245135024189949, -0.2422078251838684, -0.006961561273783445, -0.02774633839726448, -0.023680314421653748, -0.03569577634334564, -0.03681681677699089, 0.025704367086291313, 0.03628019243478775], [-0.04157603532075882, 0.019190052524209023, 0.10039324313402176, -0.05940774083137512, 0.06875737011432648, 0.023175887763500214, 0.19225303828716278, -0.019184226170182228, -0.050887949764728546, -0.02582184225320816, -0.04247288778424263, -0.04282168298959732, 0.3190189599990845, -0.05041936784982681, 0.06823869049549103, -0.017529724165797234, -0.1110665574669838, -0.012814393267035484, -0.015522699803113937, 0.029297657310962677], [0.014027515426278114, -0.01105566881597042, -0.027349209412932396, 0.012340102344751358, 0.0068167331628501415, -0.028477486222982407, -0.01665515825152397, 0.0020566845778375864, 0.025744464248418808, 0.08869022130966187, -0.05517234653234482, 0.023897767066955566, -0.07602512091398239, 0.001227421686053276, -0.012611253187060356, -0.027727022767066956, -0.07443791627883911, -0.023054445162415504, 0.040671419352293015, 0.014196716248989105], [-0.4734593331813812, 0.3751543462276459, 0.2969844341278076, -0.16146451234817505, 0.08900579810142517, -0.5937866568565369, 0.9009491801261902, -0.020908432081341743, -0.7056393027305603, 0.1987350732088089, 0.3961103856563568, -0.10023947060108185, 0.9609612226486206, 0.007802338805049658, 0.16420458257198334, 0.08533734828233719, -0.9458593130111694, 0.19527241587638855, -0.03881985694169998, 0.12507405877113342], [0.006764374673366547, -0.010081394575536251, -0.06664629280567169, 0.017645901069045067, 0.007760859560221434, -0.006495192181318998, 0.012942887842655182, 0.0014882972463965416, 0.005071420222520828, 0.032615769654512405, -0.032110266387462616, 0.03625449910759926, -0.03706574812531471, -0.006120332982391119, -0.0033767567947506905, -0.015312587842345238, -0.062213655561208725, -0.03128864988684654, 0.05231565609574318, 0.005098684225231409], [0.013033416122198105, 0.007447824347764254, -0.022100403904914856, 0.008573534898459911, -0.031895801424980164, -0.03965725377202034, -0.03539043292403221, 0.004466342274099588, 0.017648521810770035, 0.009770800359547138, 0.00036296213511377573, 0.006173752248287201, -0.14607800543308258, 0.008048897609114647, -0.007969927042722702, -0.01055897306650877, -0.057260945439338684, -0.013115029782056808, -0.07874125987291336, 0.011355741880834103], [0.035798706114292145, -0.17558251321315765, 0.19364885985851288, -0.035196926444768906, 0.6200603246688843, 0.6543765068054199, -0.05153763294219971, 0.025322290137410164, -0.04263431206345558, -0.1811017096042633, 0.0585668720304966, -0.003515977179631591, 0.05402018874883652, 0.05978461354970932, -0.06386508047580719, 0.03295040503144264, -0.14611190557479858, 0.018555913120508194, 0.04160579293966293, -0.008526244200766087], [-0.025425191968679428, 0.01009521633386612, 0.014574811793863773, -0.028812846168875694, 0.017332062125205994, 0.12039799988269806, 0.02686913311481476, -0.004391624126583338, -0.029799867421388626, 0.01677762344479561, -0.004764086101204157, -0.02000322937965393, 0.11776155233383179, -0.011734144762158394, 0.0057018524967134, -0.015041779726743698, -0.040032897144556046, -0.01345252525061369, -0.004858694970607758, 0.015520958229899406], [0.0759865939617157, 0.11289578676223755, -0.06502271443605423, 0.06534732133150101, -0.2703002095222473, -0.8179076313972473, -0.05738694593310356, 0.01091625913977623, 0.08342321962118149, -0.02835484966635704, 0.2639491558074951, 0.023329569026827812, -0.11223965138196945, 0.009346379898488522, 0.001010356703773141, -0.012065349146723747, 0.2422356903553009, -0.02977866493165493, -0.0005637893918901682, 0.01922736130654812], [-0.013760790228843689, 0.23637427389621735, -0.03217943012714386, 0.01745041087269783, -0.750463604927063, -0.6190888285636902, 0.21716094017028809, -0.00021551843383349478, -0.008093785494565964, 0.0405694916844368, 0.03223821520805359, 0.02027495577931404, 0.07099704444408417, -0.014494000002741814, 0.03937995806336403, -0.03982454538345337, 0.16743022203445435, -0.04095500335097313, -0.013923821039497852, -0.01199430413544178], [-0.004983259830623865, 0.01250956766307354, -0.004380908329039812, -0.004582587163895369, 0.004290118347853422, 0.013151834718883038, 0.014052510261535645, -0.0002948121400550008, 0.0016005237121134996, 0.010708610527217388, -0.0026840451173484325, -0.004378893878310919, 0.043565522879362106, -0.0008903627167455852, -0.0014997911639511585, -0.011613967828452587, -0.020824426785111427, -0.012312212958931923, -0.0010493160225450993, 0.010994026437401772], [0.01515259314328432, 0.07834243774414062, 0.00503577571362257, 0.0006261123926378787, 0.0038061668165028095, -0.5652888417243958, -0.9148600697517395, 0.00011443273979239166, 0.10183027386665344, -0.09899383038282394, 0.0015607350505888462, -0.02401660569012165, -0.9935773611068726, 0.012501776218414307, -0.01635594479739666, -0.08682733029127121, -0.27728161215782166, -0.08633707463741302, -0.0029974011704325676, 0.22079306840896606], [-0.05454542115330696, 0.22412310540676117, 0.45471298694610596, -0.11266601830720901, -0.30184653401374817, -1.4236689805984497, 0.5323610305786133, -0.012715604156255722, -0.06426973640918732, 0.08702164888381958, 0.1458524912595749, -0.11514279246330261, -0.3305805027484894, -0.07400733232498169, 0.13592658936977386, -0.11866889148950577, -0.322272390127182, -0.12395263463258743, -0.04523266479372978, 0.2736983299255371], [0.06007431820034981, -0.22530677914619446, 0.15449506044387817, 0.04130887612700462, 0.06542729586362839, 0.24108822643756866, -0.1685197651386261, 0.014033186249434948, 0.03233624994754791, -0.023284347727894783, -0.05918001011013985, 0.006871290039271116, -0.23055343329906464, 0.061399444937705994, -0.08477577567100525, -0.006732683163136244, -0.0696382001042366, -0.008900457993149757, 0.024025633931159973, 0.04381164163351059], [0.00026530399918556213, -0.0003274127666372806, -0.0001056663750205189, 6.537401532114018e-06, -0.0007911677821539342, 0.0013892294373363256, 2.0993222278775647e-05, 3.580997872631997e-05, 0.0005904132849536836, 0.0005115233361721039, -4.942129453411326e-05, -0.0001721354783512652, -0.002863331465050578, 0.0002308011899003759, -0.0003342237905599177, -0.0008379805949516594, -0.002446962520480156, -0.0008424548432230949, 1.306828016822692e-05, 0.0013162445975467563], [-0.06442072242498398, 0.13860395550727844, 0.04741058871150017, -0.06396263092756271, -0.3886341154575348, -0.295197993516922, 0.14855167269706726, -0.011870158836245537, -0.10485018789768219, 0.028519295156002045, 0.012670347467064857, -0.04354654997587204, -0.0013411452528089285, -0.037897542119026184, 0.04498821124434471, -0.03469917178153992, 0.09292612969875336, -0.025156540796160698, -0.02256140485405922, 0.008398942649364471], [0.017125241458415985, -0.0017930419417098165, 0.10924652218818665, -0.00932054128497839, -0.29872122406959534, 0.01808210089802742, -0.021397894248366356, -0.003332303836941719, 0.04700148105621338, 0.6283998489379883, -0.024226583540439606, -0.018931804224848747, 0.7356030344963074, -0.024642903357744217, 0.026585154235363007, -0.04037530720233917, 0.10657762736082077, -0.04939301684498787, -0.022886913269758224, 0.20100624859333038], [-0.0012837016256526113, 0.007970946840941906, 0.0014930086908861995, -0.0011715623550117016, -0.0024036546237766743, -0.002345795975998044, 0.004051432944834232, -0.0002375081821810454, -0.0012516233837231994, 0.002864271868020296, 0.18525920808315277, -0.0006735695642419159, 0.01972639560699463, -0.0012575427535921335, 0.001170232892036438, 0.0029851826839149, 0.11719617992639542, -0.0001475836179452017, -0.00048817755305208266, -0.0008667586371302605], [-0.01242253091186285, 0.03677968680858612, -0.023897649720311165, -0.003717703279107809, -0.008370094932615757, -0.027335410937666893, 0.03168659284710884, -0.0013010515831410885, -0.009354078210890293, 0.04206579551100731, 0.00225704163312912, 0.0070386892184615135, 0.10350117832422256, -0.0020325297955423594, 0.0030103090684860945, -0.0010007701348513365, 0.011501478962600231, 0.00015386886661872268, -0.0007286724867299199, -0.020803356543183327], [0.02437533624470234, -0.4682130515575409, -0.5043777227401733, 0.20043019950389862, 1.5575668811798096, 0.3012136220932007, 1.2258808612823486, 0.06265941262245178, -0.2783827781677246, 0.11386781185865402, -0.07308400422334671, 0.06975893676280975, 0.5337724089622498, 0.16618163883686066, -0.23441195487976074, -0.06336648017168045, -0.9408800005912781, -0.03265558183193207, 0.05475601926445961, -0.08494599163532257], [0.006065597757697105, -0.0031585029792040586, -0.0011457910295575857, 0.003982436843216419, 0.006596528925001621, 0.002221974078565836, -0.004140764474868774, 0.0017751137493178248, 0.00939494464546442, 0.00600502360612154, -0.0005350864958018064, 0.0006567621603608131, -0.019308824092149734, 0.004687583539634943, -0.0070833745412528515, -0.006047552451491356, -0.020930957049131393, -0.006983631756156683, 0.0009656766196712852, 0.01088549941778183], [0.010128102265298367, -0.012188064865767956, 0.00013494878658093512, 0.007429160177707672, 0.008144690655171871, -0.0010702547151595354, 0.00704104732722044, 0.002795398933812976, 0.013009618036448956, 0.005700747016817331, -0.001046143239364028, 0.0010739363497123122, 0.029090644791722298, 0.007721826434135437, -0.011060374788939953, -0.011305934749543667, -0.03721665218472481, -0.012051600031554699, 0.001469501992687583, 0.017661428079009056], [0.0028846869245171547, 0.0010437063174322248, 0.005134025122970343, 0.00034892093390226364, -0.0002604249457363039, 0.01349007710814476, 0.012008164077997208, 2.075071279250551e-05, 0.006648390553891659, 0.004486893769353628, 0.005678651854395866, 0.0004237235989421606, 0.11404235661029816, -0.0011985324090346694, 0.0018883649026975036, 0.005135643761605024, 0.03363721817731857, 0.005119225941598415, -7.312528759939596e-05, -0.0017385237151756883], [0.11448851972818375, 0.04224260523915291, 0.19128496944904327, 0.006038705352693796, -0.5979790687561035, -0.21772079169750214, -0.6231894493103027, -0.0010482374345883727, 0.2104957401752472, 0.01896587200462818, -0.06019756942987442, 0.00796806626021862, -0.8290730714797974, -0.0160102229565382, 0.02278014086186886, -0.02367098443210125, 0.6802138686180115, -0.02619670145213604, -0.00575044983997941, 0.28913983702659607], [0.00045863224659115076, 0.007699834648519754, 0.012914316728711128, -0.0014076458755880594, -0.003300714073702693, 0.00473953690379858, -0.004719406832009554, -0.0005724021466448903, 0.0008442939724773169, 0.0012527558719739318, 0.0006860540015622973, -0.00027410415350459516, 0.12188736349344254, -0.0036488084588199854, 0.005119738169014454, 0.006501808296889067, 0.050039295107126236, 0.007653791457414627, -0.0005411486490629613, -0.002164436737075448], [0.0007712668739259243, 0.0003154460864607245, 0.00042001352994702756, 0.0003898507566191256, 0.0013900400372222066, -0.00011216950952075422, 0.004233917221426964, 0.00022851901303511113, 0.0009043849422596395, 0.00048682797932997346, -5.12810074724257e-05, -3.887022103299387e-05, 0.001710814074613154, 0.0005962186260148883, -0.0008482056437060237, -0.0010415331926196814, -0.0036873379722237587, -0.0010712824296206236, 0.00440644845366478, 0.0017195745604112744], [0.03099948912858963, 0.039110660552978516, -0.12969790399074554, 0.0528242327272892, -0.10897980630397797, -0.25453707575798035, 0.04764791205525398, 0.010460267774760723, 0.07913453131914139, 0.01448033843189478, 0.008936803787946701, 0.03970396891236305, 0.3824314773082733, 0.03139698877930641, -0.026995988562703133, -0.017580214887857437, -0.08396826684474945, -0.02222703956067562, 0.009671672247350216, -0.0676133781671524]], "rec.bias_ih_l0": [-0.3494580090045929, -0.10198558121919632, -0.2849259078502655, -0.18508626520633698, 0.5079288482666016, -1.6294866800308228, -0.3022173047065735, -0.04077896103262901, -0.37119051814079285, -1.4933054447174072, -0.10311833769083023, -0.44847726821899414, -1.2924141883850098, -0.09077345579862595, -0.13565947115421295, -0.42571699619293213, 0.1969182938337326, -0.4453856945037842, -0.21970346570014954, -0.1123255267739296, -0.07751914858818054, 0.027236169204115868, -0.06919921189546585, -0.1453532576560974, -0.8322191834449768, 2.28513765335083, -0.002973458729684353, -0.01793711446225643, -0.24897216260433197, 0.7746762633323669, -0.16637606918811798, -0.06895709782838821, 2.084482192993164, -0.0399203784763813, 0.04826340079307556, -0.16106899082660675, -0.4142564833164215, -0.16759224236011505, -0.08519227802753448, -0.17346902191638947, 0.010805075988173485, -0.1537962406873703, 0.12403497844934464, 0.07907861471176147, -0.1238102838397026, 0.03905307501554489, -0.017301857471466064, -0.057385142892599106, 0.18279367685317993, 0.36455443501472473, 0.07149248570203781, -0.1841455101966858, -0.22755856812000275, -0.03261242434382439, -0.038582589477300644, -0.36448192596435547, -0.42567557096481323, -0.30568039417266846, -0.012938997708261013, 0.20435908436775208, -0.17970521748065948, -0.5593377947807312, 0.3042035698890686, -0.05282583087682724, 0.5392661094665527, -0.17094340920448303, -0.22543232142925262, -0.031022028997540474, -0.23161381483078003, -0.3530542254447937, -0.6538293361663818, -0.1978071928024292, 0.09185586124658585, -0.0410347618162632, -0.13008113205432892, -0.29598018527030945, -0.06096310541033745, -0.4423651695251465, -0.17091581225395203, -0.09013194590806961], "rec.bias_hh_l0": [-0.37558838725090027, 0.03243076428771019, -0.39650046825408936, -0.20106206834316254, 0.51527339220047, -1.6976643800735474, -0.2755735218524933, -0.041746363043785095, -0.36627545952796936, -1.5434454679489136, -0.11172724515199661, -0.3677680492401123, -1.393207311630249, -0.10345689952373505, -0.13754726946353912, -0.43046194314956665, 0.1649765968322754, -0.4099200963973999, -0.21236562728881836, -0.09425502270460129, -0.10208256542682648, 0.10297822207212448, -0.12049838900566101, -0.12483951449394226, -0.8256420493125916, 2.4100866317749023, 0.03499934822320938, -0.021110374480485916, -0.2143418788909912, 0.7600401639938354, -0.15673695504665375, -0.11579445749521255, 2.1620888710021973, -0.020826369524002075, 0.04826192185282707, -0.1349872201681137, -0.38787516951560974, -0.20590655505657196, -0.07790020853281021, -0.16100957989692688, 0.07219436019659042, -0.0979461744427681, 0.023064306005835533, -0.06171821802854538, -0.060125432908535004, 0.231445774435997, 0.0889195129275322, 0.02314665913581848, 0.1905611753463745, 0.22893409430980682, -0.09819287061691284, 0.10193616896867752, -0.2438429594039917, -0.07058552652597427, 0.09881444275379181, -0.22279517352581024, -0.273929625749588, -0.4617912173271179, -0.0781245157122612, 0.26001617312431335, -0.1588101089000702, -0.5612195134162903, 0.19864241778850555, -0.050348371267318726, 0.5490018129348755, -0.295413076877594, -0.2303345650434494, -0.030662715435028076, -0.21214579045772552, -0.3271642029285431, -0.6372448205947876, -0.2813798785209656, 0.014876097440719604, -0.056748099625110626, -0.12455209344625473, -0.32102811336517334, -0.08672565221786499, -0.38936978578567505, -0.1852625608444214, -0.11289991438388824], "lin.weight": [[-0.21144385635852814, 0.4046391248703003, 0.6514655947685242, -0.12631924450397491, -0.5491390228271484, -0.054654039442539215, -0.4150387942790985, -0.011904124170541763, -0.3833603858947754, -0.22457164525985718, 0.050015393644571304, -0.22102022171020508, -0.3274003565311432, -0.03224515542387962, 0.01131231989711523, -0.020001832395792007, 0.30326589941978455, -0.02424979954957962, -0.02170693874359131, 0.28239765763282776]], "lin.bias": [-0.0013438009191304445]}}