{"model_data": {"model": "SimpleRNN", "input_size": 1, "skip": 1, "output_size": 1, "unit_type": "GRU", "num_layers": 1, "hidden_size": 20, "bias_fl": true}, "state_dict": {"rec.weight_ih_l0": [[1.6775892972946167], [1.8290743827819824], [0.021817943081259727], [-1.6721162796020508], [-1.4724124670028687], [0.6661475300788879], [-0.2165026217699051], [-1.257840871810913], [-0.5650770664215088], [1.322885274887085], [-0.5641748905181885], [-1.5701110363006592], [-0.3013709485530853], [-2.6472270488739014], [-0.3399963676929474], [0.8848593831062317], [-1.5913755893707275], [-1.6301685571670532], [-1.903342843055725], [1.383005142211914], [-0.8243171572685242], [-0.466277152299881], [0.17510099709033966], [2.0067617893218994], [0.8905879855155945], [0.5340456962585449], [-0.14531055092811584], [2.7144837379455566], [-1.552229881286621], [0.3440743386745453], [2.170830249786377], [-1.6944749355316162], [0.3881869316101074], [-0.6508459448814392], [-0.3284728527069092], [1.8198790550231934], [-0.3067244589328766], [-0.3757750391960144], [-0.3926149904727936], [-0.6378464102745056], [0.5966122150421143], [0.6187679767608643], [-1.0167460441589355], [0.2232235074043274], [0.5691819787025452], [1.1367683410644531], [-0.47608575224876404], [0.44585034251213074], [1.2009750604629517], [1.9667102098464966], [-0.6946542859077454], [0.0027011437341570854], [-1.6293349266052246], [-0.13787291944026947], [-1.3229408264160156], [-0.58122718334198], [0.9160328507423401], [-0.7514016628265381], [-0.6629886031150818], [1.0135776996612549]], "rec.weight_hh_l0": [[-1.0540212392807007, -0.1737642139196396, -1.6496909856796265, -0.519869863986969, 0.6252028346061707, 0.024344846606254578, -0.34890785813331604, -0.3426596522331238, 0.25902920961380005, 5.8081841468811035, 0.11978714913129807, -1.0951167345046997, 0.41559651494026184, 1.381035327911377, 0.3036095201969147, 0.003022001823410392, 3.9053375720977783, -0.48680511116981506, -0.7780927419662476, 0.15073221921920776], [0.031602732837200165, -0.4862229526042938, -0.5358659029006958, -0.35345324873924255, 0.5532888174057007, -0.1592268943786621, 0.031010659411549568, -0.493343710899353, -0.18821458518505096, 0.3433212339878082, 0.036937594413757324, -0.727219820022583, 0.21170227229595184, 0.10317861288785934, -0.5998198986053467, -0.08652771264314651, -0.11459410935640335, 0.1985565572977066, -0.37479594349861145, -0.22571559250354767], [0.2760410010814667, 0.002333421492949128, -0.12175165116786957, -0.1110345646739006, 0.11448477953672409, 0.25360652804374695, -0.7102678418159485, -0.08998563140630722, 0.05809883028268814, -0.49700698256492615, 0.9357889294624329, -0.21733669936656952, 0.16508403420448303, 0.7565776705741882, -0.883929967880249, -0.839261531829834, -0.5359281897544861, -0.3579484522342682, -0.04140019789338112, -0.18912498652935028], [-1.0993080139160156, -1.945412039756775, -0.11798004806041718, -0.3620727062225342, 0.6064828634262085, -1.2171539068222046, 0.44809451699256897, -0.44005081057548523, -0.2903826832771301, -1.3484675884246826, 1.196723222732544, 0.5085055828094482, 2.052229404449463, 0.5798762440681458, 0.5583686232566833, -0.629035234451294, -1.8492085933685303, -1.1655000448226929, -0.6045916676521301, -1.5645976066589355], [0.17715774476528168, -0.010766034945845604, 0.25802141427993774, -0.16509783267974854, 0.07938884198665619, -0.10349880158901215, -0.1902259886264801, -0.348314106464386, -0.6682311296463013, -1.2403939962387085, 0.6567898392677307, 0.3129115700721741, -0.12010417133569717, -0.025441160425543785, 0.642989993095398, -0.25449302792549133, -0.6831138134002686, -0.0713978037238121, 0.17640003561973572, 0.0862477570772171], [-0.5360836386680603, -0.14026477932929993, -0.3630882203578949, -0.5524684190750122, 0.5276413559913635, -0.3909139633178711, 0.03356948494911194, -0.3508773148059845, 0.0039678611792624, -0.7845048904418945, 0.17910940945148468, 0.26535236835479736, -0.013261600397527218, -0.24252364039421082, 0.26600921154022217, 0.1904953122138977, 0.7338790893554688, 0.16529566049575806, -0.4471665024757385, -0.08601132780313492], [0.3828434944152832, -0.2532336413860321, -0.04513935744762421, 0.20604802668094635, -0.2742612957954407, 0.32499635219573975, -1.1507973670959473, 0.03809799626469612, 0.268282413482666, -0.4325215816497803, 0.16328921914100647, 0.11493313312530518, -0.3416932225227356, 0.20680494606494904, -0.9609094262123108, 0.010619515553116798, -0.4137111008167267, 0.24433040618896484, -0.36480918526649475, 0.3222844898700714], [-0.19048143923282623, -0.03885752707719803, -0.045611001551151276, -0.24635368585586548, -0.22407950460910797, -0.009326528757810593, -0.4724195599555969, -0.40271350741386414, -0.3056126832962036, -0.1498037576675415, 0.673069179058075, -0.45627573132514954, 0.1894376128911972, 0.8348719477653503, 0.5488225817680359, -0.2840169370174408, -0.29891911149024963, 0.3309383988380432, -0.03627412021160126, -0.02304168976843357], [2.002420425415039, 1.4307070970535278, -0.3803096115589142, -0.27280503511428833, 0.3194771409034729, -0.24790112674236298, -0.08115329593420029, 0.6928675770759583, -0.1490919440984726, -0.7105546593666077, -0.6981173753738403, -0.433163583278656, -0.19011515378952026, 0.15309040248394012, -1.4892401695251465, -0.8360776901245117, -0.27869051694869995, 1.869080901145935, -0.34526607394218445, -0.21113340556621552], [-0.8664475083351135, 0.020784052088856697, 0.27951738238334656, 0.3979374170303345, -0.017407897859811783, -0.3265947699546814, -0.5896099209785461, 0.05254548788070679, 0.6933609247207642, -0.248383566737175, 0.0700729563832283, 0.7173377275466919, 0.06910017132759094, -0.12633590400218964, 0.05631636083126068, -0.013085521757602692, -0.2409711480140686, -0.8898917436599731, -0.3580746352672577, 0.005033994093537331], [-0.42307600378990173, -0.10593006759881973, -0.4598286747932434, -0.20948128402233124, 0.09143956005573273, 0.4618021547794342, -0.0219817366451025, -0.15365049242973328, 1.17649245262146, 0.3603980839252472, -0.40216127038002014, 0.045576877892017365, -0.3524833619594574, -0.029051918536424637, -0.31070876121520996, 0.3148973286151886, 2.3020684719085693, 0.1927720457315445, -0.41588717699050903, -0.30030718445777893], [-0.04477681964635849, -0.7052441239356995, 0.042245443910360336, -0.05410786718130112, -0.2571549713611603, -0.7534140348434448, -0.10342324525117874, 0.011107873171567917, 0.05191450193524361, -1.1086554527282715, 0.736564040184021, -0.24375849962234497, 0.5979121923446655, 0.4919081926345825, 0.0028987163677811623, -0.4989621043205261, -0.21469168365001678, 0.06801126897335052, -0.4129115343093872, -0.4936968684196472], [-0.31336507201194763, -0.29633963108062744, 0.1273888349533081, -0.36147239804267883, 0.3220427334308624, -0.46471962332725525, 0.07773187756538391, -0.39177316427230835, -0.36314892768859863, -0.7173252701759338, 0.5521131157875061, 0.18175733089447021, 0.5165247917175293, -0.10030718147754669, 0.07892181724309921, 0.03280028700828552, -0.1275211125612259, 0.42706480622291565, -0.25465765595436096, -0.30836498737335205], [0.8762397170066833, -0.22644248604774475, 0.6282210350036621, 0.2246672660112381, -0.2756213843822479, 0.10030331462621689, -0.011867525056004524, 1.2261433601379395, 0.7178188562393188, -0.957170844078064, 0.49962788820266724, 0.04490787908434868, 0.643034815788269, 0.5383700132369995, -1.9936801195144653, -0.6420625448226929, -0.42765605449676514, -0.4719892740249634, -0.4555310010910034, 0.00404183566570282], [-1.1331603527069092, -0.10521089285612106, 1.0130720138549805, -0.5884982943534851, -0.27179625630378723, -0.6523158550262451, -0.21106970310211182, 0.2935338616371155, 0.38914886116981506, -0.51693195104599, 0.14091667532920837, -0.7952800989151001, 0.42263832688331604, -0.4902353286743164, -0.12391778826713562, 0.3403598964214325, 0.6119467616081238, -0.6052200198173523, -0.4684320390224457, -0.14215996861457825], [1.9325045286677778e-05, 0.6582780480384827, -0.6725146770477295, -0.13582994043827057, 0.5274711847305298, 0.26371875405311584, 0.22407862544059753, 0.7714483141899109, -0.2787097096443176, -0.687411904335022, -0.4608014225959778, 0.7136954069137573, -0.4960717558860779, -0.9523581266403198, 0.7289329171180725, 0.2297372967004776, -0.18762831389904022, -1.1012064218521118, -0.3961864113807678, -0.43077102303504944], [-0.7779451012611389, -1.2732679843902588, 1.0719605684280396, -0.2725580036640167, -0.03261721879243851, -0.8343110680580139, 0.6525494456291199, -0.2862061858177185, -0.37772631645202637, -0.43491819500923157, -0.2983338534832001, 1.1263309717178345, 1.284990668296814, -1.9383872747421265, 0.41696083545684814, 0.19640113413333893, -1.9972968101501465, -1.0810705423355103, 0.289689838886261, -1.2511972188949585], [-0.6089205741882324, -2.211648941040039, 0.059920694679021835, -0.4980020225048065, 0.5899896621704102, -0.6748121380805969, 0.052365269511938095, -0.6282011866569519, -0.45009347796440125, -1.5053019523620605, 0.3694910407066345, 0.874298095703125, 0.7071577906608582, -0.49774715304374695, 1.520906686782837, 0.19760610163211823, -2.154252529144287, -0.8174411654472351, -0.2903958559036255, -0.7705584168434143], [-0.4346352517604828, -0.21654094755649567, -0.12824231386184692, 0.09910281747579575, -0.13076701760292053, -0.15989942848682404, -0.09383203089237213, -0.25680673122406006, -0.463076651096344, -0.6907408833503723, 0.666442334651947, -0.10257876664400101, -0.13348329067230225, 0.47558310627937317, 0.3455131947994232, -0.457015722990036, -0.188968688249588, 0.028413712978363037, -0.3128769099712372, -0.15768301486968994], [-0.30496490001678467, -0.4403667747974396, -0.325830340385437, -0.36109766364097595, 0.2907145023345947, -0.44374391436576843, 0.25988104939460754, -0.254684180021286, -0.07281908392906189, -0.7410218119621277, -0.28394851088523865, -0.34730127453804016, 0.31745269894599915, -0.5740517973899841, 0.4464662969112396, 0.1705642193555832, 0.762620210647583, 0.49584734439849854, -0.3803854286670685, -0.4645214378833771], [0.5243380069732666, -9.082806587219238, 3.8741378784179688, -9.65475082397461, 8.370197296142578, -1.651501178741455, -0.5758573412895203, 3.6332809925079346, -1.380475640296936, -7.177553176879883, 1.9902241230010986, 4.178561687469482, 10.479771614074707, -0.881770133972168, -0.10840483009815216, 2.4241251945495605, 0.7044661045074463, -1.2542043924331665, -3.1007533073425293, -1.2972111701965332], [2.1192636489868164, 1.5922681093215942, 1.569936990737915, 0.19183941185474396, -0.7796061635017395, -1.0526849031448364, 1.9219692945480347, -0.7801133990287781, -1.8647822141647339, 1.6668435335159302, 0.7258970737457275, -1.3017964363098145, -2.1366913318634033, -0.6971105337142944, 3.406808853149414, -0.9066157937049866, 1.502624273300171, 0.9557032585144043, 1.4443905353546143, -1.7060726881027222], [2.955554246902466, 1.7872589826583862, 2.076721429824829, -0.2426213026046753, -1.0068269968032837, -2.2504374980926514, 0.7071079015731812, 1.465002179145813, 0.7664651274681091, 0.288278728723526, -1.3345280885696411, -2.158036708831787, 0.1403673142194748, -1.7662568092346191, 0.4156569242477417, 1.815171241760254, 0.635062038898468, 2.08194637298584, 1.1825357675552368, 0.18007807433605194], [-0.6121635437011719, 2.8371670246124268, -0.013494039885699749, -3.5853090286254883, 0.2238495945930481, 0.008548740297555923, 1.1627137660980225, -0.9440624713897705, 0.6181917190551758, 2.5988001823425293, -2.965285539627075, -1.7691460847854614, 1.9349812269210815, -1.3696043491363525, 2.36268949508667, -0.8259508013725281, 0.802912712097168, 1.156569004058838, 1.5040124654769897, -0.6779437065124512], [0.3061271607875824, 0.09451214969158173, -2.564422845840454, -1.406386137008667, -0.33842816948890686, 1.2283810377120972, -1.1941934823989868, -1.462308406829834, 6.150527477264404, 4.641441345214844, -0.319172203540802, -3.4790210723876953, -1.0554996728897095, 0.5932806730270386, -2.6176257133483887, -0.07661052793264389, 3.853370428085327, 2.0254056453704834, -2.131105422973633, 4.001864910125732], [-0.45451825857162476, 0.35927602648735046, 0.013835059478878975, -0.5395070314407349, -0.9173527359962463, -2.8426597118377686, 0.8952727317810059, 0.0937860980629921, 0.7698743939399719, 1.4942213296890259, -1.0959429740905762, -0.8287242650985718, 2.613804340362549, 0.17657451331615448, 0.5301012992858887, 0.4976513981819153, 1.8530220985412598, 1.6359816789627075, 2.136713743209839, -0.18087323009967804], [-0.8348764777183533, -1.4116511344909668, 2.4674036502838135, 1.7482895851135254, 3.936446189880371, 0.23374657332897186, -0.4617486000061035, 2.8917832374572754, -0.09780511260032654, -5.010750770568848, 1.7263129949569702, 4.413939476013184, 0.975838840007782, 0.10715979337692261, 3.5034701824188232, 1.0764294862747192, -3.1666553020477295, -6.163305282592773, 0.18629874289035797, -0.7994500994682312], [-1.2679938077926636, -1.0300319194793701, -0.4400443136692047, 1.49871826171875, 2.5463430881500244, -0.19646601378917694, -1.986586093902588, -1.1814991235733032, -1.1975902318954468, 0.7523027658462524, 2.1843600273132324, -0.03725259006023407, -1.1982203722000122, 1.4785040616989136, -0.2531602382659912, -3.7054269313812256, 0.8721132278442383, 0.18130142986774445, -2.6461410522460938, 2.7932560443878174], [1.7072813510894775, -0.3355311155319214, 1.1946240663528442, -0.16700874269008636, -7.922748565673828, -3.003452777862549, -0.724622368812561, -1.4109563827514648, 0.3993384838104248, -0.6747081875801086, -1.9140148162841797, 0.09062565118074417, 0.7152884602546692, -2.5446410179138184, -1.6383423805236816, 0.7890878915786743, -0.08386970311403275, 0.5529670715332031, 3.057183027267456, -0.0735338032245636], [0.657538115978241, 0.6265246272087097, -0.3876588046550751, -0.1684156358242035, -0.30677950382232666, -1.2724518775939941, 1.2809734344482422, -0.1888398379087448, 1.8350496292114258, -1.2622796297073364, -1.5063315629959106, -0.954741358757019, 2.0108470916748047, -2.7335479259490967, 0.19827736914157867, 0.9941779375076294, -0.920109212398529, -0.028091976419091225, 0.9780377745628357, -0.29050010442733765], [0.1397339552640915, 3.805731773376465, 0.17355816066265106, -0.5465894937515259, -1.2750592231750488, -1.9391893148422241, 0.5281739234924316, 0.27403905987739563, -0.6114316582679749, -2.195573568344116, -1.5005630254745483, -1.0573574304580688, 1.2442740201950073, 2.1135876178741455, -0.9176741242408752, -1.4643511772155762, -1.3504185676574707, 1.2858937978744507, 2.8364927768707275, -2.2836296558380127], [-3.117288589477539, 1.052550196647644, -0.16192306578159332, -3.033111333847046, -2.367306709289551, 0.5468131303787231, 1.587390422821045, -1.0965971946716309, -1.5264102220535278, 4.681057929992676, 1.8227571249008179, -1.9505712985992432, -1.546288013458252, -0.35465747117996216, 0.9353289008140564, -0.14803200960159302, 4.133151054382324, 1.3283973932266235, 3.2439956665039062, -1.3726692199707031], [-0.745167076587677, 2.1674907207489014, -0.40133535861968994, -0.9982117414474487, -1.3996021747589111, -3.162402391433716, 0.9209577441215515, 0.6121096014976501, -0.38786637783050537, 1.5218119621276855, -0.8593896627426147, -1.3205293416976929, 0.8286392688751221, 0.4695698320865631, 1.3660202026367188, -0.13340435922145844, 0.1832154393196106, 0.8597506880760193, 2.7838666439056396, -1.3343051671981812], [-0.49351951479911804, 1.794632911682129, 0.42916983366012573, 0.2734169661998749, 1.810817003250122, -0.2039504498243332, 2.1150763034820557, 2.6944332122802734, -4.3333516120910645, -3.280179738998413, 2.3387792110443115, 1.836102843284607, 0.2949984669685364, -0.7676973342895508, 1.1589431762695312, -4.009553909301758, -1.3226429224014282, -3.600189208984375, 2.053412437438965, -3.7181057929992676], [1.3646659851074219, -3.077090263366699, 1.842361569404602, 2.323472499847412, -0.7932783365249634, 0.38005930185317993, -0.945181667804718, 1.8434405326843262, -0.5093767046928406, -3.2083873748779297, 3.243283987045288, 2.9006996154785156, -0.4223617911338806, 1.1873247623443604, 1.7521679401397705, -0.39922118186950684, -3.9363558292388916, -2.063370943069458, 0.1214933916926384, 0.0050207399763166904], [-1.1741758584976196, -6.884829044342041, 1.0119479894638062, -1.4998008012771606, 7.56803035736084, 0.614332914352417, -1.608267068862915, 1.6873202323913574, -2.258730411529541, 0.7174782752990723, 2.152984857559204, 0.4954817295074463, 0.9076923131942749, 4.6088032722473145, 0.6668851971626282, 0.11947768926620483, -1.804667353630066, -3.534240245819092, -1.3010282516479492, 1.2241225242614746], [1.2342796325683594, 1.2546924352645874, -0.26056376099586487, -0.8625595569610596, -0.7578369379043579, -0.20884957909584045, 0.8700393438339233, 0.21551506221294403, -0.1392086297273636, 3.820009231567383, -0.978476881980896, -1.500993013381958, 0.8413597941398621, 0.7206117510795593, 1.1969006061553955, -0.04891568049788475, 1.4483107328414917, 0.7814974784851074, 1.702218770980835, -0.5576886534690857], [1.0868360996246338, -1.5228937864303589, 0.32504481077194214, 2.14247989654541, 0.30327463150024414, 1.5111744403839111, -0.8772892355918884, 1.8495784997940063, -0.8097021579742432, -2.0814502239227295, 0.37007763981819153, 0.7389084696769714, -1.4342775344848633, 1.1937121152877808, 1.8988327980041504, -1.4827996492385864, -1.7906874418258667, -1.609950304031372, 0.40601682662963867, -1.0068490505218506], [-0.45877978205680847, 0.6018247604370117, 2.6599972248077393, -1.0943619012832642, 3.429110050201416, -0.8844737410545349, 0.1630198359489441, -2.267329692840576, 2.207568645477295, 2.486809730529785, -0.9264625310897827, 0.020079586654901505, -0.1864129900932312, -2.4042844772338867, -3.3109452724456787, 2.0860068798065186, -0.329708993434906, 2.1220016479492188, -0.25897809863090515, 1.6969479322433472], [1.3620656728744507, -2.489875555038452, 4.704080104827881, 1.1641943454742432, 1.8010364770889282, 0.33812516927719116, -0.5963158011436462, 2.6301779747009277, -2.509449005126953, -3.0289697647094727, 2.8848354816436768, 4.472350120544434, 0.7766604423522949, -0.025635523721575737, 3.4772965908050537, -0.8404245972633362, -3.5021045207977295, -5.725454807281494, 2.101724147796631, -1.2444652318954468], [0.29206812381744385, -0.44163778424263, -0.10264384001493454, -0.13001322746276855, 0.2265889048576355, -0.14933383464813232, 0.5201573967933655, -0.2868964970111847, -0.8777561187744141, -2.2212562561035156, 0.34668657183647156, -0.1664297878742218, 0.25334101915359497, -0.47147563099861145, 0.8221309781074524, 0.6880295276641846, -0.062326591461896896, 0.6907423734664917, 0.003414617385715246, -0.8085477352142334], [-0.2565988302230835, -0.23526130616664886, 0.0227414108812809, 0.019311467185616493, 0.3785332143306732, -0.17726904153823853, 0.35053834319114685, -0.3665807545185089, -0.2794806957244873, -0.2643927037715912, -0.3588775098323822, 0.15063871443271637, 0.04400337487459183, -0.33304542303085327, 0.38254112005233765, 0.5846242904663086, 0.048693619668483734, 0.6411287188529968, -0.1334526687860489, -0.32366514205932617], [0.14964702725410461, -0.03797958418726921, -0.2744646966457367, 0.045190274715423584, 0.03239178657531738, 0.2841712236404419, -0.5352697372436523, 0.053265731781721115, 0.13207946717739105, -0.10132593661546707, 0.2861579656600952, -0.1458047479391098, -0.2060132920742035, 0.34019744396209717, -0.3792107403278351, -0.35995787382125854, -0.37730374932289124, -0.020180676132440567, -0.05696338787674904, 0.19597837328910828], [-0.6292462944984436, -0.3693466782569885, 0.0357501357793808, 0.010097246617078781, 0.20908524096012115, -0.3883724808692932, 0.008684877306222916, -0.453207790851593, -0.6815029382705688, -0.455034077167511, 0.4196672737598419, -0.13827012479305267, -0.3331718146800995, 0.13358066976070404, 0.3904202878475189, -0.30558910965919495, -0.08081424981355667, 0.4470005929470062, -0.20576050877571106, -0.5174346566200256], [-0.41021084785461426, -0.2777327001094818, 0.0038415403105318546, 0.28605470061302185, -0.21052275598049164, -0.5046101808547974, 0.7749820947647095, 0.2292805314064026, 0.23337219655513763, 0.018280988559126854, -0.3157133460044861, 0.2014055848121643, 0.38706347346305847, -0.8485226631164551, 0.47922083735466003, 0.42307108640670776, 0.22770598530769348, 0.14695443212985992, 0.3337728679180145, -0.3194904625415802], [-0.30884531140327454, 0.007282136939466, -0.3293803334236145, -0.08032690733671188, 0.40704360604286194, -0.23441095650196075, -0.02106683887541294, -0.12893010675907135, -0.15484268963336945, 0.5622254610061646, -0.08048120141029358, 0.22774304449558258, -0.043355803936719894, -0.24170945584774017, 0.28593698143959045, 0.3210914731025696, 0.12842857837677002, -0.026276642456650734, -0.10726198554039001, -0.21787960827350616], [0.05381595715880394, 0.27384230494499207, -0.02703513391315937, 0.31239619851112366, -0.17674855887889862, 0.12048136442899704, -0.42800867557525635, 0.07207218557596207, 0.16188780963420868, -0.33494600653648376, 0.3107038736343384, 0.4465038478374481, -0.16707053780555725, 0.0879068374633789, -0.5660117268562317, -0.011841565370559692, -0.4947225749492645, -0.33954280614852905, 0.10845816880464554, 0.2919050455093384], [-0.011270617134869099, 0.41874340176582336, -0.07045189291238785, -0.30493777990341187, -0.051189761608839035, 0.22024349868297577, -0.3174833059310913, -0.16401182115077972, -0.6589077115058899, -0.24180462956428528, 0.989998996257782, -0.10347741842269897, -0.09164593368768692, 0.28375107049942017, -0.7927462458610535, -0.6902316808700562, -0.45909228920936584, -0.020212272182106972, -0.10114535689353943, -0.015067867003381252], [-0.06921081244945526, -0.18042093515396118, -0.09653875231742859, -0.067144975066185, 0.05501430481672287, -0.293967068195343, -0.3756491243839264, 0.03409701958298683, -0.9598736763000488, -0.9691965579986572, 1.1634387969970703, 0.20619194209575653, 0.21728649735450745, 0.6195573806762695, 0.5539845824241638, -0.7317309379577637, -0.6540622711181641, -0.3815959095954895, -0.25975802540779114, -0.1814405620098114], [0.9471747875213623, 0.05288459733128548, 0.3516116142272949, -0.3912894129753113, -0.22438150644302368, 0.13481876254081726, -0.5238389372825623, 0.5929407477378845, 0.2556815445423126, 0.04849127680063248, 0.32303178310394287, 0.16577407717704773, -0.16472530364990234, 0.0857941210269928, -0.5354248881340027, -0.4548920691013336, 0.06370416283607483, -0.4225790798664093, 0.19009019434452057, 0.4019771218299866], [-0.17146998643875122, -0.11459358036518097, -0.34854409098625183, -0.4320307970046997, 0.246257483959198, -0.29716768860816956, 0.3005697429180145, -0.716307520866394, -0.23759561777114868, 0.030702706426382065, -0.2546617090702057, -0.6398137211799622, 0.525336503982544, 0.05165329948067665, -0.043990518897771835, 0.2768438756465912, 0.6709663271903992, 0.7994307279586792, -0.30028480291366577, -0.29242584109306335], [-0.09622301906347275, -0.05111970752477646, -0.0412883423268795, -0.1963592916727066, -0.05315621197223663, -0.7874893546104431, 0.028713878244161606, -0.05132667347788811, -0.3437855541706085, -0.6578287482261658, 0.21781958639621735, -0.4303536117076874, 0.38948220014572144, 0.04980400204658508, -0.011915227398276329, -0.576413631439209, -0.6410573124885559, -0.03434925898909569, -0.4003365635871887, -0.05376875028014183], [0.15574197471141815, 0.3374576270580292, 0.24622692167758942, 0.05316847190260887, -0.3500908613204956, 0.18817554414272308, -0.3023914396762848, 0.23341338336467743, 0.5378764867782593, 0.07869391143321991, -0.0510292574763298, -0.04721226170659065, -0.23696982860565186, 0.19806049764156342, -0.1951594352722168, -0.3740105628967285, -0.09212008118629456, -0.13519428670406342, 0.38640421628952026, 0.15123321115970612], [-0.6302584409713745, -0.15616385638713837, -0.2619169056415558, -0.45838358998298645, 0.604718804359436, -0.015158344060182571, 0.12757301330566406, -0.4952695667743683, 0.2051466703414917, 0.8030529022216797, -0.5733219385147095, -0.652601957321167, 0.2627905607223511, -0.24488945305347443, 0.5911155939102173, 0.3580155670642853, 1.144057273864746, 0.08645333349704742, -0.2036103457212448, -0.02047353982925415], [-0.1430956870317459, -0.18260830640792847, 0.031497009098529816, -0.04966815188527107, -0.1490250676870346, -0.12079603224992752, -0.8825961947441101, 0.3320600688457489, 0.7730158567428589, 0.1666354537010193, 0.015028633177280426, 0.27656814455986023, -0.4634866416454315, 0.1620870679616928, -0.9821574091911316, 0.15800803899765015, 0.08141102641820908, -0.9897255897521973, 0.0035458984784781933, 0.9465242028236389], [-0.07650578022003174, -0.21896766126155853, 0.3007219135761261, 0.2387719750404358, 0.23019222915172577, 0.6722447276115417, -0.5133143663406372, 0.15331847965717316, 1.1617164611816406, -0.04640721157193184, -0.3984564244747162, 0.21394991874694824, -0.3528382182121277, -0.11620327830314636, -0.9811590313911438, -0.0556945763528347, -0.22036437690258026, -0.4140290915966034, -0.2495383471250534, 0.18438364565372467], [0.07869857549667358, 0.4379192292690277, 0.05329347401857376, 0.736919105052948, 0.0683751329779625, 0.6753152012825012, -0.2813762426376343, 0.5101850628852844, 0.5654646754264832, -0.16786184906959534, 0.1038270816206932, 0.7427585124969482, -1.0876179933547974, 0.7114976048469543, -0.2752540707588196, -0.8100180625915527, -0.019208792597055435, -0.702856183052063, -0.11888502538204193, 0.1371471881866455], [0.35626333951950073, 0.7656677961349487, 0.08677025139331818, 0.39504531025886536, -0.42731723189353943, 0.5207939147949219, -0.1397029459476471, 0.6809228658676147, 0.2134980410337448, 0.36877351999282837, 0.17620055377483368, -0.22626468539237976, -0.41670340299606323, 0.22410385310649872, -1.1124597787857056, 0.06413102895021439, 1.039780616760254, 0.16584987938404083, 0.07327943295240402, 0.7463807463645935], [-0.004021687898784876, 0.14014095067977905, -0.10821633040904999, -0.12310776114463806, -0.06338753551244736, 0.40655428171157837, -0.449270635843277, -0.020685724914073944, 0.20983657240867615, 0.16142886877059937, 0.029585517942905426, -0.36264288425445557, -0.35941293835639954, 0.6566136479377747, -0.27012667059898376, -0.22561544179916382, -0.3764444589614868, -0.46929270029067993, -0.35818108916282654, 0.214461088180542], [-0.03551890701055527, -0.2734838128089905, 0.05476709082722664, -0.5056412220001221, 0.16109611093997955, -0.5014292597770691, 0.41701361536979675, -0.20943911373615265, -0.4107946455478668, 0.4755131006240845, 0.07463230937719345, -0.20412033796310425, 0.13223567605018616, -0.20970234274864197, 0.5975743532180786, 0.39760056138038635, 0.0921902060508728, 0.5065301060676575, -0.021095378324389458, -0.21615315973758698]], "rec.bias_ih_l0": [-0.4716890752315521, 0.025162475183606148, -0.2521350383758545, -0.8128594756126404, -0.10643137991428375, -0.1659936010837555, -0.2597721815109253, -0.24928845465183258, -0.3138188123703003, -0.019790662452578545, -0.2438058853149414, -0.5331136584281921, -0.4200320243835449, 0.08673606067895889, -0.19750064611434937, -0.19034360349178314, -0.6282457709312439, -1.1335254907608032, -0.262630820274353, -0.24423491954803467, -0.812298595905304, 1.9360615015029907, 1.3737295866012573, 2.7624318599700928, 2.0006632804870605, 2.289252519607544, -1.1164761781692505, -0.1768922209739685, -1.1806408166885376, 2.6361136436462402, -1.2128392457962036, 1.9111943244934082, 2.1271984577178955, 0.04867325350642204, -2.3563148975372314, -1.0922247171401978, 2.856337070465088, -2.218079090118408, 1.6905626058578491, -1.6609864234924316, 0.039657287299633026, 0.1396723836660385, 0.13147830963134766, -0.040188439190387726, -0.017271533608436584, -0.1304273158311844, 0.004780151881277561, -0.0189607385545969, 0.023137420415878296, 0.018893228843808174, -0.22776731848716736, -0.2946356534957886, 0.2169659435749054, 0.0794471874833107, 0.021675478667020798, 0.14809298515319824, 0.07030142098665237, 0.12854574620723724, 0.177101731300354, -0.08875105530023575], "rec.bias_hh_l0": [-0.2967683672904968, -0.10355062782764435, -0.38317710161209106, -0.9889209270477295, -0.17916905879974365, -0.16627250611782074, -0.611754298210144, -0.25041744112968445, 0.12016548216342926, -0.09449146687984467, -0.20258213579654694, -0.573668897151947, -0.2502606511116028, 0.26975327730178833, 0.09730931371450424, -0.3581889569759369, -0.2580859363079071, -1.0807716846466064, -0.15949122607707977, -0.11604095250368118, -0.6454008221626282, 1.9496500492095947, 1.7205570936203003, 2.745258092880249, 1.8029513359069824, 2.0571069717407227, -1.3138328790664673, -0.10499648004770279, -1.308687448501587, 2.452639579772949, -1.2687562704086304, 1.8044849634170532, 2.1436421871185303, 0.010499995201826096, -2.6225686073303223, -0.9645214080810547, 3.136354446411133, -1.982669472694397, 1.7604320049285889, -1.5471950769424438, -0.021012214943766594, -0.008636191487312317, 0.06784689426422119, -0.3246490955352783, -0.15473629534244537, -0.23656345903873444, 0.32230597734451294, -0.04075520485639572, 0.1679334193468094, 0.15751497447490692, 0.013192777521908283, -0.15725712478160858, 0.22395849227905273, -0.10474465042352676, 0.23026947677135468, -0.12475483864545822, -0.08486805111169815, 0.3584290146827698, 0.2646867334842682, 0.06647122651338577], "lin.weight": [[0.16879090666770935, -0.05355207994580269, 0.11591873317956924, 0.16870038211345673, -0.03685164079070091, 0.07743153721094131, -0.14019718766212463, 0.04941067844629288, -0.20664283633232117, -0.1616693139076233, 0.2920941114425659, 0.14100617170333862, 0.020117931067943573, 0.21638670563697815, -0.12947441637516022, -0.15493300557136536, -0.19850051403045654, -0.15905354917049408, -0.017109008505940437, 0.10858645290136337]], "lin.bias": [0.08029422909021378]}}