{"model_data": {"model": "SimpleRNN", "input_size": 1, "skip": 1, "output_size": 1, "unit_type": "GRU", "num_layers": 1, "hidden_size": 20, "bias_fl": true}, "state_dict": {"rec.weight_ih_l0": [[1.6223368644714355], [1.944675326347351], [0.011711657047271729], [-1.816552758216858], [-1.486526608467102], [0.7033849358558655], [-0.23222926259040833], [-1.3145500421524048], [-0.4761810004711151], [1.2218661308288574], [-0.5207830667495728], [-1.5975887775421143], [-0.2648290693759918], [-2.570429563522339], [-0.18485629558563232], [0.8237209916114807], [-1.568153738975525], [-1.6355522871017456], [-1.9076921939849854], [1.502424716949463], [-0.6072214245796204], [-0.5192054510116577], [0.19186994433403015], [1.7333166599273682], [1.0057897567749023], [0.5250087976455688], [-0.25989261269569397], [2.675710678100586], [-1.3316824436187744], [0.3458206355571747], [2.208160877227783], [-1.5785090923309326], [0.35147589445114136], [-0.656282365322113], [-0.4276410937309265], [1.9273450374603271], [-0.3391462564468384], [-0.39451465010643005], [-0.15048232674598694], [-0.5980309247970581], [0.6127598285675049], [0.6174629926681519], [-1.0398085117340088], [0.2557397782802582], [0.5623393654823303], [1.127349853515625], [-0.47762569785118103], [0.396273672580719], [1.1793495416641235], [1.9312293529510498], [-0.6945013999938965], [0.094060018658638], [-1.5697184801101685], [-0.12497591972351074], [-1.226371169090271], [-0.5644543170928955], [0.9509945511817932], [-0.7427977323532104], [-0.6345518827438354], [0.9946236610412598]], "rec.weight_hh_l0": [[-1.0541292428970337, -0.18916170299053192, -1.7207361459732056, -0.33770790696144104, 0.5880014300346375, 0.11336366832256317, -0.3186461329460144, -0.40068569779396057, 0.15319989621639252, 5.917964935302734, 0.15604569017887115, -1.0250216722488403, 0.3415358364582062, 1.2887392044067383, 0.26857417821884155, -0.004036511294543743, 3.862701654434204, -0.4348788857460022, -0.7770218849182129, 0.09690733999013901], [0.03572135791182518, -0.4928407669067383, -0.5554458498954773, -0.3501037657260895, 0.5416750311851501, -0.14791418612003326, -0.0016083118971437216, -0.43932855129241943, -0.13304738700389862, 0.3387612998485565, 0.018538067117333412, -0.6668800115585327, 0.17773519456386566, 0.10612596571445465, -0.6347346305847168, -0.12100975215435028, -0.013379872776567936, 0.18528126180171967, -0.42940837144851685, -0.20506489276885986], [0.2599838078022003, -0.012670585885643959, -0.12481871247291565, -0.0917605608701706, 0.11588504165410995, 0.26079902052879333, -0.7116438150405884, -0.09010900557041168, 0.056496553122997284, -0.4988679885864258, 0.9549189805984497, -0.2024509757757187, 0.15361876785755157, 0.7696500420570374, -0.8810790181159973, -0.8405349850654602, -0.49258744716644287, -0.35089030861854553, -0.05054592713713646, -0.192373588681221], [-1.169943928718567, -1.8896759748458862, -0.08087608963251114, -0.23474763333797455, 0.5736665725708008, -1.1722631454467773, 0.5809630751609802, -0.4227217733860016, -0.3774069845676422, -1.379130482673645, 1.333335041999817, 0.4719292223453522, 1.9709012508392334, 0.5526958703994751, 0.5095509886741638, -0.4743819236755371, -1.7667566537857056, -0.9828014373779297, -0.5893454551696777, -1.6968309879302979], [0.17314192652702332, -0.0016892673447728157, 0.25703734159469604, -0.16273579001426697, 0.07259228825569153, -0.1009552925825119, -0.18093809485435486, -0.34432876110076904, -0.6775090098381042, -1.2389711141586304, 0.6652305722236633, 0.28240957856178284, -0.12069326639175415, -0.012591052800416946, 0.6437066197395325, -0.24696193635463715, -0.6697055697441101, -0.06383311748504639, 0.18317680060863495, 0.08316107094287872], [-0.5368609428405762, -0.13805517554283142, -0.3710165023803711, -0.5390427112579346, 0.533340573310852, -0.38199806213378906, 0.032675065100193024, -0.3382648229598999, -0.04894149303436279, -0.6902027726173401, 0.1561668962240219, 0.237740159034729, -0.019119491800665855, -0.2539237141609192, 0.24451430141925812, 0.1897985190153122, 0.6649042367935181, 0.1615942120552063, -0.44522589445114136, -0.08059825748205185], [0.29142996668815613, -0.23980090022087097, 0.00031361833680421114, 0.21466609835624695, -0.26309698820114136, 0.2440033257007599, -1.1031150817871094, 0.028733421117067337, 0.27443844079971313, -0.4594157338142395, 0.18667049705982208, 0.11641330271959305, -0.2671952545642853, 0.17386803030967712, -0.8542683124542236, -0.027172747999429703, -0.4537086486816406, 0.22205862402915955, -0.34954071044921875, 0.2816959619522095], [-0.15398664772510529, -0.044773004949092865, -0.037649668753147125, -0.29155847430229187, -0.20170454680919647, 0.008608917705714703, -0.4408268928527832, -0.42953088879585266, -0.33617928624153137, -0.17899559438228607, 0.6312258243560791, -0.4300844967365265, 0.12425176054239273, 0.7952765226364136, 0.5212829113006592, -0.3053692877292633, -0.3205074667930603, 0.333374559879303, -0.039608184248209, -0.04164012521505356], [2.076254367828369, 1.4329380989074707, -0.3342163562774658, -0.3790566325187683, 0.33155205845832825, -0.10896369814872742, -0.16050902009010315, 0.8000606298446655, -0.14740915596485138, -0.6686338186264038, -0.7500198483467102, -0.45522966980934143, -0.35108810663223267, 0.17084506154060364, -1.4899694919586182, -0.6950617432594299, -0.1658005714416504, 1.8703455924987793, -0.3522303104400635, -0.12119503319263458], [-0.8737707138061523, -0.0182015560567379, 0.2873082160949707, 0.290747731924057, -0.05119520053267479, -0.25863152742385864, -0.5852640867233276, 0.057450294494628906, 0.6454502940177917, -0.23002290725708008, 0.12026385217905045, 0.7454667687416077, 0.05985102429986, -0.1423075944185257, 0.06603604555130005, -0.043759312480688095, -0.25638991594314575, -0.8781879544258118, -0.33593156933784485, -0.0066982656717300415], [-0.4732331931591034, -0.0867767408490181, -0.5172290802001953, -0.08909629285335541, 0.14299793541431427, 0.44170570373535156, -0.040497008711099625, -0.2164900004863739, 1.1845552921295166, 0.40155309438705444, -0.4508618712425232, 0.023098118603229523, -0.3837871253490448, -0.041157081723213196, -0.3667008578777313, 0.22575733065605164, 2.2364141941070557, 0.16130582988262177, -0.44855910539627075, -0.2948564291000366], [-0.0652025043964386, -0.7130643725395203, 0.04060828685760498, -0.037698276340961456, -0.24845807254314423, -0.741165280342102, -0.07533827424049377, 0.009557467885315418, 0.044312234967947006, -1.0864144563674927, 0.7775858044624329, -0.24994945526123047, 0.6098601222038269, 0.48719924688339233, -0.030474644154310226, -0.46980684995651245, -0.22469550371170044, 0.11441711336374283, -0.4199386537075043, -0.5276399850845337], [-0.3293664753437042, -0.27932238578796387, 0.09830290824174881, -0.31458234786987305, 0.34971117973327637, -0.4540172517299652, 0.07763974368572235, -0.3495263159275055, -0.39679592847824097, -0.744645357131958, 0.5209825038909912, 0.16995081305503845, 0.482908695936203, -0.11963280290365219, 0.07461721450090408, 0.045496921986341476, -0.08082570880651474, 0.4022241234779358, -0.30139079689979553, -0.31408536434173584], [0.8853664994239807, -0.2049446851015091, 0.7043232321739197, 0.26265108585357666, -0.22533059120178223, 0.08850345015525818, 0.004687911365181208, 1.1941044330596924, 0.7077212333679199, -1.0308061838150024, 0.5420435667037964, 0.09761853516101837, 0.6200780272483826, 0.3921165466308594, -2.0066006183624268, -0.679343581199646, -0.42712831497192383, -0.5037647485733032, -0.5106640458106995, 0.0007418678142130375], [-1.0377260446548462, 0.0131425391882658, 1.164355993270874, -0.29668065905570984, -0.10924078524112701, -0.4031895101070404, -0.3154274523258209, 0.4122450351715088, 0.22930648922920227, -0.6111418604850769, 0.03730913624167442, -0.824077308177948, 0.20569153130054474, -0.452396035194397, -0.050908587872982025, 0.3955765962600708, 0.665698230266571, -0.7145817875862122, -0.4087125062942505, -0.16925525665283203], [-0.06481771171092987, 0.6294866800308228, -0.6596890091896057, 0.027424462139606476, 0.4931561350822449, 0.21491818130016327, 0.2083231806755066, 0.7220891714096069, -0.16508972644805908, -0.6224548816680908, -0.4902935028076172, 0.6563315391540527, -0.4742841124534607, -0.9594098329544067, 0.6330117583274841, 0.1637151539325714, -0.13180392980575562, -1.1248551607131958, -0.3972207307815552, -0.38061952590942383], [-0.725029706954956, -1.206736445426941, 1.0731498003005981, -0.1898704469203949, 0.012682369910180569, -0.9435054063796997, 0.641101598739624, -0.2776992619037628, -0.3370751440525055, -0.5075098276138306, -0.26737213134765625, 1.0772610902786255, 1.269134283065796, -1.9534322023391724, 0.382982462644577, 0.18132629990577698, -1.8512853384017944, -1.0259863138198853, 0.26970648765563965, -1.2474806308746338], [-0.6314451098442078, -2.2265355587005615, 0.08505099266767502, -0.5308758020401001, 0.6166256666183472, -0.684379518032074, 0.062247052788734436, -0.6454429030418396, -0.4434705674648285, -1.5476492643356323, 0.40338778495788574, 0.8326917290687561, 0.7900567650794983, -0.4667090177536011, 1.520346999168396, 0.19718217849731445, -2.104766607284546, -0.829115092754364, -0.2876349985599518, -0.7826068997383118], [-0.4049404263496399, -0.2165454924106598, -0.1264873892068863, 0.10297895967960358, -0.12609240412712097, -0.19240815937519073, -0.07491176575422287, -0.26113951206207275, -0.473900705575943, -0.6917744874954224, 0.6439220309257507, -0.09281493723392487, -0.09074434638023376, 0.46372339129447937, 0.3185557425022125, -0.45694753527641296, -0.24144022166728973, 0.0020774647127836943, -0.3092449903488159, -0.16428203880786896], [-0.30248937010765076, -0.43872636556625366, -0.30877143144607544, -0.3291809856891632, 0.3021017909049988, -0.4338936507701874, 0.2457437515258789, -0.24289007484912872, -0.08866623044013977, -0.6801860928535461, -0.29647183418273926, -0.33681848645210266, 0.30380499362945557, -0.5732631087303162, 0.46367937326431274, 0.14668844640254974, 0.6924225687980652, 0.4964506924152374, -0.37457075715065, -0.4625217318534851], [0.47802940011024475, -9.272624015808105, 3.689875364303589, -9.073204040527344, 8.295135498046875, -1.6718883514404297, -0.5749022364616394, 3.7872729301452637, -1.509775996208191, -6.731585502624512, 1.9795336723327637, 4.27227783203125, 10.068283081054688, -0.921377420425415, 0.00824306532740593, 2.2703959941864014, 0.20483286678791046, -1.4813075065612793, -3.098680019378662, -1.203098177909851], [2.134506940841675, 1.4515271186828613, 1.5991649627685547, 0.08553485572338104, -0.9435370564460754, -1.0434057712554932, 1.918760895729065, -0.7783819437026978, -1.876097321510315, 1.6723428964614868, 0.962614893913269, -1.2738174200057983, -2.0924766063690186, -0.535297691822052, 3.3649024963378906, -0.8990960121154785, 1.597216010093689, 1.0456312894821167, 1.4535759687423706, -1.7015395164489746], [3.1061036586761475, 1.8122045993804932, 2.168614387512207, -0.45296618342399597, -0.9707179665565491, -2.4627044200897217, 0.727287232875824, 1.318276286125183, 0.7549008727073669, 0.21039116382598877, -1.3568556308746338, -2.127833843231201, 0.26919475197792053, -1.6769460439682007, 0.3995136022567749, 1.6757097244262695, 0.6535578966140747, 2.0488200187683105, 1.2080336809158325, 0.19031460583209991], [-0.7523417472839355, 2.633573532104492, 0.2613833248615265, -3.5740573406219482, 0.15124768018722534, 0.0912628024816513, 1.3319153785705566, -1.0770436525344849, 0.3130258321762085, 2.507277250289917, -2.3725016117095947, -1.911037802696228, 2.0105204582214355, -0.9820908308029175, 2.395130157470703, -0.5681115388870239, 1.021755337715149, 1.243256688117981, 1.6588863134384155, -0.9311180710792542], [0.18952269852161407, 0.12663018703460693, -2.6405279636383057, -1.409498929977417, -0.252010703086853, 1.2339727878570557, -1.2486824989318848, -1.4022841453552246, 6.29624080657959, 4.612645149230957, -0.24458450078964233, -3.416015625, -1.0220955610275269, 0.6846155524253845, -2.7213876247406006, -0.14460062980651855, 3.9168741703033447, 1.9690486192703247, -2.1892809867858887, 4.008515357971191], [-0.4798988401889801, 0.40982821583747864, -0.12592770159244537, -0.17499467730522156, -0.8944483399391174, -2.734226703643799, 0.9436852931976318, -0.007183794863522053, 0.7679139375686646, 1.4567816257476807, -1.124672293663025, -0.8946001529693604, 2.4177749156951904, 0.05627051368355751, 0.48002374172210693, 0.6178826093673706, 1.7554808855056763, 1.7611918449401855, 2.022115707397461, -0.21235238015651703], [-0.9413807988166809, -1.4260332584381104, 2.457742929458618, 1.7522629499435425, 3.8044893741607666, 0.18864378333091736, -0.4116078317165375, 2.606220245361328, -0.6606964468955994, -4.576292991638184, 1.4503461122512817, 4.413238525390625, 0.9750140309333801, 0.0532422810792923, 3.5713207721710205, 1.2152835130691528, -3.4919073581695557, -6.058398723602295, 0.3852749168872833, -0.8366477489471436], [-1.0419031381607056, -1.2401680946350098, -0.3292270302772522, 1.5457801818847656, 2.2587122917175293, -0.29555603861808777, -1.9377963542938232, -1.2781943082809448, -1.139418363571167, 0.7616890072822571, 2.312493324279785, -0.008042764849960804, -0.8498173952102661, 1.527212381362915, -0.13088463246822357, -3.683760643005371, 0.8360899686813354, 0.15959084033966064, -2.6504170894622803, 2.718214988708496], [1.7167495489120483, -0.3075219690799713, 1.3151531219482422, -0.14604461193084717, -7.851017475128174, -2.902308940887451, -0.6044604182243347, -1.505689263343811, 0.45629364252090454, -0.6457438468933105, -2.1225838661193848, 0.023575693368911743, 0.4080704152584076, -2.7478199005126953, -1.6804912090301514, 0.8673796653747559, -0.10152634233236313, 0.5556604862213135, 3.16705060005188, -0.08318658918142319], [0.7433251738548279, 0.6543270945549011, -0.2821773290634155, -0.20444753766059875, -0.2986087203025818, -1.3333715200424194, 1.2902500629425049, -0.20988401770591736, 1.8230289220809937, -1.2046046257019043, -1.5351336002349854, -1.0001540184020996, 1.9870768785476685, -2.703206777572632, 0.19082973897457123, 0.9117641448974609, -0.9137436151504517, 0.04336780682206154, 1.0135767459869385, -0.24232472479343414], [0.09976982325315475, 3.7216434478759766, 0.40758225321769714, -0.5165926218032837, -1.2805297374725342, -2.0541648864746094, 0.5700331330299377, 0.19972357153892517, -0.5926911234855652, -2.1562726497650146, -1.4702662229537964, -1.1945252418518066, 1.4106090068817139, 2.2230660915374756, -0.9141421318054199, -2.0531198978424072, -1.4251168966293335, 1.3674461841583252, 3.0157430171966553, -2.28764271736145], [-3.220794677734375, 1.1961108446121216, -0.2551926076412201, -2.474963665008545, -2.2057502269744873, 0.6143247485160828, 1.5199767351150513, -0.8623854517936707, -1.404903531074524, 4.627488136291504, 1.6629817485809326, -2.013364791870117, -1.7632439136505127, -0.3169277608394623, 0.6940492391586304, -0.12824362516403198, 4.299838066101074, 1.3863670825958252, 3.010772943496704, -1.3072551488876343], [-0.7383998036384583, 2.061044692993164, -0.426774263381958, -1.2684962749481201, -1.5063213109970093, -3.147030830383301, 0.9824631810188293, 0.4538552761077881, -0.4477316737174988, 1.5347245931625366, -0.8556951880455017, -1.14337158203125, 0.8764779567718506, 0.48657602071762085, 1.5214757919311523, -0.22286033630371094, 0.25841209292411804, 0.7722175717353821, 2.663228750228882, -1.3484774827957153], [-0.7129800915718079, 1.639546275138855, 0.44110196828842163, 0.3197190463542938, 1.8982703685760498, -0.11931963264942169, 2.128034830093384, 2.7636470794677734, -4.316771984100342, -3.22651743888855, 2.392213821411133, 1.7966578006744385, 0.212178036570549, -0.8373375535011292, 1.1586580276489258, -4.264489650726318, -1.287554383277893, -3.538581132888794, 2.0013504028320312, -3.673515558242798], [1.2335596084594727, -3.010014533996582, 1.7904826402664185, 2.4304184913635254, -0.5097576379776001, 0.369739294052124, -0.9024102091789246, 1.7364140748977661, -0.7078624367713928, -3.2036120891571045, 2.771493911743164, 3.1832587718963623, -0.4581618010997772, 0.9922877550125122, 1.836927890777588, -0.4652503430843353, -4.07009744644165, -2.3230316638946533, 0.11232197284698486, -0.08137580752372742], [-0.8784920573234558, -6.576338291168213, 1.1223318576812744, -1.078555941581726, 7.617631912231445, 0.7160526514053345, -1.6074721813201904, 1.5773580074310303, -2.553584575653076, 0.3999571204185486, 2.1446452140808105, 0.6263433694839478, 0.6512800455093384, 4.758516311645508, 0.9303702712059021, 0.5631279349327087, -1.7122247219085693, -3.5964722633361816, -1.365862250328064, 0.9850853085517883], [1.1347378492355347, 1.2043356895446777, -0.29086020588874817, -0.6990147829055786, -0.77923983335495, -0.18648964166641235, 0.8896274566650391, 0.11880400031805038, -0.13564854860305786, 3.759747266769409, -0.9423183798789978, -1.4578826427459717, 0.7877177596092224, 0.6851902008056641, 1.2185426950454712, -0.10359825193881989, 1.5570484399795532, 0.809761643409729, 1.622560739517212, -0.5833455324172974], [1.096582055091858, -1.4952731132507324, 0.34042975306510925, 2.16976261138916, 0.3141323924064636, 1.493770956993103, -0.8715895414352417, 1.8288382291793823, -0.8139671683311462, -2.0980982780456543, 0.33937251567840576, 0.7360040545463562, -1.4176840782165527, 1.1373172998428345, 1.9040594100952148, -1.4642016887664795, -1.806364893913269, -1.6360048055648804, 0.4368733763694763, -1.0122301578521729], [-0.7557894587516785, 0.8270614147186279, 2.5559275150299072, -1.1106302738189697, 3.6563515663146973, -0.9300065040588379, -0.049922388046979904, -2.2492330074310303, 2.4282939434051514, 2.356334924697876, -1.0756069421768188, -0.2414482682943344, -0.3567669987678528, -2.33146595954895, -3.4538254737854004, 2.0161938667297363, -0.014760414138436317, 1.832076907157898, -0.09804952889680862, 1.91085684299469], [1.4522889852523804, -2.2305819988250732, 4.377131938934326, 1.6646785736083984, 1.440913438796997, 0.4888383150100708, -0.6454765796661377, 2.6735644340515137, -2.6962413787841797, -2.7756705284118652, 2.7080790996551514, 4.572443008422852, 0.40908920764923096, -0.14919985830783844, 3.2219860553741455, -0.8061686158180237, -3.4855611324310303, -5.543554782867432, 1.9100621938705444, -1.1925548315048218], [0.28230518102645874, -0.4321783483028412, -0.07553136348724365, -0.15125718712806702, 0.24077731370925903, -0.18772836029529572, 0.5288455486297607, -0.3146161139011383, -0.8703556656837463, -2.200385093688965, 0.3440151810646057, -0.18299002945423126, 0.27564913034439087, -0.46631383895874023, 0.8397229909896851, 0.6428992748260498, -0.11999906599521637, 0.7138222455978394, 0.010586941614747047, -0.8006892204284668], [-0.2547248303890228, -0.24273449182510376, 0.03082350268959999, 0.00493257911875844, 0.3750178813934326, -0.1759645789861679, 0.34940770268440247, -0.3696354031562805, -0.2884875237941742, -0.26300889253616333, -0.3480187952518463, 0.1745063215494156, 0.04222669079899788, -0.33860108256340027, 0.38768669962882996, 0.5698911547660828, 0.04744609072804451, 0.626553475856781, -0.11855921894311905, -0.3198991119861603], [0.1485123485326767, -0.0326228104531765, -0.2683700621128082, 0.041508808732032776, 0.03182775154709816, 0.27188751101493835, -0.5329781770706177, 0.04760172963142395, 0.12982146441936493, -0.10528963804244995, 0.2955148220062256, -0.14905516803264618, -0.19809921085834503, 0.34988486766815186, -0.36463484168052673, -0.3613589107990265, -0.37063565850257874, -0.02121998928487301, -0.05194227769970894, 0.19220581650733948], [-0.5758452415466309, -0.3789612352848053, 0.017108872532844543, -0.013848748989403248, 0.21430140733718872, -0.3706551492214203, -0.0037269447930157185, -0.44517961144447327, -0.6527665257453918, -0.48829200863838196, 0.4275752902030945, -0.07307383418083191, -0.22982366383075714, 0.16635966300964355, 0.3841182589530945, -0.3025875985622406, -0.05711693689227104, 0.4299499988555908, -0.22132426500320435, -0.507314145565033], [-0.41135069727897644, -0.2706093192100525, -0.005184981040656567, 0.27822041511535645, -0.21983404457569122, -0.5057410597801208, 0.7679648399353027, 0.23431266844272614, 0.24152465164661407, 0.033665988594293594, -0.3280984163284302, 0.1897801011800766, 0.3925671875476837, -0.8590359091758728, 0.47556546330451965, 0.40205609798431396, 0.20505812764167786, 0.13474376499652863, 0.33948513865470886, -0.3169960081577301], [-0.30947139859199524, 0.009843557141721249, -0.32888397574424744, -0.07752593606710434, 0.40907022356987, -0.23651476204395294, -0.021739084273576736, -0.13318848609924316, -0.12586955726146698, 0.5332741737365723, -0.07652808725833893, 0.22510762512683868, -0.04348602518439293, -0.2356806993484497, 0.28233930468559265, 0.32936692237854004, 0.1692591905593872, -0.019725928083062172, -0.11409801989793777, -0.21976080536842346], [0.04906327649950981, 0.27520132064819336, -0.018124369904398918, 0.305850088596344, -0.17552450299263, 0.11525879800319672, -0.42070841789245605, 0.06855132430791855, 0.16565661132335663, -0.36517494916915894, 0.3105586767196655, 0.43980374932289124, -0.16126473248004913, 0.08520416915416718, -0.5454137921333313, -0.007529156748205423, -0.5126172304153442, -0.341300368309021, 0.11404796689748764, 0.28896963596343994], [0.0029596977401524782, 0.40646234154701233, -0.07535943388938904, -0.29786238074302673, -0.056360892951488495, 0.21235531568527222, -0.31473737955093384, -0.18945889174938202, -0.6569153070449829, -0.22290948033332825, 0.9771601557731628, -0.08064771443605423, -0.08555129170417786, 0.3122941553592682, -0.7190470099449158, -0.6912952661514282, -0.4800485670566559, -0.023220350965857506, -0.10409556329250336, -0.013251768425107002], [-0.09461347758769989, -0.18914920091629028, -0.11298827081918716, -0.09031230211257935, 0.011205391027033329, -0.2758288085460663, -0.36573120951652527, 0.023510243743658066, -0.9565776586532593, -0.9390056729316711, 1.2085222005844116, 0.20426249504089355, 0.22333401441574097, 0.6190810203552246, 0.4997308552265167, -0.8149622082710266, -0.6804861426353455, -0.3317684531211853, -0.2598732113838196, -0.17199672758579254], [0.9401238560676575, 0.06912411749362946, 0.35399332642555237, -0.2313007116317749, -0.21609510481357574, 0.13424596190452576, -0.49241626262664795, 0.5563193559646606, 0.22774331271648407, 0.04755484685301781, 0.3042810261249542, 0.15670551359653473, -0.16401797533035278, 0.12215352803468704, -0.533725380897522, -0.4320272207260132, 0.07542739808559418, -0.4034837484359741, 0.20514407753944397, 0.36185652017593384], [-0.165169820189476, -0.10858003795146942, -0.34946632385253906, -0.44170722365379333, 0.2584114968776703, -0.291114866733551, 0.29376643896102905, -0.7153682708740234, -0.24169598519802094, 0.030530475080013275, -0.24795934557914734, -0.6528159379959106, 0.5059205889701843, 0.05921350046992302, -0.04942195862531662, 0.2786259055137634, 0.6808130145072937, 0.8002793192863464, -0.30271169543266296, -0.2955818474292755], [-0.11543754488229752, -0.03745238110423088, -0.0384296216070652, -0.2024710476398468, -0.04788653552532196, -0.7904751896858215, 0.04291662201285362, -0.059135522693395615, -0.3442293107509613, -0.6413259506225586, 0.22425635159015656, -0.46764203906059265, 0.4262268543243408, 0.08544497936964035, -0.020650111138820648, -0.5457170009613037, -0.635650634765625, -0.014510503970086575, -0.39112240076065063, -0.06529144197702408], [0.15657886862754822, 0.340320348739624, 0.2313908040523529, 0.05566703528165817, -0.3488292992115021, 0.19551695883274078, -0.3122083246707916, 0.24932165443897247, 0.5352922081947327, 0.09637128561735153, -0.05620625242590904, -0.052200797945261, -0.24952828884124756, 0.18816252052783966, -0.2050989717245102, -0.3749808073043823, -0.0864187553524971, -0.14172062277793884, 0.37243443727493286, 0.15580232441425323], [-0.6261354088783264, -0.17019842565059662, -0.3050963282585144, -0.4052978456020355, 0.6011044383049011, 0.007764773443341255, 0.1172662004828453, -0.4801449775695801, 0.1722801774740219, 0.8380962610244751, -0.5726352334022522, -0.6270840764045715, 0.23015595972537994, -0.2706104516983032, 0.5795310735702515, 0.3393121063709259, 1.1312861442565918, 0.08941120654344559, -0.2351210117340088, -0.02851521596312523], [-0.09814108163118362, -0.14103947579860687, 0.10050325095653534, -0.07017629593610764, -0.1262144148349762, 0.02264772541821003, -0.8345882892608643, 0.39250633120536804, 0.7646681070327759, 0.08406610041856766, -0.07993467152118683, 0.22955386340618134, -0.5552752017974854, 0.07771379500627518, -1.0537173748016357, 0.21810081601142883, 0.10678210109472275, -0.9925269484519958, 0.025525478646159172, 0.9418307542800903], [-0.12737499177455902, -0.22238296270370483, 0.2602030634880066, 0.25964218378067017, 0.1397615522146225, 0.5900973677635193, -0.5066110491752625, 0.11131399124860764, 1.2390552759170532, -0.03909369558095932, -0.3474567234516144, 0.2102874219417572, -0.27639415860176086, -0.13112398982048035, -0.9324505925178528, -0.09343612194061279, -0.23225149512290955, -0.36664339900016785, -0.2392728179693222, 0.1785935014486313], [0.028170790523290634, 0.4237348139286041, 0.06097044423222542, 0.7476309537887573, 0.07459799945354462, 0.6767176389694214, -0.25463899970054626, 0.49235019087791443, 0.54964280128479, -0.15464343130588531, 0.09594675153493881, 0.7287365794181824, -1.0706260204315186, 0.7489244341850281, -0.27699270844459534, -0.7883539199829102, -0.0420675128698349, -0.706197202205658, -0.10895896703004837, 0.11701201647520065], [0.3584677577018738, 0.7656008005142212, 0.06629306077957153, 0.39150339365005493, -0.4417915344238281, 0.5176699161529541, -0.15209724009037018, 0.6733558773994446, 0.22891730070114136, 0.379422128200531, 0.13615117967128754, -0.20222912728786469, -0.4439627528190613, 0.2320668250322342, -1.1149026155471802, 0.06882290542125702, 1.0334722995758057, 0.17217876017093658, 0.06454280018806458, 0.7684983015060425], [0.003516864264383912, 0.13595004379749298, -0.10453625023365021, -0.12493079900741577, -0.06521669775247574, 0.41051650047302246, -0.45661357045173645, -0.012059088796377182, 0.21456769108772278, 0.13820017874240875, 0.0278937928378582, -0.3584979772567749, -0.38492634892463684, 0.6528630256652832, -0.27357009053230286, -0.2241678088903427, -0.3439558446407318, -0.4643227756023407, -0.367041677236557, 0.2240670919418335], [-0.033271703869104385, -0.27982935309410095, 0.01516196969896555, -0.4861525297164917, 0.1576901227235794, -0.4932473301887512, 0.4009442627429962, -0.1900779902935028, -0.3915082514286041, 0.48816701769828796, 0.09534186124801636, -0.16802115738391876, 0.1257985383272171, -0.19505809247493744, 0.5999926328659058, 0.3936145007610321, 0.1493280678987503, 0.4998244345188141, -0.05148190259933472, -0.21841974556446075]], "rec.bias_ih_l0": [-0.49110808968544006, 0.002024394692853093, -0.258650004863739, -0.7822451591491699, -0.10393736511468887, -0.1659356951713562, -0.24866852164268494, -0.2615376114845276, -0.3222760856151581, -0.041650936007499695, -0.2396755963563919, -0.5395339727401733, -0.4206252694129944, 0.08040905743837357, -0.16314199566841125, -0.1926143318414688, -0.6358634233474731, -1.128700852394104, -0.2578957974910736, -0.25159215927124023, -0.9631781578063965, 1.8988826274871826, 1.5083868503570557, 2.5625522136688232, 1.9330908060073853, 2.31611967086792, -1.1064238548278809, -0.21178561449050903, -1.138681173324585, 2.694011926651001, -1.1331931352615356, 1.8484888076782227, 2.1624295711517334, 0.04725334420800209, -2.3499293327331543, -1.0197452306747437, 2.8377628326416016, -2.1970901489257812, 1.7385497093200684, -1.7436357736587524, 0.05392255261540413, 0.13213147222995758, 0.1334047168493271, -0.05699095502495766, -0.024861304089426994, -0.12903539836406708, 0.014889832586050034, -0.009441828355193138, 0.015896311029791832, 0.054709095507860184, -0.21860380470752716, -0.2530103921890259, 0.21118003129959106, 0.06558673828840256, 0.03316280245780945, 0.12461913377046585, 0.09069131314754486, 0.13280965387821198, 0.17629078030586243, -0.10243266820907593], "rec.bias_hh_l0": [-0.3161873519420624, -0.12668873369693756, -0.3896920680999756, -0.958306610584259, -0.17667512595653534, -0.16621460020542145, -0.6006503701210022, -0.26266658306121826, 0.11170810461044312, -0.11635175347328186, -0.19845184683799744, -0.5800892114639282, -0.25085362792015076, 0.2634265124797821, 0.13166777789592743, -0.36045968532562256, -0.2657042443752289, -1.0759470462799072, -0.1547563076019287, -0.12339813262224197, -0.7962803840637207, 1.9124711751937866, 1.8552143573760986, 2.5453784465789795, 1.7353781461715698, 2.0839741230010986, -1.3037805557250977, -0.1398901790380478, -1.2667278051376343, 2.51053786277771, -1.1891101598739624, 1.7417794466018677, 2.178873300552368, 0.00908011943101883, -2.616183042526245, -0.8920416235923767, 3.1177802085876465, -1.9616831541061401, 1.808419108390808, -1.6298444271087646, -0.007815120741724968, -0.014948050491511822, 0.0693686306476593, -0.3329356014728546, -0.16122275590896606, -0.2346571683883667, 0.3260507881641388, -0.029464200139045715, 0.16513189673423767, 0.18080459535121918, 0.015518479980528355, -0.1399383246898651, 0.21653670072555542, -0.12398418039083481, 0.2599587142467499, -0.13240739703178406, -0.07093797624111176, 0.3552236258983612, 0.26009029150009155, 0.05103403702378273], "lin.weight": [[0.17351894080638885, -0.05300001800060272, 0.12280824035406113, 0.16009771823883057, -0.02759859710931778, 0.07096131891012192, -0.1360500305891037, 0.05173886939883232, -0.20565491914749146, -0.149010568857193, 0.2912200391292572, 0.13206733763217926, 0.01599186472594738, 0.20841562747955322, -0.12356413900852203, -0.15027694404125214, -0.1985476166009903, -0.1639564484357834, -0.011051001958549023, 0.10274166613817215]], "lin.bias": [0.08114907145500183]}}