{"model_data": {"model": "SimpleRNN", "input_size": 1, "skip": 1, "output_size": 1, "unit_type": "GRU", "num_layers": 1, "hidden_size": 40, "bias_fl": true}, "state_dict": {"rec.weight_ih_l0": [[-0.06170276552438736], [0.013673057779669762], [0.5750346183776855], [0.07101467251777649], [-0.08032314479351044], [0.031227491796016693], [0.012923373840749264], [-0.24699242413043976], [0.1282029151916504], [-0.04966333508491516], [-0.019706977531313896], [0.005700540263205767], [-0.022973105311393738], [-0.07988181710243225], [0.0029936879873275757], [0.005209869705140591], [-0.9015069603919983], [-0.06662239134311676], [-0.08721514046192169], [0.5594581365585327], [-0.2537640929222107], [0.061867184937000275], [0.047527674585580826], [0.024992385879158974], [0.10311156511306763], [0.03770564869046211], [-0.014021174050867558], [0.055695004761219025], [0.2441466897726059], [0.10943686962127686], [0.02326168492436409], [-0.037044547498226166], [0.0069899349473416805], [0.029066506773233414], [-0.18357160687446594], [-0.033245328813791275], [-0.016649628058075905], [-0.3090640604496002], [0.001703093177638948], [0.02040683478116989], [-0.0638018473982811], [3.1203140679281205e-05], [-0.09022027254104614], [0.06873474270105362], [0.024602949619293213], [-0.014674131758511066], [-0.03961961716413498], [-0.004836550913751125], [-0.04435645788908005], [-0.0822267234325409], [0.00015679340867791325], [0.008541245944797993], [-0.008402873761951923], [-0.15863148868083954], [0.019542578607797623], [-0.05110880732536316], [-0.011875619180500507], [-0.009223192930221558], [0.01356291864067316], [0.09027374535799026], [0.02279178611934185], [0.013400550931692123], [-0.07748102396726608], [0.353680819272995], [-0.004294448532164097], [-0.012646408751606941], [-0.050795137882232666], [0.11002548784017563], [0.1162324920296669], [-0.05216209962964058], [-0.009870067238807678], [0.047968991100788116], [-0.010292714461684227], [-0.012295492924749851], [0.011366991326212883], [-0.014907028526067734], [0.0034299965482205153], [-0.029076505452394485], [-0.019455144181847572], [-0.04232971370220184], [1.6205389499664307], [0.0962258130311966], [-0.8708491921424866], [0.5818977952003479], [-0.6779657602310181], [0.2275332510471344], [0.49801984429359436], [-0.044457532465457916], [1.016994595527649], [0.6136293411254883], [-0.2649228274822235], [0.07534392923116684], [0.17891515791416168], [0.7570608258247375], [0.19195197522640228], [0.60248863697052], [0.9508627653121948], [0.46539396047592163], [0.11982768774032593], [-0.04700896143913269], [-0.271945595741272], [0.04414592683315277], [-0.8587332367897034], [1.2553552389144897], [0.10430201143026352], [0.04666562378406525], [-0.15214692056179047], [-1.3422998189926147], [0.3239874243736267], [0.636021077632904], [-0.0728864073753357], [0.21423368155956268], [-0.2542765438556671], [0.23684003949165344], [-0.17802928388118744], [0.27075526118278503], [0.21698583662509918], [-0.7342391014099121], [0.2852935791015625], [-0.049661993980407715]], "rec.weight_hh_l0": [[0.08836331963539124, -0.010034875944256783, 0.13811138272285461, -0.04978802427649498, 0.12203647196292877, -0.0182111207395792, -0.04769611358642578, 0.15924789011478424, -0.02783641219139099, 0.03094543144106865, 0.041876666247844696, 0.09822455048561096, -0.03146691247820854, 0.14833422005176544, -0.06222650036215782, -0.0016844951314851642, -0.34198611974716187, -0.17462703585624695, -0.17553119361400604, -0.101849265396595, 0.04919717088341713, 0.073871910572052, 0.14371713995933533, -0.12846893072128296, 0.0033694917801767588, 0.13423289358615875, -0.0034784746821969748, -0.2184501737356186, 0.08731305599212646, -0.007243160158395767, 0.015006770379841328, 0.06652113795280457, 0.07835566252470016, -0.05242956057190895, 0.003397071734070778, -0.07006625086069107, 0.025647519156336784, 0.1918364316225052, -0.0016425191424787045, -0.05421779304742813], [0.002564760623499751, 0.00017535369261167943, -0.023493027314543724, 0.0024583640042692423, -0.0030429295729845762, -0.0017289523966610432, 0.003094604704529047, 0.006413693074136972, 0.005671984516084194, 0.0069807651452720165, -0.0008108984329737723, 0.00019928465189877898, 0.0022000593598932028, 0.007815835066139698, -0.0030269501730799675, 0.006211477797478437, -0.0011802506633102894, -0.002500804839655757, 0.00033406104194000363, -0.00821157731115818, -0.0028703860007226467, -0.0052266898564994335, -0.0024231779389083385, 0.002033125376328826, 0.006299999076873064, 0.0009599888580851257, -0.0022268849425017834, -0.010883994400501251, 0.01334538497030735, 0.005809077061712742, 0.002677944488823414, 0.008143999613821507, -0.004291617777198553, -0.0003309143357910216, -0.005466163158416748, -0.0001004817895591259, 0.002093471586704254, 0.005716223735362291, 0.0012361783301457763, -0.0008241581381298602], [0.36550769209861755, 0.03372453525662422, -0.17336097359657288, 0.18570101261138916, 0.32952165603637695, -0.1417263150215149, 0.08710535615682602, 0.20771680772304535, 0.39320582151412964, -0.21967913210391998, 0.1213936060667038, 0.17307788133621216, -0.04810355231165886, 0.3966606855392456, 0.06977497786283493, 0.01760702393949032, -0.2059989720582962, 0.24271750450134277, -0.07884031534194946, 0.23538583517074585, -0.24285763502120972, -0.004864682909101248, 0.013064348138868809, 0.38730210065841675, 0.08305525034666061, -0.013475088402628899, 0.1530168354511261, 0.6492051482200623, -0.02330624870955944, -0.16432207822799683, -0.08857639133930206, -0.09843447804450989, -0.05823975056409836, 0.026958856731653214, -0.45031502842903137, 0.11357031762599945, 0.12330426275730133, -0.5450919270515442, 0.05120914801955223, 0.2685824930667877], [0.1283264309167862, 0.0036263742949813604, -0.05989084392786026, -0.10364370048046112, 0.08531662076711655, -0.05244724452495575, 0.01596696488559246, 0.10420183092355728, -0.11158612370491028, -0.05439028516411781, 0.04049522802233696, 0.00862902496010065, -0.025760790333151817, 0.1027689054608345, -0.04224391654133797, 0.010285614058375359, -0.1807093620300293, -0.03922784700989723, 0.005735314916819334, -0.05236270651221275, 0.015011626295745373, -0.044420406222343445, 0.0016269598854705691, 0.02090848982334137, 0.0321136936545372, -0.026372745633125305, 0.03646702691912651, -0.028467830270528793, 0.11685428023338318, -0.04602055251598358, 0.04509460926055908, 0.04151032865047455, -0.04963940009474754, 0.010335640050470829, -0.028770849108695984, 0.000519880501087755, -0.01651916466653347, 0.014146598987281322, -0.03998514637351036, 0.0331045538187027], [0.034104205667972565, -0.01563003472983837, -0.0930279791355133, -0.12548129260540009, 0.047191593796014786, 0.009861364029347897, -0.035314690321683884, -0.037894684821367264, -0.041972361505031586, 0.1216130256652832, 0.0010406066430732608, 0.03902796283364296, 0.005219669081270695, 0.07612697780132294, -0.054756879806518555, -0.04941347986459732, -0.011807529255747795, -0.057732954621315, -0.053555555641651154, -0.1259833574295044, -0.032060474157333374, -0.004732911940664053, -0.005032486282289028, -0.12247737497091293, 0.04030824080109596, 0.04440795257687569, -0.046167418360710144, -0.04406237602233887, 0.1013469398021698, 0.05750003084540367, 0.03668566793203354, 0.05294172093272209, 0.005950218997895718, -0.07688696682453156, -0.03467836603522301, 0.00840811152011156, -0.016239073127508163, 0.038340501487255096, -0.00019286580209154636, -0.09517126530408859], [-0.020585620775818825, -0.001656145672313869, 0.010656922124326229, 0.03180874139070511, -0.005959867034107447, -0.03283726051449776, 0.006994710769504309, 0.0234218817204237, 0.039279814809560776, -0.04522537812590599, 0.022464288398623466, 0.012640012428164482, -0.017221203073859215, 0.049659136682748795, -0.040416207164525986, -0.002192471409216523, 0.03403625637292862, -0.0031607639975845814, -0.027013884857296944, 0.06870346516370773, -0.028058437630534172, -0.004895044956356287, 0.03082325868308544, 0.0241849422454834, 0.004034583922475576, 0.021424852311611176, -0.0076588853262364864, -0.015175100415945053, 0.007211211137473583, -0.060862842947244644, 0.012584392912685871, 0.02714632824063301, -0.019353928044438362, 0.048346348106861115, -0.052347809076309204, 0.007387388963252306, 0.02007574960589409, -0.004284680355340242, -0.05215572938323021, 0.03800904005765915], [0.0019172924803569913, 0.010191475972533226, 0.052928730845451355, 0.024891594424843788, -0.008268579840660095, 0.004331329371780157, 0.030899807810783386, -0.005705197341740131, 0.0341765359044075, -0.038047321140766144, -0.00887848436832428, -0.006929622031748295, -0.0074761006981134415, 0.014028061181306839, 0.037995100021362305, 0.004438191652297974, -0.041749946773052216, 0.02488124929368496, 0.018576182425022125, 0.034434974193573, 0.00690480088815093, 0.006453897338360548, -0.011610012501478195, 0.011604287661612034, -0.011839655227959156, -0.0315900519490242, 0.04696043208241463, 0.08351370692253113, 0.024319641292095184, -0.013613201677799225, -0.01734965667128563, -0.02401087060570717, 0.006748202256858349, 0.025660142302513123, -0.006554619874805212, 0.005109947174787521, 0.00976242870092392, -0.0428590290248394, 0.009401305578649044, 0.041176777333021164], [-0.3191302418708801, -0.01216054242104292, 0.23323765397071838, -0.43484872579574585, -0.027143998071551323, 0.0898195281624794, -0.12824566662311554, -0.08506222814321518, -0.048915375024080276, 0.1785525232553482, -0.08802124857902527, 0.0350780263543129, -0.05185885354876518, -0.0999763011932373, -0.19933977723121643, -0.28030920028686523, 0.4682992398738861, -0.09968586266040802, 0.007079878821969032, -0.32673704624176025, -0.024210548028349876, 0.026275701820850372, -0.36862003803253174, -0.3493002951145172, -0.05901926010847092, 0.07134797424077988, -0.06061549857258797, -0.15016430616378784, -0.006600762717425823, 0.07701732218265533, 0.09736813604831696, -0.0038701090961694717, -0.03333817422389984, 0.0007948917336761951, 0.1656753271818161, 0.01838858053088188, -0.14854569733142853, 0.14773215353488922, -0.15083014965057373, -0.2036837935447693], [0.14394600689411163, -0.023155877366662025, -0.08047010004520416, -0.251076340675354, -0.05929359421133995, -0.009688238613307476, -0.06428135186433792, 0.4654238224029541, 0.1048843115568161, 0.2542390525341034, -0.06464238464832306, 0.08164802938699722, 0.04639694094657898, 0.35037124156951904, -0.1036856546998024, -0.051047906279563904, -0.28905972838401794, -0.2707906663417816, -0.1497638076543808, -0.32850953936576843, 0.10343755781650543, -0.20077215135097504, -0.04784292355179787, -0.08240333199501038, 0.0878462865948677, 0.1319582611322403, -0.0449238196015358, -0.4160479009151459, 0.40944215655326843, 0.1556384414434433, 0.032966990023851395, 0.14821328222751617, 0.007032741792500019, -0.04449751228094101, 0.07025222480297089, -0.07251707464456558, 0.050275176763534546, 0.2607366442680359, 0.04530588164925575, -0.1959431767463684], [-0.09603534638881683, -0.0038402059581130743, 0.011083902791142464, 0.19693796336650848, -0.0033262846991419792, -0.03395914286375046, -0.048363491892814636, 0.11607633531093597, 0.09964093565940857, -0.018291538581252098, 0.0528453104197979, 0.057985592633485794, 0.007723778486251831, -0.1080307587981224, -0.021083496510982513, 0.02695620059967041, 0.04235134273767471, -0.027560459449887276, -0.12136715650558472, 0.13615640997886658, -0.12149976193904877, 0.05813352018594742, 0.050537481904029846, 0.10522602498531342, -0.03337542340159416, 0.09170998632907867, -0.08606952428817749, -0.18098808825016022, -0.11707359552383423, -0.04390261694788933, -0.007566723506897688, 0.03730148449540138, 0.037778958678245544, 0.0722448080778122, -0.1642591804265976, 0.015230976045131683, 0.05426463112235069, 0.08175500482320786, 0.011983789503574371, 0.013758947141468525], [-0.03901684284210205, -0.003314059926196933, 0.005137454718351364, 0.061761703342199326, -0.013465399853885174, -0.03872576355934143, -0.0015910941874608397, 0.02314431220293045, 0.03752361610531807, -0.02757091633975506, 0.023631244897842407, 0.020282814279198647, -0.008818979375064373, -0.027142569422721863, -0.022318702191114426, 0.006901602726429701, 0.011948222294449806, -0.0020053465850651264, -0.04775633662939072, 0.05890582874417305, -0.04231414198875427, 0.024437347427010536, 0.020454073324799538, 0.030459623783826828, -0.009405424818396568, 0.04072793945670128, -0.022410614416003227, -0.052848931401968, -0.06514956802129745, -0.045591801404953, -0.0026608218904584646, 0.019048569723963737, 0.0031290771439671516, 0.05192694067955017, -0.05964655429124832, 0.004594764672219753, 0.01851947046816349, 0.007199150510132313, -0.007511885371059179, 0.022545481100678444], [0.02673560567200184, -0.0037480215542018414, -0.022183869034051895, 0.015280541963875294, -0.003134246915578842, -0.01047448068857193, 0.012762501835823059, 0.05450379103422165, -0.011484547518193722, -0.0007386404904536903, 0.004318656399846077, -0.0076241218484938145, 0.009760461747646332, 0.011703317053616047, -0.008042935281991959, 0.03125632926821709, -0.03253641352057457, -0.014814361929893494, 0.007233396638184786, 0.03429655358195305, -0.010441239923238754, -0.012837211601436138, -0.003559080185368657, 0.013981540687382221, 0.010447691194713116, -0.006881574634462595, 0.0046982006169855595, -0.04362564533948898, 0.014864437282085419, -0.0029786902014166117, -0.003079802729189396, 0.026622584089636803, -0.0050047640688717365, 0.017118822783231735, -0.018867969512939453, -0.00340388435870409, 0.003021283308044076, 0.04499654844403267, 0.004566572140902281, 0.0019291358767077327], [-0.016742689535021782, -0.003691484685987234, -0.016049664467573166, 0.03438115119934082, -0.004139300901442766, -0.02337731048464775, -0.004028781317174435, 0.01844709925353527, 0.012936522252857685, -0.004011156037449837, 0.009938983246684074, 0.011710293591022491, 0.0010074360761791468, -0.005579847376793623, -0.014258516021072865, 0.008136682212352753, -0.0056847939267754555, -0.008723563514649868, -0.02558920532464981, 0.01972302980720997, -0.014591922983527184, 0.013403846882283688, 0.0009625900420360267, 0.014771767891943455, 0.0023881446104496717, 0.017894547432661057, -0.014208399690687656, -0.04974823072552681, 0.009298245422542095, -0.009671472012996674, -0.0018743673572316766, 0.021713366732001305, -0.004774230066686869, 0.024081779643893242, -0.026348832994699478, 0.0020894743502140045, 0.00808508601039648, 0.026214294135570526, -0.0047179777175188065, 0.0075330729596316814], [-0.04209570214152336, 0.007639359682798386, 0.010177324526011944, -0.02622578851878643, 0.08009298890829086, -0.11612633615732193, 0.005551793612539768, 0.09103383868932724, 0.07861274480819702, -0.07708904892206192, 0.09277811646461487, 0.07174869626760483, -0.06542126834392548, 0.016134195029735565, -0.1449548304080963, -0.06047554314136505, -0.0016273877117782831, -0.03770160675048828, -0.12043030560016632, -0.008441932499408722, -0.008443029597401619, -0.021843453869223595, 0.09562259167432785, 0.11747390031814575, 0.032294388860464096, 0.05109308660030365, 0.020180266350507736, 0.02440367452800274, 0.09210597723722458, -0.13670624792575836, 0.01439344510436058, 0.056836243718862534, -0.07874535769224167, 0.06123800203204155, -0.119143545627594, 0.011060039512813091, 0.05887151509523392, -0.09468460828065872, -0.0897333025932312, 0.06121866777539253], [-0.023467108607292175, 0.001429993542842567, -0.039714228361845016, 0.0741966962814331, -0.013907765969634056, -0.025808168575167656, 0.040166761726140976, 0.06427423655986786, 0.04248207062482834, -0.03539125993847847, 0.027135279029607773, 0.029685037210583687, -0.05070073530077934, 0.056150171905756, -0.10892195254564285, 0.009639892727136612, 0.03943965211510658, 0.015063412487506866, -0.062164418399333954, 0.069986492395401, -0.04796507954597473, 0.023699523881077766, 0.013200961984694004, 0.05833929032087326, 0.004890550393611193, 0.03708387538790703, 0.003950262442231178, -0.011625196784734726, 0.011234953999519348, -0.02765234187245369, 0.014489997178316116, 0.037167225033044815, -0.09975623339414597, 0.0487026683986187, -0.08087681978940964, 0.012488653883337975, 0.015300614759325981, 0.0030180655885487795, -0.009192361496388912, 0.03442363068461418], [-0.001711136195808649, -0.006209283135831356, 0.01444830559194088, -0.020003020763397217, -0.010022558271884918, 0.004205570090562105, -0.028714604675769806, 0.11367800831794739, 0.0814148411154747, 0.012865710072219372, -0.011352750472724438, 0.0032937463838607073, -0.00101434625685215, 0.010855327360332012, 0.012260103598237038, 0.0036307803820818663, -0.23860394954681396, -0.0681389644742012, -0.0076704081147909164, 0.009141328744590282, 0.0410957932472229, -0.01553179882466793, 0.014398197643458843, -0.003010121174156666, 0.00880512036383152, -0.008188881911337376, -0.014904997311532497, -0.09796492010354996, 0.013952044770121574, 0.01540393941104412, 0.010272483341395855, 0.002515294821932912, 0.01525252964347601, 0.014298458583652973, 0.007572507951408625, -0.009977447800338268, 0.011405352503061295, 0.15772031247615814, 0.006294727325439453, -0.0077696070075035095], [-0.9599630236625671, 0.008675736375153065, 0.7793771028518677, -0.06363658607006073, -0.2460235357284546, 0.03131898120045662, -0.0015830844640731812, 0.05220001935958862, 0.07472775131464005, -0.1102745309472084, -0.036175407469272614, -0.05689593404531479, -0.08403713256120682, -0.8845012784004211, -0.11296214163303375, -0.2660040259361267, 0.4263540208339691, -0.2166556715965271, 0.03458525612950325, 0.4121129810810089, -0.05733755603432655, -0.045034002512693405, -0.15779884159564972, -0.14028578996658325, -0.4022005498409271, -0.0004154932976234704, 0.028734732419252396, 0.20580486953258514, -0.5014753341674805, -0.23283538222312927, 0.054953575134277344, 0.02088826149702072, -0.06794682145118713, 0.2630855143070221, -0.011130399070680141, -0.09308052808046341, -0.07827076315879822, 0.4116504192352295, -0.192196324467659, -0.016514450311660767], [-0.07440923899412155, 0.0022890605032444, 0.0025727548636496067, 0.0484481155872345, -0.02158278599381447, -0.007055706810206175, 0.014357668347656727, 0.012335983105003834, 0.09315536171197891, -0.008115680888295174, 0.028211405500769615, 0.03687503933906555, -0.000792275823187083, -0.05893785506486893, -0.0058163912035524845, 0.006201551295816898, 0.08157626539468765, -0.0037569236010313034, -0.041276901960372925, 0.044095613062381744, -0.07161326706409454, 0.03122030571103096, -0.02844010293483734, 0.034323178231716156, -0.019901510328054428, 0.03594532981514931, -0.01330696139484644, -0.02728760614991188, -0.0605657622218132, -0.028501126915216446, -0.004825602751225233, 0.022394327446818352, 0.026391517370939255, 0.036160510033369064, -0.07592877745628357, 0.010897456668317318, 0.00362964509986341, -0.0074892062693834305, 0.010586689226329327, 0.007081297691911459], [0.06181526929140091, -0.014909087680280209, -0.052008479833602905, -0.06885392963886261, 0.045202817767858505, -0.01347514521330595, -0.032452020794153214, 0.018292108550667763, -0.04648123309016228, 0.029464807361364365, 0.0032439108472317457, -0.015467858873307705, 0.011312802322208881, 0.11484375596046448, -0.02225233055651188, 0.02656405419111252, -0.10302724689245224, -0.05166570469737053, 0.04016232490539551, 0.024011651054024696, 0.01891288161277771, -0.07543665915727615, 0.04767903313040733, -0.029288901016116142, 0.03892829641699791, -0.028179021552205086, -0.03368726000189781, -0.0789584368467331, 0.014178313314914703, -0.0023184875026345253, 0.013759952038526535, 0.04439879581332207, -0.0024697475600987673, -0.01805376261472702, 0.0016133758472278714, -0.00696090143173933, -0.0029360176995396614, 0.05542176961898804, -3.581315468181856e-05, -0.03813684359192848], [0.06851264834403992, 0.002641270635649562, -0.4438762664794922, 0.19114074110984802, -0.13076379895210266, 0.02190454676747322, 0.0903763547539711, 0.34952491521835327, 0.13750724494457245, 0.2353973388671875, -0.047627437859773636, 0.0072003561072051525, 0.06622549146413803, 0.014116660691797733, -0.054848313331604004, 0.2204432487487793, 0.21502597630023956, 0.007131013087928295, -0.023695306852459908, -0.2225429266691208, -0.054438941180706024, -0.022508220747113228, -0.20360754430294037, 0.16052304208278656, 0.05719852074980736, 0.07606517523527145, -0.13213975727558136, -0.498695969581604, 0.5385262966156006, 0.3294938802719116, 0.009750233963131905, 0.15101058781147003, -0.07608041167259216, 0.07095034420490265, -0.1105550080537796, 0.008353175595402718, 0.03837969899177551, 0.15226484835147858, 0.03618588671088219, -0.06612178683280945], [0.0029765551444143057, -0.01699027419090271, 0.133452907204628, -0.12736976146697998, 0.020452694967389107, -0.006600379478186369, -0.031437646597623825, 0.08933193236589432, -0.16600297391414642, 0.04031401127576828, 0.02521340548992157, 0.032794270664453506, -0.004732478875666857, 0.01643003150820732, -0.07253825664520264, -0.0815839171409607, -0.1360911875963211, -0.0814252644777298, -0.09218500554561615, -0.16568885743618011, 0.015227128751575947, 0.060639433562755585, -0.08866321295499802, -0.04636998102068901, -0.00013754497922491282, 0.060092128813266754, 0.0034164804965257645, -0.1406002938747406, 0.09324783831834793, 0.014823298901319504, 0.02189629338681698, 0.01607455685734749, 0.01638827845454216, -0.0352514274418354, 0.0364457368850708, -0.016963576897978783, -0.03471875190734863, 0.1769363433122635, -0.019677916541695595, -0.057667721062898636], [0.039760127663612366, -0.010720415972173214, -0.14143779873847961, -0.05953441932797432, 0.06593289226293564, -0.034548915922641754, -0.02272401750087738, 0.013705329038202763, -0.024664083495736122, 0.007475238759070635, 0.018923932686448097, 0.0038769824896007776, 0.009835927747189999, 0.15841172635555267, -0.0016905742231756449, 0.04588785767555237, -0.12868632376194, -0.04989505931735039, 0.02067917212843895, 0.04296256974339485, 0.008975827135145664, -0.09718196094036102, 0.10474028438329697, -0.005170916672796011, 0.04023432359099388, -0.029204491525888443, -0.04113619402050972, -0.058820199221372604, 0.017912566661834717, -0.028356119990348816, 0.020555656403303146, 0.05039454624056816, -0.011381823569536209, -0.01317864004522562, -0.032429154962301254, 0.003718120977282524, 0.0188544113188982, -0.004199959337711334, 0.009253966622054577, -0.004792443942278624], [0.05931747704744339, 0.010418674908578396, -0.08349177241325378, -0.01732194982469082, 0.009141433984041214, -0.01972927339375019, -0.013234566897153854, 0.01286813523620367, 0.04795771464705467, 0.0942653939127922, -0.009308800101280212, -0.028078816831111908, 0.022768309339880943, -0.0008247061632573605, 0.015920033678412437, 0.06255974620580673, -0.07768063247203827, -0.03240470215678215, 0.03445908799767494, 0.13473570346832275, -0.0014304209034889936, -0.09379798173904419, 0.0547899566590786, -0.0006034531979821622, 0.03249693289399147, -0.09836166352033615, -0.055670615285634995, -0.08182641118764877, -0.04802794009447098, 0.008503226563334465, 0.030238214880228043, 0.08341830223798752, -0.007678990717977285, 0.04355497285723686, -0.052989229559898376, 0.017154714092612267, 0.022876085713505745, 0.041449543088674545, 0.03289200738072395, -0.020711079239845276], [0.7236666679382324, 0.03160783648490906, 0.0014028395526111126, -0.2137267142534256, 0.024520451202988625, -0.0740390345454216, -0.0672147274017334, 0.2361985445022583, 0.36795517802238464, -0.0020054071210324764, -0.11549174785614014, -0.08920922875404358, 0.022465743124485016, 0.3337675631046295, 0.11258171498775482, 0.0945860743522644, -1.018390417098999, -0.22167359292507172, 0.11471208184957504, 0.38124698400497437, 0.2366604208946228, -0.38994911313056946, 0.37688252329826355, 0.039948929101228714, 0.013687755912542343, -0.232439786195755, -0.0202761460095644, 0.04107901453971863, -0.06927419453859329, -0.10451627522706985, 0.0004522340605035424, 0.004332905635237694, 0.00921961572021246, 0.1498713493347168, 0.1461852490901947, -0.05478305742144585, 0.17258858680725098, 0.2986162006855011, 0.07705646753311157, 0.052581943571567535], [0.1861496865749359, -0.001450968673452735, -0.06253384798765182, -0.049777545034885406, 0.07281377911567688, -0.02472187951207161, 0.011463450267910957, 0.08043886721134186, -0.05087876692414284, -0.0026868509594351053, 0.02043227106332779, 0.022555863484740257, 0.00849215965718031, 0.16191209852695465, -0.015657400712370872, 0.02464117854833603, -0.07895302772521973, -0.01714562252163887, -0.014048845507204533, -0.09436369687318802, -0.017687804996967316, -0.02242606319487095, 0.02531944029033184, 0.05357430875301361, 0.06507673859596252, 0.028361808508634567, -0.0074066524393856525, -0.014060279354453087, 0.13098064064979553, 0.023912912234663963, -0.0013358176220208406, 0.013462095521390438, -0.014886829070746899, -0.06495840102434158, -0.06230277940630913, 0.0003825179301202297, 0.013076895847916603, -0.05390336364507675, 0.01028498262166977, 0.00837730523198843], [0.08252554386854172, -0.017343852669000626, -0.10056162625551224, -0.06985404342412949, 0.026375560089945793, -0.01743018813431263, -0.030091414228081703, 0.08944974839687347, -0.051200661808252335, 0.0441928505897522, 0.0015196738531813025, -0.014080648310482502, 0.014921007677912712, 0.11720333248376846, -0.03923879563808441, 0.03627464920282364, -0.11563337594270706, -0.07589258998632431, 0.030833933502435684, -0.007693994790315628, 0.022207127884030342, -0.06133279576897621, 0.006891664583235979, -0.03265251964330673, 0.042989373207092285, -0.015195770189166069, -0.04006321728229523, -0.1744367480278015, 0.08533823490142822, 0.02539164386689663, 0.024236947298049927, 0.0709342211484909, -0.017493387684226036, -0.006043549627065659, 0.010609040036797523, -0.00990647729486227, -0.0179792158305645, 0.17415751516819, -0.007522854488343, -0.04758778586983681], [-0.048621878027915955, -0.0044440701603889465, -0.041587889194488525, 0.05730894207954407, 0.0035365205258131027, -0.021684668958187103, -0.007156743202358484, 0.030314460396766663, 0.0350019708275795, -0.008217769674956799, 0.03431837260723114, 0.029281850904226303, 0.012858237139880657, -0.051213156431913376, -0.009727598167955875, 0.025355998426675797, 0.009283633902668953, -0.02248576655983925, -0.0582655631005764, 0.05908053368330002, -0.0760045126080513, -0.004362881183624268, 0.043323345482349396, 0.04466504231095314, 0.003416202962398529, 0.035687562078237534, -0.0353236198425293, -0.07387549430131912, -0.07125876843929291, -0.03952017426490784, -0.004930960480123758, 0.037392448633909225, 0.04077856242656708, 0.012281171977519989, -0.09606795758008957, 0.011652622371912003, 0.02719392254948616, 0.030282411724328995, 0.020972151309251785, -0.007779302541166544], [-0.0774393156170845, -0.012896422296762466, -0.05697828531265259, 0.02512483485043049, -0.04593673720955849, 0.05496884509921074, 0.032431360334157944, 0.11625630408525467, -0.08534694463014603, 0.07153990119695663, -0.02338423952460289, 0.05436897650361061, 0.03267635032534599, -0.029636787250638008, 0.006271862890571356, -0.04842766746878624, 0.11867322772741318, -0.002774246968328953, -0.07487588375806808, -0.24841639399528503, -0.030798885971307755, 0.09456643462181091, -0.20850825309753418, 0.06343764066696167, -0.025869648903608322, 0.13663572072982788, 0.021487705409526825, -0.03898370638489723, 0.1518636792898178, 0.16891147196292877, -0.006559351924806833, -0.05006472021341324, 0.0036748729180544615, -0.039517953991889954, -0.005884821992367506, -0.01578746736049652, -0.022968675941228867, 0.007587662898004055, -0.0031443126499652863, -0.06337647885084152], [0.08935509622097015, 0.0055025662295520306, -0.269726037979126, 0.0602710098028183, -0.14976809918880463, -0.05908616632223129, 0.05929075554013252, 0.2608358860015869, 0.2417195737361908, 0.13379058241844177, -0.03080352395772934, 0.015560515224933624, -0.003419476794078946, 0.15699243545532227, -0.11217303574085236, 0.09902885556221008, 0.037564437836408615, -0.010155469179153442, -0.026834802702069283, -0.011686581186950207, -0.023853562772274017, 0.006234292406588793, -0.14393478631973267, 0.11411669105291367, 0.037487246096134186, 0.07185297459363937, -0.05512619391083717, -0.3458233177661896, 0.23324938118457794, 0.11026311665773392, 0.043848879635334015, 0.1591511070728302, -0.13787797093391418, 0.11902759224176407, -0.036323633044958115, 0.009218333289027214, 0.019043423235416412, 0.2512606978416443, -0.0455152690410614, -0.030589014291763306], [-0.03077564761042595, 0.0030397071968764067, -0.048989683389663696, 0.12908367812633514, -0.03288603574037552, -0.028391430154442787, 0.01155260019004345, 0.10421837121248245, 0.10778068006038666, 0.03325914219021797, 0.014222156256437302, 0.032708603888750076, 0.014511274173855782, 0.00038179135299287736, -0.013248484581708908, 0.04536556825041771, 0.1276354044675827, 0.02114776335656643, -0.053038567304611206, 0.05896645784378052, -0.08130134642124176, 0.026624657213687897, -0.020590346306562424, 0.11560860276222229, -0.01239401288330555, 0.06421594321727753, -0.04796622321009636, -0.09139614552259445, 0.07370074093341827, 0.043821342289447784, -0.008973382413387299, 0.03857076168060303, -0.0319063663482666, 0.04209631308913231, -0.10623239725828171, 0.020039089024066925, 0.04017535597085953, -0.03366107866168022, 0.009538435377180576, -0.0032952232286334038], [0.00320695573464036, 0.007699388079345226, 0.02849959209561348, 0.03771102800965309, 0.0016678852261975408, -0.036839473992586136, 0.026483463123440742, 0.0045023271813988686, 0.011704559437930584, -0.04441646859049797, 0.01117545086890459, 0.005191843956708908, -0.013912745751440525, -0.016694096848368645, -0.014315232634544373, -0.00475419033318758, 0.053252480924129486, 0.03714244067668915, -0.003709395881742239, 0.019998757168650627, -0.015242545865476131, 0.018433229997754097, -0.0339239202439785, 0.03960723802447319, -0.006312722805887461, -0.006138904951512814, 0.035217855125665665, 0.08660909533500671, -0.0010195581708103418, -0.04066033288836479, -0.004453420639038086, -7.33494816813618e-05, -0.022872086614370346, 0.03983454033732414, -0.02768421173095703, 0.006821433547884226, 0.005015958566218615, -0.07725255936384201, -0.018509382382035255, 0.04344316944479942], [-0.021696805953979492, 0.004406193736940622, -0.010710159316658974, 0.02081708423793316, 0.008142104372382164, -0.09922622889280319, 0.02507498487830162, -0.011658849194645882, -0.0012712680036202073, -0.05979950726032257, 0.019359974190592766, 0.026838580146431923, -0.05256346985697746, 0.09697505086660385, -0.06436008960008621, -0.042821500450372696, 0.07176831364631653, 0.012991764582693577, -0.08270836621522903, -0.0008157907286658883, -0.00891079567372799, -0.033371444791555405, 0.06385354697704315, 0.029617471620440483, -0.007262655533850193, 0.02504398673772812, 0.018034374341368675, 0.14001993834972382, 0.21809421479701996, -0.06761901080608368, 0.04840991646051407, 0.043991196900606155, -0.16499528288841248, 0.051564231514930725, -0.04576588794589043, 0.007242762017995119, 0.0705413818359375, -0.06269436329603195, -0.03219565004110336, 0.08657941967248917], [0.014083754271268845, -0.006632673088461161, -0.03351154178380966, -0.05081145837903023, 0.018232667818665504, -0.024176230654120445, -0.022984815761446953, 0.07116147875785828, -0.027497177943587303, -0.01573745720088482, 0.01805323362350464, 0.0012045854236930609, -0.04572005569934845, 0.10103549808263779, -0.03206562623381615, -0.012970936484634876, -0.043553825467824936, -0.044030822813510895, -0.0030535028781741858, -0.007788144983351231, -0.017209161072969437, -0.02500329352915287, 0.01392749510705471, 0.04124516621232033, 0.010908929631114006, 0.019122282043099403, -0.008997130207717419, -0.08746597170829773, 0.04595810920000076, -0.06466476619243622, 0.03365113213658333, 0.06823518872261047, -0.06325976550579071, 0.045748524367809296, -0.018236735835671425, -0.004607523791491985, -0.0027087093330919743, 0.05700990930199623, -0.04088975116610527, 0.015872400254011154], [0.041709866374731064, -0.00045716037857346237, -0.06047702580690384, 0.07247702777385712, -0.023744352161884308, -0.019985856488347054, 0.015223906375467777, 0.05078664422035217, 0.0629945620894432, 0.04583057761192322, 0.00666708592325449, 0.0282150749117136, 0.015445413067936897, 0.09271299093961716, -0.02134994976222515, 0.03500087931752205, 0.06945645064115524, 0.02148573286831379, -0.050604768097400665, -0.015214795246720314, -0.034082189202308655, 0.024241240695118904, -0.018320715054869652, 0.06578299403190613, 0.010326922871172428, 0.04393243044614792, -0.03085966967046261, -0.04981263354420662, 0.15332409739494324, 0.06501620262861252, -0.014737753197550774, 0.03898422420024872, -0.028104331344366074, -0.01740184798836708, -0.050175346434116364, 0.011181628331542015, 0.021303100511431694, -0.04178803414106369, 0.031676772981882095, -0.011660977266728878], [0.022552983835339546, -0.008095969446003437, -0.05068659782409668, 0.00419198302552104, -0.0014965536538511515, 0.0011696995934471488, 0.01010280940681696, 0.11344296485185623, -0.06397116184234619, 0.003807139117270708, 0.019246762618422508, 0.02483680658042431, 0.010400243103504181, 0.007991598919034004, -0.026606636121869087, -0.015402291901409626, -0.0838690921664238, -0.023936497047543526, -0.05865165591239929, -0.08612340688705444, 0.018920037895441055, 0.05142216384410858, -0.057936761528253555, 0.06646479666233063, 0.0013887266395613551, 0.05147358402609825, 0.017851572483778, -0.08376018702983856, 0.0689019188284874, 0.026964789256453514, -0.0074901641346514225, 0.0058082956820726395, 0.020513880997896194, -0.04253166913986206, -0.0201030895113945, -0.009425024501979351, -0.0038367838133126497, 0.043444402515888214, 0.015272249467670918, -0.017889201641082764], [-0.0142148332670331, -0.00031431386014446616, -0.009386730380356312, -0.0006125697400420904, -0.004982631187886, -0.0046075996942818165, -0.0034123724326491356, 0.019803285598754883, 0.0032701431773602962, 3.164265217492357e-05, 0.007372555322945118, 0.010163537226617336, 0.0008338507614098489, -0.010421765968203545, -0.006207136437296867, -0.011728786863386631, 0.007387963589280844, -0.0027292477898299694, -0.014421983622014523, -0.004058645106852055, -0.020017823204398155, 0.0013124308316037059, -0.0053671179339289665, 0.01842692866921425, -0.00029427476692944765, 0.00582473399117589, -0.0023295634891837835, -0.016528399661183357, -0.013824261724948883, -0.0046379403211176395, 0.004155376926064491, 0.003263789927586913, 0.005457157734781504, 0.002131338231265545, -0.015702299773693085, 0.004158806521445513, 0.0022985029499977827, 0.0003921674215234816, 0.002313238801434636, -0.0031681088730692863], [-0.003318656235933304, -0.002589734271168709, -0.03173280879855156, 0.0054744696244597435, 0.0018209981499239802, 0.003791437717154622, -0.0017524613067507744, 0.0065987263806164265, 0.00978781282901764, 0.018257703632116318, 0.00454946793615818, 0.013742873445153236, 0.012059187516570091, 0.053569383919239044, 0.02233596332371235, 0.010990401729941368, -0.029047084972262383, -0.011864270083606243, -0.01966092921793461, -0.010316800326108932, -0.02760770544409752, -0.012238766998052597, 0.02114332653582096, 0.022697223350405693, 0.010958803817629814, 0.012855053879320621, -0.013753442093729973, -0.006748484913259745, 0.02284882217645645, 0.00653664767742157, -0.006572486832737923, 0.018541844561696053, 0.021939557045698166, -0.0335523784160614, -0.04360415041446686, 0.0059348479844629765, 0.018534334376454353, -0.022634299471974373, 0.03006812557578087, -0.013627787120640278], [-0.2454301416873932, 0.014010016806423664, 0.3124879002571106, 0.09060920774936676, -0.04839828982949257, -0.006578517612069845, -0.028406038880348206, -0.058581091463565826, 0.3635771572589874, -0.12954634428024292, 0.02259700745344162, -0.031610649079084396, 0.0033418256789445877, -0.26847413182258606, 0.07555161416530609, 0.013384534046053886, -0.162671759724617, -0.06046392768621445, 0.026168009266257286, 0.36894887685775757, -0.15050941705703735, -0.09307539463043213, 0.21611255407333374, 0.13781192898750305, -0.1153414323925972, -0.01142786256968975, -0.05817665159702301, 0.1007591187953949, -0.37898537516593933, -0.218716099858284, -0.05823714658617973, -0.029525969177484512, 0.14480003714561462, 0.09049937129020691, -0.12970440089702606, 0.028834227472543716, 0.08832359313964844, 0.05920382961630821, 0.06288065761327744, 0.046684615314006805], [-0.018362155184149742, 0.00173190888017416, -0.004774961154907942, 0.0752958133816719, -0.02483278699219227, -0.06665745377540588, 0.015654120594263077, 0.0723598524928093, 0.06751631945371628, -0.05303934961557388, 0.023176265880465508, 0.012318529188632965, -0.014292693696916103, -0.008978304453194141, -0.036654651165008545, 0.010351093485951424, -0.09223616123199463, -0.0037015676498413086, -0.04263855144381523, 0.10139986127614975, -0.023642832413315773, 0.012731479480862617, 0.043793391436338425, 0.0772121250629425, 0.00021547460346482694, 0.016162743791937828, 0.007497526239603758, -0.032143786549568176, 0.016994351521134377, -0.07754546403884888, -0.0023588137701153755, 0.043792974203825, -0.0034854866098612547, 0.08284320682287216, -0.05545572191476822, 0.0025396847631782293, 0.028097936883568764, 0.034930821508169174, -0.007607482373714447, 0.07343260198831558], [-0.041273705661296844, -0.003551013534888625, -0.033258650451898575, 0.06748843193054199, 0.027483653277158737, -0.09253863990306854, -0.012303830124437809, 0.04994693398475647, 0.008311071433126926, -0.03556486591696739, 0.0562979131937027, 0.04235472157597542, -0.026108425110578537, 0.03128735348582268, -0.11863585561513901, 0.018992293626070023, 0.0298814307898283, -0.019784672185778618, -0.08691123127937317, 0.03405965864658356, -0.06606538593769073, 0.04052759334445, -0.01815922185778618, 0.015067806467413902, -0.00509919598698616, 0.0621764101088047, -0.019956231117248535, -0.1207776740193367, 0.060617804527282715, -0.061403919011354446, 0.02908509597182274, 0.10898043215274811, -0.08418448269367218, 0.09826706349849701, -0.10186944901943207, 0.003520593047142029, 0.009617782197892666, 0.07220564782619476, -0.045068174600601196, 0.011267599649727345], [0.14171238243579865, -0.09189248830080032, -0.6661099195480347, 0.006367604248225689, 0.282878041267395, -0.17717039585113525, -0.0809711292386055, 0.14578838646411896, 0.5073928833007812, 0.06443803012371063, 0.2460869699716568, 0.23579996824264526, -0.00450859172269702, 0.49252772331237793, -0.3640753924846649, 0.1308780163526535, -0.7896553874015808, -0.4401538670063019, -0.34613966941833496, 0.3937152624130249, -0.06912126392126083, -0.17727477848529816, 0.424166202545166, -0.2150329053401947, 0.01818058080971241, 0.3135317265987396, -0.17855703830718994, -1.1317733526229858, -0.3895944058895111, -0.32928466796875, 0.14173991978168488, 0.4684560298919678, 0.08836609870195389, 0.11253014206886292, -0.23059415817260742, -0.10823836922645569, 0.04903704673051834, 0.8733940124511719, -0.10153143852949142, -0.22835364937782288], [0.0010756804840639234, -0.0001908861886477098, 0.0062299552373588085, 0.00013084703823551536, -0.00015444468590430915, 0.0012582766357809305, -0.0003823855076916516, 0.0031785706523805857, -0.0014830970903858542, -0.002667435212060809, 0.0004183736746199429, 0.0009467923082411289, -0.0015229500131681561, -0.00145861750934273, -0.001911768107675016, -0.003303016070276499, 0.010897249914705753, 0.0014816488837823272, -0.0010185950668528676, -0.003747248090803623, 0.0014776653843000531, 0.004728406202048063, -0.005070933606475592, -0.0010310203069821, -0.0013430464314296842, 0.003659424837678671, 0.00045765688992105424, 0.0006659659557044506, 0.003899370087310672, 0.0018175874138250947, 0.00026816315948963165, -0.0027141571044921875, -0.0005951473722234368, -0.0003312388143967837, 0.0035392888821661472, -0.0006036702543497086, -0.0018945439951494336, -0.0021076533012092113, -0.002588753355666995, 0.00045647184015251696], [-0.0189177505671978, -0.00438196724280715, 0.2671911120414734, 0.013539274223148823, -0.034437283873558044, 0.04849611967802048, -0.010676302947103977, -0.0049095191061496735, -0.12366081029176712, -0.07926580309867859, -0.0007785847992636263, 0.011169703677296638, -0.0477968193590641, -0.057153038680553436, -0.02530406042933464, -0.10337343066930771, 0.17667289078235626, 0.04987984523177147, -0.02620350942015648, -0.10116028040647507, 0.06510789692401886, 0.16986790299415588, -0.19136211276054382, -0.01648135855793953, -0.05345361307263374, 0.07278604805469513, 0.07451748102903366, 0.07939207553863525, 0.05731281638145447, 0.030240098014473915, -0.01649356819689274, -0.10040019452571869, -0.0003168240946251899, -0.003953995183110237, 0.12633320689201355, -0.022565729916095734, -0.059760794043540955, 0.0023506616707891226, -0.06296282261610031, 0.01821683533489704], [0.024066388607025146, 0.0029553240165114403, -0.07785049825906754, -0.03058401495218277, -0.002631438197568059, -0.011208579875528812, -0.0075588044710457325, -0.10828274488449097, 0.08479437977075577, 0.044662948697805405, -0.020476777106523514, -0.04820871725678444, 0.03730400279164314, 0.041565679013729095, 0.05108537897467613, 0.059416379779577255, -0.0838358923792839, 0.0011718467576429248, 0.09335631132125854, 0.1044594943523407, 0.03071487881243229, -0.1535707265138626, 0.1721702665090561, 0.036190323531627655, 0.03077581897377968, -0.07956527173519135, -0.06097782030701637, -0.01614774763584137, -0.08459755778312683, -0.007939355447888374, -0.0033607701770961285, 0.017340360209345818, -0.011229506693780422, -0.016492769122123718, 0.024931570515036583, 0.007108977064490318, 0.046137865632772446, -0.05207090452313423, 0.04296398162841797, -0.011357764713466167], [-0.04274197295308113, -0.0027680203784257174, 0.1775115430355072, 0.041463419795036316, -0.003228558925911784, 0.01129019446671009, -0.0010507990373298526, 0.025535767897963524, -0.03481338918209076, -0.11468889564275742, 0.02334613725543022, 0.03037436120212078, -0.026259617879986763, -0.10602546483278275, -0.015022271312773228, -0.05539771169424057, 0.23604533076286316, 0.04592292010784149, -0.04383275657892227, -0.02199181541800499, -0.003154028207063675, 0.09773718565702438, -0.0684814378619194, 0.04086127504706383, -0.04180724918842316, 0.08052774518728256, 0.03240577504038811, 0.06815720349550247, -0.0075586698949337006, -0.018930871039628983, -0.021320858970284462, -0.06585000455379486, 0.003515098709613085, 0.004758300259709358, 0.028989212587475777, -0.012397163547575474, -0.017707999795675278, -0.08180620521306992, -0.03853007033467293, 0.03474273905158043], [0.016828007996082306, 0.0012461739825084805, -0.0013790398370474577, -0.033071085810661316, 0.003091879654675722, 0.005717447958886623, -0.003951836843043566, -0.02640420012176037, -0.01830080710351467, 0.012691761367022991, -0.013580698519945145, -0.016876745969057083, -0.0017569968476891518, 0.029225245118141174, 0.00778562156483531, -0.00436432147398591, -0.03199763223528862, 0.0016424530185759068, 0.030052725225687027, -0.015317041426897049, 0.03140414133667946, -0.018191829323768616, 0.006645894609391689, -0.021556919440627098, 0.004153850022703409, -0.02691485732793808, 0.00802520290017128, 0.021586116403341293, 0.014387347735464573, 0.011959151364862919, 0.00445027370005846, -0.008732474409043789, -0.0159893911331892, -0.007719818037003279, 0.036067042499780655, -0.004408433102071285, -0.006738786119967699, 0.0002256664593005553, -0.004302434157580137, -0.002785824704915285], [0.005106970202177763, 0.0013979567447677255, -0.10077713429927826, 0.017992710694670677, -0.0011289928806945682, -0.017437772825360298, 0.009755974635481834, -0.038221534341573715, 0.03585585951805115, 0.018983693793416023, -0.00144877377897501, -0.025525515899062157, 0.027445267885923386, 0.016435351222753525, 0.035449378192424774, 0.04794410243630409, -0.10526890307664871, 0.0039478507824242115, 0.04933830350637436, 0.08391042798757553, 0.023009950295090675, -0.08812227845191956, 0.11760719865560532, 0.05500262975692749, 0.01803826354444027, -0.047976601868867874, -0.03316158056259155, -0.03789646178483963, -0.058105066418647766, -0.009629050269722939, -0.0016259588301181793, 0.02117634378373623, -0.01258945744484663, 0.0033032798673957586, 0.0027380401734262705, 0.001921486691571772, 0.03579998016357422, -0.015583934262394905, 0.03185632452368736, 0.006376487202942371], [-0.08080459386110306, -0.012610792182385921, 0.26082703471183777, 0.24432097375392914, 0.002409168751910329, -0.06342822313308716, 0.054360274225473404, 0.20694899559020996, -0.34130197763442993, -0.2834307551383972, 0.09757144749164581, -0.05893793702125549, -0.0026174045633524656, -0.17361700534820557, 0.05263477563858032, 0.04645531624555588, -0.4548540711402893, -0.028369218111038208, -0.005733163561671972, 0.2376784235239029, 0.045677829533815384, 0.11133266985416412, 0.004475641530007124, 0.22221282124519348, -0.06267029047012329, -0.04888496547937393, 0.20867609977722168, -0.018083209171891212, -0.22469788789749146, -0.22144633531570435, -0.04980376362800598, -0.051281146705150604, 0.022932130843400955, 0.08761504292488098, -0.03572412207722664, -0.06572090834379196, 0.009638759307563305, 0.34272581338882446, -0.011656752787530422, 0.14445747435092926], [-0.011587919667363167, 0.008107190951704979, 0.2823599576950073, 0.004673880524933338, -0.029296046122908592, 0.05781598389148712, -0.016844473779201508, -0.1703176349401474, -0.05448198318481445, -0.09025384485721588, -0.018427181988954544, -0.015676092356443405, -0.050007179379463196, -0.04813263192772865, 0.03551170229911804, -0.09963862597942352, 0.3158917725086212, 0.112201027572155, 0.045280903577804565, -0.04547169432044029, 0.1237073615193367, 0.11013585329055786, -0.08580669015645981, -0.005486158654093742, -0.06028909608721733, 0.02345047891139984, 0.042192596942186356, 0.1934623271226883, 0.004945948254317045, 0.030020125210285187, -0.018254144117236137, -0.15298984944820404, -0.02700052224099636, -0.0286369901150465, 0.1964612901210785, -0.01104416698217392, -0.037378840148448944, -0.1831386387348175, -0.055948369204998016, 0.051763296127319336], [0.08541188389062881, 0.00946938805282116, -0.11924692988395691, -0.11936178803443909, -0.029527239501476288, 0.022778844460844994, 0.006343466695398092, -0.1461288034915924, -0.02154911495745182, 0.11861056834459305, -0.08379398286342621, -0.10151849687099457, 0.019971532747149467, 0.140740305185318, 0.06756171584129333, 0.03289460018277168, -0.23767612874507904, 0.001946262433193624, 0.17457184195518494, -0.011313688941299915, 0.11600249260663986, -0.14281220734119415, 0.04202866554260254, -0.05209292843937874, 0.03908608853816986, -0.1736810803413391, 0.028444813564419746, 0.07511604577302933, 0.025932813063263893, 0.06607303023338318, 0.006970522925257683, -0.004431148525327444, -0.07195638865232468, -0.012625990435481071, 0.12602287530899048, -0.005241537932306528, 0.003899339819326997, 0.02751745469868183, 0.02344188094139099, -0.024667255580425262], [0.02094455435872078, 0.0012707107234746218, -0.027028441429138184, -0.0387081615626812, 0.0062792436219751835, 0.002618145663291216, -0.0037150259595364332, -0.02256927266716957, -0.016296008601784706, 0.02434994839131832, -0.014142010360956192, -0.018319660797715187, 0.00014678496518172324, 0.03931528702378273, 0.0033188837114721537, 0.0019757442642003298, -0.06793244183063507, -0.008577737025916576, 0.030995002016425133, -0.018877198919653893, 0.02992839179933071, -0.02773948200047016, 0.009537412784993649, -0.0247931107878685, 0.01033834833651781, -0.03421228006482124, 0.005632819142192602, 0.006183506455272436, 0.020269369706511497, 0.013818072155117989, 0.009817962534725666, 0.002507432596758008, -0.016891514882445335, -0.007287188433110714, 0.02976764366030693, -0.003698540385812521, -0.007528495043516159, 0.022653594613075256, -0.00254273833706975, -0.00790352001786232], [0.008605721406638622, 0.002219303511083126, 0.009947477839887142, -0.028083398938179016, 0.0033920626156032085, 0.0099800955504179, -0.008617144078016281, -0.0516059510409832, 0.015437470749020576, 0.011064324527978897, -0.009125053882598877, -0.003029308281838894, -0.005825722590088844, 0.015618393197655678, 0.0015073001850396395, -0.011582677252590656, 0.04549074172973633, 0.010767359286546707, 0.012221614830195904, -0.01599937304854393, 0.01586289145052433, -0.004995338618755341, 0.002167006256058812, -0.025753041729331017, 0.000483206647913903, -0.004487431608140469, -0.011242474429309368, 0.024661943316459656, 0.011008920148015022, 0.015125486999750137, 0.004339131060987711, -0.013196531683206558, -0.0053183636628091335, -0.013243422843515873, 0.026554586365818977, 0.002757909009233117, -0.005723641719669104, -0.03562549501657486, -0.006182754412293434, -0.006616383790969849], [0.02039945311844349, 0.0014037665678188205, -0.019845005124807358, -0.03518926724791527, 0.008412509225308895, 0.001889017759822309, -0.006360283121466637, -0.025171631947159767, -0.0076321023516356945, 0.019764695316553116, -0.013722287490963936, -0.01819823682308197, 0.0016213266644626856, 0.03218391537666321, 0.005690335296094418, 0.0026512371841818094, -0.05674351006746292, -0.007398949004709721, 0.03172682970762253, -0.005724156275391579, 0.027798624709248543, -0.03397979214787483, 0.02305298112332821, -0.021981531754136086, 0.008619794622063637, -0.03195956349372864, -0.0011857704957947135, 0.006795627996325493, 0.011135886423289776, 0.010300488211214542, 0.008111294358968735, -0.00029713561525568366, -0.013781285844743252, -0.008745367638766766, 0.028229761868715286, -0.003345730947330594, -0.004131881520152092, 0.01081869937479496, -0.0011535120429471135, -0.006621567532420158], [-0.30218398571014404, -0.026381419971585274, -0.3241569399833679, -0.22351042926311493, 0.44636231660842896, -0.16976933181285858, -0.06768900156021118, 0.03491225466132164, -0.13270801305770874, 0.004251336213201284, 0.2344445139169693, 0.12809453904628754, -0.015247015282511711, 0.4468754827976227, -0.07103519141674042, 0.05584998056292534, -0.4425247311592102, -0.2348129004240036, -0.16676586866378784, -0.09426402300596237, -0.05153921619057655, -0.07491332292556763, 0.1938798725605011, -0.12689407169818878, 0.21479514241218567, -0.02585870586335659, -0.018660537898540497, -0.268869549036026, -0.2618210017681122, -0.22486653923988342, 0.017198150977492332, 0.2958291172981262, 0.0945802628993988, -0.07382428646087646, -0.30745580792427063, 0.006706744898110628, 0.040394410490989685, 0.2876490354537964, 0.025090418756008148, -0.07346706837415695], [0.01418258249759674, 0.0018831368070095778, -0.020605189725756645, -0.023312583565711975, 0.009111578576266766, -0.0025715285446494818, -0.00459344033151865, -0.022154567763209343, -0.003148465882986784, 0.007350142579525709, -0.006495352368801832, -0.014177744276821613, 0.0016403974732384086, 0.0214964859187603, 0.007809741422533989, 0.004541594069451094, -0.05005469545722008, -0.003364186268299818, 0.02641395293176174, 0.009752653539180756, 0.023392418399453163, -0.03019932471215725, 0.03410736471414566, -0.012738787569105625, 0.004897868260741234, -0.026670491322875023, -0.0030058403499424458, 0.005134284030646086, -0.003914894536137581, 0.00028046214720234275, 0.00789785385131836, -0.0018704725662246346, -0.010935481637716293, -0.006230433005839586, 0.021252525970339775, -0.0021186568774282932, 0.0005660868482664227, -0.002097500255331397, 3.021702832484152e-05, 0.0013818445149809122], [-0.009935444220900536, -0.00012842380965594202, -0.06100493296980858, -0.034635212272405624, 0.02946556732058525, -0.01489365752786398, -0.0404445044696331, -0.08848951756954193, 0.15248648822307587, 0.013815905898809433, 0.017983194440603256, 0.017885806038975716, 0.01800789311528206, -0.012715986929833889, -0.006481419317424297, 0.015613150782883167, -0.03347476199269295, -0.08309154212474823, -0.030717898160219193, 0.06770171225070953, -0.042966216802597046, -0.08273707330226898, 0.16401870548725128, 0.0006590719567611814, 0.005987109616398811, 0.018743108958005905, -0.09671343117952347, -0.10602343827486038, -0.1047392189502716, -0.046439461410045624, 0.017999915406107903, 0.031974632292985916, 0.039994534105062485, -0.01843038573861122, -0.04379942640662193, -0.004739538300782442, 0.0310770645737648, 0.039135172963142395, 0.02161579579114914, -0.032981038093566895], [-0.027172068133950233, -0.0004162810218986124, 0.24064327776432037, 0.026924561709165573, -0.05836049094796181, 0.04465151205658913, -0.016519177705049515, -0.11926709115505219, -0.021840013563632965, -0.09101057797670364, 0.008594180457293987, 0.001635116757825017, -0.030729535967111588, -0.06639781594276428, 0.01925674080848694, -0.07342653721570969, 0.30746495723724365, 0.08631689846515656, 0.0014301284682005644, -0.03303249925374985, 0.06909650564193726, 0.12162401527166367, -0.09299497306346893, 0.07454074174165726, -0.048190098255872726, 0.06879129260778427, 0.011749736964702606, 0.0660003051161766, -0.020395498722791672, 0.02010505087673664, -0.02867352031171322, -0.10969559848308563, 0.002097583608701825, -0.014352728612720966, 0.13362812995910645, -0.0055028656497597694, -0.012819704599678516, -0.12649890780448914, -0.03581725060939789, 0.03044590912759304], [0.024561839178204536, 0.0033894649241119623, 0.03910982236266136, -0.051105547696352005, 0.0075141554698348045, 0.01188675407320261, -0.009783362969756126, -0.08361916989088058, -0.03877273574471474, -0.003361478680744767, -0.021028609946370125, -0.03319873288273811, -0.007687178906053305, 0.0405719168484211, 0.021199967712163925, -0.01015583984553814, -0.02037828229367733, 0.012294723652303219, 0.05924833565950394, -0.013464811258018017, 0.06280376017093658, -0.029081907123327255, 0.01915484480559826, -0.038073137402534485, -0.0009156606975011528, -0.047262486070394516, 0.0156395323574543, 0.06420526653528214, 0.009958253242075443, 0.006159372627735138, 0.0023064054548740387, -0.03013460338115692, -0.023846160620450974, -0.01674358732998371, 0.07671036571264267, -0.009659860283136368, -0.010361016727983952, -0.02180216647684574, -0.010525994934141636, 0.004834176041185856], [0.01486301515251398, 0.001475744997151196, -0.008178891614079475, -0.03652680665254593, 0.011282981373369694, 0.007229856215417385, -0.013544842600822449, -0.03054177761077881, 0.019588489085435867, 0.02086545154452324, -0.00902868527919054, -0.0011715951841324568, -0.00585249625146389, 0.02146882191300392, -0.009607856161892414, -0.010411218740046024, 0.035342663526535034, -0.00158880150411278, 0.007822487503290176, -0.02514982782304287, 0.008772913366556168, -0.01053654681891203, 0.0005464684218168259, -0.03200403228402138, 0.006210699211806059, -0.005668113939464092, -0.01613623835146427, 0.0021533905528485775, 0.02184460684657097, 0.01630498096346855, 0.011478006839752197, -0.0013239678228273988, -0.002870389958843589, -0.014134738594293594, 0.016725994646549225, 0.0033897936809808016, -0.010810441337525845, -0.015287679620087147, -0.00894137192517519, -0.014071949757635593], [0.03987598791718483, 0.013840592466294765, -0.1450909823179245, 0.08921884745359421, -0.07270779460668564, -0.0025175625924021006, 0.07510147243738174, 0.008663731627166271, 0.08253832161426544, 0.033150020986795425, -0.03088354878127575, -0.042014144361019135, 0.034173041582107544, 0.011758003383874893, 0.07347852736711502, 0.08543288707733154, 0.0369160994887352, 0.07096242159605026, 0.08955144137144089, 0.09843890368938446, -0.002199693350121379, -0.06660482287406921, -0.008497444912791252, 0.09392155706882477, 0.014251140877604485, -0.08469744026660919, 0.02291875332593918, 0.07398157566785812, -0.04065011441707611, 0.02537301369011402, -0.02702612616121769, 0.012087114155292511, -0.05317741632461548, 0.047310519963502884, -0.020519869402050972, 0.021732697263360023, 0.045921530574560165, -0.14771291613578796, 0.05000077933073044, 0.03918957710266113], [-0.023673543706536293, 0.004155758302658796, 0.028008917346596718, 0.0527171827852726, -0.02732754684984684, 0.016520511358976364, -0.005960193462669849, -0.036881253123283386, 0.09913093596696854, -0.021177755668759346, 0.004083489533513784, 0.023904649540781975, -0.0010244809091091156, -0.06309683620929718, 0.009091116487979889, -0.013890866190195084, 0.22180815041065216, 0.04804956912994385, -0.024271465837955475, 0.037570465356111526, -0.027598261833190918, 0.027503278106451035, -0.0008114673546515405, 0.05350621044635773, -0.01671651005744934, 0.05478296056389809, -0.042756691575050354, 0.015034967102110386, -0.036722466349601746, 0.01341218687593937, -0.013186128810048103, -0.0310952328145504, 0.017144033685326576, -0.0026778127066791058, -0.0032040756195783615, 0.016166187822818756, 0.01736532337963581, -0.14381681382656097, 0.0023839750792831182, 0.008288118056952953], [0.005370860453695059, 0.0004252927319612354, 0.06204480305314064, -0.012791971676051617, -0.004297249019145966, 0.005998928099870682, -0.008528469130396843, -0.012689130380749702, -0.03587460517883301, -0.024014975875616074, -0.005838961340487003, -0.02167571894824505, -0.0022228150628507137, -0.019068436697125435, 0.012300112284719944, -0.009745994582772255, -0.02056712657213211, 0.004986955318599939, 0.03242794796824455, 0.017681650817394257, 0.028437981382012367, -0.009511847048997879, 0.005027577746659517, 0.014654720202088356, -0.01007255632430315, -0.024451229721307755, 0.016831543296575546, 0.014365055598318577, -0.029770011082291603, -0.008568545803427696, -0.0030421861447393894, -0.02921251580119133, -0.00470378901809454, -0.005678908433765173, 0.04462859034538269, -0.008208938874304295, -0.004670712165534496, 0.010914387181401253, -0.007925464771687984, 0.005154829937964678], [0.04053439199924469, 0.011317655444145203, -0.06977227330207825, -0.03565237671136856, -0.044942453503608704, 0.009511416777968407, 0.01645745150744915, -0.10477905720472336, 0.010441198945045471, 0.05351581797003746, -0.04985536262392998, -0.0824151560664177, 0.028256891295313835, 0.05659867450594902, 0.08390292525291443, 0.04018671065568924, -0.15890637040138245, 0.026502786204218864, 0.1394045203924179, 0.0641908273100853, 0.06789927184581757, -0.11776524037122726, 0.061001744121313095, 0.053097501397132874, 0.017396189272403717, -0.13709013164043427, 0.015174131840467453, 0.050313353538513184, -0.059580232948064804, 0.014250564388930798, -0.012241942808032036, -0.01863190531730652, -0.03672756627202034, 0.0047201067209243774, 0.07242853194475174, 0.004485819488763809, 0.03312762826681137, -0.05641845613718033, 0.04072438180446625, 0.009916571900248528], [0.06359104067087173, -0.017050152644515038, -0.36290988326072693, -0.09535812586545944, 0.20569543540477753, -0.09769535064697266, -0.02404029294848442, -0.1792730987071991, 0.1624520719051361, 0.06642598658800125, 0.0333285927772522, 0.005232165567576885, 0.08276916295289993, 0.17700141668319702, 0.02690740115940571, 0.12802399694919586, -0.02293640933930874, -0.05498308315873146, 0.07000922411680222, 0.15707232058048248, 0.10781173408031464, -0.3735644221305847, 0.6354638934135437, -0.1119551807641983, 0.08816756308078766, -0.02445930428802967, -0.26187801361083984, -0.0942721962928772, -0.02583366073668003, 0.011882339604198933, 0.05124019458889961, 0.1025099977850914, -0.08330332487821579, -0.09908802062273026, 0.02523317188024521, -0.020638123154640198, 0.08707502484321594, -0.09819956868886948, 0.049969907850027084, -0.011604232713580132], [-0.0006920920568518341, 0.0004894048906862736, 0.03572951629757881, 0.0008720758487470448, -0.009900453500449657, 0.00866699032485485, 0.0013052445137873292, -0.012697272002696991, -0.020164718851447105, -0.007736342027783394, -0.00564989261329174, -0.006329224910587072, -0.005425670184195042, -0.0012355732033029199, 0.005642638076096773, -0.011369386687874794, 0.026402682065963745, 0.012106118723750114, 0.008355098776519299, -0.01009117066860199, 0.01657855696976185, 0.018747374415397644, -0.02288476936519146, -0.00397063372656703, -0.007752385456115007, -0.0016665644943714142, 0.01563805341720581, 0.022485490888357162, 0.004778719041496515, 0.006530483718961477, -0.004550900310277939, -0.01869927905499935, -0.00460114236921072, 2.801156551868189e-05, 0.02676497772336006, -0.003623123047873378, -0.005533615127205849, -0.004002782050520182, -0.006643129512667656, 0.00458226865157485], [0.01068512350320816, 0.00382498768158257, -0.005037329625338316, -0.027912942692637444, 0.00023427170526701957, 0.012319897301495075, -0.009480512700974941, -0.05046640336513519, 0.038010597229003906, 0.021493712440133095, -0.011691057123243809, 0.0011467821896076202, -0.007273070048540831, 0.016816871240735054, -0.0015998901799321175, -0.01174975000321865, 0.07161585241556168, 0.014906146563589573, 0.012035886757075787, -0.018882952630519867, 0.010382559150457382, -0.006913813762366772, -0.0019524283707141876, -0.024001698940992355, 0.002288884250447154, -0.0028734959196299314, -0.02156597562134266, 0.022799458354711533, 0.012549873441457748, 0.022259488701820374, 0.008120664395391941, -0.011208955198526382, -0.0046630119904875755, -0.014910103753209114, 0.02345062792301178, 0.008855225518345833, -0.006413388065993786, -0.06433165818452835, -0.006610159296542406, -0.009490913711488247], [0.03381353244185448, 0.002338275546208024, 0.05063769966363907, -0.06835616379976273, 0.02339501678943634, 0.014234451577067375, -0.006156527902930975, -0.09098564088344574, -0.08282924443483353, 0.005306482780724764, -0.02865065075457096, -0.0364224947988987, -0.014176983386278152, 0.0680859237909317, 0.020479995757341385, -0.01876010186970234, -0.042540278285741806, 0.013168299570679665, 0.0664438009262085, -0.04646903648972511, 0.08501623570919037, -0.022049440070986748, 0.006469047162681818, -0.0666845291852951, -0.00173219945281744, -0.05756095051765442, 0.036848414689302444, 0.10184400528669357, 0.04356449842453003, 0.016558974981307983, 0.004293445032089949, -0.03581073507666588, -0.03861118480563164, -0.020982032641768456, 0.09707479923963547, -0.015807922929525375, -0.02269047684967518, -0.011278508231043816, -0.018187616020441055, 0.005202633794397116], [-0.6517633199691772, 0.013766858726739883, -0.40406084060668945, 0.4972381591796875, -0.12142054736614227, -0.0946759507060051, 0.19632653892040253, 0.27881473302841187, 0.07837587594985962, -0.20493774116039276, 0.21343013644218445, 0.13935399055480957, -0.0006802902789786458, -0.4863928556442261, 0.07153171300888062, -0.023090176284313202, -0.16609147191047668, 0.08926797658205032, -0.42923253774642944, 0.2562399208545685, -0.2749118208885193, 0.44244682788848877, -0.2927437424659729, 0.33206650614738464, -0.13803376257419586, 0.23142467439174652, 0.12235105782747269, -0.15970009565353394, -0.5808378458023071, -0.33409199118614197, -0.12941722571849823, 0.12215261161327362, 0.09251769632101059, 0.3307873606681824, -0.4611195921897888, 0.023379266262054443, 0.11688351631164551, 0.11861129105091095, 0.08941958844661713, 0.10655002295970917], [0.02175937592983246, 0.009711607359349728, -0.12523317337036133, 0.0932464450597763, -0.03878140076994896, -0.006548192817717791, 0.06812670081853867, 0.06539247930049896, -0.05673135817050934, -0.008563374169170856, 0.0016055976739153266, -0.01923043467104435, 0.002120781457051635, 0.008226467296481133, 0.036219801753759384, 0.023134415969252586, -0.01799902133643627, 0.05463245511054993, 0.044120848178863525, 0.03982105106115341, 0.024436796084046364, 0.03292091563344002, -0.07618965953588486, 0.05031244084239006, -0.009674212895333767, -0.05282416567206383, 0.06818488240242004, 0.063705213367939, -0.0182925034314394, 0.004258538130670786, -0.006860652007162571, -0.009794547222554684, -0.04374413937330246, 0.06773781031370163, 0.0018799412064254284, 0.0073426999151706696, 0.0038291248492896557, -0.05503218621015549, 0.010242006741464138, 0.05318876728415489], [0.05547451227903366, 0.006872206926345825, -0.02581918239593506, -0.08559110760688782, -0.017092425376176834, 0.021097665652632713, 0.003004699246957898, -0.11338675767183304, -0.04450604319572449, 0.05817065015435219, -0.05618085339665413, -0.07337436079978943, 0.006383038125932217, 0.09481748938560486, 0.048643533140420914, 0.012950584292411804, -0.12524402141571045, 0.011118161492049694, 0.1280120313167572, -0.01842440664768219, 0.10030210018157959, -0.08463424444198608, 0.021665669977664948, -0.038856200873851776, 0.019666001200675964, -0.11815014481544495, 0.027571067214012146, 0.0794978067278862, 0.026167986914515495, 0.04173988476395607, 0.0030116401612758636, -0.022071605548262596, -0.05228456109762192, -0.01565423607826233, 0.11388489603996277, -0.008853972889482975, -0.005807860288769007, 0.002809870056807995, 0.006408996880054474, -0.009522076696157455], [0.01535074319690466, -0.0009459683205932379, -0.001248714281246066, -0.027252571657299995, 0.006554480642080307, 0.002799001056700945, -0.008949562907218933, 0.002104495419189334, -0.014300264418125153, 0.01304576825350523, -0.009211585856974125, -0.010640094056725502, 0.00026169372722506523, 0.01875997893512249, -0.004252451006323099, -0.005655895918607712, -0.05191177874803543, -0.012650521472096443, 0.014848053455352783, -0.012499799020588398, 0.021517537534236908, -0.01497495174407959, 0.008319859392940998, -0.019902117550373077, 0.005053880158811808, -0.014133297838270664, 1.2719614460365847e-05, -0.010258257389068604, 0.015745416283607483, 0.011205214075744152, 0.00757271982729435, -0.0014031205791980028, -0.008061354048550129, -0.006913334596902132, 0.023138882592320442, -0.005941422190517187, -0.008349351584911346, 0.033718809485435486, -0.005154374521225691, -0.009004063904285431], [0.007583463564515114, 0.0011514686048030853, 0.033526115119457245, 0.013837449252605438, -0.0038743806071579456, 0.00025897554587572813, 0.008448684588074684, 0.01168939471244812, -0.02967052347958088, -0.004566229414194822, -0.0035910445731133223, -0.009708581492304802, 0.00045991421211510897, 0.0078247906640172, 0.009903781116008759, -0.00018567930965218693, -0.03825616464018822, -0.011335058137774467, 0.015711957588791847, 0.004754350055009127, 0.0060900417156517506, -0.002878218423575163, 0.001090841251425445, 0.0021020607091486454, -0.00325528415851295, -0.019039152190089226, 0.018495136871933937, 0.0213213711977005, -0.02719155326485634, -0.008309116587042809, -0.0052414629608392715, -0.005884754937142134, -0.005672046914696693, 0.01728826016187668, 0.004483106080442667, -0.007726714015007019, 0.0005402162205427885, 0.002858625492081046, 0.0027297325432300568, 0.005401508882641792], [0.010543209500610828, 0.0008640966261737049, 0.005708104465156794, -0.00729741808027029, 0.0023965996224433184, 0.004831322468817234, 0.003481325227767229, 0.010641244240105152, -0.0186268649995327, -0.00283321226015687, -0.0050708274357020855, -0.0005159137072041631, -0.006339867599308491, 0.00808765459805727, -0.0036062186118215322, -0.010036635212600231, 0.005772161763161421, 0.005900888238102198, 0.004826803226023912, -0.02091084234416485, 0.01312390249222517, 0.014369097538292408, -0.024778632447123528, -0.014889647252857685, -0.0026715248823165894, -0.0015468497294932604, 0.014347371645271778, 0.020164672285318375, 0.02388414926826954, 0.009581134654581547, 0.0019752345979213715, -0.007771952543407679, -0.01141850184649229, 0.0013928305124863982, 0.016372719779610634, -0.002867182018235326, -0.010895514860749245, -0.006545327603816986, -0.009349415078759193, 0.004355014767497778], [0.012497635558247566, 0.0003396297397557646, 0.02731957659125328, -0.021367814391851425, 0.018616922199726105, 0.003003849647939205, -0.0023461072705686092, -0.02035858854651451, -0.04135037213563919, -0.012457874603569508, -0.0051999157294631, -0.006090322509407997, -0.010514343157410622, 0.02081255242228508, 0.0014046616852283478, -0.01425933837890625, -0.0021103715989738703, 0.0067986357025802135, 0.010280688293278217, -0.024005012586712837, 0.027501588687300682, 0.006534385494887829, -0.00428781658411026, -0.03235900029540062, -0.004608412738889456, -0.009924362413585186, 0.022589469328522682, 0.0462157279253006, 0.02079952508211136, -0.0001536447525722906, 0.0025580881629139185, -0.016065817326307297, -0.015066463500261307, -0.006937459576874971, 0.02712002582848072, -0.007888919673860073, -0.014074288308620453, -0.009802418760955334, -0.014882439747452736, 0.008040275424718857], [0.0007921921205706894, 0.002175265457481146, 0.008318678475916386, -0.006399224977940321, -0.010019133798778057, 0.01483398862183094, -0.009513552300632, -0.03500312194228172, 0.04940697178244591, 0.010035828687250614, -0.0062555791810154915, 0.008521935902535915, -0.004918641876429319, -0.0076248315162956715, -0.0024553434923291206, -0.017801867797970772, 0.11666170507669449, 0.02253822796046734, -0.0036154924891889095, -0.006605543661862612, 0.0002955632808152586, 0.011602465063333511, -0.010770185850560665, -0.0070078191347420216, -0.004381166771054268, 0.020272091031074524, -0.025000855326652527, 0.009975433349609375, 0.007782593835145235, 0.024339810013771057, 0.001264858990907669, -0.018887873739004135, 0.002530137076973915, -0.009644362144172192, 0.018687404692173004, 0.007810972630977631, -0.001480608363635838, -0.06653989106416702, -0.005572991911321878, -0.006512560416013002], [0.005658111535012722, 0.0019663781858980656, 0.04103481397032738, -0.024408692494034767, -0.002199925249442458, 0.011740344576537609, -0.006646859925240278, -0.05295484513044357, -0.01076488383114338, -0.0020523809362202883, -0.01071858499199152, -0.012317704036831856, -0.006674624513834715, 0.012414729222655296, 0.011192183941602707, -0.014153148978948593, 0.02809341996908188, 0.015021158382296562, 0.023316102102398872, -0.011637246236205101, 0.028048988431692123, 8.2102429587394e-05, -0.0048457058146595955, -0.01725834608078003, -0.005245279986411333, -0.013094866648316383, 0.0063528213649988174, 0.040143366903066635, 0.0027657069731503725, 0.007650133688002825, -0.001963940216228366, -0.023251553997397423, -0.007412160746753216, -0.010137519799172878, 0.04186348244547844, -0.002550601027905941, -0.006518828682601452, -0.027092361822724342, -0.006964411120861769, 0.0018118475563824177], [-0.007205294910818338, 6.6061215875379276e-06, 0.040072355419397354, 0.015352228656411171, -0.0011416731867939234, 0.00018406186427455395, 0.000745544966775924, 0.0015772650949656963, -0.01094956137239933, -0.03113018535077572, 0.007941052317619324, 0.003369363956153393, -0.0059502641670405865, -0.023094359785318375, 0.0014395656762644649, -0.008532017469406128, 0.0388670340180397, 0.012487604282796383, -0.004922144580632448, 0.010808910243213177, 0.003851798130199313, 0.021718597039580345, -0.006887566298246384, 0.012063045985996723, -0.011500992812216282, 0.013088344596326351, 0.00828048400580883, 0.013003748841583729, -0.013437594287097454, -0.011760489083826542, -0.004191543906927109, -0.016608884558081627, 0.0014875445049256086, 0.002653049072250724, 0.008767439052462578, -0.0026860639918595552, -0.001147661474533379, -0.018327007070183754, -0.007684104144573212, 0.014223910868167877], [0.1917618215084076, 0.008588195778429508, -0.04260023683309555, -0.18623006343841553, 0.04401008412241936, 0.008036463521420956, 0.020530663430690765, -0.21623755991458893, -0.15916717052459717, 0.03618211671710014, -0.06870511919260025, -0.09520822018384933, -0.008841601200401783, 0.24454139173030853, 0.05808413028717041, 0.017326056957244873, -0.19217678904533386, 0.01161021925508976, 0.18869060277938843, -0.05609747767448425, 0.19576559960842133, -0.1241774708032608, 0.06208087503910065, -0.23214280605316162, 0.016735047101974487, -0.21027801930904388, 0.05260578915476799, 0.20639275014400482, 0.1235358789563179, 0.0351095013320446, 0.01760980300605297, -0.03341367095708847, -0.10815595090389252, -0.028347579762339592, 0.20214541256427765, -0.01948932372033596, -0.020421240478754044, -0.026219159364700317, -0.009020114317536354, 0.024368977174162865], [0.021927261725068092, 0.0029447691049426794, -0.02211320586502552, -0.043717894703149796, 0.006655053701251745, 0.0029726175125688314, -0.006374744698405266, -0.04904097318649292, -0.01374967023730278, 0.02509482204914093, -0.019015036523342133, -0.028969958424568176, 0.002452216576784849, 0.042193781584501266, 0.016642671078443527, 0.005449607968330383, -0.08439867198467255, -0.003999021369963884, 0.04900120571255684, 0.0026479163207113743, 0.04236295074224472, -0.04584110528230667, 0.03519706055521965, -0.024986181408166885, 0.008994841948151588, -0.05055241286754608, 0.0033193991985172033, 0.019749581813812256, 0.0012837244430556893, 0.01020814385265112, 0.008702768944203854, -0.004739405587315559, -0.01941787824034691, -0.01054483000189066, 0.0419454500079155, -0.003963615745306015, -0.0023421496152877808, 0.007321818731725216, 0.0010257009416818619, -0.003887615166604519], [0.033398788422346115, 0.0015145082725211978, -0.0046846624463796616, -0.04558061063289642, 0.002451743232086301, 0.01284557580947876, -0.0018799268873408437, -0.017835138365626335, -0.035171013325452805, 0.030468381941318512, -0.02761322632431984, -0.02492792345583439, -0.0031404271721839905, 0.047327809035778046, 0.006888575851917267, -0.01173337735235691, -0.04081202298402786, 0.00276668812148273, 0.043427299708127975, -0.04127458482980728, 0.049030110239982605, -0.019228702411055565, -0.01395170297473669, -0.036235690116882324, 0.006968234200030565, -0.03789229318499565, 0.02033752202987671, 0.03876683861017227, 0.04175778850913048, 0.032839372754096985, 0.006699397694319487, -0.014444121159613132, -0.030860643833875656, -0.00897206924855709, 0.05571398884057999, -0.008265215903520584, -0.01655523292720318, 0.006661045365035534, -0.008994398638606071, -0.007599772419780493], [-0.15553800761699677, 0.054488372057676315, -0.2671032249927521, -0.5068557858467102, -0.23713995516300201, 0.12285099923610687, -0.4140799939632416, -0.8502899408340454, 0.28314876556396484, -0.10091624408960342, -0.016385044902563095, -0.18231834471225739, -0.13110460340976715, 0.5599885582923889, -0.21784602105617523, -0.42481979727745056, 0.2935855984687805, 0.07724878191947937, 0.201152041554451, 0.38910433650016785, -0.5156329870223999, 0.01743595115840435, 0.015929147601127625, -0.4820021390914917, -0.05467585474252701, -0.2783665955066681, 0.06240032613277435, -0.1714719980955124, -0.15820170938968658, -0.07228230684995651, 0.17098179459571838, 0.24960869550704956, 0.0386844240128994, 0.12266653031110764, -0.19233310222625732, 0.07690557092428207, -0.10353099554777145, 0.3447622060775757, -0.25345659255981445, 0.002235319232568145], [0.15541313588619232, -0.09647540748119354, 0.19867582619190216, -0.007437610067427158, 0.06043718010187149, 0.028989100828766823, 0.028936950489878654, -0.006831515580415726, -0.015999380499124527, 0.0015676578041166067, -0.06356818228960037, 0.047623466700315475, 0.05849640071392059, -0.173097625374794, 0.142852783203125, 0.07032353430986404, -0.12301793694496155, -0.08745502680540085, 0.05679555982351303, 0.010186390951275826, 0.03478284180164337, 0.030084829777479172, 0.013016746379435062, 0.049797412008047104, 0.023134302347898483, -0.018329953774809837, 0.006980601232498884, 0.11882239580154419, -0.11642461270093918, 0.0424724705517292, -0.028576133772730827, -0.08273628354072571, 0.04300863668322563, -0.08035284280776978, 0.11087540537118912, -0.060823965817689896, 0.0014667976647615433, 0.07355223596096039, 0.037427373230457306, -0.04318535327911377], [-0.5938347578048706, 0.12735609710216522, -0.26369351148605347, -0.07742748409509659, 0.03658169507980347, -0.06685089319944382, -0.07427152246236801, 0.10752110928297043, 0.9273181557655334, -0.3255870044231415, 0.13737937808036804, 0.239535853266716, -0.2686246633529663, -0.21012955904006958, -0.16260458528995514, -0.24321743845939636, 0.7634135484695435, 0.045189544558525085, -0.42423224449157715, 0.10364014655351639, -0.20184965431690216, 0.09956149756908417, 0.4008135199546814, -0.6234042644500732, 0.28193166851997375, 0.15670670568943024, 0.2598511278629303, 0.6600865125656128, 0.21059967577457428, -0.2083333134651184, 0.007787059526890516, -0.12602083384990692, -0.02667725272476673, 0.09809162467718124, -0.4392518401145935, 0.00883108377456665, 0.014427866786718369, 0.31179338693618774, -0.21239566802978516, 0.15386910736560822], [-0.4010413587093353, 0.022793792188167572, 0.20383383333683014, 0.1328132152557373, -0.4127052426338196, 0.19604623317718506, 0.06602734327316284, -0.07933343946933746, 0.10348949581384659, -0.06611161679029465, -0.04673723876476288, -0.09105485677719116, 0.1511102020740509, -0.26773709058761597, 0.1479479819536209, -0.13788069784641266, 0.28510570526123047, 0.17594656348228455, 0.17110757529735565, 0.15402519702911377, -0.12721197307109833, 0.10777834802865982, -0.17421968281269073, 0.6133551597595215, -0.25339871644973755, 0.04657883197069168, 0.018303168937563896, 0.0004005911760032177, -0.36345261335372925, 0.10356151312589645, -0.08840872347354889, -0.22300218045711517, 0.19527122378349304, 0.018298206850886345, -0.023702630773186684, 0.06399981677532196, -0.05364031717181206, -0.007176978047937155, 0.06082383915781975, -0.0063300663605332375], [0.38434165716171265, -0.041164036840200424, -0.2263394594192505, 0.08893503993749619, 0.09498408436775208, 0.1551811397075653, 0.15270698070526123, 0.00040052703116089106, 0.062467969954013824, 0.3019588589668274, -0.09718651324510574, -0.08707245439291, 0.13485409319400787, 0.22106637060642242, 0.19698569178581238, 0.2592144012451172, -0.07419601082801819, 0.3855363726615906, 0.16878484189510345, -0.2155681699514389, 0.06072312220931053, -0.0023533524945378304, -0.3804950416088104, 0.10689114779233932, 0.19248062372207642, -0.14843721687793732, -0.02998993918299675, 0.051963139325380325, 0.108092300593853, 0.37966272234916687, -0.04828062281012535, 0.034024838358163834, 0.09638332575559616, -0.22987128794193268, 0.04878111183643341, 0.24648644030094147, -0.18818813562393188, -0.1194891631603241, 0.13872821629047394, -0.10649693012237549], [-0.24652262032032013, 0.010374323464930058, -0.06082228571176529, -0.2941524386405945, -0.07662611454725266, -0.19141614437103271, -0.11968877166509628, -0.0009420672431588173, -0.07029075175523758, -0.2928847372531891, 0.12672030925750732, 0.055582571774721146, -0.14503757655620575, 0.030132224783301353, -0.33100250363349915, -0.2315341830253601, 0.01554086059331894, -0.11874818801879883, -0.2038477659225464, 0.2042185515165329, -0.19841602444648743, -0.17676077783107758, 0.21122099459171295, -0.23950165510177612, -0.033876873552799225, 0.08507318794727325, 0.18371005356311798, 0.21788842976093292, 0.224796861410141, -0.14744658768177032, 0.06839415431022644, 0.06630293279886246, -0.18426677584648132, 0.15131120383739471, -0.08888804167509079, -0.04951674863696098, 0.12954486906528473, 0.24630717933177948, -0.09269403666257858, 0.16880494356155396], [-0.0008154366514645517, 0.021930985152721405, 0.1134672686457634, -0.012560133822262287, -0.22518523037433624, 0.14680787920951843, -0.039976075291633606, -0.16113337874412537, 0.05796867609024048, 0.02519924007356167, -0.09566706418991089, -0.07086942344903946, 0.18708175420761108, -0.24803805351257324, 0.2375759780406952, -0.12045861780643463, 0.07895495742559433, 0.08571498095989227, 0.13704872131347656, -0.003819767152890563, -0.0030431225895881653, 0.043060366064310074, -0.08036177605390549, 0.11528464406728745, -0.05946284532546997, -0.00677734287455678, -0.02632802352309227, 0.14002029597759247, -0.2101481556892395, 0.12274269014596939, -0.13862250745296478, -0.2454487532377243, 0.11177125573158264, -0.16556444764137268, 0.0030118285212665796, 0.07225846499204636, -0.034334976226091385, -0.0689687728881836, 0.22905944287776947, -0.05024764686822891], [0.6860917806625366, -0.10698933899402618, -0.817596435546875, 0.6197803020477295, 0.47197726368904114, 0.1603481024503708, 0.4712126553058624, -0.23945514857769012, 1.1089577674865723, 0.6805827617645264, 0.2634888291358948, 0.5793204307556152, 0.41937071084976196, 0.315717875957489, 0.4219802916049957, 0.6321990489959717, 0.034347403794527054, 0.884150505065918, -0.5365692377090454, -0.6022360324859619, -0.49285465478897095, 0.5818244218826294, 0.08001507073640823, -0.003398673143237829, 0.6974058151245117, 0.36796724796295166, -0.47783026099205017, -0.5982077717781067, 0.36921343207359314, 0.743384599685669, -0.38360002636909485, 0.08158077299594879, 0.6253666281700134, -0.6923276782035828, -0.7947623133659363, 0.7301830053329468, 0.37786027789115906, -1.0150516033172607, 0.6308431029319763, -0.23697565495967865], [-0.42874324321746826, -0.062468014657497406, 0.5949639678001404, -0.07716774195432663, 0.08509468287229538, -0.16694146394729614, -0.14768488705158234, -0.08233874291181564, -0.8023030161857605, -0.4588549733161926, 0.10131533443927765, -0.3489920198917389, -0.12336499989032745, 0.11091361194849014, -0.1464286893606186, -0.27110862731933594, -0.5840545892715454, -0.2753427028656006, 0.3150753676891327, 0.6561487317085266, -0.1607941836118698, 0.14403264224529266, 0.08360588550567627, 0.06682997196912766, -0.5506325960159302, -0.3025636672973633, 0.23423688113689423, 0.06736063957214355, -0.1409914493560791, -0.4788818955421448, 0.032576825469732285, 0.1763017475605011, 0.07719305157661438, 0.18165330588817596, -0.03680044412612915, -0.1600436270236969, -0.38810548186302185, 0.8787046074867249, -0.26710787415504456, 0.13693352043628693], [-0.06293303519487381, 0.03164749592542648, -0.10677368938922882, -0.4635528326034546, -0.2778203785419464, -0.2459784299135208, -0.24385084211826324, -0.18286637961864471, -0.21032463014125824, -0.3415353298187256, 0.23862260580062866, -0.05216711759567261, -0.20549379289150238, 0.31815412640571594, -0.28293469548225403, -0.25141090154647827, 0.0681488960981369, -0.4030301868915558, -0.12743034958839417, 0.20216721296310425, -0.23144328594207764, -0.33867332339286804, 0.2807498574256897, -0.5417326092720032, -0.05702383816242218, -0.08090775460004807, 0.31076768040657043, -0.20303726196289062, 0.05844387039542198, -0.4235287308692932, 0.2810397148132324, 0.18977861106395721, -0.298309862613678, 0.26793667674064636, -0.10860475897789001, -0.22952744364738464, 0.12464755028486252, 0.37731581926345825, -0.17482054233551025, 0.1038672998547554], [0.06559667736291885, -0.03630489856004715, 0.2097945511341095, 0.273245632648468, 0.006258490961045027, 0.23051752150058746, 0.1763308197259903, -0.10375314950942993, -0.12209688127040863, 0.2052575647830963, -0.17986968159675598, -0.1063854843378067, 0.0682075172662735, -0.04269631206989288, 0.0976720005273819, 0.22211365401744843, 0.0738922655582428, 0.20787538588047028, 0.22443728148937225, -0.11785577982664108, 0.24542202055454254, 0.3379203677177429, -0.2987121343612671, 0.41934484243392944, -0.18367688357830048, -0.037796489894390106, -0.150373637676239, -0.3288753926753998, -0.3033181428909302, 0.30772215127944946, -0.0820399671792984, -0.18532827496528625, 0.26166731119155884, -0.3047495484352112, 0.1963244080543518, 0.14446406066417694, -0.287959486246109, -0.1551259160041809, 0.24568606913089752, -0.2511642575263977], [-0.22554107010364532, -0.03223945200443268, 0.12883633375167847, 0.09837030619382858, 0.012680772691965103, -0.0075963642448186874, 0.006695188581943512, -0.10754325240850449, -0.32744911313056946, -0.04617522284388542, 0.05893740430474281, -0.15469396114349365, -0.014701616019010544, -0.011302966624498367, -0.10874810814857483, -0.11886721849441528, -0.14484058320522308, 0.07555311918258667, 0.1519220471382141, -0.04864244908094406, -0.15730473399162292, 0.2195967137813568, -0.3843678832054138, 0.1733865588903427, -0.18350131809711456, -0.0605655275285244, 0.06911739706993103, -0.1371580958366394, -0.06781774014234543, -0.05255352333188057, 0.033880673348903656, 0.03404426574707031, 0.04191325977444649, -0.0037606896366924047, -0.10079919546842575, 0.024675242602825165, -0.2402888685464859, 0.09118027985095978, -0.10054349154233932, 0.005187890026718378], [-0.05676373839378357, 0.020374668762087822, -0.3345598578453064, -0.1668243557214737, -0.1567590832710266, -0.23641546070575714, -0.10176960378885269, -0.1008918434381485, -0.021451344713568687, -0.2090604156255722, 0.18352460861206055, 0.05431990697979927, -0.19927005469799042, 0.16990038752555847, -0.2577701807022095, -0.23544670641422272, -0.014096638187766075, -0.08638495206832886, -0.1348021924495697, 0.24251919984817505, -0.2388889640569687, -0.10499986261129379, 0.2689893841743469, 0.024860238656401634, -0.08954674750566483, 0.026422051712870598, 0.15825405716896057, 0.09892342984676361, 0.12089285999536514, -0.2397468090057373, 0.23050227761268616, 0.15910419821739197, -0.2686752378940582, 0.3132084608078003, -0.1802549660205841, -0.008434495888650417, 0.1769692450761795, 0.13974882662296295, -0.09721919894218445, 0.1400742381811142], [0.4880225658416748, -0.06247604638338089, 0.027677368372678757, 0.06364897638559341, -0.1313459724187851, 0.20463261008262634, 0.10730616003274918, -0.7854691743850708, -0.4209258258342743, 0.119842030107975, -0.13936284184455872, -0.2915520966053009, 0.10427021235227585, 0.08361905813217163, 0.28677886724472046, 0.2231045812368393, -0.018723605200648308, 0.2583558261394501, 0.4123755395412445, -0.15888608992099762, 0.196564719080925, 0.15415126085281372, -0.43621036410331726, -0.152969628572464, 0.05804518237709999, -0.4126998782157898, -0.13194593787193298, -0.6033114194869995, -0.3089570999145508, 0.08863962441682816, -0.008945566602051258, -0.13104157149791718, 0.14448973536491394, -0.20197704434394836, 0.2898319959640503, 0.18350468575954437, -0.340874582529068, 0.309049129486084, 0.13781040906906128, -0.23867855966091156], [-0.2165965884923935, 0.04781945049762726, -0.1461341828107834, -0.2740500271320343, -0.18636800348758698, -0.3269619047641754, -0.06005339324474335, -0.1865614503622055, 0.13906143605709076, -0.3476630747318268, 0.19542212784290314, 0.09536506235599518, -0.15476976335048676, 0.10752209275960922, -0.07043714076280594, -0.12916125357151031, -0.10555647313594818, -0.045488473027944565, -0.11702387779951096, 0.3531588613986969, -0.18813806772232056, -0.2816034257411957, 0.1762702763080597, 0.11632419377565384, -0.05873621627688408, 0.011519514955580235, 0.1434778869152069, 0.43291962146759033, 0.048663269728422165, -0.22374264895915985, 0.1943570375442505, 0.19428829848766327, -0.19067291915416718, 0.11716937273740768, -0.14136280119419098, 0.0034578542690724134, 0.30473434925079346, 0.00590025307610631, -0.12064942717552185, 0.11870402097702026], [0.0040702857077121735, 0.030573612079024315, -0.1589004248380661, -0.08784706890583038, -0.34110933542251587, 0.11354847252368927, -0.11359316110610962, -0.45673394203186035, 0.30424413084983826, 0.09553872793912888, -0.07017458230257034, -0.10775278508663177, 0.20401252806186676, -0.08466029167175293, 0.11839029937982559, -0.12871089577674866, 0.048654697835445404, 0.1405813843011856, 0.16741426289081573, 0.2303050309419632, -0.19272592663764954, 0.006117361132055521, 0.10021954774856567, -0.11791472136974335, 0.06915783882141113, -0.07085192203521729, -0.0928918868303299, 0.04568122327327728, -0.31583598256111145, 0.09385360777378082, -0.03514686971902847, -0.24779687821865082, 0.25960248708724976, -0.1932365894317627, -0.16037677228450775, 0.15456609427928925, -0.028244011104106903, 0.018401069566607475, 0.19000554084777832, -0.0957842469215393], [-1.4926910400390625, -0.020709561184048653, 1.0958503484725952, -0.21413001418113708, 0.08637797832489014, -0.11837868392467499, -0.1311638504266739, 0.8310375213623047, -0.5184156894683838, -0.5068398714065552, -0.024856191128492355, -0.055124714970588684, -0.23572777211666107, -0.6630313396453857, -0.1670224964618683, -0.48009535670280457, -0.04985729232430458, -0.6680912971496582, -0.17633149027824402, 0.4060400426387787, 0.5288622975349426, 0.033728715032339096, 0.35322248935699463, -0.5422667860984802, -0.5882367491722107, 0.14935500919818878, 0.4397808611392975, 0.6684821248054504, -0.12335053831338882, -0.5300911068916321, -0.03996729105710983, -0.15706242620944977, -0.19481928646564484, 0.4142467677593231, 0.4607756435871124, -0.5761468410491943, -0.08247467130422592, 0.7610588073730469, -0.26448795199394226, 0.09099505096673965], [-0.15724509954452515, 0.02514784038066864, 0.30142730474472046, -0.10115125775337219, -0.3585609793663025, -0.050891581922769547, -0.07014919072389603, -0.1656808853149414, -0.3206736147403717, -0.24120968580245972, -0.059183310717344284, -0.2301003634929657, -0.07308634370565414, -0.19271953403949738, -0.06366493552923203, -0.2543454170227051, 0.12784343957901, -0.2694876194000244, 0.3077995479106903, 0.2248169332742691, -0.00651279604062438, -0.11987592279911041, -0.09460046887397766, 0.1635260134935379, -0.3188483417034149, -0.11990964412689209, 0.15126127004623413, 0.265175998210907, -0.2135813683271408, -0.2970457375049591, 0.05463666096329689, -0.14381957054138184, -0.22551900148391724, 0.3743214011192322, 0.20039021968841553, -0.17538771033287048, 0.05356723442673683, 0.13216452300548553, -0.2477799952030182, 0.09363215416669846], [0.21454012393951416, 0.06555459648370743, -0.12821920216083527, -0.22247391939163208, -0.01214248314499855, -0.03542037308216095, -0.019185088574886322, 0.10309026390314102, 0.28999340534210205, -0.07496022433042526, -0.10230381041765213, 0.060821935534477234, -0.01806637831032276, 0.2872246205806732, 0.07702485471963882, 0.08213193714618683, 0.042973585426807404, -0.15625645220279694, -0.07171665877103806, 0.1726425588130951, 0.22491146624088287, -0.4131257236003876, 0.4653385281562805, -0.08865559846162796, 0.11740420013666153, -0.0351288877427578, -0.008684016764163971, 0.29726675152778625, 0.09992816299200058, -0.011397674679756165, -0.03191651403903961, -0.05341516062617302, -0.17739209532737732, 0.0688108429312706, 0.1284816861152649, -0.1164422556757927, 0.25391826033592224, 0.0009523571934551001, 0.04878659173846245, 0.05597665533423424], [0.10312004387378693, 0.00914651807397604, 0.43067318201065063, 0.43294090032577515, 0.1517105996608734, 0.07860550284385681, 0.2501218616962433, -0.20461250841617584, -0.021581020206212997, 0.004084790591150522, -0.16169729828834534, -0.19870625436306, 0.19918538630008698, -0.29879412055015564, 0.32196637988090515, 0.25433823466300964, -0.3975345492362976, 0.14273057878017426, 0.2929059565067291, 0.36685165762901306, 0.048223815858364105, 0.11195220053195953, -0.09170027822256088, 0.6455817818641663, -0.5430694222450256, -0.1925855576992035, -0.03787466883659363, 0.5561586022377014, -0.3842814564704895, 0.08603707700967789, -0.10448359698057175, -0.22916162014007568, 0.2972315549850464, -0.06600438803434372, 0.16450336575508118, 0.07821705937385559, -0.12574568390846252, -0.24595889449119568, 0.19767040014266968, 0.07946446537971497], [0.4232376217842102, 0.03306305408477783, -0.5379713177680969, -0.010840164497494698, -0.031826041638851166, 0.0039526354521512985, 0.08700598776340485, 0.01915629394352436, 0.3250768780708313, 0.22512803971767426, -0.051931168884038925, 0.02480928786098957, 0.06343094259500504, 0.37336257100105286, 0.08703069388866425, 0.1718270480632782, 0.08776494860649109, 0.21820466220378876, 0.0884387195110321, -0.15493473410606384, -0.20067204535007477, -0.0861300453543663, 0.025907153263688087, -0.06858493387699127, 0.2186749130487442, -0.08687440305948257, -0.11212524026632309, -0.054965417832136154, 0.20401830971240997, 0.2747434079647064, 0.03233850374817848, 0.07800089567899704, -0.021863486617803574, -0.18151596188545227, -0.23835892975330353, 0.14814001321792603, 0.1323515772819519, -0.3235760033130646, 0.18602706491947174, 0.02121431939303875], [-0.41334256529808044, 0.02591361664235592, 0.14790129661560059, -0.06604855507612228, -0.2883397936820984, 0.18074385821819305, -0.07636186480522156, -0.05061810463666916, 0.01568594202399254, 0.05246644467115402, -0.05582977458834648, -0.08719287812709808, -0.041477758437395096, -0.5459796786308289, 0.0468459315598011, -0.2113324999809265, 0.54881352186203, 0.05608870089054108, 0.09131083637475967, -0.3195469379425049, -0.09621720761060715, 0.03159350901842117, -0.3896751403808594, 0.1782650649547577, -0.03964387625455856, 0.08110165596008301, -0.02342507801949978, -0.04401877522468567, -0.13146477937698364, 0.15719522535800934, 0.0643644854426384, -0.22992689907550812, 0.05224975571036339, -0.03509627655148506, 0.031017111614346504, 0.03520938381552696, -0.06725390255451202, 0.09826922416687012, 0.014876843430101871, -0.04482134059071541], [0.24322447180747986, -0.06520101428031921, -0.6549381017684937, 0.3234119415283203, 0.432868629693985, -0.18005673587322235, 0.16471970081329346, -0.3034155070781708, -0.013771546073257923, -0.042504992336034775, 0.25637292861938477, -0.04190010949969292, -0.00859838631004095, 0.2734907865524292, -0.13515815138816833, 0.24462436139583588, -0.6929500102996826, 0.3725947439670563, 0.002309040166437626, 0.3189268410205841, -0.2175513207912445, 0.11245234310626984, -0.12019012123346329, 0.16450627148151398, 0.19857294857501984, -0.2504221796989441, -0.11551643162965775, 0.04909922927618027, 0.11907429993152618, -0.11840006709098816, 0.136673703789711, 0.3112255036830902, 0.03160732239484787, 0.13565018773078918, -0.3200841546058655, 0.253522127866745, -0.06848522275686264, -0.10741322487592697, -0.08565949648618698, 0.23835700750350952], [-0.49105989933013916, 0.03956203535199165, 0.7496667504310608, -0.2950424253940582, -0.20930272340774536, 0.2795189917087555, -0.3386680781841278, -0.0639023631811142, 0.21162982285022736, -0.05214887484908104, -0.16365811228752136, 0.11843247711658478, 0.05807102099061012, -0.7274633646011353, 0.3420438766479492, -0.06315282732248306, -0.0048588356003165245, -0.2800962030887604, -0.26987290382385254, -0.04088110476732254, 0.041591983288526535, -0.13580872118473053, 0.5968128442764282, -0.19637645781040192, 0.025654973462224007, 0.213845893740654, 0.004996005911380053, 0.4028130769729614, -0.5050283074378967, -0.0791686400771141, -0.20748022198677063, -0.44481590390205383, 0.3215678334236145, -0.200360968708992, 0.08101855963468552, -0.1325909048318863, 0.11368686705827713, -0.039291590452194214, 0.2181045264005661, -0.12361668050289154], [0.39548343420028687, -0.00914678256958723, -0.11544311046600342, -0.060893140733242035, 0.24499812722206116, -0.10113638639450073, -0.03440786525607109, 0.011946743354201317, -0.28846070170402527, 0.02537214197218418, 0.07422994822263718, -0.028951702639460564, -0.0001925714750541374, 0.330181360244751, -0.03543965891003609, 0.08708050847053528, -0.17940379679203033, -0.1701766699552536, 0.03237193822860718, 0.09559570997953415, -0.010531505569815636, -0.0946720764040947, 0.16099399328231812, -0.22219814360141754, -0.030272366479039192, -0.08919765055179596, 0.03497843071818352, -0.1832939237356186, 0.0458143912255764, -0.10236456990242004, 0.023954667150974274, 0.2807541787624359, 0.004924234468489885, 0.0818144828081131, -0.06724314391613007, -0.06457281112670898, -0.05542226880788803, 0.12440115958452225, -0.0187156293541193, -0.0652114599943161], [-0.5012627840042114, -0.05692637339234352, 0.028880495578050613, 0.1541820466518402, -0.07438986003398895, -0.10960794240236282, -0.026547320187091827, -0.0036026001907885075, -0.43387749791145325, -0.16493873298168182, 0.20584098994731903, -0.0949249118566513, -0.19103673100471497, -0.027298958972096443, -0.23266489803791046, -0.12984609603881836, 0.037796858698129654, 0.07548391073942184, 0.048485904932022095, -0.016843333840370178, -0.20886385440826416, 0.2629024088382721, -0.37393638491630554, 0.2057867795228958, -0.23582960665225983, -0.014117435552179813, 0.0793963074684143, -0.29273828864097595, 0.04876450449228287, -0.22101803123950958, 0.08869060128927231, 0.2664526402950287, -0.156943216919899, 0.05280224233865738, -0.12278170138597488, 0.06547389924526215, -0.29307299852371216, 0.16237284243106842, -0.1678628921508789, 0.08331136405467987], [0.03159446641802788, 0.003949507139623165, 0.12694454193115234, 0.1410444676876068, 0.16715922951698303, 0.2923964858055115, 0.06501879543066025, 0.024700870737433434, 0.3448100984096527, 0.2781846821308136, -0.18425223231315613, 0.048362407833337784, 0.22894756495952606, -0.18731528520584106, 0.2807238698005676, 0.08928204327821732, 0.1834104210138321, 0.2568909525871277, 0.03482245281338692, -0.2600497007369995, 0.026798928156495094, 0.07988148182630539, -0.11700316518545151, 0.0856207087635994, 0.22059686481952667, 0.04128887876868248, -0.2553943693637848, 0.23274461925029755, 0.0426945835351944, 0.32424402236938477, -0.23443613946437836, -0.3744190037250519, 0.1743227243423462, -0.448034405708313, 0.03161854296922684, 0.13994726538658142, -0.06317517906427383, -0.3652494251728058, 0.28684931993484497, -0.16761253774166107], [-0.007567362394183874, -0.051263369619846344, 0.0631043016910553, -0.09100129455327988, 0.3257609009742737, -0.35756248235702515, 0.14854677021503448, -0.0672774463891983, -0.669715404510498, -0.3509799838066101, 0.28083229064941406, 0.03692910075187683, -0.19307594001293182, 0.0051230257377028465, -0.3368705213069916, -0.03114527277648449, -0.05721954256296158, -0.04945503920316696, -0.1288256198167801, -0.06820114701986313, -0.07284796237945557, 0.020549338310956955, -0.026145176962018013, 0.23227809369564056, 0.05256739631295204, -0.03799976408481598, 0.11131083965301514, 0.5705256462097168, 0.33143725991249084, -0.25060373544692993, 0.16092528402805328, 0.09928937256336212, -0.3534134328365326, 0.15945935249328613, -0.07059621810913086, -0.10492264479398727, -0.0923803374171257, -0.18613894283771515, -0.28836411237716675, 0.18313051760196686], [0.5431122183799744, -0.017607497051358223, -0.04846816509962082, 0.09420918673276901, 0.05807732045650482, 0.23532840609550476, 0.14197398722171783, 0.44376036524772644, 0.032451774924993515, 0.3939421474933624, -0.19957993924617767, -0.041186630725860596, 0.2146776020526886, -0.20903280377388, 0.09779825061559677, 0.23552677035331726, 0.049963053315877914, 0.039407771080732346, 0.08662733435630798, -0.5099444389343262, 0.19178003072738647, 0.15265138447284698, -0.21411269903182983, -0.46299153566360474, 0.4016449749469757, -0.0554710291326046, -0.20038357377052307, -0.4591635465621948, -0.032171182334423065, 0.3858913481235504, -0.04825368896126747, 0.015660077333450317, 0.19705259799957275, -0.13402090966701508, 0.16382403671741486, 0.08210523426532745, -0.27932846546173096, -0.021319318562746048, 0.2500104308128357, -0.20299845933914185], [-0.0008152584778144956, 0.0037059031892567873, -0.1591322273015976, -0.3369172215461731, -0.1322157233953476, -0.1791253536939621, -0.12871968746185303, 0.05504287779331207, -0.39087027311325073, -0.12882272899150848, 0.06734981387853622, 0.01786053739488125, -0.19694730639457703, 0.1414840817451477, -0.240602508187294, -0.2185250222682953, 0.030954254791140556, -0.24936679005622864, -0.25147294998168945, 0.10006946325302124, -0.0999053567647934, -0.21985727548599243, 0.17628221213817596, -0.39003321528434753, -0.002040716353803873, 0.024329157546162605, 0.1631537675857544, -0.08129735291004181, 0.22635696828365326, -0.2396446317434311, 0.14697660505771637, 0.1399977207183838, -0.14406581223011017, 0.36642688512802124, -0.10390736907720566, -0.15370170772075653, 0.052160460501909256, 0.31277579069137573, -0.2897239625453949, 0.21137243509292603], [0.3280743956565857, -0.025003187358379364, 0.282623827457428, 0.17049987614154816, 0.15687580406665802, 0.1253519207239151, 0.082758329808712, 0.06971722096204758, -0.1577879637479782, 0.32494187355041504, -0.2788538634777069, -0.15168297290802002, 0.22087635099887848, -0.15887731313705444, 0.11684942245483398, 0.18319706618785858, -0.12914854288101196, 0.049526646733284, 0.2500770390033722, -0.22492951154708862, 0.2390788197517395, 0.1831853687763214, -0.1467406004667282, 0.03544125705957413, -0.011461403220891953, -0.09199360013008118, -0.11338658630847931, -0.3089974820613861, -0.2918170690536499, 0.30574503540992737, -0.14777925610542297, 