{"model_data": {"model": "SimpleRNN", "input_size": 1, "skip": 1, "output_size": 1, "unit_type": "LSTM", "num_layers": 1, "hidden_size": 40, "bias_fl": true}, "state_dict": {"rec.weight_ih_l0": [[-0.09057770669460297], [-0.24009381234645844], [-0.5099964141845703], [-0.4290445148944855], [-0.8325499892234802], [-1.5217441320419312], [-1.7468587160110474], [-0.8177180290222168], [0.3900805115699768], [-0.5931384563446045], [-0.23479405045509338], [-0.3002031743526459], [-0.42752358317375183], [-0.1852724701166153], [0.11757893115282059], [-1.645376205444336], [-0.12185513973236084], [-0.898223876953125], [1.4325778484344482], [-0.15646350383758545], [1.3008031845092773], [-1.172800064086914], [-0.9900916814804077], [-0.741753101348877], [0.12752245366573334], [-0.3731898069381714], [0.8256334066390991], [-0.8888066411018372], [0.14268700778484344], [-0.0338466577231884], [-0.6622834801673889], [2.4683585166931152], [-0.6249463558197021], [0.7191739082336426], [-1.2391765117645264], [-2.342376470565796], [-0.3941769003868103], [0.23901042342185974], [-0.07278934866189957], [-0.47356802225112915], [0.34213003516197205], [-0.45253071188926697], [-0.2699510157108307], [0.32634255290031433], [-0.26285213232040405], [-0.2562180459499359], [0.02921103686094284], [-0.530989944934845], [-2.1119511127471924], [0.753569483757019], [0.06390410661697388], [0.41743457317352295], [-0.2649421989917755], [-0.12211345881223679], [-1.9962761402130127], [-2.8027594089508057], [4.087263584136963], [4.745079040527344], [-1.3217756748199463], [0.8984277248382568], [1.4667507410049438], [2.131770372390747], [-0.5295524597167969], [1.3703958988189697], [1.3632580041885376], [0.16002899408340454], [-1.759491205215454], [-0.17010608315467834], [-0.8562729358673096], [-0.024118566885590553], [-1.34528386592865], [3.0835230350494385], [-0.6363476514816284], [0.7394210696220398], [-0.05324196442961693], [0.8642078042030334], [-0.21580831706523895], [0.5761762261390686], [-0.2111130803823471], [-0.10545408725738525], [-0.6597767472267151], [-0.12735554575920105], [-1.048577904701233], [0.19830594956874847], [-1.1704210042953491], [-1.541944980621338], [1.6646922826766968], [0.8345920443534851], [-1.0676143169403076], [-1.6363648176193237], [-0.1511003077030182], [0.9146135449409485], [0.33330461382865906], [-0.06565646082162857], [-1.4184415340423584], [0.9301787614822388], [0.1894420087337494], [0.5353268980979919], [1.2577404975891113], [0.2711586058139801], [0.13585101068019867], [-1.1587550640106201], [0.4383758306503296], [0.740371823310852], [0.17908188700675964], [-0.4219912588596344], [0.20300258696079254], [0.5488789677619934], [-0.7849947214126587], [-0.24022428691387177], [-1.889705777168274], [1.6929861307144165], [-0.29687824845314026], [0.99263995885849], [-0.32792380452156067], [-0.9899993538856506], [-0.10884375125169754], [-0.2327631711959839], [-1.1209057569503784], [0.30360081791877747], [0.3731151819229126], [-0.45603692531585693], [-0.3996638357639313], [0.7010753154754639], [-0.759579598903656], [-0.4139796197414398], [4.595912456512451], [-1.795128345489502], [-1.5991909503936768], [0.9569283127784729], [0.4609673321247101], [0.27225860953330994], [-0.2886439561843872], [-0.6293715238571167], [-2.818045139312744], [-1.5887099504470825], [2.330841064453125], [1.6000217199325562], [1.0984565019607544], [0.2919895350933075], [1.5831165313720703], [1.728911280632019], [-1.0588160753250122], [0.4843558073043823], [0.5717235803604126], [0.13007639348506927], [-3.6743900775909424], [-0.7241482138633728], [-0.7440663576126099], [0.08137829601764679], [-0.8113863468170166], [0.9772055149078369], [0.2270161360502243], [0.48146942257881165], [0.37942105531692505], [-1.6518536806106567], [-0.4770216941833496], [0.9965004324913025], [-0.17279449105262756], [-0.8270735740661621]], "rec.weight_hh_l0": [[-0.33995407819747925, 0.2684974670410156, 0.5969505310058594, 0.12408358603715897, 0.4523395597934723, 0.43395763635635376, 1.3908238410949707, 0.21838121116161346, -0.20266471803188324, -0.24594035744667053, -0.8289463520050049, -0.6714983582496643, -0.3788444697856903, 0.37516218423843384, -0.5206534266471863, 0.6060647964477539, -0.38265231251716614, 0.2333865463733673, -0.0856037363409996, -0.22530333697795868, 0.16396185755729675, -0.2677576541900635, 0.013697926886379719, 0.007630915846675634, -0.11919452250003815, -0.507303774356842, 0.062303874641656876, -0.4455786347389221, -0.012203156016767025, -0.5243766903877258, 0.10802242159843445, -0.07915230840444565, -0.21115809679031372, -0.6763935685157776, 0.3067295551300049, -0.06508643925189972, 0.40924733877182007, -0.17703408002853394, 0.039953991770744324, -0.20707309246063232], [-0.3348955512046814, -0.05626209080219269, 0.0928754135966301, -0.28532031178474426, -0.14856210350990295, -0.3145819306373596, -0.003567927749827504, 0.4769481420516968, 0.29504504799842834, -0.008533285930752754, 0.3149082362651825, 0.12644203007221222, 0.24067646265029907, -0.3958212733268738, 1.008318305015564, 0.47428008913993835, -0.09258957207202911, 0.4211784303188324, 0.49520745873451233, 0.3987407088279724, 0.37619444727897644, -0.14924469590187073, 0.048773393034935, -0.3288106918334961, 0.3669470250606537, 0.2298518270254135, 0.32498013973236084, 0.3796701729297638, -0.17144715785980225, 0.3395988941192627, -0.493247389793396, 0.48215150833129883, -0.005392244551330805, 0.2612789273262024, -0.23288124799728394, -0.351920485496521, 0.4142327308654785, -0.23460547626018524, -0.4346262812614441, 0.5817681550979614], [-0.23058193922042847, 0.059658560901880264, -0.3001183569431305, -0.4323500096797943, -0.4176519811153412, -0.011040441691875458, -0.03127824142575264, -0.16445551812648773, 0.24975627660751343, 0.3122662901878357, 0.3647334575653076, 0.054310668259859085, 0.4051792323589325, -0.1626216173171997, -0.0980050340294838, -0.3974764049053192, 0.23239967226982117, 0.40387898683547974, 0.25145167112350464, 0.27283546328544617, 0.13229376077651978, 0.132184237241745, 0.497717946767807, -0.31016841530799866, 0.2929416298866272, 0.4203152656555176, 0.33831629157066345, 0.1192224845290184, 0.29681137204170227, 0.2150881439447403, -0.1594981700181961, 0.22485661506652832, 0.29760536551475525, 0.050447579473257065, -0.16948921978473663, -0.14962175488471985, -0.20140868425369263, 0.19222325086593628, -0.33730918169021606, 0.3340766131877899], [-0.15806888043880463, 0.0357029028236866, -0.20512165129184723, -0.3357905447483063, -0.38059696555137634, -0.14199911057949066, -0.3188326358795166, -0.274281769990921, 0.20613902807235718, 0.1456131935119629, 0.3358438313007355, 0.10503168404102325, 0.4767197370529175, -0.34976115822792053, -0.1731027364730835, -0.27186721563339233, 0.13765214383602142, 0.14399436116218567, 0.18916434049606323, 0.40056878328323364, 0.2694756090641022, 0.21799738705158234, 0.25074878334999084, -0.2666357159614563, 0.36018314957618713, 0.3475762903690338, 0.31191161274909973, 0.08869116753339767, 0.18560799956321716, 0.3214341402053833, -0.37114793062210083, 0.05259382352232933, 0.2951979637145996, 0.16539473831653595, -0.2899746894836426, -0.3741009533405304, -0.22502800822257996, 0.3442072868347168, -0.4833008050918579, 0.22152623534202576], [-0.33464643359184265, -0.23106224834918976, 0.3742314875125885, 0.2196645885705948, -0.12346567958593369, 0.1957683116197586, 0.8547327518463135, 0.8661590218544006, -0.7323819994926453, -0.3750236928462982, -0.47880762815475464, -0.34814199805259705, -0.266460120677948, 0.1708986461162567, -1.6935292482376099, 0.5205705165863037, -0.2501254677772522, -0.07088636606931686, -0.1346525400876999, -0.17332524061203003, -0.47802814841270447, -0.09736167639493942, 0.21019716560840607, 0.02663281373679638, -0.14534230530261993, -0.3008646070957184, -0.07388265430927277, -0.21645662188529968, -0.4661639630794525, -0.3785557448863983, -0.12419196218252182, -0.2880944013595581, -0.3717218339443207, -0.418815016746521, 0.14415599405765533, 0.13055622577667236, 0.4414687752723694, -0.20983999967575073, 0.21961194276809692, -0.3847588300704956], [-0.25739505887031555, -0.09265155345201492, -0.14800970256328583, -0.31635546684265137, -0.42922303080558777, -0.25167450308799744, -0.44888952374458313, -0.28535228967666626, 0.20952586829662323, 0.38871654868125916, 0.27914920449256897, 0.3238057494163513, 0.2560255229473114, -0.26509445905685425, -1.1992969512939453, -0.9618262648582458, 0.2896019518375397, -0.02462746948003769, 0.08486408740282059, 0.14632512629032135, 0.4405713677406311, 0.5025945901870728, 0.5450631380081177, -0.47225716710090637, 0.3702438771724701, 0.18120291829109192, 0.01289908867329359, 0.16539832949638367, 0.4987829029560089, 0.18284642696380615, -0.10955158621072769, 0.09814497083425522, 0.342202365398407, 0.12509922683238983, -0.20921854674816132, -0.13222289085388184, -0.3789285719394684, 0.5047377347946167, 0.012399737723171711, 0.01920020580291748], [0.2548094093799591, -0.40355804562568665, 1.2223025560379028, 0.2973862886428833, 1.4409968852996826, 2.2007219791412354, -2.496760606765747, 0.3262063264846802, -0.18282033503055573, -0.2015058696269989, -0.14409996569156647, -1.1255277395248413, 0.5521413683891296, 0.6658775806427002, 2.740375280380249, -3.446582317352295, -0.9661406874656677, 0.28791213035583496, 0.053445588797330856, -0.571743369102478, -0.39250412583351135, -0.4913078546524048, -0.13569320738315582, -1.4828416109085083, -0.8024250268936157, -0.28855499625205994, -0.7277756333351135, -0.973414957523346, -0.7173108458518982, -0.6166601181030273, -0.011183534748852253, -0.1359177976846695, -0.1670428365468979, 0.19306445121765137, 0.6761348843574524, 1.3576024770736694, 1.408297061920166, -1.4575726985931396, -0.14445175230503082, -0.4893621802330017], [-0.12773479521274567, 0.19466696679592133, 0.11015691608190536, -0.3087354898452759, -0.23591750860214233, -0.08691272884607315, -0.004615522921085358, 0.6214438080787659, 0.5628267526626587, 0.36765924096107483, 0.31672561168670654, 0.18033626675605774, 0.27695906162261963, -0.5359228253364563, 0.7165819406509399, 0.5966642498970032, -0.01981993578374386, 0.4345809817314148, 0.3488476872444153, 0.5915453433990479, 0.08180824667215347, 0.2775207757949829, 0.00508645037189126, 0.18930943310260773, 0.6650742292404175, 0.4932094216346741, -0.31750866770744324, 0.40385228395462036, 0.2926028072834015, 0.46778592467308044, -0.4385948181152344, 0.19146761298179626, 0.24560394883155823, -0.02232888713479042, -0.3151898682117462, -0.12382950633764267, 0.09894249588251114, -0.1410021185874939, -0.3609072268009186, 0.584352433681488], [-0.613845705986023, -0.11421961337327957, -0.673283576965332, -0.14874672889709473, -0.5269460082054138, -0.5964056253433228, -0.14654570817947388, 0.005521121434867382, 0.06945610046386719, 0.05617207661271095, 0.23348574340343475, 0.2774132490158081, 0.1999538093805313, -0.10975427180528641, 2.0713064670562744, -0.531848132610321, 0.34683579206466675, 0.33199718594551086, 0.47597625851631165, 0.373849481344223, 0.39434048533439636, 0.23416286706924438, 0.37876972556114197, -0.2671899199485779, 0.3558345437049866, 0.29792338609695435, 0.43021243810653687, 0.2967643737792969, -0.11905789375305176, 0.2453335076570511, -0.44144219160079956, 0.15190541744232178, -0.03334837034344673, 0.2575256824493408, -0.268611878156662, -0.7368437051773071, -0.5861151218414307, 0.6373682618141174, -0.4365231394767761, 0.20766451954841614], [-0.19673047959804535, 0.397235631942749, -0.31321901082992554, -0.10802282392978668, -0.15548565983772278, -0.3668152689933777, 0.154192715883255, -0.2781042456626892, 0.17126278579235077, 0.12205301970243454, 0.46286740899086, 0.12707462906837463, 0.46037906408309937, -0.12556840479373932, 1.6266611814498901, -1.2761585712432861, 0.0913790911436081, 0.3194218575954437, 0.11362027376890182, 0.4207923114299774, 0.2900850176811218, 0.04798998311161995, -0.029714643955230713, -0.37702324986457825, 0.3555804491043091, 0.2262067049741745, 0.11641238629817963, 0.37171119451522827, 0.3372102677822113, 0.22252660989761353, -0.2309560626745224, 0.2384149581193924, 0.1100969985127449, 0.23828637599945068, -0.20683646202087402, -0.3140900433063507, -0.11087728291749954, 0.2916911542415619, -0.42183902859687805, 0.4249524176120758], [-0.11669815331697464, -0.5251258611679077, 0.5492984652519226, 0.4412929117679596, 0.5873613953590393, 0.3820558786392212, 0.39650577306747437, 1.369350790977478, 0.02375011332333088, -0.19195982813835144, 0.26718670129776, -0.6847884058952332, -0.168349951505661, 0.12131538987159729, 0.2721182405948639, 0.9367741346359253, -0.8001644015312195, 0.15800264477729797, -0.2680586278438568, 0.054944172501564026, -2.267136573791504, -0.5102173089981079, -0.2824167013168335, 0.509276807308197, -0.028991391882300377, -0.2693557143211365, 0.16067145764827728, -0.09785806387662888, -0.3110550045967102, -0.24416722357273102, 0.12320464104413986, -0.31033948063850403, -0.2584493160247803, -0.2365768402814865, 0.3379129469394684, 0.006563134025782347, 0.5523286461830139, -0.525599479675293, 0.004752853885293007, -0.029321206733584404], [-0.2771805226802826, 0.11266929656267166, -0.19976787269115448, -0.23446142673492432, -0.30787524580955505, -0.15792615711688995, -0.2133084088563919, -0.19551362097263336, 0.2790696620941162, 0.23915185034275055, 0.2312447875738144, 0.22547955811023712, 0.3647664487361908, -0.17721717059612274, -0.28924086689949036, -0.43719682097435, 0.13067078590393066, 0.37725934386253357, 0.2935802638530731, 0.41923704743385315, 0.37462323904037476, 0.1716219037771225, 0.33273106813430786, -0.5490002036094666, 0.38821083307266235, 0.3520873785018921, 0.21985241770744324, 0.13703769445419312, 0.16450409591197968, 0.22691623866558075, -0.12059541046619415, 0.2078789919614792, 0.16108554601669312, 0.19557735323905945, -0.16188226640224457, -0.11998765915632248, -0.31266939640045166, 0.2530823051929474, -0.13456417620182037, 0.3752388060092926], [-0.2310798615217209, 0.40664535760879517, 0.53968745470047, 0.25534528493881226, 0.20911090075969696, 0.23962551355361938, 0.741482138633728, 0.37863293290138245, -0.2773832082748413, -0.2199607789516449, -0.5702449679374695, -0.5722687244415283, -0.35727807879447937, 0.1943078190088272, 0.07507215440273285, 1.0820319652557373, -0.40286585688591003, -0.19512204825878143, -0.06291350722312927, -0.24879325926303864, -0.5700319409370422, -0.4202251732349396, 0.2671109437942505, 0.3314442038536072, -0.28617075085639954, -0.27050140500068665, 0.17769287526607513, -0.14589031040668488, -0.24158018827438354, -0.25694477558135986, 0.027480127289891243, -0.20926398038864136, -0.3322311043739319, -0.47038957476615906, 0.3119812607765198, -0.1899593472480774, 0.39339303970336914, -0.2220134735107422, -0.15878592431545258, -0.034202054142951965], [-0.21643869578838348, 0.25809910893440247, -0.14241112768650055, -0.2541358470916748, -0.14114342629909515, -0.1173347756266594, -0.5623775124549866, -0.1479616016149521, 0.15507854521274567, 0.253600537776947, 0.41309115290641785, 0.32625818252563477, 0.27661675214767456, -0.2305876463651657, -0.38626259565353394, -0.5207913517951965, 0.244032084941864, 0.2753816843032837, 0.3440777659416199, 0.29349976778030396, 0.557147204875946, 0.38457027077674866, 0.2569553852081299, -0.4367254376411438, 0.2094561755657196, 0.32482287287712097, 0.0646076500415802, 0.15274986624717712, 0.3915685713291168, 0.2632458508014679, -0.3354695737361908, 0.29051145911216736, 0.22776053845882416, 0.18706028163433075, -0.3123559057712555, -0.16184644401073456, -0.0914531946182251, 0.42935147881507874, -0.1553158313035965, 0.29305949807167053], [-0.5797685980796814, -0.759141743183136, 1.988669753074646, 0.7448121905326843, -0.6575191020965576, -0.07399917393922806, 2.8358216285705566, 0.15047413110733032, 0.4925864338874817, -1.2389615774154663, 0.3508577048778534, -0.3267485201358795, 1.2614072561264038, 0.8613935708999634, -0.41587188839912415, 1.3351361751556396, 0.06342606991529465, -0.37219685316085815, 1.8181798458099365, -0.366311252117157, -1.9492818117141724, -1.16103196144104, -0.2746158242225647, 2.039917230606079, -0.3961822986602783, -0.5460054278373718, 2.259589195251465, -1.4164535999298096, -0.5217207074165344, -0.6048188209533691, -0.8059008717536926, 2.1150546073913574, -0.4986784756183624, 1.8206837177276611, 0.5553817749023438, 1.794607400894165, 0.2334146350622177, -2.4967339038848877, -1.2418808937072754, -1.1431138515472412], [-0.034232232719659805, -0.22520914673805237, 0.4771710932254791, 0.0789480209350586, 0.11806969344615936, 0.27109548449516296, 0.12712462246418, 0.4926820695400238, 0.09167417883872986, 0.019471686333417892, -0.12243381887674332, -0.40690115094184875, -0.07001311331987381, 0.17095015943050385, 1.0048686265945435, 0.5845006108283997, -0.18370646238327026, -0.08747592568397522, -0.42192792892456055, -0.06826747953891754, 0.8056862950325012, -0.033216871321201324, 0.27908414602279663, -0.03643445670604706, -0.12120512127876282, -0.12430986762046814, -0.2786312699317932, -0.3443633019924164, -0.3446894586086273, -0.0927424505352974, 0.18300187587738037, -0.21762694418430328, 0.00415754271671176, -0.5920947194099426, 0.14704707264900208, 0.17958997189998627, 0.5395841002464294, -0.5487385392189026, 0.2888721227645874, -0.23022328317165375], [-0.25615453720092773, 0.32921573519706726, -0.1500743329524994, -0.11072847992181778, -0.37790822982788086, -0.33393919467926025, -0.07524828612804413, -0.6386927366256714, 0.23249183595180511, 0.17490221560001373, 0.4878261089324951, 0.10309954732656479, 0.3662188649177551, -0.37571653723716736, -1.4927045106887817, -0.5590808987617493, 0.0872773677110672, 0.22688883543014526, 0.2353602945804596, 0.03260047361254692, 0.33968761563301086, 0.4574775695800781, 0.2304927557706833, -0.7335476279258728, 0.17139485478401184, 0.09781213104724884, 0.33512231707572937, 0.3351384103298187, 0.4195941388607025, 0.3337719440460205, -0.055792033672332764, 0.2369823008775711, 0.15418368577957153, 0.41314899921417236, -0.27767688035964966, -0.23417668044567108, -0.41200512647628784, 0.4742695987224579, -0.11918440461158752, 0.020036861300468445], [-0.24467357993125916, 0.15992319583892822, -0.16636578738689423, -0.09249397367238998, -0.21187743544578552, -0.23948805034160614, -0.4137956202030182, -0.07656390964984894, 0.31948521733283997, 0.27739033102989197, 0.278374582529068, 0.12828028202056885, 0.2734338939189911, -0.0914888083934784, -0.1418115794658661, -0.3876771032810211, 0.007179258856922388, 0.305815726518631, 0.15352588891983032, 0.16988694667816162, -0.25758853554725647, 0.296794593334198, 0.4849530756473541, -0.4478263258934021, 0.1404116302728653, 0.27825927734375, 0.14666064083576202, 0.34878993034362793, 0.32945460081100464, 0.21940965950489044, -0.32796716690063477, 0.15703153610229492, 0.29912498593330383, 0.34125062823295593, -0.16196991503238678, -0.28131404519081116, -0.38815027475357056, 0.0549478754401207, -0.43193739652633667, 0.08889530599117279], [-0.14597998559474945, 0.0634465217590332, 0.16629068553447723, 0.36610111594200134, 0.3351514935493469, -0.01743181049823761, 0.5980960130691528, 0.7435207962989807, -0.4247848689556122, -0.22457429766654968, -0.1235039159655571, 0.010173255577683449, -0.09434811770915985, 0.065402552485466, 2.5544593334198, 0.4471382200717926, -0.21912121772766113, 0.28379735350608826, -0.14372394979000092, 0.023277156054973602, 0.28355881571769714, -0.33381038904190063, 0.40743139386177063, 0.39527618885040283, -0.17147628962993622, -0.25469356775283813, -0.33196091651916504, -0.15096905827522278, -0.41426244378089905, -0.30992206931114197, -0.02328532561659813, -0.19398142397403717, -0.3462226092815399, -0.3749597370624542, 0.17368274927139282, 0.047944821417331696, 0.4556857645511627, -0.2632536292076111, -0.0326896570622921, -0.00494094705209136], [-0.35935845971107483, 0.14854280650615692, -0.072862908244133, -0.2576262354850769, -0.18041858077049255, -0.28291720151901245, -0.43537360429763794, -0.22056618332862854, 0.2576735019683838, 0.35379016399383545, 0.2546893060207367, 0.039244480431079865, 0.4432581961154938, -0.37902122735977173, -0.3133217692375183, -0.3559248149394989, -0.09675224870443344, 0.17698457837104797, 0.16975362598896027, 0.3397473692893982, 0.05258847773075104, 0.2724299430847168, 0.5991411805152893, -0.2210901528596878, 0.35074469447135925, 0.12234244495630264, 0.28449785709381104, 0.35297656059265137, -0.0302741676568985, 0.2674875557422638, -0.3693654537200928, 0.2793695628643036, 0.1522749662399292, 0.43039843440055847, -0.22979992628097534, -0.219078928232193, -0.2174045890569687, 0.29282835125923157, -0.2349873036146164, 0.23662744462490082], [-0.3783142864704132, -0.08935679495334625, 0.08162277191877365, 0.053743891417980194, -0.06675037741661072, 0.09105635434389114, 0.28618353605270386, -0.3072025179862976, -0.12923051416873932, -0.33123427629470825, 0.16840922832489014, -0.09396588057279587, -0.049342114478349686, 0.3030344545841217, 1.2214155197143555, -0.1743696630001068, 0.2355065792798996, -0.11911831796169281, -0.2955701947212219, -0.4867776334285736, 0.07851792871952057, -0.25277817249298096, 0.10929819196462631, 0.09563159197568893, -0.5057635307312012, -0.40382444858551025, -0.6586235165596008, -0.41365811228752136, -0.16381917893886566, -0.16238074004650116, 0.2479449361562729, -0.019244899973273277, 0.018993381410837173, -0.3113739490509033, 0.23137816786766052, 0.3867194652557373, 0.1718640774488449, 0.15986937284469604, 0.3203376531600952, -0.49193069338798523], [-0.1926604062318802, 0.2907358705997467, -0.00469173165038228, -0.17850862443447113, 0.1620747447013855, -0.19793744385242462, 0.1402355134487152, -0.0296072605997324, 0.5694709420204163, 0.1864449828863144, 0.5090993642807007, 0.07197130471467972, 0.2343776673078537, -0.4550747573375702, 0.900556743144989, -1.1619725227355957, -0.20087771117687225, 0.6637307405471802, 0.08029838651418686, 0.2649838626384735, -0.1739080548286438, 0.05798465386033058, 0.16125266253948212, -0.376064658164978, 0.43182623386383057, 0.5371860861778259, 0.2671145498752594, 0.18350906670093536, 0.3636639714241028, 0.38516736030578613, 0.13197828829288483, 0.09319674968719482, 0.3161160945892334, 0.09563581645488739, -0.07401438057422638, -0.10762067139148712, -0.19003917276859283, 0.5983877778053284, -0.2442803829908371, 0.3215382397174835], [0.011686152778565884, -0.21964597702026367, 0.8715939521789551, -0.28779810667037964, 0.7093337774276733, 1.8389701843261719, 1.1640957593917847, 0.7064361572265625, 0.45981335639953613, 0.10962317138910294, -0.9069010615348816, -1.481383204460144, -0.05256619676947594, 0.45286470651626587, 0.727398157119751, 1.0424760580062866, -1.5601284503936768, -0.2030104100704193, -0.3474777638912201, 0.21130840480327606, -1.41770339012146, 0.01375176478177309, 0.10298751294612885, 0.8784087896347046, 0.2651244103908539, -0.6769359111785889, -0.19007861614227295, -0.9585665464401245, -0.8975145816802979, -0.7444407939910889, -0.042561035603284836, -0.7112438082695007, -0.12605565786361694, -0.5045894384384155, 0.410189688205719, 0.43571653962135315, 0.5840737819671631, -1.0408682823181152, -0.12982265651226044, -0.1679140031337738], [0.11156633496284485, -0.24460361897945404, 0.28301891684532166, 0.23207178711891174, 0.574042022228241, 0.2613546550273895, 0.5655344128608704, 0.36308181285858154, -0.21592411398887634, -0.26601630449295044, -0.2526988685131073, -0.4158841669559479, -0.263014554977417, 0.2577365040779114, -1.0178078413009644, 1.1488935947418213, -0.48444902896881104, -0.051848240196704865, 0.23225320875644684, -0.1754317581653595, -0.6750108599662781, -0.39602959156036377, 0.18367546796798706, 0.45025917887687683, -0.23860079050064087, -0.252516508102417, -0.049229927361011505, -0.4028147757053375, -0.5332244634628296, -0.30196353793144226, 0.064425528049469, -0.33680906891822815, -0.3089999556541443, -0.4241126477718353, 0.14330478012561798, 0.20097927749156952, 0.18582171201705933, -0.43900826573371887, 0.18125207722187042, -0.21984143555164337], [-0.183597594499588, 0.22234177589416504, -0.34279653429985046, -0.0998024046421051, -0.17966228723526, -0.03227408602833748, -0.3146887719631195, -0.24552306532859802, 0.113326296210289, 0.1490122377872467, 0.4302540719509125, 0.19908542931079865, 0.5320574045181274, -0.2649191915988922, -0.12198567390441895, -0.28291434049606323, 0.10218960046768188, 0.19995857775211334, 0.3261420726776123, 0.39734768867492676, 0.3789122402667999, 0.10599103569984436, 0.27524030208587646, -0.3837948441505432, 0.3112172484397888, 0.2636775076389313, 0.3359973728656769, 0.15175902843475342, 0.14212726056575775, 0.18491864204406738, -0.42051300406455994, 0.1259392946958542, 0.35920390486717224, 0.17065855860710144, -0.16940930485725403, -0.2083512395620346, -0.3754892945289612, 0.34972459077835083, -0.26919853687286377, 0.3222194015979767], [-0.38897383213043213, 0.16453860700130463, -0.18360568583011627, -0.1776684671640396, -0.3804674744606018, -0.16916020214557648, -0.3045178949832916, -0.23785290122032166, 0.2103140652179718, 0.255169540643692, 0.3595868647098541, 0.15510055422782898, 0.2872277498245239, -0.15438295900821686, -0.5474341511726379, -0.2989910840988159, 0.3500225245952606, 0.24854227900505066, 0.32185664772987366, 0.2637097239494324, 0.09466180950403214, 0.28279194235801697, 0.3811042308807373, -0.23945191502571106, 0.14267630875110626, 0.07315333187580109, 0.26985248923301697, 0.20566998422145844, 0.2046067714691162, 0.2817150354385376, -0.1830814927816391, 0.31186383962631226, 0.26614412665367126, 0.36594197154045105, -0.15430673956871033, -0.14731168746948242, -0.20524705946445465, 0.20409543812274933, -0.33918944001197815, 0.13127465546131134], [-0.02748110704123974, -1.0594353675842285, 0.31532829999923706, 0.3400968909263611, 0.5257608890533447, -0.0026367707177996635, 0.07921042293310165, 1.8992794752120972, -0.891156017780304, -0.5384905338287354, -0.4386306405067444, -0.15738072991371155, 0.05796433240175247, 0.307340532541275, 1.1396557092666626, 1.6744792461395264, -0.19391296803951263, -0.15527865290641785, 0.8399267196655273, -0.2285679578781128, -0.027874663472175598, -0.4561132490634918, 0.3774966895580292, 0.9692093729972839, -0.075611911714077, -0.32599714398384094, 0.8481799960136414, -0.16603386402130127, -1.672507882118225, -0.46486300230026245, -0.5879997611045837, -0.23580066859722137, -0.4821084439754486, 0.376699298620224, 0.2909412980079651, -0.10289685428142548, 0.8672812581062317, -0.5479820966720581, -0.30604472756385803, 0.028203066438436508], [-0.31846657395362854, 0.14275063574314117, -0.10978162288665771, -0.19249048829078674, -0.31422799825668335, -0.21595978736877441, -0.1340472549200058, -0.26505255699157715, 0.3397004306316376, 0.4095098376274109, 0.42363405227661133, 0.27149611711502075, 0.24995744228363037, -0.21040348708629608, -0.4037970006465912, -0.3996058702468872, 0.05558094382286072, 0.11030220985412598, 0.32630422711372375, 0.39476457238197327, 0.4593398869037628, 0.18783122301101685, 0.3378640115261078, -0.5392360687255859, 0.22824236750602722, 0.277229905128479, 0.08849427103996277, 0.28437814116477966, 0.2283909022808075, 0.22284477949142456, -0.19409313797950745, 0.21164877712726593, 0.14870722591876984, 0.3234959840774536, -0.33610907196998596, -0.16253916919231415, -0.23473435640335083, 0.41886410117149353, -0.2275714874267578, 0.13210764527320862], [-0.1379648596048355, 0.19554147124290466, -0.2339368313550949, -0.34156280755996704, -0.190027117729187, -0.3242481052875519, 0.33067893981933594, -0.3004404902458191, 0.5107619166374207, 0.3460678160190582, 0.34880027174949646, 0.2907847762107849, 0.09214369207620621, -0.18776577711105347, 0.45812103152275085, 0.4181758165359497, 0.027452444657683372, 0.47519955039024353, 0.13189911842346191, 0.6386552453041077, -0.22353670001029968, 0.08172348886728287, 0.14626546204090118, 0.1335146427154541, 0.4733099043369293, 0.2833934724330902, -0.5987540483474731, 0.33993223309516907, 0.2894138991832733, 0.24439264833927155, -0.36185887455940247, 0.3570375144481659, 0.32399484515190125, 0.1394733190536499, -0.18186993896961212, -0.26533427834510803, -0.045411430299282074, 0.23925277590751648, -0.5481026768684387, 0.3008170425891876], [-0.28185147047042847, 0.25289151072502136, -0.2927502989768982, -0.3239785432815552, -0.3841146230697632, -0.2896484136581421, -0.4337711036205292, -0.17472390830516815, 0.2763822674751282, 0.12221246212720871, 0.5005944967269897, 0.20991893112659454, 0.48944512009620667, -0.32612118124961853, -0.360845148563385, -0.42144864797592163, 0.1710570901632309, 0.30712127685546875, 0.3514150381088257, 0.32830676436424255, 0.3098054826259613, 0.3054816722869873, 0.41309621930122375, -0.32303592562675476, 0.1149553507566452, 0.13678786158561707, 0.24880141019821167, 0.12333700805902481, 0.17845971882343292, 0.12283243238925934, -0.3468255400657654, 0.19908809661865234, 0.22671756148338318, 0.4555699825286865, -0.35410988330841064, -0.3105197846889496, -0.1936303973197937, 0.2090076059103012, -0.29946455359458923, 0.32610055804252625], [-0.08514676243066788, 0.23379097878932953, 0.2164568305015564, 0.33777916431427, 0.12408625334501266, -0.17472301423549652, 0.6783174872398376, 0.7942240834236145, -0.41107338666915894, -0.24973872303962708, -0.20475704967975616, -0.18669462203979492, -0.061017852276563644, 0.28824666142463684, 2.0974268913269043, 0.2291834056377411, -0.5088805556297302, 0.20701555907726288, -0.10867580771446228, 0.011060567572712898, 0.11722218245267868, -0.650616466999054, 0.19528059661388397, 0.6186305284500122, -0.17183928191661835, -0.17079107463359833, -0.5239704847335815, -0.20697180926799774, -0.49449893832206726, -0.2502795457839966, -0.12871946394443512, -0.2413400411605835, -0.5442731976509094, -0.009378696791827679, 0.2640213370323181, -0.416264146566391, 0.4255914092063904, -0.35332781076431274, 0.12981563806533813, 0.0026705842465162277], [-0.327912300825119, 0.11547645926475525, -0.18301552534103394, -0.14968755841255188, -0.26235225796699524, -0.143459752202034, -0.3792063593864441, -0.22911100089550018, 0.07038335502147675, 0.04900553449988365, 0.331766277551651, 0.10812918841838837, 0.4279383420944214, -0.10248607397079468, -0.7034111022949219, -0.2930212616920471, 0.3650304079055786, 0.07084263116121292, 0.32915765047073364, 0.22265790402889252, 0.2403288334608078, 0.2731013596057892, 0.34574994444847107, -0.2690143883228302, 0.36731407046318054, 0.17073319852352142, 0.33508890867233276, 0.19071471691131592, 0.28395575284957886, 0.06136072427034378, -0.36513465642929077, 0.13485242426395416, 0.3396635949611664, 0.3472077250480652, -0.2846303880214691, -0.24484682083129883, -0.20176009833812714, 0.33608561754226685, -0.35623010993003845, 0.3218367099761963], [-0.26557600498199463, 0.13007952272891998, -0.21017026901245117, -0.19754961133003235, -0.16651523113250732, -0.23454871773719788, -0.11098936200141907, -0.1602836400270462, 0.17046019434928894, 0.25456395745277405, 0.3713690936565399, 0.2521319091320038, 0.2396286576986313, -0.2557685971260071, -0.16990065574645996, -0.5324282050132751, 0.10474320501089096, 0.18935798108577728, 0.14656677842140198, 0.3547326326370239, -0.021420888602733612, 0.3617216944694519, 0.49938857555389404, -0.16504044830799103, 0.3102063834667206, 0.3759966492652893, 0.19420002400875092, 0.2901533544063568, -0.023982461541891098, 0.12151356786489487, -0.12499146908521652, 0.28932496905326843, 0.23934383690357208, 0.24782386422157288, -0.346516489982605, -0.35103583335876465, -0.28021684288978577, 0.3234029710292816, -0.2460622638463974, 0.29533421993255615], [-0.023364024236798286, 0.19696713984012604, 0.41823601722717285, 0.23812466859817505, 0.49559471011161804, -0.12810224294662476, 0.6133614778518677, 0.7273556590080261, -0.36046797037124634, -0.40119320154190063, -0.48649996519088745, -0.14907872676849365, -0.3598344922065735, 0.0631062462925911, 1.4163492918014526, 0.8252558708190918, -0.5267189741134644, 0.1074131429195404, -0.38135048747062683, -0.07489491999149323, -0.30444586277008057, -0.5149744749069214, 0.038034699857234955, 0.46636298298835754, -0.18164092302322388, -0.22038130462169647, 0.02884945087134838, -0.039774104952812195, -0.3028819262981415, -0.3781898617744446, -0.03457605466246605, -0.2749961316585541, -0.2180422991514206, -0.3269386291503906, 0.2698153555393219, -0.25415536761283875, 0.5506770610809326, -0.21581889688968658, -0.004141762387007475, -0.10850993543863297], [-0.24502919614315033, 0.15465117990970612, -0.19470112025737762, -0.20116309821605682, -0.2114323526620865, -0.034220632165670395, -0.3609860837459564, -0.2825661897659302, 0.1473749279975891, 0.20692917704582214, 0.4618794620037079, 0.29648247361183167, 0.42314448952674866, -0.15699779987335205, -0.6912986040115356, -0.32470718026161194, 0.10683725029230118, 0.12721338868141174, 0.28951743245124817, 0.2353123426437378, 0.120824433863163, 0.32772451639175415, 0.3687819242477417, -0.4230925440788269, 0.1574026197195053, 0.14804023504257202, 0.23296546936035156, 0.15793336927890778, 0.15209010243415833, 0.3514452874660492, -0.17381078004837036, 0.06954024732112885, 0.10528574883937836, 0.1866428405046463, -0.251152902841568, -0.3277963399887085, -0.36857694387435913, 0.28872403502464294, -0.29914480447769165, 0.21823784708976746], [-0.25767090916633606, 0.1381225287914276, -0.17596884071826935, -0.46492019295692444, -0.46308401226997375, -0.16255730390548706, -0.43675822019577026, -0.22936184704303741, 0.40312880277633667, 0.726201057434082, -0.12307900190353394, -0.09002307802438736, 0.13047823309898376, -0.28377655148506165, 1.5327341556549072, -0.10575178265571594, 0.29344382882118225, 0.1377912014722824, -0.8010764718055725, 0.3447806239128113, 1.3297181129455566, 0.5282502770423889, 0.4942006468772888, -0.29710260033607483, 0.377653568983078, 0.24518023431301117, -0.27264195680618286, 0.3844214081764221, -0.052712276577949524, 0.23035982251167297, 0.2531367540359497, 0.35128912329673767, 0.3881644606590271, -0.4031239449977875, -0.25943833589553833, -0.46499571204185486, 0.07386627793312073, 0.5801421403884888, 0.0879894345998764, 0.32103732228279114], [-0.3832666277885437, -0.2852388322353363, 0.49802926182746887, 0.13834303617477417, 0.3582371175289154, 0.1479766070842743, 0.5852076411247253, 0.8094165921211243, -0.564303457736969, -0.3375352919101715, -0.31914374232292175, -0.4100492596626282, -0.1841718703508377, 0.1213931292295456, -0.8961005210876465, 0.8799653053283691, -0.38652658462524414, -0.16284924745559692, -0.048228971660137177, -0.11351645737886429, -0.1374034881591797, -0.2874423563480377, 0.23435010015964508, 0.3907775580883026, -0.1427755206823349, -0.40980273485183716, -0.014465056359767914, -0.4352443814277649, -0.7404150366783142, -0.3808395266532898, -0.06694750487804413, -0.2579193711280823, -0.32004183530807495, -0.08562187105417252, 0.382974773645401, 0.20158298313617706, 0.5973747968673706, -0.4023929834365845, -0.0999637171626091, -0.16914482414722443], [-0.317068874835968, 0.011698555201292038, 0.48869651556015015, 0.2608211636543274, 0.6104298830032349, 0.5723048448562622, 0.7120674848556519, 0.3706337511539459, -0.5618698000907898, -0.61383056640625, -0.40269410610198975, -0.405800998210907, -0.24407941102981567, 0.3989519774913788, 0.6586414575576782, 0.8586517572402954, -0.6279769539833069, -0.10955217480659485, 0.11108558624982834, -0.3811185359954834, -0.8340663909912109, -0.6698543429374695, -0.019184596836566925, 0.2185019552707672, -0.30011776089668274, -0.26786601543426514, 0.028464343398809433, -0.21112218499183655, -0.6187804341316223, -0.4621248245239258, -0.2208448052406311, -0.3915536105632782, -0.43937793374061584, -0.22540557384490967, 0.42262306809425354, 0.1743055284023285, 0.24803359806537628, -0.37248072028160095, 0.06863860040903091, -0.1431727409362793], [-0.03865250572562218, -0.0016330620273947716, 0.3425549566745758, 0.1643017828464508, 0.23809579014778137, 0.1309274435043335, 0.3702017366886139, 0.5775768756866455, -0.3929808735847473, -0.28009334206581116, -0.06924489885568619, -0.4419499337673187, -0.053992073982954025, 0.14152519404888153, 0.6700736284255981, 0.6877679228782654, -0.521735668182373, 0.09898844361305237, -0.1367952525615692, -0.17638806998729706, -0.3530392348766327, -0.556011438369751, 0.35155412554740906, 0.25496265292167664, -0.07609235495328903, -0.12192200124263763, -0.07457709312438965, -0.21660947799682617, -0.5350369811058044, -0.32902833819389343, -0.2520770728588104, -0.09325326979160309, -0.2985456883907318, -0.2893221080303192, 0.3308590352535248, -0.002104493323713541, 0.6272876262664795, -0.44874969124794006, -0.08873855322599411, -0.12068667262792587], [-0.3357420563697815, 0.2502203583717346, -0.2927074432373047, -0.33700963854789734, -0.33349236845970154, -0.09855997562408447, -0.28701967000961304, -0.23913699388504028, 0.060563892126083374, 0.2044147551059723, 0.337482213973999, 0.19002169370651245, 0.18107403814792633, -0.18767371773719788, -0.512907087802887, -0.6128199696540833, 0.08707226067781448, 0.2792972922325134, 0.19509054720401764, 0.1253700852394104, 0.3231288194656372, 0.20348449051380157, 0.44464948773384094, -0.33853378891944885, 0.1176598072052002, 0.2828386723995209, 0.054302189499139786, 0.3401278257369995, 0.28972309827804565, 0.2680495083332062, -0.24829885363578796, 0.10193826258182526, 0.3476060926914215, 0.2972588539123535, -0.38429462909698486, -0.40579119324684143, -0.4434620141983032, 0.27710893750190735, -0.3988528549671173, 0.1738332211971283], [0.09814298152923584, 0.3823700249195099, 0.6483951807022095, 0.18992438912391663, 0.1109207347035408, 0.6527504920959473, 0.6093745827674866, -0.02747122384607792, 0.06312087178230286, -0.0813932791352272, -0.4961416721343994, -0.7740225195884705, -0.2171773910522461, 0.3786395490169525, -0.2172035425901413, 0.3086579144001007, -0.3263208270072937, 0.007809027563780546, -0.21083679795265198, -0.39039579033851624, -0.03357814624905586, -0.020823251456022263, 0.014135131612420082, 0.16805866360664368, -0.3851017355918884, -0.28645721077919006, 0.007254408206790686, -0.1685488522052765, 0.09767043590545654, -0.39596492052078247, -0.09144094586372375, -0.1097043976187706, -0.08761804550886154, -0.318366676568985, 0.31216689944267273, 0.11072377860546112, 0.1989646553993225, -0.38689422607421875, -0.09896880388259888, -0.1268789917230606], [-0.3567952513694763, 0.24134518206119537, 0.12064266949892044, -0.42280662059783936, -0.19998319447040558, -0.10322275757789612, -0.03066059574484825, 0.08968699723482132, 0.28872382640838623, 0.12996818125247955, 0.16774767637252808, 0.2392246425151825, 0.2721043825149536, -0.3590930104255676, 0.19320829212665558, 0.330096960067749, 0.004897537175565958, 0.4118386209011078, 0.3705183267593384, 0.22534750401973724, 0.6336085200309753, 0.24987225234508514, 0.36328232288360596, -0.32556965947151184, 0.5174676775932312, 0.3054824471473694, 0.2670527398586273, 0.31675124168395996, 0.20565150678157806, 0.12372346967458725, -0.5974146723747253, 0.2291281670331955, 0.3130767345428467, 0.11767330765724182, -0.25888994336128235, -0.19563835859298706, 0.006431367713958025, 0.09265042841434479, -0.36063069105148315, 0.27485400438308716], [-0.41451194882392883, 0.2629278004169464, -0.3209393620491028, -0.21697500348091125, -0.15651385486125946, -0.3037976324558258, -0.22297720611095428, -0.11606132984161377, 0.4203183352947235, 0.38273441791534424, 0.146482452750206, 0.2220875769853592, 0.39963003993034363, -0.3582192659378052, 0.10426992177963257, -0.3831232488155365, 0.06419721245765686, 0.33036577701568604, 0.06678207218647003, 0.33356669545173645, 0.087790347635746, 0.11251337826251984, 0.5079694986343384, -0.4946505129337311, 0.3527306616306305, 0.28855252265930176, 0.14987590909004211, 0.27347198128700256, 0.13605235517024994, 0.3428545594215393, -0.21254917979240417, 0.05782952532172203, 0.24057124555110931, 0.3004584312438965, -0.13445977866649628, -0.15502482652664185, -0.3202067017555237, 0.4251871407032013, -0.1630961000919342, 0.2562134861946106], [-0.20259077847003937, 0.00411309115588665, -0.12648293375968933, -0.297541081905365, -0.45796558260917664, -0.14756226539611816, -0.2337571680545807, -0.27369722723960876, 0.28275516629219055, 0.08683675527572632, 0.4231604337692261, 0.05927393212914467, 0.5179799199104309, -0.25148794054985046, -0.41311341524124146, -0.3922332525253296, 0.16570059955120087, 0.36541280150413513, 0.3908073306083679, 0.42525821924209595, 0.12734681367874146, 0.209855854511261, 0.715118408203125, -0.3372582793235779, 0.2104935199022293, 0.36255112290382385, 0.39215731620788574, 0.09947369992733002, 0.02727501280605793, 0.2620951533317566, -0.3285583555698395, 0.2689041495323181, 0.31696152687072754, 0.4586338996887207, -0.07822131365537643, -0.34962648153305054, -0.24700835347175598, 0.16448785364627838, -0.5291568636894226, 0.2301987111568451], [0.09790893644094467, 0.18165630102157593, 0.5112186074256897, 0.16212548315525055, -0.23969800770282745, 0.2477370947599411, 0.47182631492614746, 0.6393606662750244, -0.6243821978569031, -0.10293147712945938, -0.35519853234291077, -0.2670597732067108, -0.012858658097684383, 0.19650894403457642, -1.0506374835968018, -0.11983722448348999, 0.044988106936216354, -0.30871084332466125, -0.25727301836013794, -0.3190271854400635, -0.2192384898662567, 0.05508730188012123, -0.015943124890327454, 0.0004747015191242099, -0.3701603412628174, -0.44237256050109863, -0.06444112956523895, -0.38850080966949463, -0.3825645446777344, -0.19674146175384521, -0.14754606783390045, -0.24741439521312714, -0.31408900022506714, -0.19939067959785461, 0.37447789311408997, 0.48209285736083984, 0.3150705099105835, -0.3315137028694153, 0.17671909928321838, -0.3799443244934082], [-0.18270862102508545, -0.1393589973449707, -0.1894708126783371, -0.13871924579143524, -0.17482756078243256, -0.07924660295248032, -0.06865440309047699, 0.27895987033843994, 0.1119861975312233, 0.07373636960983276, 0.4002816379070282, 0.2964845597743988, 0.5348273515701294, -0.1658228188753128, -1.4861609935760498, -0.1506700962781906, 0.10300806909799576, 0.2812104821205139, 0.49731314182281494, 0.1915535032749176, -0.046354521065950394, 0.03883839398622513, 0.5404458045959473, -0.233748659491539, 0.24267561733722687, 0.08363629877567291, 0.2683590352535248, 0.29586416482925415, 0.2117425799369812, 0.29283368587493896, -0.5551333427429199, 0.27526766061782837, 0.3166690170764923, 0.368033766746521, -0.313570111989975, -0.18961308896541595, -0.167684406042099, 0.16276559233665466, -0.1341387927532196, 0.16695696115493774], [-0.3544277250766754, 1.1931194067001343, 0.12799027562141418, -0.27625569701194763, -0.08005041629076004, 1.0840004682540894, 0.170260488986969, -0.7104251384735107, -0.6610774397850037, 0.7671766877174377, -1.4042894840240479, -0.11536694318056107, -0.40540409088134766, 0.016280075535178185, -0.8542170524597168, -3.3421690464019775, 0.6887924075126648, 0.42258286476135254, -0.23436331748962402, -0.7496346235275269, 4.381824970245361, 0.491599977016449, -0.4106641709804535, -0.7261595129966736, -0.8504908084869385, 0.4151788651943207, -2.680501937866211, -0.7978382110595703, 1.006941556930542, 0.18588317930698395, 1.1025067567825317, -0.8177782893180847, 0.9587461352348328, -0.23627735674381256, -0.40983131527900696, 1.7838866710662842, -0.06494946777820587, 1.2655919790267944, 1.2461192607879639, -0.5179204344749451], [-0.014798635616898537, 0.20782752335071564, 0.07319917529821396, -0.3900238573551178, -0.16900990903377533, -0.09419804811477661, 0.06226639077067375, 0.05791064351797104, 0.6461780071258545, 0.35902857780456543, 0.8123340606689453, -0.06342054903507233, 0.019488655030727386, -0.70198655128479, 0.5572006106376648, 0.6143727898597717, -0.025607086718082428, 0.5585959553718567, 0.2378149777650833, 0.8506288528442383, 0.5159276723861694, 0.02274487540125847, -0.3306193947792053, 0.41133883595466614, 0.9232721328735352, 0.5490454435348511, -0.008824709802865982, 0.2919768691062927, 0.3125945031642914, 0.42946821451187134, -0.4397190511226654, 0.13004261255264282, 0.09255967289209366, 0.06041991338133812, -0.19161146879196167, -0.2425997108221054, 0.22414293885231018, -0.3221378028392792, -0.44860872626304626, 0.6594686508178711], [-0.5938580632209778, 0.0658034235239029, -0.4858958125114441, -0.2854352295398712, -0.81630939245224, -0.23547275364398956, -0.5029677152633667, -0.09283582121133804, 0.3341301679611206, 0.16596010327339172, 0.3109465539455414, 0.3322823941707611, 0.29357245564460754, -0.22793780267238617, 0.7547970414161682, -0.4825320839881897, 0.315948486328125, 0.2893140912055969, 0.5330365896224976, 0.281503289937973, -0.0387505441904068, 0.551567792892456, 0.5037093162536621, -0.30136966705322266, 0.0539419911801815, 0.14128778874874115, 0.9117127060890198, 0.2908085286617279, -0.0555904321372509, 0.2708221673965454, -0.4462997317314148, 0.35177820920944214, 0.24226702749729156, 0.444091796875, -0.289883017539978, -0.38008958101272583, -0.47515782713890076, 0.2648959457874298, -0.3502834737300873, 0.2802128791809082], [-0.4744870364665985, 0.3302922248840332, -0.3423658609390259, -0.12335578352212906, -0.14388325810432434, -0.08867383003234863, -0.11728622764348984, -0.37369304895401, 0.1681797355413437, 0.04309510067105293, 0.4810532033443451, 0.3159911334514618, 0.32557687163352966, -0.3349224328994751, 0.0030182963237166405, -0.7029708623886108, 0.13880330324172974, 0.1513190120458603, 0.3427768349647522, 0.09498446434736252, 0.46957695484161377, 0.1391059160232544, 0.07341764867305756, -0.26448914408683777, 0.2774025499820709, 0.40306541323661804, 0.46502283215522766, 0.1138051450252533, 0.20750662684440613, 0.0934649184346199, -0.17753691971302032, 0.23865464329719543, 0.25392240285873413, 0.44909629225730896, -0.25611361861228943, -0.28831908106803894, -0.3223555386066437, 0.31666678190231323, -0.36294761300086975, 0.23861993849277496], [0.09530571848154068, -0.08999946713447571, 0.28573378920555115, 0.3596726953983307, 0.17693187296390533, -0.08113904297351837, 0.29063594341278076, -0.3717331886291504, -0.21810956299304962, -0.5284178256988525, 0.7750306725502014, -0.3044021427631378, -0.037486206740140915, 0.21754084527492523, 0.049314092844724655, 0.7611717581748962, -0.3162977397441864, 0.2067456990480423, 0.20189711451530457, -0.33649998903274536, -1.6004077196121216, -0.7540899515151978, -0.4560205340385437, 0.0720941573381424, -0.35115846991539, -0.3710302710533142, 0.0232072900980711, -0.3030214011669159, -0.4254327714443207, -0.37638670206069946, -0.1976483017206192, -0.07544532418251038, -0.32803913950920105, -0.17202608287334442, 0.21192128956317902, 0.14276789128780365, 0.2263621687889099, -0.15348409116268158, 0.14623400568962097, -0.33380043506622314], [-0.42691314220428467, 0.10355482250452042, -0.271613746881485, -0.20557327568531036, -0.3362584412097931, -0.2273186594247818, -0.1504054218530655, 0.08687764406204224, 0.23513908684253693, 0.31853723526000977, 0.36544641852378845, 0.10398068279027939, 0.5361442565917969, -0.25865110754966736, -0.4738033711910248, -0.33092331886291504, 0.12236856669187546, 0.13046488165855408, 0.3446218967437744, 0.376979798078537, 0.3130979835987091, 0.3578673005104065, 0.4008706510066986, -0.2599913477897644, 0.32422935962677, 0.2663176953792572, 0.2333814650774002, 0.11183834820985794, 0.06610128283500671, 0.3784272074699402, -0.19350968301296234, 0.2658872604370117, 0.3612849712371826, 0.2704887092113495, -0.2299034297466278, -0.33932381868362427, -0.22039829194545746, 0.07635713368654251, -0.15004862844944, 0.23890799283981323], [-0.22630900144577026, 0.5001593828201294, 0.7139450907707214, 0.21808263659477234, 0.27365991473197937, 0.39708980917930603, 0.530722439289093, 0.183824360370636, -0.007031857036054134, -0.3915654420852661, -0.4897991120815277, -0.6913776397705078, -0.1508641391992569, 0.5031167268753052, -0.15255236625671387, 0.5989255905151367, -0.11202321201562881, -0.21854709088802338, -0.19041860103607178, -0.39382705092430115, -0.6339138746261597, -0.40117260813713074, 0.059495896100997925, 0.22145141661167145, -0.23454642295837402, -0.5206668376922607, -0.21333608031272888, -0.2970472574234009, -0.0034108413383364677, -0.2889587879180908, -0.033324651420116425, -0.19562487304210663, -0.04452463239431381, -0.5434334874153137, 0.3443583846092224, -0.06564128398895264, 0.32689109444618225, -0.31988850235939026, 0.14566077291965485, -0.2137204259634018], [-0.3945654630661011, 0.09954425692558289, -0.24303992092609406, -0.3064684271812439, -0.19490256905555725, -0.2665693163871765, -0.41467684507369995, -0.1862976998090744, 0.3338838219642639, 0.20480772852897644, 0.20824427902698517, 0.31758973002433777, 0.3525393009185791, -0.13602949678897858, -0.8847393989562988, -0.38059329986572266, 0.34086617827415466, 0.22369958460330963, 0.5103143453598022, 0.3602769374847412, 0.11640885472297668, 0.21778331696987152, 0.280811071395874, -0.40260249376296997, 0.08062694221735, 0.0702001228928566, 0.5137519836425781, 0.2542182207107544, 0.25922107696533203, 0.2627653181552887, -0.25161153078079224, 0.12004710733890533, 0.29381123185157776, 0.24024350941181183, -0.16416926681995392, -0.33708953857421875, -0.3573479652404785, 0.35788941383361816, -0.4010457396507263, 0.21142683923244476], [-0.5285695195198059, 0.5347211360931396, -1.3005101680755615, -0.645115077495575, -2.6571669578552246, -0.7964215874671936, -0.9022986888885498, -1.3586475849151611, 1.795082926750183, 1.4218811988830566, -0.2759677767753601, 0.5235579609870911, -0.3377155363559723, 0.7737866640090942, 3.7449758052825928, -2.4545607566833496, 3.1980345249176025, -2.8763270378112793, -2.6198723316192627, -2.044724225997925, 2.7979886531829834, 1.595746636390686, -0.10350073128938675, -0.5379245281219482, -2.40566349029541, -1.1562395095825195, -2.0269978046417236, -0.5337125062942505, 1.0593903064727783, -0.5683681964874268, 1.639404535293579, -0.4561438262462616, 1.5383107662200928, -1.5665230751037598, -0.5697087645530701, 0.32362231612205505, -0.9683582186698914, 1.1743651628494263, 1.1456019878387451, -1.2601604461669922], [-0.25528743863105774, 0.01193550880998373, 0.48830705881118774, 0.08100784569978714, -0.11352856457233429, 0.7654763460159302, 0.4860726594924927, -0.033637452870607376, 0.23627439141273499, 0.2729213535785675, -0.11503730714321136, -0.44279956817626953, 0.025492647662758827, 0.3762776255607605, 1.6496639251708984, -0.2499760091304779, -0.004343695938587189, -0.42966362833976746, -0.6540265083312988, -0.4473622143268585, 0.47520962357521057, 0.2675691843032837, 0.2456658035516739, -0.29199671745300293, -0.3628040850162506, -0.302519828081131, -1.399301528930664, -0.6601963639259338, -0.02791217900812626, -0.14866508543491364, 0.4332663416862488, -0.642230749130249, 0.07173144817352295, -0.5772015452384949, 0.25658538937568665, 0.9385778903961182, 0.3824826776981354, -0.17310261726379395, 0.29740896821022034, -0.40667739510536194], [-0.36173227429389954, 0.4951440095901489, -0.22778558731079102, -0.09678469598293304, -0.41435056924819946, -0.46667444705963135, -0.30429747700691223, -0.5115808844566345, 0.2799510955810547, 0.3145191967487335, 0.5711316466331482, 0.5604519844055176, 0.43861445784568787, -0.3246055543422699, -1.3220632076263428, -0.575425386428833, -0.050979599356651306, 0.20215100049972534, 0.12270442396402359, 0.24772372841835022, 0.3873198628425598, 0.006796168629080057, 0.8643596172332764, -0.6151326894760132, 0.4855448007583618, 0.19709934294223785, 0.3143886923789978, 0.3365921974182129, 0.6011115908622742, 0.15354827046394348, -0.16578078269958496, 0.4216088354587555, 0.08725626021623611, 0.41797783970832825, -0.08305767178535461, -0.09424707293510437, -0.47526228427886963, 0.5999123454093933, -0.3184159994125366, 0.11109501123428345], [-0.32453683018684387, 0.26167476177215576, -0.3098389804363251, -0.19717763364315033, -0.3260810375213623, -0.5190023183822632, 0.3896133601665497, -0.41584083437919617, 0.06972899287939072, 0.13664503395557404, 0.13588325679302216, 0.4218803346157074, 0.22500762343406677, -0.1609247326850891, -1.1308773756027222, -0.10519864410161972, 0.3510251045227051, 0.4387015700340271, 0.36402398347854614, 0.07892778515815735, 1.1431573629379272, 0.31424710154533386, 0.54930579662323, 0.027727758511900902, 0.10537856072187424, 0.07394085824489594, 0.3210642635822296, 0.3749658763408661, 0.21891449391841888, 0.19540515542030334, -0.355058878660202, 0.36616867780685425, 0.36351096630096436, 0.24644385278224945, -0.41901344060897827, -0.35568830370903015, -0.597754716873169, 0.6012842655181885, -0.2549067437648773, 0.18969498574733734], [-0.2372289001941681, 0.17916563153266907, 0.5249524116516113, 0.174696683883667, 0.17119531333446503, 0.2726908326148987, 0.26742875576019287, 0.3282225430011749, -0.3417532444000244, -0.3799729645252228, -0.2543986141681671, -0.3688405156135559, -0.05499257892370224, 0.4834378659725189, 0.9286271333694458, 0.7973513603210449, -0.41674745082855225, 0.014536507427692413, -0.13801458477973938, -0.09345700591802597, -0.2774842083454132, -0.4777204990386963, 0.675759494304657, 0.23818644881248474, -0.25822022557258606, -0.25218766927719116, -0.15061542391777039, -0.30692729353904724, -0.37109509110450745, -0.4240318536758423, -0.12497742474079132, -0.1596830040216446, -0.45954766869544983, -0.6472328305244446, 0.33279046416282654, 0.25591564178466797, 0.5204786062240601, -0.44332781434059143, -0.09911058098077774, -0.20219694077968597], [-0.3056626319885254, 0.2547205090522766, -0.10433440655469894, -0.08378405123949051, -0.1861724704504013, -0.37365102767944336, -0.47091996669769287, -0.27699896693229675, 0.2684517800807953, 0.24867911636829376, 0.2849307358264923, 0.2875567376613617, 0.3257310390472412, -0.37839627265930176, -0.31714460253715515, -0.1533249020576477, 0.1682146191596985, 0.150941401720047, 0.35451680421829224, 0.34826359152793884, 0.17384281754493713, 0.23538999259471893, 1.2169932126998901, -0.2319670170545578, 0.2694537043571472, 0.22728212177753448, 0.4038865268230438, 0.17639777064323425, 0.3113671839237213, 0.272318959236145, -0.3348109722137451, 0.3357361853122711, 0.23074515163898468, 0.4061662256717682, -0.2366829216480255, -0.28572073578834534, -0.2862842082977295, 0.3730621635913849, -0.21960438787937164, 0.1258620172739029], [-0.6374639272689819, 1.176889419555664, -0.29390913248062134, 0.11487308144569397, -0.6074513792991638, -0.6032405495643616, -0.010225935839116573, -2.2438578605651855, -0.31712010502815247, -0.39201414585113525, 0.8571878671646118, 0.15305323898792267, -0.3179759979248047, 0.6503275632858276, 0.8928859233856201, -0.8984701037406921, 1.0413933992385864, -0.2800367772579193, 0.19666559994220734, -0.8115266561508179, 1.248360514640808, -0.2621295750141144, 0.2218562215566635, -0.4460079073905945, -0.9014774560928345, -0.3823891878128052, -1.0713653564453125, -0.3994552791118622, -0.04657914862036705, -0.36709073185920715, 0.3137223422527313, -0.08508338034152985, 0.05478452146053314, 0.1585875302553177, 0.06578770279884338, 0.3659176230430603, -0.2585713863372803, 0.7456873059272766, 0.507392168045044, -0.5627666711807251], [-0.43774300813674927, 0.6056745052337646, -0.48244738578796387, -0.3080020546913147, -0.47888943552970886, -0.47185826301574707, 0.22934246063232422, -0.5339802503585815, 0.054829634726047516, 0.1980445384979248, 0.2471785545349121, 0.29096946120262146, 0.4372081756591797, -0.08799029886722565, -1.042131781578064, -0.8411533236503601, 0.6495798826217651, 0.24718016386032104, 0.5768967866897583, -0.0247967429459095, 1.0807360410690308, 0.0972268208861351, 0.2312699258327484, -0.4926272928714752, 0.11741858720779419, 0.15479855239391327, 0.26083117723464966, 0.19114182889461517, 0.2952020466327667, 0.10357077419757843, -0.025691255927085876, 0.42598849534988403, 0.3793357014656067, 0.2560212314128876, -0.259550005197525, -0.16226883232593536, -0.4091659188270569, 0.7461642622947693, -0.2744080424308777, 0.29877808690071106], [-0.08484421670436859, 0.23173056542873383, 0.9264233708381653, 0.17554545402526855, 0.4376191794872284, 1.4384887218475342, 0.9654068946838379, 0.3551523983478546, 0.013544292189180851, 0.08834687620401382, -0.4647108316421509, -1.2309478521347046, 0.07579031586647034, 0.4070706367492676, -0.00030870988848619163, 1.000684142112732, -0.54653400182724, -0.1700267642736435, -0.21099697053432465, 0.1909668743610382, -0.7984276413917542, -0.251379132270813, 0.7522294521331787, 0.5423321723937988, 0.3995003402233124, -0.6849090456962585, -0.06693927198648453, -0.8266938924789429, -0.21748995780944824, -0.654337465763092, 0.06866439431905746, -0.6248703598976135, -0.22076474130153656, -0.2583686113357544, 0.5225892066955566, 0.08945918083190918, 0.5240125060081482, -0.6496220827102661, -0.15195393562316895, -0.061187904328107834], [0.1503307968378067, 0.49438220262527466, 0.26672396063804626, 0.13209323585033417, 0.33244311809539795, -0.022181162610650063, 1.0571569204330444, 0.008084945380687714, -0.5223421454429626, -0.3530242443084717, -0.5546887516975403, -0.13033053278923035, -0.2888646721839905, 0.1409156322479248, -0.6996573805809021, 0.25430580973625183, -0.06896144896745682, 0.035780489444732666, -0.046748992055654526, -0.29017549753189087, 0.6753990650177002, -0.39032068848609924, 0.1685274988412857, 0.5827840566635132, -0.20349496603012085, -0.3317541182041168, -0.46432775259017944, -0.11335495114326477, -0.18826119601726532, -0.11790970712900162, 0.37852513790130615, -0.32218801975250244, -0.3010059595108032, -0.3807964622974396, 0.09839102625846863, 0.4370671212673187, 0.07510125637054443, 0.08549394458532333, 0.24556127190589905, -0.09924908727407455], [-0.4614293575286865, 0.11174753308296204, -0.10156216472387314, -0.07947007566690445, -0.36676666140556335, -0.24551351368427277, -0.4178394079208374, -0.22050908207893372, 0.2543242573738098, 0.03878051042556763, 0.39990782737731934, 0.3850442171096802, 0.5227017402648926, -0.24012553691864014, -0.35613739490509033, -0.2144329696893692, 0.08716075867414474, 0.17415879666805267, 0.49841225147247314, 0.47783294320106506, 0.4413447082042694, 0.15918150544166565, 1.3167229890823364, -0.40549567341804504, 0.3321024179458618, 0.18150219321250916, 0.3019070029258728, 0.17088110744953156, 0.3133167028427124, 0.22500492632389069, -0.48193809390068054, 0.2762230336666107, 0.05023719742894173, 0.46912580728530884, -0.1631048619747162, -0.24106654524803162, -0.2643413841724396, 0.22744277119636536, -0.20122598111629486, 0.15324844419956207], [-0.35142606496810913, 0.07063563168048859, -0.1901286393404007, -0.12913063168525696, -0.331791490316391, -0.09578464925289154, -0.3174785375595093, -0.3510877788066864, 0.3287903368473053, 0.1583396941423416, 0.4272550642490387, 0.3387625813484192, 0.4783061146736145, -0.31487715244293213, -0.48391422629356384, -0.3967428207397461, 0.245470330119133, 0.20878322422504425, 0.3066677451133728, 0.2411109209060669, 0.397988498210907, 0.31633561849594116, 0.37613341212272644, -0.44980165362358093, 0.3015197515487671, 0.0824679583311081, 0.39512622356414795, 0.13919006288051605, 0.18567268550395966, 0.19645626842975616, -0.40455034375190735, 0.26253825426101685, 0.16550816595554352, 0.3009657561779022, -0.24242983758449554, -0.26717156171798706, -0.17410637438297272, 0.4314315617084503, -0.4065794050693512, 0.37486377358436584], [0.4319125711917877, -0.5031723380088806, 0.08089179545640945, 0.21652767062187195, 0.4750193655490875, 0.013775567524135113, -0.0244157537817955, 0.9775457978248596, -0.41385120153427124, -0.17935478687286377, -0.3568817377090454, -0.19762255251407623, -0.06742236018180847, 0.25245633721351624, 0.651462972164154, 1.5199182033538818, -0.18036505579948425, -0.08465073257684708, 0.25317999720573425, -0.3892017602920532, -0.5472367405891418, -0.04995952174067497, 0.1701475977897644, 0.7143456339836121, -0.267476350069046, -0.2694108188152313, 1.9949177503585815, -0.11133038997650146, -0.8082547187805176, -0.40162891149520874, -0.30079755187034607, -0.33866751194000244, -0.34493428468704224, -0.22258184850215912, 0.3230515122413635, 0.1567343771457672, 0.3232461214065552, -0.35907289385795593, -0.11052151024341583, -0.2512611448764801], [-0.3944913148880005, 0.20804573595523834, -0.19013862311840057, -0.0766192376613617, -0.45749402046203613, -0.12481193989515305, -0.21677693724632263, -0.32119473814964294, 0.2686064541339874, 0.18283531069755554, 0.35605689883232117, 0.13670215010643005, 0.38194870948791504, -0.3322385847568512, -0.3619040548801422, -0.48471179604530334, 0.11290174722671509, 0.26851242780685425, 0.44930821657180786, 0.34431061148643494, 0.4314008057117462, 0.3422076106071472, 0.5151103734970093, -0.5146203637123108, 0.2777944803237915, 0.11002466082572937, 0.19343756139278412, 0.30901384353637695, 0.1672728955745697, 0.18968021869659424, -0.41359400749206543, 0.07522895187139511, 0.1432027816772461, 0.4056105315685272, -0.2781524956226349, -0.3386688828468323, -0.47463738918304443, 0.4206860065460205, -0.46619272232055664, 0.35280486941337585], [-0.17981450259685516, 0.2231641560792923, -0.21976414322853088, -0.3694814443588257, -0.08392549306154251, -0.10212457925081253, 0.13427019119262695, -0.17293840646743774, 0.445395827293396, 0.28863513469696045, 0.07882917672395706, 0.29370206594467163, -0.009433825500309467, -0.41708341240882874, 0.4156211018562317, 0.42918744683265686, 0.27227354049682617, 0.31811922788619995, 0.29163017868995667, 0.48118963837623596, 0.020755106583237648, 0.21033021807670593, 0.07869838178157806, 0.1924322545528412, 0.6850408315658569, 0.24386946856975555, -0.11673683673143387, 0.21195565164089203, 0.16704557836055756, 0.22921910881996155, -0.5025341510772705, 0.4066823720932007, 0.32045549154281616, 0.24208688735961914, -0.180696502327919, -0.12302228063344955, 0.04657386243343353, -0.05876806005835533, -0.33943477272987366, 0.3976394236087799], [-0.2872312664985657, 0.24411943554878235, -0.16432571411132812, -0.343033105134964, -0.4591046869754791, -0.10415389388799667, -0.18951918184757233, -0.15124398469924927, 0.3658667504787445, 0.291015625, 0.34866970777511597, 0.325857937335968, 0.5242249369621277, -0.07308901101350784, -0.5572712421417236, -0.4511133134365082, 0.34076792001724243, 0.15648290514945984, 0.38597622513771057, 0.2591230869293213, 0.44963929057121277, 0.33309340476989746, 0.4088982045650482, -0.29082217812538147, 0.21731558442115784, 0.3344132602214813, 0.3797651529312134, 0.23469696938991547, 0.13009333610534668, 0.1477019190788269, -0.24180173873901367, 0.12028834968805313, 0.20877711474895477, 0.24646368622779846, -0.23409214615821838, -0.2744790017604828, -0.29334038496017456, 0.4049479067325592, -0.43777352571487427, 0.09981948137283325], [-0.210750550031662, 0.6021358370780945, 0.35572806000709534, 0.3254454433917999, 0.08308791369199753, 0.19785244762897491, 0.5557006001472473, 0.5440961122512817, -0.4912436306476593, -0.264967679977417, -0.2952103614807129, -0.35677671432495117, -0.045518286526203156, 0.26591092348098755, 0.9894644021987915, 0.6313097476959229, -0.4699980318546295, 0.18035712838172913, -0.16050539910793304, -0.33908382058143616, -0.300507515668869, -0.5783960223197937, 0.3134292662143707, 0.694796085357666, -0.0967119112610817, -0.40487900376319885, -0.21296460926532745, -0.2605597674846649, -0.2377101480960846, -0.26758629083633423, -0.11536560952663422, -0.12500184774398804, -0.49121618270874023, -0.030797678977251053, 0.371437668800354, 0.04313715919852257, 0.26018792390823364, -0.4764024615287781, -0.0715864971280098, -0.05971141904592514], [-0.22325916588306427, 0.26093393564224243, -0.09686914831399918, -0.35059744119644165, -0.45582088828086853, -0.4143518805503845, -0.34467771649360657, -0.125350683927536, 0.24938932061195374, 0.28652122616767883, 0.2916494905948639, 0.2826355993747711, 0.4375613033771515, -0.2648182809352875, -0.7225633859634399, -0.09495674073696136, 0.1606251746416092, 0.16875776648521423, 0.42057791352272034, 0.08006984740495682, 0.30779749155044556, 0.29521647095680237, 0.3198460340499878, -0.1623171865940094, 0.20992471277713776, 0.3603283166885376, 0.4549157917499542, 0.10078076273202896, 0.30835792422294617, 0.14307519793510437, -0.3470955789089203, 0.2820736765861511, 0.24394069612026215, 0.3977759778499603, -0.27657943964004517, -0.40170595049858093, -0.24074633419513702, 0.16490989923477173, -0.2997848093509674, 0.16157649457454681], [-0.29549434781074524, 0.1742073893547058, -0.43416234850883484, -0.1283300817012787, -0.4427896738052368, -0.11704186350107193, -0.2770095765590668, -0.2794656455516815, 0.24807126820087433, 0.11568039655685425, 0.4694269895553589, 0.21592557430267334, 0.42424026131629944, -0.28720590472221375, -0.11952903866767883, -0.4886184632778168, 0.33012065291404724, 0.1769876480102539, 0.28421035408973694, 0.2656422257423401, 0.10661013424396515, 0.21322831511497498, 0.5621703863143921, -0.3215689957141876, 0.2931158244609833, 0.2155098021030426, 0.3935636579990387, 0.12565328180789948, 0.20088209211826324, 0.37443768978118896, -0.4234001934528351, 0.11673102527856827, 0.3766874670982361, 0.27418816089630127, -0.22249267995357513, -0.2580588161945343, -0.35414114594459534, 0.22027894854545593, -0.19734078645706177, 0.12091768532991409], [0.37472039461135864, 0.1929781436920166, 0.4148584306240082, 0.34449464082717896, 0.376528799533844, 0.1805412918329239, 0.46100500226020813, 0.2890402674674988, -0.2484419196844101, -0.2652512192726135, -0.48930492997169495, -0.09646754711866379, -0.5475049614906311, 0.31828954815864563, -0.10829994082450867, 0.9381369948387146, -0.10371313244104385, 0.011600779369473457, -0.34764182567596436, -0.20732350647449493, 0.264708548784256, -0.4502953290939331, -0.06144364923238754, 0.14770346879959106, -0.2425374984741211, -0.3710553050041199, 0.29082533717155457, -0.25846272706985474, -0.03890559822320938, -0.31669148802757263, 0.0063819182105362415, -0.31100568175315857, -0.3361084461212158, -0.5320190191268921, 0.336885929107666, 0.14921943843364716, 0.2343510538339615, -0.16010521352291107, 0.09010278433561325, -0.2574608623981476], [-0.3033648729324341, 0.2434547245502472, -0.2583681344985962, -0.10906083881855011, -0.3068057596683502, -0.30301758646965027, -0.2985406816005707, -0.27677789330482483, 0.23315568268299103, 0.21881072223186493, 0.32451096177101135, 0.1643896847963333, 0.34598129987716675, -0.21417924761772156, -0.4773625433444977, -0.3245272934436798, 0.26598060131073, 0.11404840648174286, 0.22053475677967072, 0.20326738059520721, 0.2278386652469635, 0.1271040290594101, 0.4834357798099518, -0.3591727018356323, 0.2772744596004486, 0.09771949797868729, 0.2835177481174469, 0.30413439869880676, 0.26144957542419434, 0.25467389822006226, -0.447610467672348, 0.05472732335329056, 0.10558746755123138, 0.2825499176979065, -0.2719978392124176, -0.31731104850769043, -0.26966947317123413, 0.375064492225647, -0.1960972249507904, 0.29728779196739197], [-0.3857576251029968, -0.1582583487033844, 0.06989169120788574, -0.2830483019351959, -0.2033502459526062, -0.2351917028427124, -0.07134654372930527, 0.323201984167099, 0.38077858090400696, 0.24457384645938873, 0.093304842710495, 0.03715234994888306, 0.3797285854816437, -0.28156018257141113, -0.19870761036872864, 0.5547999739646912, -0.2752188742160797, 0.37887221574783325, 0.5157285928726196, 0.30503231287002563, -0.6830477118492126, 0.17277492582798004, 0.5095923542976379, -0.009352934546768665, 0.3579064607620239, 0.18959161639213562, 0.7979745268821716, 0.17614273726940155, -0.5824858546257019, 0.2677856981754303, -0.4412199854850769, 0.1769920438528061, 0.3041113018989563, 0.48351606726646423, -0.2699281573295593, 0.26170217990875244, -0.03620743378996849, -0.20487071573734283, -0.5537737011909485, 0.35579973459243774], [0.18469907343387604, -0.10290262848138809, 0.36627307534217834, 0.3658883571624756, 0.19779016077518463, 0.38351258635520935, 0.6214859485626221, 0.5947359204292297, -0.44217365980148315, -0.3945237100124359, -0.29658132791519165, -0.3294351398944855, -0.07808998972177505, 0.29404059052467346, -0.32823196053504944, 0.6096298694610596, -0.3432920575141907, -0.10744986683130264, -0.09263082593679428, -0.2141134887933731, -0.1495027095079422, -0.2587825655937195, 0.2231658548116684, 0.19900117814540863, -0.3903004825115204, -0.4528057873249054, -0.31992870569229126, -0.3118828535079956, -0.39230939745903015, -0.4392016530036926, 0.026696881279349327, -0.27994289994239807, -0.28936731815338135, -0.3673415780067444, 0.2678370773792267, 0.23664061725139618, 0.6071483492851257, -0.6056320667266846, -0.007618068717420101, -0.16622918844223022], [-0.16609351336956024, 0.18501225113868713, 0.49539273977279663, 0.288251131772995, 0.2840960621833801, 0.4744657874107361, 0.5920611023902893, 0.033223628997802734, -0.24756567180156708, -0.4762808084487915, -0.3539571166038513, -0.5052940845489502, -0.08572708815336227, 0.38012394309043884, 0.556704044342041, 0.5232682824134827, -0.2469065934419632, -0.11300697922706604, -0.16229155659675598, -0.5010379552841187, -0.7242529392242432, -0.4724244773387909, -0.03363519906997681, 0.13132831454277039, -0.37434422969818115, -0.39839428663253784, -0.1990353912115097, -0.3259407877922058, 0.03680865466594696, -0.30664774775505066, -0.05195920914411545, -0.23419256508350372, -0.10996055603027344, -0.5570864677429199, 0.292040079832077, 0.28259339928627014, 0.3158227801322937, -0.4821772277355194, 0.24226509034633636, -0.3053630590438843], [0.006382370833307505, 0.15743525326251984, 0.319145530462265, 0.2977772057056427, 0.06389003992080688, 0.4290461242198944, 0.32092535495758057, 0.3755356967449188, -0.5634240508079529, -0.37904977798461914, -0.2779562473297119, -0.4850236177444458, 0.10303768515586853, 0.30053621530532837, -0.3567553758621216, 0.8701992630958557, -0.40689176321029663, -0.15097928047180176, 0.14298011362552643, -0.037360649555921555, -0.30554166436195374, -0.4772123098373413, 0.36337584257125854, 0.3883042335510254, -0.0626412034034729, -0.16115140914916992, -0.05128353834152222, -0.3902702331542969, -0.5028247237205505, -0.1592579036951065, -0.10987410694360733, -0.13504815101623535, -0.23604708909988403, 0.04880811274051666, 0.18283537030220032, 0.2307729423046112, 0.3320062458515167, -0.46770140528678894, -0.25768646597862244, -0.04420780390501022], [-0.3848526179790497, 0.0503542497754097, -0.21735361218452454, -0.3272923231124878, -0.16691897809505463, -0.3416540026664734, -0.21336539089679718, -0.14299526810646057, 0.26419588923454285, 0.09260162711143494, 0.32517266273498535, 0.1593165397644043, 0.409875750541687, -0.09615560621023178, -0.40934810042381287, -0.32335200905799866, 0.05581728368997574, 0.37869417667388916, 0.4699515402317047, 0.20620805025100708, 0.40180912613868713, 0.297922283411026, 0.3108474016189575, -0.3908251225948334, 0.3460856080055237, 0.3279910385608673, 0.44782307744026184, 0.1831844449043274, 0.1914278119802475, 0.301603764295578, -0.2825990915298462, 0.36687812209129333, 0.18617945909500122, 0.33138737082481384, -0.36005547642707825, -0.3098906874656677, -0.3952844440937042, 0.2220701426267624, -0.2417682558298111, 0.14484810829162598], [-0.6132948398590088, -0.3168591260910034, 0.3420940637588501, 0.23385368287563324, 0.16935059428215027, 0.396389365196228, 0.2601427435874939, 0.3926282823085785, -0.3690705895423889, -0.4237199127674103, -0.2574917674064636, -0.5800692439079285, -0.013808772899210453, 0.29572874307632446, -0.8078407645225525, 0.20449866354465485, -0.4022785723209381, -0.2765681743621826, 0.13592658936977386, -0.3569045662879944, -0.5251114964485168, -0.2786882519721985, 0.6337934136390686, -0.1578463613986969, -0.49413466453552246, -0.3356597125530243, 0.30787545442581177, -0.3653479218482971, -0.30525830388069153, -0.473282128572464, -0.05353550985455513, -0.3731321692466736, -0.2992333471775055, -0.24713853001594543, 0.31217944622039795, -0.053248096257448196, -0.44869640469551086, 0.4758753478527069, 0.08156237751245499, -0.3379991352558136], [0.11672026664018631, -0.7837772369384766, 0.2152906358242035, 0.38292011618614197, 0.0013250545598566532, 0.33748340606689453, 0.219102144241333, 0.29863467812538147, -0.21821175515651703, -0.3760145902633667, -0.20529280602931976, -0.1565551608800888, 0.1569208949804306, 0.31977635622024536, 0.2827272117137909, 0.24511848390102386, -0.39671820402145386, -0.21453432738780975, -0.29270967841148376, -0.1911127120256424, -0.010336710140109062, -0.4579227566719055, -0.08916348963975906, 0.33611947298049927, -0.4310082793235779, -0.2446051388978958, -0.32754456996917725, -0.2153339684009552, -0.2566298842430115, -0.3399295210838318, 0.12285833060741425, -0.2891984283924103, -0.18704895675182343, -0.14434629678726196, 0.17152269184589386, 0.09323792159557343, 0.2099226415157318, -0.20186308026313782, 0.20551300048828125, -0.40299558639526367], [-0.4175081253051758, -0.14966118335723877, -0.26570260524749756, -0.38802024722099304, -0.22891674935817719, -0.2240581512451172, -0.2827621102333069, -0.05033470690250397, 0.3197002410888672, 0.20378299057483673, 0.34822481870651245, 0.23267439007759094, 0.2799283266067505, -0.32307031750679016, -0.7126480937004089, -0.38980039954185486, 0.2604801058769226, 0.15935717523097992, 0.1766810417175293, 0.2216145396232605, 0.2899009585380554, 0.11004377901554108, 0.5557971000671387, -0.3964197337627411, 0.16033710539340973, 0.112034872174263, 0.40144649147987366, 0.17988507449626923, 0.17907963693141937, 0.31844326853752136, -0.3564208745956421, 0.14316248893737793, 0.2552473247051239, 0.398446649312973, -0.33512774109840393, -0.3604419529438019, -0.41856813430786133, 0.32377809286117554, -0.2979227304458618, 0.0925479531288147], [-0.0711054652929306, 0.16513396799564362, -0.20482969284057617, -0.4602484703063965, -0.35423120856285095, -0.16683721542358398, -0.45332109928131104, 0.0899956077337265, 0.22631235420703888, 0.19880002737045288, 0.17445304989814758, 0.2691098153591156, 0.3598153293132782, -0.2768079936504364, 0.41530275344848633, -0.04038310423493385, 0.14882412552833557, 0.2930746078491211, 0.11711172014474869, 0.18910688161849976, 0.5729535818099976, 0.343563437461853, 0.2940845489501953, 0.02727237157523632, 0.14896956086158752, 0.16980408132076263, 0.3673246502876282, 0.17873673141002655, -0.35606294870376587, 0.2512877285480499, -0.3499426543712616, 0.4032421112060547, 0.1782950758934021, 0.2524985671043396, -0.3793163299560547, -0.4339386820793152, -0.010654293932020664, 0.19470731914043427, -0.20870289206504822, 0.14875271916389465], [-0.1979750394821167, -0.3651255667209625, 0.47942447662353516, 0.40802550315856934, -0.14551278948783875, 0.34846287965774536, 0.43716010451316833, 0.7487653493881226, -0.28708019852638245, -0.41478437185287476, -0.0001404973299941048, -0.22257016599178314, 0.553679347038269, 0.13617369532585144, -0.9037320017814636, 0.37307998538017273, -0.5583832859992981, -0.26087698340415955, 0.5957080125808716, -0.24809202551841736, 0.0005819976795464754, -0.5301402807235718, 0.19739921391010284, 0.4150710701942444, -0.1459175944328308, -0.42163020372390747, 0.04773193597793579, -0.3805513083934784, -0.46295538544654846, -0.21369507908821106, -0.22100387513637543, -0.3234700858592987, -0.4376276135444641, 0.3260055184364319, 0.4295153021812439, 0.10957683622837067, 0.3591795265674591, -0.5697896480560303, -0.025653976947069168, -0.2711605429649353], [-0.14803911745548248, -0.024613751098513603, -0.2235274761915207, -0.18597351014614105, -0.19892750680446625, -0.397851824760437, -0.9858813285827637, -0.26063239574432373, 0.11932408064603806, 0.09165233373641968, 0.17649546265602112, 0.23778371512889862, 0.17389291524887085, -0.19293007254600525, -0.12499523162841797, -0.1749655306339264, 0.3838115632534027, 0.13126172125339508, 0.44618117809295654, 0.13956387341022491, 0.6414032578468323, 0.27183768153190613, 0.4221218526363373, -0.1703757345676422, 0.3223862648010254, 0.08524388074874878, 0.32079222798347473, 0.3932499587535858, -0.09459986537694931, 0.30798909068107605, -0.32661622762680054, 0.26723912358283997, 0.21333923935890198, 0.3342730402946472, -0.15019607543945312, -0.33701837062835693, -0.2714090347290039, 0.34764763712882996, -0.267550528049469, 0.30191418528556824], [-0.2936917543411255, -0.434226930141449, 0.3054358959197998, 0.3331948220729828, -0.08338523656129837, 0.06864773482084274, 0.12464044243097305, 0.6566067934036255, -0.2489662915468216, -1.2153962850570679, -0.41908368468284607, 0.168278306722641, 0.3584471046924591, 0.6055188775062561, -3.169095754623413, 1.7681702375411987, 0.15425589680671692, 0.2516108751296997, 0.9783946871757507, -0.607047975063324, 0.628759503364563, -0.7731750011444092, 0.41616934537887573, 0.71566241979599, -0.834184467792511, -0.8737215995788574, 1.1050779819488525, -0.20233026146888733, -0.618227481842041, -0.6792677044868469, -0.324218213558197, -0.06625804305076599, -0.6103775501251221, 0.817106306552887, 0.4884757399559021, -0.15826848149299622, -0.36625877022743225, -0.047997307032346725, -0.5924274921417236, -0.21244953572750092], [-0.21160545945167542, 0.38521215319633484, -0.16802966594696045, -0.26246199011802673, -0.4247133433818817, -0.17340943217277527, -0.040290359407663345, -0.9468472599983215, 0.24562521278858185, 0.2702355682849884, 0.25984540581703186, 0.38271185755729675, -0.057154759764671326, -0.36140286922454834, -0.17722858488559723, -0.2528516352176666, 0.2589094042778015, 0.441977322101593, 0.3039039075374603, 0.2341848909854889, 0.48773401975631714, 0.4518817365169525, 0.05307040736079216, -0.2911483347415924, 0.20914322137832642, 0.16217577457427979, 0.4033457934856415, 0.3567407429218292, 0.5806100368499756, 0.32111498713493347, -0.3234955966472626, 0.2403922826051712, 0.2354201376438141, 0.2946333885192871, -0.3874780237674713, -0.2174421101808548, -0.1353948414325714, 0.41087934374809265, -0.23947112262248993, 0.14558234810829163], [0.536456286907196, 0.055850375443696976, 0.15360255539417267, 0.28632286190986633, 0.4804409444332123, 0.21368053555488586, 0.9054639339447021, 0.1376127004623413, -0.19448168575763702, -0.27247154712677, -0.28061041235923767, -0.2090574949979782, -0.3050096035003662, 0.2586178481578827, 0.7523622512817383, 0.3425550162792206, -0.5967804789543152, -0.3479592204093933, -0.4361998736858368, -0.07696317136287689, -1.008028268814087, -0.47664278745651245, -0.31245648860931396, 0.5111767053604126, -0.06467471271753311, -0.29173994064331055, -0.4549863636493683, -0.36166831851005554, -0.15448389947414398, -0.3560137152671814, 0.4583941698074341, -0.24721327424049377, -0.24382807314395905, -0.21329666674137115, 0.11500664055347443, 0.3584834635257721, 0.19008289277553558, -0.40287724137306213, 0.16661006212234497, -0.24790571630001068], [0.43859606981277466, -0.011809130199253559, 0.4029783606529236, 0.1307809203863144, 0.2787456512451172, 0.21501991152763367, 0.1803601086139679, -0.12350640445947647, -0.5312850475311279, -0.2470918744802475, -0.41218599677085876, -0.21590781211853027, -0.22088807821273804, 0.3913344144821167, -0.7671785950660706, 0.27406662702560425, -0.21866393089294434, -0.25038623809814453, -0.09880142658948898, -0.3345526456832886, -0.5395563244819641, -0.09734145551919937, -0.21150346100330353, 0.24997517466545105, -0.21324531733989716, -0.25961342453956604, -0.4006083905696869, -0.3247133791446686, -0.11185513436794281, -0.10725715011358261, 0.3287745416164398, -0.11259698867797852, -0.39369070529937744, -0.11716827750205994, 0.12842649221420288, 0.48239994049072266, 0.3278229534626007, -0.4661504924297333, 0.3560897409915924, -0.14169709384441376], [0.2792716324329376, 0.13604030013084412, -0.2303590178489685, -0.4176875352859497, 0.032837722450494766, -0.3306899666786194, -0.11117487400770187, -0.034249529242515564, 0.6280218958854675, 0.39235275983810425, 0.12653173506259918, 0.4227924644947052, -0.3876010775566101, -0.26754599809646606, 0.5777809619903564, -0.5488988161087036, 0.00811340007930994, 0.22565141320228577, -0.46935394406318665, 0.42131897807121277, -0.952311098575592, 0.28715863823890686, -0.48796582221984863, 0.10402323305606842, 0.5855754613876343, 0.3851199150085449, -0.15874679386615753, 0.3253870904445648, 0.32737740874290466, 0.49830129742622375, 0.40222877264022827, 0.3512806296348572, 0.3407329022884369, -0.29471540451049805, -0.15252205729484558, -0.2487616240978241, -0.24036501348018646, 0.349576860666275, -0.05135839432477951, 0.26172545552253723], [0.47138288617134094, -0.1227860376238823, 0.2016751766204834, 0.32359424233436584, 0.25771597027778625, 0.22904151678085327, 0.4561302363872528, 0.13289795815944672, -0.34061872959136963, -0.10828442126512527, -0.21521995961666107, -0.31754088401794434, -0.3552602231502533, 0.24954907596111298, 0.5550954341888428, 0.25913235545158386, -0.17745241522789001, -0.14511065185070038, -0.20481185615062714, -0.2774401307106018, -0.4701169431209564, -0.28452521562576294, -0.33908236026763916, 0.43033674359321594, -0.15401345491409302, -0.15591593086719513, -0.34823325276374817, -0.26561450958251953, 0.04073629528284073, -0.2738304138183594, 0.19053462147712708, -0.12419337779283524, -0.14347629249095917, -0.26406756043434143, 0.17602425813674927, 0.3777221143245697, 0.23325760662555695, -0.29834967851638794, 0.3085736334323883, -0.3126083314418793], [0.10072828829288483, 0.552398145198822, -0.2055940479040146, -0.40084439516067505, 0.19906951487064362, -0.23022738099098206, 0.008030314929783344, -0.44386279582977295, 0.3076704442501068, 0.29223379492759705, 0.04847867786884308, 0.18010465800762177, -0.5373803377151489, -0.20220525562763214, -0.2110314518213272, -0.41303858160972595, 0.4264737069606781, 0.3477538824081421, -0.07831409573554993, 0.39062654972076416, -0.007366909645497799, 0.3188277781009674, -0.02459471859037876, -0.29362261295318604, 0.40251895785331726, 0.30846095085144043, 0.49577412009239197, 0.18351170420646667, 0.6528096795082092, 0.22924411296844482, 0.17824308574199677, 0.25572851300239563, 0.49044275283813477, -0.20259343087673187, -0.36328956484794617, -0.3501127362251282, -0.49959641695022583, 0.3525654077529907, -0.024714989587664604, 0.1813831776380539], [-0.17410747706890106, 0.07547549903392792, -0.302564412355423, -0.35185375809669495, -0.2238810956478119, -0.34056881070137024, -0.5534089803695679, 0.22760814428329468, 0.29053544998168945, 0.13528721034526825, 0.1783256232738495, 0.15636025369167328, 0.12750203907489777, -0.3629527986049652, -0.021208258345723152, 0.0982694923877716, 0.4500110149383545, 0.18130788207054138, 0.3599449098110199, 0.11592526733875275, 0.6119871735572815, 0.35986530780792236, 0.12262482941150665, -0.15688374638557434, 0.2140871286392212, 0.1386384516954422, 0.3617006540298462, 0.22658179700374603, -0.04975508525967598, 0.2564011514186859, -0.20991230010986328, 0.15238304436206818, 0.38297349214553833, 0.18322592973709106, -0.13355086743831635, -0.5400835275650024, -0.19274765253067017, 0.46524375677108765, -0.12030339241027832, 0.34549465775489807], [0.2888382077217102, -0.46911078691482544, 0.5091457366943359, 0.38060125708580017, 0.07064331322908401, 0.9851942658424377, -0.25005680322647095, 0.26130181550979614, -0.399671345949173, -0.2815108299255371, -0.06833885610103607, -0.8085265159606934, 0.09559070318937302, 0.4519578516483307, -0.0469600111246109, -0.265617311000824, -0.5306193828582764, -0.49480658769607544, -0.40061259269714355, -0.2538405954837799, -0.1735125184059143, -0.2941648066043854, 0.15421301126480103, -0.03758406639099121, -0.11541593819856644, -0.20853935182094574, -0.23844383656978607, -0.46829700469970703, -0.3819229006767273, -0.25177890062332153, 0.16426357626914978, -0.3141902685165405, -0.37734532356262207, -0.32694771885871887, 0.5370876789093018, 0.6263620853424072, 0.2574721872806549, -0.13943859934806824, 0.20981431007385254, -0.291694700717926], [-0.2762318551540375, -0.5375979542732239, 0.4651578664779663, 0.32327765226364136, -0.10884737223386765, 0.2928292155265808, -0.011194535531103611, 0.37480470538139343, -0.5161759257316589, -0.50892573595047, -0.0896943211555481, -0.3597940504550934, 0.01634334959089756, 0.20340891182422638, -1.6922228336334229, 0.22640672326087952, -0.24029575288295746, -0.100815050303936, 0.5110057592391968, -0.2521415650844574, 0.011819390580058098, -0.4013268053531647, 0.8316732048988342, 0.10532408952713013, -0.42858603596687317, -0.5318517088890076, 0.1822315752506256, -0.3578323423862457, -0.2783049941062927, -0.35614749789237976, -0.34736916422843933, -0.36930376291275024, -0.4063388705253601, 0.240788996219635, 0.2955002188682556, 0.12213224917650223, -0.3824157118797302, 0.45646873116493225, -0.15973533689975739, -0.17664620280265808], [0.08850030601024628, -0.11479180306196213, 0.19060105085372925, 0.33292216062545776, 0.09405883401632309, 0.08893083035945892, 0.3621152937412262, -0.27012312412261963, -0.4054957330226898, -0.17730368673801422, -0.24947580695152283, -0.03355557844042778, -0.39888665080070496, 0.2803089916706085, 0.0608745813369751, 0.13589054346084595, 0.5126482844352722, -0.30628541111946106, -0.29848048090934753, -0.3374423682689667, -0.037069547921419144, -0.09239556640386581, -0.16711024940013885, 0.1452678143978119, -0.32664209604263306, -0.1305028349161148, -0.51694655418396, -0.18666940927505493, 0.12425396591424942, -0.2565964460372925, 0.3974631428718567, -0.2787817418575287, -0.26748642325401306, -0.48278966546058655, 0.15268653631210327, 0.4147023856639862, -0.003657728433609009, -0.131391242146492, 0.5325703024864197, -0.2974812686443329], [0.4374481439590454, -0.09581746906042099, 0.33101901412010193, 0.2746381163597107, 0.501287579536438, 0.3471432626247406, 0.5438084006309509, 0.27149930596351624, -0.01751144602894783, -0.3570392429828644, -0.13997484743595123, -0.3618699312210083, -0.3814897835254669, 0.1717313677072525, 0.6841357946395874, -0.16564738750457764, -0.3596027195453644, -0.205866277217865, -0.2172662317752838, -0.03486254811286926, -0.34548041224479675, -0.37151697278022766, -0.3494430184364319, 0.5774906873703003, -0.020009707659482956, -0.30750274658203125, -0.46507763862609863, -0.19247382879257202, -0.0825880765914917, -0.3543679416179657, 0.5698997378349304, -0.2864725589752197, -0.1070711761713028, -0.32575732469558716, 0.36818552017211914, 0.3157557547092438, 0.349586546421051, -0.42507505416870117, 0.25432872772216797, -0.044909313321113586], [0.004444236401468515, 0.23930804431438446, -0.23086243867874146, -0.3901997208595276, 0.09473659098148346, -0.38523897528648376, 0.09349238127470016, -0.3034955561161041, 0.5486395359039307, 0.3338298201560974, 0.032904252409935, 0.31512248516082764, -0.21931107342243195, -0.21844519674777985, 0.2394360452890396, -0.6442475914955139, 0.2665538787841797, 0.3180672526359558, -0.36813297867774963, 0.18286225199699402, 0.3855528235435486, 0.3455173671245575, -0.14291071891784668, -0.3370806574821472, 0.17080990970134735, 0.4739146828651428, 0.24422933161258698, 0.21750561892986298, 0.4481145739555359, 0.30121830105781555, 0.2792748808860779, 0.21301645040512085, 0.3243175148963928, -0.03236519917845726, -0.38676348328590393, -0.1491401195526123, -0.5421484708786011, 0.2486615628004074, -0.050627462565898895, 0.3786540925502777], [0.4730529487133026, -0.2352849841117859, 0.3643266558647156, 0.23741737008094788, 0.4013356864452362, 0.27072373032569885, 0.40039846301078796, 0.25040382146835327, -0.07323823869228363, -0.1720062792301178, -0.3530871272087097, -0.1832721084356308, -0.3386692702770233, 0.08591950684785843, 0.49965476989746094, 0.08502979576587677, -0.46555453538894653, -0.1846398115158081, -0.40357720851898193, -0.108116015791893, -0.226362943649292, -0.2912319004535675, -0.13711942732334137, 0.44389134645462036, -0.12510263919830322, -0.13668078184127808, -0.42039573192596436, -0.22798912227153778, -0.3359859585762024, -0.30791622400283813, 0.44541874527931213, -0.35599979758262634, -0.1369854211807251, -0.45333343744277954, 0.13456876575946808, 0.30259838700294495, 0.3407430350780487, -0.3195008933544159, 0.14143724739551544, -0.3381996750831604], [0.08094710856676102, 0.2905280888080597, -0.3890361785888672, -0.37876036763191223, -0.05088680237531662, -0.279100626707077, -0.34184056520462036, -0.8398655652999878, 0.46274638175964355, 0.4149015545845032, -0.3474700450897217, 0.41356563568115234, -0.2508351504802704, -0.34730154275894165, 0.4567708969116211, -1.1978679895401, 0.4991741478443146, 0.2964395582675934, -0.44914454221725464, 0.3249809145927429, 1.557352900505066, 0.36278992891311646, -0.13106614351272583, -0.3588056266307831, 0.15664243698120117, 0.2753872871398926, -0.38988977670669556, 0.31992876529693604, 0.7376011610031128, 0.3878054916858673, 0.5175565481185913, 0.10011597722768784, 0.3415073752403259, -0.3123820722103119, -0.36867281794548035, -0.1681932508945465, -0.48664239048957825, 0.318572074174881, 0.37857604026794434, 0.30631330609321594], [0.35757482051849365, -0.2530764639377594, 0.39107105135917664, 0.31340086460113525, 0.23524066805839539, 0.37922218441963196, -0.20970579981803894, -0.3617851436138153, -0.3658693730831146, -0.16222813725471497, -0.19106045365333557, -0.2619214355945587, -0.20155778527259827, 0.23528669774532318, -1.2777611017227173, 0.5883828401565552, -0.19847919046878815, -0.2180028110742569, -0.33313044905662537, -0.28514817357063293, -0.6609383225440979, -0.042276859283447266, -0.12094125151634216, -0.05845565348863602, -0.33134743571281433, -0.199683278799057, -0.3199630677700043, -0.19328710436820984, 0.037019576877355576, -0.19071081280708313, 0.17248842120170593, -0.3829896152019501, -0.3204217553138733, -0.1226862296462059, 0.1694909781217575, 0.20748993754386902, 0.3351452350616455, -0.5692143440246582, 0.3377212882041931, -0.42758381366729736], [0.19928814470767975, 0.38323813676834106, -0.09451194107532501, -0.34767669439315796, -0.1803061068058014, -0.3569008708000183, -0.03915012627840042, -0.32284852862358093, 0.31379666924476624, 0.3748413324356079, 0.10041917115449905, 0.4471469819545746, -0.17669449746608734, -0.19372960925102234, 0.2856437563896179, -0.17133963108062744, 0.2649795711040497, 0.46924856305122375, -0.1443745195865631, 0.42910608649253845, 0.12467846274375916, 0.26150861382484436, -0.18823491036891937, 0.001339543261565268, 0.29395973682403564, 0.23809796571731567, 0.18053388595581055, 0.24618615210056305, 0.6772009134292603, 0.315926194190979, -0.046652715653181076, 0.2576720714569092, 0.34836819767951965, 0.04775795713067055, -0.45256277918815613, -0.21320690214633942, -0.016987700015306473, -0.010588078759610653, 0.04408615082502365, 0.38183486461639404], [-0.004523011855781078, -0.3212638795375824, 0.2716067433357239, 0.1650422215461731, 0.28391191363334656, 0.22262592613697052, 0.6072903871536255, 0.46309638023376465, -0.20087042450904846, -0.47404876351356506, -0.291748046875, -0.34482628107070923, -0.20196044445037842, 0.37288132309913635, -0.8275195956230164, 0.6137597560882568, -0.12318754941225052, -0.1250683218240738, -0.03241606429219246, -0.3000583350658417, 0.19523835182189941, -0.36851105093955994, 0.4401402175426483, 0.3402014672756195, -0.46784791350364685, -0.4526735544204712, 0.3310059905052185, -0.41136297583580017, -0.3017835021018982, -0.4220530688762665, 0.08828939497470856, -0.4184572696685791, -0.41799330711364746, 0.04950042814016342, 0.3322920799255371, -0.009743912145495415, 0.02929728291928768, -0.029499387368559837, 0.09992188960313797, -0.4431880712509155], [0.41473808884620667, -0.21046161651611328, 0.3510638177394867, 0.30455252528190613, 0.3203481137752533, 0.4381803274154663, 0.2970166802406311, 0.4038395583629608, -0.1395091861486435, -0.062629334628582, -0.487254798412323, -0.38802602887153625, -0.32315436005592346, 0.3204861581325531, 0.5167503356933594, 0.31195583939552307, -0.514409601688385, -0.3424907922744751, -0.5361149907112122, -0.20188479125499725, -0.4498836100101471, -0.19012805819511414, -0.1672409027814865, 0.3030662536621094, -0.12831370532512665, -0.1653929203748703, -0.42229461669921875, -0.1913069635629654, -0.37336260080337524, -0.15399421751499176, 0.3369041681289673, -0.270131379365921, -0.34721115231513977, -0.3788350224494934, 0.37854859232902527, 0.382474422454834, 0.3938034772872925, -0.3497914671897888, 0.4636172950267792, -0.08385757356882095], [0.3725023865699768, -0.17902034521102905, 0.233672633767128, 0.3092357814311981, 0.4400649964809418, 0.23363126814365387, 0.38152825832366943, 0.2662307322025299, -0.20166416466236115, -0.07511856406927109, -0.13344575464725494, -0.12178337574005127, -0.34828299283981323, 0.3405246138572693, 0.43567171692848206, 0.4061347544193268, -0.4348824620246887, -0.1958487182855606, -0.483264684677124, -0.0449749194085598, -0.4737791121006012, -0.21510270237922668, -0.4640786647796631, 0.4255024492740631, -0.05739002302289009, -0.26736125349998474, -0.395747572183609, -0.07378459721803665, -0.05638710781931877, -0.259453147649765, 0.4402780830860138, -0.10092194378376007, -0.2238626331090927, -0.36837756633758545, 0.1374361366033554, 0.21222680807113647, 0.37814292311668396, -0.3435119390487671, 0.2327500581741333, -0.36122453212738037], [-0.07689846307039261, 0.18330591917037964, -0.2764653265476227, -0.2650071382522583, 0.006172501482069492, -0.24662142992019653, 0.06987638026475906, 0.10011245310306549, 0.1473492980003357, 0.2928555905818939, 0.04094346612691879, 0.33990174531936646, 0.0911702886223793, -0.21626654267311096, -0.37973645329475403, 0.35369187593460083, 0.3005145788192749, 0.49060237407684326, 0.10392526537179947, 0.3694867193698883, 0.08835886418819427, 0.28541791439056396, -0.17057843506336212, 0.1435222625732422, 0.21136386692523956, 0.1967853456735611, 0.13019585609436035, 0.21560493111610413, -0.14158020913600922, 0.34325364232063293, -0.2268434315919876, 0.3221401572227478, 0.21249516308307648, 0.2659290134906769, -0.17104972898960114, -0.19200803339481354, -0.05416811630129814, -0.16773182153701782, -0.33451351523399353, 0.3968563675880432], [0.4841783940792084, -0.2122551053762436, 0.216654971241951, 0.25663915276527405, 0.3063379228115082, 0.39337292313575745, 0.18656609952449799, -0.022460713982582092, -0.29082590341567993, -0.31372302770614624, -0.3562467098236084, -0.33097243309020996, -0.4335462152957916, 0.2424323409795761, 0.3442401587963104, 0.2239699810743332, -0.32361719012260437, -0.132110595703125, -0.3700949251651764, -0.29240110516548157, -0.5194883346557617, -0.31806662678718567, -0.4151891767978668, 0.37771570682525635, -0.07323787361383438, -0.2568954825401306, -0.3020210564136505, -0.2543942630290985, -0.04651530086994171, -0.1861162930727005, 0.2788063883781433, -0.13384462893009186, -0.344218909740448, -0.41884317994117737, 0.24947048723697662, 0.19345875084400177, 0.4324953854084015, -0.2356172502040863, 0.2731090486049652, -0.18056435883045197], [0.08297309279441833, -0.34781357645988464, 0.21961207687854767, 0.4582299292087555, 0.14512909948825836, 0.37216079235076904, 0.16823530197143555, 0.3445044159889221, -0.2671281695365906, -0.3695686161518097, -0.14388005435466766, -0.37856459617614746, -0.08170610666275024, 0.2565760910511017, -0.04571188613772392, 0.45445987582206726, -0.35687023401260376, -0.3173748850822449, -0.31733375787734985, -0.20939050614833832, -0.4232313632965088, -0.41811618208885193, 0.012352959252893925, 0.2755870819091797, -0.18183772265911102, -0.2464047074317932, -0.2519283890724182, -0.4774015247821808, -0.5307753086090088, -0.445120245218277, 0.3497794568538666, -0.44055911898612976, -0.2517104148864746, -0.2624052166938782, 0.21068231761455536, 0.05312129855155945, 0.13627773523330688, -0.3536924421787262, 0.15294182300567627, -0.1959570348262787], [0.4139329791069031, 0.09422815591096878, 0.15706230700016022, 0.2814245820045471, 0.19227610528469086, 0.299781858921051, 0.36071333289146423, -0.02874504216015339, -0.12363134324550629, -0.1365155428647995, -0.31605300307273865, -0.16678346693515778, -0.28327634930610657, 0.30543380975723267, 0.2271529585123062, 0.4262891411781311, -0.29374876618385315, -0.20381669700145721, -0.3294975757598877, -0.21333281695842743, -0.43571937084198, -0.17744876444339752, -0.1767205446958542, 0.22067591547966003, -0.05017530545592308, -0.30587008595466614, -0.21118882298469543, -0.1685190200805664, -0.09934848546981812, -0.3750334680080414, 0.2515970468521118, -0.20315757393836975, -0.2683604955673218, -0.20338550209999084, 0.3196515142917633, 0.35334327816963196, 0.43874484300613403, -0.37959492206573486, 0.3201516270637512, -0.21443963050842285], [-0.13564656674861908, -0.3043171167373657, 0.3711734116077423, 0.37683337926864624, 0.05978521704673767, 0.11299233883619308, 0.4792204201221466, 0.4180648922920227, -0.611972987651825, -0.20697084069252014, -0.14939981698989868, -0.09079872816801071, 0.15731234848499298, 0.36221206188201904, -0.5477853417396545, 0.45719683170318604, -0.5243548154830933, -0.4898189604282379, 0.10671424120664597, -0.2587635815143585, -0.40338417887687683, -0.3229546844959259, 0.3665830194950104, 0.6289106011390686, -0.1431073248386383, -0.14808593690395355, -0.3871819078922272, -0.34947535395622253, -0.5526257157325745, -0.3425525724887848, -0.20413526892662048, -0.431619256734848, -0.2201150357723236, 0.2595725953578949, 0.21058404445648193, 0.3443770706653595, 0.16627731919288635, -0.4675002694129944, -0.13095085322856903, -0.36905020475387573], [0.5578792095184326, -0.03339136391878128, 0.3133072555065155, 0.3633180856704712, 0.340300977230072, 0.3533867597579956, 0.44472530484199524, 0.21791614592075348, -0.27390336990356445, -0.1291225403547287, -0.07360588014125824, -0.06302443891763687, -0.2624625265598297, 0.10050392150878906, -0.5002115964889526, 0.07808557897806168, -0.3504895567893982, -0.3354201316833496, -0.6381360292434692, -0.25249722599983215, -0.3594638407230377, -0.10559575259685516, -0.21835952997207642, 0.34214553236961365, -0.08789827674627304, -0.28194236755371094, -0.3137725293636322, -0.19219166040420532, -0.11779043078422546, -0.3203639090061188, 0.49895378947257996, -0.20264586806297302, -0.11294098943471909, -0.3843708336353302, 0.2469014674425125, 0.30016615986824036, 0.4898603856563568, -0.3616481125354767, 0.21483486890792847, -0.2673361003398895], [0.4378647208213806, 0.008146329782903194, 0.16574381291866302, 0.18429291248321533, 0.23482248187065125, 0.3799166679382324, 0.5601714253425598, -0.10962938517332077, -0.10954568535089493, -0.2705109417438507, -0.2490074783563614, -0.24480374157428741, -0.19893108308315277, 0.2724148631095886, 0.22100205719470978, 0.30119967460632324, -0.21216320991516113, -0.1482580155134201, -0.2701134979724884, -0.19563709199428558, -0.6431801915168762, -0.2849141061306, -0.1805688738822937, 0.3136409521102905, -0.2508302628993988, -0.2852323353290558, -0.35019874572753906, -0.3655775785446167, -0.07636687159538269, -0.24170313775539398, 0.22775614261627197, -0.2483953982591629, -0.15871849656105042, -0.29324716329574585, 0.23137538135051727, 0.32314011454582214, 0.20214584469795227, -0.29488512873649597, 0.3059544563293457, -0.3783130943775177], [0.33110490441322327, 0.17874863743782043, -0.3355322480201721, -0.41652029752731323, 0.06446083635091782, -0.323895663022995, 0.07751595228910446, -0.5507329702377319, 0.28825175762176514, 0.31551000475883484, 0.19900251924991608, 0.34449321031570435, 0.0669875517487526, -0.42283034324645996, -0.2506425380706787, -0.44674843549728394, 0.3445233404636383, 0.43330997228622437, -0.05428255721926689, 0.36933648586273193, 0.49475163221359253, 0.4874795079231262, -0.36446845531463623, -0.414379745721817, 0.29110148549079895, 0.38137301802635193, 0.17774805426597595, 0.3455585241317749, 0.48962777853012085, 0.2790725827217102, -0.06983208656311035, 0.4108545482158661, 0.2434210628271103, -0.13819031417369843, -0.2372433841228485, -0.2261575311422348, -0.09924835711717606, 0.0454564243555069, 0.03433636575937271, 0.14747075736522675], [-0.18613335490226746, 0.07181358337402344, -0.15631872415542603, -0.13479426503181458, -0.30469340085983276, -0.2822197675704956, -0.587088942527771, 0.06301053613424301, 