{"model_data": {"model": "SimpleRNN", "input_size": 1, "skip": 1, "output_size": 1, "unit_type": "LSTM", "num_layers": 1, "hidden_size": 120, "bias_fl": true}, "state_dict": {"rec.weight_ih_l0": [[0.20193685591220856], [0.004939928650856018], [0.20422948896884918], [0.3010910749435425], [-0.04452081397175789], [0.0024936222471296787], [0.23608694970607758], [0.013810609467327595], [-0.0017648906214162707], [0.09311888366937637], [-0.14027076959609985], [0.005547775886952877], [-0.1064380556344986], [0.007658794056624174], [0.125679612159729], [0.0070188697427511215], [0.13107265532016754], [0.1124446913599968], [0.12762247025966644], [0.022174064069986343], [0.18641357123851776], [0.0061145140789449215], [0.19481365382671356], [0.01589021272957325], [0.011520485393702984], [0.020123643800616264], [0.00507105328142643], [0.20034734904766083], [-0.0022988549899309874], [-0.009232064709067345], [0.18767398595809937], [0.0045082843862473965], [0.21953906118869781], [0.0007411535480059683], [0.14167724549770355], [0.005964933894574642], [0.07454612106084824], [0.3143254518508911], [0.1437561959028244], [0.0006643110536970198], [-0.010924641974270344], [0.1565762162208557], [0.14976777136325836], [0.008560817688703537], [0.034143175929784775], [0.001091230078600347], [0.021831786260008812], [0.0026851645670831203], [-0.6992607116699219], [0.0066853356547653675], [1.2664446830749512], [0.004074276424944401], [0.1355903595685959], [0.01950637251138687], [0.002129350556060672], [-0.0005503834108822048], [0.20268498361110687], [0.003699598601087928], [0.07617500424385071], [0.19722595810890198], [0.05925554782152176], [-0.00041627141763456166], [0.0036923838779330254], [0.2109859734773636], [0.026290500536561012], [0.2001587301492691], [-0.04160940274596214], [0.014441951178014278], [0.022489476948976517], [-0.034970469772815704], [-0.007065895013511181], [0.027608545497059822], [0.009345789439976215], [0.013223493471741676], [0.004995086695998907], [0.010405303910374641], [-0.6303680539131165], [0.037707556039094925], [0.004852387122809887], [0.0284082293510437], [0.19933247566223145], [-0.005426150746643543], [-0.6167200207710266], [0.027005059644579887], [0.016942104324698448], [0.007387681398540735], [0.01102041732519865], [-0.17969980835914612], [0.0007004804792813957], [0.05945392698049545], [0.05642509087920189], [0.005547773092985153], [-0.29732057452201843], [0.18711933493614197], [-0.004514496307820082], [0.007208511233329773], [0.20648452639579773], [0.005513534881174564], [0.18346132338047028], [-0.009773196652531624], [0.21360893547534943], [0.004609633702784777], [-0.02049260586500168], [0.20253047347068787], [-0.02807345986366272], [0.008296282030642033], [0.19801698625087738], [0.2135242521762848], [0.03220760449767113], [0.006432465743273497], [0.029543638229370117], [-0.0011103464057669044], [0.07474441826343536], [0.013324766419827938], [-0.0002940347767435014], [0.004126511514186859], [0.1433570384979248], [0.033708877861499786], [0.1933521181344986], [0.2684699594974518], [0.2073727548122406], [-0.00035281982854939997], [0.17703281342983246], [0.2578401565551758], [-0.10097569227218628], [-0.00032013680902309716], [0.23153845965862274], [0.01041011419147253], [0.010452096350491047], [0.1317608654499054], [0.002695515751838684], [0.004156534094363451], [-0.09057947993278503], [0.0073991017416119576], [0.1444583386182785], [0.0023283783812075853], [0.156716987490654], [0.044169917702674866], [0.20639047026634216], [0.0009758186643011868], [0.09651745855808258], [-0.00013381839380599558], [0.12055286765098572], [0.0012861271388828754], [0.008622648194432259], [0.0011593991657719016], [0.005298207513988018], [0.18969202041625977], [0.001294495421461761], [-0.003130784258246422], [0.14792387187480927], [-0.0013198739616200328], [0.19764213263988495], [0.6488093137741089], [0.08369995653629303], [0.018551694229245186], [0.013884240761399269], [0.2977266013622284], [0.1308440864086151], [-0.0034357686527073383], [-0.0005163424648344517], [0.12752708792686462], [0.19854071736335754], [0.001826707273721695], [0.03172442689538002], [0.0006692914757877588], [0.002478406997397542], [0.00323721906170249], [-0.80440753698349], [0.0057978518307209015], [1.5413358211517334], [0.006294424179941416], [0.2023524045944214], [0.013774281367659569], [0.0028725021984428167], [-0.0010723466984927654], [0.1376798301935196], [0.014025061391294003], [0.0008650248637422919], [0.10322383046150208], [0.008664132095873356], [-0.0012007708428427577], [0.002932683564722538], [0.21421431005001068], [0.006362314336001873], [0.1283567249774933], [-0.011053848080337048], [0.05330009013414383], [0.006218975409865379], [-0.0835292786359787], [-0.002194023225456476], [0.009118783287703991], [0.004306157119572163], [0.004731663502752781], [0.0034241757821291685], [0.025479035452008247], [0.137497216463089], [0.00519380671903491], [0.0060397968627512455], [0.0017833515303209424], [0.16583824157714844], [0.0019529436249285936], [-0.09683670848608017], [0.018437959253787994], [0.024763252586126328], [0.001482792547903955], [0.0022569834254682064], [-0.26971733570098877], [0.00985732488334179], [-0.015113967470824718], [0.005864285863935947], [0.0019085037056356668], [-2.2772462368011475], [0.17836223542690277], [-0.003781263018026948], [0.003161359578371048], [0.1749790757894516], [-0.0010999998776242137], [0.12219871580600739], [-0.012810563668608665], [0.2068917453289032], [-0.0005210635135881603], [-0.009094877168536186], [0.18153764307498932], [0.0027381645049899817], [-0.0029010851867496967], [0.15530404448509216], [0.2067113220691681], [-0.002132616937160492], [-9.635152673581615e-05], [0.020629240199923515], [-0.0008880741661414504], [0.03624986857175827], [-0.0004750977677758783], [-0.0026337190065532923], [-5.277101445244625e-05], [0.20274904370307922], [0.0022407814394682646], [0.08618316799402237], [0.19059595465660095], [-0.083299919962883], [0.032822418957948685], [0.048564206808805466], [0.03315480425953865], [1.1977511644363403], [-0.056882403790950775], [0.14273354411125183], [-0.03062596172094345], [0.0048764911480247974], [0.07248968631029129], [0.06109992042183876], [0.014259753748774529], [-0.18547144532203674], [0.020267250016331673], [-0.10532861202955246], [0.020324883982539177], [-0.06918249279260635], [-0.004797003697603941], [0.1110716238617897], [-0.07556211948394775], [-0.08484221249818802], [0.04860929027199745], [-0.048549506813287735], [-0.0014781636418774724], [-0.03004993312060833], [0.09409277886152267], [-0.018517544493079185], [-0.1009974405169487], [-0.04302201047539711], [0.025813914835453033], [0.07356175035238266], [0.0006121140904724598], [0.1375635713338852], [1.214632511138916], [0.012503494508564472], [0.009102041833102703], [-0.038480110466480255], [0.3019053339958191], [0.06766247749328613], [-0.003270920366048813], [-0.008255709894001484], [0.06055990234017372], [0.8377407193183899], [-0.021259743720293045], [-0.13234293460845947], [-0.0661378800868988], [0.0743732675909996], [-0.032851360738277435], [0.29279986023902893], [-0.03472137823700905], [2.0194480419158936], [-0.029400847852230072], [0.13822707533836365], [-0.0655418336391449], [0.06348695605993271], [-0.038743142038583755], [0.1763908714056015], [0.00047832803102210164], [-0.0005960677517578006], [0.15272697806358337], [-0.005756438709795475], [-0.009297916665673256], [-0.00020472391042858362], [-0.12462907284498215], [0.13625462353229523], [-0.14276884496212006], [0.1492074728012085], [-0.010824971832334995], [0.013029218651354313], [-0.4607672393321991], [0.0022244886495172977], [0.007728113327175379], [0.009623580612242222], [5.433022670331411e-05], [-0.05923745781183243], [-0.10943689197301865], [-0.8776408433914185], [-0.004303223453462124], [0.07076574116945267], [0.0470728762447834], [-0.05839411914348602], [-0.027839714661240578], [-1.1197540760040283], [-0.06612366437911987], [0.11885173618793488], [0.03652537241578102], [0.04282364249229431], [0.23276636004447937], [-0.044297900050878525], [-0.11770757287740707], [0.011595277115702629], [-0.0001998955849558115], [1.954877495765686], [-0.22452443838119507], [0.01516752876341343], [-0.00014966611342970282], [-0.02559414692223072], [-0.021814974024891853], [0.05013594403862953], [-0.005205981899052858], [0.0014326500240713358], [-0.012303485535085201], [-0.07716967165470123], [0.06828299164772034], [-0.08426733314990997], [-0.04692453145980835], [-0.0734112337231636], [0.022914601489901543], [0.05377545952796936], [0.008277354761958122], [-0.09566903859376907], [0.0015964629128575325], [-0.1719711273908615], [-0.04395170509815216], [-0.024913670495152473], [-0.07588398456573486], [-0.13095644116401672], [0.0003603100194595754], [0.11800806224346161], [-0.19823132455348969], [0.16339893639087677], [0.004757335875183344], [0.22185949981212616], [0.3299373686313629], [-0.9587438106536865], [0.00725623918697238], [0.2474830597639084], [-0.24274276196956635], [-0.002703470876440406], [0.1915024220943451], [0.30211740732192993], [0.005524142179638147], [1.1046017408370972], [0.0021203963551670313], [0.20789149403572083], [0.005356295965611935], [0.2294148951768875], [0.13264070451259613], [0.14504770934581757], [0.020029501989483833], [0.24426747858524323], [0.0053562987595796585], [0.26676952838897705], [0.016567496582865715], [-0.12853094935417175], [0.020816879346966743], [0.017841432243585587], [0.2190973162651062], [-0.00024558985023759305], [-0.009502937085926533], [0.29192104935646057], [0.004949665162712336], [0.19297397136688232], [-2.88020658493042], [0.17412622272968292], [-0.07757581770420074], [0.13734225928783417], [0.32923832535743713], [0.1745780110359192], [0.005984339397400618], [-0.011301972903311253], [0.16134688258171082], [1.0680826902389526], [0.008945449255406857], [0.10713662207126617], [0.0009710185695439577], [0.05681779980659485], [0.5945802927017212], [-0.19001279771327972], [0.16403713822364807], [1.307897925376892], [0.24248570203781128], [0.16320793330669403], [0.021704426035284996], [-0.07464634627103806], [8.475939830532297e-05], [0.22324034571647644], [0.0017411900917068124], [0.08172118663787842], [0.23922260105609894], [0.06921513378620148], [-0.00027745170518755913], [0.012227351777255535], [0.22551319003105164], [0.029393674805760384], [0.21274562180042267], [-0.014512832276523113], [0.2258807271718979], [0.01702706329524517], [0.22817285358905792], [-0.010713729076087475], [0.025945065543055534], [0.015916751697659492], [0.014466621913015842], [0.0012805938022211194], [0.20674172043800354], [4.239866256713867], [0.03694358840584755], [0.006178637035191059], [0.027442431077361107], [0.2935190796852112], [-0.0047096554189920425], [-0.631026566028595], [0.3081023097038269], [0.02050897851586342], [0.00638034800067544], [0.01333326194435358], [1.5229101181030273], [0.016742167994379997], [2.692500114440918], [0.08283820748329163], [0.0043148621916770935], [0.366914838552475], [0.3252567946910858], [0.009408263489603996], [0.00754418084397912], [0.21498696506023407], [0.007691648323088884], [0.2576257586479187], [1.3286052942276], [0.22870536148548126], [0.011157115921378136], [0.03177754580974579], [0.20730596780776978], [0.011601833626627922], [0.00960893277078867], [0.27745962142944336], [0.22631722688674927], [0.032463666051626205], [0.0076640211045742035], [-0.11508572846651077], [-0.0011815838515758514], [0.039354726672172546], [0.014253810979425907], [8.467566658509895e-05], [0.004755228292196989], [0.17375759780406952], [0.05249138921499252], [0.22973550856113434], [0.2982849180698395]], "rec.weight_hh_l0": [[0.19012881815433502, -0.00020025270350743085, -0.13624565303325653, -0.10542052984237671, -0.12227707356214523, -0.00011337958858348429, -0.10575452446937561, 0.14110182225704193, 0.0006213466986082494, -0.09052475541830063, -0.0027473492082208395, 0.0005223138723522425, -0.5554633736610413, -0.004466051235795021, 0.09056230634450912, 0.0008266781223937869, 0.09088154882192612, 0.03431453928351402, -0.18915466964244843, -0.001034555141814053, 0.07235173881053925, 0.00010306724288966507, 0.07511436939239502, -0.0001532745227450505, 0.12353827804327011, -0.0009398014517500997, -0.019123079255223274, 0.12135743349790573, 0.0001943571405718103, 8.502722630510107e-05, -0.10031979531049728, -0.00026906633866019547, -0.10644816607236862, -0.20703738927841187, -0.06028469279408455, -0.060667265206575394, 0.03207320347428322, -0.12605054676532745, -0.061497725546360016, 0.004995269235223532, 0.0006712861941196024, -0.08672395348548889, 0.0672837421298027, -0.0005958674009889364, -0.038964465260505676, 1.5731113307992928e-05, -0.0011926156003028154, 0.10433996468782425, 0.14433185756206512, 0.1201663538813591, 0.06146295368671417, -0.06510783731937408, -0.19318662583827972, -0.0019599886145442724, 0.0017158574191853404, 0.0006104612839408219, -0.2058546394109726, -0.0015583350323140621, 0.0030223135836422443, -0.08223609626293182, 0.011099821887910366, 0.00017937773372977972, -0.04282613843679428, 0.18216657638549805, 0.0009558874298818409, 0.12238474935293198, -0.01422766875475645, 0.12663258612155914, 0.0015709851868450642, 0.11995460838079453, 1.4512546840705909e-05, -0.00031750675407238305, -9.758527448866516e-05, 0.00032676136470399797, 0.0006533006089739501, 0.04106729477643967, 0.060406267642974854, -8.719164179638028e-05, -0.00039084392483346164, -1.9315584722789936e-05, 0.08673570305109024, 0.0006861112196929753, 0.017612649127840996, 0.1250459998846054, 0.0022304693702608347, 0.0014867802383378148, 0.0005551397334784269, 0.4934910237789154, -0.0035737939178943634, 0.17933109402656555, -0.01665555126965046, -0.0007780390442349017, 0.029044095426797867, 0.12271728366613388, -0.11995457112789154, -0.0006404391606338322, 0.13267290592193604, 0.0002688033564481884, -0.07541307061910629, 0.19998399913311005, 0.12379957735538483, -0.0033372128382325172, -0.02072797901928425, -0.14515851438045502, -0.011835232377052307, -0.00018903365707956254, 0.08726286888122559, 0.10852421075105667, 0.0010539265349507332, -6.914807454450056e-05, 0.16735374927520752, 0.0002539049892220646, 0.05942792072892189, -0.0008494281792081892, 0.0005301858182065189, -0.001602253643795848, 0.12211606651544571, -0.011455762200057507, -0.06961358338594437, 0.18589989840984344], [-0.0017616269178688526, 0.0016459075268357992, 0.000805610150564462, 0.0024971480015665293, -0.018707502633333206, 0.00042360476800240576, 0.0014855442568659782, -0.00158878683578223, 0.0004118325305171311, 0.0012674691388383508, -0.00018783024279400706, -2.8511885830084793e-05, -0.30140018463134766, 0.0006044526817277074, -0.0014055217616260052, -0.0003091062535531819, -0.0014463708503171802, 3.016651817233651e-06, 0.0036036332603543997, -4.851007543038577e-05, 4.389739115140401e-05, 0.00010800181917147711, 2.9682218155357987e-05, -0.0006421064026653767, -0.0008708025561645627, 0.0006365195731632411, 0.0003548706299625337, -0.0019395888084545732, -0.000576381164137274, -0.0002571266668383032, 2.4549488443881273e-05, 0.001090847421437502, 0.001858338713645935, -0.030827036127448082, 8.71976499183802e-06, -3.1668387237004936e-06, 3.1222830330079887e-06, 0.002311269287019968, 3.007166742463596e-05, -0.0002815151819959283, -0.0005786295514553785, -1.9994582544313744e-05, -0.005436922423541546, -0.0001888185361167416, -9.387081809109077e-05, 0.0021915819961577654, -1.5881018043728545e-05, -0.00026335709844715893, -0.0007292524678632617, -0.000484613876324147, 0.006055366713553667, -0.00012174137373222038, 0.002338192891329527, 0.0005554258241318166, -0.0002675325085874647, -0.0001333836989942938, 0.0029316290747374296, -0.00022550104768015444, 3.25942637573462e-05, -0.0001596575602889061, -1.7844971580416313e-06, 0.0002670639078132808, -0.0004529530124273151, -0.0018394682556390762, -0.0004890707787126303, -0.002173725515604019, -0.0002661189646460116, -3.0439498004852794e-05, 0.00011354994785506278, 0.029328813776373863, -4.78168367408216e-05, 0.0009002565639093518, -0.001249781926162541, 0.0012496539857238531, 0.00019974401220679283, -4.299776628613472e-05, 0.0027769701555371284, -0.00018404441652819514, -0.000625372224021703, -0.00012583915668074042, 6.185656729940092e-06, -0.0009830191265791655, 0.0004640500992536545, -0.0016619183588773012, 0.00019464034994598478, -0.0005960255512036383, 0.0004485656972974539, 0.29895222187042236, 8.541262650396675e-05, 0.07365921884775162, 5.721019078919198e-06, -0.00037276334478519857, 0.004413051530718803, -0.0021169069223105907, 0.000673809670843184, 0.0007715506362728775, -0.000823908019810915, 0.0007261025602929294, -3.714034755830653e-05, 0.08640099316835403, -0.0023363553918898106, -0.0010614063357934356, 0.0008396556368097663, 0.0011964204022660851, -0.00020462815882638097, -0.0016462915809825063, 2.4611146727693267e-05, -0.0018589480314403772, -0.0005243310006335378, -0.00012949055235367268, -0.0017044785199686885, 0.0005759937921538949, 0.00015200428606476635, -0.0003758824313990772, 0.0012306832941249013, 3.1506871891906485e-05, -0.0026845871470868587, 2.106055262629525e-06, -6.183185178088024e-05, -0.002104845829308033], [0.10493124276399612, -9.108282392844558e-05, -0.1276334673166275, -0.15500174462795258, -0.17768867313861847, 0.0049904570914804935, -0.17050038278102875, 0.20769616961479187, 0.0007340084412135184, -0.13750380277633667, 8.939276449382305e-05, 0.0006505185156129301, -0.442441463470459, -0.004633578471839428, 0.1204761490225792, 0.000468299665953964, 0.1386105716228485, 0.036710985004901886, -0.11934690177440643, -0.0009053406538441777, 0.05985432118177414, 7.401819311780855e-05, 0.08604568988084793, -0.0004719672433566302, 0.19404461979866028, -0.0013111147563904524, -0.0015420509735122323, 0.17940428853034973, 0.0005739483749493957, 5.1831771997967735e-05, -0.10170678049325943, -0.00034291480551473796, -0.16680626571178436, -0.006675840355455875, -0.06072837859392166, -0.028665859252214432, 0.020609810948371887, -0.17499913275241852, -0.11161695420742035, 0.00021753042528871447, 0.0005809030844829977, -0.11166299134492874, 0.03114970214664936, -0.00028680296964012086, -0.016292573884129524, 0.0012202485231682658, 0.00034656518255360425, 0.15994656085968018, 0.48118123412132263, 0.20090793073177338, 0.04530123621225357, -0.02896946668624878, -0.111440010368824, -0.0018145731883123517, 0.031730834394693375, 0.0005755358142778277, -0.12831613421440125, -0.0013999204384163022, 0.0019247995223850012, -0.06707070767879486, 0.012112686410546303, 0.00020120553381275386, -0.013180616311728954, 0.1625431329011917, 0.0017282742774114013, 0.11510318517684937, -0.004263132344931364, 0.10777578502893448, 0.0011873893672600389, 0.1424867808818817, -6.567241143784486e-06, -0.00038630448398180306, -0.0002863931003957987, 6.688819848932326e-05, 0.0015575505094602704, 0.008518867194652557, 0.035843707621097565, 0.0002786952827591449, -0.0007991163874976337, -2.124122329405509e-05, 0.09811031818389893, 0.00010537231719354168, 0.013956916518509388, 0.15271635353565216, 0.001535548479296267, 0.0013089969288557768, 0.0006853698287159204, 0.22903954982757568, -0.0016835734713822603, 0.07703359425067902, -0.014985465444624424, -0.0005527325556613505, 0.0293575506657362, 0.10219729691743851, -0.23703055083751678, -0.0008211405365727842, 0.1290389597415924, 0.00021163455676287413, -0.08418545871973038, 0.17066459357738495, 0.11567001789808273, -0.0001908735284814611, -0.00455895159393549, -0.13274842500686646, -0.00257374276407063, -0.0004906519898213446, 0.09206920862197876, 0.12696011364459991, 0.0003621527866926044, -0.00019101263023912907, 0.220697283744812, 0.00024779554223641753, 0.06541457027196884, -0.0021443688310682774, 0.0005382734234444797, -0.0017537852982059121, 0.11186900734901428, -0.006237270310521126, -0.05972330644726753, 0.1214461401104927], [0.11664991080760956, -0.0002231060352642089, -0.14015981554985046, -0.18507568538188934, -0.18198329210281372, 0.0003341896808706224, -0.1903860718011856, 0.2618226110935211, 0.0011766746174544096, -0.11245926469564438, -0.0005193714750930667, 0.0009164874791167676, -0.508571207523346, -0.0073091378435492516, 0.10771949589252472, 0.0014294669963419437, 0.14784348011016846, 0.045249227434396744, -0.12331563234329224, -0.001741958549246192, 0.057956498116254807, 0.0001740140578476712, 0.09485381096601486, -0.000325522618368268, 0.2304919958114624, -0.0017835558392107487, -0.013437839224934578, 0.11787167191505432, 0.0008982233703136444, -0.00023495614004787058, -0.1176525354385376, -0.00043084233766421676, -0.18170024454593658, -0.16613692045211792, -0.0567990317940712, -0.06934260576963425, 0.04227174073457718, -0.17437134683132172, -0.10523250699043274, 0.0024467632174491882, 0.001091400976292789, -0.10539252310991287, 0.06244609132409096, -0.0010930331191048026, -0.045965228229761124, 0.00046501838369295, -0.0004614471399690956, 0.11684286594390869, 0.3413255214691162, 0.2157406359910965, 0.11646589636802673, -0.060225874185562134, -0.1294911652803421, -0.003531515831127763, 0.014866828918457031, 0.0010766404448077083, -0.19957903027534485, -0.0028370278887450695, 0.005399926565587521, -0.10625156760215759, 0.02060059830546379, 0.0003684522525873035, -0.0392400361597538, 0.19101810455322266, 0.0019271788187325, 0.133800208568573, -0.013995582237839699, 0.09570947289466858, 0.002585932146757841, 0.2205009013414383, -3.043224410248513e-07, -0.0006861558649688959, -0.00012924702605232596, 0.0005348260747268796, 0.00045648758532479405, 0.028479890897870064, 0.08820236474275589, 3.326898513478227e-05, -0.0005366982077248394, 2.0899307855870575e-05, 0.10964048653841019, 0.001244615763425827, 0.031172845512628555, 0.14024338126182556, 0.0033320949878543615, 0.002636246383190155, 0.001120534259825945, 0.438779354095459, -0.004353168420493603, 0.18942861258983612, -0.022131020203232765, -0.001371264224871993, 0.05147890746593475, 0.11316445469856262, -0.1524248570203781, -0.0012477920390665531, 0.1413683444261551, 0.0005124487797729671, -0.08399932086467743, 0.2909143269062042, 0.1937170773744583, -0.0012026148615404963, -0.016858581453561783, -0.14849919080734253, -0.009808468632400036, -0.0005634336266666651, 0.10717980563640594, 0.1688297837972641, 0.001132544013671577, -0.00013129237049724907, 0.30971938371658325, 0.00046762588317506015, 0.09289634227752686, -0.0017421715892851353, 0.000908106449060142, -0.0027882850263267756, 0.12889809906482697, -0.014772987924516201, -0.08960511535406113, 0.10773389041423798], [0.0024386525619775057, 0.0004971760790795088, -0.00240216962993145, -0.003885515732690692, -0.022844135761260986, 0.0008552631479687989, -0.002777377376332879, -0.002399514429271221, -0.0042572240345180035, -0.0030791135504841805, -0.0011506247101351619, -0.0014439994702115655, 0.34279993176460266, -0.007708853576332331, 0.004031253978610039, -0.003923554439097643, 0.0037115642335265875, -0.0002617493737488985, -0.0038293085526674986, -0.00011629597429418936, 0.00047780852764844894, -0.0019791596569120884, -0.002548448508605361, -0.0005062406999059021, -0.0012162128696218133, -0.0003007979248650372, -0.0015281846281141043, 0.002590571064502001, 0.0007641327101737261, 0.002308914205059409, 0.00040590111166238785, -0.0013550582807511091, -0.0042724465020000935, 0.049721330404281616, 3.5096807550871745e-05, -0.00023901078384369612, 0.0006866292096674442, -0.0028031892143189907, 0.0017877446953207254, -0.001319483621045947, 0.0012895463733002543, 0.0013932684669271111, -0.02419457398355007, 0.0009198740590363741, -8.880737732397392e-05, 0.0004663852450903505, 0.00026001129299402237, 0.0007103827083483338, -0.0009083194890990853, -0.0004134517803322524, 0.020166777074337006, -0.0004752856330014765, -0.0026306745130568743, 0.003745958674699068, -0.0006952363764867187, 0.0006243566167540848, -0.0031552622094750404, 0.0008950093179009855, 0.001783757354132831, -0.0013905190862715244, -0.0005542781436815858, -0.0005168663919903338, -0.0036725392565131187, 0.0031601397786289454, -0.0033865945879369974, 0.0024828820023685694, 0.0013782992027699947, 0.00023356953170150518, -0.00313685298897326, -0.03671151399612427, 0.00030651348060928285, 0.0060667316429317, -0.0009596190066076815, -0.001276496914215386, -0.0002203497861046344, 0.0002051798946922645, 0.04213088005781174, -0.00528658227995038, -0.004614272154867649, -0.0009061867604032159, -0.002873476594686508, 0.0007971059530973434, 0.03180735930800438, -0.00011988331243628636, 0.0012985070934519172, -0.003283220576122403, -0.004701428581029177, -0.3138427138328552, 0.0037655604537576437, -0.07282528281211853, 0.00036886779707856476, 0.002116797026246786, -0.09156231582164764, 0.0029180024284869432, -0.0035769424866884947, -0.0008140208665281534, 0.0037319790571928024, -0.0005984866293147206, 0.003365353913977742, -0.07975400239229202, 0.0028191779274493456, -0.0025469684042036533, 0.008008439093828201, -0.002948496025055647, 0.0038777613081038, 0.0007823366904631257, -0.0002177115820813924, 0.003558571683242917, 0.0009347425657324493, 0.0009234462631866336, -0.0010431997943669558, 0.0016137486090883613, 0.0018662463407963514, -0.0008206041529774666, 0.0025556115433573723, 1.6969890566542745e-05, 0.0028623503167182207, 0.001025182195007801, -0.000649322522804141, 0.0031402737367898226], [-7.060853386064991e-05, -2.2731759599992074e-05, 0.00012244400568306446, 0.00015661123325116932, -0.0006751409964635968, -0.00045084732118994, 0.0001625329750822857, 5.873882400919683e-05, -1.0668446520867292e-05, 0.00018268663552589715, 7.750774238957092e-05, 0.0007224700530059636, -0.1672394722700119, 0.0012742372928187251, -0.00018712188466452062, -0.00010127214045496657, -0.0001696965773589909, 2.5457122774241725e-06, 0.00015007481852080673, 3.98874472011812e-05, -1.359478210360976e-05, 0.0001085855474229902, -3.609975829022005e-05, 4.090714355697855e-06, 0.00010987847781507298, 0.00021287889103405178, 1.75050782758035e-08, -7.118104986147955e-05, -0.00013722309086006135, -0.00029001562506891787, 1.8793027265928686e-05, -0.000165623176144436, 0.00020293620764277875, -0.016856633126735687, -1.367175968880474e-06, -5.386493285186589e-06, -8.840325790515635e-06, 7.44751887395978e-05, 4.416416777530685e-05, 0.00014538037066813558, -0.00011487795563880354, 1.1383178389223758e-05, 0.0018947049975395203, 0.0003393009246792644, -5.015458009438589e-05, 9.020168363349512e-05, 1.770200287865009e-05, 3.51489034073893e-05, 3.245696279918775e-05, 3.302872573840432e-05, -0.0024688898120075464, 2.0411784134921618e-05, 6.488162034656852e-05, 8.189104119082913e-05, -3.8606347516179085e-05, -4.4550934035214595e-06, 0.0001336318819085136, 7.246119639603421e-05, 9.1329580754973e-05, 4.8866084398468956e-05, 4.9312518513033865e-08, -3.98604606743902e-05, 5.91389398323372e-05, -0.00014309312973637134, 0.0012009856291115284, -5.570729626924731e-05, -6.40511789242737e-05, -7.536425982834771e-06, -0.00020585853781085461, 0.001956817228347063, -2.4903662051656283e-05, -0.00025301158893853426, 0.00018154282588511705, 0.0002991778892464936, 9.658295311965048e-05, 1.52920820255531e-05, 0.0010452264687046409, 0.0006528142839670181, 7.334415568038821e-05, -0.00019770956714637578, -2.712368223001249e-05, 3.053401451325044e-05, 0.0011513716308400035, -0.00014252759865485132, 0.000332451454596594, 0.00013742684677708894, 0.0002530447964090854, 0.13892912864685059, 8.45292288431665e-06, 0.006769197061657906, 3.2825616926857037e-06, -0.0002150369982700795, 0.004954339005053043, -8.378854545298964e-05, 9.797023085411638e-05, -8.781097130849957e-05, -0.000113877555122599, -9.523670451017097e-05, 3.4609718568390235e-05, 0.013938589952886105, -6.458954885601997e-05, 0.00024230357666965574, -0.00020002191013190895, 0.00014816569455433637, -9.807713649934158e-05, -0.00039188400842249393, -5.503835836861981e-06, -0.00019998957577627152, -0.0001656257954891771, -0.00036782820825465024, -1.2605256415554322e-05, -1.8071019439958036e-05, -4.882714347331785e-05, -8.986788452602923e-05, 0.00010598418884910643, 1.9947468899772502e-05, -8.115656964946538e-05, -6.304415728664026e-05, 1.867025639512576e-05, -0.00010087063128594309], [0.12124098837375641, -0.00015881232684478164, -0.10221343487501144, -0.12838098406791687, -0.1967311054468155, 0.0001731578668113798, -0.13180984556674957, 0.2118104100227356, 0.0004907191032543778, -0.09405461698770523, -0.0005791931762360036, 0.00040672498289495707, -0.5787618160247803, -0.003548206528648734, 0.09753414243459702, 0.0006361550185829401, 0.09865216910839081, 0.051839347928762436, -0.11753246188163757, -0.0007885477971285582, 0.08731544762849808, 8.833870379021391e-05, 0.10377855598926544, -0.00016817270079627633, 0.20586229860782623, -0.0007401803159154952, -0.016904888674616814, 0.12701298296451569, 0.0005031483597122133, -2.2690013793180697e-05, -0.12471621483564377, -0.0002141625591320917, -0.1071285530924797, -0.12744347751140594, -0.08028241246938705, -0.07725593447685242, 0.044722042977809906, -0.20287321507930756, -0.10968460142612457, 0.0024432064965367317, 0.0005735983140766621, -0.10096389055252075, 0.06449904292821884, -0.000477547844639048, -0.05179888382554054, 0.000214220373891294, -0.001223128056153655, 0.1797189712524414, 0.2336207628250122, 0.2001105397939682, 0.05508476868271828, -0.07032422721385956, -0.12091276049613953, -0.0015296265482902527, 0.0264434851706028, 0.00048670105752535164, -0.12729987502098083, -0.0013070999411866069, 0.006401704624295235, -0.09803598374128342, 0.023915335536003113, 0.0001528458233224228, -0.048956092447042465, 0.11702480912208557, 0.0009052370442077518, 0.12340141087770462, -0.01381015870720148, 0.13981647789478302, 0.0012395592639222741, 0.18519550561904907, 1.4315227417682763e-05, -0.0004757758288178593, -6.421672878786922e-05, 0.00022865620849188417, 0.00022563457605428994, 0.03847871348261833, 0.0823151245713234, 0.0001126473507611081, -0.0003149540862068534, 3.241183367208578e-05, 0.11611180752515793, 0.0005831128219142556, 0.013734867796301842, 0.19541218876838684, 0.0015892847441136837, 0.0011356694158166647, 0.000549783231690526, 0.505499541759491, -0.0028723233845084906, 0.15616175532341003, -0.027077430859208107, -0.0006036919658072293, 0.02625107206404209, 0.122354656457901, -0.19193753600120544, -0.0005122520960867405, 0.08466533571481705, 0.0002203782059950754, -0.10328617691993713, 0.2917367219924927, 0.12093976140022278, -0.000914331991225481, -0.014683441258966923, -0.09997043758630753, -0.00846452172845602, -0.0002490285551175475, 0.11365028470754623, 0.11083634942770004, 0.0008569254423491657, -7.127528078854084e-05, 0.2292117327451706, 0.00018947692296933383, 0.09158197790384293, -0.0008106884779408574, 0.0004049203998874873, -0.0012622368521988392, 0.18910861015319824, -0.016704687848687172, -0.08523599803447723, 0.1248093917965889], [-0.0002775750763248652, 0.00036836517392657697, 0.0009388565085828304, 0.0010338827269151807, -0.0011994073865935206, -0.0006928287330083549, 0.00026309367967769504, -0.0009526237263344228, 0.000225443669478409, 0.0006486019119620323, 0.0003730696626007557, 0.0017126391176134348, -0.031869031488895416, 0.00019913713913410902, -0.0008095363155007362, 0.0005770839634351432, -0.0014378920895978808, -4.834263108932646e-06, 2.5401279344805516e-05, -9.421080903848633e-05, -6.45258478471078e-05, 0.000493326224386692, -0.000251639517955482, 5.34650644112844e-05, -0.00021262883092276752, 0.000644711428321898, 0.00041515755583532155, -0.00029101481777615845, -0.00013721206050831825, -0.0006528374506160617, 0.00011147820623591542, 0.0002541711728554219, 0.0004990588640794158, -0.005583439487963915, -1.6364459952455945e-05, 0.00010267500329064205, -0.0005392641760408878, 0.000235298415645957, 0.0006416058749891818, 0.0003323037817608565, -0.000104946804640349, 0.000659401819575578, 0.0016475151060149074, -0.0004331303061917424, 0.00038020277861505747, 0.0008152337977662683, -0.00032717286376282573, -0.00015410012565553188, -2.8904994906042702e-05, -0.00013852189294993877, -0.000919788668397814, -5.226849680184387e-06, 7.265163003467023e-05, -0.0014905157731845975, -6.1645596360904165e-06, -5.410242374637164e-05, 5.5346103181364015e-05, -0.00022595659538637847, -8.911629265639931e-05, 0.00025136410840786994, -1.193785465147812e-05, -0.0003172646393068135, 0.0005327396793290973, -0.0007361559546552598, 0.0010478980839252472, -7.91350903455168e-05, -0.00020648118515964597, -8.119129051920027e-05, 0.000683518301229924, 0.0026482692919671535, -2.4349976229132153e-05, -0.0019330703653395176, -0.00017240086162928492, 0.0004879445768892765, 7.290040230145678e-05, -8.846433775033802e-05, 0.0017532500205561519, 0.0010070657590404153, -0.0001267770421691239, 0.0003779513936024159, -8.585329487686977e-05, 0.0002634775300975889, 0.010950249619781971, -5.730021439376287e-05, -0.0002068086905637756, 0.0008270366815850139, 0.00029373110737651587, 0.028015227988362312, -0.0018921035807579756, 0.003663016250357032, 0.00013092604058329016, -0.0005925432778894901, 0.00879309605807066, -0.0004147875006310642, 7.831493712728843e-05, -0.0005391901941038668, -0.0011391348671168089, 9.58470263867639e-05, 0.00023705385683570057, 0.006689843256026506, -0.00019355257973074913, -0.00012931169476360083, -0.0013621454127132893, 0.0007148936274461448, -0.0001754173426888883, -0.0010477508185431361, -0.00023555422376375645, -0.0006430187495425344, 0.0007427158998325467, -0.0005232476978562772, 0.0009351407061330974, 0.00025906984228640795, -0.0011267741210758686, -6.157318421173841e-05, -0.0005330562125891447, -0.00014427787391468883, -7.786484275129624e-06, -0.00014102284330874681, 0.00039737438783049583, -0.0006547612720169127], [0.0026568735484033823, -0.0038019977509975433, 0.0008978410623967648, -0.0007978957146406174, 0.03467180207371712, 0.0009927520295605063, 0.0017055640928447247, -0.00012664128735195845, 0.021843545138835907, 0.003281540935859084, -0.0017075184732675552, 0.0027875949162989855, -0.6306366324424744, -0.0026196527760475874, -0.002740298630669713, 0.0006193201406858861, -0.0007465623784810305, -2.333196607651189e-05, -0.003319433191791177, 0.0008775655878707767, -0.00031032433616928756, -0.0029862874653190374, -0.0005106322350911796, -0.00650569424033165, 0.00044010774581693113, 0.0001933473104145378, -0.0012375123333185911, 0.002952735172584653, 0.0022073856089264154, 0.0005442575202323496, -0.00038401875644922256, 0.00427779508754611, 0.0015011823270469904, -0.02814900316298008, -3.254882904002443e-05, -0.0004101059166714549, 7.170679600676522e-05, -0.00316416984423995, 0.00162842299323529, -0.0015184369403868914, 0.002501782262697816, 0.003692798549309373, -0.0338515006005764, -0.0035859025083482265, -0.0022873191628605127, 0.008380481973290443, 0.0009385388111695647, 0.0006151460693217814, 2.45518622250529e-05, 0.00011072458437411115, -0.0397396981716156, 0.003145005786791444, -0.003393885213881731, 0.0005335149471648037, 0.01684424839913845, 0.002695007249712944, -0.002893829485401511, 0.01131253968924284, -8.129128400469199e-05, 0.0006999850738793612, 0.00013387486978899688, -0.0012170339468866587, 0.0013792073586955667, 0.001135818543843925, 0.0033956654369831085, 0.0032489816658198833, 0.000489610421936959, 4.248408367857337e-05, -0.0017681099707260728, 0.037662703543901443, 0.0007031377172097564, 0.007702167145907879, 0.00901259295642376, -0.00025965276290662587, 0.001367103192023933, -0.00020018138457089663, 0.009881318546831608, -0.00368695636279881, 0.006694384850561619, 0.005140447989106178, -0.0003374882217030972, -0.004782893229275942, -0.005175989121198654, 0.0006374288932420313, -0.0023480167146772146, -0.009233493357896805, 0.00047911025467328727, 0.5967810153961182, 0.0012824299046769738, 0.18101879954338074, -0.0005579069256782532, 0.0016596739878877997, -0.042836397886276245, 0.002852259436622262, 0.0005554503877647221, -0.02004336006939411, 0.0008023890550248325, 0.01289212703704834, 0.0005098363617435098, 0.1861894130706787, 0.003614198649302125, -0.010829880833625793, -0.009665820747613907, 0.0028587125707417727, 0.0009308916050940752, -0.0017981721321120858, -0.0006377387326210737, -0.0028197800274938345, -0.0018039910355582833, 0.004438401665538549, -0.0008197060087695718, -0.0027095607947558165, -0.0017003181856125593, 0.0006973536219447851, 0.0016811956884339452, -9.052992133717908e-09, 0.003223639214411378, 0.00017140705313067883, 0.0006910195806995034, 0.0017442196840420365], [0.04449336975812912, -9.143602073891088e-05, -0.004380875267088413, -0.024567892774939537, -0.05276724323630333, 0.00023816410975996405, -0.02148383855819702, 0.078153595328331, -0.0005169578362256289, -0.009089010767638683, 0.00013272525393404067, 0.0007903291843831539, -0.19176103174686432, -0.006489091087132692, 0.006662127561867237, -0.00025659898528829217, 0.00454165181145072, -0.00012008523481199518, -0.056544192135334015, -0.0007197901722975075, -0.0004409760294947773, -0.00013708295591641217, 4.14757159887813e-05, 0.000719797913916409, 0.05691281333565712, -0.0015458251582458615, 0.00023876865452621132, 0.04079693928360939, 0.0017233268590644002, 0.0026334719732403755, -0.0005563560989685357, -0.0018168295500800014, -0.03204101324081421, -0.10760462284088135, 7.519285281887278e-05, -0.0007538810605183244, -0.00018101325258612633, -0.06029544025659561, 6.017617488396354e-05, -1.9160590454703197e-05, 0.0002260781911900267, 0.00034955551382154226, 0.010205932892858982, 0.00011709178215824068, 0.0005143480957485735, -6.681062222924083e-05, -8.953997894423082e-05, 0.022239889949560165, 0.1038702204823494, 0.04497801885008812, -0.003307792590931058, -0.0010749876964837313, -0.048070844262838364, -0.0012476592091843486, 0.00024912229855544865, 0.0005098330439068377, -0.06324394792318344, -8.509906911058351e-05, 1.6297972251777537e-05, 0.00017974957881961018, -0.00014102639397606254, -0.0006282692193053663, 0.00027016198146156967, 0.03083566203713417, 0.0012444729218259454, 0.053613461554050446, -0.0010948220733553171, 0.003791291266679764, 0.001270962762646377, 0.04555940628051758, -5.0153561460319906e-05, 7.568867295049131e-05, -0.00036612607073038816, -0.00022157958301249892, 0.0003184070810675621, -0.00037373046507127583, -0.019199596717953682, 0.00019385735504329205, -0.0009080888703465462, -2.700044024095405e-05, 0.00021147687220945954, 0.0011839878279715776, 0.0017238076543435454, 0.04668446630239487, -0.00010855047003133222, -0.00012073612015228719, 0.0005871397443115711, 0.13402259349822998, -0.0005944714066572487, 0.034718725830316544, 4.281144720152952e-05, 0.0003458867431618273, 0.004773634485900402, 0.0424358993768692, -0.03953099995851517, -0.0018068280769512057, 0.00394369987770915, 0.0002868515148293227, 0.00010505314276088029, 0.06318984925746918, 0.049809642136096954, -0.00036731467116624117, -0.0020703920163214207, -0.0071157654747366905, -0.0007336591952480376, -0.0004184705321677029, 0.0001433442666893825, 0.019837982952594757, -2.0986730305594392e-05, -0.0005192135577090085, 0.11851081252098083, 0.0011091699125245214, -0.0003482556203380227, -0.0016297035617753863, 0.0020944338757544756, 0.00027051661163568497, 0.08422395586967468, 1.4797414223721717e-05, 0.00013903524086344987, 0.046167220920324326], [0.07812517136335373, 4.630754847312346e-05, -0.00688738701865077, -0.04746009409427643, -0.1474965661764145, -7.984811963979155e-05, -0.02812931314110756, 0.2520584464073181, 0.00010497296170797199, -0.009188619442284107, 0.00037491251714527607, -0.00011204220209037885, -0.7276212573051453, 6.425038736779243e-05, 0.006953738164156675, 3.3646501833572984e-05, 0.002318261656910181, 1.514740870334208e-05, -0.1246068999171257, 8.166323823388666e-05, 0.0001194028664031066, 1.8011356587521732e-05, -4.904993693344295e-05, 1.2309897101658862e-05, 0.14518316090106964, 0.00025519574410282075, -1.3501578905561473e-05, 0.08389837294816971, -4.145255297771655e-05, -0.0003753553028218448, -0.00036205784999765456, 3.068297519348562e-05, -0.039159949868917465, -0.474356085062027, -3.532848131726496e-05, -0.008745822124183178, 1.5052446542540565e-05, -0.08516733348369598, 0.000269918906269595, 2.2669626105198404e-06, 2.0234456314938143e-05, 0.00030155933927744627, 0.0076859272085130215, -6.412247603293508e-05, 0.0001463351072743535, 0.00041061057709157467, 1.3144420336175244e-05, 0.05799681693315506, 0.18441414833068848, 0.09934256970882416, -0.006631243508309126, -0.002295513404533267, -0.12892359495162964, -4.541189628071152e-05, -1.4061853107705247e-05, -3.4851869713747874e-05, -0.11779539287090302, -8.048705785768107e-05, -9.139504300037515e-07, -0.00025631868629716337, 1.965040974027943e-05, 6.556011067004874e-05, -0.0007574510527774692, 0.05423783138394356, 0.00035069556906819344, 0.1002386137843132, -0.0002859842497855425, 0.007306836079806089, -1.4574178749171551e-05, 0.18232418596744537, 7.100046332197962e-06, -0.0002157738053938374, 3.8720801967429e-05, 1.1358373740222305e-05, -3.3980551961576566e-05, 0.0008497508824802935, 0.0019557923078536987, 0.00045179922017268836, 3.2754920539446175e-05, 9.365288133267313e-05, 3.933635525754653e-06, 3.98099837184418e-05, -0.0010202414123341441, 0.15496854484081268, 8.898430678527802e-05, 3.3668879041215405e-05, 0.0002488024183548987, 0.5731419920921326, 6.304091584752314e-06, 0.12162128835916519, 1.0871152653635363e-06, -2.3096166842151433e-05, 0.002835846971720457, 0.07432589679956436, -0.12470275908708572, 0.00024422729620710015, 0.002347518689930439, 1.807098487915937e-05, 4.117814023629762e-05, 0.19212467968463898, 0.09179529547691345, -1.9298338884254918e-05, -0.0012388203758746386, -0.009873614646494389, -0.00011502869165269658, -0.00016143653192557395, 1.166656056739157e-05, 0.029538938775658607, 8.225034980569035e-05, 5.0093396566808224e-05, 0.4224957525730133, -0.00010513788583921269, -3.2180683774640784e-05, 7.400192407658324e-05, -4.850240293308161e-05, -1.3447500350594055e-05, 0.10888488590717316, 9.069951829587808e-07, -6.039399522705935e-06, 0.05403576418757439], [-0.0002678323071449995, 0.00020650138321798295, 0.00030158416484482586, 0.00018110786913894117, -0.0007822507759556174, 0.0017753414576873183, 0.00011820504005299881, -0.00010352856770623475, 5.3212730563245714e-05, 0.00027328511350788176, 0.0008465012651868165, 0.0024625586811453104, -0.2635433077812195, 0.0028507686220109463, -0.0004297410778235644, -0.0007385672652162611, -0.0004041190550196916, 1.4127228951110737e-06, 0.0010481443023309112, 0.0001272230438189581, -4.314307443564758e-05, 0.00015970146341715008, -4.545363844954409e-05, 0.0009258589707314968, -4.094509858987294e-05, 0.0008476183284074068, 0.0005358688067644835, -0.000286373367998749, 0.0007968686986714602, -0.0022960035130381584, 9.327252337243408e-05, 0.000895515491720289, 0.00014521356206387281, -0.008447911590337753, -7.223376996989828e-06, 0.00010707398178055882, -2.9325354262255132e-05, 0.00024126307107508183, 0.0002840396773535758, 0.0006461121374741197, -0.0006035047117620707, 0.00033379183150827885, 0.006599913816899061, 0.0002449897874612361, 0.00027538739959709346, 0.001650728634558618, -0.00019091185822617263, 1.0281269169354346e-05, 0.00012776887160725892, 1.4624992218159605e-05, -0.007533991243690252, 0.0005049760802648962, 0.00045671607949770987, 0.0013230456970632076, -0.00016264709120150656, 0.00037073963903822005, 0.000827253214083612, 0.001582691795192659, 4.428548345458694e-05, 0.0002461361000314355, -2.6950128813041374e-06, 0.00028911230037920177, 0.0004886358510702848, -0.00016938347835093737, 0.0028867286164313555, -0.000419648305978626, -0.00047026228276081383, -2.0149223928456195e-05, -0.0007990082376636565, 0.001740098581649363, -0.00011893853661604226, -0.004167147446423769, 0.000628320500254631, -0.0001338055299129337, 0.0002453363558743149, -1.3563590982812457e-05, -0.014323919080197811, 0.0031655665952712297, -0.00010997468052664772, 0.0010365205816924572, -3.9074009691830724e-05, 0.001020553638227284, -0.0003335147339385003, -1.722378692647908e-05, -0.0019289064221084118, -0.0006053394754417241, 0.0018476523691788316, 0.2001802623271942, 0.0011713580461218953, 0.0051942672580480576, 1.585671998327598e-05, -3.599589763325639e-05, 0.011079248040914536, -0.00023354688892140985, -1.4607877346861642e-05, -7.716134859947488e-05, -0.0003262207901570946, 0.00032001794897951186, 4.766202619066462e-05, 0.012381624430418015, -0.00042638691957108676, 0.0006736086797900498, -0.0012539287563413382, 0.0003190874122083187, -0.0003906592319253832, -0.0019546139519661665, -0.00011678848386509344, -0.00017406705592293292, -0.0003914530680049211, -0.0017702580662444234, 0.0011347569525241852, 0.00040035543497651815, -0.0001951871090568602, 0.0004118066863156855, -0.0008644480840303004, 7.014081347733736e-05, -0.0006396281532943249, -5.257992597762495e-05, 6.59753059153445e-05, -0.00016731386131141335], [-0.13588720560073853, 1.8226988686365075e-05, 0.2016180008649826, 0.19389981031417847, 0.184599831700325, 9.559044883644674e-06, 0.22566355764865875, -0.29856038093566895, 0.0004471048596315086, 0.20031625032424927, 0.04031303524971008, 2.4075055989669636e-05, 0.20900492370128632, 4.6494777052430436e-05, -0.19024191796779633, -2.732211578404531e-05, -0.19370563328266144, -0.12218304723501205, 0.1622178554534912, 3.632331936387345e-05, -0.1486794650554657, 7.621139957336709e-06, -0.1621871143579483, 2.3457467250409536e-05, -0.1827918291091919, 6.751197361154482e-05, 0.07129547744989395, -0.13739174604415894, -2.0583531295415014e-05, -0.00017248767835553735, 0.1735301911830902, -2.420098644506652e-05, 0.21358038485050201, 0.18816140294075012, 0.1464153528213501, 0.14236147701740265, -0.1101495698094368, 0.1444604992866516, 0.19201864302158356, -0.012908455915749073, -0.00025697355158627033, 0.1908305287361145, -0.12515299022197723, 0.00025035403086803854, 0.13234584033489227, 7.906428072601557e-05, 0.022432595491409302, -0.22382758557796478, -0.520199716091156, -0.23327793180942535, -0.1439199000597, 0.14093972742557526, 0.19538761675357819, 0.0021170228719711304, -0.08221612870693207, -0.0010860933689400554, 0.14343616366386414, 0.009448504075407982, -0.05037069320678711, 0.1555284857749939, -0.08776333928108215, 5.128626980877016e-06, 0.12086272239685059, -0.21605433523654938, 0.0001317176065640524, -0.2045886367559433, 0.05791547894477844, -0.1865217685699463, 0.00018317392095923424, -0.2279036045074463, -0.0001200510305352509, -0.00025058252504095435, 2.9154287403798662e-05, -0.00045352926827035844, -0.00013124548422638327, -0.08126691728830338, -0.12671822309494019, 0.0001429031981388107, 7.116697815945372e-05, 7.015981827862561e-05, -0.1700889766216278, 3.101568290730938e-05, -0.0009777372470125556, -0.27357321977615356, -0.015258009545505047, -0.0052096485160291195, 6.630374991800636e-05, -0.2924536168575287, 0.0287435594946146, -0.22094738483428955, 0.09082997590303421, 0.0008504728903062642, -0.0003982210182584822, -0.13668833673000336, 0.27330416440963745, 0.0007576122879981995, -0.19569584727287292, 6.721680983901024e-05, 0.161098450422287, -0.23399461805820465, -0.13832029700279236, 0.008437148295342922, 0.06708560138940811, 0.19831661880016327, 0.050687409937381744, -3.225573163945228e-05, -0.1674499660730362, -0.19652023911476135, -0.01828618533909321, -0.00021437456598505378, -0.23456257581710815, 2.950036468973849e-05, -0.15029044449329376, -2.730483356572222e-05, -2.080283229588531e-05, -3.063125632252195e-06, -0.19900543987751007, 0.07324009388685226, 0.14795926213264465, -0.19886399805545807], [-0.002441918011754751, 0.0015369491884484887, 0.002134071895852685, 0.0022798979189246893, 0.0030000205151736736, 0.012349573895335197, 0.0015224369708448648, 0.0006852290825918317, 0.0008032838813960552, 0.002021575113758445, 0.008322328329086304, -0.0029957967344671488, -0.20575657486915588, -0.003989864606410265, -0.003049032064154744, -0.004329829476773739, -0.0029108549933880568, -2.4802711777738295e-05, 0.006467062048614025, -0.00010412055416963995, -0.0005175268743187189, 0.0020056460052728653, -0.0003096447908319533, -0.00042667737579904497, 0.0007965793483890593, -0.0017239140579476953, -0.0013706967001780868, -0.0023928957525640726, 0.0006201887154020369, 0.00032916670897975564, 0.0006446759798564017, 0.006932329852133989, 0.001785543980076909, -0.03422727435827255, -1.712018456601072e-05, -0.0006368831382133067, -1.7408379790140316e-05, 0.0023722699843347073, 0.002017764374613762, -0.003847380867227912, -0.0007169869495555758, 0.002356436103582382, 0.027539635077118874, -0.0031936054583638906, 0.002623819513246417, -0.006896836217492819, -0.0004265960888005793, 0.00043804393499158323, -0.0026798821054399014, 0.000682339770719409, -0.03465569019317627, -0.001337122987024486, 0.0029747544322162867, -0.0052194129675626755, -0.0007753142854198813, -0.002492625033482909, 0.004511500243097544, -0.0012832360807806253, -0.0008696457953192294, 0.001990413758903742, 3.89721171814017e-05, 0.000986612169072032, 0.002410363173112273, -0.0018915926339104772, -0.003343697637319565, -0.003073168685659766, -0.005876864772289991, -0.000295872101560235, -0.00784241408109665, 0.029567396268248558, -5.54727521375753e-05, 0.03682296723127365, 0.003518826561048627, -0.0027855345979332924, -0.001391391851939261, 0.0008669288363307714, 0.10578397661447525, 0.005397628527134657, 0.004612124990671873, -0.000780914502684027, -0.00024809138267301023, -0.008834910579025745, -0.0794224962592125, -0.003404338378459215, -0.0008417596109211445, -0.003723787609487772, 0.0032939191441982985, 0.19719401001930237, 0.00237022596411407, 0.0815177783370018, 8.418886864092201e-05, 0.0045112441293895245, 0.2274583876132965, -0.002222910989075899, 0.0004638519021682441, 0.002926124259829521, -0.0023048140574246645, -0.0017908603185787797, 0.00039178848965093493, 0.07294414192438126, -0.00308175478130579, 0.0076959943398833275, -0.016794603317975998, 0.002294439822435379, -0.0024544878397136927, -0.002588799921795726, -0.0008199844742193818, -0.0018407541792839766, 0.0014669254887849092, -2.6331948902225122e-05, 0.00021094027033541352, -0.0002406182757113129, -0.001643073745071888, 0.0012408765032887459, -0.0023436283227056265, 5.145945033291355e-05, -0.0038555690553039312, 0.0006667048437520862, 0.0006087176152504981, -0.002051898743957281], [0.10869237035512924, -0.00019292120123282075, -0.018672766163945198, -0.045468345284461975, -0.09113134443759918, 0.0005201490130275488, -0.047475188970565796, 0.11940157413482666, -5.690450416295789e-05, -0.02638748288154602, 0.0001638779358472675, 0.0009544775239191949, -0.32806652784347534, -0.006371169351041317, 0.0227474644780159, -0.00014232502144295722, 0.019152050837874413, -9.005951869767159e-05, -0.09094244986772537, -0.0009701192029751837, 0.0012268637074157596, -0.00034757296089082956, 0.0026354114525020123, 0.00011041398829547688, 0.09817161411046982, -0.0013723827432841063, 0.00030483989394269884, 0.08930779993534088, 0.0008878702647052705, 0.0041345455683767796, -0.007700438145548105, -0.0011766130337491632, -0.064375139772892, -0.13238142430782318, -0.0008135934476740658, -0.005258272867649794, -0.000219123947317712, -0.10586952418088913, -0.004866561386734247, 6.229699647519737e-05, -0.00025651531177572906, -0.0035080851521342993, 0.0168790090829134, 0.0006262632668949664, 0.0005530320340767503, -0.00033402052940800786, 0.00010339947766624391, 0.05735912546515465, 0.14427047967910767, 0.0866328552365303, 0.0004719775461126119, -0.0059427828527987, -0.07475271821022034, -0.001493804156780243, 0.0006904925685375929, 0.0005533088115043938, -0.12043178826570511, -0.0004058256163261831, 2.1347703295759857e-05, -0.002722172299399972, -0.00027666878304444253, -0.00033113741665147245, -0.000895962119102478, 0.05400041490793228, 0.0014437189092859626, 0.08100824803113937, -0.001944398507475853, 0.019949667155742645, 0.0011609960347414017, 0.059508662670850754, -1.7958211174118333e-05, -5.136645268066786e-05, -0.00036390466266311705, -0.00013083545491099358, 0.00033212502603419125, 0.0004612567136064172, -0.017345119267702103, 0.00045331125147640705, -0.0008354452438652515, -0.0008638844010420144, 0.004777617286890745, 0.0007570927264168859, 0.008722491562366486, 0.08977405726909637, 0.000463949196273461, 0.0004870521661359817, 0.0004059862985741347, 0.24394308030605316, -0.001119270920753479, 0.07057246565818787, 0.0001496090117143467, 7.59709155317978e-06, 0.017771396785974503, 0.06970372796058655, -0.07976379245519638, -0.0017107118619605899, 0.01793576031923294, 0.00019921670900657773, -0.0024244999513030052, 0.09789278358221054, 0.07388640195131302, -0.0002685356594156474, -0.003201904008165002, -0.02473895438015461, -0.0016634403727948666, -0.00015707482816651464, 0.004583097528666258, 0.0429893434047699, 0.0003414059756323695, -0.0005044289282523096, 0.1556115746498108, 0.00022182641259860247, 0.0014404596295207739, -0.0014338892651721835, -0.0010040374472737312, -0.0005085127195343375, 0.07569968700408936, 7.934610766824335e-05, -0.0010401231702417135, 0.08269860595464706], [-0.001411135890521109, 0.0016653088387101889, 0.0006277526263147593, 0.0019133416935801506, -0.01215334516018629, 0.0008604233153164387, 0.0011368348496034741, -0.0005542489816434681, 8.171103399945423e-05, 0.000941764039453119, -0.0003713355981744826, 0.00027464478625915945, -0.26763880252838135, 0.0014825109392404556, -0.001087396638467908, -0.0011774585582315922, -0.0010874904692173004, -3.613141075220483e-07, 0.002928124275058508, -3.7884939956711605e-05, 3.916826972272247e-05, 0.0003747334412764758, 2.9418870326480828e-05, -0.00044296879786998034, -0.0005108090699650347, -8.592914673499763e-05, 0.0004886356764473021, -0.0015576366567984223, 0.00026915138005279005, -0.00011260727478656918, 1.683211485214997e-05, 0.00019589115981943905, 0.0014428440481424332, -0.02765105478465557, 6.574246526724892e-06, -2.4044926249189302e-05, -1.6785388652351685e-05, 0.0018587610684335232, 6.888838015584042e-06, -0.00022625764540862292, 0.0002742172800935805, -5.613865141640417e-05, -0.0007576909265480936, 0.001017608679831028, -6.561551708728075e-05, 0.0031686979345977306, -0.0001668495824560523, -0.00014163141895551234, 3.4256550861755386e-05, -0.000313747237669304, 0.0017020710511133075, -0.00012128872913308442, 0.0019068195251747966, 0.0011649944353848696, -0.0005533971125259995, -0.00019122463709209114, 0.0023695442359894514, -0.001003636745736003, 6.0853504692204297e-05, -0.00014595320681110024, -1.799320330064802e-06, 0.00041932574822567403, -0.0005854773335158825, -0.0014493666822090745, 0.0006605172529816628, -0.001758471829816699, 0.00047613706556148827, -2.85846817860147e-05, -0.0004921714426018298, 0.02589980885386467, -0.0002493047504685819, 0.0009121119510382414, -0.0005995622486807406, 0.0009970562532544136, 0.00012670195428654552, -5.829191650263965e-05, 0.008107111789286137, 0.00042804883560165763, -0.001056754612363875, -7.955097680678591e-05, 7.52496498535038e-06, -0.0015315586933866143, 0.0011746780946850777, -0.0021901289001107216, -0.00018942190217785537, -0.0006771520711481571, 0.00022199399245437235, 0.25342848896980286, 7.136210479075089e-05, 0.06859654933214188, -1.3034821677138098e-05, 0.0008028158918023109, 0.00815066508948803, -0.001687914365902543, 0.0005191884702071548, 0.00159516092389822, -0.0006515673594549298, -0.0006746553699485958, -3.707151336129755e-05, 0.07366558909416199, -0.0018522137543186545, -0.0010771718807518482, 0.0008174810791388154, 0.0009029778884723783, -3.181732608936727e-05, -0.00010187198495259508, 2.7671874704537913e-05, -0.0013884974177926779, -0.0005537419347092509, 9.490995580563322e-05, -0.0014668706571683288, 0.00035142104024998844, 0.00013067529653199017, -0.00012291627353988588, 0.002105493564158678, 9.593627328285947e-05, -0.002119964687153697, -8.922352208173834e-06, -5.597207564278506e-05, -0.0016543740639463067], [0.06742680817842484, -0.00025151012232527137, -0.029066072776913643, -0.07778285443782806, -0.09163651615381241, 0.0003869336796924472, -0.07093841582536697, 0.12102700024843216, -0.0002577054256107658, -0.04233316704630852, 9.081593452719972e-05, 0.0012325776042416692, -0.23863525688648224, -0.008111601695418358, 0.03290664032101631, -0.00029351009288802743, 0.03583561256527901, -5.404024341260083e-05, -0.07813721150159836, -0.001276969094760716, 0.0014263616176322103, -0.0004520901129581034, 0.0040128170512616634, 0.0005565909086726606, 0.10087046772241592, -0.0018360037356615067, 0.0002993194793816656, 0.09635017812252045, 0.003733897116035223, 0.004714266862720251, -0.009854195639491081, -0.0016757136909291148, -0.08165261149406433, -0.11719995737075806, -0.0011958121322095394, -0.0030505340546369553, -0.00025539426133036613, -0.09939514845609665, -0.00940729770809412, 0.00014266996004153043, -0.00028481287881731987, -0.008078918792307377, 0.013850812800228596, 0.000842330395244062, 0.0005814656033180654, -0.0009920359589159489, 7.838127930881456e-05, 0.05655136704444885, 0.15437954664230347, 0.09000670164823532, 0.0011908363085240126, -0.0036069529596716166, -0.07323167473077774, -0.0017690823879092932, 0.0009414370870217681, 0.0007149209850467741, -0.11645378917455673, -0.0004010237171314657, 2.7453383154352196e-05, -0.0030805878341197968, -0.0003434328536968678, -0.0005028629093430936, -0.00023116795637179166, 0.08444799482822418, 0.0016160551458597183, 0.10706882178783417, -0.0022187442518770695, 0.019700320437550545, 0.0015363222919404507, 0.06951626390218735, -2.9385237212409265e-05, 0.00019420967146288604, -0.0005787946283817291, -0.00022765644825994968, 0.0007292449590750039, -0.00046124443178996444, -0.01664353720843792, 0.00029416437610052526, -0.0013442974304780364, -0.0010933575686067343, 0.006984096486121416, 0.001289175357669592, 0.008335717022418976, 0.08443546295166016, 0.00046512114931829274, 0.0004596829239744693, 0.00035443957312963903, 0.16325713694095612, -0.0013349629007279873, 0.050160638988018036, 0.00017504692368675023, 0.00014386954717338085, 0.015078172087669373, 0.058973535895347595, -0.08053073287010193, -0.0023778374306857586, 0.028938118368387222, 0.00041816517477855086, -0.0037136615719646215, 0.09490716457366943, 0.06829488277435303, -0.0005267375381663442, -0.0032982814591377974, -0.0355844683945179, -0.001808173838071525, -0.00010992692841682583, 0.006218660157173872, 0.03731371834874153, 0.00028890278190374374, -0.0006543499766848981, 0.15907730162143707, 0.0003630408609751612, 0.0019312622025609016, -0.001871703309006989, 6.318726809695363e-05, -0.0006529735401272774, 0.07650046050548553, 8.457856165478006e-05, -0.0015513888793066144, 0.06441154330968857], [0.07008331269025803, -3.044968082122068e-07, -0.026627447456121445, -0.07711408287286758, -0.17072293162345886, -5.623993274639361e-06, -0.06602030992507935, 0.18215501308441162, 2.6501174943405204e-06, -0.036876972764730453, 4.573229489324149e-06, -9.025097256198933e-07, -0.5431995391845703, -5.6397707339783665e-06, 0.02803380973637104, 1.047128762365901e-06, 0.0340108759701252, 0.0013268738985061646, -0.08027128875255585, 8.027967055568297e-07, 0.006367253139615059, -5.449264222079364e-07, 0.017467042431235313, 4.842664566240273e-06, 0.1589871346950531, 1.302518171542033e-06, 2.2616377464146353e-06, 0.0760359913110733, -6.39333984508994e-06, -1.4116521924734116e-06, -0.028987912461161613, -6.542367145812022e-07, -0.09736471623182297, -0.002858811290934682, -0.005911569576710463, -0.0010834732092916965, 0.00028702698182314634, -0.07743999361991882, -0.019535580649971962, 5.187143301554897e-07, -1.2969071576662827e-06, -0.01980620250105858, 0.0005120207788422704, -3.9020963527036656e-07, -0.0008751532295718789, 5.352149855752941e-06, 7.829416972526815e-07, 0.10889074206352234, 0.3253406286239624, 0.1758846640586853, 0.002731386572122574, -0.0012541029136627913, -0.078849658370018, -3.970629222749267e-06, 0.0006886194460093975, -5.686258077730599e-07, -0.08018510043621063, -1.056164137480664e-06, 1.22030385796279e-07, -0.008833245374262333, 4.812840779777616e-05, 8.573478567086568e-07, -0.00010606263094814494, 0.07312372326850891, 8.982246072264388e-06, 0.0770314410328865, -1.302671262237709e-05, 0.02024921588599682, 2.072915776807349e-06, 0.10321653634309769, 3.572120021999581e-07, -8.758540388953406e-06, 6.968092520764912e-07, 1.1106899364676792e-06, 9.854962854660698e-07, 8.633515790279489e-06, 0.00416678749024868, 1.0482427569513675e-05, 1.4043775991012808e-06, -8.597859846304345e-08, 0.02512454427778721, 2.9032817110419273e-06, -5.0223752623423934e-05, 0.21780851483345032, 2.8174242743261857e-06, 1.2696883686658111e-06, 7.245016604429111e-06, 0.2501513361930847, -2.1177911548875272e-06, 0.007916324771940708, -0.00010116301564266905, -1.967454636542243e-06, 0.00021441244462039322, 0.06811303645372391, -0.2353486865758896, 4.780821200256469e-06, 0.02625373937189579, 2.8561068177168636e-08, -0.016713736578822136, 0.11104682832956314, 0.06933571398258209, -3.1410490919370204e-06, -3.975762228947133e-05, -0.03327079117298126, -9.05361957848072e-06, -4.173453817202244e-06, 0.02137496881186962, 0.04879293963313103, 5.457891347759869e-06, 3.8692837733833585e-07, 0.28218692541122437, -6.384213406818162e-07, 0.007736071478575468, 4.9469345952957156e-08, 1.7722587699608994e-06, 3.866703082167078e-07, 0.08721380680799484, -6.362647127389209e-06, -0.0059266844764351845, 0.06466222554445267], [0.18650634586811066, -0.00036639836616814137, -0.12734386324882507, -0.10789281874895096, -0.17354799807071686, -0.00038442129152826965, -0.1632678359746933, 0.18260906636714935, 0.0008261367911472917, -0.14149485528469086, -0.005510422866791487, 0.0008218850125558674, -0.46575266122817993, -0.007358725182712078, 0.09713125228881836, 0.0013168089790269732, 0.07954723387956619, 0.026133539155125618, -0.19878050684928894, -0.0016600852832198143, 0.06608512252569199, 0.0001632861967664212, 0.0625605434179306, -0.0001626736338948831, 0.1757764220237732, -0.0015382374403998256, -0.02768959477543831, 0.18713057041168213, 8.882187830749899e-05, 0.000428371800808236, -0.05309048295021057, -0.0004554387996904552, -0.09994564950466156, -0.17635099589824677, -0.0507977157831192, -0.0707588940858841, 0.035188719630241394, -0.1383194923400879, -0.05651304870843887, 0.014382235705852509, 0.001135616097599268, -0.048744406551122665, 0.10576654970645905, -0.0009631465072743595, -0.020728811621665955, 3.9678619941696525e-05, -0.0016453089192509651, 0.1580927073955536, 0.15731742978096008, 0.17140980064868927, 0.06930306553840637, -0.06689117103815079, -0.1183105856180191, -0.00308572081848979, 0.0008958333637565374, 0.0010170594323426485, -0.13738355040550232, -0.002427568193525076, 0.0030806248541921377, -0.07752722501754761, 0.007691807579249144, 0.00030071139917708933, -0.05168558284640312, 0.1752975732088089, 0.001575362286530435, 0.18428117036819458, -0.021970055997371674, 0.07553891092538834, 0.0025475742295384407, 0.12726591527462006, 3.4950815461343154e-05, -0.0008048682939261198, -0.00023020881053525954, 0.0005290935514494777, 0.003367707831785083, 0.048403698951005936, 0.07012218981981277, 3.489250593702309e-05, -0.0009355865186080337, 2.133066845999565e-05, 0.04607526957988739, 0.0011933260830119252, 0.030582934617996216, 0.1811404824256897, 0.0031141163781285286, 0.0023160921409726143, 0.0009503860492259264, 0.42432162165641785, -0.005505094304680824, 0.18334190547466278, -0.0069150617346167564, -0.0012958502629771829, 0.05033252388238907, 0.1322316825389862, -0.10736408829689026, -0.001067309407517314, 0.08052956312894821, 0.0004710113862529397, -0.03693309426307678, 0.20466817915439606, 0.11801983416080475, -0.008521229960024357, -0.0304629635065794, -0.11548862606287003, -0.013478155247867107, -0.0002665189385879785, 0.045297011733055115, 0.10867641866207123, 0.0013308128109201789, -0.00015111849643290043, 0.13442370295524597, 0.00039662999915890396, 0.06710530072450638, -0.0011621852172538638, 0.002082838211208582, -0.0025473283603787422, 0.11735914647579193, -0.00897291675209999, -0.062179069966077805, 0.16972443461418152], [-0.002658725017681718, 0.0005622548051178455, 0.001625083270482719, 0.003676174208521843, -0.027332205325365067, 0.0006762857083231211, 0.0022080272901803255, -0.001137414714321494, -0.0017147219041362405, 0.0020318024326115847, 0.0010992606403306127, 0.00213628145866096, -0.6037881374359131, 0.0008398070349358022, -0.002517773536965251, -0.001113827689550817, -0.002497622277587652, 3.159992047585547e-05, 0.005718644242733717, 0.00011568298941710964, -0.0001294970279559493, 0.0004978657234460115, -0.0001285863108932972, -0.00028809861396439373, -0.00019039123435504735, -0.00046860185102559626, 0.0002225902717327699, -0.002934579737484455, 0.0003934570122510195, -0.001325598219409585, 0.0002971416397485882, 0.001814009970985353, 0.0027419468387961388, -0.048529889434576035, -3.985425064456649e-05, -6.046032649464905e-05, 3.435861799516715e-06, 0.00347202830016613, 0.0008707915549166501, 0.000352452538209036, -0.0003130255499854684, 0.0010096945334225893, 0.0175020731985569, -0.00018567689403425902, 0.0007216884405352175, 0.001953545492142439, -0.00010000239126384258, 0.00020388055418152362, -0.0004942454979754984, -8.003267794265412e-06, -0.020811069756746292, 0.0011543622240424156, 0.0035967871081084013, 0.0016696343664079905, -0.0005748572293668985, -0.0006281258538365364, 0.004602894652634859, 0.002556920051574707, -0.00017220113659277558, 0.0007315280381590128, 1.7391557776136324e-05, -0.00021369011665228754, 0.0005904671852476895, -0.0027553203981369734, -0.0008091155323199928, -0.0033903620205819607, -0.0013405316276475787, -5.6583518016850576e-05, -0.0008272634586319327, 0.03818654641509056, -2.749703071458498e-06, 0.0014146438334137201, -0.00020384570234455168, 0.0005429037264548242, -0.0002914303622674197, 0.00021944474428892136, -0.03623932972550392, -0.0006992272683419287, 0.002761324169114232, -9.410508209839463e-05, -0.0001097960994229652, 0.00025717506650835276, -0.009857505559921265, -0.003198100021108985, -0.0027008438482880592, -0.0008257274748757482, -0.00016506967949680984, 0.5628097057342529, 0.002888644812628627, 0.12133301794528961, 6.308042793534696e-05, -0.0007190507603809237, 0.024890711531043053, -0.003196525387465954, 0.0002810436417348683, -0.00045256424346007407, -0.001653724000789225, -0.00122364133130759, 0.0001327188074355945, 0.12155872583389282, -0.003597985953092575, 0.0024580114986747503, -0.005655184853821993, 0.002091124653816223, -0.0005973763763904572, 5.6273394875461236e-05, -0.00034253139165230095, -0.0027941635344177485, 7.175256996561075e-06, -0.00038474262692034245, -0.003057894529774785, 0.0007230644696392119, -0.0005670636310242116, -0.00161676702555269, 0.0008607158670201898, 0.00024234694137703627, -0.004032139200717211, 6.088984082452953e-05, 0.00021811247279401869, -0.003112842794507742], [0.07578129321336746, -1.4753846699022688e-05, -0.024179408326745033, -0.07761353999376297, -0.11089490354061127, 1.5247430383169558e-05, -0.06068240478634834, 0.15198200941085815, 4.973740942659788e-05, -0.03388174623250961, 0.00019124352547805756, 5.119418347021565e-06, -0.5353315472602844, -0.00047871196875348687, 0.025815941393375397, -1.4731346709595527e-05, 0.03253800421953201, 0.00034876042627729475, -0.08377169072628021, -2.4728842618060298e-05, 0.003220584476366639, -2.786821460176725e-05, 0.007776400074362755, 0.00014100184489507228, 0.12184201925992966, -4.737330164061859e-05, 7.097503112163395e-05, 0.07590074092149734, 8.072497439570725e-05, 0.00023852652520872653, -0.016412988305091858, -0.00013812852557748556, -0.06447428464889526, -0.11765743792057037, -0.0025041864719241858, -0.0012564226053655148, 9.469979704590514e-05, -0.06420250236988068, -0.014815564267337322, -1.866601269284729e-05, -2.542899892432615e-05, -0.013822746463119984, 0.005092482082545757, 3.982858106610365e-05, -0.0001211638082168065, 0.00010383254993939772, -1.4535410628013778e-05, 0.07058341056108475, 0.37283849716186523, 0.12370786815881729, -0.0019000378670170903, -0.0012700894149020314, -0.11830753833055496, -6.836589454906061e-05, 3.0365908969542943e-05, 1.857430652307812e-05, -0.0872236117720604, 2.0635678083635867e-05, 9.702429224489606e-07, -0.0051554106175899506, -1.302751752518816e-05, 1.19948890642263e-05, 3.5913857573177665e-05, 0.06768593192100525, 0.00036706848186440766, 0.0768560916185379, -0.00035060016671195626, 0.024577736854553223, 7.899722550064325e-05, 0.10729475319385529, 1.1344863196427468e-05, -0.00016758804849814624, -1.884069570223801e-05, -8.896032340999227e-06, 2.9848753911210224e-05, -1.7179412679979578e-05, -0.0038212158251553774, 0.0003608597908169031, -6.689564906992018e-05, 4.052717940794537e-06, 0.012656603939831257, 0.00013085648242849857, -0.0018911760998889804, 0.14527186751365662, -5.8050623920280486e-05, -1.386327676300425e-05, 0.0002500519622117281, 0.2971154749393463, 2.0829576897085644e-05, 0.02954850159585476, 6.56052316116984e-06, -4.7021653699630406e-06, 0.003539778059348464, 0.06812107563018799, -0.16488970816135406, 9.348494495498016e-05, 0.023978281766176224, 3.694139013532549e-05, -0.0073854755610227585, 0.13220731914043427, 0.07346603274345398, -7.64859578339383e-05, -0.001006791484542191, -0.030078429728746414, -0.00020117896201554686, -0.00012499262811616063, 0.011088277213275433, 0.04737434908747673, 0.00014284474309533834, -3.175797974108718e-05, 0.25328221917152405, -4.497149802773492e-06, 0.0039866226725280285, -7.882955833338201e-05, 1.2554737622849643e-05, 3.647076709967223e-06, 0.12498296797275543, 9.533877346257214e-06, -0.002940188394859433, 0.059118784964084625], [-0.0011554472148418427, -0.0006472825771197677, -0.0001796621800167486, 0.0007583903498016298, -0.0048025003634393215, -0.0001471864088671282, 0.000369625398889184, -0.001038094749674201, 1.0757948075479362e-05, -0.00017911926261149347, -3.0632254492957145e-05, 3.2084873964777216e-05, -0.37164434790611267, -0.0005075184162706137, 0.00031317726825363934, -0.0002006848662858829, 0.0002837333013303578, -1.6526984154552338e-06, 0.0029525530990213156, 3.044020922970958e-05, 1.0115074474015273e-05, -0.0013098189374431968, -2.6515004719840363e-05, 0.00013552022574003786, -0.00042447776650078595, -0.00020735331054311246, -9.684140241006389e-05, -0.0012411401839926839, 0.000796529755461961, -5.47778563486645e-06, 3.2814965379657224e-05, 0.00026217722916044295, 0.0009002689621411264, 0.003952375613152981, 1.7729487353790319e-06, 3.90937457268592e-05, -3.058354195673019e-05, 0.001201038365252316, 8.528207399649546e-05, -0.0004819844616577029, 0.00016522154328413308, 0.00010394331184215844, 0.0026361821219325066, -0.0005109719932079315, -7.655271474504843e-05, 0.00038498142384923995, -1.5831166820134968e-05, -2.1980202291160822e-05, 0.0002957300457637757, -0.00013618097000289708, 0.0006681236554868519, -0.00022889400133863091, 0.0016846811631694436, 0.0004929876886308193, -0.0002085118176182732, 0.00027782152756117284, 0.002352725015953183, 0.00019341122242622077, 2.3917591533972882e-05, 6.31630391580984e-05, -7.286922482308e-06, -5.1523962611099705e-05, 2.661174221429974e-05, -0.0009302551043219864, -0.000541332527063787, -0.0015324917621910572, -0.00046022742753848433, 6.255394964682637e-06, 0.00018890589126385748, 0.00950632430613041, 0.00020203515305183828, -0.0001758664584485814, 0.0008408945286646485, -0.00010340495646232739, -0.00029458579956553876, 5.868250809726305e-05, 0.0033756529446691275, -0.00017501352704130113, -0.00043688033474609256, 0.0006717850337736309, -1.8721548258326948e-05, 0.00010008426761487499, -0.0017163017764687538, -0.00019440472533460706, -7.201143307611346e-05, -0.0005762382643297315, 0.00030905622406862676, 0.3420041799545288, 6.532705447170883e-05, 0.0697660893201828, -6.831816335761687e-06, 0.0005074201035313308, 0.005810480564832687, -0.0011437567882239819, 0.00017816237232182175, 0.0001232231588801369, 0.0002057277160929516, 0.00045813704491592944, 3.323845157865435e-05, 0.09704279899597168, -0.0016162187093868852, -0.00105898582842201, -0.0012332922779023647, -0.00024058186681941152, -0.00029693605029024184, -2.3459660951630212e-05, -5.762830187450163e-05, -0.00027963847969658673, 0.0007785583729855716, -0.0003734751371666789, -0.0003963099734392017, -1.7521611880511045e-05, -2.607410351629369e-05, -0.00023006067203823477, 1.2475224139052443e-05, -6.0093396314186975e-05, -0.0020470027811825275, 1.5800094843143597e-05, -9.815454177442007e-06, -0.000811533653177321], [0.08255179971456528, -2.5034835289261537e-06, -0.03745947405695915, -0.0931483805179596, -0.14759080111980438, 4.100717887922656e-06, -0.0904996395111084, 0.17912805080413818, 2.0016800590383355e-06, -0.04918108507990837, 1.0104605280503165e-05, 1.5849857391003752e-06, -0.4147161841392517, -4.436717426870018e-05, 0.04253356531262398, 1.372783117403742e-05, 0.042703792452812195, 0.0047960951924324036, -0.09538339078426361, 2.3946265628183028e-06, 0.015183881856501102, -4.89295644001686e-08, 0.03261944279074669, 6.740655862813583e-06, 0.15935444831848145, 8.020050699997228e-06, 8.066486770985648e-06, 0.08575822412967682, -1.62734322657343e-05, 3.826890406344319e-06, -0.04760878160595894, 2.459691359035787e-06, -0.07436497509479523, -0.0017041306709870696, -0.01470242626965046, -0.0024341042153537273, 0.0013800025917589664, -0.08830688893795013, -0.03156677633523941, -4.811049620911945e-07, -7.3812511800497305e-06, -0.03044077754020691, 0.001440136693418026, -1.0152224604098592e-05, -0.0022556129842996597, 1.823893398977816e-05, 3.9318128983723e-06, 0.10523220896720886, 0.22489511966705322, 0.1540704369544983, 0.009504488669335842, -0.0025521779898554087, -0.09106481820344925, -2.5681289116619155e-05, 0.0034777040127664804, -2.4742712412262335e-06, -0.10468314588069916, -7.575250947411405e-06, 2.894524186558556e-06, -0.019159654155373573, 0.0003534848801791668, 6.984928972997295e-07, -0.0005055766669102013, 0.09137513488531113, 2.354031130380463e-05, 0.0927087813615799, -2.6063511540996842e-05, 0.05108010396361351, 8.92696243681712e-06, 0.14104875922203064, 1.3135083918314194e-06, -2.700112781894859e-05, 2.257393589388812e-06, 7.410999842250021e-06, -7.772458957333583e-06, 0.00017013878095895052, 0.004246504511684179, 2.5086108507821336e-05, 2.8873810151708312e-06, 5.321805019775638e-06, 0.04310549050569534, 6.315578957583057e-06, -0.0001376080181216821, 0.1419740468263626, 1.994391823245678e-05, 8.511297892255243e-06, 1.8128346710000187e-05, 0.20593035221099854, -1.3243603461887687e-05, 0.014685594476759434, -0.000645655149128288, -1.0424316315038595e-05, 0.0006033566314727068, 0.08108067512512207, -0.1632857471704483, 7.6198557508178055e-06, 0.038984764367341995, -2.5971528430090984e-06, -0.03196500241756439, 0.1169029250741005, 0.08277150243520737, -2.9664759040315403e-06, -8.093241194728762e-05, -0.04549264907836914, -2.1120780729688704e-05, -8.575441825087182e-06, 0.03797554597258568, 0.06253538280725479, 1.0578040019026957e-05, 4.043569788336754e-06, 0.21669815480709076, -4.804226705346082e-07, 0.016970904543995857, -4.171475211478537e-06, 4.0817781155055854e-06, 3.6235055631550495e-06, 0.14719098806381226, -8.301562047563493e-05, -0.014087080024182796, 0.0733380913734436], [-0.0019763356540352106, 0.0013925659004598856, -2.4927687263698317e-05, 0.002495014341548085, -0.020245788618922234, -4.267820986569859e-05, 0.0012167489621788263, -0.002251561265438795, -0.0006100502796471119, 0.00047200999688357115, 0.00027992489049211144, 0.0003963885537814349, -0.3369796872138977, 0.0006582518108189106, -0.00032246907358057797, 0.000595599936787039, -5.323008736013435e-05, -7.952141459099948e-06, 0.003967690281569958, 0.00013014122669119388, -2.014894926105626e-05, 6.0306749219307676e-05, -2.9996363082318567e-05, -3.0293338568299077e-05, -0.001105676987208426, 0.0038958995137363672, -0.0002513780491426587, -0.0021923279855400324, 0.001078000757843256, 0.002285719383507967, -0.00010466398816788569, 0.0006696286145597696, 0.0016431381227448583, -0.04266967996954918, -1.2082079592801165e-05, 0.00010400560131529346, -5.828008579555899e-05, 0.00260736932978034, -0.00018486901535652578, -1.607017475180328e-05, -0.00044036394683644176, -8.647295908303931e-05, 0.0007440718472935259, -0.0010114316828548908, 0.00022384151816368103, 0.0006421730504371226, 1.3752965969615616e-05, -0.000297695369226858, 0.00038664485327899456, -0.0006472450331784785, 0.009023468941450119, 0.0001695575047051534, 0.002690889872610569, -0.00023292638070415705, -0.0022939343471080065, -0.0009461833396926522, 0.003207558998838067, 0.0005220934399403632, -9.672267333371565e-05, -7.494489545933902e-05, 1.4668641597381793e-05, -0.002261518035084009, 0.001165268593467772, -0.0018758246442303061, 0.0014198762364685535, -0.0024923046585172415, 0.0005680870381183922, 4.558481123240199e-06, -0.000271316064754501, 0.033086806535720825, 1.652804530749563e-05, 0.001235092873685062, 0.00030905951280146837, -0.00108806521166116, 0.00014279189053922892, 8.126431202981621e-05, 0.006529668811708689, 0.0010543925454840064, 0.00033980028820224106, 0.0024230717681348324, 1.0778554496937431e-05, 0.002367159118875861, 0.006424060557037592, -0.0020087214652448893, -0.00033669424010440707, 0.0017388976411893964, -0.00013314661919139326, 0.3320196270942688, 3.349470034663682e-06, 0.09859335422515869, 7.16744179953821e-05, 0.0009189027477987111, 0.02395959198474884, -0.0023419165518134832, -6.724345439579338e-05, -0.0009506453643552959, 0.00010298038978362456, 0.000790586112998426, 3.080191163462587e-05, 0.1038833037018776, -0.002653005300089717, -0.00017166492762044072, -0.0009637837065383792, 0.00028323527658358216, 0.00035769003443419933, 0.002130219480022788, 4.4150190660730004e-05, -0.001528848079033196, 0.0008920577820390463, 0.00070844532456249, -0.0027133680414408445, 0.0011530837509781122, -9.185891394736245e-05, -0.000916150223929435, 0.0005890738684684038, -9.10002927412279e-05, -0.0029545247089117765, -3.679236033349298e-05, 5.7753950386540964e-05, -0.002212625928223133], [-0.00011366845137672499, 0.0002786330587696284, 0.0001230602356372401, 0.0001609775354154408, 0.0027802963741123676, -0.0004301968729123473, 0.00017664793995209038, 0.00029616738902404904, 0.0001141626707976684, 0.00018131085380446166, 0.00021993006521370262, 0.001595247071236372, -0.021939098834991455, 0.00012146685185143724, -0.0002452688931953162, 0.0007212514174170792, -0.00015834125224500895, -9.976102774089668e-06, 0.0002731663698796183, -7.49866958358325e-05, -3.06218680634629e-05, 0.0005052054766565561, -2.7387164664105512e-05, 0.0004917411715723574, 0.00017810476128943264, 0.000778579618781805, 0.00027971595409326255, -0.00012593111023306847, -0.0003279843367636204, -0.0010478895856067538, 5.930468250880949e-05, 0.0001220347112393938, 0.00020714652782771736, -0.008605028502643108, -3.6232829643267905e-06, 7.294199895113707e-05, -2.888581730076112e-05, 0.00015517117572017014, 0.00021856937382835895, 7.838987949071452e-05, -1.3902218597650062e-05, 0.000274248217465356, 0.001060777809470892, -0.0006207633414305747, 9.715071792015806e-05, 0.00040829036151990294, 0.000509441364556551, -0.00011072702909586951, 0.00022992496087681502, 6.138848402770236e-05, -6.008757554809563e-05, 1.6489371773786843e-05, 0.00017695016867946833, 0.00023708339722361416, 0.000166754936799407, 1.222565242642304e-05, 0.00022327979968395084, -0.0001201966661028564, 0.00011399527284083888, 0.00014002628449816257, -3.386800381122157e-05, 5.402072565630078e-05, 0.00020141150162089616, -0.00012605298252310604, 0.0016588799189776182, -0.00015579137834720314, -6.481819582404569e-05, -3.795149268626119e-06, 0.0018624281510710716, 0.002911442192271352, -4.1715129555086605e-06, -0.001860256539657712, -1.164679451903794e-05, 0.00022162114328239113, 6.924220360815525e-05, -4.321538290241733e-05, 0.0024955500848591328, 0.0017076678341254592, -0.0003500980674289167, 0.00041137865628115833, -3.0170542231644504e-05, 0.00035402533831074834, 0.007979122921824455, 6.239266076590866e-05, -0.00034461956238374114, 0.0007835745927877724, 0.0011526993475854397, 0.019356656819581985, -3.1004736229078844e-05, 0.002536725951358676, 8.04722003522329e-05, -0.0007545518456026912, 0.006931427866220474, -0.0001288907660637051, 0.00014634020044468343, -0.0008097681566141546, -0.00010096334153786302, -0.00013580539962276816, 2.9827686375938356e-05, 0.004751868546009064, -0.0001483210508013144, -0.0001054819585988298, -0.0005099676782265306, 0.00019202707335352898, -8.311585406772792e-05, -0.0012076642597094178, -8.796469774097204e-05, -0.00020927410514559597, 0.000506495765876025, 0.00013066675455775112, 0.00016452523414045572, 0.00019076489843428135, -0.00015407471801154315, -0.0001196556186187081, -0.0005116895190440118, -0.00010641907283570617, -0.00020433928875718266, -6.251288141356781e-05, 4.573333353619091e-05, -0.0001309336512349546], [-0.002441610209643841, 0.002507453318685293, 0.0004475323366932571, 0.003226698376238346, -0.02758825197815895, -0.0004759791190735996, 0.0018840571865439415, -0.0015163415810093284, 0.0009405091404914856, 0.0012910087825730443, 0.0007158045773394406, 7.661336712772027e-05, -0.4255179762840271, -0.004341722931712866, -0.0011417836649343371, 0.0008321728673763573, -0.0013835433637723327, 8.017421350814402e-06, 0.004909496288746595, -0.00021729859872721136, 2.173733082599938e-05, -0.0002147253107978031, 3.662083690869622e-05, 0.0015822048299014568, -0.0007137006032280624, 0.0009547704248689115, 0.000923859653994441, -0.0026955734938383102, 0.0003353114007040858, -0.00011363914381945506, -6.989987741690129e-05, -0.0014925390714779496, 0.002576344646513462, -0.0012242314405739307, -1.795782009139657e-05, -5.206087280384963e-06, -4.6030832891119644e-05, 0.003200746141374111, -0.00017964266589842737, 0.00071770726935938, 0.0014695731224492192, -0.00023646328190807253, -0.0023317548912018538, -0.0006481144810095429, 0.00045815896010026336, -0.0019442046759650111, -6.98482253937982e-05, 6.136900537967449e-06, -0.00029757851734757423, -0.00011440784874139354, -0.00922698900103569, 9.968832728191046e-07, 0.0032575558871030807, 0.0006874512182548642, 3.509938687784597e-05, -0.00039161299355328083, 0.0039782654494047165, 0.0006820870330557227, 7.932003063615412e-05, -1.5315641576307826e-05, -1.8623665027917014e-06, -0.00047645377344451845, 3.765025394386612e-05, -0.002520774956792593, -0.000980645650997758, -0.003042966593056917, 0.000538198568392545, 3.82516227546148e-05, 0.0013459466863423586, 0.01950051449239254, 0.0002121308061759919, 9.11564529815223e-06, -5.581239747698419e-06, 0.002027965849265456, 0.00040547517710365355, -0.00020234036492183805, -0.03864336013793945, 0.0017106416635215282, 0.00084196642274037, -0.0013230065815150738, 3.433061283431016e-05, -0.0009211386204697192, 2.5438901502639055e-05, -0.0018202302744612098, -3.748484596144408e-05, 0.001307551166974008, 0.0009310741443186998, 0.4208481013774872, 0.0009502472821623087, 0.10790769010782242, 3.7866113416384906e-05, 0.0024955803528428078, 0.005019002594053745, -0.0029181726276874542, -0.0004169127205386758, -0.000999488984234631, -0.0006216010660864413, 0.0003573646245058626, -6.146383384475484e-05, 0.12254571169614792, -0.0032518801745027304, -0.00013549724826589227, 0.0011619821889325976, 0.0009426854667253792, -2.31325211643707e-05, 0.0017861768137663603, 8.550677739549428e-05, -0.0022778005804866552, 0.0015431405045092106, 0.0013509378768503666, -0.0020569083280861378, -0.001336540561169386, -1.4860981536912732e-05, 0.00138769147451967, -4.030342461192049e-05, -5.689641329809092e-05, -0.0035943291150033474, 4.146317587583326e-05, 3.5849261621478945e-05, -0.002777129877358675], [-0.00020874300389550626, 0.0002748945262283087, 0.0009642554796300828, 0.0004981447127647698, 0.0008859159424901009, -0.00021864908921997994, 0.00038251333171501756, 2.731522181420587e-05, 0.0001730370568111539, 0.0002529381599742919, 0.00020860419317614287, 0.0012640705099329352, -0.0901523306965828, 0.0004624493303708732, -0.0003695909399539232, 9.15968485060148e-05, -0.00019536961917765439, -2.076531700367923e-06, 0.0002784547978080809, -1.8650185666047037e-05, -0.0002756924368441105, 0.00019648407760541886, -3.0866609449731186e-05, -0.0003930837847292423, 6.41551105218241e-06, 0.0015130293322727084, -8.522893040208146e-05, -0.00016097677871584892, -8.042877016123384e-05, -0.0010155863128602505, 8.091922791209072e-05, 0.0001432001154171303, 7.61324554332532e-05, -0.013806832022964954, -3.3887192785186926e-06, -8.401048035011627e-07, -3.539245153660886e-05, 0.00037699099630117416, 8.208920917240903e-05, 0.00037432563840411603, -0.00036338757490739226, 0.00012305327982176095, 0.0025397727731615305, -0.0009390860213898122, 8.487787272315472e-05, 0.0008005747804418206, 0.0002929334877990186, -0.00014952047786209732, 2.9323400667635724e-05, -0.00014777129399590194, -0.0004362741601653397, -7.058301707729697e-05, 0.00011226661445107311, 0.00044789095409214497, -0.00021573886624537408, -3.0679049814352766e-05, 7.67044912208803e-05, -3.872310844599269e-05, 1.929034806380514e-05, 0.00030223699286580086, 3.833002119790763e-05, -0.00016491182032041252, -8.094571967376396e-06, -0.00020872782624792308, 0.0008829040452837944, -0.00011714826541719958, -0.00012508066720329225, -2.029171446338296e-05, 0.00033413677010685205, -7.958812784636393e-05, 5.698606764781289e-05, -0.0014535551890730858, 0.0005638782749883831, 0.00022262705897446722, 0.00013480210327543318, -2.5028632080648094e-05, -0.002090014982968569, 0.0015915301628410816, -0.00014225095219444484, -0.0006863336311653256, -2.6112884370377287e-05, 0.00042447439045645297, 0.004836503881961107, -0.00015719646762590855, -4.5790646254317835e-05, 0.000648738699965179, 0.0013567053247243166, 0.08157651126384735, -0.0001687946351012215, 0.0013228660682216287, 4.5170399971539155e-05, -0.00026295296265743673, 0.005930610001087189, -0.0003989791148342192, 0.000187833487871103, -0.0005539142875932157, -0.00021096676937304437, -0.00027704183594323695, 3.213600575691089e-05, 0.0030804716516286135, -0.00025134615134447813, -0.000298711791401729, -0.0001330990344285965, 0.00018709972209762782, -5.5320320825558156e-05, -0.00039507035398855805, -8.713108400115743e-05, -0.0004168629238847643, -0.0004040036001242697, -0.00022711737256031483, 0.00012874345702584833, -5.139561835676432e-06, -0.0005456545040942729, 0.00040285332943312824, -0.0004046338435728103, -6.988354289205745e-05, -7.693671068409458e-05, -9.763648449734319e-06, 0.0002581609587650746, -0.00027007938479073346], [0.11956626921892166, -0.0001878302136901766, -0.12197908014059067, -0.17309299111366272, -0.1150386705994606, -8.304181392304599e-05, -0.10441912710666656, 0.13063281774520874, 0.0006396663375198841, -0.09255414456129074, -0.001955136191099882, 0.000524271687027067, -0.5505236387252808, -0.0045296140015125275, 0.09482114017009735, 0.0007964293472468853, 0.13312439620494843, 0.0326535701751709, -0.19561578333377838, -0.0010348005453124642, 0.06908495724201202, 0.00010839539754670113, 0.047980569303035736, -0.00016540697833988816, 0.11678154021501541, -0.000998134259134531, -0.017784563824534416, 0.1920643001794815, 0.0002230165700893849, 7.719230779912323e-05, -0.0973949059844017, -0.00027107421192340553, -0.1726704239845276, -0.13940900564193726, -0.05809565633535385, -0.055330559611320496, 0.035117439925670624, -0.19624225795269012, -0.08173780888319016, 0.00439468352124095, 0.0006755085778422654, -0.07414461672306061, 0.0648258700966835, -0.0005741537897847593, -0.023226842284202576, 9.469796350458637e-05, -0.0009103277116082609, 0.10356518626213074, 0.16123872995376587, 0.11658501625061035, 0.08135384321212769, -0.06528041511774063, -0.12118944525718689, -0.0019595071207731962, 0.0026379642076790333, 0.0006055737612769008, -0.2049151062965393, -0.0015268692513927817, 0.0034695318900048733, -0.08030668646097183, 0.014162997715175152, 0.0001883035438368097, -0.06011638790369034, 0.11278849095106125, 0.0010574118932709098, 0.18434080481529236, -0.012365379370748997, 0.12453833222389221, 0.001543813501484692, 0.12718108296394348, 1.4509885659208521e-05, -0.0003611165448091924, -9.184253576677293e-05, 0.00030529554351232946, 0.0004981855163350701, 0.04026506841182709, 0.06590090692043304, -3.470628507784568e-05, -0.00038294040132313967, -2.227230197604513e-06, 0.056137558072805405, 0.0006920009618625045, 0.01751386933028698, 0.12906429171562195, 0.001911186845973134, 0.0014439210062846541, 0.0005921631818637252, 0.4921512305736542, -0.0036331729497760534, 0.18527640402317047, -0.015548854134976864, -0.000763530086260289, 0.03013453632593155, 0.1855694204568863, -0.12032686918973923, -0.0006431567599065602, 0.13134507834911346, 0.0002767405239865184, -0.07319499552249908, 0.23170310258865356, 0.19236379861831665, -0.002715254435315728, -0.0186918992549181, -0.13663913309574127, -0.008315319195389748, -0.00023112200142350048, 0.05744870752096176, 0.16765066981315613, 0.0008646363858133554, -8.150242501869798e-05, 0.16153106093406677, 0.0002533009392209351, 0.07181969285011292, -0.0009817688260227442, 0.0005560931749641895, -0.0016375763807445765, 0.1983795315027237, -0.008562371134757996, -0.06661561131477356, 0.12561479210853577], [-0.00026260275626555085, -0.0006758722593076527, -6.393618150468683e-06, -8.938900464272592e-06, -0.0013761752052232623, -0.000369531218893826, 0.0001292685919906944, 8.114663796732202e-05, -3.186691174050793e-05, 0.00015478732530027628, 3.9472208300139755e-05, 0.0005746368551626801, -0.2049895077943802, 0.0008618917199783027, 3.492144969641231e-05, 0.0009367975872009993, -0.00034588357084430754, 1.5672940207878128e-06, 9.073892215383239e-06, 0.0001102755413739942, 1.78284080902813e-05, -0.00018161648768000305, 9.348267667519394e-06, 0.0007881354540586472, -0.0002355291653657332, 0.0018970405217260122, 4.1984418203355744e-05, -0.0001784629566827789, -0.0008945885929279029, -0.00017654630937613547, -7.078454473230522e-06, -0.0004952313611283898, -0.00015091028762981296, -0.02465226873755455, -2.691008376132231e-06, -3.852963345707394e-05, -1.3025271982769482e-05, -0.00018502937746234238, 8.424922998528928e-05, 0.00012058200081810355, -0.0006171386921778321, 0.00014595275570172817, 0.0019139028154313564, 0.00016087546828202903, 9.523009794065729e-06, 1.436496495443862e-05, -2.697877243917901e-05, -6.246707198442891e-05, -1.6656151274219155e-05, 9.537496225675568e-05, -0.0024925139732658863, -5.6165416026487947e-05, 4.022363282274455e-05, 0.0016888990066945553, -0.00029876112239435315, -0.0005426835268735886, -8.941268606577069e-05, -0.001512911869212985, 4.821794937015511e-05, -1.3254019904707093e-05, -3.998582542408258e-06, 0.0010060524800792336, -0.00025901859044097364, -2.337944897590205e-05, 0.001456555793993175, -8.483554847771302e-05, -0.00015490257646888494, 5.0369806558592245e-05, -0.00025070097763091326, 0.0013680431293323636, 0.00017395996837876737, -0.0001686277100816369, -0.00021838264365214854, -0.001164942397736013, -5.2040599257452413e-05, -3.89176893804688e-05, -0.0019442779012024403, 0.0012353493366390467, 0.00017488730372861028, -0.001209298032335937, -2.356669028813485e-06, 0.0002205752971349284, -0.0002769407001323998, -0.00012649489508476108, -0.000934802636038512, -0.0015437291003763676, -0.0020929244346916676, 0.18812721967697144, 0.0006099789752624929, 0.021826792508363724, -8.158203854691237e-05, -0.0004833639832213521, -0.0001312558160861954, 3.0218425308703445e-05, 0.001305507030338049, -0.0005210312083363533, 8.627204806543887e-05, 0.0006881638546474278, -1.560125019750558e-05, 0.02625463902950287, -6.536118598887697e-05, -8.324515511048958e-05, 1.186492318083765e-05, -0.00011391400039428845, -0.00015212167636491358, -0.0033190452959388494, 1.830788460210897e-05, -0.00024162927002180368, 5.804718966828659e-05, 0.0006035202532075346, -6.139095057733357e-05, -0.000775821739807725, -5.055687506683171e-05, 4.687400360126048e-05, -0.00013643220881931484, -1.7298636521445587e-05, -0.00011005272244801745, -3.26716763083823e-05, -3.2275286230287747e-06, 0.00012159843026893213], [-0.0010535340989008546, 0.00035311325336806476, 0.00013848031812813133, 0.001186859211884439, -0.004435758572071791, 0.0003821704303845763, 0.0006945037166588008, -0.0010226021986454725, 0.0025423855986446142, 0.0004928495036438107, 0.0009109111852012575, 0.00293008447624743, -0.237983837723732, -0.0026429519057273865, -0.0004582660039886832, -0.00017046478751581162, -0.0006717765936627984, -1.7975286255023093e-06, 0.0022882171906530857, 0.00019157605129294097, -4.375062417238951e-05, -0.0002341770159546286, 8.00884299678728e-06, 0.0011704665375873446, -0.00048778444761410356, -0.00043077307054772973, 0.0010607370641082525, -0.0011416241759434342, -0.00130797631572932, -0.0002889853494707495, -6.5880499278136995e-06, 0.000890827679540962, 0.001119938911870122, -0.024915115907788277, -6.501532880065497e-06, 0.00028628832660615444, -7.186553375504445e-06, 0.001277949078939855, 2.5381532395840622e-05, 0.0015535331331193447, 0.0007088838028721511, 6.047427450539544e-05, -0.0009683160460554063, 3.702581307152286e-05, 0.000304877117741853, 0.0010275945533066988, -0.00027462010621093214, -3.493788972264156e-05, 2.379153374931775e-05, -0.00029503944097086787, -0.007373083382844925, 0.000168424507137388, 0.001424019574187696, 0.0008042642148211598, -0.0005838521174155176, 1.5256064216373488e-05, 0.0018267763080075383, -0.0005112207145430148, 0.0001342058094451204, 0.0002916805387940258, -4.242090199113591e-06, 0.0010350934462621808, 0.0020495355129241943, -0.001030381303280592, 0.0017076763324439526, -0.0012867938494309783, -0.0011876370990648866, -1.183959398076695e-06, -0.0003324946155771613, 0.003306357655674219, -0.00036156675196252763, -0.003164107445627451, -0.0003408652264624834, 0.0018701627850532532, 0.0005578831187449396, -0.0001367940567433834, 0.005124875344336033, 0.0023442907258868217, -0.0006619816413149238, 9.333546040579677e-05, 9.219411367666908e-06, 0.000337461126036942, 0.02507147751748562, -0.0010819023009389639, -0.0004833125276491046, 0.00025239065871573985, 0.0007744567119516432, 0.12104175239801407, 0.0010918719926849008, 0.030368460342288017, 5.286434316076338e-05, 0.0003691216406878084, 0.020970284938812256, -0.001161921420134604, 0.0005418892251327634, -0.0007241778657771647, -0.000345709704561159, -2.0100751498830505e-06, -9.409171070728917e-06, 0.002209101803600788, -0.0013842915650457144, 0.003686116309836507, -0.004583232570439577, 0.0003211100702174008, -0.0002629837836138904, 0.0025812131352722645, -9.576473530614749e-06, -0.000835335289593786, 0.00020864428370259702, 0.0009632809087634087, -0.0016494020819664001, 0.000362982478691265, -0.0002336837787879631, 9.512456017546356e-05, -0.0004270238277968019, 4.399076715344563e-05, -0.001627439633011818, 1.643121322558727e-05, 7.500824722228572e-05, -0.0009965155040845275], [0.07743235677480698, -7.712798833381385e-06, -0.033049456775188446, -0.08605971932411194, -0.13726498186588287, 2.353294075874146e-05, -0.07672924548387527, 0.18538683652877808, 4.121208348806249e-06, -0.04313619062304497, 3.2159729016711935e-05, 1.6151436284417287e-05, -0.3832606077194214, -0.00018500463920645416, 0.03723534941673279, 3.0288007110357285e-05, 0.03723982721567154, 0.002445853315293789, -0.09116590768098831, -7.292099326150492e-06, 0.010875754058361053, -8.115463970170822e-06, 0.021972380578517914, 2.101861173287034e-05, 0.15930046141147614, 3.1799465887161205e-06, 2.0569917978718877e-05, 0.12240112572908401, 1.0791183058245224e-06, 3.526133514242247e-05, -0.036344122141599655, -1.1251337127760053e-05, -0.0702151358127594, -0.05936775729060173, -0.009330559521913528, -0.003738448955118656, 0.0009204474044963717, -0.08759094774723053, -0.02321978099644184, -2.797814886434935e-06, -1.8678276319405995e-05, -0.02186042256653309, 0.0027023109141737223, -1.5772720871609636e-05, -0.0018567038932815194, 3.756978185265325e-05, 8.6127965914784e-06, 0.09857160598039627, 0.20751681923866272, 0.15067479014396667, 0.009216965176165104, -0.0036440121475607157, -0.09335678070783615, -7.709745113970712e-05, 0.0005267429514788091, 1.2849550330429338e-06, -0.08891671150922775, -2.7090794901596382e-05, -3.97860077328005e-07, -0.014624537900090218, 0.0001422496570739895, 2.192698275393923e-06, -0.0007116625783964992, 0.08086352795362473, 8.002751565072685e-05, 0.08855307102203369, -7.282714796019718e-05, 0.045877743512392044, 3.58183569915127e-05, 0.09311171621084213, 2.95851668852265e-06, -6.389636837411672e-05, -1.067633547791047e-06, 1.4230114175006747e-05, 8.41580367705319e-06, 0.0003612868604250252, 0.0029788680840283632, 7.193930650828406e-05, -9.37552613322623e-06, -2.644721348588064e-07, 0.030659276992082596, 1.680185232544318e-05, -0.00018016851390711963, 0.13009878993034363, 4.6845882025081664e-05, 2.657957884366624e-05, 5.139472705195658e-05, 0.25608116388320923, -3.9742652006680146e-05, 0.030945269390940666, -0.00024375662906095386, -2.2994754544924945e-05, 0.00164172297809273, 0.07783357053995132, -0.12969401478767395, -7.763672442706593e-07, 0.032496944069862366, 1.2964152347194613e-06, -0.02190825156867504, 0.12019795179367065, 0.08064892143011093, -7.002724032645347e-06, -0.00021685402316506952, -0.040237508714199066, -6.567361560883e-05, -2.43402027990669e-05, 0.027632761746644974, 0.057268112897872925, 3.1948879041010514e-05, 1.8416129705656203e-06, 0.23568668961524963, -5.194559889787342e-06, 0.012276857160031796, -2.821166708599776e-05, 9.233521268470213e-06, -3.766523377635167e-06, 0.09905004501342773, -2.7717725970433094e-05, -0.0098290229216218, 0.07956283539533615], [-0.001122018089517951, 0.0018668151460587978, -7.018539326963946e-05, 0.001149662071838975, -0.008924254216253757, -0.0008207465289160609, 0.0005916773807257414, -0.00042412179755046964, 0.0006986782536841929, 0.00015102379256859422, 0.00019540854555089027, 0.00029871053993701935, -0.3094543218612671, 0.0011581170838326216, -3.3314772736048326e-06, -0.0007141671958379447, -3.893554458045401e-05, -5.215470537223155e-06, 0.002632990712299943, -9.543121268507093e-05, -4.5291260903468356e-05, 0.00029154890216886997, -1.3804083209834062e-05, -0.0002792217128444463, -0.00031410553492605686, 0.00043300690595060587, -0.0008404206018894911, -0.0012312013423070312, 0.0004533081955742091, 0.0001512073795311153, -3.905864286934957e-05, 0.002616461832076311, 0.0009116894216276705, -0.0201728455722332, -1.03932825368247e-05, -6.1218506743898615e-06, -8.265998985734768e-06, 0.0013495193561539054, -7.458845357177779e-05, -0.000568552000913769, -0.00011794333113357425, -5.270929614198394e-05, -0.0007762647583149374, 0.0006828854093328118, 0.000237797707086429, -0.0001861060009105131, 1.4933304555597715e-05, 1.619331851543393e-05, 3.987911986769177e-05, -0.00018465041648596525, -0.003552899230271578, 0.00012440291175153106, 0.0015879077836871147, -5.539605626836419e-05, 0.0007841713377274573, 0.00034251672332175076, 0.0021249335259199142, 0.0007452100398950279, -2.1709996872232296e-05, 0.0001041556170093827, 4.082724899490131e-06, 0.00027962421881966293, 0.0007972937892191112, -0.0009939545998349786, -0.0005589663633145392, -0.0014764937805011868, -0.0003831750073004514, 9.615382623451296e-06, -0.0006622528308071196, 0.012578830122947693, -0.00015972831170074642, -0.0006813983200117946, -0.0019668680615723133, 3.267236752435565e-05, 0.0002915313234552741, 7.156560604926199e-05, -0.002155926777049899, -0.00109529634937644, -0.0006402507424354553, -0.0003602997458074242, 7.571519290650031e-06, -0.0019157927017658949, -0.0006225338438525796, -0.0011629858054220676, -0.001852612942457199, -0.00024355154891964048, -0.0007527873967774212, 0.2679626941680908, 0.0009196320315822959, 0.030601417645812035, 1.671287463977933e-06, 0.0016367414500564337, 0.016004733741283417, -0.0012401329586282372, 0.0004327106289565563, 0.0009086380014196038, 8.073914068518206e-05, 0.0006744283018633723, 1.7448930520913564e-05, 0.04907647892832756, -0.0015647931722924113, 0.00043201394146308303, -0.001995624275878072, 4.783269832842052e-05, -1.8383470887783915e-05, -4.423061909619719e-05, 8.95800349098863e-06, -0.0006604279624298215, 0.00044036400504410267, 0.00047313020331785083, 5.444921043817885e-05, 0.0004865968367084861, -0.0001270177453989163, -9.281544771511108e-05, 0.0009970442624762654, 