{"model_data": {"model": "SimpleRNN", "input_size": 1, "skip": 1, "output_size": 1, "unit_type": "LSTM", "num_layers": 1, "hidden_size": 40, "bias_fl": true}, "state_dict": {"rec.weight_ih_l0": [[0.08059646934270859], [0.0957050621509552], [-0.021023154258728027], [0.02806180529296398], [-0.015467642806470394], [-0.026430997997522354], [-0.02927662804722786], [0.18637914955615997], [0.0016259526601061225], [0.013684612698853016], [0.0023318494204431772], [-0.007633677683770657], [-0.06428277492523193], [0.010496968403458595], [-0.03871341422200203], [0.3886639177799225], [0.20903527736663818], [0.17611971497535706], [0.08336322754621506], [-0.0302004162222147], [-0.14139100909233093], [0.009202289395034313], [0.05015086382627487], [0.12639816105365753], [0.0063684298656880856], [0.021232768893241882], [0.06463143229484558], [0.007423459552228451], [0.38996222615242004], [0.06492628902196884], [-0.03484316170215607], [-0.18301452696323395], [-0.04320478439331055], [-0.0025983680970966816], [-0.029385235160589218], [0.03778909146785736], [0.1133495345711708], [-0.009146620519459248], [0.10942583531141281], [0.2617436647415161], [0.038499582558870316], [-0.37148475646972656], [-0.021604305133223534], [0.4141128361225128], [0.002929996233433485], [0.11106018722057343], [-0.020299000665545464], [0.30229073762893677], [-0.1362164467573166], [0.008027249947190285], [-0.4680665135383606], [-0.008126326836645603], [-0.026609359309077263], [-0.0034000761806964874], [0.03394661843776703], [0.8838836550712585], [-2.0938615798950195], [0.7682438492774963], [-0.11583860963582993], [-0.020308688282966614], [-0.04332202672958374], [-0.004195024725049734], [0.04647992178797722], [-1.6252774000167847], [0.003995711449533701], [0.013648072257637978], [0.007238069549202919], [-0.005639765877276659], [0.2658189535140991], [0.030791671946644783], [-0.03261081501841545], [-0.6669037342071533], [0.04174710065126419], [-0.0065066516399383545], [-0.10726364701986313], [0.027301551774144173], [-0.16581492125988007], [0.13112202286720276], [0.006537747569382191], [0.28480327129364014], [0.024003470316529274], [-1.068089485168457], [-0.9096177220344543], [-0.5608265995979309], [0.39325693249702454], [-0.5149661898612976], [0.1616680771112442], [0.7433931827545166], [-0.6851471066474915], [-0.019358277320861816], [-0.39138150215148926], [0.12934137880802155], [0.6717464327812195], [-0.36735349893569946], [-0.40919172763824463], [0.5231561660766602], [0.8322936296463013], [0.5085585117340088], [-0.10204119235277176], [0.7909232974052429], [1.1348559856414795], [0.09595300257205963], [0.16491803526878357], [-0.8244456052780151], [-0.07401884347200394], [0.14192594587802887], [-0.28389522433280945], [-0.15751002728939056], [0.9255295395851135], [-0.010924492962658405], [0.6723441481590271], [0.6525160670280457], [0.3891417384147644], [0.06383654475212097], [-0.40886443853378296], [0.03992633894085884], [-0.3035065829753876], [0.8714950084686279], [0.3264361023902893], [0.039125148206949234], [0.07917623221874237], [-0.018961548805236816], [-0.1938123106956482], [0.16241057217121124], [-0.026662403717637062], [0.03361466899514198], [-0.01334297563880682], [0.33665692806243896], [0.055954594165086746], [0.002352230018004775], [-0.27546194195747375], [-0.0109148770570755], [0.024825775995850563], [0.04515153542160988], [-0.22100219130516052], [0.639760434627533], [-0.8016165494918823], [0.6166940927505493], [-0.18234768509864807], [-0.035328954458236694], [-0.22184979915618896], [0.010484176687896252], [0.169186532497406], [-1.7127301692962646], [0.03543193265795708], [0.02562299370765686], [0.042267125099897385], [0.00012302723189350218], [1.971758246421814], [0.10521599650382996], [-0.012760158628225327], [-0.5720365643501282], [0.0017696983413770795], [-0.050705406814813614], [-0.10960397124290466], [0.03514760732650757], [-0.06564871221780777], [0.2650052011013031], [0.22454114258289337], [1.5194156169891357]], "rec.weight_hh_l0": [[0.02448304370045662, -0.06608007103204727, 0.0031594245228916407, -0.006720011122524738, -0.013487877324223518, -0.05701066926121712, 0.0014458487275987864, 0.020252563059329987, -0.07254892587661743, 0.013188629411160946, -0.04215916991233826, -0.0030797081999480724, -0.01596676930785179, -0.0071596065536141396, -0.09368829429149628, 0.08248414099216461, 0.0334816537797451, 0.1420125663280487, 0.0195736363530159, -0.0030269771814346313, 0.009973573498427868, 0.0032694858964532614, 0.01786961778998375, -0.15757307410240173, -0.010131065733730793, -0.013383551500737667, -0.01407751813530922, -0.0016484344378113747, -0.18326954543590546, -0.0071173436008393764, 0.0012500121956691146, 0.14835193753242493, 0.053371232002973557, -0.012626150622963905, -0.0008306301897391677, 0.01941848173737526, 0.0030646997038275003, -0.00798050221055746, -0.02161702699959278, -0.05486239492893219], [0.017815349623560905, -0.004507050849497318, 0.008757791481912136, -0.007094066124409437, 0.01186810526996851, -0.17232877016067505, 0.0449989028275013, 0.034663405269384384, -0.03918679431080818, 0.03829963132739067, -0.12106463313102722, 0.01375368982553482, 0.11934686452150345, -0.012675197795033455, -0.11951335519552231, 0.2208629548549652, -0.24457813799381256, 0.0012466870248317719, -0.030855732038617134, 0.08298961073160172, 0.03347204253077507, -0.012027195654809475, -0.03145032003521919, 0.5056483745574951, -0.056203193962574005, -0.02417915128171444, -0.03137911856174469, 0.014520113356411457, -0.08032891154289246, 0.06591828912496567, 0.0016194384079426527, -0.023641061037778854, 0.14011302590370178, -0.008389605209231377, 0.009969455190002918, 0.027007604017853737, -0.053455058485269547, 0.012364179827272892, 0.013317220844328403, -0.15326596796512604], [0.017221949994564056, -0.020104989409446716, -0.028410127386450768, -0.014012541621923447, -0.003397083841264248, 0.026324022561311722, 0.01726217195391655, 0.025871464982628822, -0.005815302021801472, 0.003258282318711281, -0.013773588463664055, -0.00020377323380671442, -0.012609797529876232, -0.006522204261273146, -0.0028101992793381214, -0.07192109525203705, 0.16183041036128998, -0.07075315713882446, 0.003115506377071142, -0.01324028242379427, 0.061635635793209076, -0.004090157803148031, 0.012425691820681095, 0.07674096524715424, -0.00563160190358758, -0.004704299848526716, -0.0033586695790290833, -0.0009471777593716979, 0.22192047536373138, -0.005551422946155071, 0.008682675659656525, 0.033088669180870056, -0.020325450226664543, -0.007448198739439249, -0.0045927586033940315, 0.008522002957761288, -0.029751716181635857, -0.002952250186353922, -0.02789466455578804, -0.2829934358596802], [0.025932079181075096, 0.010403051972389221, 0.05824679136276245, 0.04411190748214722, -0.03598356246948242, -0.11317409574985504, -0.012842494994401932, 0.009593134745955467, 0.07419721782207489, 0.020637694746255875, -0.10014285892248154, 0.0001912943262141198, 0.0036836613435298204, 0.0014904221752658486, -0.17678363621234894, 0.1451314389705658, -0.03627612069249153, -0.00834380928426981, -0.004547085613012314, -0.030717646703124046, -0.03919317573308945, -0.02975248359143734, -0.0036706700921058655, -0.014862444251775742, -0.016008544713258743, -0.024938177317380905, 0.03662392124533653, 0.03765728697180748, 0.33755865693092346, 0.039575476199388504, -0.005702385678887367, 0.07488251477479935, 0.10014936327934265, -0.018905872479081154, 0.014354974962770939, 0.033266905695199966, -0.09516032040119171, -0.029266128316521645, -0.1096818745136261, -0.07479959726333618], [-0.015066375024616718, -0.005305437371134758, 0.0003331105690449476, -0.013968225568532944, 0.0046993400901556015, 0.02195976860821247, -0.011548232287168503, 0.020328324288129807, -0.005561113823205233, -0.010432397946715355, 0.002027999609708786, 0.0027969544753432274, -0.010964589193463326, 0.0010384939378127456, 0.021025124937295914, -0.023155897855758667, 0.025893405079841614, -0.04474987834692001, -0.014438152313232422, 0.00021722233213949949, 0.00784213375300169, 0.0029877126216888428, 0.011520512402057648, 0.023631388321518898, 0.0006242734962143004, 0.01114908792078495, -0.0032046677079051733, -0.003598805284127593, 0.0721317008137703, -0.0015450080391019583, -0.0033828197047114372, -0.002946797525510192, -0.007811163552105427, 0.009965742006897926, -0.011325531639158726, -0.01067200768738985, -0.0081403199583292, -0.014464161358773708, 0.008742092177271843, 0.04183708503842354], [-0.010434214025735855, 0.10318031162023544, -0.002583563793450594, 0.09707711637020111, 0.04358532279729843, -0.1742374747991562, -0.03764278441667557, 0.011918814852833748, 0.12807174026966095, -0.003863002173602581, 0.00677894614636898, 0.02728097140789032, 0.03478407859802246, -0.07198397070169449, -0.10316496342420578, 0.26216739416122437, -0.0702291950583458, 0.184218630194664, -0.058821890503168106, -0.011488511227071285, 0.007115265820175409, -0.0037460094317793846, -0.0319335013628006, -0.009096961468458176, -0.009461597539484501, 0.009152615442872047, -0.001468100119382143, 0.0012908100616186857, 0.17803598940372467, 0.08702416718006134, 0.028520546853542328, -0.0042440686374902725, 0.10170567035675049, 0.029025685042142868, -0.004433892667293549, -0.009154547937214375, -0.1470094621181488, -0.0084599694237113, -0.15287959575653076, -0.08589152246713638], [-0.03713518753647804, 0.028699398040771484, -0.0014410449657589197, -0.002408360131084919, -0.006308389827609062, 0.009089600294828415, -0.0350169874727726, 0.011826190166175365, 0.03507373481988907, -0.017184777185320854, -0.010472332127392292, 0.0037365613970905542, -0.04740504175424576, -0.002938144374638796, 0.005772092379629612, -0.003022447694092989, 0.01128129381686449, -0.021374808624386787, -0.014486480504274368, -0.039646923542022705, 0.012586046010255814, 0.009173582307994366, 0.006878204178065062, 0.011663897894322872, 0.026003019884228706, 0.007047103252261877, 0.009200486354529858, -0.005269154906272888, 0.017656775191426277, -0.004826894961297512, -7.790670497342944e-05, -0.021548815071582794, -0.009854091331362724, 0.021266533061861992, -0.02012781985104084, -0.018690073862671852, -0.01682947389781475, -0.04065070301294327, 0.010235658846795559, 0.019089428707957268], [0.026547489687800407, 0.0975508987903595, -0.004641174338757992, 0.0018071416998282075, -0.004382562357932329, -0.16530393064022064, 0.00932052917778492, -0.001633264939300716, 0.1536162793636322, 0.012622923590242863, -0.05044765770435333, 0.01700686663389206, 0.0233302041888237, -0.045266471803188324, -0.21265879273414612, 0.23005399107933044, -0.08474384993314743, 0.1638922244310379, -0.02330874092876911, 0.04866354912519455, -0.045668818056583405, -0.022226039320230484, 0.004156234208494425, 0.1826695203781128, -0.005184974521398544, -0.013805977068841457, 0.041523441672325134, 0.03890950232744217, 0.19799381494522095, 0.05997143313288689, 0.02745472639799118, -0.0014984698500484228, 0.12623433768749237, 0.0002419556403765455, 0.0005355369648896158, 0.029289182275533676, -0.12106940150260925, -0.00679465988650918, -0.14661440253257751, -0.08762571960687637], [0.015857750549912453, 0.0063049267046153545, 0.04054082930088043, 0.021991288289427757, -0.010336878709495068, -0.10571635514497757, 0.04069974273443222, -0.017381655052304268, -0.06072395667433739, 0.05444938689470291, -0.002338770078495145, -0.004965173080563545, 0.08857204765081406, 0.024637725204229355, -0.0951402559876442, 0.16489772498607635, -0.30964329838752747, 0.04004928469657898, 0.04852375388145447, 0.030461860820651054, -0.029959147796034813, -0.003117179963737726, -0.04512130841612816, 0.26545029878616333, -0.04127570241689682, -0.046031415462493896, -0.03169893100857735, 0.004335454199463129, -0.2393227070569992, 0.038699716329574585, -0.017872082069516182, -0.026530064642429352, 0.06190270185470581, -0.03202863782644272, 0.05584830045700073, 0.03771509975194931, 0.03742432966828346, 0.022103963419795036, 0.03219373896718025, -0.16048812866210938], [-0.0012322842376306653, -0.022942252457141876, 0.0018352905753999949, -0.019166581332683563, -0.0019248597091063857, -0.007866823114454746, -0.015187093988060951, 0.030840175226330757, -0.04334751144051552, -0.00773143395781517, -0.026661444455385208, 0.004116468131542206, -0.027872078120708466, -0.009903949685394764, -0.021720703691244125, 0.02299012616276741, 0.06256447732448578, 0.012607122771441936, -0.012389209121465683, -0.01120886579155922, 0.019847549498081207, 0.0038289932999759912, 0.01491532288491726, -0.051700811833143234, 0.0007148752920329571, 0.006947947200387716, -0.002490423619747162, -0.0028100351337343454, 0.029387034475803375, -0.005891180597245693, 0.003170191776007414, 0.05249752476811409, 0.013171394355595112, 0.007045266218483448, -0.01113227941095829, 0.0010706206085160375, -0.0146087147295475, -0.023987814784049988, -0.00048049131873995066, 0.017352445051074028], [0.026800500229001045, 0.0248606838285923, -0.09586434066295624, 0.012273726053535938, 0.013112817890942097, -0.001618680078536272, 0.035280756652355194, -0.022571224719285965, 0.0002757948823273182, 0.028085695579648018, 0.07182799279689789, -0.0063444748520851135, 0.07452861219644547, 0.007980892434716225, 0.08108996599912643, -0.029714640229940414, -0.066901296377182, 0.005656902678310871, 0.019523847848176956, 0.04804978147149086, 0.015919404104351997, -0.0024502757005393505, -0.00812262762337923, 0.09125681966543198, -0.020205006003379822, -0.016638608649373055, -0.031242622062563896, -0.012558478862047195, -0.017177334055304527, -0.006918787956237793, -0.005767705384641886, -0.10073594003915787, -0.010255861096084118, -0.02400035411119461, -0.009802157990634441, 0.018125049769878387, 0.044951099902391434, 0.04268205538392067, 0.03087436594069004, -0.016547635197639465], [-0.002727075247094035, 0.006900679785758257, -0.002508688485249877, 0.00021974873379804194, -0.00031152350129559636, 0.02521587908267975, -0.0034667612053453922, -0.0017644305480644107, 0.0042076739482581615, -0.0036384589038789272, 0.0027974043041467667, -0.0003334701177664101, -0.008850796148180962, 0.0028840259183198214, 0.02869599685072899, -0.04592521861195564, 0.007190986070781946, -0.04585377499461174, -0.006713037379086018, -0.002116748131811619, 0.006375585217028856, 0.0008145549800246954, 0.0015942211030051112, 0.02142762579023838, 0.005237924866378307, 0.0030475736130028963, 0.005159276537597179, 0.0008173445239663124, 0.03504374995827675, -0.0029392673168331385, -0.0037670868914574385, -0.010169226676225662, -0.013342578895390034, 0.005100496578961611, -0.00569677772000432, -0.0013008315581828356, 0.002516895765438676, -0.007936213165521622, 0.006424941122531891, 0.026804856956005096], [-0.0026876949705183506, 0.02213277667760849, -0.00592816062271595, -0.001077628810890019, -0.022922668606042862, -0.002884753281250596, -0.0173815805464983, -0.00046240142546594143, 0.03273497149348259, 0.008330389857292175, -0.037415746599435806, -0.0030678946059197187, -0.016702625900506973, -0.013656620867550373, -0.005721702706068754, -0.0005375988548621535, 0.056164227426052094, 0.011768664233386517, 0.01660597138106823, -0.03484102711081505, -0.008623234927654266, 0.0028211914468556643, 0.014280381612479687, 0.006272498518228531, 0.055018745362758636, -0.01779094524681568, 0.034388408064842224, 0.004966252949088812, 0.07395684719085693, -0.00939539261162281, 0.0075015840120613575, 0.007739202119410038, 0.0010404556524008512, -0.001987379277125001, 0.002451944164931774, 0.007642097305506468, 0.02023136056959629, 0.005796723999083042, 0.003359027672559023, 0.014912867918610573], [0.005118245724588633, 0.020699074491858482, -0.001507624052464962, 0.0016076742904260755, -0.0030525748152285814, 0.021188072860240936, -0.013023421168327332, -0.00030014952062629163, 0.027777062729001045, -0.0029040093068033457, 0.006004014052450657, 0.00031374499667435884, -0.01770836114883423, -0.0006381029961630702, -0.002727100159972906, -0.007142647635191679, 0.03781306743621826, 0.0029047911521047354, -0.0039055454544723034, -0.021085627377033234, 0.0028230363968759775, -0.0006069891969673336, 0.0015731749590486288, -0.011270230636000633, 0.008041294291615486, 0.0016841812757775187, 0.007555345073342323, 0.0022738303523510695, 0.05817553773522377, 0.0003549798275344074, -0.0009989431127905846, 0.022548900917172432, -0.007240211591124535, 0.005677301436662674, -0.005490563344210386, -0.0009954632259905338, -0.0054530249908566475, -0.010556445457041264, -0.014428017660975456, 0.01530410535633564], [-0.025523746386170387, 0.09113655984401703, 0.011208917014300823, 0.036175038665533066, 0.012838346883654594, -0.16722320020198822, -0.028813010081648827, -0.055483926087617874, 0.025676770135760307, -0.01971169374883175, -0.0026647825725376606, 0.01681319996714592, -0.01697232574224472, -0.04505779594182968, -0.21817563474178314, 0.2181268185377121, -0.02655106969177723, 0.20078817009925842, -0.045139193534851074, 0.015999970957636833, 0.030900156125426292, 0.00451579038053751, -0.005687019322067499, -0.018745873123407364, -0.003824763000011444, 0.022104362025856972, -0.005730421748012304, -0.014948030933737755, 0.027876166626811028, 0.05641122907400131, 0.03284093737602234, -0.005349563434720039, 0.07047895342111588, 0.0125383660197258, -0.018388474360108376, -0.02363727241754532, -0.04985059052705765, -0.03823993355035782, -0.07216241955757141, -0.08266149461269379], [-0.016533274203538895, -0.023225683718919754, -0.02072853408753872, -0.014415076933801174, 0.05973251163959503, -0.1631430834531784, -0.027850812301039696, 0.07747508585453033, 0.051922641694545746, 0.04523369297385216, -0.02548680454492569, 0.03339296951889992, 0.10727206617593765, -0.09133443981409073, -0.11583136767148972, 0.374237984418869, 0.009866870008409023, 0.5671597719192505, -0.0037773142103105783, 0.05831538140773773, -0.012982536107301712, -0.007630280684679747, -0.012893928214907646, -0.06874284893274307, 0.003709262702614069, -0.047188397496938705, -0.022674446925520897, 0.0069239442236721516, 0.09680774062871933, 0.04614676162600517, 0.09589827060699463, -0.05043517053127289, 0.16946521401405334, 0.01176492590457201, 0.02073645032942295, 0.008363110944628716, -0.03006039746105671, 0.09587680548429489, -0.06442324072122574, -0.14543582499027252], [-0.004888755269348621, 0.10550587624311447, -0.4162009358406067, 0.10835901647806168, 0.012510060332715511, -0.0749610960483551, -0.014833346009254456, -0.066441610455513, 0.07209405303001404, 0.021306097507476807, -0.019547751173377037, 0.01611165888607502, 0.04535022750496864, -0.03774505481123924, -0.062012262642383575, 0.03078429587185383, -0.4354664385318756, 0.04193933308124542, -0.08389555662870407, 0.025002392008900642, 0.14810125529766083, -0.013017070479691029, -0.061595942825078964, 0.08868643641471863, -0.0018964188639074564, -0.027601033449172974, 0.00681948522105813, 0.009110952727496624, 0.09755998849868774, 0.134730264544487, 0.004529394209384918, -0.06239458918571472, 0.01942834071815014, -0.01102935615926981, -0.08966923505067825, 0.008607429452240467, -0.007947385311126709, 0.04293210804462433, -0.05857962369918823, -0.10002617537975311], [-0.07233015447854996, 0.017448311671614647, -0.001972479745745659, -0.07357422262430191, 0.07690244168043137, -0.12549959123134613, -0.08661353588104248, 0.14489246904850006, 0.020769625902175903, -0.03776726499199867, 0.011603916995227337, 0.04895529896020889, -0.051272474229335785, -0.06784646213054657, -0.0939997136592865, 0.31392496824264526, 0.15534624457359314, 0.48265695571899414, -0.046628404408693314, -0.12765158712863922, 0.041081447154283524, 0.035212986171245575, 0.050321564078330994, -0.1418343186378479, 0.00590085331350565, 0.03231368213891983, -0.039232563227415085, -0.03668258711695671, 0.14767013490200043, 0.0038618582766503096, 0.05329643562436104, -0.015519420616328716, 0.042752545326948166, 0.055945392698049545, -0.029239313676953316, -0.054975658655166626, -0.09989623725414276, -0.04939773306250572, -0.02195758745074272, 0.034877751022577286], [0.004870920907706022, -0.06506054103374481, -0.15027973055839539, 0.06442312151193619, 0.013908162713050842, -0.03169338405132294, -0.0038698697462677956, -0.055853523313999176, 0.04628308117389679, 0.0017408664571121335, -0.045102596282958984, -0.003887841710820794, 0.0007723893504589796, -0.017564842477440834, -0.13852019608020782, 0.10461906343698502, 0.2007267028093338, 0.1452251821756363, -0.10284121334552765, 0.022099314257502556, 0.0483957938849926, -0.0029748373199254274, 0.022075729444622993, -0.10409629344940186, -0.009710889309644699, -0.002640100661665201, -0.014160786755383015, -0.0191598329693079, -0.18822211027145386, -0.0026342670898884535, 0.023498598486185074, 0.056654833257198334, 0.050340522080659866, 0.00417623296380043, -0.028445037081837654, 0.0020922492258250713, -0.10661610215902328, -0.006441854871809483, -0.11138738691806793, 0.02889302186667919], [-0.026316380128264427, 0.023423969745635986, -0.008567050099372864, 0.059473901987075806, 0.0075639765709638596, -0.05408628657460213, -0.012827918864786625, -0.0707772746682167, -0.013506287708878517, 0.013548601418733597, 0.01508945319801569, 0.007375163957476616, 0.018093572929501534, -0.04082642123103142, -0.12358684837818146, 0.21565303206443787, 0.014376022852957249, 0.19277092814445496, 0.018720801919698715, -0.0011782475048676133, -0.012742926366627216, 0.005150893237441778, -0.005537189543247223, -0.02002815529704094, 0.0015688322018831968, -0.029699021950364113, -0.01753063127398491, -0.024434896185994148, -0.13645462691783905, 0.02434779331088066, 0.030032707378268242, -0.03792312741279602, 0.09701824933290482, -0.008120535872876644, 0.02472013793885708, -0.008775941096246243, -0.041261494159698486, 0.01822049356997013, -0.029725119471549988, -0.09594553709030151], [0.011437442153692245, 0.06069169566035271, -0.025660941377282143, -0.007825314067304134, 0.030806884169578552, 0.057737939059734344, 0.022707153111696243, -0.016865763813257217, 0.028887037187814713, 0.011146942153573036, -0.00451276171952486, 0.0012869511265307665, 0.04202888160943985, 0.011603289283812046, -0.001463887165300548, -0.018370341509580612, 0.058156583458185196, -0.04307275265455246, -0.0071449484676122665, 0.01347389630973339, -0.011360417120158672, 0.0006070899544283748, -0.07777957618236542, 0.0020361868664622307, -0.004720508586615324, -0.0101705901324749, -0.01846219412982464, -0.008067619055509567, 0.0625380203127861, 0.008930815383791924, 0.009459111839532852, -0.025316089391708374, -0.056535542011260986, -0.010884500108659267, -0.03695448115468025, 0.014934531413018703, -0.009407189674675465, 0.029638774693012238, -0.02898755483329296, 0.19887439906597137], [-0.00016084796516224742, -0.00245341332629323, 0.002788195153698325, 0.00713000213727355, -0.002323559718206525, -0.005728958640247583, -0.007056802045553923, -0.0024073875974863768, -0.0052564009092748165, 0.007466298993676901, -0.006808723788708448, -0.0005220379680395126, -0.00528749730437994, 0.0008080883999355137, -0.01247665099799633, 0.009868919849395752, 0.001736045116558671, 0.021395457908511162, 0.006788827944546938, -0.00799065176397562, -0.0008711880655027926, 0.0015857300022616982, 0.00017426842532586306, -0.033823803067207336, -0.00026860772049985826, -0.007780536077916622, -0.008287954144179821, -0.0026668584905564785, -0.02572246454656124, 0.0018271574517711997, -0.0008422702085226774, 0.011264209635555744, 0.004442259669303894, -0.000418973300838843, 0.002640404039993882, 0.004276006482541561, -0.0023116820957511663, -0.0019158615032210946, -0.008102652616798878, -0.020238423720002174], [0.04133275896310806, -0.013942576013505459, -0.001210145652294159, 0.00028713393840007484, -0.0028097110334783792, 0.015495977364480495, 0.025104442611336708, -0.0025307750329375267, -0.02064663916826248, 0.0072622098959982395, -0.029065124690532684, -0.005496504716575146, -0.005981936119496822, 0.004340491257607937, 0.010255173780024052, -0.05050965026021004, 0.036380309611558914, -0.05111079663038254, -0.003019219497218728, 0.008326615206897259, 0.00493423268198967, -0.007051141932606697, 0.014671135693788528, -0.0052778408862650394, 0.0013853245181962848, -0.004230113700032234, 0.024234170094132423, 0.015791377052664757, 0.016048839315772057, -0.009659068658947945, -0.009103055112063885, 0.024830488488078117, -0.0005634452099911869, -0.002939606783911586, -0.0020577788818627596, 0.020091645419597626, 0.0004943248932249844, -0.009054277092218399, 0.006008032243698835, 0.02555197663605213], [0.08308853209018707, -0.35679012537002563, -0.08411061018705368, -0.13537093997001648, -0.03878634050488472, 0.04046138375997543, -0.2012641578912735, 0.40393292903900146, -0.4519694149494171, -0.006249795667827129, -0.16149987280368805, -0.07110295444726944, -0.23636481165885925, 0.07586880773305893, -0.14895272254943848, 0.3801487386226654, 0.6143120527267456, 0.6581821441650391, -0.15783557295799255, -0.023501863703131676, 0.5277918577194214, 0.010278060100972652, 0.1485816389322281, -0.2515157461166382, -0.09036633372306824, 0.012613561935722828, -0.05421634390950203, -0.026591962203383446, -0.011322242207825184, -0.09323803335428238, -0.0756334438920021, 0.3501725494861603, 0.0907193124294281, 0.013388467952609062, -0.07105069607496262, 0.04006003588438034, -0.21272821724414825, -0.21862390637397766, -0.026361819356679916, 0.11296778172254562], [0.0130158681422472, -0.0009338258532807231, 0.001788719673641026, 0.006615855265408754, -0.0013325830223038793, -0.001350297941826284, -0.004352569580078125, -0.004446510691195726, -0.0002957867400255054, 0.009493117220699787, -0.002975046169012785, -0.0027276980690658092, -0.0006079243612475693, 0.0052208979614079, 0.002594300080090761, -0.018084457144141197, -0.016543405130505562, -0.006466074381023645, 0.013701734133064747, 0.00011965280282311141, -0.00895081739872694, 0.0006451333174481988, -0.00027292914455756545, -0.05696304142475128, -0.0005350997671484947, -0.00909520871937275, -0.007531916722655296, -0.0005966552416794002, -0.00043674506014212966, 0.0011828190181404352, -0.005858713295310736, -0.0005974338273517787, 0.0008265241049230099, -0.00595875596627593, 0.005248668137937784, 0.007325990591198206, 0.014609754085540771, 0.0008951539057306945, -0.001994359539821744, -0.0004654851509258151], [0.002494693035259843, -0.038291193544864655, 0.007070606574416161, -0.03457134589552879, 0.0012226176913827658, -0.00785364955663681, -0.015485306270420551, 0.058774612843990326, -0.06424426287412643, -0.01296776719391346, -0.03374742344021797, 0.0037541110068559647, -0.03376578167080879, -0.006142783910036087, -0.021025171503424644, 0.03270774707198143, 0.0647529885172844, -0.018026098608970642, -0.02624576911330223, -0.0049695721827447414, 0.029382890090346336, 0.002247111639007926, 0.019204676151275635, -0.0422784797847271, -0.004518328234553337, 0.014099398627877235, -0.005854574963450432, 0.0009813628857955337, 0.09053082764148712, -0.005105049815028906, -0.0003513736592140049, 0.04649995639920235, 0.016047190874814987, 0.010496402159333229, -0.015970604494214058, 0.003228171030059457, -0.02919226698577404, -0.03461382910609245, 0.0021957638673484325, 0.04506506025791168], [0.025877539068460464, 0.0038643446750938892, 0.006024438887834549, 0.01557869091629982, -0.0054926322773098946, -0.005043058656156063, 0.004564763978123665, -0.013498084619641304, 0.013414506800472736, 0.009168827906250954, -0.010158412158489227, -0.007956933230161667, 0.006229388061910868, 0.007073267828673124, -0.003117831191048026, -0.015084474347531796, -0.017736084759235382, -0.009493555873632431, 0.006715573836117983, 0.007787033449858427, -0.014443021267652512, -0.009617320261895657, -0.004772485699504614, -0.028760850429534912, -0.012562045827507973, -0.012110243551433086, 0.002770855790004134, 0.00464843213558197, -0.06431363523006439, 0.00043730615288950503, -0.010021224617958069, 0.00017759270849637687, 0.007348806131631136, -0.012485761195421219, 0.010787609033286572, 0.017610494047403336, -0.004338396713137627, 0.003573805093765259, -0.01303655095398426, -0.012939151376485825], [-0.005060204304754734, 0.007258416153490543, 0.001489322166889906, 0.008125459775328636, -0.0016819136217236519, 0.0007491978467442095, -0.005866072606295347, -0.005996261723339558, 0.015913570299744606, 0.0021232774015516043, -0.0012876978144049644, -0.0008527860045433044, -0.007509545423090458, 0.0018913772655650973, 0.0011260606115683913, -0.005184672772884369, 0.00022775559045840055, 0.004807054065167904, 0.002779575064778328, -0.00935395248234272, -0.00202252808958292, 0.0003808682959061116, -0.0005568757187575102, -0.011186300776898861, -0.003903827629983425, -0.005658316425979137, -0.002942576538771391, -0.0011160335270687938, -0.006341741885989904, 0.0011206837370991707, -0.0023401454091072083, -0.0041535478085279465, -0.0012463679304346442, -0.00315009499900043, 0.00029905096744187176, 0.0019577613566070795, 0.001218098565004766, -0.005511505529284477, -0.015336727723479271, -0.00406100507825613], [0.18933527171611786, -0.148853600025177, -0.021192651242017746, 0.22980625927448273, 0.009436183609068394, 0.3379185199737549, 0.10797115415334702, -0.12141717225313187, -0.23356299102306366, 0.01586543209850788, 0.047786738723516464, -0.04123123735189438, 0.08261791616678238, 0.14372305572032928, 0.6429666876792908, -1.21048903465271, -0.31442081928253174, -1.3670822381973267, -0.053118687123060226, 0.3818821907043457, -0.0008773278095759451, -0.0029524844139814377, 0.01280621811747551, 0.24984590709209442, -0.02795533277094364, -0.014038094319403172, -0.005239441059529781, -0.01550778653472662, -0.2922411859035492, -0.07331995666027069, -0.1503627747297287, -0.4540981948375702, -0.2691306471824646, -0.02526705712080002, 0.02838844247162342, 0.034628622233867645, 0.012422540225088596, 0.08611393719911575, 0.3239330053329468, -0.059988558292388916], [0.030977945774793625, -0.044321127235889435, -0.013488398864865303, -0.026774723082780838, 0.0007283907034434378, 0.06322969496250153, 0.016993094235658646, 0.039176907390356064, -0.04730168357491493, 0.008235144428908825, -0.01303935144096613, -0.001799218007363379, -0.002473616972565651, -0.00013024220243096352, 0.03348317742347717, -0.08705569803714752, 0.1198217123746872, -0.07581082731485367, -0.009463071823120117, -0.012946456670761108, 0.0073241665959358215, -0.006858246400952339, 0.013394606299698353, 0.019044848158955574, -0.0029328621458262205, -0.0030971295200288296, 0.01325881015509367, 0.015574658289551735, 0.03931964188814163, -0.02164815366268158, -0.007435506209731102, 0.06426767259836197, -0.04281284660100937, 5.905129000893794e-06, -0.0008469336898997426, 0.019394906237721443, 0.014224664308130741, -0.0014128872426226735, 0.0443936288356781, 0.039205294102430344], [0.0034603136591613293, 0.029803691431879997, 0.005362897180020809, 0.01268091145902872, -0.003912498243153095, 0.011327904649078846, -0.018673589453101158, -0.012604030780494213, 0.039114996790885925, 0.0019170936429873109, 0.010672071948647499, -0.0009179492481052876, -0.011813236400485039, 0.002429163781926036, -0.005751374177634716, -0.002796438056975603, 0.01982475258409977, 0.015242833644151688, 0.00598082784563303, -0.02184101939201355, -0.007850169204175472, 0.00014475389616563916, -0.004474157001823187, -0.029715321958065033, 0.00044806269579567015, -0.00638845469802618, -0.004116227384656668, -0.003974482417106628, 0.023439841344952583, 0.005309455096721649, -0.003527543041855097, -0.0008080410771071911, -0.007469639647752047, -0.0028902452904731035, 0.0032662469893693924, 0.0032445352990180254, -0.0022401302121579647, -0.002953352639451623, -0.022156033664941788, 0.002225706120952964], [-0.008032143115997314, 0.07944373786449432, 0.006298345047980547, 0.10551048815250397, 0.03809734433889389, -0.2299988567829132, 0.023310715332627296, -0.14098630845546722, 0.11310490220785141, 0.013436378911137581, -0.05639534443616867, 0.03946273773908615, 0.09295738488435745, -0.09653382003307343, -0.21868668496608734, 0.32398054003715515, -0.1239628940820694, 0.26929202675819397, -0.024699866771697998, -0.01679317094385624, 0.04586471989750862, 0.002723477315157652, -0.06494704633951187, 0.2381291687488556, -0.0352175198495388, -0.015249829739332199, -0.016141114756464958, -0.008242756128311157, -0.3640427589416504, 0.11415369063615799, 0.0698247030377388, 0.05079257860779762, 0.18006543815135956, 0.016443569213151932, -0.005589588545262814, -0.008789323270320892, -0.0511329211294651, 0.012548930011689663, -0.15017744898796082, -0.24430285394191742], [0.001752294134348631, 0.00032755022402852774, -0.010802114382386208, -0.01041408535093069, 0.01700393669307232, -0.07324299216270447, -0.019551003351807594, -0.031060371547937393, 0.04185948148369789, 0.004933278542011976, -0.007084358017891645, 0.009641313925385475, 0.0009089963277801871, -0.04056158289313316, -0.17281192541122437, 0.17352348566055298, -0.05216154828667641, 0.15373671054840088, -0.019128525629639626, 0.006257778964936733, 0.024070702493190765, -0.0008853638428263366, -0.013228554278612137, -0.041214801371097565, -0.009295254945755005, 0.003250950248911977, -0.008704541251063347, -0.004398946650326252, 0.14136220514774323, 0.06220937520265579, 0.020430997014045715, -0.051809582859277725, 0.0889570564031601, 0.012899036519229412, 0.0017931637121364474, 0.0018394250655546784, -0.11185465008020401, -0.010048768483102322, -0.04883751645684242, -0.028447650372982025], [-0.006451406981796026, -0.002675465540960431, -0.00908722635358572, -0.004686745814979076, 0.0034330023918300867, 0.008971238508820534, -0.008904741145670414, 0.008201525546610355, -0.015593163669109344, -0.003345599165186286, -0.004164353013038635, 0.00020418652275111526, -0.007959367707371712, -0.0002637356810737401, 0.02641560509800911, -0.038449086248874664, 0.011468203738331795, -0.04975983127951622, -0.015313155017793179, 0.014016187749803066, 0.013423826545476913, 0.0014624957693740726, 0.0036381182726472616, 0.04498661309480667, 0.005074235610663891, 0.0017672866815701127, -0.0016888846876099706, -0.00355359329842031, 0.0025609631557017565, -0.004190460778772831, 0.0022809316869825125, -0.0178510919213295, -0.004228775855153799, 0.0037251105532050133, -0.010151347145438194, 0.0017674030968919396, -0.016414757817983627, -0.006666654720902443, 0.009987503290176392, 0.01325167529284954], [0.005361962132155895, 0.01272440142929554, -0.007067044731229544, 0.012401650659739971, -0.007554228417575359, 0.005429188720881939, 0.0022651664912700653, -0.016571328043937683, 0.02316182665526867, 0.004828381352126598, -0.003078709589317441, -0.003452623263001442, -0.005123180337250233, 0.002290369477123022, 0.009091958403587341, -0.024203339591622353, -0.05124840512871742, -0.014518745243549347, 0.0007289948407560587, -0.0010187553707510233, -0.0016714304219931364, -0.0017082146368920803, 7.948641723487526e-05, 0.004899568855762482, 0.009577964432537556, -0.008431992493569851, 0.010927634313702583, 0.003000423079356551, -0.02836436964571476, -0.004115702118724585, -0.0002390387817285955, -0.008392177522182465, -0.003253382630646229, 0.0006317545776255429, -0.00020509933528956026, 0.007447456941008568, -0.0016421590698882937, 0.0015017744153738022, 0.008058879524469376, -0.0043825386092066765], [0.02332584373652935, -0.05586688220500946, 0.0028107843827456236, -0.017606936395168304, -0.005162801127880812, -0.028861068189144135, 0.00324759422801435, 0.022489789873361588, -0.08328768610954285, 0.008076882921159267, -0.03422197327017784, -0.0020387948025017977, -0.025063935667276382, -0.006521832663565874, -0.05281755328178406, 0.042186297476291656, 0.04010439291596413, 0.059291183948516846, -0.007019908633083105, 0.0022513587027788162, 0.023334529250860214, -0.0006324775749817491, 0.019626060500741005, -0.09490068256855011, -0.010909455828368664, -0.006284666247665882, -0.00469674076884985, 0.0034561539068818092, -0.09754440188407898, -0.010067096911370754, -0.0013790563680231571, 0.11925140023231506, 0.03340136259794235, -0.006268443074077368, -0.007366457022726536, 0.009134603664278984, -0.0020393377635627985, -0.022289203479886055, -0.009241612628102303, 0.0019379283767193556], [0.08568128943443298, -0.09130461513996124, 0.019859805703163147, 0.11046646535396576, -0.013757963664829731, -0.13163501024246216, 0.019166428595781326, -0.09739838540554047, -0.005484864581376314, 0.09529004991054535, -0.0752885565161705, -0.02131514437496662, 0.05310489609837532, -0.0021700814832001925, -0.2664657533168793, 0.2682201564311981, 0.0028645333368331194, 0.4009115695953369, 0.1073075607419014, 0.017262328416109085, -0.036987561732530594, -0.01999019831418991, -0.0230066180229187, -0.4791202247142792, -0.034669872373342514, -0.09796516597270966, -0.03786422684788704, -0.009213507175445557, -0.6881489157676697, 0.022549165412783623, 0.021258516237139702, 0.13189373910427094, 0.09888970851898193, -0.07967454940080643, 0.04410403594374657, 0.10190528631210327, 0.024090927094221115, 0.07327896356582642, -0.13780814409255981, -0.34764742851257324], [-0.023899147287011147, -0.09202504903078079, -0.1750541627407074, -0.12740081548690796, 0.09288108348846436, 0.13440030813217163, -0.006655347533524036, 0.15377701818943024, -0.14531105756759644, -0.011024583131074905, -0.06030797213315964, 0.06070670112967491, -0.04566296935081482, -0.12723678350448608, 0.19454962015151978, -0.0944545716047287, 0.15953771770000458, -0.1191117987036705, -0.12652158737182617, -0.08879511803388596, 0.08187856525182724, 0.013964533805847168, 0.08374359458684921, 0.15548451244831085, 0.05800766125321388, 0.03229980170726776, 0.03609701991081238, 0.0100244777277112, -0.07880781590938568, -0.15086710453033447, 0.0160985067486763, 0.11146431416273117, -0.09533892571926117, 0.0812322124838829, -0.044272392988204956, -0.008966092020273209, -0.03381450101733208, -0.005604872014373541, 0.08232381939888, 0.15496645867824554], [0.061096079647541046, -0.06010435149073601, 0.017021745443344116, 0.018702587112784386, -0.01300057489424944, -0.10872235149145126, 0.025656808167696, -0.035204049199819565, 0.001952257240191102, 0.04858744144439697, -0.04446760565042496, -0.006028024014085531, 0.015438149683177471, -0.009130374528467655, -0.140034019947052, 0.1948835253715515, 0.016476750373840332, 0.22618845105171204, 0.02829907089471817, 0.012481069192290306, -0.013341473415493965, -0.012650584802031517, -0.0033537540584802628, -0.1744302660226822, -0.012895106337964535, -0.047094885259866714, 0.0005570119246840477, 0.019793320447206497, -0.3027176558971405, 0.023254739120602608, 0.006838522851467133, 0.11260458827018738, 0.09272104501724243, -0.0249268040060997, 0.03824731335043907, 0.056537218391895294, -0.021187787875533104, 0.013591967523097992, -0.08578342944383621, -0.1514449268579483], [0.027340209111571312, -0.002655230462551117, 0.1439090073108673, 0.01441983226686716, -0.0070389313623309135, -0.06989731639623642, 0.009339324198663235, -0.013838023878633976, 0.008525057695806026, 0.032020408660173416, -0.009998103603720665, -0.005140980239957571, 0.06144394725561142, -0.0015410194173455238, -0.14233864843845367, 0.2128731906414032, 0.06399810314178467, 0.30186712741851807, 0.09557569772005081, -0.02731306105852127, -0.07173898816108704, -0.015855884179472923, 0.010133218951523304, -0.35900411009788513, -0.046601153910160065, -0.03948736935853958, -0.059433069080114365, -0.0027969416696578264, -0.054992783814668655, 0.04062867909669876, -0.023938016965985298, 0.07619365304708481, 0.040520377457141876, -0.08521388471126556, 0.023124106228351593, 0.02644979953765869, 0.10910958796739578, 0.07588203996419907, -0.07469642162322998, 0.08179250359535217], [0.003434635465964675, -0.023274263367056847, -0.007767180446535349, -0.015066292136907578, -0.008431026712059975, 0.011370738968253136, -0.009937189519405365, 0.020808614790439606, -0.033342257142066956, -0.0013191269244998693, -0.023526959121227264, -0.004962726030498743, -0.028324605897068977, 0.010439126752316952, 0.018319256603717804, -0.07466095685958862, -0.005798254162073135, -0.04462408274412155, -0.01796429231762886, 0.016903089359402657, 0.02589740976691246, 0.006402047351002693, 0.022667208686470985, -0.03135143592953682, 0.008562267757952213, 0.0008762855431996286, 0.002911020303145051, 0.0002856444916687906, -0.023463115096092224, -0.019112182781100273, -0.018902406096458435, 0.04252506420016289, 0.0027744092512875795, 0.005760750733315945, -0.011207779869437218, 0.005929610226303339, -0.0004936262266710401, -0.02454555779695511, 0.027059046551585197, 0.04667204990983009], [-0.03480770066380501, 0.3018993139266968, -0.06763985008001328, 0.0244410689920187, 0.029193159192800522, -0.0334935188293457, 0.018187684938311577, -0.05443492904305458, 0.10661107301712036, -0.020024174824357033, 0.06162356212735176, 0.04562794789671898, 0.08577756583690643, -0.09015447646379471, -0.0467541478574276, 0.14904537796974182, -0.28289759159088135, -0.008687437511980534, -0.057747192680835724, -0.006892483681440353, -0.027421511709690094, 0.0036344861146062613, -0.04485791549086571, 0.7942399978637695, -0.0275389663875103, 0.02623653970658779, -0.010197831317782402, 0.02033846825361252, 0.13306741416454315, 0.08668804913759232, 0.047655314207077026, -0.25978830456733704, 0.050172287970781326, 0.03672361373901367, -0.022071663290262222, -0.028292372822761536, -0.10490716993808746, 0.04743480309844017, -0.06481204181909561, -0.017406033352017403], [-0.0009160029585473239, -0.04165365919470787, 0.02202017419040203, -0.02668733149766922, 0.002324940636754036, 0.0030223485082387924, 0.004864939954131842, 0.04772629216313362, -0.0405394546687603, -0.004792644642293453, -0.012796036899089813, 0.002950934460386634, -0.007695421576499939, -0.004119830206036568, 0.002523454837501049, -0.001388942589983344, 0.12880229949951172, -0.01004155445843935, -0.011456209234893322, -0.0034661723766475916, -0.05805414915084839, 0.0013609407469630241, 0.010815296322107315, 0.025217974558472633, 0.003216130193322897, 0.00662763137370348, 0.005689331796020269, 0.002831773366779089, 0.20524773001670837, -0.010608700104057789, 0.004061455838382244, 0.033896610140800476, -0.002749156206846237, 0.00982221681624651, -0.015220120549201965, -0.0013175169005990028, 0.001656494103372097, -0.008940578438341618, 0.03278172388672829, 0.2370579093694687], [-0.001422731438651681, -0.007934194058179855, 0.006726858671754599, -0.0842215046286583, 0.009458220563828945, -0.16319803893566132, -0.03766768425703049, 0.07381043583154678, 0.05914586782455444, 2.736315582296811e-05, -0.04750363156199455, 0.02138022519648075, 0.011178616434335709, -0.04021696373820305, -0.1109485775232315, 0.20422683656215668, 0.04605251923203468, 0.14185820519924164, -0.010418140329420567, 0.03169569373130798, -0.01105352584272623, -0.011967992410063744, 0.009946743957698345, -0.03721307963132858, 0.0037242912221699953, 0.0029835987370461226, 0.018481522798538208, 0.021557101979851723, 0.5491865873336792, 0.023239174857735634, 0.030764535069465637, 0.012315562926232815, 0.08451128005981445, 0.010220221243798733, -0.01653400994837284, 0.005168384872376919, -0.06813942641019821, 0.011580499820411205, -0.09702928364276886, 0.04285544529557228], [-0.013988171704113483, -0.009276384487748146, -0.0007459851331077516, -0.015053922310471535, 0.004258977714926004, 0.013593156822025776, -0.010335978120565414, 0.0224319975823164, -0.010313684120774269, -0.010211960412561893, -0.0008146624895744026, 0.0033475628588348627, -0.01227069366723299, -0.001279434422031045, 0.010272031649947166, 0.005509933922439814, 0.025159278884530067, -0.010676437988877296, -0.014477161690592766, -0.0022223712876439095, 0.010635051876306534, 0.0033121902961283922, 0.01793360523879528, 0.017038600519299507, 0.0032055675983428955, 0.01070556603372097, -0.0006848721532151103, -0.0027930843643844128, 0.048916686326265335, -0.002627308014780283, 8.380610961467028e-05, 0.005123514216393232, -0.002826754469424486, 0.01080787181854248, -0.013413705863058567, -0.009496936574578285, -0.00795866921544075, -0.015048745088279247, 0.008157152682542801, 0.030027922242879868], [-0.00845135934650898, 0.037727221846580505, -0.024312039837241173, 0.03287831321358681, 0.06652998179197311, -0.16425611078739166, -0.05325216054916382, -0.15319649875164032, 0.0876266360282898, -0.005845968145877123, 0.004319565836340189, 0.036097150295972824, 0.0459459125995636, -0.14511701464653015, -0.13723263144493103, 0.23699802160263062, -0.09644769877195358, 0.2714104652404785, -0.02789708785712719, 0.036824870854616165, 0.041255973279476166, -0.0024754677433520555, -0.09014452248811722, 0.10469628870487213, -0.014846192672848701, 0.012345202267169952, -0.0052042752504348755, 0.005792100913822651, 0.17080645263195038, 0.060600947588682175, 0.06994985789060593, -0.06673960387706757, 0.07723451405763626, 0.05567248538136482, -0.013457155786454678, -0.007034757174551487, -0.04249449819326401, 0.003462463151663542, -0.22040323913097382, -0.10932667553424835], [-0.0406314879655838, 0.02664152719080448, -0.00479287002235651, -0.006779292598366737, -0.0034494539722800255, 0.010690678842365742, -0.03391525521874428, 0.01606261357665062, 0.03287293016910553, -0.019466696307063103, -0.01188062597066164, 0.005734939128160477, -0.05004000663757324, -0.006840263027697802, 0.005967508070170879, 0.0027228915132582188, 0.024802247062325478, -0.010226668789982796, -0.018037710338830948, -0.042606938630342484, 0.01902846246957779, 0.011141723021864891, 0.007757242303341627, 0.010881880298256874, 0.026850612834095955, 0.009894962422549725, 0.005612139590084553, -0.006322212517261505, 0.022701531648635864, -0.0048096380196511745, 0.0051002283580601215, -0.01892118901014328, -0.012129298411309719, 0.02465926855802536, -0.023642951622605324, -0.021385183557868004, -0.019083237275481224, -0.03942405804991722, 0.011410749517381191, 0.02362869866192341], [-0.008715780451893806, 0.03922010213136673, -0.007565982639789581, -0.10632926225662231, 0.019966773688793182, -0.26671308279037476, -0.020193729549646378, 0.01733306609094143, 0.07527665048837662, 0.00011728233948815614, -0.04425835981965065, 0.03672536090016365, 0.04861114174127579, -0.08017187565565109, -0.20125240087509155, 0.30040955543518066, -0.06950436532497406, 0.2538827657699585, -0.04507756233215332, 0.0843428298830986, -0.02655745856463909, -0.005398946814239025, -0.0026124082505702972, 0.04003748297691345, 0.006177768111228943, 0.0010557270143181086, 0.01058189757168293, 0.02311684377491474, 0.37325960397720337, 0.047051481902599335, 0.0732487142086029, -0.004146724473685026, 0.12199172377586365, 0.02949676662683487, -0.011819925159215927, 0.005985848139971495, -0.11243192851543427, 0.03861306607723236, -0.1339845061302185, -0.18676979839801788], [-0.033115848898887634, 0.13011278212070465, 0.010215671733021736, 0.012161494232714176, -0.0023910135496407747, 0.0018744691042229533, 0.013370771892368793, -0.03328270837664604, 0.06386362761259079, -0.024048874154686928, 0.05178634077310562, 0.012142548337578773, 0.016345465555787086, -0.014250434003770351, 0.028622351586818695, -0.029320718720555305, -0.10239212214946747, -0.12569478154182434, -0.015574544668197632, -0.01799762062728405, -0.029472148045897484, 0.0009633077424950898, -0.01579596847295761, 0.4387388825416565, 0.0006651979638263583, 0.020490242168307304, 0.014313164167106152, 0.014520823024213314, 0.09936070442199707, 0.018946930766105652, 0.011857446283102036, -0.12990787625312805, -0.009842783212661743, 0.014533190056681633, 0.001529916888102889, -0.02649810165166855, -0.07715286314487457, -0.003041158663108945, -0.039392806589603424, 0.009328369982540607], [-0.0016216475050896406, -0.012383735738694668, 0.0003485049237497151, -0.01601616106927395, -0.0008560051210224628, 0.0018987285438925028, -0.008926097303628922, 0.02453138493001461, -0.02822973020374775, -0.006258861627429724, -0.01633497327566147, 0.0024332955945283175, -0.020084885880351067, -0.0009080897434614599, -0.0012633271981030703, -0.004239886999130249, 0.030012812465429306, -0.01531889010220766, -0.01434053760021925, -0.006045366637408733, 0.016409220173954964, 0.001627458492293954, 0.011308196932077408, -0.022520005702972412, 0.0031549204140901566, 0.006516291759908199, -0.0005553684895858169, -1.5351601177826524e-05, 0.03343162313103676, -0.005616253707557917, 0.00039899139665067196, 0.02410460263490677, 0.003832728136330843, 0.006000795867294073, -0.00763554684817791, 0.0011267787776887417, -0.012236558832228184, -0.02059006877243519, 0.0074241324327886105, 0.028105631470680237], [0.024343937635421753, 0.27473217248916626, 0.027798892930150032, 0.03613707423210144, 0.0009797436650842428, -0.006366662681102753, 0.018984442576766014, -0.05523642525076866, 0.12968043982982635, 0.0322696752846241, 0.22910058498382568, -0.007803399581462145, 0.05986916273832321, 0.01062096282839775, 0.0696321576833725, 0.008146967738866806, -0.5493608117103577, 0.06183720752596855, 0.039302390068769455, 0.02464250661432743, -0.10641638189554214, -0.006077321246266365, -0.022540416568517685, 0.07883492857217789, -0.019702395424246788, -0.02409323677420616, -0.02375173568725586, -0.011082028970122337, -0.11013752967119217, 0.029335515573620796, -0.022637687623500824, -0.3416876792907715, -0.008695981465280056, -0.030311344191432, 0.011860817670822144, 0.01932378113269806, 0.05568457394838333, 0.03800467401742935, 0.004919873550534248, -0.043732985854148865], [0.00017187194316647947, 0.0030378494411706924, -0.001754952478222549, 0.0009374303044751287, -0.0002748150727711618, 0.00818650797009468, -0.0020762321073561907, -0.001258153934031725, 0.0008546765893697739, 0.0008485360885970294, 0.002037615282461047, 0.00020998713443987072, -0.004308062139898539, 6.948516238480806e-05, 0.004742377903312445, -0.005955820437520742, 0.004037496168166399, -0.0025576793123036623, -0.0013018660247325897, -0.004061800893396139, 0.0028907535597682, 0.0008066138834692538, 0.0003608432016335428, 0.003059824462980032, 0.0019340140279382467, -0.0005065358709543943, 0.0003542955673765391, -0.0005693217390216887, -0.00022939890914130956, -0.0008180456352420151, -0.00027260821661911905, 0.002530281199142337, -0.0032657606061547995, 0.001802410464733839, -0.001625620061531663, 0.0013442396884784102, 0.0029728091321885586, -0.002391376066952944, 0.0012372072087600827, 0.005571421235799789], [-0.0008750811102800071, 0.028824178501963615, 0.00013033272989559919, -0.0021038043778389692, -0.025282789021730423, -0.010840910486876965, -0.021987508982419968, 0.0072188726626336575, 0.03968445584177971, 0.004188008606433868, -0.0376584529876709, -0.0017586426110938191, -0.025401588529348373, -0.013589972630143166, -0.01746588945388794, 0.01976890303194523, -0.02046540379524231, 0.03632129728794098, 0.009919263422489166, -0.04063054546713829, -0.007857311517000198, 0.005340912379324436, 0.011434805579483509, -0.010502873919904232, 0.05285874009132385, -0.014776011928915977, 0.0327063724398613, 0.0022675625514239073, -0.01997961848974228, -0.01117619127035141, 0.007450372911989689, -0.0007051113643683493, 0.004650837276130915, 0.0014436730416491628, -0.00217280606739223, 0.006174230948090553, 0.004784773103892803, -0.008743416517972946, 0.0034500746987760067, -0.00033809628803282976], [0.007184157148003578, 0.0033693816512823105, -0.003996159881353378, -0.0029116226360201836, -0.00036755812470801175, 0.006093120202422142, -0.008853667415678501, 0.003916118759661913, 0.006270647048950195, -0.0016608049627393484, 0.005770802032202482, 0.001169601222500205, -0.009980724193155766, -0.0016207883600145578, -0.011805551126599312, 0.015862906351685524, 0.02686767838895321, 0.03349418565630913, -0.0003381239075679332, -0.015400861389935017, 0.005071634892374277, 0.0005556247779168189, 0.0011121825082227588, -0.02227330207824707, 0.005137355532497168, 0.0009899785509333014, 0.00068520731292665, -0.0001839780597947538, 0.01908979006111622, 0.0005730087286792696, 0.0014836310874670744, 0.02514362335205078, -0.0029201610013842583, 0.0035859791096299887, -0.0028171620797365904, -0.0018043669406324625, 0.004956970456987619, -0.003821426536887884, -0.0038356673903763294, 0.002527474658563733], [-0.021188806742429733, 0.013756528496742249, 0.005847976543009281, 0.038262367248535156, 0.0295778289437294, -0.1813495010137558, -0.03852451220154762, 0.007199575658887625, 0.02004951797425747, -0.012983390130102634, -0.02314811572432518, 0.03261283412575722, 0.004585704766213894, -0.12240330129861832, -0.24252581596374512, 0.26656031608581543, -0.016868017613887787, 0.4055156707763672, -0.033683326095342636, 0.008243187330663204, 0.04173564910888672, 0.003900489304214716, -0.04460778459906578, -0.07343041151762009, -0.001899760914966464, 0.01726396568119526, -0.005900873802602291, -0.008816428482532501, -0.14855119585990906, 0.08639601618051529, 0.08675643801689148, -0.045739635825157166, 0.19028955698013306, 0.031074874103069305, -0.019795959815382957, -0.015982329845428467, -0.034512024372816086, -0.027602607384324074, -0.12035652250051498, -0.21105539798736572], [-0.075567327439785, -0.098303884267807, -0.02090907283127308, -0.14370130002498627, 0.08615192770957947, -0.33616921305656433, -0.06796686351299286, 0.10289747267961502, 0.02740294300019741, 0.03346149995923042, 0.013005053624510765, 0.03932584449648857, 0.1480964720249176, -0.14873993396759033, -0.1980874240398407, 0.5890541076660156, -0.05427020043134689, 0.7830421328544617, -0.02306189388036728, 0.15402920544147491, -0.02726268768310547, 0.0004899798077531159, -0.03351079300045967, 0.12395120412111282, 0.012484677135944366, -0.0442238450050354, -0.03519214689731598, 0.002287086099386215, 0.3091595470905304, 0.05098883807659149, 0.13394106924533844, -0.1273307204246521, 0.2764928936958313, 0.022989874705672264, 0.02590208686888218, -0.027432866394519806, -0.03649643808603287, 0.09880286455154419, 0.004353025462478399, -0.23005935549736023], [-0.020286746323108673, 0.597435712814331, 1.0283433198928833, 0.3224470019340515, -0.012928993441164494, -0.07894795387983322, -0.09038273990154266, -0.3874007761478424, 0.23009663820266724, 0.02960568480193615, 0.32564228773117065, 0.0388936810195446, 0.003236499149352312, -0.08482758700847626, -0.041140250861644745, 0.19120517373085022, -1.119057536125183, 0.4544348418712616, 0.1364254504442215, 0.017435913905501366, -0.370874285697937, -0.010668719187378883, -0.5601229667663574, 0.25950887799263, -0.0015713125467300415, -0.047900982201099396, 0.0038758283481001854, 0.005737908650189638, -1.1094878911972046, 0.4166545271873474, -0.019543005153536797, -0.48975011706352234, 0.0550568625330925, -0.03805633634328842, 0.45266443490982056, 0.0035567639861255884, 0.04491548612713814, 0.04900841414928436, -0.1596231907606125, -0.5742804408073425], [-0.08673334121704102, -0.0012528056977316737, 0.01847872883081436, -0.14126421511173248, 0.05954772233963013, -0.27272671461105347, -0.1264725774526596, 0.12699492275714874, 0.09604797512292862, -0.01823253557085991, 0.011967835016548634, 0.08538917452096939, -0.026241574436426163, -0.24815458059310913, -0.43226733803749084, 0.8595207333564758, 0.08951209485530853, 1.2519652843475342, 0.060182321816682816, -0.03288768231868744, -0.06798594444990158, 0.03907817602157593, 0.022018074989318848, -0.33058956265449524, 0.02175263874232769, 0.0034045313950628042, -0.050991229712963104, -0.04694062098860741, -0.25790393352508545, 0.05087067186832428, 0.20939454436302185, -0.027778156101703644, 0.17871037125587463, 0.041409194469451904, 0.0018984390189871192, -0.05726642534136772, -0.046245623379945755, 0.0002875036734621972, -0.07590776681900024, -0.2807164192199707], [-0.0070515647530555725, 0.043184611946344376, -0.02778894267976284, 0.07188767194747925, 0.0078026894479990005, -0.043032143265008926, -0.00444550346583128, -0.062019094824790955, 0.06626313179731369, -0.007418915629386902, -0.008362369611859322, -0.0033057918772101402, -0.00212294002994895, -0.0033870823681354523, -0.05187680572271347, 0.023645004257559776, -0.04026219993829727, -0.0006751304608769715, -0.19993020594120026, 0.019971400499343872, 0.02229890041053295, -0.00029596404056064785, -0.00664762407541275, 0.004284480586647987, -0.0018806251464411616, 0.007131040096282959, -0.002961662830784917, -0.008500879630446434, -0.03977000340819359, 0.010959820821881294, 0.0028477110899984837, -0.007971296086907387, 0.025144176557660103, 0.00830831192433834, -0.012496912851929665, -0.005670017562806606, -0.05619019269943237, -0.009482325986027718, -0.05252311751246452, 0.02473563514649868], [-0.040821660310029984, 0.054592762142419815, -0.0020234938710927963, 0.05176377296447754, 0.016831329092383385, -0.13644464313983917, -0.009355496615171432, -0.01458138506859541, -0.015244546346366405, -0.02177347242832184, 0.006696969270706177, 0.007245836313813925, 0.004125939216464758, -0.05496920272707939, -0.12482860684394836, 0.14798809587955475, -0.07637123763561249, 0.12606249749660492, -0.02440500818192959, 0.03989456221461296, 0.015903208404779434, 0.010201864875853062, 4.493335654842667e-05, 0.04336600378155708, 0.015292134135961533, 0.008119279518723488, 0.0009392273495905101, -0.017228487879037857, -0.021757910028100014, 0.005971279926598072, 0.020662207156419754, -0.05759213864803314, 0.09089719504117966, 0.0135227981954813, -0.011540304869413376, -0.032105542719364166, -0.08992043137550354, -0.01341049000620842, -0.07752148807048798, -0.04704664647579193], [0.0045493049547076225, -0.006843892857432365, -0.0009353917557746172, -0.011544556356966496, -0.000518977758474648, -0.028981907293200493, 0.014556454494595528, 0.011169466190040112, -0.014161058701574802, 0.0040622614324092865, -0.015423719771206379, 0.004748233128339052, 0.012875108979642391, -0.014733153395354748, -0.04193935915827751, 0.052682697772979736, -0.046721622347831726, 0.04816132411360741, 0.002118001924827695, 0.02279273048043251, 0.05265629664063454, 0.0030257038306444883, -0.017753399908542633, 0.009779457002878189, 0.002363536972552538, -0.0036213663406670094, -0.008220965974032879, -0.005157870706170797, -0.07291459292173386, -0.0018671933794394135, 0.022154591977596283, 0.012844450771808624, 0.024614833295345306, -0.0005864494014531374, -0.00034613755997270346, 0.007428569253534079, -0.01280251331627369, 0.014416133984923363, 0.015445944853127003, -0.05477658659219742], [-0.005392651539295912, 0.0017385334940627217, 7.105090480763465e-05, -0.002316670957952738, -0.0009650324936956167, 0.0062772361561656, -0.006635825149714947, 0.004926545545458794, -0.000398261850932613, -0.0016034255968406796, -0.004412821028381586, 0.0006423891172744334, -0.012413360178470612, -0.0010180596727877855, 0.006866504438221455, -0.010766446590423584, 0.011570567265152931, -0.008261744864284992, -0.005958327557891607, -0.007238674908876419, 0.006231417413800955, 0.0015018497360870242, 0.0036852946504950523, -0.00536028016358614, 0.004093857482075691, 0.0012838998809456825, 0.0019701842684298754, -0.0003256009076721966, 0.023922916501760483, -0.0023167503532022238, -0.00018493544484954327, -0.000759424059651792, -0.003208633977919817, 0.0028201050590723753, -0.0036367117427289486, -0.0016299320850521326, -0.004870651755481958, -0.009556546807289124, 0.003149332944303751, 0.011370548978447914], [0.03763116896152496, -0.01645401492714882, 0.0003093374543823302, -0.002398576820269227, 0.0005303526995703578, 0.004406419582664967, 0.02046259492635727, 0.0017717157024890184, -0.02226586639881134, 0.0051597109995782375, -0.028834247961640358, -0.0029653788078576326, -0.0066215284168720245, 0.0006695205811411142, -0.007156100589782, -0.016245312988758087, 0.031833525747060776, -0.013388019055128098, -0.002670453628525138, 0.0034313523210585117, 0.0026432459708303213, -0.00592970522120595, 0.020694328472018242, -0.022230250760912895, 0.0018258829368278384, -0.0026244574692100286, 0.02016807347536087, 0.011562787927687168, 0.0009664671961218119, -0.007506162393838167, -0.0037015986163169146, 0.03242553770542145, 0.004148154053837061, -0.0018668097909539938, -0.003161186818033457, 0.01734994351863861, -0.0012078949948772788, -0.007198799401521683, 0.003784604137763381, 0.017527097836136818], [0.15575727820396423, 0.8637743592262268, 0.1376001089811325, 0.3759167790412903, -0.03221127763390541, -0.02375367283821106, -0.04145665839314461, -0.43036478757858276, 0.7845971584320068, 0.12587334215641022, 0.6539058089256287, -0.10190238058567047, 0.12995107471942902, 0.24175475537776947, 0.2584502398967743, -0.2697184979915619, -1.3679128885269165, 0.11794258654117584, 0.3306427001953125, 0.0925920307636261, -0.6186876893043518, -0.03839900344610214, -0.21326839923858643, 0.3925928473472595, -0.1722002923488617, -0.13225416839122772, -0.13521775603294373, 0.0009690365404821932, -1.3240936994552612, 0.2502220571041107, -0.1766112595796585, -1.0709127187728882, -0.05651041865348816, -0.1768154799938202, 0.20172762870788574, 0.10234683007001877, 0.14508771896362305, -0.06626468151807785, -0.1500461846590042, -0.37970975041389465], [0.010740340687334538, 0.0011382602388039231, 0.0009631190332584083, 0.005606077611446381, -0.0015167510136961937, 7.047128747217357e-05, -0.004658954218029976, -0.0021098742727190256, 0.0010299109853804111, 0.0064550042152404785, -0.0034985693637281656, -0.0021117376163601875, -0.003683463903144002, 0.0060145240277051926, 0.00496817659586668, -0.02487543784081936, -0.014291968196630478, -0.015137185342609882, 0.011160585097968578, -7.58136820877553e-06, -0.0030750958248972893, 0.0006259444053284824, -0.0009174119331873953, -0.04090730473399162, 0.0007844844367355108, -0.006060001906007528, -0.0034729917533695698, 0.0006835219101049006, 0.01390485092997551, -0.00047019129851832986, -0.005109269637614489, -0.002385122701525688, 0.0007235613302327693, -0.002574856160208583, 0.0032206217292696238, 0.004815364256501198, 0.007783848792314529, -0.0030933476518839598, -0.0010729229543358088, 0.006412686314433813], [1.8791977254295489e-06, -0.022095877677202225, 0.0025078740436583757, -0.028095949441194534, 0.001394124934449792, 0.00213246769271791, -0.006494708824902773, 0.043127089738845825, -0.04476445913314819, -0.01106322929263115, -0.02092263288795948, 0.0034218872897326946, -0.027255745604634285, -0.003924224991351366, -0.001025937614031136, 0.004405210260301828, 0.052930790930986404, -0.02652977965772152, -0.02611076831817627, -0.003180501516908407, 0.025972163304686546, 0.0006243159878067672, 0.01507155504077673, -0.015026554465293884, 0.002530087484046817, 0.012222840450704098, -0.00010387224028818309, 0.0028179953806102276, 0.08673258125782013, -0.006802883930504322, 0.0011895259376615286, 0.024294523522257805, 0.005985700991004705, 0.009723115712404251, -0.01237105205655098, 9.962162948795594e-06, -0.024732278659939766, -0.02758282795548439, 0.009044976904988289, 0.05105922743678093], [0.01116866059601307, -0.013353794813156128, -0.005556536838412285, 0.0005059229442849755, 0.0013200007379055023, 0.0011313032591715455, 0.005529326852411032, 0.0008454706985503435, -0.008369749411940575, 0.001756023382768035, -0.01304994523525238, -0.0017829835414886475, 0.0011593258241191506, 0.002718287752941251, 0.006061464082449675, -0.02196645922958851, 0.00045692475396208465, -0.019095540046691895, -0.003224134910851717, 0.014622265473008156, 0.007653484120965004, -0.001353834057226777, 0.0018897575791925192, -0.005486418027430773, -0.0024720521178096533, -0.0011817844351753592, -0.0006451295921579003, 0.00038725262857042253, -0.019576292484998703, -0.0032555335201323032, -0.0036972579546272755, 0.0025972819421440363, 0.001445565721951425, -0.001076910295523703, -0.0006885557668283582, 0.00599853228777647, -0.0009406993631273508, 0.0017631883965805173, 0.005544604733586311, 0.008481350727379322], [-0.005606324877589941, 0.003848996013402939, -0.0007768102223053575, 0.0021904068998992443, -0.00017716245201881975, 0.002541110385209322, -0.004548346158117056, -0.0001250210334546864, 0.01025528833270073, 0.0008563732262700796, -0.0005707033560611308, 7.547956192865968e-05, -0.007736914325505495, 0.00035370394471101463, 0.007089491002261639, -0.00961279682815075, 0.0025441141333431005, -0.0022211603354662657, -0.0017629662761464715, -0.003001639386638999, 0.001333993743173778, 0.00027665524976328015, 0.0003619427152443677, -0.00486564077436924, -0.0004888980183750391, -0.0016270283376798034, -0.0008576258551329374, -0.0011489888420328498, 0.01054914016276598, -0.0001451225980417803, -0.0007989665609784424, -0.008418429642915726, -0.0027618790045380592, 0.0008723453502170742, -0.0016078953631222248, 0.00024646968813613057, 0.00016469878028146923, -0.005190099589526653, -0.0033729947172105312, 0.004671367816627026], [-0.07767906039953232, -0.20906084775924683, 0.059683509171009064, -0.12363185733556747, 0.050718702375888824, -0.4263685643672943, -0.046558719128370285, 0.20525728166103363, -0.2651765048503876, -0.03046533651649952, -0.05946338549256325, 0.04136081784963608, -0.028546283021569252, -0.09377637505531311, -0.5943195819854736, 1.174750566482544, 0.10625077784061432, 1.4344605207443237, 0.03566954284906387, -0.11499609798192978, 0.005510841496288776, 0.016827205196022987, -0.027642760425806046, -0.45078161358833313, -0.016352180391550064, 0.025118086487054825, -0.07230629771947861, -0.047688018530607224, -0.07596750557422638, 0.050642892718315125, 0.11401800811290741, 0.41548311710357666, 0.2817647457122803, 0.009604884311556816, -0.009835189208388329, -0.049145571887493134, -0.0465577058494091, -0.03714874014258385, -0.04277704656124115, -0.4622611999511719], [0.024487022310495377, -0.04510919749736786, -0.008181490935385227, -0.021012259647250175, -0.001216877601109445, 0.04516351595520973, 0.015288944356143475, 0.017793254926800728, -0.05033181607723236, 0.007714135572314262, -0.01545504480600357, 0.00012713673640973866, -6.790625775465742e-05, -0.002680222736671567, 0.01608249917626381, -0.004230989143252373, 0.07446150481700897, -0.002843692898750305, 0.0038885308895260096, -0.010259094648063183, 0.006034363526850939, -0.004806066397577524, 0.006158942822366953, -0.01814964786171913, -0.0024681976065039635, -0.003081633010879159, 0.008755150251090527, 0.011223147623240948, -0.007643510587513447, -0.01519775204360485, -0.001990746706724167, 0.05828821286559105, -0.013078571297228336, -0.00172049505636096, -0.001955808373168111, 0.016172539442777634, 0.03122003562748432, 0.00010823508637258783, 0.02713591977953911, 0.010675007477402687], [-0.00602333340793848, 0.012196958996355534, -0.0005265334621071815, -1.4465153981291223e-05, 5.5603286455152556e-05, 0.010665934532880783, -0.0178360715508461, 0.0010953242890536785, 0.016456350684165955, -0.005262609105557203, 0.007904822006821632, 0.0020290985703468323, -0.01717180199921131, -0.0005467458395287395, -0.00024011480854824185, -0.0005782017251476645, 0.027207424864172935, 0.027506625279784203, -0.0029640302527695894, -0.018654799088835716, 0.003996005281805992, 0.003982472233474255, 0.0003625632089097053, -0.01899854652583599, 0.007247050292789936, 0.003297192743048072, -0.0024065084289759398, -0.004097352735698223, 0.03266070410609245, 0.0020987032912671566, 0.0001225481682922691, 0.002743358025327325, -0.009078873321413994, 0.006243271753191948, -0.004765225108712912, -0.004627896007150412, -0.0005941385752521455, -0.007458164822310209, -0.004963400308042765, 0.00768865505233407], [-0.03485740348696709, 0.30932483077049255, 0.021250979974865913, 0.17945054173469543, 0.04895440861582756, -0.17078961431980133, -0.0016727537149563432, -0.21128875017166138, 0.07888216525316238, -0.02298450842499733, 0.04909229651093483, 0.059309884905815125, 0.04964505136013031, -0.09932789951562881, -0.2156701534986496, 0.3189217150211334, -0.16893990337848663, 0.26893311738967896, -0.04823993518948555, -0.01721852831542492, 0.0075817531906068325, 0.012423758395016193, -0.12604323029518127, 0.30226314067840576, -0.025524890050292015, 0.01304413191974163, -0.01255920808762312, 0.0013310840586200356, -0.47502005100250244, 0.20521102845668793, 0.0738503709435463, -0.029861947521567345, 0.08365406841039658, 0.0328579805791378, -0.032329484820365906, -0.03954220190644264, -0.0524999164044857, 0.026325004175305367, -0.17907235026359558, -0.2610338628292084], [0.0021025817841291428, 0.10703368484973907, -0.011311533860862255, 0.06106894090771675, 0.0249265618622303, -0.10172746330499649, -0.021654939278960228, -0.07329491525888443, 0.02887084148824215, -0.0011569872731342912, -0.010274792090058327, 0.014988192357122898, 0.016428770497441292, -0.04843953996896744, -0.11869866400957108, 0.23582208156585693, -0.06301314383745193, 0.2268945574760437, -0.012785951606929302, 0.059771474450826645, 0.03346113860607147, -0.0006567506352439523, -0.02556065283715725, -0.04740302264690399, -0.0037244011182338, 0.009204188361763954, -0.003848090535029769, 0.002254865597933531, 0.13255995512008667, 0.02310957945883274, 0.025769080966711044, -0.09070605784654617, 0.13061155378818512, 0.0128259202465415, -0.006692129652947187, 0.0008812557207420468, -0.08407043665647507, -0.004063688218593597, -0.08763205260038376, -0.04863248020410538], [-0.003388424636796117, -0.006068491842597723, -0.005895795300602913, -0.0035924287512898445, 0.0019011598778888583, -0.0031745333690196276, -0.006235503125935793, 0.007959600538015366, -0.016059206798672676, -0.000369710149243474, -0.004041747190058231, 0.0008799622301012278, -0.0050940848886966705, -0.0030164779163897038, -0.0008370314026251435, 0.008338640443980694, 0.011577533558011055, 0.003313462482765317, -0.007432776503264904, 0.004904721863567829, 0.008423025719821453, 0.0007101289229467511, 0.002803374547511339, 0.013939629308879375, 0.0029064719565212727, -0.00022010358225088567, -0.0027174765709787607, -0.003096067113801837, -0.020856386050581932, -0.002154118148609996, 0.0048084864392876625, 0.0010363461915403605, 0.003675017738714814, 0.0010666224407032132, -0.005865341052412987, 0.002802154514938593, -0.010892831720411777, -0.0035620909184217453, 0.0035766467917710543, -0.005502182524651289], [0.0035434034653007984, 0.011068896390497684, 0.08237960189580917, 0.0072051468305289745, -0.0059202262200415134, 0.0013993486063554883, 0.0013845500070601702, -0.01030031405389309, 0.01568361185491085, 0.00342156901024282, -0.0010443085338920355, -0.0022379234433174133, -0.004916791338473558, 0.0007125054253265262, 0.004781581461429596, -0.01569545641541481, -0.10109549760818481, -0.010026139207184315, 0.0005868490552529693, -0.0010219711111858487, -5.357666395866545e-06, -0.0007778648869134486, -0.0011437792563810945, 0.0028497418388724327, 0.00811866857111454, -0.006689928937703371, 0.007593041751533747, 0.0018996112048625946, -0.03633038327097893, -0.0026914665941148996, 0.0007147735450416803, -0.007915150374174118, -0.0007910174317657948, 0.0014633520040661097, 0.0013369547668844461, 0.005660473369061947, 6.739250966347754e-05, 0.0002582176821306348, 0.010759929195046425, -0.005805240478366613], [0.008362174034118652, -0.024285050109028816, -0.003241059836000204, -0.016550881788134575, -0.001676548388786614, 0.001897319802083075, -0.0018401078414171934, 0.024659618735313416, -0.051192186772823334, -4.8529520427109674e-05, -0.021345630288124084, -0.0021874133963137865, -0.029510824009776115, 0.0003158894833177328, 0.005448225885629654, -0.024806305766105652, 0.03180817514657974, -0.018592117354273796, -0.02478756383061409, 0.009557384066283703, 0.025212876498699188, 0.0008651144453324378, 0.017589887604117393, -0.008438456803560257, 0.0031447161454707384, 0.002163827186450362, 0.006577619817107916, 0.005899732932448387, 0.018812015652656555, -0.014005519449710846, -0.008684076368808746, 0.04405827447772026, 0.006919217761605978, 0.007628528401255608, -0.012303383089601994, 0.0038090748712420464, -0.013148446567356586, -0.03071664460003376, 0.020071033388376236, 0.061519455164670944], [0.0002713814319577068, 0.07615029066801071, -0.022705387324094772, 0.09972813725471497, 0.015139744617044926, -0.05387664958834648, -0.014271697960793972, -0.04062012583017349, 0.08327455073595047, -0.0025919449981302023, -0.011277051642537117, -0.0171141866594553, -0.005725485738366842, 0.010586488991975784, 0.01563863828778267, -0.10850364714860916, 0.0493740439414978, -0.1583046019077301, -0.0364755243062973, 0.042334381490945816, 0.011715889908373356, -0.013653995469212532, 0.0034510272089391947, -0.000525534269399941, 0.0077923317439854145, -0.004316519945859909, 0.018406596034765244, 0.0054489802569150925, 0.06660903245210648, -0.0006357046077027917, -0.020981138572096825, -0.0686788484454155, -0.003847014158964157, 0.033034831285476685, -0.014117744751274586, -0.004496919922530651, -0.17231057584285736, -0.005274827592074871, -0.10955633223056793, 0.0207191314548254], [0.004100297577679157, -0.023716924712061882, 0.016975490376353264, -0.028450224548578262, -0.020198794081807137, -0.02174612134695053, -0.005930830258876085, 0.03203149512410164, -0.060998547822237015, -0.010599338449537754, -0.05315332114696503, 0.003907160833477974, -0.05341123417019844, -0.0048455651849508286, -0.057301126420497894, 0.04691632091999054, 0.004648127593100071, 0.049960605800151825, 0.003973405342549086, -0.0262693352997303, 0.019985675811767578, 0.009209167212247849, 0.02958819456398487, 0.001980552449822426, 0.05899087339639664, 0.005009244661778212, 0.04749089479446411, 0.012047594413161278, -0.087966188788414, 0.0026117165107280016, 0.012289871461689472, 0.06799840182065964, 0.012094839476048946, 0.014825988560914993, -0.02206878922879696, 0.002407393418252468, 0.017567414790391922, -0.08427677303552628, 0.028260331600904465, -0.009741576388478279], [0.019061071798205376, 0.03384486958384514, -0.006057576276361942, 0.03518984094262123, 0.013995968736708164, -0.10418612509965897, 0.003875926835462451, -0.052858978509902954, 0.05546016991138458, 0.014006068930029869, -0.023149382323026657, -0.000250408542342484, 0.002625232096761465, -0.022505298256874084, -0.13033795356750488, 0.023532766848802567, 0.022338159382343292, 0.020061593502759933, -0.009651503525674343, 0.0026355686131864786, 0.004076214972883463, -0.002308401046320796, -0.010660364292562008, -0.06614088267087936, 0.006422578822821379, -0.01243901252746582, 0.010161717422306538, 0.02402035892009735, 0.02611723355948925, 0.023514965549111366, 0.0024579332675784826, -0.011780116707086563, 0.06470096111297607, 0.004779000300914049, 0.008107395842671394, 0.026012344285845757, -0.07078542560338974, 0.00019126465485896915, -0.056423064321279526, -0.009201109409332275], [-0.010396281257271767, -0.03775175288319588, -0.015242105349898338, -0.0468522310256958, 0.002453135559335351, -0.10397136956453323, -0.018324891105294228, 0.052306730300188065, 0.0032878851052373648, 0.015808861702680588, -0.004168365150690079, 0.017576701939105988, 0.07490156590938568, -0.0499514676630497, -0.26067039370536804, 0.4252791702747345, 0.23014214634895325, 0.542708158493042, 0.0891670286655426, -0.06076061725616455, -0.03923475369811058, -0.007391851861029863, 0.008977205492556095, -0.4661659002304077, -0.0738833099603653, -0.022977452725172043, -0.05851786583662033, -0.013330256566405296, 0.0011990423081442714, 0.06455963104963303, 0.03879476711153984, 0.1471049040555954, 0.05887185037136078, -0.07013145089149475, -0.024043111130595207, 0.013905650936067104, 0.11751540750265121, 0.06550972163677216, -0.08231264352798462, 0.14684775471687317], [-0.030503375455737114, -0.35998547077178955, -0.12465791404247284, -0.12304189801216125, -0.09871602058410645, 0.2444269061088562, 0.12329311668872833, 0.2155405431985855, -0.40747106075286865, -0.03839822858572006, -0.09788884967565536, -0.0540611632168293, -0.060599472373723984, 0.10878200083971024, 0.23180143535137177, -0.24268563091754913, 0.30504336953163147, -0.25018614530563354, 0.1142883375287056, -0.059813838452100754, 0.009441135451197624, 0.08837050944566727, 0.19854073226451874, -0.27727270126342773, 0.08882246911525726, 0.05621135234832764, -0.0311848483979702, -0.04139535501599312, 0.012667542323470116, -0.08611210435628891, -0.02211659960448742, 0.22885051369667053, -0.17587383091449738, -0.04291136935353279, 0.006625023204833269, -0.004472323693335056, 0.23908108472824097, -0.04215842857956886, 0.37547460198402405, 0.2144329845905304], [-0.21791543066501617, -0.04510219395160675, 0.23274047672748566, -0.22104637324810028, -0.15192483365535736, 0.3090120851993561, 0.014058910310268402, 0.19346728920936584, -0.052714597433805466, -0.12651628255844116, -0.2547169625759125, -0.16339389979839325, -0.35426363348960876, 0.29191628098487854, 0.1169629693031311, -0.006253620143979788, 0.10850468277931213, -0.22292204201221466, 0.13784806430339813, -0.3640161454677582, -0.41679057478904724, 0.0947439894080162, 0.3932403326034546, -0.3710760474205017, 0.1650465875864029, 0.07214251905679703, -0.010437985882163048, -0.02515351213514805, 0.6381952166557312, -0.2417282611131668, -0.1442611813545227, 0.12410549819469452, -0.2587612271308899, -0.08913124352693558, 0.05587281659245491, -0.12719881534576416, 0.1494186669588089, -0.3844437599182129, 0.20961381494998932, 0.298650860786438], [-0.10713574290275574, -0.5186339616775513, -0.2831122577190399, -0.31639572978019714, 0.1273309886455536, 0.2331504076719284, -0.042334649711847305, 0.33808135986328125, -0.5039664506912231, -0.15536031126976013, -0.1617240607738495, 0.04904069006443024, 0.08550595492124557, -0.14705118536949158, 0.16154609620571136, -0.17088225483894348, 0.5172804594039917, -0.10854136943817139, 0.2372644543647766, -0.18116024136543274, -0.19883157312870026, 0.09634703397750854, 0.21213266253471375, -0.15617400407791138, 0.042901407927274704, 0.04779762402176857, -0.06899461895227432, -0.008352112025022507, 0.4251492917537689, -0.01935240440070629, 0.07612571865320206, 0.3635401725769043, -0.20726338028907776, 0.05694914236664772, -0.08863144367933273, -0.11862398684024811, 0.3002322316169739, 0.018858863040804863, 0.37590712308883667, 0.0008499505347572267], [-0.16330042481422424, -0.08382914215326309, 0.20394115149974823, -0.19677947461605072, -0.23519077897071838, 0.21945253014564514, 0.14034543931484222, 0.04734930023550987, -0.28854846954345703, -0.05490640550851822, -0.25555601716041565, -0.09196477383375168, -0.24047112464904785, 0.10871068388223648, 0.15352027118206024, -0.24966657161712646, 0.17961850762367249, -0.31766390800476074, 0.35315996408462524, -0.38023942708969116, -0.4386425018310547, 0.0969727411866188, 0.2102331519126892, -0.3795132040977478, 0.14612218737602234, 0.04523831233382225, 0.016900867223739624, -0.039070695638656616, 0.19700559973716736, -0.22932124137878418, -0.06482800096273422, 0.0707138180732727, -0.24270690977573395, -0.11706037819385529, 0.06599505245685577, -0.09511365741491318, 0.3518116772174835, -0.2033109813928604, 0.19947026669979095, 0.2499721497297287], [0.054161377251148224, 0.13910764455795288, 0.10664007812738419, 0.2026791125535965, -0.060114555060863495, -0.23241625726222992, -0.011375991627573967, -0.27445828914642334, 0.25667738914489746, 0.04364157095551491, 0.04307183623313904, -0.013573930598795414, 0.031554900109767914, -0.01855592615902424, -0.19574014842510223, 0.20073381066322327, -0.281124472618103, 0.13799041509628296, -0.011942061595618725, 0.1392907202243805, -0.051564302295446396, -0.03138738498091698, -0.13742317259311676, 0.07698547095060349, -0.026905328035354614, -0.04327058419585228, 0.024277059361338615, 0.03437938541173935, -0.08477886766195297, 0.10056141763925552, -0.02876320108771324, -0.28127536177635193, 0.22140362858772278, -0.00888571422547102, 0.05914808064699173, 0.03587685897946358, -0.08720091730356216, 0.12343142181634903, -0.20905768871307373, -0.11284474283456802], [0.09023530036211014, 0.21182022988796234, -0.18053776025772095, 0.16246181726455688, 0.17876964807510376, -0.08644791692495346, -0.03538232296705246, -0.2882152199745178, 0.3172309696674347, 0.02657303772866726, 0.10564431548118591, 0.11956433206796646, 0.30003735423088074, -0.0783768743276596, -0.2665764391422272, -0.04276133328676224, -0.2288043349981308, -0.10529779642820358, -0.09651020914316177, 0.17537260055541992, 0.11726690828800201, -0.016952894628047943, -0.08935637772083282, 0.04671485349535942, -0.14715132117271423, 0.002780959941446781, -0.02721174620091915, 0.012393972836434841, -0.05681540071964264, 0.2987503707408905, 0.19347518682479858, -0.2202966809272766, 0.09481807053089142, 0.16092322766780853, -0.06341271847486496, 0.039199382066726685, -0.28748998045921326, 0.0853794664144516, -0.2056819647550583, -0.09432688355445862], [0.031469978392124176, -0.13296864926815033, -0.018731586635112762, -0.16156527400016785, 0.05919048190116882, 0.0530337318778038, -0.0359312929213047, 0.16377989947795868, -0.17199140787124634, -0.006934667006134987, -0.019747037440538406, 0.07638762891292572, -0.025099141523241997, -0.03690430894494057, 0.16328494250774384, -0.14535410702228546, 0.08250550180673599, -0.15438003838062286, 0.06189732626080513, -0.14393649995326996, 0.02596426010131836, 0.007914500311017036, -0.04209084063768387, 0.16131238639354706, 0.026422401890158653, -0.007898474112153053, 0.030391070991754532, -0.001511215465143323, -0.2798680067062378, -0.00415909243747592, 0.004667399916797876, 0.22902797162532806, -0.12467949837446213, -0.007496397010982037, -0.030917752534151077, 0.021105961874127388, 0.10369344800710678, 0.10098763555288315, 0.15194560587406158, -0.028343692421913147], [0.15068873763084412, -0.04157897084951401, -0.14595261216163635, 0.0618274062871933, 0.25429612398147583, -0.14178466796875, -0.16512487828731537, -0.04999024420976639, 0.2003764510154724, 0.03461457043886185, 0.22578401863574982, 0.08154798299074173, 0.15252169966697693, -0.18116720020771027, -0.1497064083814621, 0.283433198928833, -0.2888745367527008, 0.3086295425891876, -0.23504382371902466, 0.20568107068538666, 0.3645021617412567, -0.07379766553640366, -0.4027029871940613, 0.21928748488426208, -0.1808927208185196, -0.0101934177801013, -0.08162130415439606, 0.026337947696447372, -0.12493617832660675, 0.13339808583259583, 0.10816310346126556, -0.05884018540382385, 0.13635984063148499, 0.24232988059520721, -0.009302163496613503, 0.07446639984846115, -0.3262546956539154, 0.2383960336446762, -0.087131068110466, -0.2851157486438751], [-0.21845798194408417, 0.09417344629764557, 0.21822260320186615, -0.11366897821426392, -0.10182856768369675, 0.31741470098495483, -0.09151355177164078, 0.07429167628288269, -0.030731072649359703, -0.07904067635536194, 0.09880070388317108, 0.02370225451886654, -0.23002205789089203, 0.08235501497983932, 0.15596406161785126, -0.044480156153440475, 0.049488358199596405, -0.04747454449534416, 0.21611447632312775, -0.35962486267089844, -0.37347668409347534, 0.09551742672920227, 0.22467786073684692, -0.45514199137687683, 0.0845564752817154, 0.03692023828625679, -0.020066751167178154, -0.008701583370566368, 0.9152447581291199, -0.08398472517728806, -0.09398668259382248, -0.0335838757455349, -0.1736474186182022, -0.11101359128952026, 0.09590666741132736, -0.1324283331632614, 0.2600974142551422, -0.35835230350494385, 0.15419071912765503, 0.33537864685058594], [-0.03465823829174042, -0.21315647661685944, -0.017484938725829124, -0.2127203345298767, -0.03289535641670227, 0.26636970043182373, 0.006413062568753958, 0.12739451229572296, -0.21233224868774414, -0.03876322880387306, -0.039619430899620056, -0.0032434863969683647, -0.023784389719367027, 0.11376053094863892, 0.20157191157341003, -0.1775410920381546, 0.06643389910459518, -0.16631998121738434, 0.08610490709543228, -0.1321375072002411, -0.03707554563879967, 0.03258804976940155, 0.13988129794597626, -0.15754778683185577, 0.02872633934020996, 0.03114592283964157, -0.002868935465812683, -0.02896716259419918, 0.0045338342897593975, -0.04524252936244011, -0.1348300576210022, 0.12852558493614197, -0.16936281323432922, -0.02031334862112999, -0.0033442960120737553, -0.034573595970869064, 0.13074839115142822, 0.0873410552740097, 0.19985979795455933, 0.10671297460794449], [0.033774688839912415, 0.45990246534347534, 0.07080571353435516, 0.1980442851781845, -0.03435774892568588, -0.0509285107254982, 0.005594577174633741, -0.3022858500480652, 0.3873632848262787, 0.04693460837006569, -0.13046737015247345, -0.051226455718278885, -0.014504930935800076, 0.010996268130838871, -0.16335919499397278, -0.04514795169234276, -0.2998060882091522, 0.07861074060201645, 0.0028688060119748116, 0.14660552144050598, -0.015678057447075844, -0.020541861653327942, -0.01209170650690794, 0.47543635964393616, -0.007315349765121937, -0.06050988659262657, 0.0585898831486702, 0.030046431347727776, -0.08976560086011887, -0.07504640519618988, -0.03279579430818558, -0.41414493322372437, 0.013024094514548779, -0.032256998121738434, -0.07017284631729126, 0.029946541413664818, -0.12901654839515686, -0.06365987658500671, -0.13108964264392853, -0.03785644471645355], [0.027047019451856613, 0.13736584782600403, 0.027309641242027283, 0.14015305042266846, -0.07838505506515503, -0.28779858350753784, 0.0052346475422382355, -0.1649584025144577, 0.1881590336561203, 0.022401312366127968, 0.04208776354789734, -0.04729725793004036, -0.01333613134920597, 0.002597574843093753, -0.31009387969970703, 0.21154123544692993, -0.15597647428512573, 0.12703606486320496, -0.09139326959848404, 0.23183532059192657, -0.11643082648515701, -0.015314537100493908, 0.014250212348997593, 0.12702327966690063, -0.014860919676721096, -0.019568903371691704, 0.008134237490594387, 0.013332637026906013, -0.06730476021766663, 0.10516130179166794, 0.021835044026374817, -0.18824830651283264, 0.2308715283870697, 0.01889883354306221, 0.022639695554971695, 0.01303861290216446, -0.17364761233329773, -0.026322580873966217, -0.11647716164588928, -0.08235041052103043], [0.14138555526733398, 0.23341397941112518, 0.08838573098182678, 0.2519344091415405, -0.09293893724679947, -0.1611156463623047, 0.06641604751348495, -0.22170989215373993, 0.19967080652713776, 0.08638463169336319, -0.09243887662887573, -0.04838624969124794, 0.15486468374729156, 0.07211078703403473, -0.17432831227779388, -0.018931718543171883, -0.33850541710853577, -0.1486155092716217, -0.022899197414517403, 0.19253940880298615, -0.08959460258483887, -0.042417656630277634, -0.07605218887329102, 0.19912660121917725, -0.003590887878090143, -0.04394424334168434, 0.06063394248485565, 0.039590850472450256, -0.034274302423000336, 0.03932054340839386, -0.041996069252491, -0.14043745398521423, 0.15615466237068176, -0.04524078220129013, 0.018391592428088188, 0.09105337411165237, -0.1508941352367401, 0.1784486174583435, -0.1877989023923874, -0.14996562898159027], [0.016474800184369087, -0.24759329855442047, 0.02312159538269043, -0.08716374635696411, 0.0460030771791935, 0.20666448771953583, 0.022711198776960373, 0.09224185347557068, -0.273978054523468, 0.0005666791112162173, -0.03004818595945835, 0.042763955891132355, 0.013428187929093838, -0.06525266170501709, 0.23749613761901855, -0.21577724814414978, 0.07792741805315018, -0.41858354210853577, 0.015805348753929138, -0.06698978692293167, 0.058592624962329865, 0.007982609793543816, -0.18935860693454742, -0.1654650717973709, 0.016195382922887802, 0.004841480404138565, -0.004730501212179661, -0.004408686887472868, 0.12913133203983307, 0.05263723433017731, -0.028379090130329132, 0.06736361980438232, -0.16719099879264832, -0.01675640046596527, -0.0063455551862716675, 0.014859379269182682, 0.20427803695201874, 0.11719869077205658, 0.07797091454267502, 0.0038720432203263044], [0.06058841198682785, 0.2293475866317749, 0.12324192374944687, 0.20424146950244904, 0.24943961203098297, -0.034220971167087555, -0.14806149899959564, -0.12212252616882324, 0.34603428840637207, 0.04012710228562355, 0.16754217445850372, 0.16681315004825592, 0.26028162240982056, -0.12541772425174713, -0.1877107322216034, -0.015059427358210087, -0.4002560079097748, -0.12791591882705688, -0.04811374470591545, 0.24898971617221832, -0.11785808950662613, -0.031684260815382004, -0.23353420197963715, 0.15603315830230713, -0.07518530637025833, -0.017179468646645546, -0.018033578991889954, 0.02621098794043064, 0.0026307886000722647, 0.328304648399353, 0.22417737543582916, -0.407520592212677, 0.2014402449131012, 0.1378520280122757, 0.00959842000156641, 0.019097130745649338, -0.2907254695892334, 0.22921249270439148, -0.08984716981649399, -0.047967929393053055], [-0.1333893984556198, -0.20017854869365692, -0.0634869709610939, -0.49989762902259827, -0.06191076710820198, 0.020191965624690056, 0.031124237924814224, 0.38168248534202576, -0.28024402260780334, -0.09780501574277878, -0.28049981594085693, -0.06743676215410233, -0.11435213685035706, 0.13243702054023743, 0.05496774613857269, 0.25058820843696594, 0.3513568043708801, 0.32188573479652405, 0.06494414061307907, -0.16909554600715637, -0.16232097148895264, 0.08709501475095749, 0.26519912481307983, -0.41189321875572205, 0.009163951501250267, 0.10524564236402512, -0.07792264223098755, -0.08246250450611115, 0.5064510703086853, -0.15329906344413757, -0.03713085502386093, 0.24356403946876526, -0.06451532989740372, -0.1775260865688324, -0.11917784810066223, -0.08550197631120682, 0.14305315911769867, -0.28113093972206116, 0.33374685049057007, 0.2525569200515747], [-0.030415251851081848, -0.02730022929608822, -0.5470952987670898, 0.13929904997348785, 0.1266491562128067, -0.2041669636964798, 0.02010156959295273, 0.043166253715753555, 0.03548787534236908, -0.05143449828028679, -0.14131875336170197, 0.021668650209903717, 0.06032387167215347, -0.3255182206630707, -0.5386983156204224, 0.426052987575531, 0.4991936981678009, 0.717441201210022, -0.2400214523077011, -0.01300849299877882, 0.5526220202445984, -0.014264250174164772, 0.06943389773368835, -0.19734930992126465, 0.03757272660732269, 0.03600240871310234, -0.04762790724635124, -0.026715943589806557, 0.11432269960641861, -0.09210680425167084, 0.44558802247047424, 0.20847994089126587, 0.18643683195114136, 0.13713330030441284, -0.36494696140289307, -0.02932484820485115, -0.27388355135917664, -0.014196652919054031, -0.06652360409498215, -0.03690420091152191], [-0.17596611380577087, -0.15210019052028656, -0.015953317284584045, -0.4610288739204407, -0.23931115865707397, 0.17767289280891418, 0.08575046062469482, 0.39549365639686584, -0.18354050815105438, -0.10760752111673355, -0.20032623410224915, -0.02570882998406887, -0.4135968089103699, 0.14938458800315857, 0.11762060970067978, 0.11832921206951141, 0.41205573081970215, 0.22354795038700104, 0.258832722902298, -0.32907193899154663, -0.12192265689373016, 0.10297827422618866, 0.23762966692447662, -0.5165308117866516, 0.0862772986292839, 0.04817426577210426, 0.003090657526627183, -0.04958096146583557, 0.050702713429927826, -0.20236968994140625, -0.09887140244245529, 0.12995092570781708, -0.15283480286598206, -0.03930255025625229, -0.03322610631585121, -0.0681414008140564, 0.14259721338748932, -0.23978111147880554, 0.3369722366333008, 0.26807668805122375], [0.04412273317575455, 0.5068612098693848, 0.19235841929912567, 0.35498929023742676, 0.10311323404312134, -0.2136102169752121, -0.2910230755805969, -0.4866914451122284, 0.284456729888916, 0.033314209431409836, 0.3151906728744507, 0.1064511388540268, 0.06868888437747955, -0.10857973247766495, -0.20659808814525604, 0.19199545681476593, -0.49673765897750854, 0.07727894186973572, -0.05960904434323311, 0.26596787571907043, -0.08195551484823227, -0.03732990473508835, -0.4199618101119995, 0.4063292443752289, -0.15379373729228973, -0.0011941418051719666, -0.032360322773456573, -0.010167352855205536, -0.33733147382736206, 0.35382455587387085, 0.007029937580227852, -0.4702925384044647, 0.2560167610645294, 0.04092076048254967, 0.053906459361314774, -0.010401494801044464, -0.11407946795225143, -0.17741896212100983, -0.2541065812110901, -0.4982219636440277], [0.01680123619735241, -0.1879858821630478, -0.04500631242990494, -0.10791303962469101, -0.22684352099895477, 0.22361907362937927, 0.2633046507835388, 0.1583288013935089, -0.3493681848049164, 0.019619178026914597, -0.2702362835407257, -0.11840297281742096, -0.09329692274332047, 0.2393309623003006, 0.24396458268165588, -0.28463518619537354, 0.11644689738750458, -0.19093990325927734, 0.11906331777572632, -0.24735808372497559, -0.08908553421497345, 0.016640055924654007, 0.19923020899295807, -0.08488255739212036, 0.20623035728931427, 0.00473941070958972, 0.06588542461395264, 0.07695566117763519, 0.32918092608451843, -0.3546800911426544, -0.14241750538349152, 0.13789434731006622, -0.13919420540332794, -0.278408944606781, 0.019104937091469765, 0.061418864876031876, 0.08768858760595322, -0.010037213563919067, 0.3240200877189636, 0.2419852912425995], [0.1789599508047104, 0.16799025237560272, 0.8307510614395142, 0.32659202814102173, -0.07681450992822647, -0.10413240641355515, 0.054679080843925476, -0.17024463415145874, 0.29250454902648926, 0.3051550090312958, -0.21394789218902588, -0.06730174273252487, -0.06905065476894379, 0.04859062656760216, -0.27815961837768555, 0.26101407408714294, -0.06620613485574722, 0.18875597417354584, -0.2798919379711151, 0.2290223091840744, -0.4589519500732422, -0.08469726145267487, -0.013297227211296558, 0.09699306637048721, -0.06105741113424301, -0.0400257371366024, 0.1436806172132492, 0.023615600541234016, -0.545681893825531, -0.3121478855609894, -0.025363890454173088, -0.044383272528648376, 0.2308076173067093, -0.04852413386106491, 0.11221884936094284, 0.1351587176322937, -0.33761805295944214, -0.2385294884443283, -0.48855388164520264, -0.047387316823005676], [0.03180580213665962, 0.1766209900379181, -0.016837572678923607, 0.1277313083410263, 0.019373081624507904, -0.19331112504005432, -0.014078907668590546, -0.11970624327659607, 0.22903604805469513, 0.03772960603237152, 0.054095637053251266, -0.001595372799783945, 0.04420160874724388, -0.016394954174757004, -0.1509765237569809, 0.0661223977804184, -0.17840459942817688, 0.12978194653987885, -0.04857400432229042, 0.08888312429189682, -0.0037140108179301023, -0.05622249096632004, -0.08599303662776947, 0.08482169359922409, -0.03644054755568504, -0.03661438822746277, 0.0016064941883087158, 0.008438481949269772, -0.1730232834815979, 0.028884759172797203, 0.0027374315541237593, -0.1656598448753357, 0.1187620460987091, 0.024114428088068962, 0.01371529046446085, 0.02420274168252945, -0.1527421921491623, 0.0615786574780941, -0.14850567281246185, -0.11611630767583847], [-0.02405906468629837, -0.20849157869815826, -0.04424925148487091, -0.2317202091217041, 0.039148394018411636, 0.07412222027778625, -0.0038395917508751154, 0.32130950689315796, -0.2605572044849396, -0.022139322012662888, 0.02412734366953373, -0.007185935974121094, 0.019869953393936157, 0.01481733936816454, 0.07437141239643097, -0.16175584495067596, 0.22097133100032806, 0.0006177702452987432, 0.025487296283245087, -0.03082704357802868, 0.07116370648145676, 0.008131906390190125, -0.04711121693253517, -0.04833601415157318, -0.0088989632204175, 0.02490825764834881, -0.023974979296326637, -0.03082611970603466, -0.08628620952367783, -0.06986910104751587, 0.04214746505022049, 0.09528233855962753, -0.08590159565210342, -0.018780171871185303, -0.02066243253648281, -0.02243206277489662, 0.08820698410272598, 0.05491861701011658, 0.17401337623596191, -0.08703489601612091], [-0.07833229750394821, -0.23571854829788208, 0.07008262723684311, -0.29272112250328064, -0.16034738719463348, 0.3345799148082733, 0.21553552150726318, 0.19045040011405945, -0.17734818160533905, -0.04866444319486618, 0.24717579782009125, -0.15175044536590576, -0.15101292729377747, 0.23742127418518066, 0.3062340021133423, -0.3051213324069977, 0.09013626724481583, -0.472241073846817, 0.17137177288532257, -0.2558646500110626, -0.39948704838752747, 0.07719697058200836, 0.29717010259628296, 0.6668052077293396, 0.16157875955104828, 0.08303684741258621, 0.10504510253667831, -0.033274561166763306, 0.4375981390476227, -0.18807488679885864, -0.2878190577030182, 0.10372017323970795, -0.41939011216163635, -0.11745097488164902, 0.07364914566278458, 0.007944811135530472, 0.2180100381374359, -0.13797879219055176, 0.32542774081230164, 0.49146920442581177], [-0.02768602780997753, 0.08585381507873535, -0.0010246955789625645, -0.0066358549520373344, 0.02891804277896881, 0.007735883351415396, -0.030545568093657494, 0.010682504624128342, 0.11403031647205353, -0.020772626623511314, 0.0760246217250824, 0.007404880132526159, -0.004391536582261324, -0.0034676608629524708, 0.017133517190814018, 0.061104051768779755, -0.0030033511575311422, 0.06252951174974442, -0.04131975769996643, -0.010824070312082767, 0.016082430258393288, -0.0016755037941038609, -0.010050909593701363, 0.04622117429971695, -0.049105431884527206, 0.020798811689019203, -0.013666486367583275, -0.01583302579820156, -0.06692460924386978, 0.006955495569854975, 0.010475000366568565, -0.1046745553612709, -0.01383297797292471, 0.020924212411046028, -0.01619911566376686, -0.02311338298022747, -0.09501630812883377, -0.012021966278553009, -0.020221559330821037, -0.036207184195518494], [0.06694415956735611, 0.15780246257781982, -0.043584514409303665, 0.05875656008720398, 0.06402819603681564, -0.15833799540996552, 0.006952357012778521, -0.15842285752296448, 0.1917513906955719, 0.0522838719189167, 0.06816486269235611, 0.004235484171658754, 0.08475787192583084, -0.16675129532814026, -0.28364184498786926, 0.1775941401720047, -0.1857484132051468, 0.2179366499185562, -0.13183549046516418, 0.2144320160150528, 0.044501692056655884, -0.04485757276415825, -0.07075676321983337, 0.20301039516925812, -0.015802280977368355, -0.06673289835453033, 0.02033611200749874, 0.03628786280751228, -0.1095113679766655, 0.11138828843832016, 0.09108582884073257, -0.182547464966774, 0.22734038531780243, 0.009273119270801544, 0.044550441205501556, 0.06032330170273781, -0.23323385417461395, 0.09745685011148453, -0.17837826907634735, -0.1052432581782341], [-0.1049933135509491, -0.22766940295696259, -0.09959843009710312, -0.20153185725212097, 0.03986870497465134, 0.12319090962409973, -0.012744391337037086, 0.20751124620437622, -0.34742265939712524, -0.08526232093572617, -0.0006622800137847662, 0.036384232342243195, -0.046430788934230804, 0.004824937786906958, 0.29211339354515076, -0.09612686187028885, 0.28960803151130676, -0.10539767891168594, 0.06810089945793152, -0.21618574857711792, 0.04932001978158951, 0.05698041990399361, 0.05162816122174263, -0.04064466804265976, 0.06281357258558273, 0.07331083714962006, -0.03955278545618057, -0.048801571130752563, 0.13810808956623077, -0.0764436200261116, 0.0018936970736831427, 0.19278721511363983, -0.16814446449279785, 0.010798324830830097, -0.07409244775772095, -0.0785452350974083, 0.11479421705007553, -0.09761794656515121, 0.2915355861186981, 0.14711201190948486], [-0.03846488893032074, -0.19383101165294647, -0.02188781276345253, -0.1301901638507843, -0.005523208994418383, 0.08955210447311401, 0.02192038670182228, 0.13017722964286804, -0.20688478648662567, -0.04892396181821823, -0.04888186976313591, -0.032368700951337814, -0.042805690318346024, 0.016164416447281837, 0.13570144772529602, -0.1511697620153427, 0.19202081859111786, -0.10889303684234619, -0.005013675894588232, -0.08978892862796783, 0.046305038034915924, 0.0278523750603199, 0.13670781254768372, -0.01475221011787653, 0.0387522354722023, 0.0413760244846344, 9.639975178288296e-05, -0.03114798478782177, 0.0813300684094429, -0.15014708042144775, 0.032949645072221756, 0.15810838341712952, -0.044034443795681, 0.013321110047399998, -0.042087066918611526, -0.025365080684423447, 0.0842418521642685, -0.03191620856523514, 0.12678977847099304, 0.029747487977147102], [-0.0933937057852745, 0.00488530145958066, -0.19894476234912872, -0.17425845563411713, 0.12179519981145859, -0.3835529088973999, -0.07429042458534241, 0.35810723900794983, -0.03558442369103432, -0.042014230042696, 0.009949811734259129, 0.0889739841222763, 0.07688490301370621, -0.14083266258239746, -0.2862637937068939, 0.586320161819458, 0.05043160915374756, 0.5165229439735413, -0.24598342180252075, 0.13697101175785065, 0.3648286461830139, 0.010157543234527111, -0.01719065010547638, 0.1821782886981964, 