{"model_data": {"model": "SimpleRNN", "input_size": 1, "skip": 1, "output_size": 1, "unit_type": "GRU", "num_layers": 1, "hidden_size": 20, "bias_fl": true}, "state_dict": {"rec.weight_ih_l0": [[-0.04637657105922699], [-0.29214873909950256], [-0.13201786577701569], [-0.004853743594139814], [0.3150964379310608], [0.04946071654558182], [-0.01620103046298027], [-0.0649419054389], [-0.12605716288089752], [0.12094185501337051], [0.06914503127336502], [-0.4953654408454895], [0.15783481299877167], [0.006678574252873659], [-0.3373614251613617], [0.0028058625757694244], [0.002272948157042265], [0.05550602078437805], [0.20147086679935455], [-0.0573359951376915], [-0.02950471080839634], [0.17576541006565094], [0.1650969386100769], [0.006167782936245203], [0.0608237124979496], [0.0031283756252378225], [0.0967048779129982], [-0.010575270280241966], [0.023825300857424736], [-0.033816978335380554], [-0.2184973508119583], [0.6266286373138428], [-0.2761979401111603], [0.028460605069994926], [0.004291205666959286], [-0.0006053012330085039], [-0.031364213675260544], [0.006767092738300562], [-0.07136599719524384], [-0.11093269288539886], [-0.024342859163880348], [1.0731019973754883], [0.9606636166572571], [-0.8413333892822266], [1.0090882778167725], [0.26486217975616455], [0.2902984619140625], [0.017246611416339874], [0.9148620367050171], [-0.17307628691196442], [-0.9844918251037598], [-1.0782445669174194], [1.0501405000686646], [0.975560188293457], [-1.2152585983276367], [1.1759371757507324], [-0.18935248255729675], [0.26572465896606445], [1.4441912174224854], [-0.6666868925094604]], "rec.weight_hh_l0": [[0.0671418085694313, 0.033754803240299225, -0.07534684240818024, 0.021218903362751007, 0.018060455098748207, -0.02822512947022915, 0.026389023289084435, 0.03228963166475296, -0.04697694629430771, 0.11050229519605637, -0.034923866391181946, 0.056445226073265076, -0.04075539857149124, -0.02644701488316059, -0.05562794953584671, 0.03218145668506622, 0.022208068519830704, -0.09822729229927063, -0.14710192382335663, 0.03308683633804321], [-0.05120866745710373, -0.13476645946502686, -0.3430207073688507, 0.1872677206993103, -0.21467241644859314, -0.10856298357248306, -0.15167517960071564, 0.035826001316308975, 0.006938011385500431, -0.05603804066777229, 0.4199444055557251, 0.10984709858894348, -0.04324520751833916, -0.03745926916599274, 0.16849593818187714, -0.31803613901138306, 0.04205977916717529, 0.07794637978076935, 0.12203383445739746, 0.25564512610435486], [0.00045536772813647985, 0.14226925373077393, -0.07070333510637283, 0.13782954216003418, 0.024554548785090446, 0.012762114405632019, 0.18728458881378174, 0.04516651853919029, -0.06523889303207397, 0.168486088514328, 0.0725114718079567, 0.11753623932600021, -0.1497746706008911, -0.05224611237645149, 0.0005987987387925386, 0.21945711970329285, 0.21465425193309784, -0.12413719296455383, -0.4240656793117523, 0.31652122735977173], [-0.02468693070113659, 0.1813930869102478, -0.09549495577812195, -0.016939789056777954, 0.005957944318652153, -0.0646294504404068, 0.07372501492500305, 0.1972595751285553, -0.0425875298678875, 0.3046468496322632, -0.061642102897167206, 0.2748759388923645, -0.04908502846956253, -0.45378658175468445, -0.26429009437561035, 0.20854321122169495, 0.003306753234937787, -0.004171561449766159, -0.18578696250915527, -0.07398290932178497], [0.16026078164577484, -0.3016568422317505, -0.10674015432596207, 0.01861259713768959, -0.24231316149234772, -0.09347139298915863, 0.08738195151090622, 0.0511271134018898, -0.16464439034461975, 0.0640370100736618, -0.3057568073272705, 0.11912288516759872, -0.21120485663414001, -0.5799252390861511, -0.27909648418426514, -0.08930359780788422, -0.1872766762971878, -0.029476206749677658, 0.49124059081077576, 0.058534834533929825], [0.10203493386507034, 0.01763308048248291, 0.032320741564035416, -0.11867158859968185, 0.03251063823699951, 0.016385572031140327, 0.08177062124013901, 0.028135860338807106, -0.042653948068618774, 0.07010132074356079, -0.15136496722698212, 0.17111411690711975, 0.001722707413136959, 0.05519421398639679, -0.07297325879335403, 0.19782301783561707, -0.10003203898668289, -0.05827934667468071, -0.01121048629283905, -0.12320306152105331], [-0.03872482478618622, 0.08039805293083191, -0.18037903308868408, -0.0638834685087204, 0.13130001723766327, -0.00686714006587863, -0.09602484852075577, -0.015257414430379868, -0.018069129437208176, 0.0015020087594166398, -0.003689850913360715, 0.145460307598114, 0.2225780189037323, 0.12062390893697739, -0.2052966207265854, -0.1986457109451294, 0.07774914056062698, -0.03792186826467514, -0.09633825719356537, -0.18665172159671783], [-0.03549126535654068, 0.08005286008119583, -0.0694405660033226, 0.036933884024620056, 0.007958877831697464, -0.013323772698640823, -0.008298421278595924, 0.028051825240254402, -0.035542573779821396, 0.018434293568134308, 0.04715500399470329, 0.03825271129608154, -0.014378479681909084, -0.06610619276762009, -0.055425677448511124, -0.06522831320762634, 0.06308359652757645, -0.013848856091499329, -0.050253719091415405, 0.052196502685546875], [0.24370430409908295, -0.5100474953651428, -0.004331407602876425, -0.01079645100980997, -0.13570494949817657, -0.10098939388990402, -0.07756616175174713, -0.04847574606537819, -0.01737857237458229, -0.009276321157813072, 0.02626597136259079, 0.005960613023489714, -0.007868128828704357, 0.0031138723716139793, 0.4802371859550476, 0.08207408338785172, -0.4022720754146576, -0.07857685536146164, 0.3268285393714905, -0.04846658185124397], [0.168055459856987, -0.09315864741802216, 0.11736685782670975, -0.05009504407644272, 0.04057146981358528, -0.014509161002933979, 0.03320525959134102, -0.032588567584753036, -0.07757386565208435, 0.025441700592637062, -0.0688217505812645, 0.05286753177642822, -0.06693989783525467, -0.05001293122768402, -0.028032200410962105, 0.18747466802597046, -0.1974431574344635, -0.032875560224056244, 0.050191424787044525, -0.09090616554021835], [0.15634788572788239, -0.16706745326519012, 0.040881626307964325, -0.049276914447546005, 0.07505501061677933, -0.008894836530089378, 0.13762763142585754, -0.000659890822134912, -0.019459355622529984, 0.09547000378370285, -0.05523000285029411, 0.04901520162820816, -0.14461159706115723, 0.07462038844823837, 0.0511137992143631, 0.2370907962322235, -0.13496126234531403, -0.07737148553133011, 0.005894532892853022, -0.016723059117794037], [0.14987978339195251, -0.45981577038764954, -0.34983962774276733, 0.2263418287038803, -0.08114831149578094, 0.0028553588781505823, 0.23352067172527313, -0.019747406244277954, -0.08997615426778793, 0.026294611394405365, 0.14492259919643402, 0.648640513420105, -0.09476090222597122, 0.0400620698928833, 0.5301899909973145, 0.4841773211956024, -0.18953867256641388, -0.14108526706695557, -0.012656331062316895, 0.3927692770957947], [0.20116011798381805, -0.20372642576694489, 0.21265649795532227, -0.06040339171886444, 0.03257584944367409, -0.1304125338792801, -0.5031067132949829, -0.06160396710038185, 0.16320477426052094, -0.14649279415607452, 0.47356709837913513, -0.18260273337364197, 0.29592427611351013, 0.04704701527953148, 0.6796701550483704, -0.2517426609992981, -0.45139336585998535, -0.012581802904605865, 0.7921082377433777, -0.2977215051651001], [0.1621147096157074, 0.1835440695285797, -0.22328037023544312, -0.29354166984558105, -0.07463446259498596, 0.07658282667398453, 0.2634735107421875, 0.22899843752384186, -0.4023230969905853, 0.35639309883117676, -0.372027188539505, 0.5141244530677795, 0.07866805791854858, 0.3351500928401947, 0.20073556900024414, 0.5732659101486206, -0.5407288670539856, -0.17648707330226898, -0.12269308418035507, -0.7465331554412842], [-0.12816132605075836, 0.06248565763235092, -0.9042677283287048, 0.384621798992157, -0.08219888806343079, -0.22057707607746124, 0.27596667408943176, 0.13630898296833038, -0.004028408322483301, 0.05707388371229172, 0.20894120633602142, 1.1396815776824951, -0.22681516408920288, -0.526833176612854, -0.6277830004692078, -0.3437541425228119, 0.23957420885562897, -0.11880109459161758, -0.0006805479642935097, 0.1946662813425064], [0.00039210953400470316, -0.011116690002381802, -0.23929667472839355, -0.03286413475871086, -0.030284449458122253, -0.020103834569454193, -0.053649596869945526, -0.0015892316587269306, -0.004400705453008413, -0.10241763293743134, -0.010715554468333721, 0.053856391459703445, -0.06877876818180084, 0.012881333008408546, -0.08162705600261688, -0.229127898812294, -0.07279233634471893, 0.0508648119866848, 0.2816533148288727, -0.033450234681367874], [-0.07050680369138718, 0.24362480640411377, -0.19521242380142212, -0.017107123509049416, 0.21831941604614258, 0.01534225419163704, 0.052390195429325104, 0.03567442670464516, 0.019139999523758888, 0.12197477370500565, 0.013331221416592598, 0.0771893784403801, 0.04099263995885849, -0.014420382678508759, -0.3100118041038513, 0.08334434032440186, 0.21569737792015076, -0.14249858260154724, -0.3149223029613495, -0.0435752309858799], [0.2183380424976349, -0.15752658247947693, -0.0534602515399456, -0.009886745363473892, -0.019493399187922478, -0.021500708535313606, 0.03922957926988602, -0.013952112756669521, -0.1421811431646347, -0.01453370414674282, -0.22691679000854492, 0.23960810899734497, -0.1277947723865509, -0.1436605155467987, 0.09580087661743164, 0.017203886061906815, -0.28993159532546997, -0.06018950045108795, 0.31357961893081665, -0.06483513861894608], [-0.0618063285946846, 0.8355649709701538, -0.13587969541549683, -0.45766574144363403, -0.1848578304052353, 0.07568706572055817, 0.6551195979118347, 0.3589220643043518, -0.2950618863105774, 0.6139317750930786, 0.13537262380123138, 0.35997965931892395, -0.5675023794174194, -0.043821293860673904, -1.170353651046753, 1.4949488639831543, -0.020384175702929497, -0.2017802894115448, -0.7545786499977112, -0.17939351499080658], [-0.08006148040294647, 0.5319211483001709, -0.4074477255344391, 0.2886912524700165, 0.24687977135181427, 0.023473668843507767, -0.361492782831192, 0.13694728910923004, 0.3592704236507416, 0.2590700685977936, -0.31915220618247986, 0.4839411973953247, 0.6371725797653198, -0.3113451302051544, 0.21594087779521942, 0.01604350097477436, 0.3884947597980499, -0.4396015405654907, -0.3801312744617462, -0.1277090162038803], [0.001985769020393491, 0.0025847209617495537, 0.0035580936819314957, 0.0013238283572718501, -0.015456940978765488, -0.0005593839450739324, -0.004125949926674366, 0.001295994152314961, 0.006970529444515705, 0.004178024362772703, -0.017588647082448006, -0.001751946285367012, 0.006433221511542797, -0.0053364927880465984, 0.0034344433806836605, 0.003762411419302225, 0.001772094052284956, -0.009582500904798508, -0.0038781885523349047, 0.0035724348854273558], [-0.023722101002931595, -0.015134853310883045, -0.10839290916919708, -0.06274112313985825, 0.22610583901405334, 0.04741136357188225, 0.012390516698360443, -0.06366782635450363, -0.3256165087223053, -0.0969160869717598, 0.0265954602509737, 0.10111260414123535, 0.029246730729937553, -0.331531822681427, -0.21168263256549835, -0.06768812239170074, 0.03545607253909111, 0.11767043173313141, 0.002062344690784812, -0.4565141797065735], [0.2906515896320343, -0.16586121916770935, 0.0812775045633316, -0.07929864525794983, 0.39511504769325256, -0.067308209836483, 0.23848050832748413, -0.02327481471002102, -0.10609288513660431, 0.28209587931632996, -0.42153745889663696, 0.6574335098266602, -0.4202851355075836, 0.30869048833847046, -0.2753456234931946, 0.48572343587875366, -0.04911664500832558, -0.28502216935157776, -0.5151556730270386, 0.2866593301296234], [-0.05841636657714844, -0.04540259391069412, 0.08878140896558762, 0.004563240334391594, -0.08936203271150589, 0.0017617960693314672, 0.017970461398363113, -0.01596299186348915, -0.02958260476589203, -0.03379106894135475, 0.10980460792779922, -0.18576063215732574, -0.11110103875398636, -0.04911429435014725, 0.09423579275608063, 0.03259079530835152, 0.009013419970870018, 0.06764962524175644, 0.011767367832362652, 0.03221451863646507], [-0.24768595397472382, 0.12386810034513474, 0.060965102165937424, 0.03754796087741852, -0.08962547034025192, 0.09021976590156555, 0.04909048229455948, -0.00857286062091589, 0.006903670262545347, -0.1208798885345459, 0.0770806074142456, -0.2378036081790924, -0.000149365485413, 0.04842888191342354, 0.009972660802304745, -0.004397720564156771, 0.21169200539588928, 0.12942233681678772, -0.015131436288356781, 0.050291866064071655], [-0.03310316056013107, -0.009285842068493366, 0.029210738837718964, 0.0025098409969359636, -0.010243150405585766, -0.0017692608525976539, -0.005534118041396141, -0.007165814749896526, 0.003791601164266467, -0.021217897534370422, 0.05444478243589401, -0.08017018437385559, -0.03162100911140442, -0.006407478358596563, 0.06467308849096298, 0.0020818887278437614, 0.011080126278102398, 0.02620025910437107, 0.005236782133579254, 0.020818540826439857], [-0.04912184178829193, -0.0021621952764689922, 0.04854157194495201, 0.051605600863695145, -0.03340199962258339, -0.015597894787788391, -0.036802731454372406, 0.008023842237889767, 0.05141029134392738, -0.007142959162592888, 0.034506700932979584, -0.1182532086968422, -0.05663546174764633, -0.04434990510344505, 0.07053366303443909, 0.011813328601419926, 0.041883766651153564, 0.003776643658056855, -0.012837167829275131, 0.1342049539089203], [-0.004881497006863356, -0.015627657994627953, 0.018715962767601013, -0.01316995732486248, -0.007125204429030418, 0.00014088554598856717, 0.008200419135391712, -0.002589138923212886, 0.006689294241368771, -0.0066864220425486565, 0.024978656321763992, -0.02605259045958519, -0.01931111328303814, 0.03623705357313156, -0.00024134964041877538, 0.005309344734996557, -0.009856142103672028, 0.013377455994486809, 0.012086943723261356, 0.0016270031919702888], [-0.17736798524856567, 0.11271756887435913, -0.01619544066488743, 0.06389177590608597, -0.005115816835314035, 0.04895852506160736, -0.019399961456656456, -0.0076186577789485455, 0.00922233797609806, -0.09124831855297089, 0.0635334774851799, -0.11508353799581528, 0.02765544131398201, -0.07496187090873718, 0.028716828674077988, -0.021676423028111458, 0.16211502254009247, 0.07454808056354523, -0.056016210466623306, 0.06293586641550064], [-0.019650783389806747, -0.001963961636647582, -0.004820046480745077, -0.02272585593163967, 0.011407237499952316, -0.00041279822471551597, -0.010911533609032631, -0.0025331408251076937, 0.0398336723446846, -0.015114917419850826, 0.034491341561079025, -0.00822652131319046, 0.013284515589475632, 0.06972905993461609, -0.013245540671050549, -0.016818249598145485, -0.0015980761963874102, 0.012395060621201992, 0.02606084942817688, 0.0037751509808003902], [-0.11642289906740189, 0.1396520584821701, -0.18844643235206604, -0.4471038579940796, -0.24450480937957764, 0.06882112473249435, 0.2413846105337143, -0.012931806966662407, -0.027099566534161568, -0.11056262254714966, 0.3949006199836731, 0.2683342695236206, 0.09102403372526169, 1.256468653678894, -0.5481685996055603, -0.06590517610311508, -0.11210571229457855, 0.10637746751308441, 0.3188397288322449, 0.003696191357448697], [0.09349919110536575, -0.16475318372249603, 0.09145699441432953, -0.034734636545181274, 0.6282085180282593, -0.23330479860305786, -0.25525766611099243, -0.12075857818126678, 0.001875104382634163, 0.004559176508337259, 0.1998341828584671, 0.5584038496017456, -0.45902618765830994, -0.1266930252313614, 0.027470480650663376, 0.5037302374839783, -0.1432134360074997, -0.29324325919151306, -0.03769751638174057, 0.2666354179382324], [-0.047172367572784424, -0.050642892718315125, 0.09067659080028534, -0.18837828934192657, -0.18995767831802368, 0.03190063312649727, 0.07478522509336472, -0.09513254463672638, -0.19697518646717072, -0.17729824781417847, 0.42377540469169617, -0.27230942249298096, -0.048945553600788116, 0.2889762222766876, -0.05195952206850052, -0.07092124968767166, -0.08405662328004837, 0.25039467215538025, 0.09179925918579102, -0.02004980482161045], [-0.2527324855327606, 0.23476703464984894, 0.08965035527944565, 0.09191084653139114, 0.12973761558532715, 0.0018067877972498536, -0.16505804657936096, -0.06739717721939087, 0.05425528436899185, -0.13548800349235535, 0.2867768406867981, -0.24422147870063782, 0.06342272460460663, -0.008042966946959496, 0.05030487850308418, -0.15235896408557892, 0.1859331876039505, 0.10940241813659668, -0.04833490401506424, 0.17431430518627167], [0.13358959555625916, -0.03294146806001663, -0.000696999195497483, -0.008486464619636536, -0.03438315913081169, 0.07581551373004913, 0.13723261654376984, 0.0007771296659484506, -0.22884173691272736, 0.05614786967635155, -0.3373062312602997, 0.14981310069561005, 0.08100645244121552, -0.29070308804512024, 0.023833252489566803, 0.07724723219871521, -0.04242672398686409, -0.015005572699010372, 0.019226668402552605, -0.29395389556884766], [-0.057954754680395126, -0.4856050908565521, -1.1056581735610962, -0.14305824041366577, 0.41436275839805603, -0.20710520446300507, -0.2848208248615265, -0.08088932186365128, 0.09481222182512283, 0.031100112944841385, -0.15971188247203827, 0.9186050295829773, 0.4126250743865967, 0.5266736149787903, 0.28511402010917664, -0.488209068775177, 0.02905571088194847, -0.12782521545886993, -0.43953442573547363, -0.5005962252616882], [0.0010402894113212824, -0.006823556963354349, 0.019710684195160866, 0.007633502595126629, -0.0627003088593483, -0.0007338690338656306, 0.00026502780383452773, -2.808746103255544e-05, -0.0025922544300556183, 0.002233583014458418, -0.013874892145395279, -0.024593384936451912, -0.006750514265149832, 0.042626213282346725, 0.025113416835665703, 0.013365921564400196, -0.0025447087828069925, -0.004266240634024143, -0.013777060434222221, 0.02614140696823597], [-0.07270374894142151, -0.002203612122684717, 0.015962135046720505, -0.0289583932608366, 0.033785540610551834, 0.0012885209871456027, -0.030932987108826637, -0.012542812153697014, 0.06282148510217667, -0.053135160356760025, 0.11123606562614441, -0.0772850289940834, -0.004602156113833189, 0.0645214319229126, -0.021652957424521446, -0.028227418661117554, 0.014872950501739979, 0.053866103291511536, 0.039674170315265656, 0.0075974720530211926], [0.3480633497238159, -0.3258126378059387, 0.2508910000324249, -0.10418389737606049, -0.05969149246811867, -0.03897355496883392, 0.18245892226696014, 0.0920732319355011, 0.5311031937599182, 0.3065250515937805, -0.6563245058059692, -0.0990300104022026, -0.28875356912612915, 0.09040560573339462, 0.09015212208032608, 0.41406670212745667, -0.20133322477340698, -0.2691619396209717, 0.16749845445156097, 0.053870026022195816], [-0.2261807769536972, -0.024287572130560875, 0.1207079142332077, 0.006845537107437849, -0.15248781442642212, 0.007465275935828686, 0.025602499023079872, -0.04688379541039467, -0.07379139959812164, -0.18227240443229675, 0.5608850717544556, -0.39621418714523315, -0.21533821523189545, 0.22486093640327454, 0.09587208181619644, -0.07127592712640762, 0.05138570815324783, 0.2597801387310028, -0.008464331738650799, 0.1334649622440338], [-0.10569235682487488, -0.05937481299042702, 0.17734691500663757, 0.11412765085697174, -0.10707084834575653, 0.0707053616642952, 0.0008930297335609794, 0.0921744704246521, 0.14640839397907257, 0.08453081548213959, -0.549889862537384, -0.009544208645820618, 0.14246918261051178, -0.24017450213432312, 0.7077476978302002, 0.34971800446510315, 0.05822322890162468, -0.20808278024196625, 0.3368384540081024, -0.1686047911643982], [-0.004852330777794123, 0.2597251832485199, -0.052787791937589645, 0.19328483939170837, 0.19242700934410095, -0.28438445925712585, -0.3289906978607178, 0.18543106317520142, -0.2608679234981537, 0.2276899814605713, 0.29064375162124634, 0.1559893637895584, -0.2968563437461853, -0.2266639620065689, -0.5246455669403076, -0.14866428077220917, 0.27136507630348206, -0.25282755494117737, -0.4786364734172821, 0.7686575055122375], [0.1194518506526947, -0.05650331825017929, 0.6732788681983948, 0.04918921738862991, -0.3534625470638275, -0.00529996445402503, -0.022255506366491318, -0.057792238891124725, -0.05364490672945976, 0.08229593187570572, -0.08951114863157272, -0.30722635984420776, 0.09681032598018646, 0.1606987565755844, 0.5750665068626404, 0.41963624954223633, -0.19269642233848572, 0.11512947827577591, -0.02016274817287922, 0.07699412107467651], [0.13123075664043427, -0.05620376020669937, -0.21355915069580078, 0.1736924946308136, 0.10332562774419785, -0.19188186526298523, 0.009853866882622242, -0.20420025289058685, -0.4071720242500305, 0.15296541154384613, 0.04848572611808777, 0.25250184535980225, -0.03628857061266899, -0.10542292892932892, 0.0021067026536911726, 0.24454845488071442, -0.21533045172691345, -0.17788165807724, -0.24262844026088715, -0.5363151431083679], [-0.04398874565958977, 0.2807932496070862, -0.7252933382987976, 0.4128730595111847, -1.1260409355163574, -0.13030864298343658, -0.019618915393948555, -0.033273108303546906, -0.8644552230834961, 0.14262686669826508, 0.061499420553445816, 0.5022969245910645, 0.07600083202123642, 0.5102781057357788, -0.2038838118314743, 0.13462930917739868, 0.1591363251209259, -0.29607146978378296, -0.7966675758361816, -0.30945172905921936], [-0.08760735392570496, 0.20238995552062988, -0.034767258912324905, -0.035922884941101074, 0.12465465813875198, 0.1257781982421875, 0.0040484643541276455, 0.13063421845436096, 0.11604461073875427, 0.08287577331066132, -0.13243673741817474, -0.004446633625775576, -0.18561306595802307, 0.3494808077812195, -0.2432485669851303, 0.2232387363910675, 0.17935431003570557, 0.09645912796258926, 0.23506341874599457, 0.6104871034622192], [-0.14725880324840546, -0.009356120601296425, 0.10946756601333618, -0.16625817120075226, 0.2352464199066162, 0.25409188866615295, 0.02114575356245041, 0.18154962360858917, 0.4368084967136383, -0.13416649401187897, -0.18404759466648102, -0.02748272940516472, -0.4415791630744934, 0.039153341203927994, -0.021637070924043655, 0.661328911781311, 0.42629683017730713, 0.032450199127197266, 0.32642993330955505, 0.9568387269973755], [0.08277521282434464, 0.01553555577993393, -0.022159568965435028, 0.1464686095714569, -0.09495772421360016, -0.13381120562553406, 0.03073248267173767, -0.05935775488615036, -0.20801787078380585, 0.04517240449786186, 0.0642777606844902, 0.03836847096681595, -0.15733109414577484, -0.2877306044101715, -0.23394235968589783, -0.0945039615035057, -0.09098142385482788, -0.09052553027868271, -0.16248513758182526, 0.12897400557994843], [-0.04875120520591736, -0.09374571591615677, -0.5826968550682068, 0.2525559961795807, -0.6148297190666199, -0.2829684317111969, -0.23470547795295715, 0.14020265638828278, -0.9472259283065796, 0.057585280388593674, 0.09618354588747025, 0.3283920884132385, -0.5726662874221802, -0.19036316871643066, -0.2442915439605713, -0.31704869866371155, 0.02419906295835972, -0.10758201777935028, -0.22861464321613312, 0.16288483142852783], [0.2912580072879791, 0.07561314105987549, 0.14017432928085327, 0.17384874820709229, 0.2334287017583847, -0.24484381079673767, 0.027472641319036484, -0.030791323632001877, -0.28556588292121887, 0.12165865302085876, -0.24603699147701263, -0.01142945233732462, -0.03201277181506157, -0.4535694718360901, -0.04465247318148613, 0.39839017391204834, -0.13320967555046082, -0.20562461018562317, -0.6028799414634705, -0.2427166998386383], [-0.21418829262256622, 0.2788620591163635, 0.08484456688165665, -0.11959400027990341, -0.39542824029922485, 0.1636875420808792, -0.060714635998010635, -0.0030836595688015223, 0.07951579988002777, -0.07099676132202148, 0.4176520109176636, -0.08480876684188843, 0.2980387508869171, 0.638731062412262, -0.04563407227396965, -0.33120036125183105, 0.05886184051632881, 0.10369104892015457, -0.5166165828704834, -0.07289804518222809], [0.15291793644428253, -0.006778961047530174, -0.032385312020778656, -0.31806328892707825, 0.05931166559457779, 0.10460067540407181, 0.016799069941043854, -0.11499691009521484, 0.01902465894818306, 0.11352415382862091, -0.006170245818793774, 0.5074581503868103, 0.5932390093803406, 0.38207459449768066, -0.5471809506416321, -0.1503908485174179, -0.22376017272472382, -0.03100748546421528, -0.7377996444702148, -0.7206531167030334], [-0.3329119384288788, 0.14729858934879303, -0.5964142084121704, -0.033457327634096146, 0.1542593240737915, 0.1139305830001831, -0.3433419466018677, 0.2562076151371002, 0.24196936190128326, 0.08849212527275085, -0.06583835184574127, 0.36533230543136597, 0.02996087446808815, -0.09316813945770264, 0.008004131726920605, -0.9480482935905457, 0.4787919223308563, -0.07486559450626373, 0.186698779463768, 0.7740272879600525], [-0.5726356506347656, 0.13258425891399384, -0.14812344312667847, -0.18322406709194183, 0.8649068474769592, 0.522593080997467, 0.1902557909488678, 0.2539157569408417, 0.960348904132843, -0.34613895416259766, 0.30452123284339905, -0.29384106397628784, -0.06929264962673187, -0.5703080296516418, 0.34584611654281616, -0.26805466413497925, 0.6780524849891663, 0.36675167083740234, -0.07819651067256927, 0.9095233082771301], [0.44095379114151, -0.12808044254779816, 0.4760979413986206, 0.05061408877372742, -0.10678590089082718, -0.28850507736206055, 0.09263523668050766, -0.05729757994413376, -0.5350412130355835, 0.11252988129854202, -0.3035501539707184, -0.24733194708824158, -0.3411879241466522, -0.2604849338531494, 0.2529790699481964, 0.9860638976097107, -0.7090168595314026, -0.04915141686797142, -0.18564750254154205, -0.5923377871513367], [-0.029422413557767868, 0.11797958612442017, 0.4483388066291809, -0.14002725481987, 0.00316244107671082, 0.0612141489982605, 0.23804506659507751, 0.011962777934968472, -0.29312846064567566, 0.06953366100788116, -0.2417992651462555, 0.27181509137153625, -0.3427349030971527, -0.11672399193048477, -0.19280005991458893, 0.8719875812530518, -0.2160337269306183, -0.1560565084218979, 0.21255765855312347, 0.15655753016471863], [0.0027759543154388666, 0.08874580264091492, -0.24652869999408722, -0.013886090368032455, 0.0729895681142807, -0.04821981489658356, 0.06660543382167816, 0.028168849647045135, -0.2658343017101288, 0.21483220160007477, 0.31970319151878357, 0.17358766496181488, -0.15917746722698212, 0.18558907508850098, -0.7704346179962158, -0.028549768030643463, 0.0757417306303978, -0.07164501398801804, -0.6798215508460999, -0.038609616458415985], [-0.24118340015411377, -0.08808653801679611, -0.005143560003489256, -0.14119717478752136, -0.3107277750968933, 0.14966145157814026, -0.057188980281353, 0.19607660174369812, 0.17698712646961212, -0.03517550602555275, 0.18248732388019562, -0.15968011319637299, -0.15623076260089874, 0.2807397246360779, 0.12159781903028488, -0.24623067677021027, 0.09510215371847153, 0.14345207810401917, 0.6670643091201782, 0.6042478084564209], [-0.16337908804416656, -0.34468528628349304, 0.29945603013038635, 0.45702695846557617, -1.2675745487213135, 0.14189770817756653, -0.03826303035020828, 0.14574569463729858, -0.2552938461303711, -0.0510215237736702, 0.20878364145755768, -0.11307721585035324, 0.07570967823266983, -0.13471397757530212, 0.22441571950912476, -1.3109042644500732, 0.35178065299987793, 0.2210792899131775, 0.09296713024377823, 0.6847753524780273], [-0.4076424539089203, 0.24312596023082733, -0.0511518195271492, 1.1413604021072388, -0.3216010630130768, -0.07511357963085175, -0.09792212396860123, 0.1439812034368515, -0.11743691563606262, 0.03898319602012634, 0.3360133171081543, 0.05662171170115471, -0.3566027581691742, -0.7664223313331604, 0.5445274114608765, -0.13347019255161285, 0.19721819460391998, -0.1267043948173523, -0.9964129328727722, -0.23507627844810486]], "rec.bias_ih_l0": [0.1953699141740799, 0.03257393091917038, -0.043486449867486954, -0.9026370644569397, 0.2774699032306671, -0.518031656742096, 0.03595142811536789, -0.041551120579242706, 0.09980982542037964, -0.35723361372947693, 0.13042984902858734, 0.06541173905134201, -0.13060882687568665, -0.5079073905944824, -0.9629062414169312, 0.11374088376760483, -0.017147481441497803, -0.033645812422037125, -0.6898983716964722, -0.2428530603647232, -0.014989113435149193, 0.6344537138938904, 2.2079391479492188, -0.39730626344680786, -1.0015510320663452, -0.2991155683994293, -0.09020756930112839, 0.019139647483825684, -0.6804813742637634, 0.07759961485862732, 2.0497219562530518, 2.1228113174438477, 0.22578279674053192, -0.598569929599762, -0.20601697266101837, 2.651446580886841, -0.04592854157090187, -0.009763527661561966, -0.4322974979877472, -0.2047913819551468, 0.258309006690979, -0.18814559280872345, -0.05286942422389984, -0.10506711155176163, -0.1199808344244957, 0.004867091309279203, 0.10226193070411682, -0.07038918882608414, -0.11541140079498291, 0.04424368217587471, 0.05499892681837082, 0.0200104508548975, -0.004018192179501057, 0.3463389575481415, -0.020533403381705284, 0.06380867213010788, -0.27197811007499695, -0.004119012039154768, -0.012863186188042164, 0.20103587210178375], "rec.bias_hh_l0": [0.20076775550842285, 0.13058045506477356, -0.05637283995747566, -0.7036268711090088, 0.28631842136383057, -0.5650839805603027, 0.0669555515050888, -0.031891439110040665, 0.13899049162864685, -0.32991188764572144, 0.172816663980484, -0.013414999470114708, -0.01283406000584364, -0.7126153707504272, -0.9265178442001343, 0.040214091539382935, -0.013922217302024364, 0.01960751786828041, -0.5128605365753174, -0.11701297760009766, -0.014989112503826618, 0.6347762942314148, 2.188281297683716, -0.3957638442516327, -1.0015510320663452, -0.2991156578063965, -0.0901072770357132, 0.01913962885737419, -0.6804813146591187, 0.07760161906480789, 2.059530735015869, 2.1669697761535645, 0.22577518224716187, -0.5987170934677124, -0.20591911673545837, 2.6781811714172363, -0.04592854157090187, -0.009751372039318085, -0.43228867650032043, -0.20478209853172302, 0.1476571261882782, 0.07791614532470703, 0.03322072699666023, -0.2096644788980484, -0.07823319733142853, -0.22884982824325562, 0.11000819504261017, 0.10163656622171402, -0.1622711420059204, 0.046721331775188446, -0.045815978199243546, 0.12681637704372406, -0.12377673387527466, 0.4799085259437561, -0.20762048661708832, -0.24920931458473206, -0.12103914469480515, -0.017917612567543983, 0.2127458155155182, -0.38554272055625916], "lin.weight": [[-0.02498653717339039, -0.026345940306782722, 0.053331054747104645, -0.01043124683201313, 0.34115883708000183, -0.06550469249486923, -0.05179808288812637, 0.08247315883636475, -0.0285799540579319, 0.00976631324738264, 0.13372711837291718, 0.20401699841022491, -0.3026854991912842, -0.32272541522979736, -0.12551961839199066, 0.00995685439556837, 0.05766071006655693, -0.045272573828697205, 0.4736292064189911, 0.2530260980129242]], "lin.bias": [0.006561921909451485]}}