{"model_data": {"model": "SimpleRNN", "input_size": 1, "skip": 1, "output_size": 1, "unit_type": "LSTM", "num_layers": 1, "hidden_size": 80, "bias_fl": true}, "state_dict": {"rec.weight_ih_l0": [[-0.0007726267795078456], [-0.021574778482317924], [0.9252322912216187], [0.007539449259638786], [-0.26824554800987244], [0.01957290805876255], [0.009708558209240437], [-0.046389948576688766], [0.0445186123251915], [0.018887508660554886], [-0.005279052071273327], [-0.05186823010444641], [0.10420840978622437], [-0.10243923962116241], [0.018646106123924255], [-0.00031678369850851595], [0.05211403965950012], [0.006702396087348461], [0.06497398763895035], [0.027107715606689453], [0.018624626100063324], [-0.054725851863622665], [-0.0009763784473761916], [-0.0016839881427586079], [-0.007697494234889746], [-0.021579500287771225], [0.9282464385032654], [-0.039021771401166916], [-0.0013621828984469175], [-0.011444459669291973], [0.007599861826747656], [-0.01023290678858757], [0.023641804233193398], [0.003880854230374098], [-0.007594909984618425], [-0.03939555957913399], [-0.005599669646471739], [0.005989163648337126], [-0.03470870107412338], [-0.08051010966300964], [-0.03553151711821556], [0.33913353085517883], [0.4303748607635498], [-0.03192034736275673], [0.21454235911369324], [0.10293371975421906], [0.0032164910808205605], [-0.0058723753318190575], [0.015083670616149902], [-0.05098724737763405], [-0.0039461939595639706], [8.850076119415462e-05], [0.03193042427301407], [-0.005536719225347042], [0.0016595340566709638], [-0.046106476336717606], [-0.05486214533448219], [-0.042653776705265045], [0.001476226025260985], [-0.02025189995765686], [-0.01938648521900177], [-0.1829632669687271], [-0.003219066420570016], [0.0021277032792568207], [0.013525450602173805], [0.0015231381403282285], [-0.04832947626709938], [-0.0030861159320920706], [-0.008330016396939754], [-0.005461744964122772], [0.0015509305521845818], [0.011088254861533642], [-0.004634339362382889], [0.07211635261774063], [0.0020396364852786064], [-0.020947249606251717], [0.020554283633828163], [0.013720329850912094], [-0.017308780923485756], [-0.17473703622817993], [-0.0033784275874495506], [-0.017514700070023537], [1.4358395338058472], [0.016589662060141563], [-0.01797492988407612], [0.013724999502301216], [0.007711116224527359], [-0.07349519431591034], [0.06843476742506027], [0.010486944578588009], [-0.007814745418727398], [-0.018866974860429764], [-0.4260668456554413], [-0.08243612945079803], [0.027580033987760544], [0.0012646844843402505], [0.04904525727033615], [0.003310366068035364], [0.09942231327295303], [0.021205492317676544], [0.025169692933559418], [-0.05337851122021675], [-0.0032851577270776033], [-0.006724360398948193], [-0.011357132345438004], [-0.0065765115432441235], [-0.07782945036888123], [-0.03088904358446598], [-0.008143963292241096], [-0.015446634031832218], [0.004003406967967749], [-0.013344204984605312], [0.017792025581002235], [0.003962735179811716], [-0.010606844909489155], [-0.02900008298456669], [0.030223984271287918], [0.007400389760732651], [-0.024516521021723747], [-0.03545350581407547], [-0.08592687547206879], [0.6678177714347839], [0.4515090584754944], [-0.027241215109825134], [0.24107389152050018], [0.42577072978019714], [0.004177476745098829], [-0.002634431468322873], [0.008403608575463295], [0.19088345766067505], [-0.006256486289203167], [-0.0011598783312365413], [0.04490608721971512], [-0.0031328159384429455], [0.01964743435382843], [-0.011391691863536835], [-0.0394880436360836], [-0.025163231417536736], [0.004740680567920208], [-0.02918880805373192], [-0.013818783685564995], [0.1473003476858139], [-0.005677272565662861], [-0.003239930374547839], [0.010100041516125202], [0.13135159015655518], [-0.00439885538071394], [-0.004214257467538118], [-0.28562960028648376], [-0.010893380269408226], [0.0012143207713961601], [0.017180562019348145], [-0.024231266230344772], [0.06621921807527542], [0.002815566025674343], [-0.011663668788969517], [0.020573556423187256], [0.010193493217229843], [-0.0040881093591451645], [0.6067500114440918], [0.023042945191264153], [0.11218544095754623], [2.1159098148345947], [-0.047336991876363754], [-0.7774853706359863], [-0.1813412606716156], [-0.017764173448085785], [-0.5091120004653931], [-0.38928329944610596], [-0.05924616754055023], [-0.004180959891527891], [-0.08016464859247208], [-0.7430392503738403], [-0.08521667122840881], [-0.10656643658876419], [0.02504693530499935], [-0.15182709693908691], [0.22543029487133026], [-0.36687999963760376], [0.03336193040013313], [0.025061503052711487], [0.043277472257614136], [-0.005810711998492479], [-0.06462185829877853], [-0.016458863392472267], [-0.2157316356897354], [1.5324392318725586], [0.09366083890199661], [-0.09290236979722977], [-0.08895634114742279], [-0.06528820842504501], [-0.0032451970037072897], [0.2586139142513275], [0.013391292653977871], [0.029000746086239815], [-0.07699655741453171], [-0.27531853318214417], [0.045553434640169144], [-0.007520855404436588], [-0.21706123650074005], [-0.28493210673332214], [0.6465551257133484], [-0.48060423135757446], [-0.09309612959623337], [0.42549681663513184], [-1.3181487321853638], [-0.0016315804095938802], [-0.025117386132478714], [0.06400188058614731], [1.2100417613983154], [-0.022260399535298347], [-0.008686386980116367], [-0.21671977639198303], [-0.050293829292058945], [0.021786654368042946], [0.869522213935852], [-0.20096783339977264], [0.21825054287910461], [0.005351243074983358], [0.17477978765964508], [-0.21336080133914948], [1.5412333011627197], [-0.013337064534425735], [-0.014937727712094784], [0.26075491309165955], [0.8124207854270935], [-0.09477908164262772], [-0.00678735226392746], [-2.277194023132324], [0.055286724120378494], [0.005873922724276781], [0.23083901405334473], [0.25879278779029846], [-0.30478447675704956], [0.014879817143082619], [-0.014863552525639534], [-0.58338463306427], [0.016421766951680183], [-0.2526494562625885], [-1.4777733087539673], [0.048127491027116776], [-0.0713663250207901], [-1.786096215248108], [0.03482436761260033], [-0.1899414360523224], [0.035298362374305725], [0.8106104135513306], [1.4953548908233643], [0.09798262268304825], [0.05205217003822327], [0.053088996559381485], [-0.10554012656211853], [-1.2829570770263672], [-0.26575013995170593], [0.05226195603609085], [-0.0004269275814294815], [0.08747605979442596], [0.0046366299502551556], [0.14622557163238525], [0.05262792855501175], [0.3688921332359314], [-0.2578514516353607], [0.14207415282726288], [0.025110209360718727], [0.1294500231742859], [-0.02098681591451168], [-0.8886003494262695], [-0.08760983496904373], [-0.007842231541872025], [-0.0034855580888688564], [0.01779652014374733], [0.04246336594223976], [0.06371290981769562], [0.0044359201565384865], [-0.009459356777369976], [-0.08451016992330551], [-0.005148306954652071], [0.023017732426524162], [-0.11899840831756592], [-0.12410593032836914], [-0.8319114446640015], [-0.04841900244355202], [0.5932556390762329], [-0.09803711622953415], [0.353176087141037], [-0.43323901295661926], [0.8553695678710938], [0.002187705133110285], [0.027387632057070732], [0.11274006962776184], [0.03096475638449192], [0.15593498945236206], [0.064493827521801], [0.0021128214430063963], [0.05863780155777931], [-0.04038236662745476], [-0.15982748568058014], [-0.08621680736541748], [0.34229621291160583], [-0.03701106831431389], [-0.07463561743497849], [0.35516396164894104], [0.0196829941123724], [0.06867947429418564], [0.02737605944275856], [0.10200429707765579], [-0.021664615720510483], [0.15437498688697815], [1.8353832960128784], [0.01498598325997591], [0.19757691025733948], [0.053363360464572906], [-0.36748600006103516], [0.1405709832906723], [0.18671216070652008], [-0.0341385155916214], [-0.635164201259613], [0.0336645282804966], [-0.01950790174305439], [0.39711469411849976]], "rec.weight_hh_l0": [[-0.0011994342785328627, 0.02183781936764717, -0.004646122455596924, 0.014575873501598835, 0.0029138699173927307, -0.01928885281085968, -0.01315453089773655, -0.03334810584783554, 0.026026371866464615, -0.005014318507164717, 0.0004036659956909716, 0.0008339001797139645, -0.006262500770390034, 0.0008554849191568792, 0.02777501381933689, -0.00011154537787660956, 0.018111540004611015, 0.015452759340405464, 0.03716903179883957, 0.012452255003154278, -0.004927336238324642, 0.020970148965716362, 0.0009192186989821494, 0.0014663521433249116, -0.00011059938697144389, 0.003140656743198633, -0.015110968612134457, -0.00032266773632727563, 0.0016600011149421334, 0.0017412910237908363, -0.03314116597175598, 0.0008879107190296054, 0.015166375786066055, -0.0005977452383376658, -0.0007703027804382145, 7.075724715832621e-05, 0.023367315530776978, 0.008561789058148861, -0.00022326139151118696, 0.0028664181008934975, -0.002630210481584072, -0.013628559187054634, -0.029853980988264084, 0.0005894119385629892, -0.020942792296409607, 0.008131657727062702, -0.01377724390476942, 0.0013494350714609027, 0.02554282173514366, -0.016501419246196747, 0.0007002698257565498, 0.0011160904541611671, 0.032756246626377106, -0.02487960271537304, -0.029222749173641205, 0.014216596260666847, -0.03212030604481697, 0.021750690415501595, 0.004877543076872826, -0.0017140054842457175, -0.013364829123020172, -0.02702774666249752, 0.0012409834889695048, 0.0016382603207603097, 0.0069341594353318214, -0.009450579062104225, 0.020959198474884033, -0.0009943455224856734, -0.009386477060616016, -0.0006518799928016961, -0.001785301137715578, 0.028114406391978264, -0.0004904544912278652, 0.021457841619849205, -0.0008956249803304672, -0.00012839803821407259, -0.001776309683918953, 0.016781827434897423, 0.003876070026308298, 0.031850654631853104], [0.0029678321443498135, -0.03671754524111748, 0.011366540566086769, -0.05299018323421478, -0.011037345975637436, 0.03378649055957794, 0.016154706478118896, 0.02392825298011303, -0.08338253945112228, 0.11114219576120377, -0.0031295267399400473, -0.0033151651732623577, -0.005015094764530659, 0.005064098630100489, -0.10789301991462708, 0.0003572969581000507, -0.09861540049314499, -0.06596371531486511, -0.0769740492105484, -0.06939719617366791, 0.008049165830016136, -0.07892388105392456, -0.0016137507045641541, -0.002377066994085908, 0.003253549337387085, -0.002451628679409623, 0.016939835622906685, -0.000874940596986562, -0.0026648459024727345, -0.00222626025788486, 0.05593840032815933, -0.00297083193436265, -0.058344680815935135, -0.0012051134835928679, 0.0020185650791972876, 0.001285202451981604, -0.07419667392969131, -0.07372672855854034, -0.0034187803976237774, 0.002133584814146161, -0.008626448921859264, 0.014743968844413757, -0.03347892686724663, 0.002793428022414446, 0.05157238245010376, -0.007029097061604261, 0.016575155779719353, 0.0011074263602495193, -0.09625665098428726, 0.08633234351873398, -0.0029018253553658724, -0.002817953936755657, -0.08635538071393967, 0.08426383882761002, 0.04876917600631714, -0.016869094222784042, 0.03969968110322952, -0.07566957920789719, -0.0056319814175367355, 0.002331216586753726, 0.08766807615756989, 0.04359239339828491, -0.002457255031913519, -0.004148556850850582, -0.10174567252397537, 0.04725591465830803, -0.11354005336761475, 0.0009167752577923238, -0.021037351340055466, 0.003796342760324478, 0.0004969557630829513, -0.11540299654006958, 0.009732924401760101, -0.05135005712509155, 0.005842606537044048, -0.00020164191664662212, -0.008267421275377274, -0.057444874197244644, -0.0008937119273468852, -0.0822916179895401], [0.042312804609537125, 0.1973339021205902, -0.1274542659521103, 0.19709916412830353, 0.11264286935329437, -0.1353588104248047, 0.19926850497722626, 0.3092803955078125, 0.22678539156913757, -0.1914789080619812, -0.0390101782977581, 0.021004799753427505, 0.1585046499967575, -0.15126793086528778, 0.21166850626468658, 0.006752002518624067, 0.19632378220558167, 0.18733710050582886, 0.1710817813873291, 0.21827583014965057, 0.10909388214349747, 0.22336626052856445, -0.05431390926241875, -0.04464773088693619, 0.06648562848567963, -0.06633356213569641, -0.003439150284975767, 0.06084997579455376, -0.056763242930173874, -0.058136988431215286, -0.1967533826828003, -0.0508587583899498, 0.18280531466007233, -0.004157003480941057, 0.007872522808611393, -0.04279783368110657, 0.20315031707286835, 0.18591831624507904, 0.020041003823280334, -0.04681309312582016, 0.184552863240242, 0.18808291852474213, 0.32638368010520935, -0.060091450810432434, -0.1675672084093094, -0.38467514514923096, 0.23016276955604553, -0.01529650017619133, 0.1122005358338356, -0.15457743406295776, -0.034826066344976425, -0.07525987923145294, 0.16559912264347076, -0.10421192646026611, -0.1402590274810791, 0.28130054473876953, -0.14899276196956635, 0.21598610281944275, -0.10670703649520874, 0.05600808188319206, -0.2582937479019165, -0.20402976870536804, -0.053637318313121796, -0.07823164761066437, 0.21314704418182373, -0.13525035977363586, 0.1916915625333786, 0.07872126251459122, -0.08091413229703903, 0.04134807363152504, 0.06921818852424622, 0.22609518468379974, -0.0128713957965374, 0.11882618069648743, 0.114731065928936, 0.006588872522115707, 0.018936915323138237, 0.19143518805503845, -0.06970936059951782, 0.1125117614865303], [-0.006118704564869404, 0.0017414632020518184, 0.02308937907218933, -3.4763215808197856e-05, 0.006076307501643896, 0.0025269975885748863, -0.02802255190908909, -0.033397335559129715, -0.0013853699201717973, 0.0004277483094483614, 0.005366428289562464, 0.0035083689726889133, -0.0051490734331309795, -0.004638658836483955, -0.0011452034814283252, 0.0008952958742156625, -0.0016998141072690487, -0.002282997127622366, -0.0002023101842496544, -0.0028191115707159042, -0.018701039254665375, -0.0027848761528730392, 0.012937461026012897, 0.0004645329900085926, -0.004819241352379322, 0.0013219929533079267, 0.012800767086446285, 0.0046694097109138966, -0.0009829344926401973, -0.0018827785970643163, 0.00037029184750281274, 0.003662067698314786, -0.002404256258159876, -0.0044294605031609535, 0.0018530802335590124, -0.005091593600809574, -0.0026821757201105356, -0.0008315366576425731, 0.000535561004653573, 0.008862722665071487, 0.006752201355993748, -0.029833843931555748, 0.003600584575906396, 0.00013185260468162596, 0.003815623465925455, 0.0038112313486635685, -0.023912904784083366, 0.002184552140533924, -0.0011886997381225228, -0.0031923316419124603, 0.003563624806702137, 0.009477878920733929, -0.0015500624431297183, -0.0010323249734938145, -0.002820440102368593, 0.00466668326407671, 0.00015189105761237442, 0.0019342757295817137, 0.015098514966666698, 0.005369505845010281, -0.0029233689419925213, -0.0011032286565750837, 0.004389464855194092, 0.003569419030100107, -0.0038544649723917246, -0.0008641923777759075, 0.002216432010754943, -0.011204695329070091, -0.10067837685346603, -0.00016670468903612345, -0.01595071330666542, 0.0006243888637982309, -0.0037251156754791737, -0.0027572850231081247, -0.002581869252026081, 0.0011314641451463103, 0.0007966538541950285, -0.0012629987904801965, 0.003885602578520775, 0.0018402509158477187], [-0.008369800634682178, -0.16294510662555695, -0.053468476980924606, -0.2377137690782547, -0.12590241432189941, 0.18748526275157928, -0.0603337399661541, -0.09028435498476028, -0.21697014570236206, 0.21261899173259735, 0.010848280973732471, -0.020329641178250313, -0.0639302060008049, 0.023717228323221207, -0.216207817196846, 0.0017820419743657112, -0.15910357236862183, -0.19746075570583344, -0.15206095576286316, -0.23955200612545013, -0.03159817308187485, -0.14925818145275116, 0.03603406995534897, 0.004460209049284458, -0.010435396805405617, -0.02030622772872448, -0.031138161197304726, -0.002922461833804846, 0.0007431090343743563, 0.007812882773578167, 0.23976373672485352, 0.008695258758962154, -0.2326643466949463, -0.022163286805152893, 0.002249104669317603, -0.0002869413001462817, -0.20982737839221954, -0.18210294842720032, -0.028103340417146683, 0.02027350291609764, -0.030272364616394043, 0.10300202667713165, -0.2059299498796463, 0.023201193660497665, 0.19235040247440338, -0.1329963505268097, -0.04132696986198425, 0.010788735933601856, -0.2127317488193512, 0.24304156005382538, 0.0027226705569773912, 0.017412660643458366, -0.20087075233459473, 0.2314472645521164, 0.21623627841472626, -0.18294309079647064, 0.2185874581336975, -0.19820870459079742, 0.04558087885379791, 0.02256462536752224, 0.15784966945648193, 0.20904308557510376, 0.012851261533796787, 0.005496315658092499, -0.18417133390903473, 0.15413768589496613, -0.226671040058136, -0.03674596920609474, -0.3353809714317322, 0.007988627068698406, -0.05553529039025307, -0.19672253727912903, 0.08540478348731995, -0.21363787353038788, 0.010713594034314156, -0.005794630851596594, -0.05522369593381882, -0.18008333444595337, -0.000715801608748734, -0.18210811913013458], [0.004239656031131744, -0.0010366810020059347, 0.0209185853600502, 0.0012381452834233642, 0.002116766292601824, -4.590379830915481e-05, 0.007906174287199974, 0.005701727699488401, 0.0032497160136699677, -0.001592716434970498, -0.005126673262566328, -0.004925960674881935, -0.026139987632632256, 0.007759063038975, 0.0011487500742077827, 0.00022559605713468045, 0.0013977844500914216, -0.0010368668008595705, 0.0013055569725111127, 0.00026730779791250825, 0.006988849025219679, -0.0050055645406246185, -0.00417373888194561, -0.003159948159009218, 0.004313172772526741, 0.0017985498998314142, 0.02843482792377472, -0.001853546709753573, -8.083142893156037e-05, -0.0022597527131438255, -0.0003074585401918739, -0.005028522107750177, 0.0008036666549742222, -0.0007281405851244926, 0.0008359224884770811, 0.0027132760733366013, -0.003525898326188326, 0.000649753084871918, -0.00589365791529417, 0.002768127480521798, -0.018667178228497505, 0.014430939219892025, 0.016169637441635132, 0.004421117249876261, -0.003443562425673008, -0.011768212541937828, 0.010364025831222534, 0.0029255307745188475, 0.000744106131605804, -0.007242288440465927, -0.004670289810746908, -0.004336273297667503, 0.0010153601178899407, -0.0004045497043989599, -0.0029740147292613983, -0.0010138967772945762, 0.0026392322033643723, -0.0018164135981351137, -0.006296536885201931, 0.0011283160420134664, 0.0010199521202594042, -0.009118858724832535, -0.0022464729845523834, -0.004171778913587332, -0.0012675366597250104, -0.005112030543386936, 0.0015403113793581724, 0.0037087034434080124, 0.0019628293812274933, 0.003889423096552491, 0.0036970488727092743, 0.00200527161359787, 0.014903027564287186, 0.0036963452585041523, 0.005923138000071049, -0.0005142592708580196, -0.0177058894187212, 0.0004505337856244296, 0.0028167711570858955, 0.0032094744965434074], [0.00593971274793148, 0.11387421190738678, 0.0008589750505052507, 0.1785341203212738, 0.049668245017528534, -0.0716705173254013, 0.02072773315012455, 0.059879086911678314, 0.0978209376335144, -0.15896689891815186, -0.007233840879052877, -0.003587497165426612, -0.009377455338835716, 0.009912683628499508, 0.19680938124656677, -0.001057578600011766, 0.11089910566806793, 0.15657305717468262, 0.14470766484737396, 0.16672269999980927, 0.011229296214878559, 0.07812508195638657, -0.010671185329556465, -0.005927739664912224, 0.008210141211748123, 0.0003140911285299808, 0.01479395478963852, -0.0015479839639738202, -0.0008637656574137509, -0.004316222853958607, -0.18635858595371246, -0.00760474381968379, 0.07157379388809204, 0.0009441058500669897, 0.0011731857666745782, 0.002599762286990881, 0.13882091641426086, 0.1351797729730606, -0.004560529720038176, 0.0038815701846033335, -0.024254195392131805, 0.01423368789255619, 0.16191767156124115, 0.003085893811658025, -0.15663506090641022, -0.009035706520080566, 0.029882322996854782, 0.00261677335947752, 0.16057273745536804, -0.07591485232114792, -0.005276537500321865, -0.009070491418242455, 0.09585612267255783, -0.18904085457324982, -0.09380752593278885, 0.18643638491630554, -0.1697104126214981, 0.1160515695810318, -0.02697443775832653, 0.0008112242794595659, -0.1640460044145584, -0.12257719784975052, -0.0034484199713915586, -0.007883969694375992, 0.12417783588171005, -0.09296206384897232, 0.17841437458992004, 0.01665087230503559, 0.024567315354943275, 0.0033648484386503696, 0.012540973722934723, 0.183729887008667, 0.009809822775423527, 0.16924212872982025, 0.008605117909610271, 0.001571329077705741, -0.021864425390958786, 0.17504827678203583, 0.0011279279133304954, 0.147978276014328], [0.01694590039551258, 0.1495923548936844, 0.042173147201538086, 0.18367062509059906, 0.120567686855793, -0.22109556198120117, 0.04585792124271393, 0.11217984557151794, 0.17651836574077606, -0.20642642676830292, -0.017677437514066696, -0.005841931328177452, -0.007048408035188913, 0.014632998034358025, 0.18927733600139618, -0.0034708473831415176, 0.23427914083003998, 0.17530114948749542, 0.22419936954975128, 0.20519913733005524, 0.027808088809251785, 0.22808268666267395, -0.022363074123859406, -0.024527084082365036, 0.018288716673851013, -0.00034429633524268866, 0.008299915120005608, -0.0009063145844265819, -0.008106129243969917, -0.022186413407325745, -0.2447574883699417, -0.02338019572198391, 0.21744917333126068, 0.0020075845532119274, 0.007660784758627415, 0.006068604998290539, 0.24712049961090088, 0.1787845492362976, -0.007195877842605114, 0.008187423460185528, -0.03795364126563072, -0.010074595920741558, 0.20279785990715027, 0.00038727937499061227, -0.19165648519992828, -0.00040344949229620397, 0.06806351989507675, 0.0021534983534365892, 0.19057057797908783, -0.2130899429321289, -0.012197231873869896, -0.022168369963765144, 0.20566648244857788, -0.1525789052248001, -0.15499721467494965, 0.1481429934501648, -0.17534050345420837, 0.2157900333404541, -0.0669964998960495, -0.0006338011007755995, -0.23764684796333313, -0.20859409868717194, -0.012370140291750431, -0.02470213547348976, 0.16305896639823914, -0.18936628103256226, 0.16954897344112396, 0.04629373922944069, 0.06921549141407013, 0.010335560888051987, 0.03581690043210983, 0.2124689668416977, 0.005459212232381105, 0.16361922025680542, 0.019128931686282158, 0.011471484787762165, -0.03022674284875393, 0.17415586113929749, -0.00270289508625865, 0.2501964271068573], [-0.009790316224098206, 0.009468453004956245, -0.006514538079500198, -0.012738171964883804, 0.012326188385486603, 0.018414141610264778, -0.04447895288467407, -0.0659896731376648, -0.027828507125377655, 0.017799129709601402, 0.008330877870321274, 0.0015373144997283816, 0.0028142225928604603, -0.00499915424734354, -0.025328755378723145, 0.003094016807153821, -0.018868500366806984, -0.016672970727086067, -0.03145161643624306, -0.022677134722471237, -0.03074420802295208, -0.013900524005293846, 0.018045654520392418, 8.13600272522308e-05, -0.006287022959440947, 0.007461884059011936, -0.023489410057663918, 0.006081095896661282, 0.0037926293443888426, -0.004369329195469618, 0.03420296683907509, 0.0030976643320173025, -0.014986981637775898, -0.010531747713685036, 0.0023858160711824894, -0.0064357565715909, -0.019575603306293488, -0.008684668689966202, -0.006503582466393709, 0.013253968209028244, 0.009918089024722576, -0.002161639044061303, 0.026579322293400764, 0.00311661115847528, 0.051590580493211746, -0.06693172454833984, -0.044860538095235825, 0.005797975230962038, -0.0169389471411705, 0.03373633325099945, 0.003251583082601428, 0.017300041392445564, -0.02259974181652069, 0.012320449575781822, -0.006029984448105097, 0.03269213065505028, 0.01799316518008709, -0.010990193113684654, 0.026779599487781525, 0.007887959480285645, -0.003017418785020709, 0.0765758827328682, 0.008788926526904106, 0.008318230509757996, -0.02991473861038685, 0.024710236117243767, -0.00596883287653327, -0.017252370715141296, -0.23790666460990906, -0.0005355010507628322, -0.0279468335211277, 0.0027485142927616835, 0.007523696403950453, -0.02327975630760193, -0.003997343592345715, 0.0024940837174654007, -0.010528374463319778, -0.02880839817225933, 0.011182641610503197, -0.056567154824733734], [0.002825710689648986, -0.0011186526389792562, 0.03919915854930878, 0.0011509767500683665, 0.005744962487369776, 0.0014017962384968996, 0.0016489073168486357, -0.0028558620251715183, 0.0028449941892176867, -0.001043168012984097, -0.004207047168165445, -0.0026358759496361017, -0.03588009998202324, 0.006344670429825783, 0.0006476361304521561, -0.0001496357872383669, 0.0006143757491372526, -0.002591924276202917, -0.0002218467416241765, -0.0011042127152904868, 0.0025894716382026672, -0.008973955176770687, -0.003050353145226836, -0.0030059146229177713, 0.004005377646535635, 0.0009037876152433455, 0.036926209926605225, 0.0007634703069925308, -0.0013428819365799427, -0.0032506852876394987, 8.441907266387716e-05, -0.004201115574687719, -0.0010714632226154208, -0.0024757145438343287, 0.0019306835019961, -0.00027809286257252097, -0.003408669726923108, 0.00011057123629143462, -0.005216721910983324, 0.00815903302282095, -0.01884593442082405, 0.005054067820310593, 0.017355913296341896, 0.0034936487209051847, -0.002247818047180772, -0.007896175608038902, 0.00286296964623034, 0.002885072026401758, -0.00041768551454879344, -0.011433837004005909, -0.0036955918185412884, -0.0029668898787349463, 0.000496754830237478, -0.0008693006820976734, -0.0030754157342016697, -0.0022420636378228664, 0.00496312091127038, -0.0019106414401903749, -0.003573535243049264, 0.0045560430735349655, 0.0012963996268808842, -0.013241882435977459, -0.0009854441741481423, -0.0026435009203851223, -0.003328899387270212, -0.006655256729573011, 0.0024643419310450554, 0.002207611221820116, -0.036998216062784195, 0.003958486951887608, 0.001434864941984415, 0.0009368566097691655, 0.015063049271702766, 0.002677993383258581, 0.005368279758840799, 0.0008202821481972933, -0.019473189488053322, -5.0978320359718055e-05, 0.0034458059817552567, 0.0086387749761343], [-0.0011253851698711514, 0.02451878972351551, -0.01383084338158369, 0.041425593197345734, 0.004251424688845873, -0.012883723713457584, -0.00985985528677702, -0.02034861221909523, 0.025014640763401985, -0.03747522458434105, -8.552712097298354e-05, -2.736151327553671e-05, -0.006353630684316158, 0.0023571664933115244, 0.026295512914657593, 7.185008871601894e-05, 0.04042961075901985, 0.02266862615942955, 0.020950155332684517, 0.025423534214496613, -0.004351258277893066, 0.04116750508546829, -0.0001416820741724223, 0.0012741019017994404, 0.0006910480442456901, 0.0030509012285619974, -0.011705722659826279, -0.0005162084707990289, 0.002018888248130679, 0.0019838896114379168, -0.020582033321261406, 0.00039429927710443735, 0.013308804482221603, -0.001741989515721798, -0.0009443986928090453, 0.00011899829405592754, 0.044362351298332214, 0.014698979444801807, -0.0017056518699973822, 0.00390631752088666, -0.004035627003759146, -0.005334116984158754, 0.004490181803703308, 0.001911159255541861, -0.049349345266819, -0.004907289985567331, -0.010284874588251114, 0.0020065470598638058, 0.018279435113072395, -0.02940850332379341, 0.0006372806383296847, 0.0002608812355902046, 0.057185038924217224, -0.034357309341430664, -0.027752721682190895, 0.017762435600161552, -0.022603273391723633, 0.03763771429657936, 0.003533130744472146, -0.0005438282387331128, -0.027673637494444847, -0.05280271917581558, 0.0020986723247915506, 0.001215284806676209, 0.027077583596110344, -0.02707155980169773, 0.02033267356455326, -7.181273394962773e-05, -0.024762781336903572, -0.00042506284080445766, -0.0007346950587816536, 0.027181467041373253, 0.0034323481377214193, 0.019305426627397537, 0.00046824628952890635, -0.00034557003527879715, -0.004617835395038128, 0.020211581140756607, 0.004914720077067614, 0.03769410029053688], [0.005797267891466618, 0.11111924797296524, -0.08492334932088852, 0.09962444007396698, 0.011182291433215141, -0.08476607501506805, -0.03146931156516075, -0.005691761150956154, 0.09863533824682236, -0.08525699377059937, 0.0021773693151772022, 0.01934981346130371, 0.0787162110209465, -0.02335110865533352, 0.06529030948877335, -0.0008785327081568539, 0.13616685569286346, 0.08814554661512375, 0.19915814697742462, 0.1529897153377533, -0.007924973033368587, 0.12617984414100647, 0.011501528322696686, -0.00732955988496542, -0.007303693797439337, -0.0032721555326133966, -0.08224944770336151, 0.019156381487846375, -0.012014220468699932, -0.015378755517303944, -0.1040801852941513, -0.0073066819459199905, 0.09432830661535263, 0.005191976670175791, 0.010458668693900108, -0.013904130086302757, 0.05908394604921341, 0.11404679715633392, 0.024867990985512733, 0.01034350786358118, 0.07061172276735306, -0.11364064365625381, 0.009272659197449684, -0.015473714098334312, -0.12306170165538788, 0.09898805618286133, -0.02026769332587719, -0.0017363328952342272, 0.07424386590719223, -0.0938493087887764, -0.0010259837144985795, 0.008949519135057926, 0.10131649672985077, -0.15407149493694305, -0.07015913724899292, 0.17297112941741943, -0.12223338335752487, 0.1394621878862381, 0.0074758632108569145, 0.005867472384124994, -0.1661277711391449, -0.08189492672681808, -0.01250654086470604, 0.0004522861272562295, 0.0772819072008133, -0.04929148778319359, 0.1322459876537323, 0.0011025501880794764, 0.014710482209920883, 0.004017622210085392, -0.013121943920850754, 0.055254317820072174, -0.05205195024609566, 0.1246199831366539, -0.00731813395395875, 0.005367820616811514, 0.06615249067544937, 0.08594396710395813, -0.003145849797874689, 0.05602911114692688], [0.02701379545032978, 0.13343769311904907, 0.23290687799453735, 0.17672845721244812, 0.04504867643117905, -0.2106475532054901, 0.022460581734776497, 0.09699151664972305, 0.16521379351615906, -0.156781405210495, -0.01678760163486004, 0.027306796982884407, -0.005471688695251942, -0.0536140613257885, 0.0997241958975792, -0.00018955470295622945, 0.14146561920642853, 0.09700251370668411, 0.23733702301979065, 0.08091036230325699, 0.02762228064239025, 0.28663280606269836, -0.03086095117032528, -0.012841986492276192, -0.0032683718018233776, -0.009370356798171997, -0.07551626861095428, 0.026500321924686432, -0.025128468871116638, -0.02210545726120472, -0.16996067762374878, -0.025110628455877304, 0.1963842362165451, 0.005112092010676861, 0.004792089108377695, -0.01772264391183853, 0.19706425070762634, 0.16362187266349792, 0.03135449439287186, -0.0037586188409477472, 0.1097194254398346, -0.10503999888896942, 0.14531557261943817, -0.02751876600086689, -0.14378121495246887, 0.055043723434209824, 0.04700072482228279, -0.01202413346618414, 0.15038910508155823, -0.1989629864692688, -0.0016396432183682919, -0.007876253686845303, 0.17944349348545074, -0.1833118200302124, -0.17026570439338684, 0.17868392169475555, -0.1325649917125702, 0.18871504068374634, -0.0551920011639595, 4.897943654214032e-05, -0.22489529848098755, -0.15041698515415192, -0.03406146168708801, -0.030227862298488617, 0.10979922860860825, -0.141827791929245, 0.12280994653701782, 0.006073173601180315, 0.009244201704859734, 0.015140583738684654, 0.010267253033816814, 0.15719398856163025, -0.06908722966909409, 0.16469258069992065, 0.013844880275428295, 0.0034827461931854486, 0.10182423889636993, 0.2269577831029892, -0.015288081020116806, 0.11172055453062057], [0.003066292032599449, 0.21164806187152863, -0.12344949692487717, 0.12241530418395996, 0.06017160043120384, -0.20376922190189362, -0.061286307871341705, -0.030544964596629143, 0.1512472778558731, -0.18845833837985992, -0.010144924744963646, 0.035345204174518585, 0.12942731380462646, -0.05074219033122063, 0.18666990101337433, -0.0008456056239083409, 0.21265485882759094, 0.15154308080673218, 0.24651920795440674, 0.11342453956604004, -0.02030915580689907, 0.24412646889686584, 0.013932128436863422, -0.010008743964135647, -0.022372309118509293, -0.0006249618018046021, -0.11682455241680145, 0.03075997717678547, -0.018585242331027985, -0.020514557138085365, -0.1843155026435852, -0.014509199187159538, 0.17717260122299194, 0.01230969000607729, 0.013242647051811218, -0.031071042641997337, 0.16292409598827362, 0.19875001907348633, 0.04953378066420555, 0.011863422580063343, 0.11189121752977371, -0.15700910985469818, 0.11736498773097992, -0.031010007485747337, -0.16255402565002441, 0.16526314616203308, -0.027806194499135017, -0.0013096731854602695, 0.16997170448303223, -0.13605211675167084, -0.004635473247617483, 0.03404190391302109, 0.1812208890914917, -0.12021434307098389, -0.16811610758304596, 0.12902972102165222, -0.1666341871023178, 0.14908714592456818, 0.005511099472641945, 0.003894783090800047, -0.27242767810821533, -0.19174396991729736, 0.0026965297292917967, -0.005557256750762463, 0.10346867889165878, -0.12320046126842499, 0.16113197803497314, -0.001125953160226345, 0.08580111712217331, 0.0021205430384725332, -0.012454690411686897, 0.15090566873550415, -0.08917508274316788, 0.08860454708337784, -0.011980605311691761, 0.010948486626148224, 0.09968307614326477, 0.15008769929409027, -0.005145910196006298, 0.1702735722064972], [-0.0022977653425186872, 0.003244554391130805, 0.01050372514873743, -0.0020659330766648054, 0.005999325774610043, 0.004038182087242603, -0.02343052066862583, -0.02924707531929016, -0.0027408325113356113, 0.0025765711907297373, 0.0012147172819823027, 0.0005626066122204065, -0.005307559855282307, -0.0011197346029803157, -0.003429313423112035, 0.00118215789552778, -0.0030490995850414038, -0.004777111113071442, -0.0008919145911931992, -0.005469365045428276, -0.01293165236711502, 0.00020341866184026003, 0.008037734776735306, -0.001069941557943821, -0.0025649527087807655, 0.0019244978902861476, 0.0011816049227491021, 0.0029767067171633244, -7.795229976181872e-06, -0.002737433183938265, 0.004568479489535093, 0.0002758743066806346, -0.003810629714280367, -0.004590015392750502, 0.0017708624945953488, -0.002782273106276989, -0.002613334683701396, -0.0013563703978434205, -0.0022731893695890903, 0.007638446521013975, 0.003478876082226634, -0.012847785837948322, 0.007981054484844208, 0.0013920469209551811, 0.0049316007643938065, -0.013697711750864983, -0.018750393763184547, 0.002705587772652507, -0.002855128375813365, -0.00013067365216556937, 0.00023868237622082233, 0.005934064742177725, -0.0033981376327574253, 0.0007043559453450143, -0.0009505872149020433, 0.012384521774947643, 0.0002769851125776768, 0.002052837982773781, 0.010435373522341251, 0.004686273634433746, -0.0053233797661960125, 0.002339377300813794, 0.002686871215701103, 0.002064236905425787, -0.006717070005834103, 0.0003011259250342846, 0.0005122183356434107, -0.006947666872292757, -0.08450564742088318, 0.0014240068849176168, -0.011808032169938087, 0.0006458528223447502, 0.0028125427197664976, -0.005656371358782053, -0.0009736600914038718, 0.0007948313723318279, -0.002962856786325574, -0.004210988059639931, 0.00436782231554389, -0.001512566115707159], [0.0004008949617855251, 0.09925394505262375, -0.0022497852332890034, 0.09481918811798096, 0.007964376360177994, -0.10075147449970245, -0.001226247288286686, -0.020605172961950302, 0.05873448774218559, -0.09697538614273071, -0.0005304978112690151, -0.0004622857377398759, 0.00892572570592165, 0.00045385220437310636, 0.05272094905376434, 8.752319263294339e-05, 0.0650968924164772, 0.074254110455513, 0.08762896806001663, 0.043185774236917496, 0.0003000510623678565, 0.09243493527173996, -0.00015172050916589797, -0.00014416144404094666, 0.00043959368485957384, 0.0001240073615917936, -0.002271348610520363, -0.00010129428119398654, -0.00015461431758012623, -0.00031680730171501637, -0.0840635821223259, -0.0004336205020081252, 0.023841002956032753, -0.00021983080659992993, 0.00025591696612536907, 0.00022171753516886383, 0.0651487335562706, 0.06811550259590149, -0.000604250468313694, 0.0005307449027895927, -0.0003487754729576409, -0.0034035316202789545, -0.010576899163424969, 0.00033619068562984467, -0.0639568492770195, -0.0007161229150369763, -0.0035489373840391636, 0.00031121622305363417, 0.08709152042865753, -0.05377838760614395, -0.000520621077157557, -0.00027160393074154854, 0.1097666397690773, -0.09132281690835953, -0.08866557478904724, 0.05783024802803993, -0.06939003616571426, 0.08681634813547134, 0.0018583746859803796, 0.0001830455003073439, -0.059397194534540176, -0.05647632107138634, -0.00025362891028635204, -0.00011479551903903484, 0.04731423780322075, -0.04116818681359291, 0.045659638941287994, -0.0003881803131662309, -0.004047386813908815, 0.0005162623128853738, -0.0003620521165430546, 0.06703832745552063, -7.447107054758817e-05, 0.054048988968133926, 0.0005803873063996434, 3.2029962312662974e-05, -0.0008689859532751143, 0.0633445680141449, 0.0003180316125508398, 0.06403660774230957], [-0.00854819267988205, 0.008389857597649097, 0.008565634489059448, -0.0046178014017641544, 0.005629190243780613, 0.004289803560823202, -0.03633100539445877, -0.04947848245501518, -0.012160695157945156, 0.005628988146781921, 0.009628312662243843, 0.0034130129497498274, 0.002099656965583563, -0.006695750635117292, -0.00794224627315998, 0.001651017228141427, -0.007082920055836439, -0.003463533241301775, -0.009767262265086174, -0.005486541893333197, -0.025120537728071213, 0.0022342982701957226, 0.020046871155500412, 0.00010038408072432503, -0.009227599948644638, 0.0038954413030296564, 0.00036655229632742703, 0.005632609128952026, 0.0004229556943755597, -0.003423389047384262, 0.003909680526703596, 0.004828344099223614, -0.0028446330688893795, -0.004932417068630457, 0.0025363140739500523, -0.0056788064539432526, -0.005347645841538906, -0.0014175527030602098, -0.00051495450315997, 0.008344561792910099, 0.01407587993890047, -0.021642150357365608, 0.009318629279732704, -0.00014477949298452586, 0.02455526404082775, -0.016865814104676247, -0.03203870728611946, 0.002874466124922037, -0.0021555700805038214, 0.021049292758107185, 0.004868845921009779, 0.019002655521035194, -0.008113597519695759, 0.0030597022268921137, -0.006171891465783119, 0.02464343048632145, -0.0028238005470484495, 0.005133952479809523, 0.02377723716199398, 0.005607729312032461, -0.011207062751054764, 0.033304519951343536, 0.00785005185753107, 0.0055872551165521145, -0.0065861050970852375, 0.014842926524579525, -0.0010178714292123914, -0.017487725242972374, -0.11829312890768051, -0.0011179804569110274, -0.030648982152342796, 0.0035757736768573523, -0.0049744863063097, -0.011645789258182049, -0.005061065778136253, 0.0017459712689742446, 0.0015108189545571804, -0.004420778714120388, 0.005725040566176176, -0.026512889191508293], [0.007991533726453781, -0.0026171868667006493, 0.03872183337807655, 0.0020424798130989075, 0.001121965004131198, -0.0011581697035580873, 0.030005352571606636, 0.0473078191280365, 0.003855064744129777, -0.003436709986999631, -0.009107537567615509, -0.007930850610136986, -0.03716830536723137, 0.01390036754310131, 0.0011471605394035578, 0.000457856833236292, 0.002118617296218872, -0.0008653707918711007, -0.0009382120333611965, 0.0005945494631305337, 0.01693941280245781, -0.014644239097833633, -0.010128435678780079, -0.005883934907615185, 0.010264652781188488, 0.0003536066797096282, 0.045996908098459244, -0.0024162703193724155, -0.0023846346884965897, -0.005089476704597473, -0.00040765295852907, -0.008948921225965023, 0.003118162741884589, -0.0018315488705411553, 0.003077271394431591, 0.004038069862872362, -0.006408571265637875, 0.0010081710061058402, -0.009519610553979874, 0.00503292353823781, -0.03087165765464306, 0.03399355337023735, 0.042278952896595, 0.007382315117865801, -0.003977907821536064, -0.021611733362078667, 0.030453508719801903, 0.0044086831621825695, 0.0011897647054865956, -0.005873871501535177, -0.008308547548949718, -0.010553112253546715, 0.00142305763438344, -0.0011330025736242533, -0.003370352555066347, 0.004961926955729723, 0.007679635193198919, -0.0040938230231404305, -0.01679360866546631, 0.0031238687224686146, 0.002701172837987542, -0.011257784441113472, -0.005374293774366379, -0.008958092890679836, -0.0003868841449730098, -0.005465834867209196, 0.0016082276124507189, 0.00866877194494009, -0.015346339903771877, 0.007730085402727127, 0.01021437719464302, 0.0023358480539172888, 0.02480277419090271, 0.00549635523930192, 0.01360839419066906, -0.00030180602334439754, -0.030119189992547035, 0.0013628741726279259, 0.0026744829956442118, -0.0022172657772898674], [-0.01790965348482132, -0.053196072578430176, -0.0966913104057312, -0.024124816060066223, -0.004151992499828339, 0.08615630120038986, -0.07548480480909348, -0.04085378721356392, -0.06813286989927292, 0.05156105011701584, 0.024905305355787277, -0.013032352551817894, 0.029138833284378052, -0.0022371027152985334, -0.09312852472066879, 0.00324911717325449, -0.056877750903367996, -0.06718666106462479, -0.04190290346741676, -0.046306610107421875, -0.044604022055864334, -0.0391978956758976, 0.06543659418821335, 0.000677859119605273, -0.03983718901872635, 0.0027446600142866373, 0.01527197752147913, -0.00897170603275299, -0.0018681306391954422, 0.002846691757440567, 0.08924812078475952, 0.019612088799476624, -0.0576237291097641, -0.018458116799592972, 0.010398629121482372, 0.0016576063353568316, -0.07835891097784042, -0.04909605532884598, -0.029113177210092545, 0.013964233919978142, -0.0044682822190225124, 0.03588084504008293, 0.0019273486686870456, 0.02123226411640644, 0.08868984878063202, -0.03159230202436447, -0.060318369418382645, -0.0009706576238386333, -0.03539023920893669, 0.0802256166934967, 0.032799720764160156, 0.04503105580806732, -0.051406972110271454, 0.07773907482624054, 0.024214638397097588, 0.001945718191564083, 0.057942405343055725, -0.06727819889783859, 0.03610914200544357, 0.010899034328758717, 0.02008540742099285, 0.07319515198469162, 0.03427783399820328, 0.02313411980867386, -0.06446660310029984, 0.05086241662502289, -0.08047836273908615, -0.04796260595321655, -0.250397652387619, -0.005694422870874405, -0.09454008936882019, -0.05069912225008011, 0.006446849554777145, -0.07307355850934982, -0.02675776369869709, 0.004867183975875378, 0.02399599179625511, -0.09666639566421509, 0.0044244565069675446, -0.12328745424747467], [0.002054719952866435, 0.002464522607624531, 0.02372773550450802, -0.011179364286363125, 0.004636100493371487, 0.009842702187597752, 0.0001353687548544258, -0.008975851349532604, -0.0036405082792043686, 0.005172032862901688, -0.00319902366027236, -0.0026489323936402798, -0.02114737592637539, 0.004792692605406046, -0.005650055594742298, 0.0005510163027793169, -0.0018695705803111196, -0.009414388798177242, -0.0002449468884151429, -0.011913778260350227, 0.0011939859250560403, 0.0013225870206952095, -0.001071267994120717, -0.0016728570917621255, 0.002154333982616663, 0.001993580488488078, 0.024146277457475662, -0.00018055917462334037, 7.251823990372941e-05, -0.0020729966927319765, 0.01823371835052967, -0.0030237159226089716, -0.010270323604345322, -0.0021934579126536846, 0.0010069566778838634, 0.0005986631149426103, -0.0020633325912058353, -0.005407858174294233, -0.004894358105957508, 0.004968232475221157, -0.012614572420716286, 0.001985599286854267, 0.0031178370118141174, 0.0033758364152163267, 0.000538243621122092, -0.010939756408333778, -0.00015998227172531188, 0.0030219347681850195, -0.008347712457180023, 0.0015982398763298988, -0.0031186880078166723, -0.0015247074188664556, -0.013118833303451538, 0.00627568643540144, 0.007187124341726303, -1.025943561216991e-06, 0.0027695405296981335, -0.0004305453912820667, -0.0013353843241930008, 0.002636372810229659, -0.0006600553169846535, -0.001199932536110282, -0.0007132278406061232, -0.001417526276782155, -0.009811579249799252, -0.0016265308950096369, -0.007496528793126345, 0.0008856783388182521, -0.028134968131780624, 0.002961638616397977, -0.00027808136655949056, -0.0046078781597316265, 0.010495775379240513, -0.012233340181410313, 0.003395665669813752, 5.477710874401964e-05, -0.01599927619099617, -0.017271026968955994, 0.003617845941334963, 0.006496935151517391], [0.00158773607108742, 0.046710602939128876, 0.008763553574681282, 0.09316707402467728, 0.01827295869588852, -0.11942896991968155, 0.0025245770812034607, 0.012748418375849724, 0.08556698262691498, -0.1331123411655426, -0.002531911712139845, -0.0014731757109984756, -0.01903488300740719, 0.005678300280123949, 0.12088796496391296, -0.0009731731843203306, 0.06816010922193527, 0.12379094213247299, 0.07085409760475159, 0.1359812468290329, 0.002887940499931574, 0.11169743537902832, -0.002993576927110553, -0.00021961155289318413, 0.002835926366969943, 9.409477206645533e-05, 0.007314207963645458, -0.0010355607373639941, 0.0003917021385859698, 0.0009834507945924997, -0.07502076774835587, -0.0016137195052579045, 0.06982594728469849, 0.0010161703685298562, -0.0006828326149843633, 0.0013648790773004293, 0.12441165000200272, 0.05580204352736473, -0.0021153399720788, 0.0021088426001369953, -0.015567434951663017, 0.0019091871799901128, 0.084226094186306, 0.0015078657306730747, -0.1139485165476799, -0.0017118959221988916, 0.0040842280723154545, 0.0015524326590821147, 0.07938042283058167, -0.09991143643856049, -0.0016426729271188378, -0.0025630188174545765, 0.10510805249214172, -0.049814194440841675, -0.07703761011362076, 0.048403795808553696, -0.07367973029613495, 0.10773707181215286, -0.0038300598971545696, -2.6405898097436875e-05, -0.042305514216423035, -0.12144055217504501, -0.0006673783645965159, -0.0013354773400351405, 0.07512745261192322, -0.07510305196046829, 0.07847233861684799, 0.002998926443979144, 0.026220275089144707, 0.0007969454163685441, 0.002783555770292878, 0.05014265701174736, 0.006354271434247494, 0.093793123960495, 0.0027712052688002586, 0.00014483908307738602, -0.012458513490855694, 0.14904776215553284, 0.0007576727657578886, 0.09872918576002121], [0.0021514531690627337, -0.14387622475624084, -0.06847825646400452, -0.09928178042173386, -0.0629454255104065, 0.07795770466327667, 0.040988679975271225, 0.07437101751565933, -0.12369585782289505, 0.05861460790038109, -0.004050202667713165, -0.013482286594808102, 0.00040528023964725435, 0.01218466181308031, -0.0685918852686882, 0.004527343437075615, -0.11791437119245529, -0.07522506266832352, -0.14245553314685822, -0.09307709336280823, 0.016826925799250603, -0.1821049153804779, 0.003379102097824216, -0.004121706355363131, -0.0007590544410049915, 0.0032635647803545, -0.006396428216248751, -0.010350871831178665, 0.0035630352795124054, 0.00047404697397723794, 0.17662492394447327, -0.00019590512965805829, -0.12232709676027298, -0.005294192582368851, 0.0002594029647298157, 0.009667824022471905, -0.08335168659687042, -0.15645945072174072, -0.012940936721861362, -0.007970189675688744, -0.009690853767096996, 0.09162003546953201, -0.0011249709641560912, 0.013645317405462265, 0.11690058559179306, -0.0708339512348175, 0.031352680176496506, 0.004200398921966553, -0.16789698600769043, 0.17106126248836517, -0.004282122012227774, 0.005030679050832987, -0.16327506303787231, 0.10361191630363464, 0.17268343269824982, -0.09627154469490051, 0.0897447019815445, -0.07965712994337082, -0.002594116609543562, -0.0005123108858242631, 0.15768085420131683, 0.1213190108537674, 0.0016994648613035679, -0.0024356951471418142, -0.1524832546710968, 0.13512073457241058, -0.06300889700651169, -0.003982559312134981, -0.06057150661945343, 0.0037288980092853308, -0.011468103155493736, -0.06174841150641441, 0.028074439615011215, -0.15056471526622772, 0.005199028179049492, -0.005068594124168158, -0.016543233767151833, -0.09675312042236328, 0.004782689735293388, -0.13567298650741577], [-4.1375801629328635e-06, 0.07609565556049347, -0.010005964897572994, 0.09854201972484589, 0.009287077933549881, -0.07586746662855148, 0.0019084697123616934, 0.013135271146893501, 0.058229923248291016, -0.06318268179893494, -0.0010071255965158343, -0.0011867512948811054, -0.0075598908588290215, 0.004057117272168398, 0.05502645671367645, 7.864677900215611e-05, 0.04063138738274574, 0.03648453950881958, 0.09682617336511612, 0.09469197690486908, 0.00037443244946189225, 0.07677989453077316, -0.0019009232055395842, 0.0010441673221066594, 0.0016013566637411714, 0.0015205194940790534, 0.00023290519311558455, -0.0013839633902534842, 0.001914649736136198, 0.002492251805961132, -0.08403662592172623, -0.0004858777392655611, 0.03940683603286743, -0.0014306788798421621, -0.0017433076864108443, 0.0008164554019458592, 0.03518873453140259, 0.06434227526187897, -0.0023199296556413174, 0.0013558788923546672, -0.008002371527254581, 0.00922853872179985, 0.06575604528188705, 0.0026486620772629976, -0.08147424459457397, -0.014525695703923702, 0.0028274247888475657, 0.0011039573000743985, 0.043406885117292404, -0.07175242155790329, -3.3250340493395925e-05, -0.0014923808630555868, 0.04563043639063835, -0.07627401500940323, -0.1106235533952713, 0.08262203633785248, -0.076357401907444, 0.04949219897389412, -0.0019453451968729496, -0.00013967251288704574, -0.06392570585012436, -0.04996708035469055, 0.0011534364894032478, -5.1003826229134575e-05, 0.04029438644647598, -0.051269643008708954, 0.056839484721422195, 0.001923154923133552, -0.0030724494718015194, -0.00029372310382314026, 0.0019702590070664883, 0.08696296811103821, 0.007344333454966545, 0.06402093172073364, 0.00196528946980834, -0.0010644644498825073, -0.008114269003272057, 0.04187940061092377, 0.0028618210926651955, 0.06139644980430603], [-0.005955316126346588, 0.03977048769593239, -0.0025977676268666983, 0.03247383236885071, 0.006620095111429691, -0.04849777743220329, -0.04214753210544586, -0.06945173442363739, 0.04208533465862274, -0.03439198434352875, 0.004673898685723543, 0.0024430486373603344, 0.019904328510165215, -0.0005264071514829993, 0.045039694756269455, -0.00015438123955391347, 0.04184478148818016, 0.03270009905099869, 0.09197630733251572, 0.04036657512187958, -0.020390374585986137, 0.13450194895267487, 0.00907202810049057, 0.004030556418001652, -0.006005996372550726, 0.0025198734365403652, -0.03260604292154312, 0.0012096146820113063, 0.002335652243345976, 0.0032300038728863, -0.07825472950935364, 0.004992037080228329, 0.03561178222298622, -0.0010412436677142978, -0.0013341143494471908, -0.0013431316474452615, 0.06624460220336914, 0.054182130843400955, 0.0020561630371958017, 0.0028807022608816624, 0.010666056536138058, -0.039782166481018066, -0.041130807250738144, -0.0014527600724250078, -0.06098415330052376, 0.011983908712863922, -0.03852853551506996, 0.0012948248768225312, 0.06279617547988892, -0.07340439409017563, 0.004340921528637409, 0.008257804438471794, 0.070339635014534, -0.052225660532712936, -0.07515076547861099, 0.07563057541847229, -0.051197465509176254, 0.053259436041116714, 0.016720224171876907, -0.0014491276815533638, -0.07859229296445847, -0.03836694359779358, 0.005295956041663885, 0.008288024924695492, 0.06853200495243073, -0.03797777369618416, 0.05395657196640968, -0.006851420272141695, -0.00651513272896409, -0.003616988891735673, -0.010648347437381744, 0.05113084614276886, -0.01167377457022667, 0.014472977258265018, -0.01056940108537674, 0.0001331827079411596, 0.007653382606804371, 0.0484924353659153, 0.0034454914275556803, 0.06933994591236115], [0.0004857413296122104, 0.043090805411338806, -0.003058369504287839, 0.06793414801359177, 0.03481815382838249, -0.12128403037786484, 0.0038206088356673717, 0.0236694123595953, 0.10569015890359879, -0.06285587698221207, -0.0014825055841356516, -0.0010271044448018074, -0.005552827380597591, 0.004497421905398369, 0.12205926328897476, 6.15212120465003e-05, 0.0975387915968895, 0.13018789887428284, 0.06701353937387466, 0.12052261829376221, 0.0009994999272748828, 0.07781420648097992, -0.002370513742789626, 0.00032340092002414167, 0.002074572490528226, 0.0014440685044974089, 0.0033136114943772554, -0.0012122015468776226, 0.0013852273114025593, 0.0016106627881526947, -0.0796881914138794, -0.0010129481088370085, 0.10926640778779984, -0.0014392816228792071, -0.0010143627878278494, 0.0006610416457988322, 0.09784919768571854, 0.1212012842297554, -0.0022270921617746353, 0.002193328458815813, -0.00913497805595398, 0.008671563118696213, 0.1238924115896225, 0.002599024446681142, -0.055609703063964844, -0.009487115778028965, 0.0061523327603936195, 0.0013978875940665603, 0.047157131135463715, -0.07925739139318466, -0.000563451845664531, -0.001901540788821876, 0.12301595509052277, -0.11810658872127533, -0.09575098007917404, 0.11256460845470428, -0.03312040492892265, 0.05459299311041832, -0.003675255924463272, -2.4545452106394805e-05, -0.1051551029086113, -0.08507090061903, 0.0007067730184644461, -0.000610953604336828, 0.11824291944503784, -0.06979469209909439, 0.11790282279253006, 0.002571333199739456, -0.010965838097035885, 0.0003181834181305021, 0.0024463545996695757, 0.10931376367807388, 0.007241870276629925, 0.13869865238666534, 0.0024949186481535435, -0.0007213806384243071, -0.008967879228293896, 0.11565472185611725, 0.0028592590242624283, 0.07970043271780014], [0.004658859688788652, 0.13781803846359253, 0.018944529816508293, 0.14375172555446625, 0.005977860186249018, -0.11108498275279999, 0.011263004504144192, -0.0025195146445184946, 0.051519159227609634, -0.14004728198051453, -0.0053216805681586266, -0.005715722218155861, -0.0037163670640438795, 0.007905904203653336, 0.08452263474464417, 0.00039338512578979135, 0.11363330483436584, 0.09000026434659958, 0.16731153428554535, 0.14535856246948242, 0.008836636319756508, 0.11320828646421432, -0.005580429453402758, -0.002596301957964897, 0.005285551305860281, 0.00129547284450382, 0.011453958228230476, -0.003011660883203149, -0.00021984851628076285, -0.0016198293305933475, -0.0702698603272438, -0.0046121408231556416, 0.08698567003011703, -0.00018435712263453752, 0.0008287150412797928, 0.003937925212085247, 0.06788159906864166, 0.1079336479306221, -0.005924869328737259, 0.0006391966016963124, -0.016478726640343666, 0.015020848251879215, 0.02021484263241291, 0.004184388089925051, -0.06539048254489899, -0.008232182823121548, 0.008399952203035355, 0.002860957058146596, 0.13818037509918213, -0.1250578612089157, -0.004816036205738783, -0.005728143732994795, 0.16455718874931335, -0.08531367033720016, -0.05367346480488777, 0.11897363513708115, -0.09161053597927094, 0.16201746463775635, -0.004812056664377451, -0.0011695355642586946, -0.1208181232213974, -0.05467700585722923, -0.0032664325553923845, -0.004416591953486204, 0.10241959244012833, -0.035394903272390366, 0.13060547411441803, 0.0036712444853037596, 0.004125423263758421, 0.003936357796192169, 0.005052785389125347, 0.055707503110170364, 0.011660315096378326, 0.11520310491323471, 0.006339536048471928, -0.0006784291472285986, -0.016017446294426918, 0.06914501637220383, 0.001823017606511712, 0.10953234881162643], [-0.09881500899791718, 0.1201338917016983, 0.9702075719833374, 0.19665129482746124, 0.05434136465191841, -0.08311057090759277, -0.2429836094379425, -0.1691971719264984, 0.14257647097110748, -0.20611324906349182, 0.06767577677965164, 0.1470813751220703, 0.4260839819908142, -0.32978156208992004, 0.15706193447113037, 0.01531900092959404, 0.2152491956949234, 0.18112894892692566, 0.15595819056034088, 0.1775449812412262, -0.1540374755859375, 0.2418181300163269, 0.10092369467020035, 0.05665988475084305, -0.11225692182779312, -0.08756746351718903, -0.2865380644798279, 0.12809258699417114, -0.07063882797956467, 0.00834998581558466, -0.11474478989839554, 0.09442167729139328, 0.06328984349966049, -0.011310913600027561, -0.007609243970364332, -0.15164156258106232, 0.17334596812725067, 0.2173606902360916, 0.16540135443210602, -0.03986918181180954, 0.6683641672134399, -0.6272469162940979, 0.17312994599342346, -0.16501069068908691, -0.18645033240318298, 0.24391013383865356, -0.23999446630477905, -0.047615841031074524, 0.09045244008302689, -0.20874474942684174, 0.09160918742418289, 0.12021595984697342, 0.20187072455883026, -0.2124035656452179, -0.2091221809387207, 0.31163832545280457, -0.2611404359340668, 0.2855639159679413, 0.13811266422271729, 0.08553186058998108, -0.2150217592716217, -0.1858658343553543, 0.013773750513792038, 0.11166223138570786, 0.22692115604877472, -0.0757831260561943, 0.171625554561615, -0.07683437317609787, -0.45537954568862915, -0.04524672031402588, -0.14417414367198944, 0.19447962939739227, -0.44768276810646057, 0.19543211162090302, -0.1440514624118805, 0.01631339080631733, 0.5767993330955505, 0.135128453373909, -0.10434767603874207, 0.16165773570537567], [0.0015303344698622823, 0.09516244381666183, -0.003159973304718733, 0.06937897205352783, -0.0006867603515274823, -0.0644475445151329, -0.013850137591362, -0.01332336850464344, 0.07495742291212082, -0.05318024009466171, -0.0011837041238322854, 0.0007012606365606189, 0.015560128726065159, 0.0013056547613814473, 0.05986944958567619, -0.00044516302295960486, 0.08117815107107162, 0.045985735952854156, 0.10748439282178879, 0.05299605056643486, -0.004582714289426804, 0.130740687251091, 0.0025063608773052692, -0.0027663009241223335, -0.0011395671172067523, -0.0004978094366379082, -0.008187520317733288, 0.0022966833785176277, -0.003340766066685319, -0.004136860370635986, -0.09911555796861649, -0.0016867222730070353, 0.06888308376073837, 0.0013811789685860276, 0.002780749462544918, -0.00022893509594723582, 0.07671847194433212, 0.021683109924197197, 0.0022976791951805353, 0.0018999273888766766, 0.010211719200015068, -0.029275882989168167, -0.031222525984048843, -0.0021339564118534327, -0.06468649208545685, 0.035250402987003326, -0.005660512950271368, 0.000967159983702004, 0.03610929101705551, -0.07678982615470886, -0.001971641555428505, 0.002912798896431923, 0.10650748014450073, -0.05540943890810013, -0.07456477731466293, 0.1104319766163826, -0.08568660914897919, 0.08933478593826294, 0.003270527347922325, 0.0005280482000671327, -0.08110200613737106, -0.07681180536746979, -0.0030592207331210375, -0.0016006819205358624, 0.09169690310955048, -0.02832220494747162, 0.05250800773501396, -0.0017619661521166563, 0.0068227085284888744, 0.0028836505953222513, -0.006221157964318991, 0.020273689180612564, -0.009236208163201809, 0.0580703467130661, -0.0006216820329427719, 0.0009899383876472712, 0.008946358226239681, 0.07959984242916107, -0.0005110395723022521, 0.04161648824810982], [0.001816419418901205, 0.13349981606006622, 0.0033512404188513756, 0.11079199612140656, 0.004261222667992115, -0.049271538853645325, -0.006112053524702787, -0.01730170287191868, 0.07440656423568726, -0.07510638982057571, -0.0020014310721307993, -0.002481682226061821, -0.00019543150847312063, 0.004302822053432465, 0.040205396711826324, -0.0001501097431173548, 0.043691109865903854, 0.09803281724452972, 0.15002010762691498, 0.11354364454746246, 0.0010409470414742827, 0.18780389428138733, -0.0010102085070684552, -0.0008162152371369302, 0.0014671401586383581, 0.0014038687804713845, 0.007286876440048218, -0.0009811539202928543, 0.0007838631281629205, -0.0003381175338290632, -0.07182557880878448, -0.001779196783900261, 0.0738501325249672, -0.000243994829361327, -0.000415483140386641, 0.0016551789594814181, 0.08112142235040665, 0.02020140178501606, -0.002931813010945916, 8.526064630132169e-05, -0.006593585014343262, 0.005349320359528065, -0.0016929323319345713, 0.0019695500377565622, -0.04446662589907646, -0.012315853498876095, -0.0030524039175361395, 0.0015457237605005503, 0.06422331184148788, -0.02822112664580345, -0.002177984919399023, -0.001597334281541407, 0.10959602892398834, -0.08361232280731201, -0.04730982333421707, 0.07334449887275696, -0.1521749347448349, 0.14229701459407806, 0.0007059468189254403, 0.0003404305025469512, -0.10051991790533066, -0.0649743527173996, -0.0007833041599951684, -0.0008946167654357851, 0.10279519110918045, -0.03718002140522003, 0.03925123065710068, 0.0002856057835742831, 0.017690816894173622, 0.0010565987322479486, 0.0003478661528788507, 0.06925762444734573, 0.003803201951086521, 0.012387256138026714, 0.001753427553921938, -0.00016521659563295543, -0.007756256964057684, 0.10868450254201889, 0.0013322029262781143, 0.046145956963300705], [-0.0011875192867591977, 0.015952330082654953, 0.011207766830921173, 0.015451731160283089, 0.004071469884365797, -0.006969209294766188, -0.0132828950881958, -0.025424916297197342, 0.013553316704928875, -0.001006540609523654, 0.0005858168005943298, 0.0003183734370395541, -0.00705985352396965, 0.0023459235671907663, 0.010724631138145924, -0.0003159877087455243, 0.015644680708646774, 0.0043939463794231415, 0.030147727578878403, 0.00936470739543438, -0.006597805768251419, 0.03215418756008148, 0.001881899544969201, -7.020727480266942e-06, 0.00018639603513292968, 0.0017611430957913399, 0.0017760462360456586, 0.0005767033435404301, 0.0002951632777694613, 2.14256997423945e-05, -0.024879828095436096, 0.0003382457362022251, 0.001010106410831213, -0.0009791618213057518, 0.00022550449648406357, -0.0005780475330539048, 0.017149562016129494, 0.009349745698273182, -0.0009046961786225438, 0.004147056955844164, -0.004342592321336269, -0.01274751778692007, -0.03640277683734894, 0.0010785242775455117, -0.021170683205127716, 0.007530020084232092, -0.011547486297786236, 0.0017176580149680376, 0.015252659097313881, -0.01924699917435646, 0.00035584717988967896, 0.0016513942973688245, 0.020439298823475838, -0.018433965742588043, -0.005757176782935858, -0.0006167378160171211, -0.022360647097229958, 0.020030811429023743, 0.004744770936667919, 0.0006365427980199456, -0.013106296770274639, -0.015691710636019707, 0.001186721958220005, 0.00045751786092296243, 0.009744802489876747, -0.004081811755895615, 0.010803242214024067, -0.001688033458776772, -0.014925782568752766, 0.0002163911995012313, -0.0032969629392027855, 0.004633570089936256, 0.0016191675094887614, 0.00404125452041626, 0.0003729345335159451, 0.0004147450381424278, -0.005610326305031776, 0.01952618733048439, 0.002767725847661495, 0.022149281576275826], [0.002934472868219018, 0.0005733780562877655, 0.01907198876142502, 0.0008045625872910023, 0.003014633199200034, 0.00045517165563069284, 0.005294410046190023, 0.004524541087448597, 0.0012336050858721137, -0.0005905997822992504, -0.003886611433699727, -0.002501630922779441, -0.021255793049931526, 0.005141541361808777, 0.000407172687118873, -0.00012502280878834426, 0.0003652292361948639, -0.0009502911707386374, 0.0012812839122489095, -0.0009106528013944626, 0.004425236489623785, -0.0016995506593957543, -0.0031898992601782084, -0.0022979083005338907, 0.003513180650770664, 0.0009297187789343297, 0.02138834446668625, -0.00038213134394027293, -0.00018606928642839193, -0.001920010894536972, 0.00038656723336316645, -0.0037343965377658606, -0.0003322128613945097, -0.0007288623601198196, 0.0007574608316645026, 0.0007675917586311698, -0.0017963303253054619, 0.00031700567342340946, -0.004071137867867947, 0.0036889901384711266, -0.013769015669822693, 0.007628145627677441, 0.010928019881248474, 0.002715058159083128, -0.0007441109046339989, -0.008859889581799507, 0.0067067379131913185, 0.002148917643353343, -6.292550551734166e-06, -0.004429449327290058, -0.0034167543053627014, -0.003204484935849905, -5.884349229745567e-05, -0.0007139788358472288, -0.0014507015002891421, 0.0009472645469941199, 1.1990849088761024e-05, 0.00021977165306452662, -0.004514422733336687, 0.002217912580817938, -0.0007908858242444694, -0.0038802672643214464, -0.001471281168051064, -0.002810969715937972, -0.0013352561509236693, -0.0029487567953765392, 0.0009502947214059532, 0.0027095740661025047, -0.007481290493160486, 0.002864938462153077, 0.002449453342705965, 0.0009018939454108477, 0.010182404890656471, 0.000383737642550841, 0.004624458495527506, 0.00024783817934803665, -0.014706983231008053, -0.0002223211486125365, 0.001998564228415489, 0.0035249674692749977], [-0.0007179675158113241, 0.01664872094988823, -0.010214160196483135, 0.045226842164993286, 0.004755501169711351, -0.02083590440452099, -0.01338856853544712, -0.03092767298221588, 0.017553837969899178, -0.02726617455482483, -0.0006662211962975562, -4.028646071674302e-05, -0.005801794119179249, 0.002699949312955141, 0.030033838003873825, 0.00024082252639345825, 0.029840726405382156, 0.04380544647574425, 0.021226251497864723, 0.023128408938646317, -0.0049910470843315125, 0.04532722011208534, -0.0006757335504516959, 0.0013353886315599084, 0.0010447618551552296, 0.004478591959923506, -0.02203862927854061, -0.0009035322582349181, 0.0025385720655322075, 0.0020357652101665735, -0.056826625019311905, 8.266081567853689e-05, 0.015451948158442974, -0.0018286105478182435, -0.000847772927954793, 0.0006411600043065846, 0.030999822542071342, 0.03667823597788811, -0.0017874713521450758, 0.0045244344510138035, -0.004884234629571438, -0.010116792283952236, -0.007189633324742317, 0.00201252568513155, -0.04276895523071289, 0.0019867720548063517, -0.014195788651704788, 0.0024613935966044664, 0.04111729562282562, -0.022992199286818504, 7.79488545958884e-05, -0.00012386076559778303, 0.049147747457027435, -0.04072951525449753, -0.037082865834236145, 0.030076734721660614, -0.017080320045351982, 0.029194112867116928, 0.004419498611241579, -0.002123860875144601, -0.028709450736641884, -0.024914678186178207, 0.0016653628554195166, 0.001569239655509591, 0.04168190434575081, -0.013957297429442406, 0.017037408426404, 0.0002555734245106578, -0.027073070406913757, -8.976136450655758e-05, -0.0003781572449952364, 0.03434592857956886, 0.002694836352020502, 0.037928394973278046, -5.599440191872418e-05, -0.0004083480453118682, -0.004433725029230118, 0.03353390097618103, 0.006335286423563957, 0.029113808646798134], [0.008458913303911686, -0.02097158692777157, 0.06768430769443512, -0.027539344504475594, 0.004144756589084864, 0.027701467275619507, 0.023473428562283516, 0.022199902683496475, -0.0040068370290100574, 0.04044392332434654, -0.010326416231691837, -0.00887561310082674, -0.0632583275437355, 0.01721121370792389, -0.04497573897242546, -4.7551926400046796e-05, -0.016257895156741142, -0.04459903761744499, 0.004056013189256191, -0.03843157738447189, 0.015755852684378624, -0.023150483146309853, -0.011503039859235287, -0.00601281737908721, 0.011951027438044548, 0.0009844943415373564, 0.062533438205719, -0.002986246021464467, -0.001991875236853957, -0.004724913742393255, 0.0293904859572649, -0.009878458455204964, -0.04738806560635567, -0.002235360210761428, 0.0027128050569444895, 0.004364929627627134, -0.026711538434028625, -0.024993523955345154, -0.011577371507883072, 0.008634505793452263, -0.04184182360768318, 0.028534598648548126, -0.011921757832169533, 0.00875326618552208, 0.00766538642346859, -0.01773630455136299, 0.024100782349705696, 0.005600037518888712, -0.03321615234017372, 0.014626645483076572, -0.009106243960559368, -0.011515837162733078, -0.04061274603009224, 0.02343723550438881, 0.032285988330841064, -0.056338127702474594, 0.026669196784496307, -0.03839181363582611, -0.01627807505428791, 0.0033824043348431587, 0.029397061094641685, 0.016995245590806007, -0.005344058386981487, -0.00955094862729311, -0.04831652715802193, 0.0013453628635033965, -0.04229548200964928, 0.009685472585260868, -0.013600552454590797, 0.008235366083681583, 0.010946372523903847, -0.04133975878357887, 0.03127973899245262, -0.03992133215069771, 0.014989274553954601, -5.3135536290938035e-05, -0.040013208985328674, -0.05238527059555054, 0.004171162378042936, 0.017094764858484268], [0.001952510210685432, 0.03677593171596527, 0.005293058231472969, 0.027422597631812096, 0.00011912453919649124, -0.048158835619688034, 0.006867147982120514, 0.006743471138179302, 0.03537876158952713, -0.034294456243515015, -0.0021906113252043724, -0.0020423599053174257, -0.004504828248172998, 0.0033243296202272177, 0.036366164684295654, 9.837652032729238e-05, 0.03305557742714882, 0.031009748578071594, 0.09462893009185791, 0.039248235523700714, 0.0042532067745924, 0.07983721792697906, -0.0022774063982069492, -0.0013630394823849201, 0.0023983579594641924, -0.00019546844123397022, 0.005164486356079578, -0.0008087285095825791, -0.0004381854669190943, -0.0009451563819311559, -0.04179815575480461, -0.0021061087027192116, 0.01736398972570896, -0.00021986474166624248, 0.0005457193474285305, 0.0011426617857068777, 0.03752078115940094, 0.027654144912958145, -0.002265369286760688, 0.0006432276568375528, -0.005526899825781584, 0.00777397071942687, 0.0027325127739459276, 0.001684845075942576, -0.055951397866010666, -0.006550312042236328, 0.007386486977338791, 0.0011652985122054815, 0.05851924791932106, -0.03657309338450432, -0.0020130269695073366, -0.002500084461644292, 0.040630556643009186, -0.05566571652889252, -0.03586644306778908, 0.053033359348773956, -0.05231647565960884, 0.046065811067819595, -0.003678682027384639, 0.0007103941752575338, -0.04308710992336273, -0.032950498163700104, -0.0012855356326326728, -0.002221528673544526, 0.05563509091734886, -0.024208668619394302, 0.020469095557928085, 0.0020076048094779253, 0.00334551022388041, 0.0017825509421527386, 0.002296886872500181, 0.039309244602918625, 0.005242034327238798, 0.03353686258196831, 0.003257172415032983, -0.00017440794908907264, -0.006124833598732948, 0.04954423010349274, 0.00027891198988072574, 0.035006970167160034], [0.0021481576841324568, 0.008153707720339298, 0.013820074498653412, 0.010680432431399822, 0.001863587647676468, -0.004921231418848038, 0.004642742220312357, 0.0018085134215652943, 0.005299445707350969, -0.00754113495349884, -0.0026028070133179426, -0.002196558052673936, -0.013461971655488014, 0.004557909443974495, 0.008159196935594082, -0.0001278702839044854, 0.006292880512773991, 0.003007749794051051, 0.01943783648312092, 0.015200378373265266, 0.003406925592571497, 0.01867826096713543, -0.0027425719890743494, -0.0015296362107619643, 0.002995819551870227, 0.0006842782604508102, 0.011653805151581764, -0.0007897132891230285, -4.000836270279251e-05, -0.0010037838947027922, -0.007586791180074215, -0.002504482166841626, 0.0011134311789646745, -0.00030987063655629754, 0.0003002457960974425, 0.0011670887470245361, 0.006777307949960232, 0.0038618326652795076, -0.002942092251032591, 0.001628850819543004, -0.010064389556646347, 0.007349691819399595, -0.01194068230688572, 0.002209225669503212, -0.012301326729357243, -0.005535438656806946, 0.004689107649028301, 0.0016374459955841303, 0.0030812197364866734, -0.009729215875267982, -0.0024214168079197407, -0.002786851255223155, 0.017898891121149063, -0.009516358375549316, 0.000426293263444677, 0.007514060474932194, -0.013497273437678814, 0.010578799992799759, -0.0033954395912587643, 0.0006269089062698185, -0.014053834602236748, -0.01156687457114458, -0.0012288667494431138, -0.0022607685532420874, 0.004514395259320736, -0.0021810797043144703, 0.003502686507999897, 0.002321832114830613, 0.003806451568379998, 0.0018338537774980068, 0.0025019568856805563, -0.00016101713117677718, 0.007182971108704805, 0.0015968279913067818, 0.003628499573096633, 1.3883741303288843e-05, -0.010527573525905609, 0.012781350873410702, 0.0011248444207012653, 0.00762753514572978], [0.005840636324137449, 0.09064556658267975, -0.04350724816322327, 0.06038312241435051, 0.014308047480881214, -0.08723223209381104, -0.026772942394018173, -0.03814682736992836, 0.12864091992378235, -0.04992265626788139, 0.0003715466591529548, 0.013993044383823872, 0.0480215921998024, -0.01857306994497776, 0.051910400390625, -0.0006453364039771259, 0.10034755617380142, 0.12606967985630035, 0.19402876496315002, 0.06936661154031754, -0.014590512029826641, 0.18435253202915192, 0.008333703503012657, -0.003835533279925585, -0.0024438195396214724, 0.000843931280542165, -0.061633091419935226, 0.01579584740102291, -0.0059421672485768795, -0.009218641556799412, -0.11271659284830093, -0.00043758467654697597, 0.09744879603385925, 0.004099611192941666, 0.005027526058256626, -0.00996061135083437, 0.054026030004024506, 0.06008074805140495, 0.0173630490899086, 0.004832609090954065, 0.05380336940288544, -0.09193779528141022, 0.007880173623561859, -0.010331112891435623, -0.08803365379571915, 0.09088477492332458, -0.020331310108304024, -0.0004395810829009861, 0.061535343527793884, -0.05217568948864937, -0.0009144037612713873, 0.014395325444638729, 0.06156819686293602, -0.0993947759270668, -0.08973956853151321, 0.09602005034685135, -0.1691364198923111, 0.11520806699991226, -0.002919065998867154, 0.0008393395110033453, -0.10019226372241974, -0.06822559982538223, -0.00047343020560219884, 0.002616139827296138, 0.08103030174970627, -0.0723474770784378, 0.07972216606140137, -0.002502867951989174, 0.029319988563656807, 0.004496271256357431, -0.011633792892098427, 0.05354975163936615, -0.05097892880439758, 0.0452573262155056, -0.00544353574514389, 0.0021727466955780983, 0.0496230386197567, 0.09763594716787338, 2.1456224203575402e-05, 0.09298516064882278], [-0.007271283306181431, -0.14742755889892578, -0.08603662997484207, -0.15477365255355835, -0.1603449434041977, 0.24556921422481537, -0.05471840128302574, -0.1278875172138214, -0.15711309015750885, 0.1153702512383461, 0.012806376442313194, 0.002208070131018758, 0.04789464920759201, 0.009568328969180584, -0.16249462962150574, 0.0012602150673046708, -0.1696091592311859, -0.13904277980327606, -0.18198947608470917, -0.23733270168304443, -0.027152707800269127, -0.20762203633785248, 0.049414969980716705, 0.01287845429033041, -0.03923994302749634, 0.003932099789381027, -0.025222815573215485, -0.0009495523991063237, 0.0018128622323274612, 0.012001981027424335, 0.20273779332637787, 0.01527734100818634, -0.15407735109329224, -0.001292330794967711, 0.004692336078733206, -0.001840778742916882, -0.11695210635662079, -0.08762215077877045, 0.0028915810398757458, 0.00595768541097641, 0.017301272600889206, 0.00023506738943979144, -0.18641974031925201, 0.005968035664409399, 0.17111876606941223, 0.021697930991649628, -0.10401811450719833, -0.0007330533117055893, -0.17416024208068848, 0.16024529933929443, 0.0013674767687916756, 0.03712203726172447, -0.15713639557361603, 0.13206595182418823, 0.2372974455356598, -0.161778524518013, 0.18412519991397858, -0.23288044333457947, 0.10191555321216583, 0.002301708562299609, 0.1970708817243576, 0.14420580863952637, 0.005958535708487034, 0.028820285573601723, -0.13172729313373566, 0.18743394315242767, -0.11056815832853317, -0.06330462545156479, -0.12080131471157074, -0.000267296883976087, -0.06306007504463196, -0.23011182248592377, 0.013890257105231285, -0.14815211296081543, -0.035125307738780975, -0.0038080476224422455, 0.026787016540765762, -0.14623385667800903, 0.00625239871442318, -0.20156767964363098], [0.0010710168862715364, 0.0009871093789115548, 0.012145963497459888, -0.0056092748418450356, 0.003903792006894946, 0.005627889651805162, -0.009553677402436733, -0.012737099081277847, 0.0029853065498173237, 0.003976156003773212, -0.0017082580598071218, -0.002226579701527953, -0.01476316712796688, 0.004497949033975601, -0.005617987364530563, 0.0002583289460744709, 0.00013730190403293818, -0.006269280333071947, 0.011525262147188187, -0.005802784115076065, -0.0016562690725550056, 0.008438408374786377, 0.0005716889281757176, -0.0010958524653688073, 0.0007787920767441392, 0.001127693452872336, 0.011639418080449104, -0.0007317207637242973, -0.000112500689283479, -0.0008336917380802333, 0.008479458279907703, -0.0017370767891407013, -0.007202549837529659, -0.001556481933221221, 0.00047226023161783814, 0.001026603626087308, 0.0007289497298188508, -0.0034540356136858463, -0.002951761707663536, 0.0035823166836053133, -0.007144929841160774, -0.0037876043934375048, -0.010959247127175331, 0.0025093797594308853, -0.00877897534519434, 0.0006504844641312957, -0.004973166156560183, 0.0020941232796758413, -0.005174668040126562, -0.010141589678823948, -0.001644690753892064, 0.00011123110743938014, -0.005911140702664852, 0.0071288286708295345, 0.007468445226550102, -0.006107057444751263, -0.0015962714096531272, -0.00027430016780272126, 0.0006253370083868504, 0.0012681602966040373, -0.0013722244184464216, -0.01819559745490551, -0.0002866500581149012, -0.0013187341392040253, -0.0060204025357961655, -0.008801983669400215, -0.0035605975426733494, -6.858358392491937e-05, -0.011003684252500534, 0.00206792913377285, -0.002184964017942548, -0.008815263397991657, 0.007122198585420847, -0.004416300915181637, 0.0018254367168992758, -0.0003532820846885443, -0.006557767745107412, -0.011049644090235233, 0.002617094898596406, 0.019954387098550797], [-0.000485419062897563, 0.06834684312343597, -0.067182756960392, 0.09735915064811707, 0.006721406243741512, -0.04677503928542137, -0.016970504075288773, -0.013064988888800144, 0.055190492421388626, -0.05267954245209694, 0.0014293543063104153, 0.003430227981880307, 0.046693120151758194, -0.004202864598482847, 0.08156115561723709, 0.00032586485031060874, 0.07439377903938293, 0.07027845084667206, 0.08153270184993744, 0.12446849793195724, -0.009704101830720901, 0.09848315268754959, 0.006867773365229368, -0.002055068966001272, -0.005043264012783766, 0.0002779685892164707, -0.04531311243772507, 0.0042206053622066975, -0.004548210185021162, -0.005368070211261511, -0.11388128995895386, 0.0005900536198168993, 0.037757761776447296, 0.0007587401196360588, 0.0050400057807564735, -0.002086700638756156, 0.04657483473420143, 0.09204743802547455, 0.005645570810884237, 0.003446712391451001, 0.026913965120911598, -0.03574280068278313, 0.02143152803182602, -0.004277670290321112, -0.09695450961589813, 0.04361956566572189, -0.017349280416965485, 4.922745119984029e-06, 0.08921296894550323, -0.03512844815850258, -0.00026981852715834975, 0.006186920218169689, 0.049245912581682205, -0.0743764191865921, -0.05899164825677872, 0.06928426772356033, -0.0878196582198143, 0.08117406815290451, 0.0092234555631876, 0.0007787724607624114, -0.12025716155767441, -0.08796016871929169, -0.0016748401103541255, 0.0012059947475790977, 0.09044051170349121, -0.03674730658531189, 0.06637381762266159, -0.0048485128208994865, -0.02559885010123253, 0.0024909856729209423, -0.008010489866137505, 0.08879176527261734, -0.01768581196665764, 0.07743198424577713, -0.004300308413803577, 0.0017883433029055595, 0.02676928974688053, 0.12121549993753433, 0.0005945058655925095, 0.07575411349534988], [0.005144263152033091, 0.060753803700208664, -0.009488209150731564, 0.06479235738515854, 0.012846051715314388, -0.07971897721290588, -0.016107285395264626, -0.02381061390042305, 0.07458190619945526, -0.04913869500160217, -0.006900848355144262, -0.0029721297323703766, 0.007984605617821217, 0.004948929417878389, 0.09432512521743774, 0.0023196865804493427, 0.05254513397812843, 0.03170331194996834, 0.07083121687173843, 0.08606088906526566, -0.003832426620647311, 0.08012989908456802, -0.0038881192449480295, -0.00575999403372407, 0.0054201097227633, 0.0014251049142330885, -0.03920197859406471, 0.0030215377919375896, -0.00022546964464709163, -0.007002364844083786, -0.041618961840867996, -0.006979525089263916, 0.055079322308301926, -0.007573526818305254, 0.002933763200417161, -0.001118965563364327, 0.06467154622077942, 0.07377368211746216, -0.007386147044599056, 0.011203549802303314, -0.0017586752073839307, -0.012307260185480118, -0.02613183483481407, 0.002845600713044405, -0.07215063273906708, -0.02279139682650566, -0.01811196282505989, 0.00570194236934185, 0.051140278577804565, -0.06420008093118668, -0.00750450324267149, -0.004424960818141699, 0.0928916335105896, -0.06569919735193253, -0.05217671021819115, 0.0832395851612091, -0.06480517983436584, 0.07318896800279617, 0.0018589256796985865, 0.0063424985855817795, -0.06774861365556717, -0.09149859845638275, -0.0020439124200493097, -0.002202320611104369, 0.058425918221473694, -0.04135793820023537, 0.031633827835321426, 0.00243508443236351, -0.135816290974617, 0.006662605796009302, 0.0013998688664287329, 0.05007108673453331, 0.011910704895853996, 0.06508331000804901, 0.0065725501626729965, 0.0020051205065101385, -0.01178809255361557, 0.05639231950044632, 0.004975448828190565, 0.034567926079034805], [0.017248019576072693, 0.1243201419711113, -0.01764552667737007, 0.09578106552362442, 0.025652950629591942, -0.08269821852445602, 0.06063874810934067, 0.13598492741584778, 0.14569322764873505, -0.16464337706565857, -0.017174161970615387, -0.011653710156679153, 0.013253534212708473, 0.022258061915636063, 0.1650456339120865, -0.0006245533004403114, 0.11056900024414062, 0.1164618730545044, 0.19162198901176453, 0.12864188849925995, 0.03933345526456833, 0.18653526902198792, -0.022818466648459435, -0.016669990494847298, 0.016284100711345673, 0.00378860579803586, 0.026772504672408104, -0.004397162701934576, -0.0006045406917110085, -0.010221187025308609, -0.17244547605514526, -0.018050484359264374, 0.13868041336536407, 0.0020671039819717407, 0.003945136908441782, 0.010464481078088284, 0.18423783779144287, 0.10762292146682739, -0.011092492379248142, 0.00448192423209548, -0.03842636197805405, 0.024814292788505554, 0.0910845473408699, 0.007410228718072176, -0.1018434539437294, -0.01604240946471691, 0.07007008045911789, 0.008129083551466465, 0.1539025753736496, -0.14259864389896393, -0.016729047521948814, -0.02153780870139599, 0.11065500974655151, -0.19437828660011292, -0.1599518358707428, 0.10325603187084198, -0.11227495223283768, 0.09382101893424988, -0.04529865086078644, -0.0018368151504546404, -0.11936768889427185, -0.11045552045106888, -0.010957696475088596, -0.022657223045825958, 0.1306266188621521, -0.047154463827610016, 0.19088973104953766, 0.023785647004842758, 0.1123286709189415, 0.01175618078559637, 0.024505268782377243, 0.08609555661678314, 0.016107847914099693, 0.10532911121845245, 0.022413907572627068, 0.001000246498733759, -0.04034601151943207, 0.19623947143554688, 0.0047016385942697525, 0.11526273190975189], [0.027211591601371765, 0.13732373714447021, -0.062352754175662994, 0.20811687409877777, 0.06980835646390915, -0.16572371125221252, 0.10510215908288956, 0.18521079421043396, 0.13661855459213257, -0.11129499971866608, -0.02333531156182289, 0.019042136147618294, 0.10980447381734848, -0.03835688903927803, 0.2138667106628418, 0.0008521582349203527, 0.1451980471611023, 0.10322173684835434, 0.22266824543476105, 0.23459866642951965, 0.03658141568303108, 0.2160196453332901, -0.032740116119384766, -0.0309310220181942, 0.037774402648210526, 0.008818211033940315, 0.05418267846107483, 0.04197467863559723, -0.030674975365400314, -0.04210349917411804, -0.09422335028648376, -0.03515440225601196, 0.16273652017116547, 0.01522110402584076, 0.022687962278723717, -0.015439883805811405, 0.12650437653064728, 0.15016312897205353, 0.029634222388267517, 0.02094866894185543, 0.064994677901268, -0.08714339137077332, 0.20868302881717682, -0.037671297788619995, -0.2199905961751938, 0.09303873777389526, 0.1405496746301651, 0.00319915683940053, 0.1251332014799118, -0.19460031390190125, -0.01518165972083807, -0.02211356908082962, 0.1925981640815735, -0.18115940690040588, -0.23649825155735016, 0.27181732654571533, -0.24882705509662628, 0.21719889342784882, -0.10419558733701706, 0.0145358145236969, -0.13269591331481934, -0.08542951941490173, -0.020839625969529152, -0.03207632899284363, 0.20328636467456818, -0.1266474574804306, 0.0953817367553711, 0.040844231843948364, 0.2873692810535431, 0.008530260995030403, 0.03161473944783211, 0.24391403794288635, -0.08187223225831985, 0.18583883345127106, 0.03965526819229126, 0.024898430332541466, 0.08882265537977219, 0.13396373391151428, -0.006616772618144751, 0.1769372522830963], [-0.029921289533376694, -0.19694717228412628, 0.1216917484998703, -0.2538227438926697, -0.11193373054265976, 0.2311762422323227, 0.0055916802957654, -0.05393814668059349, -0.21355131268501282, 0.2587753236293793, 0.02760149911046028, -0.07334300875663757, -0.16417913138866425, 0.05152031034231186, -0.229610875248909, 0.005304355639964342, -0.20337006449699402, -0.18921039998531342, -0.20958919823169708, -0.16791267693042755, -0.016329552978277206, -0.294683039188385, 0.03849833086133003, 0.06406760960817337, -0.024611737579107285, 0.004421088844537735, 0.1589977741241455, -0.06713782250881195, 0.04958942160010338, 0.06497443467378616, 0.22891177237033844, 0.02319324016571045, -0.20304061472415924, -0.033484991639852524, -0.05585228279232979, 0.04465551674365997, -0.2570103406906128, -0.2086162269115448, -0.09266437590122223, -0.05179459601640701, -0.1384517252445221, 0.23558759689331055, -0.17034655809402466, 0.08640717715024948, 0.1888575702905655, -0.32597246766090393, -0.02393450401723385, 0.018242867663502693, -0.18842072784900665, 0.19808650016784668, 0.029925210401415825, 0.01828022301197052, -0.2032081037759781, 0.2045460045337677, 0.15328997373580933, -0.185990571975708, 0.221872016787529, -0.217773899435997, 0.06105143949389458, -0.0030283520463854074, 0.20753800868988037, 0.17337562143802643, 0.05221560597419739, 0.02832803502678871, -0.2713606357574463, 0.17256881296634674, -0.2248593270778656, -0.07356421649456024, -0.3097997009754181, -0.02680407091975212, -0.041275523602962494, -0.20002961158752441, 0.16856339573860168, -0.2520587146282196, 0.003785345470532775, -0.046834636479616165, -0.17978762090206146, -0.23695996403694153, 0.01742512919008732, -0.215437114238739], [0.001650618971325457, 0.19271285831928253, -0.04695121571421623, 0.14226095378398895, 0.015553927980363369, -0.1300525963306427, -0.01999479904770851, -0.025019623339176178, 0.10281055420637131, -0.0708375871181488, -0.0009253332391381264, 0.0003482962492853403, 0.037662964314222336, 0.00020597368711605668, 0.12586326897144318, -0.00021419521362986416, 0.07842756807804108, 0.10466555505990982, 0.13970965147018433, 0.06662854552268982, -0.004961966071277857, 0.2193591594696045, 0.0027342436369508505, -0.002711476990953088, -0.0022133616730570793, 0.0014814238529652357, -0.027711041271686554, 0.0021254108287394047, -0.0037553056608885527, -0.004876459948718548, -0.08093487471342087, -0.0011107884347438812, 0.09315107762813568, 0.0018750737654045224, 0.004367847926914692, 0.0009053366375155747, 0.1420881748199463, 0.0782962515950203, 0.0027788872830569744, 0.0025430195964872837, 0.01636691577732563, -0.02754913456737995, 0.007822836749255657, -0.003822884988039732, -0.10872696340084076, 0.04182303696870804, -0.01562114991247654, 0.0008043637499213219, 0.06446914374828339, -0.07167958468198776, -0.002148553030565381, 0.0023912338074296713, 0.06917411834001541, -0.0808805450797081, -0.06284267455339432, 0.1276993304491043, -0.1690540611743927, 0.1628694087266922, 0.00550072593614459, -0.0013893493451178074, -0.17025059461593628, -0.07342705875635147, -0.003230966627597809, -0.0003380223934073001, 0.12261002510786057, -0.05994888022542, 0.0926114097237587, -0.0023785168305039406, 0.00013980270887259394, 0.003052300773561001, -0.00443059578537941, 0.09319385886192322, -0.012190499342978, 0.0481378398835659, -0.00216972385533154, 0.0018316208152100444, 0.016901835799217224, 0.13369213044643402, 0.0012254222529008985, 0.06483305990695953], [-0.08396026492118835, 0.02047952450811863, -0.0588589645922184, -0.0027250805869698524, 0.02008753828704357, 0.0010949160205200315, -0.09568960964679718, -0.16059692203998566, -0.03847543150186539, 0.002021804451942444, 0.08048498630523682, 0.016123956069350243, 0.048799097537994385, -0.01893046498298645, -0.00697873393073678, 0.0077180564403533936, -0.018233155831694603, -0.00653918506577611, -0.05272318795323372, -0.007576450705528259, -0.11540419608354568, -0.02874712273478508, 0.13400672376155853, 0.015092998743057251, -0.08529184013605118, 0.02351462095975876, -0.05522381141781807, 0.002510014921426773, 0.01330706849694252, 0.008034146390855312, 0.0030354640912264585, 0.06928075850009918, 0.004861257504671812, -0.019338998943567276, -0.0003648443380370736, -0.011591661721467972, -0.02435479313135147, 0.00628568883985281, 0.004342799540609121, 0.0038714867550879717, 0.024442799389362335, -0.03164733201265335, 0.02743026427924633, 0.006901636254042387, 0.06472443044185638, -0.027635259553790092, -0.10887230187654495, 0.006402544677257538, 0.004584927577525377, 0.06740700453519821, 0.045626040548086166, 0.11772225797176361, -0.018038839101791382, -0.002229435136541724, -0.051186513155698776, 0.0754702240228653, 0.013457479886710644, 0.008271402679383755, 0.11175036430358887, 0.00138384650927037, -0.02786226198077202, 0.09619185328483582, 0.05271739885210991, 0.03311774507164955, -0.018313845619559288, 0.05415104329586029, 0.012309014797210693, -0.13292361795902252, -0.357403427362442, -0.031112847849726677, -0.14309978485107422, 0.04292362183332443, -0.034804567694664, -0.019271720200777054, -0.039624880999326706, 0.0017856019549071789, 0.03172687441110611, 0.002651156159117818, 0.022049207240343094, -0.12223497778177261], [0.04032468795776367, 0.1319756954908371, -0.10021618008613586, 0.14227166771888733, 0.03266092389822006, -0.15269735455513, 0.13099966943264008, 0.2307683378458023, 0.17552417516708374, -0.11366128921508789, -0.0329846516251564, -0.001587752252817154, 0.06527603417634964, -0.01102511864155531, 0.0824115127325058, 0.006184140220284462, 0.11760267615318298, 0.08726801723241806, 0.09094882011413574, 0.13478608429431915, 0.0468653105199337, 0.11205363273620605, -0.040711019188165665, -0.040577035397291183, 0.0366160124540329, 0.007542033679783344, -0.021083543077111244, 0.02162100374698639, -0.026420019567012787, -0.0524471178650856, -0.13607724010944366, -0.04099966585636139, 0.07007435709238052, -0.0053897700272500515, 0.027714893221855164, -0.012316393665969372, 0.08799365162849426, 0.1355731338262558, 0.005562766920775175, 0.0364312119781971, 0.07598267495632172, 0.010753137059509754, 0.16587774455547333, -0.00666397251188755, -0.15261760354042053, -0.0726785734295845, 0.11841478198766708, 0.0219829473644495, 0.1389271467924118, -0.15935666859149933, -0.03215702995657921, -0.024337101727724075, 0.1452413648366928, -0.11289549618959427, -0.08540890365839005, 0.1303730458021164, -0.07201545685529709, 0.14321869611740112, -0.06494919955730438, 0.024557719007134438, -0.1213441714644432, -0.07379816472530365, -0.05242679640650749, -0.050618916749954224, 0.14683125913143158, -0.08406974375247955, 0.13678161799907684, 0.06794588267803192, 0.06499762088060379, 0.03885834664106369, 0.04440061002969742, 0.11835364997386932, -0.005355081055313349, 0.16569368541240692, 0.06089714169502258, 0.007724597118794918, 0.014575657434761524, 0.131630077958107, 0.014301552437245846, 0.08123834431171417], [0.010278986766934395, 0.18808260560035706, -0.011918335221707821, 0.1922786384820938, 0.11922033131122589, -0.09451840072870255, 0.026513736695051193, 0.1135120689868927, 0.11853223294019699, -0.09968143701553345, -0.009908515959978104, -0.0029486985877156258, 0.01852724887430668, 0.006015090737491846, 0.21650443971157074, -0.0010710692731663585, 0.0941980853676796, 0.1553509384393692, 0.23246319591999054, 0.10493719577789307, 0.015623380430042744, 0.20533855259418488, -0.011146684177219868, -0.02021760493516922, 0.00962798111140728, 0.00025463863858021796, 0.008566461503505707, -0.0009796777740120888, -0.0037457412108778954, -0.012792387045919895, -0.18187817931175232, -0.015870409086346626, 0.17545370757579803, 0.001527228276245296, 0.002708346350118518, 0.002776026725769043, 0.20756091177463531, 0.12904611229896545, -0.0037233070470392704, 0.004452799912542105, -0.016579197719693184, -0.011897115036845207, 0.18504631519317627, 0.0008921107510104775, -0.21108680963516235, -0.0023654571268707514, 0.03684849664568901, 0.00262579252012074, 0.20527788996696472, -0.10927490144968033, -0.007911169901490211, -0.011053988710045815, 0.2168588787317276, -0.22101880609989166, -0.21273837983608246, 0.1582821011543274, -0.1025465801358223, 0.18155033886432648, -0.036051347851753235, 4.821018592338078e-05, -0.18107075989246368, -0.12274520099163055, -0.005230033304542303, -0.014891120605170727, 0.21850690245628357, -0.13333731889724731, 0.15706653892993927, 0.02132181078195572, 0.06886077672243118, 0.004970339126884937, 0.013896746560931206, 0.12995196878910065, -0.008367148227989674, 0.12471624463796616, 0.008938545361161232, 0.00480738515034318, -0.018863409757614136, 0.18012456595897675, -0.0003742421686183661, 0.17594045400619507], [-0.00038903046515770257, 0.02833121456205845, -0.08795218169689178, 0.022297291085124016, -0.002763163996860385, -0.009795930236577988, -0.06408238410949707, -0.10921378433704376, 0.018675224855542183, -0.01606845296919346, 0.015484659001231194, 0.007752082776278257, 0.11993622779846191, -0.0028529190458357334, 0.009016677737236023, -0.0022114876192063093, 0.014712014235556126, 0.024964071810245514, 0.05854405090212822, 0.018086140975356102, -0.05446870997548103, 0.10570810735225677, 0.10165458172559738, -0.0014392700977623463, -0.0858701840043068, -0.0014327497920021415, -0.13608196377754211, 0.0038120236713439226, -0.005496296565979719, -0.00364201283082366, -0.027527710422873497, 0.0053542908281087875, 0.005137977190315723, 0.004735902883112431, 0.004311009310185909, -0.004936500918120146, 0.02402225323021412, 0.007809608709067106, 0.008642314001917839, 0.004151126369833946, 0.07658451795578003, -0.17676027119159698, -0.06467244774103165, -0.004425948951393366, -0.011577595956623554, 0.12395535409450531, -0.12704816460609436, -0.001309999031946063, 0.017432747408747673, -0.0028421850875020027, 0.0010043567745015025, 0.0829094722867012, 0.021154198795557022, -0.025434041395783424, -0.0020509350579231977, 0.04025925695896149, -0.042650431394577026, 0.03374829143285751, 0.09153453260660172, 0.00040562430513091385, -0.03270617499947548, -0.008093196898698807, -0.0033761884551495314, 0.0010046525858342648, 0.01946091279387474, 0.006115180905908346, 0.015540466643869877, -0.07605461776256561, 0.008266079239547253, 0.0017691467655822635, -0.11583817005157471, 0.010193291120231152, -0.03183363005518913, -0.00026234620600007474, -0.06128016486763954, 0.002013283083215356, 0.09450504928827286, 0.0217641182243824, -0.0021544210612773895, 0.0025665336288511753], [0.004488653037697077, -0.026769177988171577, 0.02670135535299778, -0.03604274243116379, -0.002539344597607851, 0.08910093456506729, 0.011995158158242702, -0.0014341712230816483, -0.05617992952466011, 0.08193409442901611, -0.005667921621352434, -0.0037576239556074142, -0.030929844826459885, 0.007965615019202232, -0.05299922823905945, -0.00011869205627590418, -0.048769570887088776, -0.11065110564231873, -0.04969361424446106, -0.06431706994771957, 0.007952547632157803, -0.05558580905199051, -0.006151180248707533, -0.0034240384120494127, 0.006893560755997896, 0.00036698891199193895, 0.023283759132027626, -0.0006846127798780799, -0.001414499245584011, -0.003205300774425268, 0.10573820769786835, -0.0053157503716647625, -0.05344429984688759, -0.0014096609083935618, 0.0022878204472362995, 0.001424310845322907, -0.07918396592140198, -0.07345405966043472, -0.0056117018684744835, 0.006562446244060993, -0.018828654661774635, 0.011413904838263988, -0.031834349036216736, 0.0040479619055986404, 0.06708919256925583, -0.005700972396880388, 0.010915200226008892, 0.003218496683984995, -0.10288388282060623, 0.10155995935201645, -0.0049949162639677525, -0.006329793017357588, -0.074079729616642, 0.06616413593292236, 0.10146661847829819, -0.05994270741939545, 0.04844805598258972, -0.055320922285318375, -0.00714669656008482, 0.0025333301164209843, 0.03785514086484909, 0.07592546939849854, -0.002845894079655409, -0.004865463823080063, -0.10216143727302551, 0.042778611183166504, -0.055417388677597046, 0.004335114732384682, -0.022154860198497772, 0.004769216291606426, 0.005101242568343878, -0.047227803617715836, 0.015252241864800453, -0.06261797249317169, 0.008217387832701206, 0.00042929736082442105, -0.0188031867146492, -0.05096842348575592, 0.002536769723519683, -0.052320435643196106], [0.00484154699370265, -0.068077452480793, -0.08157001435756683, -0.10233356058597565, -0.0067617385648190975, 0.10706397145986557, -0.01218052115291357, 0.0016985448310151696, -0.07464142143726349, 0.11189678311347961, -0.013254117220640182, -0.01399706955999136, -0.03224407136440277, 0.010867111384868622, -0.08916039019823074, 0.006513140629976988, -0.12245654314756393, -0.08266312628984451, -0.08122505247592926, -0.07842029631137848, -0.009842821396887302, -0.07358656078577042, -0.011084353551268578, -0.009249548427760601, 0.01928085647523403, 0.0005985123571008444, -0.05735598877072334, 0.0068641649559140205, 0.003736679209396243, -0.014632093720138073, 0.10086880624294281, -0.01500067301094532, -0.12450804561376572, -0.03294188156723976, 0.007304840255528688, -0.007621735334396362, -0.07927363365888596, -0.10052543878555298, -0.03544427454471588, 0.037693142890930176, -0.034347161650657654, 0.12568821012973785, 0.025585658848285675, 0.019453754648566246, 0.13949966430664062, -0.2700994908809662, -0.020287981256842613, 0.01381530612707138, -0.12432141602039337, 0.13703951239585876, -0.014119254425168037, -0.01735871471464634, -0.11472209542989731, 0.10807916522026062, 0.10152624547481537, -0.03988596424460411, 0.08112414181232452, -0.04919254779815674, 0.003289438085630536, 0.028547458350658417, 0.027864523231983185, 0.12403298914432526, 0.006519985850900412, -0.0011964108562096953, -0.10293259471654892, 0.09544987231492996, -0.08761885017156601, 0.0014655644772574306, -0.5648823976516724, 0.013514298014342785, 0.0067633106373250484, -0.05946653336286545, 0.0841546356678009, -0.08056056499481201, 0.026524413377046585, 0.004096520133316517, -0.08885934203863144, -0.07075759023427963, 0.015094907023012638, -0.15191787481307983], [-0.0007225191802717745, 0.007358466275036335, -0.008991247043013573, 0.005450416821986437, 0.003950714133679867, -0.0060041965916752815, -0.011498026549816132, -0.027380572631955147, 0.006666422821581364, 0.0007092896848917007, -0.0001750894880387932, 0.0002450667379889637, -0.0034095249138772488, 0.0015423588920384645, 0.008002253249287605, 6.404460145859048e-05, 0.004809272009879351, 0.001322722528129816, 0.009398603811860085, 0.00936467107385397, -0.00453988928347826, 0.014448242262005806, 0.00010442660277476534, 5.241719918558374e-05, 0.0009267433197237551, 0.0029542981646955013, -0.028072012588381767, -0.00037825049366801977, 0.0018673355225473642, 0.0007230275077745318, -0.010684678331017494, -3.650351573014632e-05, -0.00023876452178228647, -0.0012820501578971744, -0.00036269755219109356, 0.0001438500767108053, 0.010878431610763073, 0.0017277493607252836, -0.0011089773615822196, 0.0039242468774318695, -0.002136890310794115, -0.01185036264359951, -0.030877290293574333, 0.0014112580101937056, -0.006439829710870981, 0.0021814568899571896, -0.011767991818487644, 0.0020802670624107122, 0.0034660387318581343, -0.011646856553852558, 6.509100057883188e-05, 0.0004212892963550985, 0.011119993403553963, -0.006070619914680719, -0.00776861235499382, 0.004622851964086294, -0.012385609559714794, 0.005035752430558205, 0.004023198038339615, -0.0014046862488612533, -0.005825283005833626, -0.00830643717199564, 0.0013112634187564254, 0.0004440764314495027, 0.008555317297577858, -0.0030853007920086384, 0.007242097984999418, -0.00011502650158945471, -0.019607489928603172, 0.0001813508424675092, -0.001061603776179254, 0.0019450151594355702, 0.0014560011913999915, 0.0031922676134854555, 0.0005546282045543194, 1.5787745724082924e-05, -0.0028343205340206623, 0.009091299958527088, 0.004372113384306431, 0.017222266644239426], [-0.0010158645454794168, 0.042043861001729965, -0.012941496446728706, 0.038618940860033035, 0.004999482072889805, -0.03785812854766846, -0.002907134359702468, 0.007779833395034075, 0.03964630886912346, -0.07050666958093643, 0.00028278256650082767, 0.0005316847236827016, -0.007123633753508329, 0.0016116556944325566, 0.063800148665905, -8.648190851090476e-05, 0.05015728622674942, 0.04842863604426384, 0.044003766030073166, 0.04411600902676582, -0.0021477225236594677, 0.050056058913469315, -9.471912198932841e-05, 0.0015630609123036265, -1.467480217343109e-07, 0.0015036646509543061, 0.0011378421913832426, -7.686431490583345e-05, 0.0013022235361859202, 0.0022424657363444567, -0.05078573897480965, 0.0007131854654289782, 0.07931271195411682, -0.001086584641598165, -0.0013318363344296813, -0.0003796981181949377, 0.07551849633455276, 0.03926517441868782, -0.00045347042032517493, 0.0016434999415650964, -0.005038855597376823, 0.0032747790683060884, 0.03110669180750847, 0.0009928180370479822, -0.07826484739780426, -0.008760320954024792, -0.0019618715159595013, 0.0004336121492087841, 0.0604541152715683, -0.0890122503042221, 0.000977716175839305, 0.0002337871555937454, 0.07350534200668335, -0.08456483483314514, -0.10030191391706467, 0.06085299327969551, -0.059156470000743866, 0.02483469434082508,