{"model_data": {"model": "SimpleRNN", "input_size": 1, "skip": 1, "output_size": 1, "unit_type": "GRU", "num_layers": 1, "hidden_size": 20, "bias_fl": true}, "state_dict": {"rec.weight_ih_l0": [[-0.0464412085711956], [-0.29320842027664185], [-0.13355331122875214], [-0.005906523205339909], [0.3148103356361389], [0.049853164702653885], [-0.016310088336467743], [-0.06563461571931839], [-0.12742792069911957], [0.12076263874769211], [0.06987123191356659], [-0.49684399366378784], [0.15876725316047668], [0.007233590353280306], [-0.33846530318260193], [0.0029837670736014843], [0.0014490523608401418], [0.05411025881767273], [0.20200254023075104], [-0.058845266699790955], [-0.028847578912973404], [0.1772862672805786], [0.16531695425510406], [0.006334333680570126], [0.06147164851427078], [0.0034529108088463545], [0.0974477156996727], [-0.010354941710829735], [0.024697279557585716], [-0.032253578305244446], [-0.22081325948238373], [0.6261495351791382], [-0.2757094204425812], [0.030475018545985222], [0.004065811168402433], [-0.0005553946830332279], [-0.031181946396827698], [0.008576923981308937], [-0.07422889024019241], [-0.11084605008363724], [-0.025635886937379837], [1.073347568511963], [0.9622215032577515], [-0.8420964479446411], [1.0092445611953735], [0.26532456278800964], [0.29059499502182007], [0.018524454906582832], [0.9170459508895874], [-0.17373578250408173], [-0.9855520725250244], [-1.0794169902801514], [1.0506666898727417], [0.9763859510421753], [-1.2148797512054443], [1.177610993385315], [-0.1888965368270874], [0.2678098678588867], [1.4442659616470337], [-0.6671683192253113]], "rec.weight_hh_l0": [[0.06659502536058426, 0.03384559229016304, -0.07611238956451416, 0.02129295840859413, 0.01823369786143303, -0.027985017746686935, 0.027208855375647545, 0.03229916840791702, -0.04685315862298012, 0.10996546596288681, -0.033833034336566925, 0.05656326189637184, -0.04141545668244362, -0.026004917919635773, -0.05631678178906441, 0.032594822347164154, 0.02213495969772339, -0.09762506186962128, -0.1473669856786728, 0.03372718021273613], [-0.052586499601602554, -0.1328011304140091, -0.34485089778900146, 0.18800228834152222, -0.21405662596225739, -0.10930080711841583, -0.15370404720306396, 0.03595060110092163, 0.007398766465485096, -0.05613347515463829, 0.4221574664115906, 0.10917364805936813, -0.04239782318472862, -0.03839120641350746, 0.16874541342258453, -0.3197345435619354, 0.04406892880797386, 0.07644633203744888, 0.122349314391613, 0.2554497718811035], [-0.0013491169083863497, 0.1423318237066269, -0.07244646549224854, 0.1396474987268448, 0.024838775396347046, 0.013052904978394508, 0.1867884248495102, 0.045822884887456894, -0.06408940255641937, 0.16832616925239563, 0.07279326766729355, 0.11819610744714737, -0.1495829075574875, -0.05434482917189598, 0.0010870342375710607, 0.2194480001926422, 0.21561211347579956, -0.12390660494565964, -0.42450886964797974, 0.31777679920196533], [-0.02510991506278515, 0.18252991139888763, -0.09629718959331512, -0.016351820901036263, 0.005237078294157982, -0.06542082130908966, 0.07429919391870499, 0.19894152879714966, -0.042819492518901825, 0.30611589550971985, -0.061225663870573044, 0.2759800851345062, -0.05059819668531418, -0.4554140269756317, -0.2647496163845062, 0.209392249584198, 0.0031916347797960043, -0.004188730381429195, -0.18638306856155396, -0.07391918450593948], [0.16000092029571533, -0.302690327167511, -0.10740450024604797, 0.018222931772470474, -0.24338757991790771, -0.09365561604499817, 0.08730441331863403, 0.05001169070601463, -0.164899542927742, 0.06380552798509598, -0.3063017725944519, 0.11813617497682571, -0.20987902581691742, -0.5804744958877563, -0.27930429577827454, -0.08901970088481903, -0.18693554401397705, -0.029666051268577576, 0.4915388226509094, 0.05816114693880081], [0.10200795531272888, 0.017888013273477554, 0.03215437009930611, -0.11958423256874084, 0.03221989423036575, 0.01673458144068718, 0.08220531046390533, 0.028411397710442543, -0.04291290417313576, 0.07013304531574249, -0.15156671404838562, 0.17187745869159698, 0.0021442577708512545, 0.05624505504965782, -0.07334092259407043, 0.1986786276102066, -0.10134698450565338, -0.057257018983364105, -0.010243447497487068, -0.12432321161031723], [-0.03867045417428017, 0.0800977274775505, -0.18088169395923615, -0.06388263404369354, 0.13100504875183105, -0.006985271815210581, -0.09553445875644684, -0.014804056845605373, -0.01783956028521061, 0.000877487997058779, -0.004101128783077002, 0.1452716737985611, 0.22198164463043213, 0.12053091824054718, -0.20537398755550385, -0.19883501529693604, 0.07680577039718628, -0.03728598728775978, -0.0949992686510086, -0.18659092485904694], [-0.0350620411336422, 0.0801604837179184, -0.06934265047311783, 0.03772256523370743, 0.007097391877323389, -0.013477640226483345, -0.008210543543100357, 0.028212295845150948, -0.035824913531541824, 0.018791403621435165, 0.046820834279060364, 0.03845736384391785, -0.01528341043740511, -0.0674356073141098, -0.05457712337374687, -0.06475907564163208, 0.06287004053592682, -0.013958037830889225, -0.05081361532211304, 0.053007226437330246], [0.24344989657402039, -0.5123578310012817, -0.004816320259124041, -0.009745660237967968, -0.13661783933639526, -0.10161560773849487, -0.07635298371315002, -0.048218026757240295, -0.017590628936886787, -0.00917254388332367, 0.02616099640727043, 0.004322954919189215, -0.007479451131075621, 0.0028844010084867477, 0.4820278286933899, 0.08225863426923752, -0.4014194905757904, -0.07877038419246674, 0.3271554112434387, -0.04722396284341812], [0.16778594255447388, -0.09284685552120209, 0.11897940188646317, -0.04983549937605858, 0.04051973298192024, -0.014413717202842236, 0.033411748707294464, -0.032777611166238785, -0.07788398861885071, 0.02563154324889183, -0.06869778782129288, 0.05053643882274628, -0.06805003434419632, -0.05059625953435898, -0.028321968391537666, 0.18944090604782104, -0.1969355046749115, -0.03270382806658745, 0.04914868250489235, -0.09053707867860794], [0.1558624505996704, -0.16752301156520844, 0.04077332094311714, -0.04862942546606064, 0.07500023394823074, -0.008831166662275791, 0.13613060116767883, -0.000993412104435265, -0.018422551453113556, 0.09500568360090256, -0.057126790285110474, 0.04757792502641678, -0.1435175985097885, 0.07253271341323853, 0.05169772729277611, 0.23669478297233582, -0.13454654812812805, -0.07718031853437424, 0.004259875044226646, -0.01641232892870903], [0.14997653663158417, -0.4599268436431885, -0.3488727807998657, 0.22681351006031036, -0.08240138739347458, 0.0033538357820361853, 0.23601944744586945, -0.01895146630704403, -0.09040027111768723, 0.029141342267394066, 0.1435738354921341, 0.6478819847106934, -0.09622087329626083, 0.03971027955412865, 0.5309173464775085, 0.48520129919052124, -0.18900564312934875, -0.1418660432100296, -0.017678240314126015, 0.3936694264411926], [0.2016279250383377, -0.20425085723400116, 0.2133057862520218, -0.060299407690763474, 0.03334597498178482, -0.1308826208114624, -0.5026704668998718, -0.06177404150366783, 0.16322459280490875, -0.147223562002182, 0.47265565395355225, -0.1832771599292755, 0.29608070850372314, 0.04816790670156479, 0.6811586618423462, -0.2518641948699951, -0.45080262422561646, -0.013198629952967167, 0.794388473033905, -0.2989714443683624], [0.16219867765903473, 0.18382026255130768, -0.2234172821044922, -0.29375696182250977, -0.07693840563297272, 0.07726410031318665, 0.26462090015411377, 0.22975246608257294, -0.4032107889652252, 0.3569238483905792, -0.3732876479625702, 0.5141639709472656, 0.07687144726514816, 0.3362480700016022, 0.2011089026927948, 0.5739391446113586, -0.5437721014022827, -0.17469966411590576, -0.12331560254096985, -0.7469955682754517], [-0.12979793548583984, 0.06319795548915863, -0.9069843292236328, 0.386193186044693, -0.08224461227655411, -0.22118428349494934, 0.2757280170917511, 0.13709960877895355, -0.003997082356363535, 0.056670159101486206, 0.210085928440094, 1.1434760093688965, -0.22672465443611145, -0.5274003744125366, -0.6296200156211853, -0.3467000424861908, 0.24006199836730957, -0.11867926269769669, -0.0005010338500142097, 0.1949867606163025], [-0.0006669646827504039, -0.01108548603951931, -0.24114739894866943, -0.032795511186122894, -0.029038995504379272, -0.019837986677885056, -0.05358749255537987, -0.0020545898005366325, -0.004162123892456293, -0.10373587906360626, -0.008997640572488308, 0.05522529035806656, -0.06847479939460754, 0.012975015677511692, -0.08215213567018509, -0.2282116860151291, -0.0709768757224083, 0.051126837730407715, 0.2827468514442444, -0.03386322781443596], [-0.07121961563825607, 0.24301806092262268, -0.19631434977054596, -0.01634838432073593, 0.21798542141914368, 0.015492178499698639, 0.05278882756829262, 0.03622868284583092, 0.019930388778448105, 0.12067420035600662, 0.014302315190434456, 0.0782591700553894, 0.040133267641067505, -0.015269988216459751, -0.31075942516326904, 0.08283361047506332, 0.21537132561206818, -0.14007490873336792, -0.3142893314361572, -0.042569223791360855], [0.21668905019760132, -0.15833444893360138, -0.05276194214820862, -0.008557608351111412, -0.020111270248889923, -0.02160581946372986, 0.03854750841856003, -0.014147340320050716, -0.14333821833133698, -0.015096909366548061, -0.2256731390953064, 0.2361186444759369, -0.1275881677865982, -0.1446952074766159, 0.09787879884243011, 0.016939101740717888, -0.2867581248283386, -0.059309013187885284, 0.3123541474342346, -0.06306583434343338], [-0.06183181703090668, 0.8364726901054382, -0.1365712285041809, -0.4585041403770447, -0.1844758838415146, 0.07643713057041168, 0.6557736396789551, 0.35959893465042114, -0.29465559124946594, 0.6156152486801147, 0.1340535432100296, 0.36104530096054077, -0.5667181015014648, -0.044064395129680634, -1.1712925434112549, 1.4980932474136353, -0.018117159605026245, -0.20238874852657318, -0.7564154267311096, -0.18048107624053955], [-0.08130573481321335, 0.5336537957191467, -0.40934285521507263, 0.2905398905277252, 0.24629230797290802, 0.02447747439146042, -0.36132919788360596, 0.13845227658748627, 0.3615056574344635, 0.25943896174430847, -0.3191387951374054, 0.48678267002105713, 0.6384206414222717, -0.3128562867641449, 0.21798445284366608, 0.016988404095172882, 0.38997021317481995, -0.43934762477874756, -0.38050577044487, -0.1267290562391281], [0.002065829234197736, 0.0025777893606573343, 0.0034636605996638536, 0.0011757556349039078, -0.014966542832553387, -0.0005551609792746603, -0.0037851284723728895, 0.0012663722736760974, 0.006957579869776964, 0.004081150982528925, -0.017438046634197235, -0.0013354214606806636, 0.006640749052166939, -0.00565709313377738, 0.003156102728098631, 0.003647942328825593, 0.0015671371947973967, -0.009360372088849545, -0.003925724886357784, 0.0034499468747526407], [-0.0247813630849123, -0.014431342482566833, -0.11065847426652908, -0.06347111612558365, 0.2280297726392746, 0.04746047034859657, 0.011998473666608334, -0.06459091603755951, -0.32929757237434387, -0.09810057282447815, 0.027532266452908516, 0.10181359201669693, 0.029719693586230278, -0.3322683870792389, -0.21621830761432648, -0.06846832484006882, 0.037301454693078995, 0.11818936467170715, 0.0009071357198990881, -0.4602920114994049], [0.2943704426288605, -0.16944757103919983, 0.08130162209272385, -0.07959815114736557, 0.3942016065120697, -0.06837795674800873, 0.2391483187675476, -0.023479163646697998, -0.10651569068431854, 0.28316622972488403, -0.4211563766002655, 0.6586567759513855, -0.42211946845054626, 0.30970868468284607, -0.2746332883834839, 0.4872399866580963, -0.052322279661893845, -0.2853003144264221, -0.5158947706222534, 0.2882329225540161], [-0.058716267347335815, -0.04553668946027756, 0.08869054913520813, 0.004826604388654232, -0.08946198970079422, 0.0016948585398495197, 0.017992697656154633, -0.016076307743787766, -0.029431836679577827, -0.033669356256723404, 0.11036862432956696, -0.18640698492527008, -0.11130641400814056, -0.049843985587358475, 0.09496115893125534, 0.03249954432249069, 0.009516368620097637, 0.06764435768127441, 0.011897359043359756, 0.03244790807366371], [-0.24845066666603088, 0.1249808520078659, 0.06174469366669655, 0.0376831479370594, -0.08952264487743378, 0.09060192108154297, 0.048065584152936935, -0.008745851926505566, 0.0074685122817754745, -0.12138330936431885, 0.0778428390622139, -0.2377571165561676, 0.000559318286832422, 0.047662459313869476, 0.009085546247661114, -0.006043074652552605, 0.2122012972831726, 0.12976233661174774, -0.014508744701743126, 0.04932483285665512], [-0.03336683660745621, -0.009258843027055264, 0.02942110225558281, 0.0026174159720540047, -0.010504147037863731, -0.001760230166837573, -0.005481390282511711, -0.007239217404276133, 0.0037205922417342663, -0.02126007340848446, 0.05490318313241005, -0.0808355063199997, -0.03183448687195778, -0.006766514852643013, 0.06529247015714645, 0.0020577420946210623, 0.011335505172610283, 0.026344366371631622, 0.005331740714609623, 0.020929934456944466], [-0.0494784377515316, -0.0018716496415436268, 0.04849466681480408, 0.051381874829530716, -0.033476535230875015, -0.015520188957452774, -0.03677137941122055, 0.00786339957267046, 0.05129902809858322, -0.007329811342060566, 0.03545156866312027, -0.11841731518507004, -0.05674336478114128, -0.04407888650894165, 0.07058162242174149, 0.011490227654576302, 0.042004071176052094, 0.003917592577636242, -0.012819821015000343, 0.13377054035663605], [-0.00483182817697525, -0.015819130465388298, 0.01882285065948963, -0.0133115379139781, -0.00710035627707839, 0.00019681050616782159, 0.008467796258628368, -0.0024898455012589693, 0.006942040286958218, -0.006610159296542406, 0.02476598136126995, -0.026650745421648026, -0.019311968237161636, 0.036554329097270966, -0.00020789589325431734, 0.005307973362505436, -0.00979283731430769, 0.013375203125178814, 0.01235977467149496, 0.0018181222258135676], [-0.17802560329437256, 0.11390089243650436, -0.0155112836509943, 0.06400172412395477, -0.00469186482951045, 0.049109622836112976, -0.020610636100172997, -0.00756928650662303, 0.009882526472210884, -0.09171345829963684, 0.0641898512840271, -0.11508547514677048, 0.02838664874434471, -0.07560770213603973, 0.027882885187864304, -0.022976769134402275, 0.16248904168605804, 0.07484738528728485, -0.0555301308631897, 0.0629844069480896], [-0.019488276913762093, -0.001989179290831089, -0.0046036867424845695, -0.022940335795283318, 0.011657257564365864, -0.0003853008965961635, -0.010669432580471039, -0.0024256110191345215, 0.04029224440455437, -0.014971950091421604, 0.03448300063610077, -0.008460472337901592, 0.013126788660883904, 0.07023448497056961, -0.013126210309565067, -0.016812460497021675, -0.0016254099318757653, 0.012396986596286297, 0.02637597545981407, 0.004210170824080706], [-0.11438590288162231, 0.136919304728508, -0.18738175928592682, -0.4479093849658966, -0.2472536712884903, 0.0691927894949913, 0.24402117729187012, -0.012873701751232147, -0.028093675151467323, -0.1104685589671135, 0.3921748399734497, 0.2663930356502533, 0.08995916694402695, 1.258033037185669, -0.5471758246421814, -0.06498735398054123, -0.11446186155080795, 0.10760540515184402, 0.31900495290756226, 0.003805099753662944], [0.0944453626871109, -0.16747355461120605, 0.08971995860338211, -0.03473895043134689, 0.6276066899299622, -0.23511502146720886, -0.25404179096221924, -0.12101256102323532, 0.002120259450748563, 0.0038572323974221945, 0.20058438181877136, 0.5600228309631348, -0.46159571409225464, -0.12605109810829163, 0.028728017583489418, 0.5055129528045654, -0.14488936960697174, -0.29228076338768005, -0.035831402987241745, 0.2688969373703003], [-0.04638361558318138, -0.05079863220453262, 0.0918031558394432, -0.18929876387119293, -0.19160398840904236, 0.031674575060606, 0.07548192888498306, -0.09559732675552368, -0.19832724332809448, -0.17710626125335693, 0.4267790913581848, -0.2745804786682129, -0.04984643682837486, 0.2887406647205353, -0.05293136462569237, -0.07195498049259186, -0.08432893455028534, 0.25088173151016235, 0.09258447587490082, -0.018007870763540268], [-0.2527012526988983, 0.2364215850830078, 0.09222996234893799, 0.09182441979646683, 0.13024118542671204, 0.0014595409156754613, -0.16504120826721191, -0.06775081157684326, 0.05469495803117752, -0.13506639003753662, 0.28802821040153503, -0.24562223255634308, 0.06257671117782593, -0.007242650259286165, 0.0503496378660202, -0.15252025425434113, 0.18629741668701172, 0.10927366465330124, -0.04797282814979553, 0.1758510321378708], [0.13335950672626495, -0.033799491822719574, -0.0017282378394156694, -0.008190339431166649, -0.0344153456389904, 0.07596500962972641, 0.13705168664455414, 0.0007759843720123172, -0.2289639562368393, 0.05597010999917984, -0.3379311263561249, 0.15111227333545685, 0.08103276789188385, -0.29066115617752075, 0.024153707548975945, 0.07746083289384842, -0.04300490394234657, -0.014523815363645554, 0.018391983583569527, -0.2940833866596222], [-0.05786251276731491, -0.4848276376724243, -1.1082786321640015, -0.14351288974285126, 0.41513052582740784, -0.20834164321422577, -0.28455209732055664, -0.08091521263122559, 0.09440724551677704, 0.031905949115753174, -0.1586039960384369, 0.9211360216140747, 0.4119991362094879, 0.5269556641578674, 0.2850986123085022, -0.48716241121292114, 0.02870149351656437, -0.1291266679763794, -0.44033050537109375, -0.5015917420387268], [0.0009445383329875767, -0.0065956502221524715, 0.01967097632586956, 0.007551627233624458, -0.06306837499141693, -0.0006214110762812197, 0.000494718668051064, -4.233315848978236e-06, -0.0028050108812749386, 0.0022326544858515263, -0.013729034923017025, -0.02442055195569992, -0.0065014236606657505, 0.04312461242079735, 0.024884382262825966, 0.01329963281750679, -0.0024334986228495836, -0.004223506897687912, -0.013754482381045818, 0.02613692358136177], [-0.07260078936815262, -0.0020544647704809904, 0.016528349369764328, -0.028634872287511826, 0.033523060381412506, 0.0010620239190757275, -0.030843252316117287, -0.01234516128897667, 0.0633758082985878, -0.05263764038681984, 0.11108814179897308, -0.07819576561450958, -0.0054388632997870445, 0.06413102895021439, -0.02123953402042389, -0.02806195430457592, 0.015371333807706833, 0.053289029747247696, 0.03967255353927612, 0.008597423322498798], [0.34905460476875305, -0.32929447293281555, 0.24710755050182343, -0.1043204590678215, -0.05874805524945259, -0.03900672122836113, 0.1824427843093872, 0.09239344298839569, 0.5338945388793945, 0.3066260814666748, -0.6590319871902466, -0.09694237262010574, -0.2886083126068115, 0.09054622799158096, 0.09080778807401657, 0.414753258228302, -0.20248477160930634, -0.2705434262752533, 0.1671227663755417, 0.053204555064439774], [-0.22601284086704254, -0.023387564346194267, 0.12078648060560226, 0.007180704269558191, -0.153310626745224, 0.007060988340526819, 0.025433873757719994, -0.047123923897743225, -0.07456572353839874, -0.18174314498901367, 0.5627471804618835, -0.3984844386577606, -0.21594971418380737, 0.22480729222297668, 0.09581851959228516, -0.07246120274066925, 0.052021611481904984, 0.2591298818588257, -0.008298009634017944, 0.13442584872245789], [-0.1077391728758812, -0.05855657160282135, 0.17684277892112732, 0.11478149890899658, -0.1092129722237587, 0.07219227403402328, 0.001568338950164616, 0.09258489310741425, 0.14731016755104065, 0.08327144384384155, -0.5504932403564453, -0.01270387414842844, 0.14452168345451355, -0.23963519930839539, 0.7099792957305908, 0.3501216471195221, 0.06082407012581825, -0.20569685101509094, 0.3372901380062103, -0.16863280534744263], [-0.004291065502911806, 0.25797775387763977, -0.05213651433587074, 0.19335094094276428, 0.19193533062934875, -0.28613796830177307, -0.3303850293159485, 0.18556123971939087, -0.26163655519485474, 0.22771568596363068, 0.2908949553966522, 0.15757399797439575, -0.29778724908828735, -0.22703520953655243, -0.5251315236091614, -0.14860813319683075, 0.2704048454761505, -0.2526389956474304, -0.4777155816555023, 0.7692782878875732], [0.11875659972429276, -0.05547545105218887, 0.6701927185058594, 0.050040051341056824, -0.3534844219684601, -0.005271907430142164, -0.023686671629548073, -0.05812074989080429, -0.054314225912094116, 0.082300566136837, -0.09081064909696579, -0.3092828392982483, 0.09923423826694489, 0.1606736183166504, 0.576541006565094, 0.4190857410430908, -0.1923961639404297, 0.114555723965168, -0.020301904529333115, 0.07644084095954895], [0.1314353346824646, -0.056542348116636276, -0.21495570242404938, 0.1739342212677002, 0.10357831418514252, -0.19210195541381836, 0.009843055158853531, -0.2049015760421753, -0.4078713357448578, 0.1530575156211853, 0.04890942946076393, 0.25335681438446045, -0.036859042942523956, -0.10544466972351074, 0.0022434943821281195, 0.24505360424518585, -0.21655961871147156, -0.17810073494911194, -0.24275359511375427, -0.5370315909385681], [-0.043149061501026154, 0.27913129329681396, -0.7248985767364502, 0.41287076473236084, -1.1275181770324707, -0.13093996047973633, -0.01891331560909748, -0.03385227918624878, -0.865139365196228, 0.14253690838813782, 0.0609603188931942, 0.5022633671760559, 0.07498779147863388, 0.5107560157775879, -0.20431938767433167, 0.1355726569890976, 0.15835091471672058, -0.2929094731807709, -0.7953318953514099, -0.31038156151771545], [-0.08751493692398071, 0.20337997376918793, -0.03484205901622772, -0.035923924297094345, 0.12640593945980072, 0.12595787644386292, 0.0040398831479251385, 0.131334587931633, 0.1162656918168068, 0.0839199647307396, -0.13361907005310059, -0.004151583649218082, -0.18699394166469574, 0.34957155585289, -0.24350476264953613, 0.22409404814243317, 0.1797151416540146, 0.09606228768825531, 0.23542635142803192, 0.6117363572120667], [-0.14766792953014374, -0.009626953862607479, 0.10937570780515671, -0.16671565175056458, 0.23579055070877075, 0.25490859150886536, 0.01920579932630062, 0.18196572363376617, 0.4384334981441498, -0.13482078909873962, -0.18556159734725952, -0.029246997088193893, -0.43974602222442627, 0.03921627625823021, -0.021523866802453995, 0.6619291305541992, 0.42807286977767944, 0.03277989476919174, 0.32665112614631653, 0.9573376774787903], [0.08303025364875793, 0.015129812061786652, -0.021816115826368332, 0.14647608995437622, -0.09417933225631714, -0.13471083343029022, 0.029400410130620003, -0.06026502326130867, -0.20841552317142487, 0.045087505131959915, 0.06438807398080826, 0.0387449711561203, -0.1561400592327118, -0.28791382908821106, -0.23483917117118835, -0.09432251751422882, -0.09167477488517761, -0.09131848067045212, -0.16438652575016022, 0.12754373252391815], [-0.04839929938316345, -0.09308799356222153, -0.5823338627815247, 0.25274643301963806, -0.6139963865280151, -0.2836197018623352, -0.2340695708990097, 0.14084482192993164, -0.9481375813484192, 0.05893288925290108, 0.09629657864570618, 0.3291659653186798, -0.5738191604614258, -0.1906607300043106, -0.24487462639808655, -0.3162974417209625, 0.02427016571164131, -0.10899996757507324, -0.22983109951019287, 0.16315948963165283], [0.29170531034469604, 0.074519582092762, 0.14007791876792908, 0.17437811195850372, 0.23300084471702576, -0.24542871117591858, 0.026911217719316483, -0.0315055176615715, -0.2864444851875305, 0.12083137780427933, -0.24548116326332092, -0.01219878625124693, -0.03156736493110657, -0.45384812355041504, -0.04438018798828125, 0.39949530363082886, -0.13383786380290985, -0.20468899607658386, -0.6036130785942078, -0.24323000013828278], [-0.2137678563594818, 0.2788007855415344, 0.08650808781385422, -0.11947061866521835, -0.3966193199157715, 0.16443504393100739, -0.0594245120882988, -0.0024326362181454897, 0.08019255846738815, -0.07002288848161697, 0.41539332270622253, -0.08427498489618301, 0.2983400523662567, 0.6387059092521667, -0.044387225061655045, -0.33116045594215393, 0.05857605114579201, 0.10318566858768463, -0.5174440741539001, -0.07239395380020142], [0.15265582501888275, -0.006306073162704706, -0.03150052949786186, -0.3182099163532257, 0.056621670722961426, 0.10507044941186905, 0.016573727130889893, -0.1150217205286026, 0.019606230780482292, 0.11351948231458664, -0.007185688242316246, 0.5066389441490173, 0.59429532289505, 0.38194191455841064, -0.5482832789421082, -0.15219300985336304, -0.22370129823684692, -0.030105218291282654, -0.7405350804328918, -0.7209341526031494], [-0.3333125710487366, 0.14828161895275116, -0.5960744619369507, -0.033791691064834595, 0.15601231157779694, 0.11470769345760345, -0.34185102581977844, 0.25786638259887695, 0.24236378073692322, 0.08975127339363098, -0.06418256461620331, 0.3671404719352722, 0.0280967578291893, -0.09354472160339355, 0.008147742599248886, -0.9485368132591248, 0.47922027111053467, -0.07685867697000504, 0.18754641711711884, 0.7753743529319763], [-0.5743541717529297, 0.13397321105003357, -0.1476251631975174, -0.1834019124507904, 0.8671593070030212, 0.5228761434555054, 0.19018733501434326, 0.25594937801361084, 0.9611866474151611, -0.34654104709625244, 0.3040933907032013, -0.2944813072681427, -0.06685452163219452, -0.5704876184463501, 0.3457801640033722, -0.2689458727836609, 0.6792866587638855, 0.3670426309108734, -0.07796371728181839, 0.9097574353218079], [0.4420454800128937, -0.12720350921154022, 0.4770815372467041, 0.05065888911485672, -0.1056017130613327, -0.28878653049468994, 0.09266076982021332, -0.05744673311710358, -0.5356599688529968, 0.11315003782510757, -0.30422982573509216, -0.24841941893100739, -0.34175392985343933, -0.2606152594089508, 0.2531110346317291, 0.9887772798538208, -0.7097737789154053, -0.05040071904659271, -0.18610304594039917, -0.5934411883354187], [-0.028764326125383377, 0.11686752736568451, 0.4490121901035309, -0.14089852571487427, 0.0032675082329660654, 0.06108871102333069, 0.23892958462238312, 0.01150358933955431, -0.2944291830062866, 0.07017531245946884, -0.24383573234081268, 0.2707462012767792, -0.34388673305511475, -0.11611706018447876, -0.19366669654846191, 0.8736414909362793, -0.21692487597465515, -0.1564951390028, 0.21265147626399994, 0.15592065453529358], [0.0033288083504885435, 0.08711695671081543, -0.24698348343372345, -0.01409512385725975, 0.07108289003372192, -0.04943016916513443, 0.06529197841882706, 0.028132377192378044, -0.26670941710472107, 0.2146892100572586, 0.3216031491756439, 0.17653927206993103, -0.16036225855350494, 0.18558776378631592, -0.7717928886413574, -0.029730360954999924, 0.07363436371088028, -0.07095690071582794, -0.6775110960006714, -0.03877485916018486], [-0.24142125248908997, -0.08614557236433029, -0.0046463534235954285, -0.14173778891563416, -0.3076103925704956, 0.1502349078655243, -0.05728999152779579, 0.1973281055688858, 0.17748336493968964, -0.03368662670254707, 0.18166682124137878, -0.159219428896904, -0.15616634488105774, 0.2807105481624603, 0.12108772993087769, -0.24567145109176636, 0.09618053585290909, 0.14144839346408844, 0.6671741604804993, 0.6051867008209229], [-0.16329310834407806, -0.34503883123397827, 0.2993464767932892, 0.4572311341762543, -1.2680935859680176, 0.142047718167305, -0.037710484117269516, 0.1458212286233902, -0.2552822232246399, -0.05103442072868347, 0.20958156883716583, -0.11349821090698242, 0.07488268613815308, -0.13430683314800262, 0.22484436631202698, -1.311830997467041, 0.3515416085720062, 0.22106075286865234, 0.09287671744823456, 0.685492992401123], [-0.4076145589351654, 0.24325838685035706, -0.05165340378880501, 1.1434990167617798, -0.32135477662086487, -0.07618878781795502, -0.0990627259016037, 0.14429080486297607, -0.11713144928216934, 0.04014940932393074, 0.3366401195526123, 0.05756397917866707, -0.3566947877407074, -0.7668724656105042, 0.5459246635437012, -0.13358597457408905, 0.1967664211988449, -0.12855824828147888, -0.9985730648040771, -0.23522210121154785]], "rec.bias_ih_l0": [0.1949472725391388, 0.031288281083106995, -0.0456060953438282, -0.9032158255577087, 0.27684521675109863, -0.5186931490898132, 0.03437812998890877, -0.04275812953710556, 0.09867753088474274, -0.35951098799705505, 0.1281009167432785, 0.06521444767713547, -0.13140714168548584, -0.5081223845481873, -0.9634380340576172, 0.11312679201364517, -0.01841484196484089, -0.035950254648923874, -0.6904601454734802, -0.2436874806880951, -0.014380826614797115, 0.6399853229522705, 2.211707592010498, -0.3984123766422272, -1.003348469734192, -0.3001061677932739, -0.0895659327507019, 0.01912698522210121, -0.6825202107429504, 0.07800021767616272, 2.053795099258423, 2.12722110748291, 0.22629648447036743, -0.5988463759422302, -0.20632201433181763, 2.6532092094421387, -0.04564408212900162, -0.009544101543724537, -0.43303436040878296, -0.20586678385734558, 0.2582079768180847, -0.18828034400939941, -0.05310996621847153, -0.1046968400478363, -0.11954048275947571, 0.0047050220891833305, 0.10201536118984222, -0.07038035988807678, -0.11532630026340485, 0.04406578838825226, 0.054673854261636734, 0.01978416182100773, -0.0038599250838160515, 0.34560877084732056, -0.020493170246481895, 0.06441117823123932, -0.27178555727005005, -0.004190768580883741, -0.012501262128353119, 0.20138826966285706], "rec.bias_hh_l0": [0.20038439333438873, 0.12965792417526245, -0.0585462711751461, -0.7040751576423645, 0.2857136130332947, -0.5658000707626343, 0.06554511934518814, -0.033010609447956085, 0.13797906041145325, -0.33210891485214233, 0.17073266208171844, -0.01366745587438345, -0.013349412940442562, -0.7128846645355225, -0.9270282983779907, 0.03932071477174759, -0.015172922052443027, 0.0175405815243721, -0.5133525133132935, -0.11764996498823166, -0.01438082568347454, 0.6403136253356934, 2.191993236541748, -0.3968643546104431, -1.003348469734192, -0.3001062572002411, -0.08946502208709717, 0.01912696659564972, -0.6825201511383057, 0.07800222933292389, 2.0636391639709473, 2.17152738571167, 0.22628886997699738, -0.598993718624115, -0.20622384548187256, 2.679961681365967, -0.045644085854291916, -0.009531836956739426, -0.4330255091190338, -0.20585747063159943, 0.1475120186805725, 0.07798132300376892, 0.032955270260572433, -0.20962198078632355, -0.07780778408050537, -0.22905868291854858, 0.10979288071393967, 0.10173064470291138, -0.16224730014801025, 0.046506863087415695, -0.04611584544181824, 0.1264641433954239, -0.12370411306619644, 0.4794091582298279, -0.2077767699956894, -0.2486436814069748, -0.12089817970991135, -0.01796799898147583, 0.21315786242485046, -0.3851293921470642], "lin.weight": [[-0.024975597858428955, -0.026480888947844505, 0.053169094026088715, -0.010626476258039474, 0.34012067317962646, -0.06538839638233185, -0.051812175661325455, 0.0821065902709961, -0.028465570881962776, 0.009748921729624271, 0.13334324955940247, 0.2037239670753479, -0.3016379475593567, -0.3224289119243622, -0.1254640519618988, 0.009890417568385601, 0.057723164558410645, -0.04510163515806198, 0.4731285274028778, 0.25268563628196716]], "lin.bias": [0.0066652484238147736]}}