{"model_data": {"model": "SimpleRNN", "input_size": 1, "skip": 1, "output_size": 1, "unit_type": "LSTM", "num_layers": 1, "hidden_size": 20, "bias_fl": true}, "state_dict": {"rec.weight_ih_l0": [[0.17263153195381165], [-0.41653141379356384], [0.6313049793243408], [-0.26355117559432983], [0.5412968397140503], [-0.5354764461517334], [0.6478303670883179], [-1.0385169982910156], [-0.4989592432975769], [-0.19106921553611755], [0.78831547498703], [0.017680512741208076], [-0.19035841524600983], [-0.7909101247787476], [-1.6329065561294556], [-0.10133622586727142], [-0.7649700045585632], [1.2402842044830322], [-0.6117075681686401], [0.12186197191476822], [-0.7909601330757141], [-1.205848217010498], [0.5138295888900757], [-0.1186336800456047], [-1.8288830518722534], [0.7781180143356323], [-1.6080509424209595], [0.33626046776771545], [-0.511532187461853], [-0.31797683238983154], [3.2859106063842773], [-0.717136800289154], [2.0976336002349854], [-1.405928611755371], [4.041773319244385], [-1.226965308189392], [2.8190994262695312], [1.7145081758499146], [-1.3237942457199097], [-0.33971118927001953], [-0.1704024225473404], [1.0149885416030884], [0.36313652992248535], [0.17252306640148163], [-0.4556562304496765], [0.7657278180122375], [0.20537541806697845], [0.002838010201230645], [0.911214292049408], [1.137864112854004], [-0.5358351469039917], [-0.6718287467956543], [0.4635560214519501], [-1.0247973203659058], [-0.8691754937171936], [-0.18983450531959534], [0.6124794483184814], [0.5303110480308533], [-0.12390484660863876], [-1.076446533203125], [0.7589854598045349], [-0.8339184522628784], [0.6152211427688599], [-0.48388299345970154], [-1.0284292697906494], [-0.5621300935745239], [-0.533550500869751], [0.017205672338604927], [-0.4916504919528961], [-0.006710903253406286], [1.647275447845459], [-1.1058725118637085], [0.6644726991653442], [-1.1213489770889282], [2.6068341732025146], [-1.101259469985962], [1.4665192365646362], [1.062442660331726], [-1.4685906171798706], [0.1613408327102661]], "rec.weight_hh_l0": [[-0.5259461402893066, -0.6814458966255188, -0.008843591436743736, 0.5612106919288635, 0.7014039754867554, -0.4337526857852936, -0.5127869844436646, -0.7649182081222534, -0.4420584738254547, -1.230912208557129, 0.2213403731584549, -0.8194501996040344, 0.40912285447120667, 0.6428003907203674, -0.3636639416217804, -0.24748553335666656, -0.08697335422039032, -0.37848547101020813, -2.2662434577941895, 0.5243856310844421], [0.7106626629829407, -0.15388886630535126, -0.23344647884368896, 0.6446569561958313, 0.17100197076797485, -0.37981224060058594, -0.19059976935386658, -0.5886844396591187, -0.1076810285449028, -0.4549252986907959, 0.21068412065505981, 0.14923322200775146, -0.30567675828933716, 0.5609742403030396, -0.1549728363752365, 0.10028216242790222, -0.42725178599357605, -0.2778738737106323, -0.020661072805523872, 0.15708252787590027], [1.2199798822402954, -0.5072357058525085, 0.01395661011338234, 0.14631572365760803, 0.35991233587265015, -0.3365641236305237, -0.08292277157306671, -0.382411390542984, -0.44908085465431213, -0.23999300599098206, 0.33154866099357605, -0.13388554751873016, -0.06444314122200012, 0.26417791843414307, 0.23060345649719238, 0.2242289036512375, -0.14285339415073395, 0.07877856492996216, 0.2810233235359192, 0.16595958173274994], [-0.6460114121437073, -0.6062602400779724, 0.06872047483921051, 0.18282614648342133, -0.3222145736217499, -0.2415735125541687, 0.45446649193763733, 0.3731353282928467, -0.39819031953811646, 0.1680554747581482, 0.45055070519447327, 0.3835945725440979, 0.0003801780112553388, -0.7353703379631042, 0.14335691928863525, 1.5655672550201416, -0.501558244228363, -0.11309581249952316, 0.25588423013687134, 0.7640424966812134], [-0.48031237721443176, 1.2874764204025269, 0.28049343824386597, 1.7268732786178589, 1.1781764030456543, 1.2520354986190796, 0.08372660726308823, -0.09076778590679169, 1.8290793895721436, -0.09846635907888412, -0.9532892107963562, 0.18641529977321625, 0.11671701073646545, -1.3482415676116943, -1.562502384185791, -0.22189687192440033, 0.5532153248786926, 0.6650615334510803, -1.736276626586914, -0.9438300132751465], [0.6389703154563904, -0.4548432230949402, 0.030403414741158485, 0.5102261900901794, 0.029753344133496284, -0.09322145581245422, -0.4626658856868744, -0.3547970652580261, -0.48643958568573, -0.12491399049758911, 0.12245409190654755, 0.1330028772354126, -0.40926116704940796, 0.4392149746417999, 0.2051009088754654, 0.4538208842277527, -0.20869378745555878, -0.09291747212409973, 0.21532230079174042, 0.5026781558990479], [-0.6234447360038757, 0.8112367391586304, 0.8323625326156616, 0.6160950660705566, -0.2846669852733612, 1.387734293937683, 0.2832114100456238, 0.020601017400622368, 1.1063201427459717, 1.0736041069030762, -2.8262877464294434, 0.648135244846344, 0.3565449118614197, -1.7151904106140137, -0.587302565574646, 1.0518994331359863, 1.2445391416549683, 1.9920616149902344, -0.6814337968826294, -0.7406444549560547], [-0.2613946199417114, -0.7361710071563721, 0.7457470297813416, -0.18534058332443237, -0.7450531721115112, -1.0339502096176147, 0.2828381657600403, -0.6105021834373474, -0.940861165523529, -1.4222445487976074, -0.9577186703681946, -0.08719135820865631, 0.23304347693920135, 0.8052515983581543, -0.5525855422019958, -0.6291102170944214, 0.2923301160335541, 1.0677322149276733, -0.39709481596946716, 0.5823314189910889], [1.0398378372192383, -0.06441746652126312, -0.22076265513896942, 0.3662530183792114, 0.38806092739105225, -0.2810784876346588, -0.1958860158920288, -0.3214443325996399, -0.24907857179641724, -0.12614278495311737, 0.33558881282806396, 0.15866433084011078, -0.211196631193161, 0.32551291584968567, 0.32243549823760986, 0.5480157136917114, -0.31359168887138367, -0.3575948476791382, -0.24181640148162842, 0.3096643090248108], [0.4518693685531616, -0.260632187128067, -0.0319153256714344, 0.12413230538368225, 0.2701895236968994, -0.34044235944747925, -0.5851656794548035, 0.09838365018367767, 0.11243941634893417, -0.17954613268375397, 0.04972093552350998, 0.05029881000518799, -0.21732965111732483, 0.37319767475128174, 0.4211452603340149, 0.3135320842266083, -0.38847312331199646, 0.06424625962972641, 0.650410532951355, 0.2413368672132492], [-0.13283111155033112, -0.47071635723114014, -0.11453075706958771, 0.28702545166015625, 0.35248714685440063, -0.23955461382865906, 0.28855201601982117, -0.4091990888118744, -0.372118204832077, -0.3982034921646118, -0.10261169821023941, 0.010413466952741146, 0.16810451447963715, 0.25665566325187683, -0.151652991771698, 0.39954861998558044, -0.30001989006996155, 0.3260310888290405, 0.5887847542762756, 0.5234107971191406], [-0.8075587153434753, -0.15721261501312256, -0.5418604612350464, -0.5690062046051025, -0.04645714536309242, -0.16427288949489594, 0.0884183868765831, 0.5134739279747009, -0.24586109817028046, 0.1371644139289856, 0.6046652793884277, -0.3593505024909973, 0.13489098846912384, -0.1279827207326889, -0.2951935827732086, 0.8685987591743469, -0.7233510613441467, -0.3609730899333954, -0.01855093613266945, 0.22852236032485962], [-0.43133729696273804, -0.2573666274547577, -0.3257293403148651, 0.6427385807037354, 0.363387793302536, -0.24075482785701752, -0.3215469717979431, -0.31705808639526367, -0.3276934325695038, -0.2139834463596344, 0.36116716265678406, 0.2084481120109558, -0.35886329412460327, 0.21866236627101898, 0.23109032213687897, 0.5931718945503235, -0.4793936610221863, -0.118301622569561, 0.16339968144893646, 0.40535494685173035], [0.7200247645378113, -0.39894577860832214, 0.005635085050016642, 1.80819571018219, 0.46284589171409607, -0.14533093571662903, -0.324613481760025, -0.7452520728111267, -0.29472285509109497, -0.4801379144191742, 0.13344648480415344, -0.004015020094811916, -0.20753012597560883, 0.33582741022109985, 0.32227227091789246, -0.10736360400915146, -0.2870860695838928, -0.184860959649086, -0.28368839621543884, 0.3899345099925995], [-0.010706412605941296, -0.25600725412368774, -0.15423044562339783, 0.6327224373817444, 0.6248593926429749, -0.17678628861904144, -1.065991997718811, 0.2586038112640381, -0.5438240766525269, -0.8482009172439575, 0.6918531656265259, 0.1967838555574417, -0.22355832159519196, 0.5040261149406433, -0.767377495765686, 0.1995367407798767, -0.46525904536247253, -0.5306984186172485, -0.08540461212396622, 0.42953866720199585], [-1.3584861755371094, -0.05528995022177696, -0.464145302772522, 0.8362133502960205, 0.7670938968658447, -0.10833928734064102, -0.590682864189148, 0.38970157504081726, -0.06448651850223541, -0.09953190386295319, 0.36258310079574585, 0.28117698431015015, -0.2666918635368347, 0.24443791806697845, -0.011096491478383541, 0.5330791473388672, -0.17130327224731445, -0.24384130537509918, 0.083751380443573, 0.1219789907336235], [0.729729950428009, -0.4119817614555359, 0.21245455741882324, 2.1146903038024902, 0.5753142833709717, -0.4789654314517975, -0.422151118516922, -0.7410531044006348, -0.659419059753418, -0.7198350429534912, -0.054077569395303726, 0.24445489048957825, -0.5165446996688843, 0.550874650478363, 0.5054750442504883, 0.5708315372467041, -0.08246789872646332, 0.17248332500457764, -0.40253084897994995, 0.7443408370018005], [-0.058134205639362335, -0.6659719944000244, 0.2924014627933502, 0.2379102259874344, 0.5464577674865723, -0.49957749247550964, -0.49324628710746765, 0.21360327303409576, -0.3788762092590332, -0.20769615471363068, -0.09069284796714783, 0.08628420531749725, 0.0708676353096962, 0.6451945900917053, 0.33938661217689514, -0.3599735498428345, -0.4680061638355255, -0.1697992980480194, 0.4786529242992401, 0.5773230791091919], [0.3136533498764038, -0.22720283269882202, -0.005332274828106165, 0.056890204548835754, 0.41493555903434753, -0.5798209309577942, -0.9926360249519348, -0.5352752804756165, -0.3328833281993866, -0.2276446372270584, 0.5219842195510864, 0.291781485080719, -0.3917940557003021, 0.3720439672470093, -0.0011587832123041153, 0.4734601080417633, -0.45133668184280396, -0.11920797824859619, 0.19719298183918, 0.3773687779903412], [0.6216864585876465, -0.13168559968471527, -0.1522027552127838, 0.43159031867980957, 0.20737873017787933, -0.4092051386833191, -0.5260108709335327, -0.5542039275169373, -0.32661664485931396, -0.4794313609600067, 0.06463415175676346, 0.19678960740566254, -0.24740314483642578, 0.26417770981788635, -0.13975507020950317, 0.0958314910531044, -0.36960911750793457, -0.21006609499454498, 0.3119097352027893, 0.16887207329273224], [1.4177690744400024, -1.8891932964324951, 1.63765549659729, 0.01862834021449089, 0.8403303623199463, -1.2849767208099365, -0.19256310164928436, -1.3513250350952148, -1.5486093759536743, -1.598842978477478, -0.854744553565979, -1.4982165098190308, -0.19904203712940216, 0.9166648983955383, 0.8688839673995972, -0.6787615418434143, 1.1630234718322754, 1.1771597862243652, -1.5071412324905396, 1.7179737091064453], [1.9141619205474854, -0.6413260102272034, -0.03328369930386543, 0.15004633367061615, 0.3863692581653595, -0.25601908564567566, -0.13402190804481506, -1.1766860485076904, -0.26169681549072266, -0.1622086465358734, 0.15758226811885834, -0.14362409710884094, -0.09459242969751358, 0.7678102254867554, 0.15747766196727753, 0.22298403084278107, -0.17523787915706635, -0.08411186188459396, 0.12879572808742523, 0.396136999130249], [0.8836902976036072, -0.23641423881053925, -0.05340127274394035, 0.012494686059653759, 0.23512211441993713, -0.19948621094226837, -0.33223438262939453, -0.4126858711242676, -0.24237895011901855, -0.1863737553358078, 0.3212086260318756, -0.10934945195913315, -0.231284961104393, 0.14325810968875885, 0.4693460464477539, 0.11224730312824249, -0.35932502150535583, 0.029380055144429207, -0.009833459742367268, 0.18696723878383636], [-0.6703811287879944, -0.5623071193695068, -0.031896427273750305, -0.23913949728012085, 0.21800625324249268, -0.4819048047065735, 0.09583200514316559, 0.04323253035545349, -0.4288448989391327, -0.07784176617860794, 1.165159821510315, 0.5168865323066711, -0.18091894686222076, 0.13773007690906525, 0.09033243358135223, 1.616309404373169, -0.3496663272380829, -0.6510854363441467, 0.2390616238117218, 0.4558289647102356], [2.0223872661590576, -0.8301048278808594, 1.4596660137176514, 2.2233240604400635, 1.908797264099121, -0.4185969829559326, -0.18577571213245392, -2.2400803565979004, 0.004824791569262743, -1.25971519947052, -1.468577265739441, 1.616442084312439, -0.0307883620262146, 1.0716090202331543, 1.2036316394805908, -0.9463444352149963, 0.901260495185852, 0.8749560117721558, -1.4821174144744873, 0.7047260403633118], [0.47757014632225037, -0.17100442945957184, -0.44162943959236145, 0.2084735482931137, -0.148589625954628, -0.2061685025691986, -0.5048248171806335, 0.030217081308364868, -0.2648431658744812, -0.055717747658491135, 0.3852407932281494, 0.032104622572660446, -0.18724891543388367, 0.27222952246665955, 0.18046928942203522, 0.38335418701171875, -0.3069760501384735, -0.24518996477127075, 0.534256100654602, 0.2681316137313843], [-0.4450684189796448, 0.15940280258655548, 0.4552595615386963, 0.07866711914539337, 1.1144334077835083, -0.23474979400634766, -1.640667200088501, -0.4445851147174835, 0.3285108506679535, -0.9413899183273315, -1.248175024986267, 0.5702887177467346, 0.1979389637708664, -0.6461951732635498, 0.6297452449798584, -0.68878173828125, 0.8344838619232178, 2.4281396865844727, 0.7390184998512268, 0.3946177661418915], [-0.9166492819786072, 0.710281252861023, -0.1605404168367386, 0.1262149214744568, -0.13654552400112152, 0.6699234247207642, -0.12610545754432678, -0.16106680035591125, 0.8748590350151062, -0.6654496192932129, -0.02061229757964611, -0.09734351933002472, 1.8653037548065186, -0.6494747400283813, -1.0012305974960327, -0.35397982597351074, -0.7806833386421204, 0.30680426955223083, -0.13777676224708557, -0.09327658265829086], [1.0826513767242432, -0.15982931852340698, -0.026789214462041855, 0.3872744143009186, 0.22316749393939972, -0.28641578555107117, -0.48830491304397583, -0.6709514260292053, -0.4844524562358856, -0.20322328805923462, 0.4943917393684387, -0.04418497532606125, -0.011232697404921055, 0.5074894428253174, 0.1826121211051941, 0.5714386701583862, -0.4242616891860962, -0.4050152599811554, -0.17776833474636078, 0.11774689704179764], [0.4305146634578705, -0.40420210361480713, -0.0023834104649722576, -0.6831539869308472, 0.02690623141825199, -0.2621801793575287, -0.5148259401321411, -0.8076834082603455, -0.17932181060314178, -0.3548557460308075, 0.04451857507228851, -0.2510720491409302, -0.38550496101379395, 0.40842777490615845, 0.4440898001194, -0.006160306744277477, -0.25236910581588745, -0.153777614235878, 0.1403268575668335, 0.08039721846580505], [-0.18933063745498657, -0.33110401034355164, -0.42934784293174744, -1.3014498949050903, 0.2365480214357376, -0.18241086602210999, 0.41315263509750366, -0.7186734676361084, -0.06384804099798203, -0.2601316571235657, 0.1342965066432953, 0.2345356047153473, -0.2607892155647278, 0.04201769456267357, -0.05409920588135719, 0.43309155106544495, -0.20112448930740356, -0.11003506928682327, 0.5078492164611816, 0.15314598381519318], [-0.924942135810852, 0.010611282661557198, -0.4475805163383484, -0.02856723591685295, 0.654017448425293, -0.3767399191856384, -0.12223540246486664, 0.663550853729248, -0.5030422806739807, -0.22234046459197998, 0.3465507924556732, 0.6055607199668884, -0.3589648902416229, 0.24561214447021484, 0.22608336806297302, 0.8812475800514221, -0.33940377831459045, 0.09664670377969742, -0.14829248189926147, 0.1809261292219162], [0.11431051790714264, -0.26224473118782043, -0.19013012945652008, 0.5816196799278259, 0.6199603080749512, -0.3143121898174286, -0.20763233304023743, 0.2937968969345093, -0.1827576458454132, -0.23355765640735626, 0.3051004409790039, -0.03709060698747635, -0.20027679204940796, 0.2463356852531433, 0.41025933623313904, 0.4809841215610504, -0.3938635289669037, -0.34332096576690674, 0.12648524343967438, 0.2134210169315338], [0.9637554287910461, -0.5048850178718567, -0.2216031402349472, 1.6199594736099243, 0.5890384912490845, -0.57232666015625, -0.3208114802837372, -0.9411636590957642, -0.5686783194541931, -0.5622901320457458, 0.163888618350029, 0.3130092918872833, -0.3858219385147095, 0.7101621031761169, 0.21749122440814972, -0.07777386158704758, -0.35414859652519226, -0.2847529351711273, -0.2891570031642914, 0.41956570744514465], [1.589695692062378, -0.3970906734466553, 0.36931681632995605, -0.47763946652412415, -1.0655510425567627, -0.5278964042663574, 0.44409751892089844, 0.4443986117839813, -0.6329609155654907, -0.058653224259614944, -0.11304617673158646, 0.21538184583187103, -0.4169887602329254, 0.5959900617599487, -2.0225138664245605, 0.10145790129899979, -0.005517789162695408, 0.28642094135284424, 0.2856374680995941, -0.06519964337348938], [-0.8612632155418396, -0.5696840286254883, -0.14977960288524628, 0.39134085178375244, 2.077253580093384, -0.2713366448879242, -0.9276428818702698, -0.7637569308280945, -0.47457993030548096, -0.28794991970062256, 0.20716963708400726, 0.10804196447134018, -0.18991531431674957, 1.0100429058074951, 0.12779030203819275, -0.8396342992782593, -0.2636633813381195, -0.5552088618278503, 0.3325771689414978, 0.32029053568840027], [0.82889324426651, -0.5516026020050049, -0.32327884435653687, 2.1388509273529053, 0.4282698631286621, -0.24133411049842834, -0.47637835144996643, 0.4372172951698303, -0.37279629707336426, -0.42950814962387085, 0.2446497678756714, 0.13908781111240387, 0.09584694355726242, 0.5871312022209167, 0.2707144320011139, 0.5948048233985901, -0.7407536506652832, -0.25324487686157227, -0.1206825003027916, 0.25210559368133545], [0.09908416122198105, -0.43784236907958984, 0.006061357446014881, -1.077070713043213, 0.47294881939888, -0.1216207891702652, -0.5446962118148804, 0.22830060124397278, -0.31394508481025696, -0.45412126183509827, 0.17258484661579132, 0.07578320056200027, -0.1888410449028015, 0.4753738343715668, 0.3771119713783264, -0.24783000349998474, -0.5079590082168579, -0.33422738313674927, 0.24615192413330078, 0.13628000020980835], [0.4662856161594391, -0.4244084060192108, -0.3817901015281677, -0.11122144758701324, 0.8854646682739258, -0.8625932931900024, -1.3545364141464233, -0.8433545231819153, -0.3840569853782654, -0.7948656678199768, 0.4146195352077484, 0.43557894229888916, -0.28822198510169983, 0.3416764438152313, 0.09558321535587311, 0.1099599078297615, -0.5148339867591858, -0.11617293953895569, 0.6209692358970642, 0.6878935694694519], [1.2835814952850342, -0.14916324615478516, 0.032224807888269424, 0.3926364779472351, 0.39386409521102905, -0.4111274480819702, -0.2305435687303543, -0.44667407870292664, -0.2384732961654663, -0.11137616634368896, 0.2912171483039856, 0.21167589724063873, -0.09741350263357162, 0.11260348558425903, -0.13116015493869781, 0.03947214409708977, -0.14414921402931213, -0.07574968785047531, 0.09296143800020218, 0.47484979033470154], [-0.4895741045475006, -0.31687718629837036, -0.46047231554985046, -0.6395708918571472, 0.1053159162402153, -0.40483593940734863, 0.3098059892654419, -0.11115790903568268, -0.36283501982688904, -0.8625329732894897, 0.7263932228088379, -0.03675249591469765, 0.11443806439638138, 1.1841272115707397, 0.10476147383451462, -0.27930161356925964, -0.6098491549491882, -0.6300120949745178, -0.15994568169116974, 0.2415643334388733], [-0.5682327747344971, -0.07226661592721939, -0.42184939980506897, 0.4875066876411438, 0.3017294704914093, -0.20075450837612152, -0.3556145429611206, 0.33524858951568604, -0.20347197353839874, 0.019778210669755936, 0.1762319952249527, -0.0011321991914883256, -0.2449215054512024, 0.04540842026472092, 0.22198183834552765, 0.44499289989471436, -0.069200798869133, -0.20822252333164215, -0.026095949113368988, 0.023198168724775314], [0.9145550727844238, -0.42411530017852783, -0.22386594116687775, 0.05102972686290741, 0.1258290410041809, -0.4276251494884491, -0.18714161217212677, -0.5919381380081177, -0.10007206350564957, -0.343016654253006, 0.05558028072118759, -0.09845283627510071, -0.230025514960289, 0.34358274936676025, 0.2585621476173401, 0.14869169890880585, -0.024615934118628502, -0.4073854982852936, -0.011882727034389973, 0.07055767625570297], [-0.2985410988330841, -0.15724560618400574, -0.6473941206932068, -0.4857803285121918, 0.1967790722846985, -0.286131352186203, 0.37020620703697205, 0.1452728807926178, -0.5635070204734802, -0.036047980189323425, 0.42808908224105835, 0.25243979692459106, -0.7823169827461243, -0.08124460279941559, 0.20013299584388733, -0.06726521253585815, -0.42111852765083313, -0.8229069709777832, 0.049241796135902405, 0.2754780948162079], [-0.1033404991030693, -0.37435469031333923, -0.2716696262359619, -0.03865000978112221, 0.11715688556432724, -0.3281211256980896, 0.1420847624540329, 0.8974669575691223, -0.6096619963645935, -0.9437823295593262, 0.7959526777267456, 0.48307934403419495, -0.1471714973449707, 0.7544106841087341, 0.41945794224739075, 0.8666942715644836, -0.36989977955818176, -0.3493744432926178, 0.12489686906337738, 0.36645346879959106], [-0.18923109769821167, -0.21575449407100677, -0.056962694972753525, 0.5410005450248718, 0.8308291435241699, -0.03269261121749878, -0.17334651947021484, -0.18748119473457336, -0.061605844646692276, -0.453138530254364, 0.2267233282327652, -0.04648766666650772, -0.2869991660118103, 0.3398737609386444, 0.0018456617835909128, 0.712516188621521, -0.013636835850775242, -0.14303763210773468, -0.1326770782470703, 0.004306183662265539], [0.5165259838104248, 0.1975267231464386, 0.3212331533432007, 0.07199634611606598, 0.18438826501369476, 0.383171409368515, -0.162873312830925, -0.62181156873703, 0.2750442922115326, 0.37369993329048157, -0.6029015779495239, -0.3515804708003998, 0.330233633518219, -0.6111109852790833, -0.35582923889160156, -0.19729934632778168, 0.45852136611938477, 0.3803313374519348, -0.49404633045196533, -0.2502252757549286], [0.27714672684669495, 0.6490364670753479, 1.190226435661316, 0.3829328715801239, 0.8622943162918091, 0.1756138950586319, -0.5237588286399841, -0.6777036190032959, 0.6577885150909424, 0.928885281085968, -1.0232915878295898, -0.49537956714630127, 0.06347867101430893, -0.8555980324745178, 0.3995245099067688, 0.5010116696357727, 0.804469645023346, 1.23753023147583, -0.46580085158348083, -0.46376335620880127], [-0.5271320939064026, 0.05519203469157219, -0.319211483001709, 0.5284135937690735, 0.6017621159553528, -0.03583728149533272, -0.29937031865119934, -0.2291252166032791, -0.35185739398002625, -0.15822020173072815, 0.379054456949234, -0.26327645778656006, -0.12563654780387878, 0.20130479335784912, 0.20333744585514069, 0.29413989186286926, -0.3000284731388092, -0.13457521796226501, 0.18508979678153992, 0.31661853194236755], [-0.22428281605243683, -0.12682892382144928, -0.13591983914375305, 0.637374997138977, 0.1769275814294815, -0.28924310207366943, -0.1536378413438797, -0.14778518676757812, -0.08321138471364975, -0.36093616485595703, 0.12351351231336594, 0.0034207471180707216, -0.28701749444007874, 0.12878823280334473, 0.35526278614997864, 0.14406006038188934, -0.05161707475781441, 0.1431562304496765, -0.014882370829582214, 0.07142859697341919], [-0.35353636741638184, 0.2279760241508484, 0.23005841672420502, -0.157901331782341, 0.0603381022810936, 0.015653589740395546, 0.06547023355960846, 0.4913395345211029, 0.09702441096305847, -0.18189765512943268, -0.6694234609603882, 0.05178230628371239, 0.521037220954895, -0.3350248634815216, 0.30185580253601074, -0.14539450407028198, 0.07833278924226761, 0.37584006786346436, -0.23539233207702637, -0.013302816078066826], [-0.449506551027298, 0.5732868313789368, 0.14191345870494843, -0.12862040102481842, -0.7064609527587891, 0.5126868486404419, 0.06392648816108704, 0.36904677748680115, 0.4159933030605316, 0.42634639143943787, -0.38867801427841187, -0.6881220936775208, 0.4765985310077667, -0.3898064196109772, -0.33186036348342896, -0.20304915308952332, 0.37135276198387146, 0.3118722140789032, -0.668610692024231, -0.4549487829208374], [-0.31709444522857666, -0.3450646698474884, 0.026766911149024963, 0.3822001814842224, 0.06267666071653366, -0.13336314260959625, -0.2653661370277405, -0.38634657859802246, -0.11434714496135712, -0.43147048354148865, 0.1536892056465149, -0.2767980098724365, -0.3827779293060303, 0.44443437457084656, 0.17429251968860626, 0.10832907259464264, 0.0007937484770081937, -0.23084114491939545, 0.0946168377995491, 0.07721623033285141], [0.19239872694015503, 0.05750374123454094, 0.249808669090271, -0.12389964610338211, -0.08365417271852493, -0.08242803812026978, 0.1320158988237381, -0.22857360541820526, -0.049892131239175797, 0.2684367299079895, -0.19569315016269684, 0.3198396563529968, 0.355512797832489, -0.23617909848690033, -0.3821791112422943, -0.3285450041294098, 0.05055408924818039, 0.002418774412944913, -0.19597919285297394, -0.007162477821111679], [0.7880641222000122, -0.04169774055480957, 0.16143284738063812, -0.4213882386684418, 0.10724099725484848, -0.12397178262472153, -0.12479327619075775, -0.1673525869846344, -0.1544133722782135, -0.03291381150484085, -0.06872725486755371, -0.05544860288500786, 0.173294335603714, 0.020102469250559807, 0.4457571804523468, -0.30553799867630005, 0.2454821765422821, -0.013129486702382565, -0.10934504121541977, -0.06794571131467819], [-0.09693484008312225, 0.052585482597351074, 0.2124651074409485, -0.23461978137493134, -0.5085850954055786, -0.1300196349620819, 0.5305572748184204, 0.0356733575463295, 0.05716518312692642, -0.06109624728560448, -0.3431191146373749, 0.3442743420600891, 0.12269047647714615, -0.39435696601867676, 0.15156754851341248, -0.09413059055805206, 0.09300818294286728, 0.13472828269004822, 0.23391419649124146, -0.14679740369319916], [0.8284238576889038, -0.07184422016143799, -0.17047177255153656, -0.33198830485343933, 0.3222983479499817, -0.246257022023201, -0.4477654695510864, -0.08529713749885559, -0.3079201579093933, -0.006225776858627796, 0.4862965941429138, -0.05669800564646721, 0.04927028343081474, 0.47053006291389465, -0.04969913139939308, 0.06808625161647797, -0.4809270203113556, -0.30849531292915344, 0.2604100704193115, 0.2720129191875458], [0.7309798002243042, -0.3084367513656616, -0.5287674069404602, 0.2554977238178253, 0.07180037349462509, -0.37253063917160034, -0.33070090413093567, 0.051054857671260834, -0.28582313656806946, -0.03582533448934555, 0.32918909192085266, -0.06383610516786575, -0.35084718465805054, 0.24605470895767212, -0.07478931546211243, -0.025763407349586487, -0.20506928861141205, -0.7392327785491943, 0.2364741563796997, 0.12526583671569824], [-0.4168182909488678, 0.26363369822502136, 0.19769373536109924, 0.5899378061294556, -0.5339162349700928, 0.2811831533908844, -0.15944580733776093, 0.32662609219551086, 0.321027547121048, 0.32053622603416443, -0.29036077857017517, -0.12638378143310547, 0.47952181100845337, -0.5556984543800354, -0.24974676966667175, -0.17941614985466003, 0.3866371214389801, 0.3553839921951294, -0.2621676027774811, -0.3026902973651886], [0.5743290781974792, -0.15123723447322845, 0.44158244132995605, -0.36100995540618896, -0.5051831007003784, 0.06247706711292267, 0.10898223519325256, 0.06802217662334442, 0.004646704997867346, 0.24113762378692627, -0.1064281091094017, 0.18751634657382965, 0.22427357733249664, -0.15763108432292938, -0.19848093390464783, -0.41470348834991455, 0.251155823469162, 0.3950880169868469, 0.06603842228651047, -0.10847870260477066], [0.5552200675010681, -1.3152731657028198, 1.1182634830474854, 0.3797246813774109, -1.4062941074371338, -1.6687486171722412, -0.002395391697064042, -0.8973657488822937, -1.4508962631225586, -1.190039873123169, -0.42243534326553345, -1.2097742557525635, 0.2474370300769806, 0.1586558222770691, 1.3098455667495728, -0.13444776833057404, 0.2714102268218994, 0.3300034999847412, -0.45475056767463684, 1.11592698097229], [0.673404335975647, -0.14094185829162598, -0.005732045043259859, 0.8980966806411743, -0.07536254078149796, -0.12944747507572174, -0.31376132369041443, -0.5767194628715515, -0.35716044902801514, -0.23239700496196747, 0.012154551222920418, 0.08269906789064407, -0.313881516456604, 0.5134328007698059, 0.21851226687431335, 0.4110261797904968, -0.13426469266414642, -0.019937703385949135, -0.10573694109916687, 0.42536818981170654], [0.6485199332237244, -0.3249111473560333, -0.10097790509462357, 0.07818759232759476, -0.1109113097190857, -0.5215505957603455, -0.13866141438484192, -0.09520511329174042, -0.3146582543849945, -0.3097990155220032, 0.2530854046344757, 0.19795262813568115, -0.34090182185173035, 0.36623820662498474, 0.20339922606945038, 0.20591799914836884, -0.46775609254837036, -0.1433170884847641, 0.6928688883781433, 0.36063089966773987], [-0.5255518555641174, -0.5621892213821411, -0.014829376712441444, -0.31394848227500916, 0.12954969704151154, 0.003084222786128521, 0.1197325810790062, 0.08594686537981033, -0.2418365776538849, 0.5109992027282715, 1.4328603744506836, 0.21180644631385803, 0.17478497326374054, -0.6243942379951477, -0.25539839267730713, 1.5743510723114014, -0.5847814679145813, -0.8551213145256042, 0.020611237734556198, 0.440271258354187], [0.4508727490901947, 0.5581893920898438, 0.363492488861084, 1.3592662811279297, 1.2496734857559204, 1.0510613918304443, -0.6789548397064209, -0.7729533910751343, 0.2568204402923584, 0.22965998947620392, -1.576524019241333, 0.5474561452865601, 0.5606396794319153, -0.2102499008178711, -1.5900604724884033, -1.9474818706512451, 1.1406875848770142, 1.469408631324768, -1.4174553155899048, -0.6987034678459167], [0.6743003129959106, -0.09813721477985382, -0.3494981527328491, 0.47940927743911743, 0.09581335633993149, -0.005003195721656084, -0.08137229830026627, 0.15024422109127045, -0.004637199454009533, -0.1811404824256897, 0.3289019465446472, 0.27625447511672974, -0.08152970671653748, 0.4793279767036438, -0.05788341164588928, 0.3817492425441742, -0.23060673475265503, -0.10074097663164139, 0.6398113369941711, 0.44976240396499634], [-0.44169846177101135, 0.6133632063865662, 0.705740749835968, -0.14274266362190247, 0.14188091456890106, 0.4274349808692932, -0.9579657316207886, -0.6957771182060242, 1.153209924697876, 0.2916892170906067, -3.0944182872772217, 0.3844073414802551, -0.22405436635017395, -1.2362828254699707, -0.5554929375648499, -0.10168605297803879, 1.216159462928772, 1.6299610137939453, 0.3617461621761322, -0.2361603081226349], [-0.507943868637085, -0.673938512802124, 0.5799228549003601, -0.19358086585998535, -0.6705475449562073, -0.8762840628623962, 0.38962674140930176, -0.09460079669952393, -0.3456803262233734, -0.4862634837627411, -0.5181112885475159, -0.19230476021766663, 0.9014668464660645, 0.2202775627374649, -0.5785961151123047, -1.3484461307525635, -0.19366221129894257, 0.6600088477134705, 0.11122399568557739, 0.30159372091293335], [0.7990503311157227, -0.19893144071102142, -0.22057680785655975, 0.4596075117588043, 0.20409269630908966, -0.30595850944519043, -0.3425074815750122, -0.445942223072052, -0.4165317118167877, -0.28928160667419434, 0.07775702327489853, -0.006157785654067993, -0.37397143244743347, 0.2974819839000702, 0.41176438331604004, 0.5312061905860901, 0.08610055595636368, 0.08296697586774826, -0.208902508020401, 0.07828877866268158], [0.42019352316856384, -0.4053191840648651, -0.20064282417297363, -0.014581062830984592, 0.5439295768737793, -0.24620714783668518, -0.48175111413002014, -0.18079841136932373, -0.09796062111854553, -0.2578411102294922, 0.049610037356615067, -0.1837569922208786, -0.2371128350496292, 0.37218713760375977, 0.23261843621730804, -0.17131589353084564, -0.04775412753224373, -0.0344930998980999, 0.20016703009605408, 0.26901447772979736], [0.32832959294319153, -0.12494350969791412, -0.08174747973680496, -1.2396886348724365, 0.2204412966966629, -0.13481202721595764, 0.026783952489495277, -0.5658242702484131, -0.00030867490568198264, -0.11289508640766144, 0.5039023160934448, 0.06612593680620193, -0.3156421184539795, 0.3329703211784363, -0.08391211926937103, 0.25603604316711426, -0.5316587686538696, -0.16093072295188904, 0.3648451864719391, 0.1934240609407425], [-0.6501453518867493, -0.4466252326965332, -0.3650785982608795, 0.22876890003681183, 0.6927299499511719, -0.48595038056373596, -0.24676929414272308, 0.3086841404438019, -0.14130263030529022, -0.5639294385910034, 0.26926612854003906, 0.9150930047035217, -0.46012020111083984, 0.5670550465583801, 0.6255934238433838, 0.9737139344215393, -0.18252260982990265, 0.1941252499818802, 0.33139222860336304, 0.4392417371273041], [-0.3039551079273224, 0.004480734001845121, -0.44161731004714966, 0.49724510312080383, 0.32773128151893616, -0.09057653695344925, -0.39563655853271484, 0.21832668781280518, -0.08091859519481659, -0.10535657405853271, 0.2342374473810196, 0.22136902809143066, -0.20509043335914612, 0.10506762564182281, 0.4105468988418579, 0.38655632734298706, -0.31522759795188904, -0.21894602477550507, 0.40068915486335754, 0.0026186415925621986], [0.3477015197277069, -0.26981693506240845, -0.163853719830513, 1.7437747716903687, 0.9939467310905457, 0.12392275035381317, -0.4321787655353546, -0.6816692352294922, -0.2099049985408783, -0.03262777253985405, -0.33166569471359253, 0.0732293426990509, -0.00366400508210063, 0.15755397081375122, 0.7746464610099792, 0.8034871220588684, -0.035558514297008514, 0.09943591803312302, -0.06183575093746185, 0.4025960862636566], [-0.2779204249382019, 0.051743630319833755, -0.11818485707044601, 0.09803084284067154, -0.17795370519161224, -0.24401156604290009, -0.5467531085014343, 1.2047879695892334, -0.43022170662879944, -0.43037405610084534, 0.2178659737110138, 0.16026316583156586, 0.03231218084692955, 0.3340522050857544, -0.47422870993614197, 0.4050486385822296, -0.2839791774749756, -0.007402189541608095, -0.25726234912872314, -0.18085485696792603], [-0.8175846934318542, -0.46056878566741943, -0.272597998380661, 0.8791487216949463, 1.3551194667816162, -0.3257911801338196, -0.590392529964447, -0.6284121870994568, -0.4908475875854492, -0.5415860414505005, 0.46899741888046265, 0.20081454515457153, -0.42790889739990234, 0.8757886290550232, 0.19941258430480957, -0.784754753112793, -0.4860597550868988, -0.2636055052280426, 0.28349193930625916, 0.4817902147769928], [0.2490682303905487, -0.20001572370529175, -0.2790217399597168, 0.6447781920433044, 0.2434699982404709, -0.4887610971927643, -0.10668156296014786, 0.6401659846305847, -0.08167089521884918, -0.5076003670692444, 0.5401805639266968, 0.2328813374042511, -0.12923479080200195, 0.3582834303379059, 0.05416813865303993, 0.3377251923084259, -1.0416419506072998, -0.6205839514732361, 0.6020213961601257, 0.0753403902053833], [0.2091970592737198, -0.2574355900287628, 0.10590426623821259, -0.543462336063385, 0.24349302053451538, -0.11554614454507828, -0.019518887624144554, 0.7992095947265625, -0.35290610790252686, -0.2970266342163086, 0.3571335971355438, 0.18048319220542908, -0.006618517450988293, 0.5725358128547668, 0.22387193143367767, -0.4236868619918823, -0.4644530415534973, -0.11588230729103088, 0.6449564695358276, 0.49758806824684143], [0.2841874957084656, -0.37525665760040283, -0.35847026109695435, 0.03630589321255684, 0.6973843574523926, -0.8619174957275391, -1.2344802618026733, -0.5053755640983582, -0.5349490642547607, -1.2089698314666748, 0.6854822039604187, 0.16321474313735962, -0.2135361284017563, 0.2029762864112854, -0.21784301102161407, 0.8489204049110413, -0.684931755065918, -0.3712041974067688, 0.12755192816257477, 0.31628066301345825], [0.44424521923065186, -0.19196340441703796, -0.27032792568206787, 0.6512799859046936, 0.22961029410362244, -0.1489187479019165, -0.6024697422981262, -0.5416526198387146, -0.33514031767845154, -0.13496388494968414, 0.07738794386386871, -0.008472399786114693, -0.3104708194732666, 0.16477185487747192, 0.022713370621204376, 0.05848998948931694, -0.4194357395172119, -0.08682762086391449, 0.22555850446224213, 0.05305842310190201]], "rec.bias_ih_l0": [-0.7644604444503784, -0.2370932549238205, -0.2799224853515625, -1.0334463119506836, -0.7645876407623291, -0.045097801834344864, -0.7198851108551025, -0.062438420951366425, -0.37930458784103394, -0.2485150247812271, -0.7341676354408264, -1.3458861112594604, -0.5989437103271484, -0.5835475325584412, -0.9303749799728394, -0.8222546577453613, -0.8486470580101013, -0.7653104066848755, -0.9161880016326904, -0.08985550701618195, -0.12455761432647705, 0.08058419078588486, 0.07531453669071198, -0.8062742948532104, 0.368610143661499, -0.24249321222305298, -0.7756834030151367, -0.413540244102478, -0.40659064054489136, -0.37034687399864197, -0.7037484645843506, -0.7630814909934998, -0.3753620386123657, -0.03580308333039284, 0.4744201898574829, -0.5902571678161621, -0.7341242432594299, -0.714776337146759, -0.759472668170929, -0.18018266558647156, -0.02600804902613163, -0.08985216915607452, 0.05851609259843826, -0.043526217341423035, -0.432561993598938, -0.09980673342943192, 0.26531627774238586, -0.12376721948385239, -0.050272468477487564, 0.18757271766662598, -0.44740912318229675, -0.015711797401309013, -0.29415765404701233, 0.11723164469003677, -0.17069034278392792, -0.15513451397418976, 0.11020436137914658, -0.037370167672634125, 0.24676357209682465, 0.17973779141902924, -0.4099511504173279, -0.20122557878494263, 0.06841934472322464, -1.1278494596481323, -0.09387362748384476, -0.3141304850578308, -0.1913680136203766, 0.29829978942871094, -0.12903191149234772, -0.26734456419944763, -0.4441694915294647, -0.7353512048721313, -0.43838241696357727, -0.3518896996974945, -0.2771647274494171, -0.5944089293479919, -0.49031031131744385, -0.6335416436195374, -0.8162819147109985, -0.08016852289438248], "rec.bias_hh_l0": [-0.9128667116165161, -0.06684495508670807, -0.08797099441289902, -0.9340564012527466, -0.3951825201511383, -0.13295769691467285, -0.754748523235321, 0.23989766836166382, -0.10719958692789078, -0.25122305750846863, -0.8207919001579285, -1.4252148866653442, -0.5250623226165771, -0.3013686239719391, -0.909589409828186, -0.8834792375564575, -1.0215483903884888, -0.6203007102012634, -0.762322187423706, -0.049523089081048965, 0.11237222701311111, 0.16920194029808044, -0.018887599930167198, -0.8806589841842651, -0.049953531473875046, -0.23292399942874908, -0.7117846012115479, -0.5513986945152283, -0.1434415578842163, 0.041395798325538635, -0.7932782173156738, -0.8710978627204895, -0.24988985061645508, -0.23822292685508728, 0.25203123688697815, -0.4562438428401947, -0.388030081987381, -0.7945663332939148, -0.6198928952217102, -0.11077965050935745, 0.22425830364227295, -0.2250041961669922, 0.03311310335993767, -0.19242703914642334, -0.4444144070148468, -0.11654358357191086, 0.5174630284309387, -0.16061118245124817, -0.08844256401062012, -0.13964223861694336, -0.205455482006073, -0.06376209110021591, -0.021039603278040886, 0.022017784416675568, -0.014538928866386414, -0.11445317417383194, 0.3087261915206909, 0.3260985016822815, -0.02464469149708748, 0.05015946179628372, -0.42263686656951904, -0.2743496298789978, -0.21751591563224792, -1.1267633438110352, -0.233238086104393, -0.30391281843185425, -0.2601008713245392, 0.2519543766975403, -0.1836112141609192, -0.09500875324010849, -0.2065361887216568, -0.9800448417663574, -0.6097210645675659, -0.24879220128059387, -0.22030973434448242, -0.6972015500068665, -0.5728355050086975, -0.7388357520103455, -0.496415913105011, -0.44444990158081055], "lin.weight": [[-0.0446738675236702, 0.015580221079289913, -0.0035451403819024563, 0.12828560173511505, 0.3335169851779938, -0.10784920305013657, -0.5123543739318848, -0.40649938583374023, 0.037486087530851364, -0.10092717409133911, 0.09184529632329941, -0.018998991698026657, -0.043499503284692764, -0.07811475545167923, 0.4874352812767029, -0.3340533673763275, 0.09311648458242416, 0.12606503069400787, 0.13692456483840942, 0.046429283916950226]], "lin.bias": [-0.06083580106496811]}}