{"model_data": {"model": "SimpleRNN", "input_size": 1, "skip": 1, "output_size": 1, "unit_type": "LSTM", "num_layers": 1, "hidden_size": 20, "bias_fl": true}, "state_dict": {"rec.weight_ih_l0": [[0.14652009308338165], [-0.3994653522968292], [0.6476734280586243], [-0.2659357190132141], [0.5195374488830566], [-0.52399742603302], [0.6880825757980347], [-1.0343679189682007], [-0.5114177465438843], [-0.22614802420139313], [0.8258251547813416], [0.019548917189240456], [-0.17882804572582245], [-0.8158199191093445], [-1.6457812786102295], [-0.06813979893922806], [-0.7762358784675598], [1.239526391029358], [-0.5920455455780029], [0.12531374394893646], [-0.8290120959281921], [-1.1888766288757324], [0.5697991251945496], [-0.1195773109793663], [-1.8010411262512207], [0.7841626405715942], [-1.6035475730895996], [0.3826828896999359], [-0.5751955509185791], [-0.3035898506641388], [3.3162951469421387], [-0.716673731803894], [2.0833559036254883], [-1.4475483894348145], [4.0570149421691895], [-1.2017123699188232], [2.8110203742980957], [1.7170519828796387], [-1.416434645652771], [-0.34734857082366943], [-0.16936738789081573], [1.0015225410461426], [0.36495354771614075], [0.17628265917301178], [-0.47462692856788635], [0.7534517049789429], [0.2243359237909317], [-0.04532700031995773], [0.9635043144226074], [1.1938707828521729], [-0.5368080735206604], [-0.6718202233314514], [0.4742628335952759], [-1.0319269895553589], [-0.8645343780517578], [-0.20163865387439728], [0.6113846898078918], [0.5322880148887634], [-0.19066362082958221], [-1.0737398862838745], [0.8305137753486633], [-0.8973398208618164], [0.7765385508537292], [-0.4876462519168854], [-1.0917857885360718], [-0.5757037997245789], [-0.4677576422691345], [0.22413025796413422], [-0.5306589603424072], [0.042794011533260345], [1.7789630889892578], [-1.1038843393325806], [0.6408171057701111], [-1.2164363861083984], [2.5997633934020996], [-1.0991572141647339], [1.51220703125], [1.072745442390442], [-1.4999030828475952], [0.14757798612117767]], "rec.weight_hh_l0": [[-0.5678175091743469, -0.6455598473548889, -0.08035191148519516, 0.6031147837638855, 0.7883314490318298, -0.34208178520202637, -0.5765698552131653, -0.8307263851165771, -0.4432540833950043, -1.294407606124878, 0.2181834727525711, -0.8062006831169128, 0.4587737023830414, 0.721337080001831, -0.42034199833869934, -0.30043908953666687, -0.1631946861743927, -0.4468793272972107, -2.554610013961792, 0.48961395025253296], [0.7636422514915466, -0.16183578968048096, -0.20977646112442017, 0.6419585943222046, 0.15180042386054993, -0.38410499691963196, -0.1085396558046341, -0.568483293056488, -0.11527519673109055, -0.4486308693885803, 0.19959047436714172, 0.14912116527557373, -0.308311402797699, 0.5601775050163269, -0.14279502630233765, 0.09951291233301163, -0.41141924262046814, -0.25419095158576965, -0.02001103386282921, 0.16284941136837006], [1.205284833908081, -0.49229520559310913, 0.008491053245961666, 0.14921705424785614, 0.3749545216560364, -0.3324613571166992, -0.09942431002855301, -0.34574878215789795, -0.4393845200538635, -0.23835480213165283, 0.3358827531337738, -0.1328888088464737, -0.06446389108896255, 0.2518126368522644, 0.24497300386428833, 0.22567568719387054, -0.14297038316726685, 0.07853098213672638, 0.288625031709671, 0.15995249152183533], [-0.5125588178634644, -0.6595390439033508, 0.09474046528339386, 0.1827009618282318, -0.3458351790904999, -0.24642673134803772, 0.4597192406654358, 0.4860895276069641, -0.49811094999313354, 0.1698710322380066, 0.4455750286579132, 0.3835184872150421, 0.000894581840839237, -0.6587901711463928, 0.14808028936386108, 1.5994362831115723, -0.48764103651046753, -0.11297044157981873, 0.22149324417114258, 0.7865126729011536], [-0.5731784701347351, 1.384283423423767, 0.16339252889156342, 1.8156989812850952, 1.204972267150879, 1.2625621557235718, 0.03144872188568115, -0.06642129272222519, 1.9083847999572754, -0.2559138834476471, -0.8089993596076965, 0.19710011780261993, 0.14852137863636017, -1.4233717918395996, -1.747211217880249, -0.285034716129303, 0.4242995083332062, 0.5825299024581909, -1.7632408142089844, -1.0273624658584595], [0.7009051442146301, -0.5043944716453552, 0.06985030323266983, 0.506810188293457, 0.02335950918495655, -0.0967479795217514, -0.43701258301734924, -0.2597430646419525, -0.5421311855316162, -0.10170269757509232, 0.09306986629962921, 0.1323796510696411, -0.41025251150131226, 0.5228028297424316, 0.2056686282157898, 0.4428389370441437, -0.20215217769145966, -0.09164509922266006, 0.14854609966278076, 0.5360766649246216], [-0.7044510245323181, 0.8533828854560852, 0.7862208485603333, 0.6271994709968567, -0.17609430849552155, 1.6745216846466064, 0.29721763730049133, 0.11445264518260956, 1.0573198795318604, 1.1318178176879883, -3.0209569931030273, 0.6488218307495117, 0.44725191593170166, -1.5495327711105347, -0.4377761483192444, 1.047316551208496, 1.3092060089111328, 2.0239076614379883, -0.7314326167106628, -0.752086877822876], [-0.3645690083503723, -0.6480799913406372, 0.6322165727615356, -0.16971975564956665, -0.6747646927833557, -0.8481120467185974, 0.35500526428222656, -0.6097005605697632, -0.8377644419670105, -1.419276475906372, -1.004662275314331, -0.05613391101360321, 0.24599136412143707, 0.7082771062850952, -0.6692683100700378, -0.6309607625007629, 0.16029585897922516, 0.9176996350288391, -0.35242530703544617, 0.49106788635253906], [1.033012866973877, -0.05377781391143799, -0.2281702309846878, 0.36984309554100037, 0.40425682067871094, -0.2492336928844452, -0.16663122177124023, -0.2876499891281128, -0.22991548478603363, -0.14006677269935608, 0.33688223361968994, 0.1578483283519745, -0.21334759891033173, 0.31745645403862, 0.31077706813812256, 0.5808753371238708, -0.32168200612068176, -0.3759864866733551, -0.3264910876750946, 0.3025071918964386], [0.5410305261611938, -0.3416033387184143, 0.05455411225557327, 0.12317356467247009, 0.20180223882198334, -0.4352636933326721, -0.5725536942481995, 0.07342872768640518, 0.02363230288028717, -0.12686192989349365, 0.009658606722950935, 0.04655221477150917, -0.21506603062152863, 0.4552633762359619, 0.504288375377655, 0.3462410569190979, -0.2898130714893341, 0.1772514283657074, 0.7153011560440063, 0.3038620054721832], [-0.03938061371445656, -0.5716756582260132, -0.04980570450425148, 0.2803291976451874, 0.4197540581226349, -0.3981916010379791, 0.3561970293521881, -0.5545248985290527, -0.4913567006587982, -0.4739202857017517, -0.06067550182342529, -0.018469294533133507, 0.16123129427433014, 0.37565162777900696, -0.04508102312684059, 0.35905584692955017, -0.16872720420360565, 0.45107051730155945, 0.6172583103179932, 0.5683554410934448], [-0.9124324917793274, -0.09839305281639099, -0.590946614742279, -0.5683703422546387, -0.049187298864126205, -0.16484005749225616, 0.08812364935874939, 0.4284103512763977, -0.1775013953447342, 0.13067728281021118, 0.6277239322662354, -0.3592722713947296, 0.13541536033153534, -0.1796106994152069, -0.2969053089618683, 0.8893765211105347, -0.7296566963195801, -0.36435994505882263, 0.015754608437418938, 0.19465717673301697], [-0.43148043751716614, -0.2598119378089905, -0.32291853427886963, 0.6428115367889404, 0.3583979904651642, -0.24984784424304962, -0.335797518491745, -0.3318365514278412, -0.3376268148422241, -0.22140200436115265, 0.36609652638435364, 0.20796845853328705, -0.3583177924156189, 0.23493275046348572, 0.2313365936279297, 0.5929995775222778, -0.474631130695343, -0.10699199140071869, 0.1625300943851471, 0.40690481662750244], [0.7007409334182739, -0.37750566005706787, -0.014560657553374767, 1.8147215843200684, 0.5496882200241089, -0.062075212597846985, -0.3554253578186035, -0.6863532066345215, -0.25813835859298706, -0.43687883019447327, 0.08385181427001953, -0.0006391206989064813, -0.21145835518836975, 0.27732813358306885, 0.3303927481174469, -0.128304585814476, -0.3142717778682709, -0.23434819281101227, -0.36912858486175537, 0.3837141990661621], [-0.06755509227514267, -0.2179822474718094, -0.19393016397953033, 0.6403135061264038, 0.6330620646476746, -0.16503435373306274, -1.1342087984085083, 0.2369804084300995, -0.45062679052352905, -0.8622353076934814, 0.7368519306182861, 0.19646985828876495, -0.22099953889846802, 0.4019937813282013, -0.7537043690681458, 0.21404193341732025, -0.4893551766872406, -0.553528368473053, -0.026918653398752213, 0.41459912061691284], [-1.3766456842422485, -0.03935210034251213, -0.46295443177223206, 0.8698822259902954, 0.8248608112335205, -0.07640448212623596, -0.5805076360702515, 0.5091649293899536, -0.01216859370470047, -0.04459355026483536, 0.36692190170288086, 0.27202242612838745, -0.30273979902267456, 0.23503124713897705, -0.026355279609560966, 0.5039176940917969, -0.16475100815296173, -0.23807966709136963, 0.1676802784204483, 0.10942285507917404], [0.6146630644798279, -0.3155578672885895, 0.10035248845815659, 2.12397837638855, 0.6220211386680603, -0.4196193814277649, -0.393714964389801, -0.8340948820114136, -0.5479820966720581, -0.7690436244010925, -0.009256242774426937, 0.24994900822639465, -0.5162209868431091, 0.4520767033100128, 0.4378697872161865, 0.5683040618896484, -0.14823730289936066, 0.06478365510702133, -0.31319379806518555, 0.6586781144142151], [-0.22357702255249023, -0.5035825967788696, 0.1243077740073204, 0.24208304286003113, 0.6695411205291748, -0.36645638942718506, -0.5581151247024536, 0.040294356644153595, -0.2149115651845932, -0.341232031583786, 0.03973853588104248, 0.10110291838645935, 0.06768494099378586, 0.48500877618789673, 0.27176204323768616, -0.3408638536930084, -0.5915963649749756, -0.24585393071174622, 0.6342870593070984, 0.41409438848495483], [0.37360236048698425, -0.2700951397418976, 0.04674201458692551, 0.042378511279821396, 0.44790661334991455, -0.701302170753479, -0.998919665813446, -0.6549887657165527, -0.3708161413669586, -0.27085670828819275, 0.6368182897567749, 0.2743580937385559, -0.43106988072395325, 0.37396371364593506, 0.10971742123365402, 0.4324761629104614, -0.33909136056900024, 0.00404465664178133, 0.236842542886734, 0.4069993197917938], [0.6472674012184143, -0.14001381397247314, -0.13881301879882812, 0.4289252460002899, 0.20155726373195648, -0.41030555963516235, -0.46997496485710144, -0.5364248752593994, -0.32596975564956665, -0.4800146520137787, 0.05911584943532944, 0.19593285024166107, -0.2493254393339157, 0.26724180579185486, -0.14038121700286865, 0.09309208393096924, -0.36101096868515015, -0.19824081659317017, 0.3072764575481415, 0.17199718952178955], [1.4233357906341553, -1.885998249053955, 1.642613410949707, 0.03241853415966034, 0.8283538818359375, -1.306584119796753, -0.18082605302333832, -1.316293716430664, -1.5588672161102295, -1.6456176042556763, -0.7990667223930359, -1.5141488313674927, -0.17948691546916962, 0.9887139797210693, 0.8685864806175232, -0.62873774766922, 1.1946525573730469, 1.209147334098816, -1.57647705078125, 1.7115460634231567], [1.9580233097076416, -0.6477451324462891, -0.01055118627846241, 0.1480763703584671, 0.3729950785636902, -0.25883013010025024, -0.06794393807649612, -1.1575411558151245, -0.2667502164840698, -0.15611931681632996, 0.14909079670906067, -0.1441374570131302, -0.0966649204492569, 0.7661508321762085, 0.1728033572435379, 0.22245541214942932, -0.15946224331855774, -0.06036648526787758, 0.12716062366962433, 0.4008464813232422], [0.8864678144454956, -0.22450853884220123, -0.054296448826789856, 0.013879450969398022, 0.24364802241325378, -0.19397340714931488, -0.32648128271102905, -0.3766302466392517, -0.2304864227771759, -0.18076807260513306, 0.3216223418712616, -0.10840732604265213, -0.23218819499015808, 0.12380094826221466, 0.48540017008781433, 0.1152620017528534, -0.3593868017196655, 0.027748720720410347, 0.004824909847229719, 0.18199777603149414], [-0.6186730265617371, -0.5709242820739746, -0.026841208338737488, -0.239156574010849, 0.21340139210224152, -0.4824919104576111, 0.09495583921670914, 0.10107532143592834, -0.45027366280555725, -0.07762138545513153, 1.1643067598342896, 0.516869068145752, -0.1807882934808731, 0.1537453532218933, 0.09143251925706863, 1.6244399547576904, -0.3461771607398987, -0.6510104537010193, 0.23227453231811523, 0.459896445274353], [2.084135055541992, -0.8830976486206055, 1.489713191986084, 2.139537811279297, 1.997678518295288, -0.30240482091903687, -0.20959322154521942, -2.1790647506713867, -0.034254271537065506, -1.096153974533081, -1.5622153282165527, 1.6166774034500122, -0.09442736953496933, 1.1143217086791992, 1.2667495012283325, -1.0248138904571533, 0.8532106876373291, 0.8004599809646606, -1.5941908359527588, 0.7534701824188232], [0.38748615980148315, -0.08847405016422272, -0.5179010629653931, 0.22745239734649658, -0.11502145230770111, -0.15823572874069214, -0.48170197010040283, 0.1958165019750595, -0.16751952469348907, -0.08531233668327332, 0.4024992883205414, 0.039916813373565674, -0.18064090609550476, 0.17142537236213684, 0.08332136273384094, 0.372175008058548, -0.3780280649662018, -0.3321778476238251, 0.6058704257011414, 0.21232758462429047], [-0.5214501023292542, 0.2149389237165451, 0.40718597173690796, 0.08001730591058731, 1.1612602472305298, -0.19080473482608795, -1.636800765991211, -0.3545745611190796, 0.3440588116645813, -0.9322536587715149, -1.2836698293685913, 0.5709553360939026, 0.20487220585346222, -0.6548466682434082, 0.6757715344429016, -0.6888180375099182, 0.840851902961731, 2.42240047454834, 0.7417065501213074, 0.3741156756877899], [-0.8458428978919983, 0.6362084150314331, -0.06134563311934471, 0.12652258574962616, -0.20294120907783508, 0.6036306619644165, -0.07393461465835571, -0.17777065932750702, 0.7841265201568604, -0.6715955138206482, -0.07736355811357498, -0.10128645598888397, 1.8694976568222046, -0.5522104501724243, -1.0328936576843262, -0.43246302008628845, -0.7077779173851013, 0.44774529337882996, -0.21986930072307587, -0.02138945460319519], [1.0570948123931885, -0.1324578821659088, -0.05586359277367592, 0.397846519947052, 0.2567729949951172, -0.2169276773929596, -0.4919470548629761, -0.5669772624969482, -0.4492649734020233, -0.22172042727470398, 0.523485004901886, -0.0425875298678875, -0.013507106341421604, 0.49252554774284363, 0.14112289249897003, 0.6925619840621948, -0.46456465125083923, -0.458154559135437, -0.21090899407863617, 0.0950125902891159], [0.3926839530467987, -0.3837737739086151, -0.04538337513804436, -0.6859309673309326, -0.01487345527857542, -0.3013092279434204, -0.5319120287895203, -0.9322107434272766, -0.17107152938842773, -0.4192924201488495, 0.09042123705148697, -0.25156068801879883, -0.3821982443332672, 0.3898220956325531, 0.43654972314834595, 0.02488045208156109, -0.26357701420783997, -0.1615431308746338, 0.12659506499767303, 0.05603368207812309], [-0.26566118001937866, -0.30541762709617615, -0.47288188338279724, -1.3008148670196533, 0.235311821103096, -0.20099925994873047, 0.6432919502258301, -0.8932517766952515, -0.06466028094291687, -0.3035845458507538, 0.10788260400295258, 0.22941522300243378, -0.25087136030197144, 0.08320149034261703, -0.09040036797523499, 0.4260251820087433, -0.1557786613702774, -0.0773911252617836, 0.518242359161377, 0.1224089041352272], [-0.9450362920761108, 0.016814900562167168, -0.45077601075172424, -0.028500597923994064, 0.6533145308494568, -0.37906959652900696, -0.12227437645196915, 0.653261125087738, -0.4967513084411621, -0.222865492105484, 0.3488841652870178, 0.605563759803772, -0.35884740948677063, 0.24038484692573547, 0.22671808302402496, 0.8858281970024109, -0.33810415863990784, 0.10046717524528503, -0.14389970898628235, 0.17788490653038025], [-0.1269868165254593, -0.2415645718574524, -0.2071598619222641, 0.5892779231071472, 0.6220691204071045, -0.30910322070121765, -0.21864274144172668, 0.29201409220695496, -0.15380099415779114, -0.239423930644989, 0.3101468086242676, -0.03657009080052376, -0.19926360249519348, 0.2222963571548462, 0.40174952149391174, 0.48167911171913147, -0.3971540033817291, -0.3482554852962494, 0.14549940824508667, 0.20295986533164978], [0.928952157497406, -0.4710375964641571, -0.2630120515823364, 1.604066014289856, 0.719629168510437, -0.5301022529602051, -0.352079302072525, -0.814896285533905, -0.5156680941581726, -0.57481449842453, 0.1968827247619629, 0.31674128770828247, -0.40017497539520264, 0.6478288173675537, 0.16865964233875275, -0.11333242803812027, -0.4130796790122986, -0.3606798052787781, -0.25858235359191895, 0.39464378356933594], [1.5895379781723022, -0.4157385230064392, 0.37892672419548035, -0.49475425481796265, -1.0851740837097168, -0.5608286261558533, 0.46657973527908325, 0.3568163812160492, -0.5953194499015808, -0.04703640937805176, -0.11816244572401047, 0.21167433261871338, -0.43305861949920654, 0.5410831570625305, -2.0282280445098877, 0.11421290785074234, -0.018766501918435097, 0.27246713638305664, 0.3532029688358307, -0.057129792869091034], [-0.8718647360801697, -0.5597820281982422, -0.14038822054862976, 0.43974751234054565, 2.133828639984131, -0.2362937331199646, -0.9242688417434692, -0.6547167897224426, -0.4329646825790405, -0.24025429785251617, 0.20806121826171875, 0.09302074462175369, -0.2307012677192688, 1.004953384399414, 0.14444106817245483, -0.8660258054733276, -0.24240761995315552, -0.5412987470626831, 0.4000625014305115, 0.31414374709129333], [0.6764135360717773, -0.4151100218296051, -0.46496158838272095, 2.1739916801452637, 0.5160397291183472, -0.1571464240550995, -0.4827965497970581, 0.29603084921836853, -0.22560308873653412, -0.504063606262207, 0.31313592195510864, 0.14658036828041077, 0.09610853344202042, 0.44527870416641235, 0.19174189865589142, 0.5968037247657776, -0.8183842301368713, -0.3742714822292328, 0.011781596578657627, 0.13292516767978668], [-0.0696825459599495, -0.27053067088127136, -0.15519961714744568, -1.0749918222427368, 0.5923736691474915, -0.01449262909591198, -0.6246109008789062, 0.04886060208082199, -0.14360272884368896, -0.5430071353912354, 0.2650790512561798, 0.08008018136024475, -0.19395603239536285, 0.30295485258102417, 0.3878193795681, -0.2366923987865448, -0.5657238364219666, -0.3498394191265106, 0.41096964478492737, -0.02247951179742813], [0.454060822725296, -0.40967223048210144, -0.41558703780174255, -0.1126626580953598, 0.9241580963134766, -0.9388815760612488, -1.367550253868103, -0.9809581637382507, -0.37676751613616943, -0.994117259979248, 0.6066635847091675, 0.4268885552883148, -0.31484079360961914, 0.3171217143535614, 0.12241699546575546, 0.009395896457135677, -0.47681519389152527, -0.05934843048453331, 0.5893628597259521, 0.6618542075157166], [1.286860704421997, -0.14480942487716675, 0.03256607800722122, 0.3961356580257416, 0.3949589729309082, -0.41063833236694336, -0.19353382289409637, -0.4264030456542969, -0.22485853731632233, -0.12105611711740494, 0.29652243852615356, 0.21094389259815216, -0.09803350269794464, 0.10989681631326675, -0.13979287445545197, 0.037129729986190796, -0.14040066301822662, -0.07010677456855774, 0.0930381715297699, 0.4698850214481354], [-0.4766957759857178, -0.31612735986709595, -0.45569896697998047, -0.6361362934112549, 0.13734082877635956, -0.40325629711151123, 0.27214235067367554, -0.04992824047803879, -0.3727417290210724, -0.8507834076881409, 0.7416561841964722, -0.03309093788266182, 0.09980180114507675, 1.1781874895095825, 0.13251931965351105, -0.28562769293785095, -0.5977399945259094, -0.6187393069267273, -0.21595945954322815, 0.2442958950996399], [-0.6137325167655945, -0.06724675744771957, -0.4416273236274719, 0.48838987946510315, 0.31471315026283264, -0.1985367089509964, -0.41129612922668457, 0.32463324069976807, -0.19845600426197052, 0.013568003661930561, 0.18646588921546936, -0.0010991597082465887, -0.24318020045757294, 0.04764803126454353, 0.2139207273721695, 0.4450337290763855, -0.0808807909488678, -0.2259397953748703, -0.025938721373677254, 0.018936682492494583], [0.9012321829795837, -0.4166681468486786, -0.22578872740268707, 0.051813166588544846, 0.13796009123325348, -0.4260876774787903, -0.20040954649448395, -0.5630905628204346, -0.09529194235801697, -0.3401811718940735, 0.05749354884028435, -0.09823315590620041, -0.23072819411754608, 0.336785227060318, 0.27797871828079224, 0.1487029492855072, -0.02442857436835766, -0.407656192779541, -0.007685308810323477, 0.06811168044805527], [-0.39933812618255615, -0.1267789751291275, -0.6815128922462463, -0.4856376647949219, 0.2082684338092804, -0.27737662196159363, 0.36931589245796204, 0.11710135638713837, -0.5146871209144592, -0.038881365209817886, 0.4351556599140167, 0.2525079548358917, -0.7824038863182068, -0.143950417637825, 0.19028756022453308, -0.07754240930080414, -0.43282490968704224, -0.82700115442276, 0.05687864497303963, 0.2607080638408661], [-0.07097644358873367, -0.4043761193752289, -0.23415710031986237, -0.0460185781121254, 0.05221578851342201, -0.4313393831253052, 0.18250666558742523, 0.9229370951652527, -0.6263885498046875, -0.9077065587043762, 0.7824683785438538, 0.4769422113895416, -0.18497709929943085, 0.7679778933525085, 0.47027647495269775, 0.9950034022331238, -0.2993549406528473, -0.2833457589149475, 0.1455422192811966, 0.3924427628517151], [-0.16255223751068115, -0.24811463057994843, -0.0424908772110939, 0.5340389013290405, 0.9020376205444336, -0.12022405862808228, -0.22303138673305511, -0.3168985843658447, -0.10609810799360275, -0.5233397483825684, 0.2867692708969116, -0.05150040611624718, -0.29053187370300293, 0.3719313442707062, 0.051624104380607605, 0.64581298828125, 0.04280657321214676, -0.06548454612493515, -0.16771599650382996, 0.018958773463964462], [0.4788811206817627, 0.21035127341747284, 0.3194359838962555, 0.07225832343101501, 0.1920381486415863, 0.4022494852542877, -0.14976456761360168, -0.592041015625, 0.2733064889907837, 0.38599759340286255, -0.6429654955863953, -0.35151609778404236, 0.3292674720287323, -0.6078333258628845, -0.3278198540210724, -0.19715917110443115, 0.465219646692276, 0.3861132860183716, -0.4949279725551605, -0.2538510262966156], [0.28648871183395386, 0.6183743476867676, 1.1954140663146973, 0.3811684250831604, 0.7874452471733093, 0.14623762667179108, -0.5535783767700195, -0.5103098154067993, 0.6093746423721313, 0.9926902651786804, -1.0796265602111816, -0.4750133156776428, 0.09151195734739304, -0.7921527028083801, 0.27996620535850525, 0.6187483668327332, 0.6368815302848816, 1.0634185075759888, -0.4636322259902954, -0.4021809697151184], [-0.5267680883407593, 0.055888328701257706, -0.31224584579467773, 0.5318433046340942, 0.5713905692100525, -0.08243142813444138, -0.3234061598777771, -0.2834296226501465, -0.3709832727909088, -0.1625569760799408, 0.37465226650238037, -0.2620801627635956, -0.12138861417770386, 0.18265046179294586, 0.21375270187854767, 0.22444725036621094, -0.2839777171611786, -0.10174917429685593, 0.21477735042572021, 0.3181299865245819], [-0.20364417135715485, -0.13977523148059845, -0.11539095640182495, 0.6430162787437439, 0.16998028755187988, -0.3141798675060272, -0.15899886190891266, -0.2526649832725525, -0.11139214038848877, -0.35793253779411316, 0.15389256179332733, 0.002852525096386671, -0.28060227632522583, 0.14238674938678741, 0.4393759071826935, 0.13557712733745575, 0.01971331611275673, 0.22707079350948334, 0.005358431022614241, 0.07851541042327881], [-0.31303921341896057, 0.2204274982213974, 0.2505752146244049, -0.1577077955007553, 0.029929645359516144, 0.024517890065908432, 0.035430118441581726, 0.6203925609588623, 0.09374191612005234, -0.17152827978134155, -0.6795516610145569, 0.05337591841816902, 0.5205726623535156, -0.33921366930007935, 0.2918964624404907, -0.1389607936143875, 0.05949648842215538, 0.36710095405578613, -0.2814788818359375, 0.00023872301972005516], [-0.4291451871395111, 0.5709530115127563, 0.14393296837806702, -0.12871935963630676, -0.7064874768257141, 0.5123262405395508, 0.06427876651287079, 0.3728647530078888, 0.4125918447971344, 0.4267985224723816, -0.38948580622673035, -0.6881307363510132, 0.4765565097332001, -0.38627520203590393, -0.3318069577217102, -0.2036198377609253, 0.3718957304954529, 0.31272056698799133, -0.6708236932754517, -0.4536058008670807], [-0.3273155093193054, -0.3424394130706787, 0.018505310639739037, 0.37918466329574585, 0.07481960952281952, -0.1331944614648819, -0.2578338086605072, -0.40114593505859375, -0.10412678122520447, -0.43386098742485046, 0.15629121661186218, -0.27674925327301025, -0.3841208517551422, 0.4306095838546753, 0.17248845100402832, 0.10615584999322891, -0.0056182281114161015, -0.24499857425689697, 0.10084772109985352, 0.07347078621387482], [0.20001091063022614, 0.055870767682790756, 0.2494788020849228, -0.12916378676891327, -0.024401480332016945, -0.06198825314640999, 0.1284540891647339, -0.15040090680122375, -0.040084704756736755, 0.2829170227050781, -0.19913546741008759, 0.31995368003845215, 0.34806567430496216, -0.26437947154045105, -0.375298410654068, -0.3439233899116516, 0.03847812861204147, -0.023061184212565422, -0.20618665218353271, -0.0031698201783001423], [0.8410208225250244, -0.036235664039850235, 0.1808733344078064, -0.4186534583568573, 0.10717158764600754, -0.11277925223112106, -0.108064204454422, -0.13298723101615906, -0.12951873242855072, -0.026477830484509468, -0.07513298839330673, -0.05539359524846077, 0.17248408496379852, -0.019666586071252823, 0.45315951108932495, -0.3023502826690674, 0.24910932779312134, -0.0081798629835248, -0.10175411403179169, -0.07070712000131607], [-0.06637203693389893, 0.036148954182863235, 0.22010798752307892, -0.23489128053188324, -0.5519943237304688, -0.13907404243946075, 0.5294306874275208, -0.06799186021089554, -0.004240701906383038, -0.08983420580625534, -0.34488704800605774, 0.34437835216522217, 0.12472997605800629, -0.3810744881629944, 0.1790034919977188, -0.071733258664608, 0.10493218898773193, 0.15000975131988525, 0.1539485901594162, -0.13373956084251404], [0.745242178440094, -0.06007048487663269, -0.18299415707588196, -0.33149483799934387, 0.3268052339553833, -0.2415299415588379, -0.44146621227264404, -0.10046621412038803, -0.2872388958930969, -0.008790761232376099, 0.48841726779937744, -0.05650429427623749, 0.04921724274754524, 0.45090338587760925, -0.05290347710251808, 0.06771980226039886, -0.48477861285209656, -0.3162682354450226, 0.2743801772594452, 0.264478474855423], [0.5797105431556702, -0.2169027030467987, -0.6181694269180298, 0.25625768303871155, 0.10953164100646973, -0.34545671939849854, -0.33302950859069824, -0.11286016553640366, -0.16623727977275848, -0.06473861634731293, 0.35702070593833923, -0.06343719363212585, -0.3506864905357361, 0.126357302069664, -0.07115069031715393, -0.02506384067237377, -0.21417346596717834, -0.7405538558959961, 0.34107470512390137, 0.059217844158411026], [-0.44450488686561584, 0.26381614804267883, 0.18385078012943268, 0.595734179019928, -0.5737674236297607, 0.3296807110309601, -0.13573890924453735, 0.44206833839416504, 0.33272191882133484, 0.35113656520843506, -0.3386301100254059, -0.1242540180683136, 0.4838043451309204, -0.5343373417854309, -0.3057444393634796, -0.17744562029838562, 0.339525043964386, 0.2810651957988739, -0.2905692160129547, -0.29890814423561096], [0.5992267727851868, -0.15612800419330597, 0.45270639657974243, -0.3617660105228424, -0.5112051963806152, 0.06288151443004608, 0.13613148033618927, 0.0670100525021553, 0.0061533390544354916, 0.24087168276309967, -0.11067701131105423, 0.18740639090538025, 0.22374792397022247, -0.15791817009449005, -0.20984485745429993, -0.4155057668685913, 0.2565084397792816, 0.4028776288032532, 0.06570076942443848, -0.10617655515670776], [0.6070501804351807, -1.3390485048294067, 1.1565510034561157, 0.32485222816467285, -1.465990424156189, -1.6774228811264038, 0.1784997284412384, -0.8954888582229614, -1.448950171470642, -1.1205744743347168, -0.45291051268577576, -1.2151548862457275, 0.16519315540790558, 0.1122736856341362, 1.3874833583831787, -0.03873515874147415, 0.29759734869003296, 0.3410576283931732, -0.39296701550483704, 1.1304320096969604], [0.6869285106658936, -0.17215071618556976, 0.01496480219066143, 0.9549009203910828, -0.1120087206363678, -0.0017785154050216079, -0.2687782347202301, -0.4224584400653839, -0.40405336022377014, -0.1302460879087448, -0.10800693929195404, 0.10080907493829727, -0.29284921288490295, 0.6667723059654236, 0.12656457722187042, 0.452720046043396, -0.21787726879119873, -0.12866561114788055, -0.3170695900917053, 0.48007822036743164], [0.5661234855651855, -0.22308628261089325, -0.22251738607883453, 0.06202142685651779, -0.08125410228967667, -0.6173140406608582, -0.0560067854821682, -0.21544678509235382, -0.1902368813753128, -0.41396456956863403, 0.44091925024986267, 0.19100609421730042, -0.35548749566078186, 0.24118708074092865, 0.27494630217552185, 0.29849353432655334, -0.39375439286231995, -0.03274332359433174, 0.9367814660072327, 0.23074649274349213], [-0.3883627951145172, -0.6154311895370483, 0.012915127910673618, -0.3140532374382019, 0.10599657148122787, 0.0031229001469910145, 0.12181307375431061, 0.1958843469619751, -0.3388696610927582, 0.5137755870819092, 1.4261956214904785, 0.21179719269275665, 0.1756136566400528, -0.550231397151947, -0.25045961141586304, 1.6025956869125366, -0.5764104723930359, -0.8557173609733582, -0.015481457114219666, 0.46498194336891174], [0.4034108817577362, 0.5813246965408325, 0.3098870515823364, 1.4028347730636597, 1.34702467918396, 1.277824878692627, -0.6341516375541687, -0.6340379118919373, 0.30754709243774414, 0.23809994757175446, -1.6008633375167847, 0.5480473041534424, 0.5631994009017944, -0.18416525423526764, -1.6981086730957031, -2.0198428630828857, 1.0264289379119873, 1.37320876121521, -1.457228660583496, -0.7097049355506897], [0.7055040001869202, -0.13961689174175262, -0.3283831775188446, 0.4828931391239166, 0.08992476761341095, 0.03884841874241829, -0.017282936722040176, 0.32323938608169556, -0.03982148319482803, -0.10183194279670715, 0.2533533275127411, 0.2843019962310791, -0.0774858370423317, 0.5710417628288269, -0.13841408491134644, 0.35726168751716614, -0.2962905466556549, -0.19192703068256378, 0.5500544905662537, 0.4927024245262146], [-0.5495702028274536, 0.6606066823005676, 0.6478285789489746, -0.1342967450618744, 0.17187906801700592, 0.6817842125892639, -0.9023029208183289, -0.6622167825698853, 1.1162352561950684, 0.33400237560272217, -3.365236282348633, 0.3846359848976135, -0.14766660332679749, -1.0708081722259521, -0.5257769823074341, -0.10468828678131104, 1.2663530111312866, 1.6524872779846191, 0.3349759578704834, -0.258634090423584], [-0.628606379032135, -0.5592753887176514, 0.4497106671333313, -0.15989510715007782, -0.5565951466560364, -0.7187129259109497, 0.4970371127128601, -0.021149862557649612, -0.21653124690055847, -0.5144702196121216, -0.49248769879341125, -0.11936475336551666, 0.9199041128158569, 0.09872624278068542, -0.7126702666282654, -1.4248970746994019, -0.344592422246933, 0.5018370151519775, 0.28337520360946655, 0.18287533521652222], [0.8455744385719299, -0.2592303454875946, -0.1616716980934143, 0.4848009943962097, 0.11557594686746597, -0.22922305762767792, -0.29052305221557617, -0.28987348079681396, -0.49129578471183777, -0.16820880770683289, -0.0515136644244194, 0.006773827131837606, -0.35825783014297485, 0.41974157094955444, 0.33664193749427795, 0.63787841796875, 0.019460629671812057, -0.010903999209403992, -0.33511173725128174, 0.15626773238182068], [0.494780570268631, -0.4785629212856293, -0.14235003292560577, -0.01964602805674076, 0.5259414315223694, -0.3911871612071991, -0.49393653869628906, -0.3208359479904175, -0.18833298981189728, -0.31225112080574036, 0.10174102336168289, -0.19288483262062073, -0.2426096349954605, 0.44606974720954895, 0.31128960847854614, -0.15862223505973816, 0.053856100887060165, 0.08565912395715714, 0.234919935464859, 0.3009870648384094], [0.3864172399044037, -0.17423827946186066, -0.04943361505866051, -1.2496687173843384, 0.28268739581108093, -0.28237244486808777, 0.20549046993255615, -0.7125880718231201, -0.05460435897111893, -0.2169020026922226, 0.5499951243400574, 0.038702912628650665, -0.3288821876049042, 0.35226351022720337, 0.013679005205631256, 0.21944864094257355, -0.39975759387016296, -0.018116993829607964, 0.4564768075942993, 0.1916092038154602], [-0.7627173066139221, -0.39025890827178955, -0.4139034152030945, 0.22926336526870728, 0.6890283823013306, -0.4881895184516907, -0.24714496731758118, 0.19804833829402924, -0.0724186897277832, -0.5750440359115601, 0.2935076951980591, 0.9151532053947449, -0.45986315608024597, 0.5080545544624329, 0.6267133355140686, 0.992506206035614, -0.1853383332490921, 0.19781671464443207, 0.3646910786628723, 0.4063500165939331], [-0.28364062309265137, 8.685244392836466e-05, -0.4335483908653259, 0.5016228556632996, 0.32002559304237366, -0.09142974764108658, -0.40541183948516846, 0.22000983357429504, -0.09116963297128677, -0.10243877023458481, 0.23174968361854553, 0.22116678953170776, -0.2041352391242981, 0.12049343436956406, 0.41330447793006897, 0.38661491870880127, -0.3088843524456024, -0.20474056899547577, 0.39537832140922546, 0.006643455475568771], [0.3751445710659027, -0.32758402824401855, -0.10518718510866165, 1.8444111347198486, 0.9509530067443848, 0.337900310754776, -0.382663756608963, -0.5174610614776611, -0.27818742394447327, 0.15501950681209564, -0.5482856035232544, 0.13115979731082916, 0.05467850714921951, 0.260272741317749, 0.6389158964157104, 0.8427059650421143, -0.1787213534116745, -0.056909091770648956, -0.1707342565059662, 0.5127399563789368], [-0.23428846895694733, 0.009688835591077805, -0.08563591539859772, 0.09061463922262192, -0.2415170520544052, -0.31905069947242737, -0.5722352862358093, 1.1165366172790527, -0.48622533679008484, -0.43788281083106995, 0.2550533413887024, 0.15042270720005035, 0.032380808144807816, 0.4285268783569336, -0.4553227722644806, 0.4721487760543823, -0.25296223163604736, 0.04295225441455841, -0.32690274715423584, -0.16464173793792725], [-0.8036298155784607, -0.4843420386314392, -0.24992510676383972, 0.880429744720459, 1.4276785850524902, -0.22620394825935364, -0.58802330493927, -0.5440371036529541, -0.4867541491985321, -0.5018244385719299, 0.4474026560783386, 0.18971960246562958, -0.43841737508773804, 0.9125909805297852, 0.18538779020309448, -0.8347547650337219, -0.48210662603378296, -0.26327288150787354, 0.2994990944862366, 0.49958133697509766], [0.09221868962049484, -0.046145059168338776, -0.4446966052055359, 0.6274279356002808, 0.39806613326072693, -0.4892059564590454, -0.20287026464939117, 0.4669329524040222, 0.07627993822097778, -0.6787177324295044, 0.7152553796768188, 0.19839346408843994, -0.16082169115543365, 0.20387481153011322, 0.20120614767074585, 0.3384993076324463, -0.9109919667243958, -0.4595215916633606, 0.7634502053260803, -0.08817023038864136], [0.05093248933553696, -0.09752673655748367, -0.054229214787483215, -0.5432887077331543, 0.37931549549102783, -0.09847769141197205, -0.13112036883831024, 0.6224985122680664, -0.1900012046098709, -0.45267370343208313, 0.5063356757164001, 0.13536003232002258, -0.04524127393960953, 0.4089459180831909, 0.37438008189201355, -0.40724724531173706, -0.3244408965110779, 0.018166549503803253, 0.8105164170265198, 0.33235272765159607], [0.34230995178222656, -0.4186365604400635, -0.3283156156539917, -0.017413072288036346, 0.757156252861023, -1.0492806434631348, -1.2545552253723145, -0.6615285873413086, -0.5763004422187805, -1.488445520401001, 0.9919790625572205, 0.11746251583099365, -0.2992081940174103, 0.1896965503692627, -0.1063501387834549, 0.8696253299713135, -0.5663199424743652, -0.23846429586410522, 0.13791275024414062, 0.32143011689186096], [0.40564724802970886, -0.16352052986621857, -0.2955758571624756, 0.7141832709312439, 0.18188956379890442, -0.054182056337594986, -0.5537223219871521, -0.37518054246902466, -0.2981269955635071, -0.05440413951873779, 0.014672329649329185, 0.009013514034450054, -0.29581522941589355, 0.21212248504161835, -0.1000317707657814, 0.13415762782096863, -0.5203213095664978, -0.20794570446014404, 0.21748818457126617, 0.04992769658565521]], "rec.bias_ih_l0": [-0.8028084635734558, -0.22209906578063965, -0.28663182258605957, -1.0297335386276245, -0.8814774751663208, -0.019642753526568413, -0.7215547561645508, -0.14584238827228546, -0.3724062144756317, -0.20299381017684937, -0.6764628291130066, -1.353958010673523, -0.5979331135749817, -0.5916009545326233, -0.9385510683059692, -0.8305697441101074, -0.8946294188499451, -0.899823784828186, -0.8601977229118347, -0.0786035880446434, -0.12202818691730499, 0.0912124291062355, 0.07301042228937149, -0.8056759238243103, 0.3914746046066284, -0.28823888301849365, -0.776989221572876, -0.38228660821914673, -0.42160314321517944, -0.3833271563053131, -0.7049826383590698, -0.763766348361969, -0.3828143775463104, -0.05906476080417633, 0.4922589361667633, -0.5910393595695496, -0.8135835528373718, -0.8139354586601257, -0.7709259986877441, -0.17609038949012756, -0.029849739745259285, -0.09788484871387482, 0.057701099663972855, -0.04805094748735428, -0.389149934053421, -0.08775006234645844, 0.27223384380340576, -0.11883723735809326, -0.06058921664953232, 0.2001485973596573, -0.4477943778038025, -0.014915207400918007, -0.29561421275138855, 0.12172321230173111, -0.17262083292007446, -0.14506284892559052, 0.10732337832450867, -0.06601093709468842, 0.2482818067073822, 0.1828029453754425, -0.36698827147483826, -0.19197946786880493, 0.026471758261322975, -1.1240617036819458, -0.10282889008522034, -0.2929868996143341, -0.16751669347286224, 0.18169154226779938, -0.08996888250112534, -0.23008231818675995, -0.3908511996269226, -0.7445446252822876, -0.4362603724002838, -0.34976956248283386, -0.2622731626033783, -0.5773420333862305, -0.6215562224388123, -0.7575191259384155, -0.7534178495407104, -0.1029738187789917], "rec.bias_hh_l0": [-0.9512147307395935, -0.051850657910108566, -0.09468019008636475, -0.930343508720398, -0.5120726227760315, -0.10750269889831543, -0.7564181685447693, 0.15649369359016418, -0.10030104964971542, -0.20570184290409088, -0.7630870938301086, -1.4332867860794067, -0.5240517258644104, -0.3094222843647003, -0.9177654981613159, -0.8917943239212036, -1.0675318241119385, -0.754814088344574, -0.7063319087028503, -0.038271158933639526, 0.11490165442228317, 0.1798301786184311, -0.02119181863963604, -0.880060613155365, -0.027089016512036324, -0.27866968512535095, -0.7130904197692871, -0.5201445817947388, -0.1584543138742447, 0.02841574139893055, -0.7945123910903931, -0.8717827200889587, -0.257342129945755, -0.26148465275764465, 0.26986998319625854, -0.4570258855819702, -0.46748900413513184, -0.8937254548072815, -0.6313462257385254, -0.10668741911649704, 0.2204168140888214, -0.2330370545387268, 0.032298073172569275, -0.19695183634757996, -0.40100234746932983, -0.10448691248893738, 0.5243812799453735, -0.15568126738071442, -0.09875927865505219, -0.12706628441810608, -0.20584098994731903, -0.06296546012163162, -0.02249617874622345, 0.026509404182434082, -0.016469433903694153, -0.10438153147697449, 0.30584514141082764, 0.2974574863910675, -0.0231265090405941, 0.053224656730890274, -0.3796739876270294, -0.2651037573814392, -0.25946396589279175, -1.1229755878448486, -0.24219311773777008, -0.28276923298835754, -0.23624983429908752, 0.13534612953662872, -0.14454816281795502, -0.057746414095163345, -0.1532178670167923, -0.9892382621765137, -0.6075990796089172, -0.24667176604270935, -0.20541802048683167, -0.680134654045105, -0.7040814161300659, -0.8628132343292236, -0.43355250358581543, -0.4672553837299347], "lin.weight": [[-0.046008966863155365, 0.007945513352751732, 9.406719618709758e-05, 0.1256336271762848, 0.2987695634365082, -0.13463521003723145, -0.5144757628440857, -0.47367820143699646, 0.03248492628335953, -0.10975917428731918, 0.09065400063991547, -0.01998891867697239, -0.04283260926604271, -0.047861307859420776, 0.47103646397590637, -0.3636891841888428, 0.08669251948595047, 0.12238114327192307, 0.15410922467708588, 0.04697565361857414]], "lin.bias": [-0.05841418728232384]}}