{"model_data": {"model": "SimpleRNN", "input_size": 1, "skip": 1, "output_size": 1, "unit_type": "LSTM", "num_layers": 1, "hidden_size": 20, "bias_fl": true}, "state_dict": {"rec.weight_ih_l0": [[-0.16598062217235565], [-0.14224764704704285], [0.7729549407958984], [0.03863046318292618], [0.14676767587661743], [-0.02453598380088806], [0.693196713924408], [-0.002008748007938266], [-0.014667411334812641], [-0.4000645577907562], [-0.014756307005882263], [0.11991646885871887], [-0.5742790699005127], [0.004458809737116098], [-0.005965535994619131], [-0.009301896207034588], [-0.2672933042049408], [0.008108584210276604], [-0.006654655560851097], [0.3236423134803772], [-0.14446169137954712], [-0.489325612783432], [-0.15788523852825165], [0.002694301540032029], [-0.07261360436677933], [-0.8612182140350342], [0.5716602206230164], [-0.0001543488324386999], [-0.27265703678131104], [1.5738908052444458], [-0.008455498144030571], [0.11055353283882141], [0.06519702821969986], [0.015151135623455048], [0.0232832171022892], [-0.0029181241989135742], [-0.3332033157348633], [0.009526250883936882], [-0.001569365500472486], [0.12446732074022293], [0.7015867233276367], [-0.7311021685600281], [-1.1870834827423096], [0.5340157151222229], [-0.7387895584106445], [1.3104665279388428], [-1.193384051322937], [0.05004039406776428], [1.3713715076446533], [0.8243390321731567], [-0.1021321713924408], [0.680399477481842], [1.366815447807312], [0.23524564504623413], [-0.28891780972480774], [0.27187907695770264], [0.07824917137622833], [0.30416110157966614], [0.12811975181102753], [-0.9276813864707947], [-0.24677616357803345], [-0.9425463080406189], [0.36171478033065796], [0.0313410647213459], [0.10930238664150238], [-1.7445365190505981], [0.6999322772026062], [-0.0012983166379854083], [-0.2480045109987259], [0.9166954159736633], [-0.03460884839296341], [0.1540890336036682], [1.439462423324585], [0.006197040434926748], [-0.0035778589081019163], [-0.015750685706734657], [-1.1551822423934937], [0.020280390977859497], [-0.00684606796130538], [0.4012504816055298]], "rec.weight_hh_l0": [[-0.0357181578874588, 0.016900409013032913, 0.03263082727789879, -0.03944151848554611, -0.04327745735645294, 0.1338193267583847, 0.04553632065653801, -0.006263365037739277, -0.04028119146823883, 0.018343154340982437, -0.008537971414625645, -0.02650749869644642, 0.13799449801445007, -0.021540798246860504, 0.014730535447597504, -0.017931483685970306, -0.0006687691202387214, -0.015058648772537708, -0.008726386353373528, 0.02555752545595169], [0.03463202342391014, 0.08981436491012573, 0.024924421682953835, 0.022234151139855385, -0.22131583094596863, -0.5817115902900696, 0.031641360372304916, 0.0031544750090688467, 0.05765047296881676, -0.008961612358689308, 0.04412498697638512, 0.0014826393453404307, -0.2515007257461548, -0.008113879710435867, 0.018449369817972183, -0.043704912066459656, -0.0463390126824379, -0.04924741014838219, -0.007847934029996395, 0.06361702084541321], [-0.08910354226827621, 0.338666707277298, 0.03768906369805336, -0.03430920094251633, -1.4697693586349487, -0.9451507925987244, 0.4390981197357178, -0.012049339711666107, -0.11532697826623917, 0.04278307408094406, 0.09368105232715607, -0.0038136758375912905, 0.44546908140182495, -0.0682138204574585, 0.11443311721086502, -0.03560632839798927, 0.4155595898628235, -0.03476549685001373, -0.03747604042291641, 0.012320755049586296], [-0.006616554688662291, 0.015952853485941887, -0.007797676138579845, -0.006888589356094599, -0.0028438293375074863, 0.00808593537658453, 0.020635565742850304, -0.0005268367240205407, 0.0015784113202244043, 0.014321400783956051, -0.0070223622024059296, -0.005435230676084757, 0.08894603699445724, -0.0033352687023580074, 0.0006255432963371277, -0.011977593414485455, -0.0064459918066859245, -0.013306723907589912, -0.001870139385573566, 0.009212677367031574], [-0.010725105181336403, 0.07983795553445816, 0.010532495565712452, -0.015499786473810673, 0.029908262193202972, -0.38602784276008606, -0.23446674644947052, -0.004805094096809626, -0.01336768176406622, -0.08251907676458359, 0.00042951563955284655, -0.0333736427128315, -0.8250502347946167, -0.0011049160966649652, -0.00391737325116992, -0.07743815332651138, -0.2771037518978119, -0.07495108246803284, -0.006607774179428816, 0.19979475438594818], [0.07447319477796555, 0.00044419433106668293, -0.7659714818000793, 0.27999240159988403, 0.5140777230262756, 0.33012130856513977, -0.8677541017532349, -0.005479735322296619, 0.23964732885360718, -0.20397569239139557, 0.03689451888203621, 0.1724773645401001, 1.4230623245239258, 0.02097550965845585, 0.00448715640231967, 0.04405523091554642, 0.5454419255256653, -0.011433747597038746, 0.01262153871357441, -0.49620431661605835], [0.07758625596761703, -0.19351589679718018, 0.0542869009077549, 0.05777036398649216, 0.3093276917934418, 0.14039495587348938, -0.20941758155822754, 0.019483689218759537, 0.07622848451137543, -0.027450967580080032, -0.061749961227178574, 0.016796551644802094, -0.13487479090690613, 0.07099048793315887, -0.09135819971561432, 0.000589891045819968, -0.08215142786502838, 0.0009175084414891899, 0.02982807718217373, -0.006051723379641771], [0.0002311310963705182, -0.00016047243843786418, -0.00047958598588593304, 2.2261203412199393e-05, 0.001005517435260117, 0.0012629985576495528, 7.761890447000042e-05, 3.0260116545832716e-05, 0.0005888179875910282, 0.0005121013964526355, -4.838582026422955e-05, -0.00010007593664340675, -5.691756541637005e-06, 0.00020518165547400713, -0.00027547089848667383, -0.0005497983656823635, -0.0020233038812875748, -0.0005791651201434433, 2.7496249458636157e-05, 0.0006705292034894228], [-0.07176441699266434, 0.13761302828788757, 0.08311521261930466, -0.07312090694904327, -0.4851505756378174, -0.30034664273262024, 0.16019324958324432, -0.014230658300220966, -0.12142457067966461, 0.025694767013192177, 0.015047852881252766, -0.05032622814178467, -0.049417492002248764, -0.04915951192378998, 0.05742095038294792, -0.034216027706861496, 0.172569140791893, -0.01777218095958233, -0.0267096608877182, 0.002865145681425929], [-0.016848519444465637, 0.06299193948507309, 0.4522249102592468, -0.001850247965194285, -0.09578928351402283, -0.1643386036157608, -0.03188847377896309, 0.0017010241281241179, -0.1749640256166458, -0.20400099456310272, 0.06257136911153793, -0.0670381635427475, 0.0579218864440918, 0.0020882003009319305, -0.00014760260819457471, 0.04101927950978279, 0.2267637997865677, 0.05223426595330238, 0.0065443255007267, 0.22380322217941284], [-0.0007199069368652999, 0.0012970095267519355, 0.001249272609129548, -0.0008384128450416028, -0.0018337694928050041, 0.0005291695706546307, 0.0018148185918107629, -0.00018762801482807845, -0.0008581892470829189, 0.0009403622825630009, 0.000990536529570818, -0.0005872767069377005, -0.007679309695959091, -0.0008822912350296974, 0.0009171617566607893, -0.0002527297183405608, 0.0012760523241013288, -0.0002229984092991799, -0.0003668120480142534, 0.0007421018672175705], [-0.01584637351334095, 0.04697389155626297, -0.016349364072084427, -0.006939466577023268, -0.03744485229253769, -0.059559416025877, 0.039518002420663834, -0.0014837718335911632, -0.016044680029153824, 0.03013516589999199, 0.0033825011923909187, 0.0016421526670455933, 0.1245884820818901, -0.0044493041932582855, 0.0061310697346925735, -0.002044407883659005, 0.032408297061920166, -0.0012125916546210647, -0.001606663572601974, -0.019514022395014763], [-0.08589925616979599, -0.16313597559928894, 0.023697156459093094, 0.040865518152713776, 0.06013898178935051, 0.09596744924783707, -0.2271895706653595, -0.005623106844723225, -0.20969755947589874, 0.05769215151667595, -0.009530468843877316, 0.060712482780218124, 0.11708561331033707, 0.0390961654484272, -0.016128860414028168, 0.1155790314078331, 0.4202972948551178, 0.12042379379272461, 0.020071208477020264, -0.34066465497016907], [0.005247334949672222, -0.00238623796030879, -0.0031641870737075806, 0.0032719033770263195, 0.008113594725728035, 0.0025333119556307793, -0.0036028344184160233, 0.0016602815594524145, 0.008489520289003849, 0.005776049569249153, -0.0004292679368518293, 0.0008710380643606186, -0.00998447835445404, 0.0036672616843134165, -0.005566735751926899, -0.005206994712352753, -0.02181011438369751, -0.0059641143307089806, 0.000727154198102653, 0.007978379726409912], [0.008499487303197384, -0.009862756356596947, -0.0003423234447836876, 0.005218614358454943, 0.010464450344443321, -0.000628812937065959, 8.566603355575353e-05, 0.0022136166226118803, 0.012337232939898968, 0.005602006334811449, -0.0009061168530024588, 0.0006070720846764743, 0.025352755561470985, 0.0059639401733875275, -0.008408797904849052, -0.00878994632512331, -0.028400111943483353, -0.009391216561198235, 0.0010886704549193382, 0.014358552172780037], [0.00035419812775216997, 0.002946255262941122, 0.013211284764111042, -0.0019161482341587543, -0.004383359104394913, 0.009107080288231373, 0.014474732801318169, 9.319182572653517e-05, -9.482487803325057e-05, 0.0038465813267976046, 0.010538922622799873, -0.0011104027507826686, 0.12778626382350922, -0.0013316355179995298, 0.00181175721809268, 0.004882971290498972, 0.03567678853869438, 0.003912005107849836, -0.00022958513000048697, -0.0008372757583856583], [0.04412508383393288, -0.002377826953306794, -0.0025998407509177923, 0.01897984929382801, -0.3020774722099304, -0.12980084121227264, -0.3610397279262543, 0.002627536654472351, 0.1458842009305954, 0.016162045300006866, -0.04838857427239418, 0.006407663691788912, -0.6992382407188416, 0.005142077337950468, -0.011870459653437138, -0.03335176780819893, 0.1502894163131714, -0.03686700016260147, -0.0010327488416805863, 0.13415586948394775], [-0.0015898527344688773, 0.008732132613658905, 0.018743295222520828, -0.003276070347055793, -0.007652295287698507, 0.0009816308738663793, 0.014908469282090664, -0.0005362959345802665, -0.0040817600674927235, 0.0006114897551015019, 0.0008871981408447027, -0.001806987333111465, 0.1317903846502304, -0.0032936311326920986, 0.004335262347012758, 0.0050742607563734055, 0.046466436237096786, 0.005649164784699678, -0.000531629251781851, -0.0018842978170141578], [0.0007485985988751054, 0.0004078874480910599, 0.0001279019343201071, 0.00035149281029589474, 0.0017054176423698664, -0.000566145230550319, 0.00043093759450130165, 0.0002508100005798042, 0.0009809830226004124, 0.000219334993744269, -3.88468979508616e-05, 2.3342487111222e-05, 0.0012888384517282248, 0.0006042519817128778, -0.0008104533771984279, -0.0008269268437288702, -0.0034038410522043705, -0.0008419440127909184, 0.00038962799590080976, 0.001587950042448938], [0.02109507843852043, 0.037540875375270844, -0.08435660600662231, 0.04155942425131798, -0.16777750849723816, -0.28498485684394836, 0.0505823977291584, 0.009422742761671543, 0.05348401144146919, -0.007957636378705502, 0.011662294156849384, 0.028903871774673462, 0.256578654050827, 0.02697042003273964, -0.02362537942826748, -0.02025950886309147, -0.04667842015624046, -0.024527588859200478, 0.008788611739873886, -0.0376216322183609], [-0.012459181249141693, 0.006519063841551542, -0.01936471462249756, -0.013225073926150799, 0.05615406483411789, 0.12895558774471283, 0.001290552201680839, -0.003375806612893939, -0.006369529291987419, 0.012518375180661678, 0.0052562919445335865, -0.00677846884354949, 0.046940237283706665, -0.009129230864346027, 0.006306905765086412, -0.0013130108127370477, 0.0006895241676829755, -0.00017594394739717245, -0.002389244269579649, -0.014423553831875324], [0.014945220202207565, 0.04438230022788048, 0.0887436643242836, -0.008350865915417671, -0.10772842913866043, -0.5657747983932495, 0.05352095514535904, -0.0031527383252978325, 0.023084934800863266, -0.011287093162536621, 0.06288458406925201, -0.021087437868118286, -0.19221709668636322, -0.02828829735517502, 0.04053771123290062, -0.04061552882194519, -0.054624076932668686, -0.04486636817455292, -0.014873662032186985, 0.08738244324922562], [0.0376167893409729, 0.05984451621770859, 0.04730287194252014, 0.039316363632678986, -0.2526387870311737, -0.28138574957847595, 0.07568246871232986, -0.003053408581763506, 0.066739521920681, -0.0658993273973465, 0.017280032858252525, 0.01059502549469471, 0.27415159344673157, -0.020737016573548317, 0.03679642826318741, -0.026609787717461586, 0.09129451215267181, -0.02804877795279026, -0.010529552586376667, 0.04206174984574318], [-0.002581772394478321, -0.002288473304361105, 0.0053915707394480705, -0.0037951820995658636, 0.026662901043891907, 0.060410983860492706, -0.005813559051603079, -0.0009469682117924094, -0.0003426364273764193, 0.007809420581907034, -0.00012448271445464343, -0.0036997597198933363, 0.07697910070419312, -0.00267499266192317, 0.0009826334426179528, -0.0015990129904821515, 0.0023921802639961243, -0.0015941218007355928, -0.0007856575539335608, 0.004953187424689531], [0.0284048430621624, -0.10252144932746887, 0.20916740596294403, 0.002595101948827505, 0.10777786374092102, 0.09289299696683884, -0.14036469161510468, 0.006283643189817667, -0.029688920825719833, -0.015061086975038052, -0.0028332683723419905, -0.007018882315605879, 0.2720322608947754, 0.007361255586147308, -0.017324157059192657, 0.042302414774894714, 0.16176657378673553, 0.042648136615753174, 0.007169094868004322, 0.05141010880470276], [0.07760179787874222, -0.17247222363948822, -0.016774725168943405, 0.035395797342061996, 0.24423788487911224, 0.06300037354230881, -0.01599278301000595, 0.010013099759817123, 0.13879147171974182, -0.2527170777320862, -0.08229479193687439, -0.014659649692475796, -1.4828705787658691, 0.044419512152671814, -0.07956861704587936, -0.07004117965698242, -0.7880905270576477, -0.06458036601543427, 0.03155020251870155, 0.24189376831054688], [0.07391588389873505, -0.058680158108472824, -0.16065186262130737, 0.08976970613002777, -0.08534560352563858, -0.18813388049602509, -0.12156490236520767, 0.018920965492725372, 0.11502368003129959, -0.011202387511730194, 0.008489039726555347, 0.055966705083847046, -0.3827470541000366, 0.07126785814762115, -0.0738619938492775, -0.016748648136854172, -0.12346843630075455, -0.025471001863479614, 0.02520720846951008, -0.03106188029050827], [0.00016079949273262173, -0.0002445438294671476, 0.00017289965762756765, -7.030787674011663e-05, 0.0009975126013159752, 0.0018214210867881775, -0.00012818363029509783, 3.985494913649745e-06, 0.0003162813081871718, 0.0004465017991606146, -4.6516419388353825e-05, -0.00016516845789738, -0.0024248750414699316, 0.00012815603986382484, -0.00017301086336374283, -0.00042387054418213665, -0.0017851799493655562, -0.0004317802668083459, 1.1003472536685877e-05, 0.0008001037640497088], [-0.01869344525039196, 0.0388769656419754, -0.016094975173473358, -0.02322821319103241, 0.0057874335907399654, 0.09260176867246628, 0.01594787836074829, -0.007915602996945381, -0.024646824225783348, 0.004109744448214769, 0.009033652022480965, -0.012215252965688705, 0.05622139945626259, -0.02347349189221859, 0.02475055307149887, 0.01128661260008812, 0.056863944977521896, 0.01374086644500494, -0.008214862085878849, -0.026864510029554367], [0.029016071930527687, -0.020364981144666672, 0.06792136281728745, 0.014770833775401115, -0.3893234133720398, 0.11867832392454147, -0.037465956062078476, 0.007341095712035894, 0.12554171681404114, 1.1751797199249268, -0.20424921810626984, -0.013815246522426605, 1.3474981784820557, -0.011585991829633713, 0.014631494879722595, -0.06806809455156326, 0.21874172985553741, -0.08663894981145859, -0.030418669804930687, 0.1996166706085205], [-0.00047661567805334926, 0.00042336524347774684, 0.0011655623093247414, -0.0005946866003796458, -0.0003725003625731915, 0.0035307223442941904, 0.0003575026639737189, -0.00016435042198281735, -0.0006515519344247878, 0.000670723442453891, 0.009651554748415947, -0.00040277378866449, -0.026222769170999527, -0.000704034639056772, 0.0006638274644501507, 4.2230371036566794e-05, 0.0020916913636028767, 0.00010998207289958373, -0.0002498069661669433, 0.0005540449637919664], [-0.004239541012793779, 0.006981287617236376, -0.005499109625816345, 0.0001267583284061402, 0.01856796257197857, 0.03554036468267441, -0.002605349523946643, -0.0008112177019938827, -0.004997643176466227, 0.04755810648202896, 0.0002447744191158563, 0.0044679781422019005, 0.13040590286254883, -0.001518886536359787, 0.0011094731744378805, 0.0053436532616615295, 0.02352439984679222, 0.005916097667068243, 0.0002935991797130555, -0.01387854851782322], [-0.03679318353533745, -0.3620791435241699, 0.2935006320476532, -0.15559552609920502, 0.013136444613337517, 0.9277353882789612, 0.14031702280044556, -0.03294392302632332, 0.11335624009370804, 0.5440738201141357, -0.2207978218793869, -0.1492769718170166, -1.1414124965667725, -0.15325115621089935, 0.12289504706859589, -0.16377151012420654, -0.6551275253295898, -0.11839552223682404, -0.06376782804727554, 0.5647145509719849], [0.004847733769565821, -0.0022801950108259916, -0.0004998772055841982, 0.003034851048141718, 0.0051805488765239716, 0.0034236593637615442, -0.005159604828804731, 0.0014543081633746624, 0.007156673818826675, 0.004852491896599531, -0.00057699263561517, 0.001002833480015397, -0.024494947865605354, 0.0029229421634227037, -0.004246158991008997, -0.004000024404376745, -0.01696823351085186, -0.0044902004301548, 0.000643184466753155, 0.007277143187820911], [0.007825522683560848, -0.007090614177286625, 0.001026608282700181, 0.005204032640904188, 0.001714465324766934, -0.00010432390990899876, -0.0033147467765957117, 0.0020472081378102303, 0.011810778640210629, 0.004904966335743666, -0.0008288438548333943, 0.0011397884227335453, -0.04384274035692215, 0.004700945224612951, -0.006225126795470715, -0.006992804817855358, -0.024694005027413368, -0.007912885397672653, 0.0009183132206089795, 0.015197197906672955], [0.0008569872006773949, 0.002344166859984398, 0.00656474893912673, -0.00041827699169516563, -0.004381842445582151, 0.004160892218351364, 0.006694299168884754, 0.0001836902229115367, 0.0014655019622296095, 0.002617537509649992, 0.0008793524466454983, -0.0001336798450211063, 0.051483746618032455, -0.000697967188898474, 0.0008931527263484895, 0.0021351699251681566, 0.015625791624188423, 0.002069283276796341, -4.333789911470376e-05, 0.0004390987742226571], [0.03284727782011032, -0.07054433226585388, 0.04811497777700424, 0.015195906162261963, 0.025754988193511963, 0.1116119921207428, -0.0866650715470314, 0.0009116143919527531, 0.0339985191822052, 0.0013270428171381354, 0.027947405353188515, 0.0006127143860794604, 0.1706467717885971, 0.007779021747410297, -0.017626117914915085, 0.004009201191365719, 0.12412980198860168, 0.002313998993486166, 0.003540524747222662, 0.06344032287597656], [-0.00043459198786877096, 0.005131797399371862, 0.009780417196452618, -0.0012143871281296015, -0.005626197904348373, -0.0006057065911591053, 0.007825304754078388, -0.00018056777480524033, -0.0010126567212864757, 0.0004561602836474776, 0.00032048148568719625, -0.0005435196217149496, 0.044642556458711624, -0.0018663415685296059, 0.0022096652537584305, 0.0022839996963739395, 0.016341296955943108, 0.0032240806613117456, -0.00022281175188254565, 0.001248163403943181], [0.0005868634325452149, 0.00011513557547004893, 0.0006011913646943867, 0.0002650822571013123, 0.0011451637838035822, 0.0008963495492935181, -0.0005540361744351685, 0.00016228760068770498, 0.0006584362126886845, 0.00027786061400547624, -6.383103755069897e-05, 3.83795631933026e-05, -0.003879065392538905, 0.0003361592534929514, -0.00046254126937128603, -0.00035225824103690684, -0.0017606548499315977, -0.0003661606169771403, 0.0004985877894796431, 0.0011114327935501933], [0.020377742126584053, -0.022608043625950813, 0.0013587325811386108, 0.02372419834136963, 0.009111648425459862, 0.01347485464066267, -0.029623856768012047, 0.004168397281318903, 0.023692842572927475, -0.031453799456357956, -0.0012810879852622747, 0.013088231906294823, 0.2303546816110611, 0.013641374185681343, -0.017322774976491928, 0.005196820013225079, 0.033021099865436554, 0.00370580586604774, 0.007493253331631422, -0.012708199210464954], [-0.07394018769264221, 0.118621826171875, 0.042669136077165604, -0.07719118148088455, -0.6678643226623535, 0.04977014660835266, -0.12338276207447052, -0.004991231951862574, -0.13243885338306427, -0.21702565252780914, 0.2517321705818176, -0.0497472770512104, -0.43124619126319885, -0.009748019278049469, 0.016232335940003395, 0.010265323333442211, 0.37328824400901794, 0.02615601383149624, -0.015253434889018536, 0.18418847024440765], [0.1589217185974121, 0.19577792286872864, 0.17953503131866455, 0.16052955389022827, -0.15465694665908813, -1.0838356018066406, 0.3117029070854187, 0.03255423903465271, 0.1532585173845291, 0.030429599806666374, -0.049988649785518646, 0.0913536325097084, 0.3527607321739197, 0.038221247494220734, -0.03297920152544975, 0.028235383331775665, -5.2139956096652895e-05, -0.014231369830667973, 0.025281665846705437, -0.05254439264535904], [0.07150764763355255, -0.25023218989372253, 0.06645538657903671, 0.05747661367058754, 0.841189980506897, 0.18574228882789612, 0.3792579174041748, 0.052280452102422714, -0.06974980235099792, -0.19005794823169708, -0.034525316208601, 0.07596150785684586, 0.5676103234291077, 0.08184371143579483, -0.09338448196649551, 0.03625037148594856, -0.3408673107624054, 0.04066931828856468, 0.046782445162534714, -0.10689686238765717], [-0.0038830144330859184, 0.10690223425626755, -0.0043041459284722805, -0.07033874839544296, -0.2860907018184662, -0.16062727570533752, -0.07686439156532288, -0.0055506485514342785, -0.042608022689819336, -0.1584533005952835, 0.1728951781988144, -0.017964381724596024, -0.23246124386787415, -0.015237497165799141, 0.011326114647090435, 0.012649382464587688, 0.17454029619693756, 0.008916310966014862, -0.01982477493584156, 0.032888468354940414], [0.33059704303741455, -0.2717278003692627, -0.028850635513663292, 0.04071371257305145, -0.8311681151390076, 0.4667551815509796, -0.6808193922042847, 0.01561227161437273, 0.12628215551376343, 0.1068730428814888, 0.052587635815143585, -0.027693716809153557, -1.1076771020889282, 0.10078980028629303, -0.12214653193950653, 0.13415563106536865, 1.1447817087173462, 0.09916852414608002, 0.042913906276226044, 0.11212203651666641], [0.08677303045988083, 0.27921348810195923, 0.39869424700737, 0.006371704395860434, -0.656328558921814, 0.6302356123924255, -0.14571772515773773, -0.025492580607533455, -0.024586500599980354, 0.331185519695282, -0.007901472970843315, -0.0005414665793068707, 0.2039431482553482, -0.08949993550777435, 0.09915566444396973, -0.12264551967382431, 0.3193577826023102, -0.18368571996688843, -0.038562558591365814, 0.17004987597465515], [0.21336884796619415, 0.014694432727992535, -0.2157076746225357, 0.0032817188184708357, 0.22386741638183594, -0.6363632082939148, -0.4973090887069702, 0.021855279803276062, 0.59296715259552, 0.4148710370063782, -0.391005277633667, -0.03185837343335152, 0.5265848636627197, -0.061984773725271225, 0.019132865592837334, -0.063747338950634, -0.4130377769470215, -0.06394930183887482, 0.02080581709742546, -0.19124306738376617], [0.01726354844868183, -0.05517086386680603, 0.02489435113966465, 0.002815428888425231, -0.03547225520014763, -0.06152975559234619, -0.020591357722878456, -0.016470670700073242, 0.02537602372467518, 0.1322450041770935, -0.0774797648191452, -0.001210012473165989, -0.07236235588788986, -0.009036452509462833, -0.0016389412339776754, -0.010248164646327496, -0.005103297997266054, -0.008095305413007736, 0.008084623143076897, 0.03236625716090202], [0.20997530221939087, 0.26738160848617554, 0.2013959288597107, -0.04244985431432724, -0.9431796073913574, 0.3704160153865814, -0.09334788471460342, -0.02927241101861, -0.330573707818985, -0.1658521592617035, 0.3415723443031311, -0.05910378694534302, -0.6938067078590393, 0.0017251712270081043, -0.05286261811852455, 0.0856696367263794, 0.6359099745750427, 0.008249279111623764, -0.012486758641898632, 0.24424143135547638], [-0.042647525668144226, 0.10939359664916992, -0.04648181423544884, -0.04180602356791496, -0.019943010061979294, -0.12539611756801605, 0.024801844730973244, -0.008315769955515862, 0.14002253115177155, 0.2614702880382538, -0.14440856873989105, 0.0577496662735939, 0.8103782534599304, -0.02271364815533161, -0.01688283123075962, -0.003107476979494095, 0.39296406507492065, -0.048590946942567825, -0.09295810759067535, -0.04337158054113388], [0.005877100862562656, -0.01903269626200199, -0.03762855380773544, 0.013412432745099068, 0.05251944065093994, -0.10383269190788269, -0.003394859377294779, 0.0021947885397821665, 0.0027290512807667255, -0.05336199700832367, -0.08373454213142395, 0.010378588922321796, 0.024351008236408234, 0.01011621579527855, -0.011821621097624302, -0.001377429231069982, -0.03196577727794647, -8.071245247265324e-05, 0.004772445652633905, -0.024855250492691994], [-0.03163154050707817, 0.09821073710918427, 0.017612192779779434, -0.09954714775085449, -0.24084967374801636, -0.3283485174179077, -0.0006526156212203205, -0.012548474594950676, -0.03763812407851219, 0.027928626164793968, 0.011668497696518898, -0.10331201553344727, -0.18462207913398743, -0.0353894978761673, 0.03661906346678734, 0.008037525229156017, 0.07471863180398941, 0.01656806468963623, -0.027303816750645638, 0.04441678896546364], [-0.14539070427417755, 0.014398611150681973, 0.28478020429611206, -0.2910166382789612, 0.5899548530578613, 1.677381157875061, -0.19313104450702667, -0.03961271420121193, 0.11046954989433289, 0.6268212199211121, -0.1946593075990677, -0.1529555767774582, 0.16138651967048645, -0.12347758561372757, 0.0908198282122612, -0.050157394260168076, 0.4054870307445526, -0.04031674563884735, -0.029956072568893433, 0.0949111357331276], [0.016632528975605965, -0.03565794229507446, -0.09879248589277267, 0.03265218436717987, -0.08558548241853714, -0.09111052751541138, -0.0597107969224453, 0.011450237594544888, 0.03341352567076683, 0.1327105462551117, -0.07142229378223419, 0.02744465507566929, -0.23991169035434723, -0.014709238894283772, -0.021645231172442436, -0.027538131922483444, -0.03545285016298294, -0.040341321378946304, 0.025732196867465973, 0.041113488376140594], [-0.03496990352869034, 0.01024071965366602, 0.09199143946170807, -0.045974962413311005, 0.07776151597499847, 0.01878949999809265, 0.19288167357444763, -0.014120573177933693, -0.048384662717580795, -0.030585313215851784, -0.0466235987842083, -0.03421464189887047, 0.31967106461524963, -0.035187650471925735, 0.04601754993200302, -0.01423217635601759, -0.11558999121189117, -0.009692627005279064, -0.009929975494742393, 0.025404993444681168], [0.015193235129117966, -0.011177944019436836, -0.027169492095708847, 0.012540397234261036, 0.004075413569808006, -0.029203901067376137, -0.015042114071547985, 0.0018332712352275848, 0.027433056384325027, 0.09207706898450851, -0.05854702368378639, 0.025106919929385185, -0.07630810141563416, 6.59985380480066e-05, -0.012369194068014622, -0.030530376359820366, -0.07908622175455093, -0.024595653638243675, 0.042682185769081116, 0.016851238906383514], [-0.48535099625587463, 0.37673407793045044, 0.3024658262729645, -0.16176840662956238, 0.08146780729293823, -0.601186215877533, 0.9165130853652954, -0.02019812911748886, -0.7147029638290405, 0.2052764892578125, 0.3977969288825989, -0.0977550595998764, 0.9656199812889099, 0.0128604331985116, 0.16781479120254517, 0.09007348120212555, -0.9468671083450317, 0.20354627072811127, -0.0381833016872406, 0.12399417906999588], [0.007045839447528124, -0.010051866061985493, -0.0684349536895752, 0.018063481897115707, 0.0062209852039813995, -0.006329974625259638, 0.015440443530678749, 0.0013015377335250378, 0.005274450406432152, 0.03365207836031914, -0.033783432096242905, 0.03785296902060509, -0.03645136579871178, -0.00762541638687253, -0.002536345738917589, -0.016778986901044846, -0.06631392985582352, -0.032978471368551254, 0.054644275456666946, 0.006643752567470074], [0.012136430479586124, 0.009283727034926414, -0.021694453433156013, 0.006325270514935255, -0.038856104016304016, -0.035286806523799896, -0.03530045598745346, 0.0033492727670818567, 0.01835431531071663, 0.011931541375815868, 0.0005017549847252667, 0.004275089595466852, -0.1482086032629013, 0.004727798048406839, -0.004929843824356794, -0.013561596162617207, -0.06255360692739487, -0.015800736844539642, -0.08406516164541245, 0.014687622897326946], [0.03048369288444519, -0.1685456931591034, 0.194637730717659, -0.04053885489702225, 0.6279878616333008, 0.6576343178749084, -0.042313024401664734, 0.02447514608502388, -0.05013083666563034, -0.18345725536346436, 0.06198595464229584, -0.00679028732702136, 0.0587068647146225, 0.05801258608698845, -0.05943397060036659, 0.035062529146671295, -0.14235341548919678, 0.02004859410226345, 0.041753094643354416, -0.013739577494561672], [-0.026827940717339516, 0.010866166092455387, 0.01402294635772705, -0.029609115794301033, 0.008022109046578407, 0.12269029766321182, 0.03075997717678547, -0.005159730091691017, -0.03128018602728844, 0.017107108607888222, -0.005371927749365568, -0.019812054932117462, 0.12951749563217163, -0.014081399887800217, 0.007906877435743809, -0.01511572115123272, -0.035227589309215546, -0.013269901275634766, -0.005958427209407091, 0.01435938198119402], [0.071575827896595, 0.11743594706058502, -0.0743323415517807, 0.061066657304763794, -0.27598151564598083, -0.8274205923080444, -0.05754547193646431, 0.007690646219998598, 0.07739849388599396, -0.03113592602312565, 0.2775918245315552, 0.02078990265727043, -0.10754585266113281, 0.006181929260492325, 0.004259678069502115, -0.008792011998593807, 0.2505006194114685, -0.027206791564822197, -0.0019239374669268727, 0.013908562250435352], [-0.016568366438150406, 0.22612662613391876, -0.03296009078621864, 0.014553755521774292, -0.7662195563316345, -0.6135019063949585, 0.21036601066589355, -0.002073549898341298, -0.0095842145383358, 0.040955111384391785, 0.03471916913986206, 0.0176291074603796, 0.07889590412378311, -0.018600331619381905, 0.04210610315203667, -0.04098328948020935, 0.16892720758914948, -0.04211807623505592, -0.016246233135461807, -0.008180723525583744], [-0.005338148679584265, 0.012343975715339184, -0.008416693657636642, -0.004081979393959045, -0.0027585774660110474, 0.01141414325684309, 0.015846598893404007, -0.00043628207640722394, 0.001961268950253725, 0.012049849145114422, -0.0030103172175586224, -0.0034092941787093878, 0.056299325078725815, -0.0020388884004205465, 0.00021066113549750298, -0.010684099979698658, -0.014156627468764782, -0.011286118999123573, -0.0015141918556764722, 0.006772039458155632], [0.015584808774292469, 0.08387517184019089, 0.00908858422189951, -0.0053146351128816605, -0.0007202036795206368, -0.5856249332427979, -0.9378843903541565, -0.001203831983730197, 0.10631828010082245, -0.11304981261491776, 0.0019063677173107862, -0.029157262295484543, -1.0016332864761353, 0.007421513088047504, -0.011827383190393448, -0.08610363304615021, -0.27483925223350525, -0.08458361029624939, -0.0040810564532876015, 0.22555553913116455], [-0.0554489865899086, 0.2252991497516632, 0.47180885076522827, -0.1168680489063263, -0.306686133146286, -1.4303078651428223, 0.5250421166419983, -0.013290618546307087, -0.07042499631643295, 0.0930875912308693, 0.15624451637268066, -0.12153830379247665, -0.3259195387363434, -0.07054763287305832, 0.13121818006038666, -0.11485327035188675, -0.3185300827026367, -0.12052832543849945, -0.04529072716832161, 0.27466925978660583], [0.059984736144542694, -0.2241768091917038, 0.1562788188457489, 0.0412570983171463, 0.07493879646062851, 0.25212597846984863, -0.18105049431324005, 0.01457475870847702, 0.027382249012589455, -0.024423521012067795, -0.06356089562177658, 0.009009677916765213, -0.2264624387025833, 0.06365077942609787, -0.08558911085128784, 0.00029925553826615214, -0.06280377507209778, -0.0016755688702687621, 0.02648780308663845, 0.03170770779252052], [0.00014257819566410035, -0.00013772146485280246, -0.00019658794917631894, -3.970263060182333e-05, -0.0012186438543722034, 0.0012587306555360556, 0.00013301811122801155, 2.119772216246929e-05, 0.00036629787064157426, 0.0005145783652551472, -3.9826551073929295e-05, -0.00013702195428777486, -0.0017141889547929168, 0.00018140832253266126, -0.00023218640126287937, -0.0005541667342185974, -0.0018791729817166924, -0.0005813630414195359, 1.6690593838575296e-05, 0.0007932825828902423], [-0.06739991903305054, 0.1428917646408081, 0.049893319606781006, -0.06714040786027908, -0.40410280227661133, -0.3104807436466217, 0.15320497751235962, -0.013865896500647068, -0.10770681500434875, 0.0286382008343935, 0.014271469786763191, -0.045123662799596786, 0.002280591754242778, -0.04234394431114197, 0.04877229779958725, -0.03479636088013649, 0.09996099025011063, -0.02413446456193924, -0.024982113391160965, 0.005469584837555885], [0.01570146158337593, 0.00021555309649556875, 0.10895245522260666, -0.012099501676857471, -0.30283093452453613, 0.013546348549425602, -0.01759524457156658, -0.0025148505810648203, 0.04712081700563431, 0.6383521556854248, -0.025178486481308937, -0.018566515296697617, 0.743244469165802, -0.024854762479662895, 0.02743741124868393, -0.0400325283408165, 0.11589832603931427, -0.04970698803663254, -0.02480561099946499, 0.20031030476093292], [-0.001579728676006198, 0.009356473572552204, 0.0021854883525520563, -0.0014686572831124067, -0.0023142972495406866, -0.003210763679817319, 0.004649395123124123, -0.0002659406454768032, -0.0016924485098570585, 0.003105495125055313, 0.1964792162179947, -0.0008799403440207243, 0.0201348215341568, -0.00139327731449157, 0.001263566198758781, 0.0037202646490186453, 0.12688089907169342, -3.044343065994326e-05, -0.0005474926438182592, -0.0011556926183402538], [-0.012630008161067963, 0.036897070705890656, -0.025430802255868912, -0.0025645385030657053, -0.01872638612985611, -0.03531967103481293, 0.032727260142564774, -0.0009935218840837479, -0.009580529294908047, 0.045553237199783325, 0.0026194637175649405, 0.008514604531228542, 0.11990512162446976, -0.002540678484365344, 0.004020209424197674, -0.00035704553010873497, 0.017587361857295036, 0.0008872373728081584, -0.0010126554407179356, -0.02269143983721733], [0.007533063180744648, -0.4656144082546234, -0.4887993037700653, 0.19311705231666565, 1.565626621246338, 0.29525047540664673, 1.2491166591644287, 0.062080349773168564, -0.2980823516845703, 0.11358515918254852, -0.07510443031787872, 0.061597198247909546, 0.537205159664154, 0.1583782136440277, -0.2250664085149765, -0.06526900827884674, -0.93953937292099, -0.03183279186487198, 0.053252924233675, -0.08585599809885025], [0.005156403873115778, -0.0020891502499580383, -0.0022712654899805784, 0.0033986219204962254, 0.00442840438336134, 0.001942385919392109, -0.003325301455333829, 0.0016247492749243975, 0.008081672713160515, 0.0058971005491912365, -0.0004906089161522686, 0.0009623229852877557, -0.011877970770001411, 0.0037587755359709263, -0.005614308174699545, -0.005052721127867699, -0.01683126576244831, -0.0058377753011882305, 0.0007631009793840349, 0.008065511472523212], [0.008204463869333267, -0.009063297882676125, -0.002051969990134239, 0.006302892696112394, 0.006410409230738878, -0.0008804678218439221, 0.009709881618618965, 0.0023405326064676046, 0.00999105628579855, 0.0059374659322202206, -0.0009823585860431194, 0.0013657098170369864, 0.04284324124455452, 0.006342610344290733, -0.008782574906945229, -0.008688462898135185, -0.02888982743024826, -0.009322896599769592, 0.0012260882649570704, 0.01257044542580843], [0.0019160135416314006, 0.0008882716647349298, 0.006288230884820223, -0.00010650726471794769, 0.0010526982368901372, 0.013921089470386505, 0.012539849616587162, 0.00037985475501045585, 0.0045465026050806046, 0.004024531226605177, 0.006671063601970673, 0.0004283299786038697, 0.12140486389398575, -0.0009718916262499988, 0.0017064600251615047, 0.006874566897749901, 0.038925182074308395, 0.006853570695966482, 0.00013355225382838398, -0.003801916725933552], [0.11554588377475739, 0.04363561421632767, 0.21629443764686584, -0.013326593674719334, -0.607660174369812, -0.21197091042995453, -0.6302816271781921, -0.006276648957282305, 0.21137136220932007, 0.020807918161153793, -0.06307123601436615, -0.007263337727636099, -0.8324243426322937, -0.029576564207673073, 0.03426689654588699, -0.021133458241820335, 0.6963780522346497, -0.022845597937703133, -0.01155603863298893, 0.29828131198883057], [-0.0004049298295285553, 0.0076144603081047535, 0.013215466402471066, -0.0014807156985625625, -0.001388235716149211, 0.0045788465067744255, -0.007388519123196602, -0.00023897734354250133, -0.0010639845859259367, 0.0002337644255021587, 0.0009760118555277586, 6.517392466776073e-05, 0.13090814650058746, -0.002832826692610979, 0.004261888097971678, 0.0089838532730937, 0.05676070228219032, 0.010056030936539173, -5.014784255763516e-05, -0.005403849761933088], [0.0006537375738844275, 0.000485920172650367, 0.0002254831197205931, 0.0003446740738581866, 0.0012842155992984772, -0.0004780639719683677, 0.005249847657978535, 0.00022175852791406214, 0.0006252687308005989, 0.00010774532711366192, -3.1106570531846955e-05, 1.9474011423881166e-05, 0.004419537726789713, 0.0005108212353661656, -0.0006948300288058817, -0.0008143775630742311, -0.0026943099219352007, -0.0008153116796165705, 0.005049813073128462, 0.0011517468374222517], [0.02934333123266697, 0.03690085560083389, -0.1284976303577423, 0.05250360444188118, -0.10845831036567688, -0.2566470801830292, 0.04388517513871193, 0.011896273121237755, 0.07914261519908905, 0.014406639151275158, 0.009969103150069714, 0.03984568640589714, 0.39590057730674744, 0.030067864805459976, -0.024503841996192932, -0.01648254506289959, -0.08359555900096893, -0.021170711144804955, 0.009553235024213791, -0.06814888119697571]], "rec.bias_ih_l0": [-0.36103349924087524, -0.1116766557097435, -0.28680065274238586, -0.19958041608333588, 0.5014492273330688, -1.638401985168457, -0.3131033182144165, -0.04690643027424812, -0.3774258494377136, -1.5016556978225708, -0.10915464907884598, -0.4624413847923279, -1.2940096855163574, -0.10347752273082733, -0.1597561240196228, -0.4429600238800049, 0.19252900779247284, -0.462041437625885, -0.23590655624866486, -0.11966682225465775, -0.08051736652851105, 0.020351650193333626, -0.07483933120965958, -0.1560802161693573, -0.8388658761978149, 2.2975151538848877, -0.013527119532227516, -0.021545443683862686, -0.24882656335830688, 0.7747259140014648, -0.17330390214920044, -0.06996365636587143, 2.1000542640686035, -0.05032327026128769, 0.026362281292676926, -0.1716926544904709, -0.42131415009498596, -0.17644833028316498, -0.09231579303741455, -0.1782829910516739, 0.009724369272589684, -0.15479247272014618, 0.12314888834953308, 0.0773928165435791, -0.12256607413291931, 0.03712185472249985, -0.017459707334637642, -0.0578337237238884, 0.18198060989379883, 0.3651423156261444, 0.07106901705265045, -0.18685176968574524, -0.22680869698524475, -0.0330577977001667, -0.04149530827999115, -0.3664526641368866, -0.42846938967704773, -0.30696362257003784, -0.013425539247691631, 0.20397859811782837, -0.18894323706626892, -0.5674812197685242, 0.30387642979621887, -0.06253482401371002, 0.531627893447876, -0.17799432575702667, -0.2352619618177414, -0.03639424592256546, -0.23702587187290192, -0.3577234148979187, -0.66717928647995, -0.2047424018383026, 0.08881428092718124, -0.051765263080596924, -0.15422222018241882, -0.3090044856071472, -0.06629626452922821, -0.45775359869003296, -0.18276897072792053, -0.09607772529125214], "rec.bias_hh_l0": [-0.3877163529396057, 0.024484168738126755, -0.39936307072639465, -0.21615596115589142, 0.5088817477226257, -1.706779956817627, -0.2861928939819336, -0.04799177497625351, -0.3724670708179474, -1.5520141124725342, -0.11825662851333618, -0.37940704822540283, -1.3954071998596191, -0.11697954684495926, -0.1617932766675949, -0.44788721203804016, 0.16026197373867035, -0.42533499002456665, -0.22806812822818756, -0.1013568863272667, -0.1062144935131073, 0.09693433344364166, -0.1266888976097107, -0.1343751847743988, -0.8321309089660645, 2.4232373237609863, 0.02519117295742035, -0.02517034485936165, -0.2135135978460312, 0.7600175142288208, -0.16325820982456207, -0.11841357499361038, 2.1782095432281494, -0.029609408229589462, 0.026361551135778427, -0.1439921259880066, -0.39454150199890137, -0.21660511195659637, -0.08447258174419403, -0.16555464267730713, 0.07131122052669525, -0.09876685589551926, 0.02202523872256279, -0.06403546780347824, -0.05877198278903961, 0.2296123206615448, 0.08906642347574234, 0.023214252665638924, 0.1897682398557663, 0.22919131815433502, -0.10116839408874512, 0.10054612159729004, -0.24310557544231415, -0.07124582678079605, 0.0976182147860527, -0.22398187220096588, -0.2763255536556244, -0.46378251910209656, -0.07945074141025543, 0.2598555088043213, -0.1674795001745224, -0.5693739652633667, 0.19687557220458984, -0.059953149408102036, 0.5414847731590271, -0.3028382658958435, -0.24021486937999725, -0.03598703816533089, -0.21735703945159912, -0.33168402314186096, -0.6502573490142822, -0.29075387120246887, 0.011562191881239414, -0.06867100298404694, -0.1482454538345337, -0.33508989214897156, -0.09222379326820374, -0.4030320942401886, -0.19802145659923553, -0.11912993341684341], "lin.weight": [[-0.21232347190380096, 0.40492725372314453, 0.6483089327812195, -0.128122478723526, -0.5451658368110657, -0.056492798030376434, -0.40932130813598633, -0.013190754689276218, -0.38364729285240173, -0.2249450385570526, 0.05014855042099953, -0.22400464117527008, -0.32637596130371094, -0.034392133355140686, 0.015842236578464508, -0.021499808877706528, 0.30322977900505066, -0.025929266586899757, -0.023040488362312317, 0.28273776173591614]], "lin.bias": [-0.00036689662374556065]}}