{"model_data": {"model": "SimpleRNN", "input_size": 1, "skip": 1, "output_size": 1, "unit_type": "LSTM", "num_layers": 1, "hidden_size": 80, "bias_fl": true}, "state_dict": {"rec.weight_ih_l0": [[-0.021422792226076126], [-0.04480034485459328], [0.030601615086197853], [0.0006061200401745737], [0.016228340566158295], [-0.003432692028582096], [0.02071807160973549], [0.016139907762408257], [0.03520861268043518], [-0.12291520833969116], [0.01880248636007309], [0.012083112262189388], [0.051548171788454056], [0.309387743473053], [0.018368804827332497], [-0.11687184125185013], [-0.023693867027759552], [-0.049780670553445816], [0.0025497213937342167], [0.02031729184091091], [-0.009979072026908398], [-0.0876789391040802], [0.02363676391541958], [-0.08185333013534546], [0.02198841981589794], [-0.18933561444282532], [0.025914838537573814], [-0.003516681957989931], [-0.060243625193834305], [0.02061198092997074], [0.027515681460499763], [-0.11420322209596634], [0.01691850833594799], [-0.003593378234654665], [0.03190464526414871], [-0.0026655574329197407], [0.06629902869462967], [0.024883728474378586], [0.02207961678504944], [0.03356318920850754], [-0.004460407420992851], [0.007109487894922495], [0.007377998437732458], [0.0016233943169936538], [-0.011454147286713123], [0.0438859760761261], [0.016864867880940437], [0.01865479163825512], [0.014306251890957355], [-0.0076246862299740314], [0.005482976790517569], [-0.002224502619355917], [0.0008438372169621289], [0.028650375083088875], [-0.010495067574083805], [0.023564046248793602], [0.018592868000268936], [0.022225219756364822], [0.028690308332443237], [0.06031804159283638], [0.04472865164279938], [-0.01956053450703621], [-0.028193986043334007], [-0.11642801016569138], [-0.006263901479542255], [0.03975487872958183], [0.00912584736943245], [-0.02448025532066822], [0.0010190706234425306], [-0.009456966072320938], [-0.0069926767610013485], [0.016077322885394096], [-0.04542633891105652], [0.043138597160577774], [0.02481931820511818], [-0.01224910281598568], [-0.024820979684591293], [0.01631256379187107], [0.024637414142489433], [0.02538972534239292], [-0.00929247960448265], [-0.04094476252794266], [0.03338344767689705], [0.012839973904192448], [0.021682679653167725], [-0.20752200484275818], [0.07639001309871674], [0.0259439405053854], [0.10268785804510117], [-0.09496978670358658], [0.03692866861820221], [0.01155516691505909], [0.14425833523273468], [-0.15176761150360107], [0.02254091016948223], [-0.1704551726579666], [-0.01961333118379116], [-0.04594697430729866], [0.008072956465184689], [0.021575380116701126], [-0.009030007757246494], [0.13949961960315704], [0.025225527584552765], [-0.07905664294958115], [0.02371576987206936], [-0.3270125091075897], [0.02879304625093937], [0.01718546636402607], [-0.043706417083740234], [0.05274086073040962], [0.04194994643330574], [-0.16378891468048096], [0.021098176017403603], [-0.0024920005816966295], [0.09642589837312698], [0.00426415354013443], [-0.10097987949848175], [0.027018645778298378], [0.02787947654724121], [0.03492021560668945], [-0.002212533727288246], [0.011796959675848484], [-0.05946957319974899], [-0.00021548288350459188], [0.011737460270524025], [0.20875295996665955], [0.026720596477389336], [0.019886139780282974], [0.020451517775654793], [0.0029032807797193527], [0.008302385918796062], [0.01343326922506094], [0.006410267204046249], [-0.2872024178504944], [-0.011737409047782421], [0.040316615253686905], [0.021258551627397537], [0.02438751980662346], [0.051523707807064056], [0.164768785238266], [0.07667654007673264], [-0.008356695994734764], [-0.03001203015446663], [-0.14259113371372223], [-0.005694200284779072], [0.07252579182386398], [0.025416171178221703], [-0.022704528644680977], [0.005748747382313013], [-0.008349215611815453], [0.00013416772708296776], [0.020530125126242638], [-0.029518475756049156], [0.3964846730232239], [0.026255492120981216], [-0.012303675524890423], [-0.024300595745444298], [0.023064542561769485], [0.04524848237633705], [0.026626085862517357], [0.3011154234409332], [0.11499982327222824], [-0.033596985042095184], [0.024776751175522804], [-0.0024050059728324413], [0.5342656970024109], [0.05079769715666771], [0.01635224185883999], [-0.01562108751386404], [-0.3402799069881439], [0.006766891106963158], [0.008034252561628819], [0.19075463712215424], [0.3262805938720703], [0.010530173778533936], [0.0658450797200203], [-0.11614469438791275], [0.0810464546084404], [0.006823810748755932], [0.005555150099098682], [0.013694598339498043], [0.4971410632133484], [0.0161905400454998], [0.10750674456357956], [0.0822911337018013], [-0.0007007979438640177], [0.022377803921699524], [-0.03381923958659172], [0.1495557725429535], [-0.00032681363518349826], [-0.3810312747955322], [0.023932168260216713], [-0.01639307290315628], [-0.07049809396266937], [0.01689893566071987], [0.008384293876588345], [-0.49043595790863037], [0.014218169264495373], [0.021581433713436127], [-0.04308955743908882], [-0.03153800219297409], [-0.01201693806797266], [0.26052385568618774], [-0.014679500833153725], [-0.21360059082508087], [0.4707530736923218], [0.02499040775001049], [0.08026105910539627], [0.002177995862439275], [-0.20112045109272003], [-0.05917448550462723], [-0.004023869521915913], [-0.03381098434329033], [-0.44296514987945557], [0.054763682186603546], [0.024679597467184067], [-0.09175337851047516], [-0.09732357412576675], [-0.009380106814205647], [-0.3782905340194702], [0.06298620998859406], [0.0007544730906374753], [-0.02592354454100132], [0.04742971062660217], [-0.008400499820709229], [-0.3943457305431366], [-0.018946362659335136], [0.05615350976586342], [0.003290340304374695], [0.034275054931640625], [-0.03530159592628479], [0.01870621182024479], [-0.22583436965942383], [-0.1742609441280365], [0.01371308509260416], [0.012762374244630337], [-1.1344836950302124], [-0.01291991863399744], [0.01920176111161709], [-0.013579098507761955], [-0.01886378787457943], [-0.03948548436164856], [0.04317215085029602], [0.0136996665969491], [0.03094409592449665], [-0.3126491904258728], [0.060395460575819016], [0.040998391807079315], [0.08554628491401672], [-0.10696026682853699], [0.044593166559934616], [0.022330543026328087], [0.07898680865764618], [-0.1452019363641739], [0.03182922303676605], [-0.13344889879226685], [-0.018874606117606163], [-0.04845263808965683], [0.01286455150693655], [0.030143635347485542], [-0.012250881642103195], [-0.021769359707832336], [0.0381920225918293], [-0.08091853559017181], [0.02499624341726303], [-0.29892757534980774], [0.0418969988822937], [-0.0049823373556137085], [-0.05873894318938255], [0.05912620946764946], [0.05844404920935631], [-0.12353422492742538], [0.027956411242485046], [-0.0018875491805374622], [0.11521629244089127], [0.005198995117098093], [-0.20956210792064667], [0.04037413373589516], [0.03879263624548912], [0.041868239641189575], [-0.006005972623825073], [0.016759822145104408], [-0.20049747824668884], [0.011371122673153877], [0.005299260374158621], [0.09066233038902283], [0.04070236533880234], [0.020915530622005463], [0.029924331232905388], [-0.014076661318540573], [0.008250981569290161], [0.01504309568554163], [0.00758672971278429], [-0.1876668483018875], [-0.010375387035310268], [0.06041843816637993], [0.020948925986886024], [0.027439774945378304], [0.06518834084272385], [0.08011092990636826], [0.07172026485204697], [-0.02719879522919655], [-0.03079848550260067], [-0.12139608711004257], [-0.007283931132405996], [0.06125357747077942], [0.030041851103305817], [-0.02120429277420044], [0.01149662584066391], [-0.006795140914618969], [-0.0023635579273104668], [0.02815989963710308], [-0.04309144988656044], [0.19444596767425537], [0.034473761916160583], [-0.013392876833677292], [-0.03476548567414284], [0.03132059425115585], [0.066307932138443], [0.03508703038096428]], "rec.weight_hh_l0": [[0.06457511335611343, -0.00976541917771101, 0.07897450774908066, 0.09180224686861038, 0.05999290570616722, 0.008279787376523018, 0.08367626368999481, -0.0876147523522377, 0.013069653883576393, -0.008761916309595108, -0.06330451369285583, 0.07621055096387863, 0.05188710615038872, 0.009132486768066883, -0.0750727728009224, -0.007615696173161268, 0.009840661659836769, -0.008112689480185509, -0.08410977572202682, 0.06397348642349243, -0.0054681384935975075, -0.018422162160277367, -0.10828670859336853, -0.005481872707605362, -0.01018682960420847, -0.011641783639788628, -0.06691864877939224, -0.0005931185442022979, 0.000947540276683867, 0.10247516632080078, 0.007149402983486652, 0.0003080243186559528, 0.09145928174257278, 0.009130566380918026, -0.09424684196710587, -0.08729609847068787, 0.004724103957414627, -0.08339021354913712, -0.10315530002117157, 0.09311867505311966, 0.0021511197555810213, -0.10085589438676834, -0.00619348231703043, -0.07396584749221802, -0.02873634174466133, 0.032246172428131104, 0.11856682598590851, -0.008547128178179264, -0.06285223364830017, -0.025848956778645515, -0.04365576058626175, -0.07659480720758438, -0.05307574197649956, 0.005923983175307512, -0.007198811043053865, 0.09922167658805847, 0.011266147717833519, 0.010531721636652946, 0.10407716035842896, -0.024399248883128166, -0.013205422088503838, 0.004050771240144968, 0.006595672573894262, -0.004148581996560097, 0.0022095846943557262, -0.00037265493301674724, -0.08314474672079086, -0.004569462034851313, -0.09416086971759796, -0.0070153106935322285, -0.08615350723266602, -0.08600006252527237, -0.03520142287015915, -0.007467400748282671, -0.07263395190238953, -0.004694006871432066, 0.008723235689103603, 0.0887976735830307, -0.06748635321855545, 0.09020260721445084], [0.0012263418175280094, 0.014655361883342266, -0.005518924444913864, -0.012222864665091038, -0.013427678495645523, 0.018152911216020584, -0.019702540710568428, 0.014238309115171432, -0.023743383586406708, 0.008650033734738827, 0.014500017277896404, -0.007467272225767374, -0.017366472631692886, -0.06711810827255249, 0.012160615995526314, -0.007864393293857574, -0.012986894696950912, 0.007757421582937241, 0.012484005652368069, -0.01002760510891676, 0.002002166584134102, -0.0033182732295244932, 0.01326055359095335, 0.004868917632848024, 0.013510436750948429, -0.030105290934443474, 0.011499505490064621, -8.969123155111447e-05, -0.0033639336470514536, -0.018488142639398575, -0.00975374411791563, 0.008652371354401112, -0.009689842350780964, -0.00915321335196495, 0.015533381141722202, 0.011903167702257633, -0.022092413157224655, 0.012095574289560318, 0.01344835851341486, -0.006309023592621088, 0.0022569054272025824, 0.014350676909089088, 0.02003983035683632, 0.0061685689724981785, 0.013503475114703178, -0.003337011206895113, -0.018164055421948433, 0.01002852339297533, 0.013978695496916771, 0.008337044157087803, 0.00830602552741766, 0.014683909714221954, 0.01072910986840725, -0.01841648295521736, -0.011208949610590935, -0.01828756369650364, -0.006729216314852238, -0.014671677723526955, -0.018137548118829727, 0.002481715055182576, 0.020777300000190735, 0.009093507193028927, 0.013146460056304932, -0.000923982122913003, 0.0032487118151038885, 0.020709173753857613, 0.01658082939684391, 0.0055692074820399284, 0.012342930771410465, 0.0016244180733337998, 0.00964390765875578, 0.011406119912862778, 0.004275952000170946, 0.023639388382434845, 0.006519012618809938, -0.006032684817910194, 0.02658492513000965, -0.012833144515752792, 0.015740087255835533, -0.00863091740757227], [0.007026796694844961, 0.014099104329943657, -0.009198936633765697, -0.0030166110955178738, -0.005901535041630268, 0.028301311656832695, -0.0029221486765891314, 0.00733975600451231, -0.010989334434270859, 0.0070501528680324554, 0.00707622803747654, -0.005906558129936457, -0.0003642151423264295, 0.042537130415439606, 0.005354680586606264, 0.01041080430150032, -0.013446451164782047, 0.010024942457675934, 0.004919568542391062, -0.006896650418639183, 0.006764158606529236, 0.0053826686926186085, 0.008348830975592136, 0.008115056902170181, 0.01493233721703291, 0.022476769983768463, 0.008896416053175926, 0.004187111742794514, 0.0032042162492871284, -0.007181118708103895, -0.009551391936838627, -0.0031811881344765425, -0.004125766456127167, -0.01149817742407322, 0.021421968936920166, 0.003136817831546068, -0.026271982118487358, 0.00918148085474968, 0.007290264125913382, -0.00792564544826746, 0.0007486325921490788, 0.004068574868142605, 0.027799326926469803, 0.006868165452033281, -0.0007531908922828734, 0.009313443675637245, -0.006987961009144783, 0.007853285409510136, 0.007623359560966492, 0.0025246457662433386, 0.002886106027290225, 0.0033274234738200903, 0.002542592817917466, -0.0272431131452322, 0.0018620408372953534, -0.010050534270703793, -0.007017296738922596, -0.012015005573630333, -0.010193928144872189, -0.005820287391543388, 0.014564753510057926, -0.009459607303142548, -0.004527807701379061, 0.005489295814186335, -0.0019580209627747536, -0.014702193439006805, 0.0038934231270104647, 0.004429625812917948, 0.0029290327802300453, 0.005400104448199272, 0.0018298727227374911, 0.005196923855692148, -0.004001041874289513, 0.0030821380205452442, 0.007128672208636999, 0.0031561616342514753, -0.0007407481898553669, -0.005566881503909826, 0.010902538895606995, -0.007468145340681076], [0.002025921829044819, -0.0009247192647308111, -0.002719541545957327, 0.002258055843412876, 0.0018374142237007618, 0.0030937909614294767, 0.007613426074385643, -0.0019022537162527442, 0.006177225615829229, -0.0009255004697479308, -0.004165808670222759, -0.00168284447863698, 0.011196442879736423, 0.014961517415940762, -0.0009123060153797269, -0.0025584150571376085, -0.0007171027828007936, 0.0007091695442795753, -0.0015208286931738257, -0.0012736815260723233, 0.0019090891582891345, 0.014579960145056248, 6.217994086910039e-05, -0.0013611537870019674, -0.00015158485621213913, -0.029575638473033905, -8.512796739523765e-06, 0.0023988992907106876, 0.0006106760702095926, 0.005287834908813238, 0.0077227139845490456, 0.004337765276432037, 0.0008140302379615605, -0.0005809656577184796, -0.005129538010805845, -0.0018844411242753267, 0.013623216189444065, 0.00048180765588767827, -0.001272431225515902, -0.0017261941684409976, 0.0019458421738818288, -0.001961367903277278, 0.0013269687769934535, 0.0017147994367405772, -0.0046900175511837006, 0.009234706871211529, 0.0027239727787673473, 0.0011902645928785205, -0.0012868596240878105, 0.0040726433508098125, 0.0012192382710054517, -0.0036053075455129147, -0.0005798122729174793, -0.0016598636284470558, 0.0012346156872808933, 0.003555398201569915, -0.003285962389782071, -0.00030148006044328213, 0.004751446191221476, -0.011199641041457653, -0.004510700237005949, -0.0017299905885010958, -0.0014021703973412514, -0.003656732616946101, -0.002314378274604678, -0.0013446880038827658, -0.0030401202384382486, -0.00118855235632509, -0.0016277440590783954, 0.0025408235378563404, -0.0009049542131833732, -0.0008444384438917041, -0.0023556076921522617, -0.012750017456710339, 0.0019954401068389416, 0.0002906803856603801, 0.011543327011168003, 0.0014867319259792566, -0.003648987039923668, -0.0014399519423022866], [0.006294922437518835, 0.005275138188153505, -0.0034828840289264917, -0.0015886430628597736, -0.002326010959222913, 0.013740034773945808, 0.001824686536565423, 0.0029275654815137386, -0.005411158781498671, 0.0005390584119595587, 0.0022346656769514084, -0.0015089028747752309, 0.005646273959428072, 0.009605474770069122, 0.00237917248159647, 0.001829251297749579, -0.006071292329579592, 0.004310922231525183, 0.0018538726726546884, -0.00243207486346364, 0.0034696650691330433, 0.01677158661186695, 0.002747889142483473, 0.0027396632358431816, 0.006580656860023737, -0.009051773697137833, 0.0031690646428614855, 0.0001133197802118957, 0.0020001481752842665, -0.0014480975223705173, -4.360350067145191e-05, 0.003209697315469384, -0.002388398628681898, -0.005277519579976797, 0.004516978748142719, 0.0015225751558318734, -0.002055680612102151, 0.002847356488928199, 0.0029637597035616636, -0.002633612370118499, -0.0005358791095204651, 0.0013241348788142204, 0.011003769002854824, 0.0016548209823668003, -0.00213994225487113, 0.009539168328046799, -0.002371236914768815, 0.006927131675183773, 0.0031223613768815994, 0.0006662967498414218, 0.0014941886765882373, 0.000837640487588942, 0.001628761412575841, -0.010245093144476414, 0.00205980078317225, -0.002865222282707691, -0.009646661579608917, -0.007512145210057497, -0.00246356800198555, -0.008416923694312572, 0.005641135387122631, -0.001922125113196671, -0.0020795816089957952, 6.142041820567101e-05, -0.0015566052170470357, -0.005881337448954582, 0.0012205640086904168, 0.0019464907236397266, 0.0009950004750862718, 0.005228853784501553, 0.001022466691210866, 0.00226286007091403, -0.00281106517650187, -0.004268735181540251, 0.002495288383215666, 0.0018526175990700722, 0.0011146953329443932, -0.00241330754943192, 0.003059596521779895, -0.0022710508201271296], [-0.025040213018655777, 0.0021490219514817, -0.04834974929690361, -0.0595734529197216, -0.05493459478020668, 0.013909953646361828, -0.06024932488799095, 0.06199061870574951, -0.005667367950081825, 0.017367837950587273, 0.04413378983736038, -0.07550325989723206, -0.05357242375612259, 0.0024721436202526093, 0.05008154734969139, -0.003006699960678816, -0.0014715427532792091, -0.00031113618751987815, 0.05214865878224373, -0.046492885798215866, -0.002867725444957614, -0.012475267052650452, 0.05088789016008377, -0.0005013998597860336, 0.0009899974102154374, 0.006807824596762657, 0.04630232974886894, -0.00521297799423337, -0.002886956324800849, -0.05295338109135628, 0.0014776188181713223, 0.002102835802361369, -0.05515429750084877, 0.00020310902618803084, 0.060078080743551254, 0.0586121566593647, -0.030855970457196236, 0.06321926414966583, 0.04410040006041527, -0.06098201870918274, -0.0020803685765713453, 0.06670580059289932, 0.03528956323862076, 0.06211453303694725, 0.021618463099002838, -0.017687493935227394, -0.054727014154195786, 0.0013687709579244256, 0.04168960452079773, 0.019813690334558487, 0.030935997143387794, 0.05132348835468292, 0.0451364628970623, -0.022335274145007133, -0.0010468621039763093, -0.0745057612657547, -0.002528283279389143, -0.0024687948171049356, -0.056074682623147964, 0.007472581695765257, 0.004316557664424181, 0.007003710139542818, 0.004182185512036085, -0.0005466146976687014, 0.0017520488472655416, 0.008023715578019619, 0.06124480441212654, -6.66596315568313e-05, 0.06548105925321579, 0.00010382109030615538, 0.04578094929456711, 0.04659400135278702, 0.02328607626259327, 0.008039779961109161, 0.06544497609138489, -0.0023645549081265926, 0.004201793577522039, -0.06424286216497421, 0.04869546741247177, -0.0641772523522377], [-0.01258879154920578, -0.010379349812865257, -0.00337397214025259, 0.009882434271275997, 0.00829561147838831, 0.010857420973479748, 0.017484698444604874, -0.008386216126382351, 0.014538023620843887, 0.007917158305644989, -0.014940622262656689, -0.004124161787331104, 0.02366955764591694, 0.0038914328906685114, -0.006060794927179813, -0.00972518790513277, 0.00811828300356865, -0.005499603226780891, -0.006096431985497475, -0.0013826271751895547, -0.004080167971551418, -0.0019542749505490065, -0.0026755735743790865, -0.008419454097747803, -0.014928112737834454, -0.050534721463918686, -0.003649562830105424, 0.008076824247837067, 0.0007404104107990861, 0.014363902620971203, 0.014957849867641926, 0.005828907247632742, 0.0069233691319823265, 0.01034540869295597, -0.013800536282360554, -0.007968427613377571, 0.004040857776999474, -0.0014327705139294267, -0.007806195877492428, -0.0018118348671123385, 0.008147969841957092, -0.006950215436518192, 0.007755504455417395, 0.004826951771974564, -0.010368586517870426, 0.01590372808277607, 0.008082389831542969, -0.012176941148936749, -0.006081101018935442, 0.01719609461724758, 0.002565382979810238, -0.011171123012900352, -0.0046513983979821205, -0.016831612214446068, -0.000837350613437593, 0.010368283838033676, 0.008867614902555943, 0.01400501187890768, 0.014276337809860706, -0.024421527981758118, -0.010077006183564663, -0.0011386468540877104, -0.0014646949712187052, -0.00914519838988781, -0.003298485651612282, -0.0004362800973467529, -0.009772096760571003, -0.007932380773127079, -0.005989507306367159, -0.0029301405884325504, -0.005155217368155718, -0.006278167478740215, -0.004583557136356831, -0.04648991674184799, 0.002928944071754813, -0.002927157562226057, 0.009402425959706306, 0.008409975096583366, -0.01226139161735773, -0.0022622772958129644], [0.007267673034220934, 0.00550844008103013, -0.003959314897656441, 0.00019368490029592067, -0.001014363020658493, 0.012093397788703442, 0.006982923485338688, 0.0014704129425808787, -0.0022695385850965977, 0.0010522876400500536, -0.00038309351657517254, -0.002213085535913706, 0.013494420796632767, 0.011184298433363438, 0.001286269980482757, 0.0019820150919258595, -0.006336538586765528, 0.005187197122722864, 0.0005597430863417685, -0.0026952323969453573, 0.004241714719682932, 0.017260389402508736, 0.00237734685651958, 0.003239863784983754, 0.006217139773070812, -0.008267281576991081, 0.002627022797241807, 0.0032710502855479717, 0.004186260048300028, 0.001580538577400148, 0.002628851914778352, 0.0034499531611800194, -0.0012350121978670359, -0.005426810588687658, 0.002896144287660718, -2.415063136140816e-05, -0.00044824040378443897, 0.002533538732677698, 0.0016803864855319262, -0.002409102628007531, 0.00038530258461833, 3.211215243936749e-06, 0.010173056274652481, 0.0028026667423546314, -0.006043125409632921, 0.012135186232626438, -0.0007788055809214711, 0.007319158408790827, 0.0021948928479105234, 0.0025477688759565353, 0.0015234817983582616, -0.001573478220961988, 0.0007651963387615979, -0.009226260706782341, 0.0033594882115721703, -0.0008619230939075351, -0.010857053101062775, -0.0074383863247931, 0.0001685984607320279, -0.012350348755717278, 0.0036356570199131966, -0.003446761518716812, -0.00336759933270514, 0.00040808040648698807, -0.002526805968955159, -0.004487910773605108, -0.0010139510268345475, 0.002149773295968771, -0.00038893288001418114, 0.0067981393076479435, -0.00013846109504811466, 0.0009894362883642316, -0.005898983683437109, -0.010920955799520016, 0.0026816020254045725, 0.0023321453481912613, 0.0026207261253148317, -0.000976843643002212, 0.001003777259029448, -0.002562860492616892], [0.008862358517944813, 0.024217350408434868, -0.010385308414697647, -0.004749813117086887, -0.00856703519821167, -0.03189081698656082, -0.001038860995322466, 0.00762590067461133, -0.0052063982002437115, 0.015775229781866074, 0.0020190521609038115, -0.013734609819948673, 0.007197021506726742, -0.0397324375808239, 0.006947487127035856, 0.023582832887768745, -0.02212243527173996, 0.021824387833476067, 0.008352012373507023, -0.013392450287938118, 0.010120493359863758, 0.006816372275352478, 0.011636445298790932, 0.017729897052049637, 0.015185474418103695, 0.04209372401237488, 0.011395194567739964, 0.016897127032279968, 0.007783558219671249, -0.005031986627727747, -0.0282528605312109, -0.0035982304252684116, -0.003829680848866701, -0.015848124399781227, -0.00577158760279417, 0.0050964318215847015, 0.023629924282431602, 0.011507721617817879, 0.007348683197051287, -0.006070402916520834, 0.013661803677678108, 0.008291304111480713, -0.022006286308169365, 0.016297461465001106, 0.0010854178108274937, 0.028912050649523735, -0.011232047341763973, 0.011080768890678883, 0.012133292853832245, 0.02554822713136673, 0.011515075340867043, 0.00398018304258585, 0.007671420928090811, 0.01715397834777832, -0.006908929441124201, -0.008177914656698704, -0.013988710939884186, -0.015579824335873127, -0.005374280270189047, -0.03358297422528267, 0.01075207069516182, -0.016170160844922066, 0.003238649107515812, 0.01393115520477295, -0.00310945394448936, -0.025914018973708153, 0.005941271781921387, 0.009727458469569683, 0.006255440879613161, 0.013380427844822407, 0.004912765696644783, 0.004810725338757038, -0.01037619449198246, 0.01592426560819149, 0.009529885835945606, -0.0027749359142035246, -0.024061203002929688, -0.005623091012239456, 0.004016314633190632, -0.012779518030583858], [0.033865153789520264, 0.01472385786473751, 0.055160973221063614, 0.05082442983984947, 0.04177398234605789, 0.045806076377630234, 0.07281487435102463, -0.055793218314647675, -0.006769788917154074, -0.02300001122057438, -0.050998155027627945, 0.06580042093992233, 0.044387347996234894, 0.06780120730400085, -0.04962684586644173, 0.031086741015315056, -0.015900440514087677, 0.015873590484261513, -0.06673287600278854, 0.043938327580690384, 0.013914699666202068, 0.01304730772972107, -0.07018914818763733, 0.015781033784151077, 0.014005661010742188, 0.03224983066320419, -0.04809688404202461, 0.01872590184211731, 0.00937727652490139, 0.060485683381557465, 0.002436028327792883, -0.012312487699091434, 0.042821142822504044, -0.016072794795036316, -0.05244075506925583, -0.06903593987226486, -0.014930400997400284, -0.04508919641375542, -0.036876242607831955, 0.05082643777132034, -0.005186496302485466, -0.06817713379859924, 0.04890541732311249, -0.0560394711792469, -0.01131739653646946, 0.02402893267571926, 0.06918702274560928, 0.009256386198103428, -0.046558793634176254, -0.011369064450263977, -0.03211960196495056, -0.0583939291536808, -0.036086585372686386, -0.05846444517374039, 0.009690371342003345, 0.06977231055498123, -0.0065231602638959885, -0.011494367383420467, 0.07308438420295715, -0.023439154028892517, 0.01589099131524563, -0.04517991840839386, -0.022216131910681725, 0.013314022682607174, -0.005011442583054304, -0.02785293385386467, -0.08180934935808182, 0.00978147704154253, -0.06583753228187561, 0.013407135382294655, -0.04348108544945717, -0.05409714952111244, -0.019351784139871597, -0.019214434549212456, -0.048886243253946304, 0.012970557436347008, 0.06670348346233368, 0.05343688651919365, -0.054444994777441025, 0.06447022408246994], [0.005564054008573294, 0.005393658298999071, -0.006578796077519655, 0.005438843742012978, 0.002419663593173027, 0.015614046715199947, 0.018119430169463158, -0.002732046414166689, 0.009021483361721039, 0.007912036031484604, -0.008394584991037846, -0.0061950585804879665, 0.02547147497534752, 0.010473121888935566, -0.0015929894289001822, 0.006364959292113781, -0.005883210338652134, 0.006729239132255316, -0.0021425304003059864, -0.00485521974042058, 0.005899480078369379, 0.0043204971589148045, 0.0021804471034556627, 0.005129605997353792, 0.0038095107302069664, -0.004913610871881247, 0.0022093597799539566, 0.014632469974458218, 0.006295011378824711, 0.010090265423059464, 0.002526742173358798, -0.0021419976837933064, 0.0024070737417787313, -0.004589854273945093, -0.00392807275056839, -0.004288693889975548, -0.005368104204535484, 0.0030074920505285263, -0.0019305986352264881, -0.0032356397714465857, 0.007191307842731476, -0.002834807615727186, 0.01279866136610508, 0.008161489851772785, -0.011840981431305408, 0.019143661484122276, 0.003221095073968172, 0.004271158017218113, 2.3709384549874812e-05, 0.012117335572838783, 0.0033017906825989485, -0.007856400683522224, -0.001209857757203281, -0.012523272074759007, 0.0033981269225478172, 0.004880713298916817, -0.0051638344302773476, -0.004230065271258354, 0.008156511932611465, -0.022462278604507446, -0.002913596574217081, -0.010298613458871841, -0.007512792944908142, 0.0034258756786584854, -0.0051336102187633514, -0.01023248303681612, -0.007115130312740803, 0.0019220325630158186, -0.003297162242233753, 0.006731867790222168, -0.002618140075355768, -0.0023444280959665775, -0.008513360284268856, -0.02445814572274685, 0.004804646596312523, 0.0035877088084816933, -0.002592926612123847, 0.0032252275850623846, -0.005252142436802387, -0.005296293646097183], [0.006091466639190912, 0.009282313287258148, -0.0075216894038021564, -0.001957955537363887, -0.004216550849378109, 0.02102721482515335, -0.0015537129947915673, 0.005306454841047525, -0.006604558788239956, 0.007251907140016556, 0.005038718227297068, -0.004807062912732363, 0.0005644656484946609, 0.04099925607442856, 0.003825846826657653, 0.010923636145889759, -0.009192822501063347, 0.008001263253390789, 0.0035420714411884546, -0.004957115743309259, 0.00597468763589859, -0.0023040608502924442, 0.0055275266058743, 0.007000896148383617, 0.009646310470998287, 0.01636086404323578, 0.006384190637618303, 0.006730346474796534, 0.003218734869733453, -0.0050168223679065704, -0.0051994938403368, -0.0036264811642467976, -0.0029776638839393854, -0.008486120961606503, 0.014625771902501583, 0.0020657526329159737, -0.0163129772990942, 0.006315944716334343, 0.005122822243720293, -0.005864814389497042, 0.0014149161288514733, 0.0025997234042733908, 0.018638351932168007, 0.006364675238728523, -0.001232527894899249, 0.009782547131180763, -0.004805708769708872, 0.006169810425490141, 0.005557449068874121, 0.0029684940818697214, 0.00217672367580235, 0.001993796555325389, 0.0018199221231043339, -0.018909089267253876, 0.002152472734451294, -0.0071433428674936295, -0.005303313490003347, -0.008151590824127197, -0.007192328106611967, -0.007050313521176577, 0.008884324692189693, -0.011784492991864681, -0.005307105369865894, 0.00498542096465826, -0.0020921628456562757, -0.016271766275167465, 0.002260684734210372, 0.0035323314368724823, 0.0017671212553977966, 0.004892019089311361, 0.001123717986047268, 0.0036194336134940386, -0.004169864114373922, 0.0006505760247819126, 0.005531038623303175, 0.0030961264856159687, 0.007011105306446552, -0.0039222827181220055, 0.007838291116058826, -0.005587682127952576], [-0.022332847118377686, -0.030134569853544235, 0.012447984889149666, 0.02243920788168907, 0.01959517039358616, -0.004616843070834875, 0.035792265087366104, -0.028497938066720963, 0.03167951479554176, 0.0035814729053527117, -0.03539184853434563, 0.009698781184852123, 0.033031195402145386, 0.0068426779471337795, -0.021443869918584824, -0.018945874646306038, 0.027295419946312904, -0.02377992868423462, -0.020670343190431595, 0.013985984027385712, -0.017066555097699165, -0.01930207572877407, -0.02238505519926548, -0.025338631123304367, -0.03333218768239021, -0.04946969822049141, -0.01581500470638275, 0.0028963962104171515, -0.003949902020394802, 0.04058383032679558, 0.03208212926983833, 0.008141697384417057, 0.01753588393330574, 0.028274305164813995, -0.05192742496728897, -0.023135434836149216, 0.015864241868257523, -0.01657102257013321, -0.024848487228155136, 0.02004810981452465, 0.0050187804736196995, -0.02199598215520382, -0.00742156058549881, -0.012587113305926323, -0.016193365678191185, 0.008943903259932995, 0.02879144810140133, -0.025929277762770653, -0.01990303210914135, 0.012645458802580833, -0.004164221230894327, -0.028199924156069756, -0.017739951610565186, -0.0063264393247663975, -0.002257031388580799, 0.03600121662020683, 0.0214955136179924, 0.031764522194862366, 0.041613295674324036, -0.020396625623106956, -0.026960408315062523, 0.0012946483911946416, 0.0007242652936838567, -0.020399626344442368, 0.0011035371571779251, 0.001341179246082902, -0.03321855515241623, -0.01991264708340168, -0.0249408520758152, -0.018040115013718605, -0.01273745484650135, -0.020970545709133148, -0.0013453668216243386, -0.07136088609695435, -0.016404416412115097, -0.006784286815673113, -0.0015921045560389757, 0.02248375304043293, -0.039238445460796356, 0.009907686151564121], [-0.036242492496967316, -0.04021250456571579, -0.07184860110282898, -0.06578715145587921, -0.0359511524438858, -0.1811525821685791, -0.042306508868932724, 0.049173519015312195, 0.10393069684505463, -0.07591451704502106, 0.03503905609250069, -0.08639989048242569, -0.028694024309515953, -0.02963445335626602, 0.04935264214873314, -0.019224952906370163, 0.03789355605840683, -0.025846725329756737, 0.0534408800303936, -0.06365607678890228, -0.015940675511956215, 0.04504704475402832, 0.09487386792898178, -0.017995484173297882, -0.028540613129734993, -0.053071070462465286, 0.05378580465912819, -0.010334838181734085, 0.021011659875512123, -0.062095385044813156, 0.03746494650840759, 0.008503778837621212, -0.06750670075416565, 0.018490692600607872, 0.05088869854807854, 0.07472057640552521, 0.2051422894001007, 0.07508553564548492, 0.07048877328634262, -0.10594286769628525, -0.010331330820918083, 0.07167614251375198, -0.17711299657821655, 0.08306296169757843, -0.015674656257033348, -0.007906598970293999, -0.056924622505903244, -0.003994351252913475, 0.053620073944330215, 0.01381171029061079, 0.01912599802017212, 0.04295913130044937, 0.053010620176792145, 0.09539975970983505, 0.03551885485649109, -0.048801783472299576, 0.0044281939044594765, 0.004870658274739981, -0.045447640120983124, 0.0031434157863259315, -0.09958324581384659, 0.005627231672406197, -0.02961253747344017, -0.01618199422955513, -0.0008846741984598339, -0.07008624821901321, 0.0750567838549614, -0.0041893245652318, 0.06793880462646484, -0.0019416332943364978, 0.060643620789051056, 0.0708075612783432, 0.0166446715593338, -0.10018060356378555, 0.08965485543012619, 0.0034282554406672716, -0.1971433162689209, -0.08559039980173111, 0.03673594072461128, -0.09496591240167618], [0.0053693437948822975, 0.005688952282071114, -0.0035291642416268587, -0.0012851646170020103, -0.002171427011489868, 0.009677264839410782, 0.001730778836645186, 0.0027088834904134274, -0.004582441411912441, 0.0012668098788708448, 0.0021103655453771353, -0.0018147964728996158, 0.004744537174701691, 0.01129178423434496, 0.0021680037025362253, 0.0034678783267736435, -0.006248455960303545, 0.004760454874485731, 0.0017832774901762605, -0.0025081054773181677, 0.0039028136525303125, 0.015183752402663231, 0.00263055507093668, 0.0034949572291225195, 0.006820175796747208, -0.004430512897670269, 0.003129557939246297, 0.00213887938298285, 0.002046635840088129, -0.001343787182122469, -0.0015504744369536638, 0.001008294173516333, -0.002016669837757945, -0.00558044295758009, 0.004296393133699894, 0.0012371654156595469, -0.00039457506500184536, 0.0029080219101160765, 0.0027209275867789984, -0.0025786333717405796, 0.00043676127097569406, 0.001242848695255816, 0.008271659724414349, 0.002062570070847869, -0.0017837279010564089, 0.008960558101534843, -0.0022405264899134636, 0.00637811841443181, 0.003037333721294999, 0.0011624161852523685, 0.001532011548988521, 0.0006774378125555813, 0.001436946215108037, -0.007574134506285191, 0.0019188832957297564, -0.0028331002686172724, -0.007793808355927467, -0.007316709961742163, -0.0024705352261662483, -0.008062338456511497, 0.005388854071497917, -0.003739012172445655, -0.0032617871183902025, 0.0013000436592847109, -0.001786359352990985, -0.007758602499961853, 0.000941371254157275, 0.0021560718305408955, 0.0008764661615714431, 0.004658679943531752, 0.0009103386546485126, 0.001991492696106434, -0.002581421285867691, -0.005637855269014835, 0.002553831320255995, 0.0022702678106725216, -0.0012780323158949614, -0.002136328024789691, 0.0031440160237252712, -0.0024559656158089638], [-0.01127206813544035, -0.005557493772357702, -0.006409564055502415, 0.00367145799100399, 0.0009619554621167481, 0.01613716036081314, 0.015001262538135052, -0.0038352340925484896, 0.024111490696668625, 0.01836620829999447, -0.010619732551276684, -0.009264270775020123, 0.012439858168363571, -0.0187399759888649, 0.00044930516742169857, -0.005016940180212259, 0.003132566576823592, -0.0010120804654434323, 0.00020810976275242865, -0.005908507388085127, 0.004727594554424286, -0.0493171289563179, 0.0037144701927900314, -0.005095208529382944, -0.004043465945869684, -0.08927279710769653, 0.0030415691435337067, 0.031141608953475952, -0.010897012427449226, 0.012636316008865833, 0.013273755088448524, -0.0015234631719067693, 0.0005941522540524602, 0.00195901095867157, -0.01167460810393095, -0.0026858241762965918, 0.015610214322805405, 0.004401673562824726, -0.0015601717168465257, -0.007083251606673002, 0.017248734831809998, -0.0004013809375464916, 0.00806341227144003, 0.010881262831389904, 0.0015605592634528875, 0.005063776392489672, 0.0037906276993453503, -0.007543569430708885, -0.0006491635576821864, 0.018574941903352737, 0.00914042443037033, -0.006799981463700533, 0.0027118814177811146, -0.0071434699930250645, -0.010785459540784359, 0.007552927825599909, 0.017031949013471603, 0.006839035544544458, 0.011860363185405731, -0.010593639686703682, -0.016191858798265457, -0.0200596172362566, -0.002055112039670348, -0.005163671914488077, -0.006061888765543699, -0.014708993025124073, -0.0054795206524431705, -0.0037455656565725803, 0.0010112614836543798, -0.0030215117149055004, 0.0030245089437812567, 0.0006908460636623204, 0.007884383201599121, -0.05290248245000839, 0.007687384728342295, -0.003620510222390294, 0.04653012380003929, 0.0018345221178606153, -0.008686800487339497, -0.00690523162484169], [0.0005330663407221437, 0.012496200390160084, -0.0027675938326865435, -0.006342532578855753, -0.00764469476416707, 0.008443969301879406, -0.011702165007591248, 0.008003681898117065, -0.016967136412858963, 0.004243875853717327, 0.008267357014119625, -0.004472275264561176, -0.010104344226419926, -0.05249743536114693, 0.006516353692859411, -0.0029689553193747997, -0.010691353119909763, 0.006647942587733269, 0.006520756054669619, -0.005052641499787569, 0.0006910775555297732, -0.0011623287573456764, 0.008013696409761906, 0.004742876160889864, 0.010814877226948738, -0.015046685002744198, 0.006380016915500164, -0.0018946095369756222, -0.0015018710400909185, -0.01104672159999609, -0.008888219483196735, 0.0046865614131093025, -0.0054529886692762375, -0.007473668083548546, 0.01023039873689413, 0.006660267245024443, -0.02131734974682331, 0.006907559931278229, 0.008096872828900814, -0.004011943005025387, 0.00015404871373903006, 0.007960289716720581, 0.012022792361676693, 0.0030436264351010323, 0.007476166356354952, -0.0024037857074290514, -0.010712256655097008, 0.0077474890276789665, 0.007956093177199364, 0.003321148920804262, 0.0036312993615865707, 0.00829915888607502, 0.005192704498767853, -0.012611299753189087, -0.006498915608972311, -0.011610583402216434, -0.005940230563282967, -0.011815843172371387, -0.011543460190296173, 0.0023978755343705416, 0.014766767621040344, 0.007111715152859688, 0.008612454868853092, 0.0007516082841902971, 0.002589734736829996, 0.015453075990080833, 0.009724161587655544, 0.004305693786591291, 0.006793656386435032, 0.001179370330646634, 0.004867407493293285, 0.006292133592069149, 0.0024277421180158854, 0.019491203129291534, 0.0029611135832965374, -0.003802557708695531, 0.012165072374045849, -0.007321132346987724, 0.009789641946554184, -0.004317323677241802], [-0.0024468430783599615, 0.002659793943166733, -0.003705438692122698, -0.006480928510427475, -0.006697740405797958, 0.001518663251772523, -0.010547657497227192, 0.0062985713593661785, -0.006928675342351198, 0.00620487192645669, 0.005765772424638271, -0.005253879353404045, -0.010737467557191849, -0.035713400691747665, 0.006295622326433659, -0.006997277028858662, -0.002316791797056794, 0.0009973073611035943, 0.006879059132188559, -0.006122144870460033, 0.0006652647280134261, -0.010091251693665981, 0.006943684071302414, -0.00014589155034627765, 0.0032716302666813135, -0.03098747506737709, 0.0059877317398786545, 0.0015949077205732465, -0.003250767244026065, -0.007953415624797344, -0.0023958743549883366, 0.005490019451826811, -0.004992079455405474, -0.0017642659367993474, 0.0022785605397075415, 0.0065107187256217, 0.001005401136353612, 0.006610623095184565, 0.006371574476361275, -0.004369902890175581, 0.0022530886344611645, 0.008018664084374905, 0.0024916112888604403, 0.00440409779548645, 0.009233149699866772, -0.0047032819129526615, -0.008595038205385208, 0.0026882702950388193, 0.006514367647469044, 0.0074784113094210625, 0.005826097447425127, 0.007771859876811504, 0.006318985018879175, -0.0009565869113430381, -0.008294862695038319, -0.00728688994422555, 0.00017429438594263047, -0.003451795317232609, -0.006765047088265419, 0.0026562088169157505, 0.005738400854170322, 0.003911638166755438, 0.007634563837200403, -0.0023292209953069687, 0.0020761049818247557, 0.012373575009405613, 0.008694437332451344, 0.001668785815127194, 0.007323965430259705, -0.000583636574447155, 0.006000800058245659, 0.0062180389650166035, 0.0037717586383223534, 0.012891547754406929, 0.004494606517255306, -0.004175630863755941, 0.02464492991566658, -0.006473783869296312, 0.0055037252604961395, -0.0056339167058467865], [0.005772258620709181, 0.003280230797827244, -0.003840527031570673, -0.001494725700467825, -0.002108672633767128, 0.0102219358086586, 0.002029476687312126, 0.002585261594504118, -0.0034719568211585283, 0.00012876931577920914, 0.00195825332775712, -0.0018450465286150575, 0.0055990139953792095, 0.028235895559191704, 0.002244331408292055, 0.0008740551420487463, -0.004687138367444277, 0.003259700257331133, 0.0017587863840162754, -0.002498044865205884, 0.0036135679110884666, 0.01937049813568592, 0.002575281774625182, 0.0013487444957718253, 0.005151819437742233, -0.011882608756422997, 0.003059942740947008, -0.0003074430569540709, 0.0014254895504564047, -0.000870442483574152, 0.002658593002706766, 0.004228806123137474, -0.0023313157726079226, -0.004465008620172739, 0.003628508187830448, 0.0014595480170100927, 0.009656878188252449, 0.002814335050061345, 0.0027471452485769987, -0.0031049440149217844, -8.694368443684652e-05, 0.001056046225130558, 0.007375948131084442, 0.0019391687819734216, -0.001915310276672244, 0.008532846346497536, -0.001581826014444232, 0.005454700440168381, 0.002664033556357026, 0.0007333541288971901, 0.001571047818288207, 0.000651369511615485, 0.001577117945998907, -0.005309765692800283, 0.0015172844287008047, -0.002097652992233634, -0.00814113114029169, -0.005468276329338551, -0.001878103008493781, -0.007638493552803993, 0.003699513617902994, -0.0026369253173470497, -0.0015582471387460828, -0.0014923178823664784, -0.002032357268035412, -0.005533514078706503, 0.0009264964028261602, 0.001087123528122902, 0.000976286013610661, 0.004717966075986624, 0.0011288499226793647, 0.0023055127821862698, -0.002736348193138838, -0.0028170158620923758, 0.0029233088716864586, 0.0015732439933344722, 0.010379388928413391, -0.0023243988398462534, 0.0025542278308421373, -0.0024674907326698303], [0.006304642651230097, 0.008447745814919472, -0.005570985842496157, -0.0031528263352811337, -0.004714304115623236, 0.015983175486326218, -0.003130516968667507, 0.005982132162898779, -0.011563346721231937, 0.0012040094006806612, 0.0063878619112074375, -0.002423581900075078, -0.00035288830986246467, 0.03683517128229141, 0.00438038120046258, 0.004669140093028545, -0.009120478294789791, 0.006234005559235811, 0.0038980853278189898, -0.0037999297492206097, 0.004704168997704983, 0.0123900780454278, 0.005006206221878529, 0.004473308566957712, 0.011234890669584274, -0.0009918329305946827, 0.005827555898576975, 9.899366705212742e-05, 0.002232474973425269, -0.006240942981094122, -0.005386137403547764, 0.001421380671672523, -0.0038787454832345247, -0.0084617231041193, 0.013636712916195393, 0.0030702976509928703, -0.005063887219876051, 0.005369535647332668, 0.005818628706037998, -0.0049381316639482975, -0.0011417679488658905, 0.0031414679251611233, 0.01451127789914608, 0.00253149401396513, -0.0004922397201880813, 0.008025323040783405, -0.005191027652472258, 0.008260770700871944, 0.0056760977022349834, 8.970783528639004e-05, 0.0017591493669897318, 0.0032683773897588253, 0.0023299732711166143, -0.013442380353808403, 0.0019279856933280826, -0.007479403633624315, -0.00927971675992012, -0.010773949325084686, -0.008149512112140656, -0.004696211777627468, 0.011793780140578747, -0.00469621829688549, -0.002257827902212739, 0.001531046349555254, -0.0011247039074078202, -0.010726367123425007, 0.0036593356635421515, 0.0027014969382435083, 0.002441253513097763, 0.004579349886626005, 0.0017666699131950736, 0.004372097551822662, -0.003265181789174676, 0.003963754512369633, 0.004152669571340084, 0.002077435376122594, 0.0054941666312515736, -0.004792358260601759, 0.008369304239749908, -0.003969494253396988], [-9.732880425872281e-05, 0.0027718646451830864, -0.0021893258672207594, -0.00044646149035543203, -0.0011704069329425693, 0.00305202417075634, -0.0006662907544523478, 0.001228286768309772, -0.0013762923190370202, 0.0062662456184625626, 0.00046884422772563994, -0.0022762976586818695, -4.3600517528830096e-05, 0.004683689679950476, 0.0010593617334961891, 0.003805677406489849, -0.002448944142088294, 0.0024017728865146637, 0.0012525500496849418, -0.002010530326515436, 0.001814346294850111, -0.007031865883618593, 0.001987564144656062, 0.0022128925193101168, 0.0021747283171862364, 0.009266325272619724, 0.001968448283150792, 0.0027550230734050274, 0.0004686205938924104, -0.0009690365404821932, -0.0025422333274036646, -0.001937344903126359, -0.0004953174502588809, -0.002126260893419385, 0.0010284376330673695, 0.000589597737416625, -0.0034396168775856495, 0.0022315613459795713, 0.0012444296153262258, -0.0015778273809701204, 0.0009012160007841885, 0.0011414327891543508, 0.0032222033478319645, 0.0032292401883751154, -3.893101165886037e-05, 0.0018839022377505898, -0.0015746374847367406, 0.000588989001698792, 0.0016245556762441993, 0.0036398463416844606, 0.0012833710061386228, 0.0006093370029702783, 0.0007541488157585263, -0.0032026604749262333, -0.00010171977191930637, -0.0016143498942255974, 0.00039488961920142174, -0.0012262894306331873, -0.0012421667343005538, -0.0029706337954849005, 0.002060903003439307, -0.00394092733040452, -0.0011353451991453767, 0.001922055846080184, -0.00040480721509084105, -0.0024276948533952236, 0.0008062638225965202, 0.0010801228927448392, 0.0009025356266647577, 0.0006459870492108166, 0.0005822147359140217, 0.0010161695536226034, -0.00046774226939305663, 0.0077185845002532005, 0.0018749141599982977, 0.00045180265442468226, 0.0019299188861623406, -0.0010191758628934622, 0.0012456087861210108, -0.0021249938290566206], [0.04338221251964569, 0.0356610044836998, 0.04331226274371147, 0.03145265579223633, 0.035885702818632126, 0.036063969135284424, 0.08638149499893188, -0.058837395161390305, -0.010675549507141113, 0.04446221515536308, -0.043301668018102646, 0.0668770894408226, 0.03276257589459419, 0.09258910268545151, -0.05982140824198723, 0.07014993578195572, -0.03275303915143013, 0.03719957917928696, -0.041214894503355026, 0.05903516337275505, 0.029451774433255196, 0.057689473032951355, -0.060404688119888306, 0.03492751717567444, 0.031077273190021515, 0.09548123180866241, -0.024153167381882668, 0.04905287176370621, 0.0036240641493350267, 0.07922486215829849, -0.01849350892007351, -0.056232769042253494, 0.0356924869120121, -0.03464431315660477, -0.0549585334956646, -0.052727341651916504, -0.08113298565149307, -0.0477011613547802, -0.027472293004393578, 0.07560455054044724, 0.01142729353159666, -0.07014018297195435, 0.029232287779450417, -0.034115009009838104, -0.0012674203608185053, 0.035576075315475464, 0.06893377751111984, 0.013810256496071815, -0.023237260058522224, 0.004471508786082268, -0.03270868584513664, -0.05131847411394119, -0.035279545933008194, -0.06120658293366432, 0.0024045859463512897, 0.0698847845196724, 0.007378472480922937, -0.023268816992640495, 0.05562018230557442, -0.03735709562897682, 0.027539009228348732, -0.07806102186441422, -0.038796406239271164, 0.04388076066970825, -0.01609722524881363, -0.02723907306790352, -0.06692397594451904, 0.028582392260432243, -0.08175268024206161, 0.012597543187439442, -0.033323097974061966, -0.04836076870560646, -0.0194795373827219, -0.026003653183579445, -0.04753706604242325, 0.02451310120522976, 0.05584634467959404, 0.04301188513636589, -0.05626390129327774, 0.05939357727766037], [0.009193306788802147, 0.009500518441200256, -0.0052283648401498795, -0.003012950997799635, -0.004409396089613438, 0.015931861475110054, -0.0019262218847870827, 0.0056463549844920635, -0.009883948601782322, 0.0003271931200288236, 0.006104639265686274, -0.001768353977240622, 0.001484575099311769, 0.015775645151734352, 0.00417360058054328, 0.005435365717858076, -0.009900602512061596, 0.007344438228756189, 0.003539104014635086, -0.00329471193253994, 0.005188905633985996, 0.01634581945836544, 0.004442546982318163, 0.006167036946862936, 0.011428548954427242, -0.0030474779196083546, 0.00539723364636302, 0.00011877246288349852, 0.0036716547328978777, -0.005470122676342726, -0.006362506654113531, 0.0015520285815000534, -0.003972913604229689, -0.009170987643301487, 0.011714047752320766, 0.0028912776615470648, -0.01155860349535942, 0.004731546621769667, 0.005496313329786062, -0.0044054207392036915, -0.0017664910992607474, 0.0027213057037442923, 0.013855930417776108, 0.0018687526462599635, -0.0013541325461119413, 0.012055748142302036, -0.004766474012285471, 0.0096927834674716, 0.005435490980744362, -0.0010107759153470397, 0.0013881210470572114, 0.0028818894643336535, 0.002192337764427066, -0.013774831779301167, 0.002901756204664707, -0.0066852327436208725, -0.011618527583777905, -0.011789142154157162, -0.007159973960369825, -0.008057033643126488, 0.010369803756475449, -0.004405664745718241, -0.002578297397121787, 0.0027808991726487875, -0.0013413322158157825, -0.010795407928526402, 0.003145385766401887, 0.0036248075775802135, 0.002006910741329193, 0.006376982666552067, 0.001467738300561905, 0.00406979862600565, -0.00457776477560401, -0.00024431271594949067, 0.0036047082394361496, 0.0027874510269612074, 0.0025877016596496105, -0.004524803254753351, 0.0076217204332351685, -0.003321412019431591], [-0.004278243985027075, -0.006704734172672033, 5.364406752050854e-05, -0.00339447776786983, -0.00283890706487, -0.012036751955747604, -0.007529249414801598, 0.0009429105557501316, -0.0014745345106348395, 0.0007906054961495101, -0.0002207684301538393, -0.0004817743320018053, -0.009452401660382748, -0.03986656665802002, 0.0027016077656298876, -0.020527929067611694, 0.005460578948259354, -0.006675258744508028, 0.003293371293693781, -0.003472659271210432, -0.002569540636613965, -0.010939696803689003, 0.0011472617043182254, -0.009037615731358528, -0.003534026676788926, -0.05980909243226051, 0.0017055231146514416, 0.0027279348578304052, -0.009489960968494415, -0.0032442593947052956, 0.005329288076609373, 0.01345106028020382, -0.002402480226010084, 0.005027040373533964, -0.010422018356621265, 0.003955313004553318, 0.024913666769862175, 0.0019249598262831569, 0.0010842602932825685, 0.0004450468113645911, 0.005329879932105541, 0.004355969373136759, -0.00789045449346304, -0.0004707967455033213, 0.012256795540452003, -0.004488083068281412, -0.003357943845912814, -0.0021862611174583435, 0.004065005108714104, 0.00572560541331768, 0.004556678701192141, 0.002580835949629545, 0.004178275354206562, 0.008003748022019863, -0.016531385481357574, -0.0008356499020010233, 0.006449386943131685, 0.0033503181766718626, -0.0012882641749456525, 0.003973197191953659, 0.0005067759193480015, 0.00880448054522276, 0.014325869269669056, -0.011767646297812462, 0.0029766918160021305, 0.019165553152561188, 0.0021390088368207216, -0.0033748317509889603, 0.004778440576046705, -0.004916995298117399, 0.004361137747764587, 0.0022688047029078007, 0.007409705780446529, 0.005503057036548853, 0.0002086660679196939, -0.009270468726754189, 0.04463566839694977, -0.0015376993687823415, -0.0006991533446125686, -5.5220210924744606e-05], [0.0032611184287816286, 0.014697115868330002, -0.003970916848629713, -0.003998301457613707, -0.005789431743323803, 0.01648254506289959, -0.007226007990539074, 0.006773607339709997, -0.017180917784571648, 0.0069841002114117146, 0.00703465286642313, -0.0033449248876422644, -0.00488615408539772, -0.009483786299824715, 0.0048658461309969425, 0.005457587074488401, -0.013400363735854626, 0.008663421496748924, 0.004900722298771143, -0.004451918415725231, 0.0034809706266969442, 0.003590124659240246, 0.006155389826744795, 0.0065999021753668785, 0.013447466306388378, 0.01205457467585802, 0.006074488628655672, 0.0004519023932516575, 0.00035326898796483874, -0.008678928017616272, -0.012725754640996456, -0.0005997341359034181, -0.0035656036343425512, -0.009882360696792603, 0.013779958710074425, 0.003886474296450615, -0.025844786316156387, 0.006197662092745304, 0.006186380982398987, -0.003122352994978428, 0.00026854610769078135, 0.004851388279348612, 0.017773818224668503, 0.004123873542994261, 0.002622559666633606, 0.0048753307200968266, -0.008105984888970852, 0.0075179473496973515, 0.007156512700021267, 0.002280468586832285, 0.0022608854342252016, 0.005072479136288166, 0.0031386709306389093, -0.018129423260688782, -0.0005713885766454041, -0.00990915298461914, -0.005471361335366964, -0.012962902896106243, -0.010002156719565392, -0.0032059568911790848, 0.016941601410508156, -0.0020567013416439295, 0.00020299827156122774, 0.003017852082848549, -0.00034084072103723884, -0.006069298833608627, 0.005681096110492945, 0.003789804643020034, 0.003729162272065878, 0.0022403441835194826, 0.0024836251977831125, 0.004406895488500595, -0.0004921426298096776, 0.015888065099716187, 0.0032445339020341635, 0.0004896596656180918, -0.011012857779860497, -0.0052294800989329815, 0.009444871917366982, -0.003969928715378046], [-0.009546743705868721, 0.00025943564833141863, -0.0050273677334189415, 0.0047740330919623375, -0.0005823670071549714, 0.06392309814691544, 0.025938360020518303, 0.005897860042750835, 0.024549337103962898, 0.059171028435230255, -0.01154065690934658, -0.011251451447606087, 0.045554205775260925, 0.039637722074985504, 0.00022174892365001142, 0.012456701137125492, 0.003000518772751093, 0.011356983333826065, 0.009307991713285446, -0.008678889833390713, 0.022124646231532097, -0.10793454945087433, 0.0020107056479901075, 0.0032661387231200933, 0.006629779003560543, -0.06972134858369827, 0.007922007702291012, 0.082989901304245, 0.006078303325921297, 0.004128929227590561, 0.02515215426683426, -0.04840853810310364, 0.006254269275814295, -0.008920172229409218, 0.008608633652329445, -0.001338800648227334, -0.03046242706477642, 0.007374381646513939, -0.0033890283666551113, 0.0032325517386198044, 0.02466384693980217, -0.001692535006441176, 0.05194314196705818, 0.025017213076353073, -0.014641288667917252, 0.035664211958646774, -0.0009704319527372718, 0.0011494248174130917, 0.00978097878396511, 0.022131171077489853, 0.005685906391590834, -0.0042870924808084965, 0.000545807124581188, -0.05496359243988991, 0.013082499615848064, -0.008398336358368397, 0.01859143376350403, -0.0031240396201610565, 0.0021375841461122036, -0.0429956428706646, -0.007674661464989185, -0.060286395251750946, -0.03214169293642044, 0.030784495174884796, -0.028222262859344482, -0.04518439248204231, -0.004833255894482136, 0.006046535447239876, -0.0007331679225899279, 0.019457001239061356, -0.0008413908653892577, -0.006010483484715223, -0.009529786184430122, -0.12929345667362213, 0.006137929391115904, 0.01991353929042816, 0.10418883711099625, 0.005133380182087421, 0.004145622719079256, -0.010462590493261814], [0.008871922269463539, 0.009144173003733158, -0.005920889787375927, -0.0036597857251763344, -0.005384823773056269, 0.0166810043156147, -0.0023983221035450697, 0.006770533509552479, -0.012002196162939072, 0.001530358917079866, 0.0072947898879647255, -0.0028290001209825277, 0.0014258732553571463, 0.032258082181215286, 0.005027967970818281, 0.005464107263833284, -0.009788737632334232, 0.007128977682441473, 0.004425404127687216, -0.004193970467895269, 0.005460239481180906, 0.016398830339312553, 0.00550629198551178, 0.005505844950675964, 0.011028150096535683, 0.003537747310474515, 0.006343354471027851, 0.0006493100663647056, 0.0026526201982051134, -0.006747437175363302, -0.00533720338717103, 0.001127772033214569, -0.004677524324506521, -0.008930987678468227, 0.014342047274112701, 0.003603321732953191, -0.004400931298732758, 0.0057940371334552765, 0.006539079826325178, -0.005157049745321274, -0.0010790411615744233, 0.003474844852462411, 0.015129483304917812, 0.0030150434467941523, -0.0009479352156631649, 0.009914551861584187, -0.005830035544931889, 0.00915601011365652, 0.006421512924134731, -0.0006676114280708134, 0.0019380426965653896, 0.003613460110500455, 0.002776807639747858, -0.013886561617255211, 0.002356112003326416, -0.00823628343641758, -0.010548234917223454, -0.011207985691726208, -0.008856887929141521, -0.006574586499482393, 0.012192010879516602, -0.005129204131662846, -0.0032603873405605555, 0.002322432119399309, -0.001657980028539896, -0.010768885724246502, 0.003943108022212982, 0.0036264231894165277, 0.0027361006941646338, 0.006113840267062187, 0.00206060241907835, 0.00495931738987565, -0.0037420354783535004, 0.0005552390357479453, 0.004458680283278227, 0.002696058712899685, -0.0005561432335525751, -0.005468548741191626, 0.009227978065609932, -0.004204118624329567], [-0.0038196993991732597, 0.010994811542332172, -0.012320173904299736, 0.0005852746544405818, -0.005130756180733442, 0.031207330524921417, 0.009705482050776482, 0.003924125339835882, 0.013276493176817894, 0.03671235218644142, -0.004160173237323761, -0.015548479743301868, 0.009982219897210598, 0.04404384642839432, 0.0050842417404055595, 0.029579149559140205, -0.009944794699549675, 0.012310381047427654, 0.006425757892429829, -0.012943349778652191, 0.010278028436005116, -0.05555933713912964, 0.010783345438539982, 0.012942340224981308, 0.005714123602956533, 0.05915497988462448, 0.010502384975552559, 0.027769023552536964, 0.0027224982623010874, 0.0038795480504631996, -0.011591749265789986, -0.022195542231202126, -0.0012609902769327164, -0.00826951302587986, 0.0019216019427403808, 0.0010121261002495885, -0.033030860126018524, 0.011791425757110119, 0.004592326935380697, -0.010761822573840618, 0.014423050917685032, 0.005831718910485506, 0.026061855256557465, 0.019821997731924057, 0.000400511926272884, 0.016337350010871887, -0.005624836310744286, -0.0015118680894374847, 0.007723798044025898, 0.029154062271118164, 0.012463094666600227, -0.0016567393904551864, 0.005369329825043678, -0.03299032524228096, -0.004070026334375143, -0.003329901723191142, 0.013828756287693977, -0.001511604175902903, 0.0017732768319547176, -0.023112185299396515, -0.0007023165817372501, -0.03228573501110077, -0.015087890438735485, 0.015411477535963058, -0.007226348388940096, -0.046266499906778336, -0.0009825180750340223, 0.006328372284770012, 0.0046982718631625175, 0.0022105698008090258, 0.004081622697412968, 0.004273730795830488, -0.0021818121895194054, -0.01656588725745678, 0.012479732744395733, 0.007042934652417898, -0.005265186075121164, -0.0031337046530097723, 0.0013946174876764417, -0.0139366015791893], [0.01898670569062233, -0.009273807518184185, 0.031084921211004257, 0.036263156682252884, 0.03740996494889259, -0.017655881121754646, 0.04515347629785538, -0.054444193840026855, 0.0028186754789203405, -0.010135462507605553, -0.04001946747303009, 0.05630980432033539, 0.03372178599238396, -0.009847447276115417, -0.03433625400066376, -0.01834544911980629, 0.007156626787036657, -0.008005933836102486, -0.040215808898210526, 0.038148969411849976, -0.003911059815436602, 0.002612318377941847, -0.05695439502596855, -0.010279275476932526, -0.006450681947171688, -0.05595143139362335, -0.03407055884599686, -0.0020635880064219236, -0.005423951428383589, 0.052001386880874634, 0.011304223909974098, 0.011708451434969902, 0.04762991517782211, 0.006646568886935711, -0.06796371936798096, -0.04112721607089043, 0.0448705218732357, -0.0476047657430172, -0.04966507479548454, 0.05118979141116142, 0.0018580626929178834, -0.04144050553441048, -0.015127000398933887, -0.05190079286694527, -0.007846015505492687, 0.0075620063580572605, 0.03853050246834755, -0.0033649527467787266, -0.033097028732299805, -0.013097704388201237, -0.02642248012125492, -0.035112347453832626, -0.033041998744010925, 0.017315959557890892, -0.008234038949012756, 0.04665744677186012, 0.0037246961146593094, 0.005802589002996683, 0.04505040496587753, 0.0005160918808542192, -0.004753409884870052, 0.010108880698680878, 0.0103007135912776, -0.012139168567955494, 0.0019243224523961544, 0.0199890173971653, -0.05460580810904503, -0.004580183420330286, -0.039333004504442215, -0.004047672264277935, -0.04069966450333595, -0.049499329179525375, -0.013383379206061363, -0.0013273791410028934, -0.038945525884628296, -0.006792137399315834, 0.03326507657766342, 0.05308177322149277, -0.05021923780441284, 0.05160129815340042], [0.004193180240690708, 0.0013652073685079813, -0.006663514766842127, 0.00721304165199399, 0.004295902792364359, 0.017659250646829605, 0.01549301017075777, -0.003409578697755933, 0.008141715079545975, 0.006504771765321493, -0.009416593238711357, -0.006311031058430672, 0.024488240480422974, 0.009188042022287846, -0.0032881770748645067, 0.00012577410961966962, -0.0028831299860030413, 0.004517145920544863, -0.0035052562598139048, -0.003950573969632387, 0.00464749988168478, 0.007236451841890812, 0.0006177836912684143, 0.0019344848114997149, -0.001332038315013051, -0.030872395262122154, 0.0003447035560384393, 0.016028277575969696, 0.00655605411157012, 0.008944465778768063, 0.008521592244505882, 0.0013630425091832876, 0.004370586946606636, -0.001072644954547286, -0.0012486717896535993, -0.005838538985699415, -0.004765710327774286, 0.00159343215636909, -0.0038274216931313276, -0.0030364932026714087, 0.008464031852781773, -0.004868579562753439, 0.015362953767180443, 0.007998325861990452, -0.012244228273630142, 0.02073471061885357, 0.00368244550190866, -0.000240967478021048, -0.0012848499463871121, 0.013942304998636246, 0.0027663973160088062, -0.008763198740780354, -0.002936483593657613, -0.019483691081404686, 0.00286009325645864, 0.0038595229852944613, -0.0018196799792349339, 0.0005755933816544712, 0.007169059477746487, -0.025640852749347687, -0.0028667182195931673, -0.008191797882318497, -0.006215312052518129, -0.0004440652555786073, -0.006379501428455114, -0.006210357882082462, -0.0075932941399514675, -0.0004383683844935149, -0.004928930196911097, 0.006834141910076141, -0.004352178890258074, -0.004289419390261173, -0.01095271110534668, -0.02398015558719635, 0.004720327910035849, 0.0018278337083756924, 0.0075245690532028675, 0.005174674093723297, -0.004851033445447683, -0.0044637275859713554], [-0.027416665107011795, 0.024094682186841965, -0.06657472997903824, -0.04869977384805679, -0.050600577145814896, 0.09826216846704483, -0.07088935375213623, 0.07648558169603348, -0.031849876046180725, 0.04219387099146843, 0.04860552027821541, -0.06876347213983536, -0.043367598205804825, 0.09450496733188629, 0.0585024319589138, 0.02106226049363613, -0.023356569930911064, 0.018821818754076958, 0.048434432595968246, -0.05645465850830078, 0.013737998902797699, -0.014197117649018764, 0.08973544836044312, 0.015823405236005783, 0.02238955721259117, 0.08125148713588715, 0.06646732985973358, 0.007230193354189396, 0.0016256883973255754, -0.048216741532087326, -0.019714176654815674, -0.005936314817517996, -0.05716339126229286, -0.019902465865015984, 0.08672209084033966, 0.05021136254072189, -0.10888348519802094, 0.07074066996574402, 0.05758083611726761, -0.08841656893491745, 0.004255456849932671, 0.05491597577929497, 0.09032750874757767, 0.07932759076356888, 0.019584834575653076, -0.008057009428739548, -0.06426370143890381, 0.014110036194324493, 0.05638910457491875, 0.031065868213772774, 0.04369700700044632, 0.04804133251309395, 0.04812449961900711, -0.09147806465625763, -0.0018372602062299848, -0.07546210289001465, -0.010920641012489796, -0.019004302099347115, -0.07294302433729172, -0.003731276374310255, 0.03394477814435959, -0.019491078332066536, -0.006077607162296772, 0.01042785681784153, -0.0038437643088400364, -0.026185624301433563, 0.06254281848669052, 0.010720621794462204, 0.06815989315509796, 0.008277674205601215, 0.04844701662659645, 0.06582386046648026, 0.021069319918751717, 0.031841132789850235, 0.07272478938102722, 0.005504290573298931, 0.012413205578923225, -0.06737763434648514, 0.062107689678668976, -0.04788510873913765], [-0.008363005705177784, -0.011432649567723274, -0.01111906860023737, -0.0008015065104700625, -0.002486730460077524, 0.011673061177134514, 0.002754584653303027, 0.0009226080728694797, 0.006946738809347153, 0.00895149726420641, -0.0031199257355183363, -0.012505151331424713, 0.003248529974371195, -0.04107190668582916, 0.003666065400466323, -0.024449430406093597, 0.00756501592695713, -0.004706158768385649, 0.003714553778991103, -0.008567852899432182, 0.00481503875926137, -0.019231215119361877, 0.006408140528947115, -0.010271024890244007, -0.007441425230354071, -0.11551414430141449, 0.005755011923611164, 0.014148903079330921, -0.010386421345174313, 0.0027923269663006067, 0.016434602439403534, 0.011884214356541634, -0.002944219158962369, 0.004482178948819637, -0.0048692189157009125, 0.0017873180331662297, 0.024341316893696785, 0.007488664239645004, 0.002517851535230875, -0.011917001567780972, 0.014588959515094757, 0.0027899425476789474, 0.006997998338192701, 0.011681539937853813, 0.003215417265892029, -0.0016654066275805235, -0.0011630944209173322, -0.007491439115256071, 0.002333726268261671, 0.015283819288015366, 0.009234664961695671, -0.0003186347312293947, 0.004530428908765316, -0.003749407595023513, -0.008414925076067448, 0.0007259040721692145, 0.012308523990213871, 0.00873353611677885, 0.0027652825228869915, -0.0023029132280498743, -0.005997887812554836, -0.0013594101183116436, 0.006799540016800165, -0.012754056602716446, -0.006200283300131559, 0.011882942169904709, 0.0011307878885418177, -0.004492186475545168, 0.00400773948058486, -0.005106117110699415, 0.004765063989907503, 0.0045180250890553, 0.0065514142625033855, -0.011076999828219414, 0.011538783088326454, -0.004940326325595379, 0.05801919102668762, -0.002592917298898101, -0.002045782981440425, -0.010023729875683784], [0.004208219703286886, 0.004715522285550833, -0.004416381474584341, -0.00017459699301980436, -0.001421064487658441, 0.006132643669843674, 0.004356818273663521, 0.0015910901129245758, -0.0004623540735337883, 0.0037202383391559124, 1.0189429303864017e-05, -0.0030148536898195744, 0.006707997526973486, 0.01289383601397276, 0.0014782811049371958, 0.0050735799595713615, -0.005087454803287983, 0.0043423655442893505, 0.0012759363744407892, -0.003124389098957181, 0.0037459908053278923, 0.008559736423194408, 0.002755224471911788, 0.00343323964625597, 0.005193937569856644, -0.003909079823642969, 0.003254509996622801, 0.005088532343506813, 0.001278387731872499, 0.0009589335531927645, -0.0024192624259740114, -0.001359854475595057, -0.001191594754345715, -0.004512186162173748, 0.0013013099087402225, 0.00032662792364135385, 0.0019668261520564556, 0.0032182573340833187, 0.0018415675731375813, -0.003050275379791856, 0.0019017751328647137, 0.0006215804605744779, 0.00498444028198719, 0.0038336780853569508, -0.0021671222057193518, 0.00928038451820612, -0.001105794101022184, 0.003915827721357346, 0.0024053112138062716, 0.002908768132328987, 0.0017945659346878529, -0.0007369067170657218, 0.0010096747428178787, -0.004498549271374941, 0.0013698500115424395, -0.0010477351024746895, -0.003678694134578109, -0.004913991317152977, -9.090678213397041e-05, -0.008768134750425816, 0.002690085908398032, -0.006121394690126181, -0.003957707434892654, 0.0020074350759387016, -0.001924051670357585, -0.00999484397470951, -0.0006227014819160104, 0.0015513362595811486, 0.00031921573099680245, 0.003020835341885686, 0.0005021764081902802, 0.0013110776199027896, -0.0013946464750915766, -0.008004634641110897, 0.003284346777945757, 0.0021445290185511112, -0.004686425905674696, -0.0011851841118186712, 0.0011650914093479514, -0.0033118773717433214], [0.000498206471092999, 0.007894975133240223, -0.0015113891568034887, -0.003118668682873249, -0.003843976417556405, 0.008322048000991344, -0.006521786563098431, 0.004298743791878223, -0.011534001678228378, 0.004174042958766222, 0.0045729707926511765, -0.001819754485040903, -0.005685248877853155, -0.01727604866027832, 0.0032236245460808277, 0.00025625844136811793, -0.0069158924743533134, 0.0036126626655459404, 0.0033837691880762577, -0.0025819370057433844, 0.0004375781863927841, -0.002473952015861869, 0.003848434891551733, 0.0021992328111082315, 0.0066649941727519035, 0.0010782817844301462, 0.0034107593819499016, -0.0012624302180483937, -0.0006273073377087712, -0.006202030926942825, -0.00622562738135457, 0.0014971557538956404, -0.002390747657045722, -0.004298747982829809, 0.0072791739366948605, 0.0030045639723539352, -0.012494117952883244, 0.003602385288104415, 0.003916630987077951, -0.0015472171362489462, -0.0002504611329641193, 0.0037212532479315996, 0.00931461900472641, 0.001968864118680358, 0.003379953559488058, -0.00042260956251993775, -0.005722912959754467, 0.0031865201890468597, 0.004445207305252552, 0.0017482107505202293, 0.00168236019089818, 0.004072578623890877, 0.002456313231959939, -0.008709819056093693, -0.002064349828287959, -0.006501142866909504, -0.0017871098825708032, -0.006367226596921682, -0.006566784810274839, 0.0005331283318810165, 0.010487218387424946, 0.0017326807137578726, 0.002883791457861662, 7.752582314424217e-05, 0.0005860358942300081, 0.0036420528776943684, 0.004559026565402746, 0.0013572802999988198, 0.0030250188428908587, -9.6689305792097e-05, 0.002156657399609685, 0.003000283148139715, 0.0007335994741879404, 0.015704946592450142, 0.0015445915050804615, -0.0009698274661786854, 0.00044778521987609565, -0.003546434687450528, 0.005724512971937656, -0.002124650636687875], [0.017989516258239746, 0.013256974518299103, -0.011844546534121037, 0.004822521936148405, -0.0018939655274152756, 0.020895613357424736, 0.02343406155705452, 0.003724719164893031, -0.00043560817721299827, 0.003887838451191783, -0.0022290286142379045, -0.011800841428339481, 0.03941433131694794, 0.02282235026359558, 0.0011058648815378547, 0.008751961402595043, -0.012739662081003189, 0.014120600186288357, 0.0011034396011382341, -0.010198940522968769, 0.012992512434720993, 0.01347872894257307, 0.006816814187914133, 0.012742428109049797, 0.010373087599873543, 0.020078975707292557, 0.006882788613438606, 0.02502700313925743, 0.019709084182977676, 0.001948641729541123, -0.001965194707736373, -0.009444900788366795, 0.0015421034768223763, -0.011163756251335144, 0.008407230488955975, -0.0032233218662440777, -0.01999499276280403, 0.007528169080615044, 0.002227796008810401, -0.005941713694483042, 0.01862778142094612, -0.00022086531680542976, 0.019174689427018166, 0.011960219591856003, -0.018844233825802803, 0.018884742632508278, -0.0039626737125217915, 0.010200192220509052, 0.0064163729548454285, 0.015352445654571056, 0.005819960497319698, -0.006733199581503868, 0.00012855864770244807, -0.01802569255232811, 0.007390928920358419, -0.006371279712766409, -0.009585574269294739, -0.01101199071854353, -0.0035197867546230555, -0.020406655967235565, 0.009041957557201385, -0.010495385155081749, -0.014536981470882893, 0.010774167254567146, -0.012574892491102219, -0.007703820709139109, -0.00605951389297843, 0.008061827160418034, -0.0028886590152978897, 0.0167743768543005, -0.0032992132473737, -0.0016353053506463766, -0.022083830088377, -0.018131857737898827, 0.008566094562411308, 0.00895273219794035, 0.00032193248625844717, 0.00077961222268641, 0.005689868237823248, -0.010369664058089256], [0.0030838106758892536, 4.676620665122755e-05, -0.003772309049963951, 0.00157302210573107, 0.0008319781627506018, 0.006497057620435953, 0.007411194499582052, -0.0010701097780838609, 0.004556854255497456, 0.0006275495397858322, -0.0032792978454381227, -0.0026228155475109816, 0.010443191975355148, 0.022746041417121887, -0.00020442789536900818, -0.000185216631507501, -0.0017045153072103858, 0.0014387277187779546, -0.0006337631493806839, -0.0021215989254415035, 0.002871866337954998, 0.012270499020814896, 0.0009166995878331363, -0.0004964041872881353, 0.0012589305406436324, -0.02668076381087303, 0.001239345408976078, 0.0036038863472640514, 0.0007754632388241589, 0.00468097347766161, 0.00558911869302392, 0.0032887477427721024, 0.00013844695058651268, -0.0016806055791676044, -0.003305082442238927, -0.0012520523741841316, 0.012802977114915848, 0.0014531324850395322, -0.00042189890518784523, -0.002493433654308319, 0.0023178847040981054, -0.0014042867114767432, 0.003383902832865715, 0.003119197441264987, -0.003863674122840166, 0.010319877415895462, 0.0021668989211320877, 0.001758372294716537, -0.0002557571278885007, 0.004005737602710724, 0.0016679937252774835, -0.003053258405998349, 2.1738464056397788e-05, -0.0021124149207025766, 0.0011176622938364744, 0.0028933039866387844, -0.0031874622218310833, -0.0011617107084020972, 0.00402650935575366, -0.011295482516288757, -0.002845218637958169, -0.004178600385785103, -0.0021113448310643435, -0.0027894657105207443, -0.0024888997431844473, -0.00647570239380002, -0.0028108018450438976, -0.0007323363097384572, -0.001044485834427178, 0.002720003481954336, -0.0003508608497213572, -9.852049697656184e-05, -0.002370737958699465, -0.010615653358399868, 0.002879168139770627, 0.0009363195858895779, 0.011636430397629738, 0.0007248301990330219, -0.0027430038899183273, -0.0024081075098365545], [-0.050239842385053635, -0.008580793626606464, -0.10483943670988083, -0.07191219180822372, -0.07927610725164413, -0.038993269205093384, -0.089744433760643, 0.0667673647403717, 0.03152913972735405, -0.001971568912267685, 0.06566527485847473, -0.10882886499166489, -0.07826315611600876, 0.014177169650793076, 0.09792931377887726, 0.0526004433631897, 0.01256009191274643, -0.004080569371581078, 0.09500239789485931, -0.06420504301786423, -0.0029001343064010143, -0.02702784724533558, 0.10456771403551102, 0.006233657710254192, -0.016290506348013878, 0.1279015690088272, 0.07848692685365677, 0.003599977120757103, 0.007904612459242344, -0.07982387393712997, 0.004707021173089743, -0.03322654217481613, -0.08067142218351364, 0.012129773385822773, 0.07643734663724899, 0.11270478367805481, 0.04103827849030495, 0.07677805423736572, 0.0825049951672554, -0.08939457684755325, -0.008367541246116161, 0.09646318107843399, -0.033788036555051804, 0.06650424003601074, 0.021733367815613747, -0.030096864327788353, -0.044235870242118835, -0.017171500250697136, 0.05313008278608322, 0.036229103803634644, 0.0596751794219017, 0.08777500689029694, 0.07264065742492676, -0.03171456605195999, 0.022695885971188545, -0.08388260751962662, 0.01804720051586628, 0.016364645212888718, -0.08486863225698471, 0.0137448376044631, -0.028088437393307686, -0.03577068820595741, -0.031790707260370255, 0.028940878808498383, -0.01377076469361782, -0.03944170102477074, 0.08337216824293137, -0.006421595346182585, 0.07329197227954865, -0.00014989236660767347, 0.06936328113079071, 0.08020151406526566, 0.030031073838472366, -0.012780432589352131, 0.07409816235303879, 0.020315738394856453, -0.03745902329683304, -0.08036618679761887, 0.08032897859811783, -0.1181890070438385], [0.008861064910888672, 0.010608427226543427, -0.0061126709915697575, -0.003722656052559614, -0.005537394899874926, 0.0192911084741354, -0.002967648208141327, 0.006892436649650335, -0.012399126775562763, 0.001877587870694697, 0.007577580865472555, -0.0028223954141139984, 0.0003968062810599804, 0.0341690331697464, 0.005070859100669622, 0.006860682275146246, -0.011168728582561016, 0.008232063613831997, 0.00451911985874176, -0.0043486361391842365, 0.006151450797915459, 0.014672952704131603, 0.005612032953649759, 0.006552384700626135, 0.012806088663637638, 0.003578338073566556, 0.006629435811191797, 0.0015175703447312117, 0.00310371071100235, -0.007027499843388796, -0.006879073102027178, 0.0007220602710731328, -0.004616345278918743, -0.010302686132490635, 0.015784017741680145, 0.0035770016256719828, -0.009069019928574562, 0.006047276314347982, 0.006627399940043688, -0.005088842939585447, -0.00112233217805624, 0.003508774098008871, 0.017465077340602875, 0.0031833001412451267, -0.000669568486046046, 0.010574928484857082, -0.0059763300232589245, 0.009922762401401997, 0.006739501375705004, -0.0005883948178961873, 0.0019785084296017885, 0.0037014817353338003, 0.0027927604969590902, -0.01659345254302025, 0.0026559936814010143, -0.008609573356807232, -0.010924850590527058, -0.012516973540186882, -0.009246624074876308, -0.006618164479732513, 0.013227376155555248, -0.006614102050662041, -0.00344250351190567, 0.003002552781254053, -0.0017198362620547414, -0.013175327330827713, 0.003948279190808535, 0.003924456425011158, 0.002712020417675376, 0.006361620035022497, 0.002079106867313385, 0.004925233777612448, -0.004036113619804382, 0.0010425063082948327, 0.004508026875555515, 0.0030090506188571453, 0.004200791474431753, -0.005472369026392698, 0.009754409082233906, -0.004342159256339073], [0.00734216533601284, 0.0070637851022183895, -0.004753293935209513, -0.001290489686653018, -0.0026922416873276234, 0.013415244407951832, 0.0033763612154871225, 0.0033396955113857985, -0.005024919752031565, 0.002652257215231657, 0.002108871703967452, -0.0027983728796243668, 0.0082008708268404, 0.011736824177205563, 0.0026946563739329576, 0.004426917526870966, -0.007595319766551256, 0.006023372057825327, 0.0021859677508473396, -0.0034866887144744396, 0.0047528925351798534, 0.014983460307121277, 0.0036902253050357103, 0.004586216527968645, 0.00775908725336194, -0.004885157570242882, 0.004165543708950281, 0.003491348819807172, 0.002972384449094534, -0.0012044745963066816, -0.001894358778372407, 0.0007225075969472528, -0.0024152910336852074, -0.006588177755475044, 0.005076541565358639, 0.0013833654811605811, -0.0038331542164087296, 0.003912670072168112, 0.003390764119103551, -0.0033978167921304703, 0.0009490625816397369, 0.001519609009847045, 0.01110913883894682, 0.0033410382457077503, -0.0033448017202317715, 0.0121088782325387, -0.0027725095860660076, 0.007378734648227692, 0.003857575124129653, 0.0022885475773364305, 0.0020548978354781866, 0.00044837433961220086, 0.0017123068682849407, -0.010474858805537224, 0.0025932551361620426, -0.003254391485825181, -0.009215022437274456, -0.008363783359527588, -0.0025801800657063723, -0.01120836939662695, 0.006187203340232372, -0.0048181177116930485, -0.004166663624346256, 0.002059340011328459, -0.0024226908572018147, -0.00901715736836195, 0.0008443187107332051, 0.002914565149694681, 0.0009632861474528909, 0.0059774164110422134, 0.0008918105741031468, 0.0024126439820975065, -0.0038645369932055473, -0.007409935817122459, 0.00351517740637064, 0.0028928075917065144, -0.0030767531134188175, -0.002580928150564432, 0.0034784201998263597, -0.0034466274082660675], [0.005797276273369789, 0.013270090334117413, -0.005210653878748417, -0.0029665378388017416, -0.00462542288005352, 0.025219539180397987, -0.0027127957437187433, 0.0053094532340765, -0.013312834315001965, 0.00555592542514205, 0.005695093423128128, -0.0028214745689183474, -0.0006121787009760737, 0.03438838943839073, 0.003989810589700937, 0.008941251784563065, -0.013096963986754417, 0.009668217971920967, 0.0037543734069913626, -0.004251325502991676, 0.006839978974312544, 0.01328798197209835, 0.0045827822759747505, 0.00753827253356576, 0.014847262762486935, 0.012899943627417088, 0.005706027150154114, 0.0036075091920793056, 0.002949755871668458, -0.00560859777033329, -0.008905052207410336, -0.0016472389688715339, -0.0034405598416924477, -0.011562012135982513, 0.01321242842823267, 0.0026589061599224806, -0.02181384339928627, 0.005527492146939039, 0.0048877764493227005, -0.0033985234331339598, 0.0005064606084488332, 0.0029193416703492403, 0.02472035028040409, 0.0036758948117494583, 0.00026701646856963634, 0.007814900949597359, -0.0050606937147676945, 0.00928281620144844, 0.006040261592715979, 0.0015226026298478246, 0.0021253060549497604, 0.0029698158614337444, 0.002418927615508437, -0.024111775681376457, 0.0019302036380395293, -0.007026664447039366, -0.008425574749708176, -0.013020450249314308, -0.007173803634941578, -0.0055170306004583836, 0.01575755886733532, -0.008382310159504414, -0.00404838752001524, 0.004551928490400314, -0.0018980762688443065, -0.01442040130496025, 0.002886462491005659, 0.004568865057080984, 0.002179470146074891, 0.005767010618001223, 0.0018567296210676432, 0.003764383029192686, -0.0026512446347624063, 0.000979444244876504, 0.0037094829604029655, 0.003252520691603422, 0.00012724657426588237, -0.004157071467489004, 0.007981802336871624, -0.004013808909803629], [0.0006177006289362907, 0.005682754330337048, -0.004810861311852932, 0.0018059192225337029, -8.552261533623096e-06, 0.01168899331241846, 0.006392329931259155, -0.000443188298959285, 0.009533428587019444, 0.01642029546201229, -0.003677035216242075, -0.005331986118108034, 0.007231926545500755, 0.01810785010457039, 4.434269794728607e-05, 0.01202178280800581, -0.004957645665854216, 0.005910552106797695, 0.0004297683772165328, -0.0040503074415028095, 0.005060085095465183, -0.022341307252645493, 0.002736314432695508, 0.0055036782287061214, 0.002832157304510474, 0.014594496227800846, 0.002859837841242552, 0.015136056579649448, 0.0016201627440750599, 0.003893755842000246, -0.0019685158040374517, -0.007308301515877247, 0.0010431271512061357, -0.0036799937952309847, -0.002468156861141324, -0.0013258944964036345, -0.007952182553708553, 0.003479516599327326, -9.043437603395432e-05, -0.002507063327357173, 0.006787405349314213, 8.359018102055416e-05, 0.010568061843514442, 0.00812055729329586, -0.002353524323552847, 0.01096383761614561, -4.6255230699898675e-05, -0.0008937094826251268, 0.0013642897829413414, 0.009864205494523048, 0.002828259952366352, -0.0026168678887188435, 0.00030415045330300927, -0.011501132510602474, -0.00065323751186952, 0.0009890618966892362, 0.005154804326593876, -0.00030774882179684937, 0.003119643311947584, -0.013491826131939888, -0.00265973387286067, -0.015823936089873314, -0.006397667806595564, 0.0053433761931955814, -0.0031300329137593508, -0.017883116379380226, -0.002287254435941577, 0.0018527546199038625, -0.0003267194260843098, 0.0016508611151948571, -0.00024143094196915627, -0.0002601894666440785, -0.001914579072035849, -0.010363537818193436, 0.003826481755822897, 0.0022514373995363712, -0.0017457331996411085, 0.0006216246983967721, -0.001815750845707953, -0.004395340569317341], [0.004972884897142649, 0.0018637091852724552, -0.0026063655968755484, -0.0006931173847988248, -0.0008423061808571219, 0.01109287329018116, 0.0024949756916612387, 0.0013577239587903023, -0.0026408853009343147, -0.0015192358987405896, 0.0006044746842235327, -0.0008077356033027172, 0.005705336574465036, 0.013852803967893124, 0.0012062083696946502, -0.0022959988564252853, -0.003430107142776251, 0.0018029635539278388, 0.0007271213689818978, -0.0012708775466307998, 0.0022924747318029404, 0.018262937664985657, 0.001253305352292955, -0.00016065299860201776, 0.0036962463054805994, -0.030607976019382477, 0.0016500651836395264, -0.001964616822078824, 0.00124285276979208, 0.00021634525910485536, 0.0036766279954463243, 0.0061035058461129665, -0.0014735851436853409, -0.0029600842390209436, 0.0020603295415639877, 0.0006620250642299652, 0.0038342757616192102, 0.001411779667250812, 0.0014496631920337677, -0.0020143825095146894, -0.0007039618212729692, 5.747226532548666e-05, 0.008179634809494019, 0.0006107829976826906, -0.002074792515486479, 0.009129887446761131, -0.00047988566802814603, 0.004756259731948376, 0.0013617653166875243, 0.0007461661007255316, 0.0010910120327025652, -0.00019923625222872943, 0.0009464174509048462, -0.008392482064664364, 0.0013355204137042165, -0.0007757398416288197, -0.007939969189465046, -0.004428375978022814, -0.00042743017547763884, -0.008294479921460152, 0.0026729756500571966, 0.0004407450323924422, -0.0001567117142258212, -0.0032770056277513504, -0.0016030820552259684, -0.004496736917644739, 0.00011895049829035997, 0.0002476638474036008, 0.0002018240193137899, 0.0041875834576785564, 0.0005683689378201962, 0.0013200812973082066, -0.002752762520685792, -0.004872639663517475, 0.0018598020542412996, 0.0009337845840491354, 0.008502623066306114, -0.0011790039716288447, 0.0010150193702429533, -0.001232024049386382], [-0.03338050842285156, 0.005836740601807833, -0.06653418391942978, -0.08453711122274399, -0.06393197923898697, 0.029872972518205643, -0.09682371467351913, 0.10778218507766724, -0.044038303196430206, 0.013947554863989353, 0.07156679779291153, -0.09392218291759491, -0.06475570797920227, -0.019091201946139336, 0.07400776445865631, -0.014082364737987518, -0.0058604152873158455, -0.00035034833126701415, 0.08724340051412582, -0.07812731713056564, -0.006825075950473547, 0.012363335117697716, 0.08335031569004059, -0.003527045017108321, 0.005764401983469725, 0.017125556245446205, 0.08503194898366928, -0.02971034124493599, -0.006422428879886866, -0.0967223271727562, -0.008465914987027645, 0.015484399162232876, -0.0795074999332428, -0.001742369495332241, 0.08419128507375717, 0.07949984073638916, -0.04907384514808655, 0.06854656338691711, 0.07747071981430054, -0.06856308877468109, -0.01527022011578083, 0.09376846998929977, 0.019152022898197174, 0.08572917431592941, 0.03937630355358124, -0.04173910245299339, -0.08871374279260635, 0.008371381089091301, 0.07686278223991394, 0.03098723292350769, 0.03587079793214798, 0.08291015774011612, 0.06219326704740524, -0.026673464104533195, -0.0011244473280385137, -0.08897534012794495, -0.01855301298201084, -0.009588408283889294, -0.08662452548742294, 0.026823753491044044, 0.030399972572922707, 0.029969165101647377, 0.01854689046740532, -0.007089012768119574, 0.007434318773448467, 0.034683339297771454, 0.08604654669761658, -4.8329122364521027e-05, 0.08091007173061371, 0.0010639855172485113, 0.06558370590209961, 0.09780099987983704, 0.039619721472263336, 0.05696084350347519, 0.08295108377933502, -0.008013973943889141, 0.0034595916513353586, -0.09304561465978622, 0.08333829045295715, -0.07719530910253525], [0.007678714115172625, 0.011768978089094162, -0.010228998027741909, -0.0017855725018307567, -0.0050726039335131645, 0.030206182971596718, -0.00036351551534608006, 0.006221878807991743, -0.0058769118040800095, 0.016624359413981438, 0.004754671361297369, -0.00802413746714592, 0.0025449004024267197, 0.054130975157022476, 0.004500636365264654, 0.0183093398809433, -0.011407678946852684, 0.011321356520056725, 0.004561184905469418, -0.0070617650635540485, 0.009352710098028183, -0.01673181727528572, 0.007120687514543533, 0.011065867729485035, 0.010478556156158447, 0.035725828260183334, 0.008118410594761372, 0.013923139311373234, 0.005382195580750704, -0.005005244631320238, -0.00700591504573822, -0.008313750848174095, -0.002895200625061989, -0.01050126738846302, 0.01572662964463234, 0.002066630870103836, -0.02685459703207016, 0.008076273836195469, 0.0058128805831074715, -0.007558602839708328, 0.004177273716777563, 0.003386248368769884, 0.02622814103960991, 0.01133889239281416, -0.0018942597089335322, 0.014667946845293045, -0.005965790711343288, 0.006349217612296343, 0.007067232858389616, 0.008471411652863026, 0.003991979639977217, 0.0017764436779543757, 0.002470881212502718, -0.0273777823895216, 0.002502855844795704, -0.00833173654973507, -0.004011823795735836, -0.008410333655774593, -0.00767602538689971, -0.013688884675502777, 0.00994921661913395, -0.020130613818764687, -0.009068037383258343, 0.00934896431863308, -0.0038596289232373238, -0.02448953315615654, 0.0020980245899409056, 0.0055832392536103725, 0.0021731818560510874, 0.007178894244134426, 0.0013731583021581173, 0.003985603339970112, -0.006660809274762869, -0.0019875457510352135, 0.007942797616124153, 0.005134699400514364, 0.012240758165717125, -0.004367361776530743, 0.008711324073374271, -0.007964822463691235], [0.009088580496609211, -0.015660233795642853, 0.023122107610106468, 0.02500121481716633, 0.024707050994038582, -0.004772237502038479, 0.03867025673389435, -0.033797215670347214, 0.01540687307715416, -0.006577535532414913, -0.031388841569423676, 0.029950838536024094, 0.02971605211496353, 0.027385011315345764, -0.026287293061614037, -0.017592890188097954, 0.012460662052035332, -0.012197480536997318, -0.03104385919868946, 0.02102682925760746, -0.00674264645203948, 0.005966478493064642, -0.03750139847397804, -0.014980250969529152, -0.01396753266453743, -0.05606970936059952, -0.025332238525152206, -0.0011077020317316055, -0.004073638003319502, 0.04133763536810875, 0.021320002153515816, 0.010249430313706398, 0.020419081673026085, 0.011951657943427563, -0.047573432326316833, -0.0353020615875721, 0.023433908820152283, -0.0308772474527359, -0.041715458035469055, 0.03965862840414047, 0.0014583836309611797, -0.04218318685889244, -0.003966686315834522, -0.025073835626244545, -0.009296479634940624, 0.006027864292263985, 0.044079266488552094, -0.008943628519773483, -0.019197598099708557, -0.005154408048838377, -0.01673140563070774, -0.04027166962623596, -0.02338476851582527, -0.001224422361701727, -0.0003870912769343704, 0.04340687394142151, 0.006432780995965004, 0.012807941064238548, 0.04752587154507637, -0.006865828298032284, -0.014833252876996994, 0.0055371737107634544, 0.0011687022633850574, -0.01563730649650097, -0.00045812089229002595, 0.011462760157883167, -0.048514846712350845, -0.009652630425989628, -0.03702804446220398, -0.006593483034521341, -0.017451440915465355, -0.027827858924865723, -0.005342983175069094, -0.023155461996793747, -0.03719129413366318, -0.003536619246006012, 0.02784639596939087, 0.04082043841481209, -0.03517667576670647, 0.03080463968217373], [0.06339019536972046, -0.006852522026747465, 0.11563266068696976, 0.10144549608230591, 0.09248100966215134, 0.01740317977964878, 0.1366589069366455, -0.1184440478682518, 0.0587441511452198, -0.003556409850716591, -0.11798903346061707, 0.11842041462659836, 0.08318384736776352, 0.036385294049978256, -0.09940854460000992, 0.008506250567734241, 0.006123637314885855, -0.003369359765201807, -0.11538991332054138, 0.07134060561656952, -0.00328456936404109, -0.046883631497621536, -0.10901424288749695, 0.003533758455887437, -0.013691524975001812, -0.0004264319723006338, -0.08582203090190887, 0.02093658782541752, 0.0051413350738584995, 0.13944777846336365, 0.01909755729138851, -0.015694143250584602, 0.10274281352758408, 0.0108216917142272, -0.10341467708349228, -0.10813520103693008, 0.006304214708507061, -0.09225521981716156, -0.11085261404514313, 0.10948953777551651, 0.010839353315532207, -0.11730942875146866, -0.00829819031059742, -0.12445938587188721, -0.03800296410918236, 0.07180114835500717, 0.13023056089878082, -0.017619898542761803, -0.1107984408736229, -0.028496069833636284, -0.07979527115821838, -0.09448231011629105, -0.10862439125776291, 0.004066948778927326, -0.01906796731054783, 0.12559260427951813, 0.029904378578066826, 0.017535151913762093, 0.12731696665287018, -0.0692514032125473, -0.03910420089960098, -0.02202371507883072, -0.005691303871572018, 0.0029743730556219816, 0.0005060723051428795, -0.03927133232355118, -0.11824019998311996, -0.008098113350570202, -0.10329391807317734, -0.012393327429890633, -0.07764008641242981, -0.08073415607213974, -0.04459706321358681, -0.07536790519952774, -0.08014089614152908, -0.0032128761522471905, -0.005601468961685896, 0.11487923562526703, -0.12406635284423828, 0.12033054232597351], [0.008072438649833202, 0.005656885448843241, -0.0035313135012984276, -0.0009020194411277771, -0.0015492328675463796, 0.01648188754916191, 0.002363278064876795, 0.002798493020236492, -0.006555328611284494, 0.001222598017193377, 0.0014981201384216547, -0.0019028250826522708, 0.008228772319853306, -0.0032280709128826857, 0.0017194837564602494, -0.0013062616344541311, -0.006916757673025131, 0.004938002210110426, 0.001272363937459886, -0.0022526297252625227, 0.00338045135140419, 0.017454149201512337, 0.0022792452946305275, 0.0023896018974483013, 0.005484716966748238, -0.025398967787623405, 0.002489187056198716, 0.0019521459471434355, 0.003741821041330695, -0.0015795201761648059, 0.003224971005693078, 0.00701749324798584, -0.0016233631176874042, -0.0046450733207166195, 0.007370128761976957, 0.0008426167187280953, -0.005259238183498383, 0.0023235196713358164, 0.0021644430235028267, -0.002001690212637186, -0.0005912743508815765, 0.00043179281055927277, 0.01451708935201168, 0.002305645728483796, -0.0032619410194456577, 0.013829842209815979, -0.002465959172695875, 0.007062668912112713, 0.002951771253719926, 0.00242334371432662, 0.0016469720285385847, 2.546474388509523e-05, 0.0013081569923087955, -0.016037438064813614, 0.0020554563961923122, -0.0035129564348608255, -0.011977449990808964, -0.007056430447846651, -0.002674056449905038, -0.013603374361991882, 0.006937527563422918, -0.0006442976300604641, -0.00029351888224482536, -0.001811277586966753, -0.0020651875529438257, -0.002917374949902296, 0.0007713348604738712, 0.0016115307807922363, 0.00018402923888061196, 0.0074637397192418575, 0.00040305935544893146, 0.0013213587226346135, -0.006001031491905451, -0.005299551412463188, 0.0024065636098384857, 0.0009571608388796449, 0.007033353205770254, -0.0014862439129501581, 0.0033847824670374393, -0.0019530494464561343], [0.002020283369347453, 0.008885973133146763, -0.002164955250918865, -0.0008917327504605055, -0.0019434884889051318, 0.011043831706047058, -0.0007568727596662939, 0.0022061874624341726, -0.006815486587584019, 0.005896930582821369, 0.0017404642421752214, -0.002146974205970764, 0.0005388509016484022, -0.0027502921875566244, 0.0016004210337996483, 0.0056106895208358765, -0.008188054896891117, 0.005999064072966576, 0.0015768622979521751, -0.0021442840807139874, 0.002894575707614422, -0.0029519316740334034, 0.002627416979521513, 0.004572687204927206, 0.00731544429436326, 0.013366364873945713, 0.0025375811383128166, 0.004951097536832094, 0.0006828713812865317, -0.002147331368178129, -0.007036797236651182, -0.0021378151141107082, -0.0010611498728394508, -0.005939409136772156, 0.005041780415922403, 0.0010043985676020384, -0.015662068501114845, 0.002626958303153515, 0.0021217975299805403, -0.0014378894120454788, 0.002183036645874381, 0.0016046727541834116, 0.011892099864780903, 0.00286329397931695, 0.00016029478865675628, 0.0052008782513439655, -0.002801361493766308, 0.0035937768407166004, 0.0027399982791393995, 0.0023153861984610558, 0.001201864448376, 0.0010318598942831159, 0.001045753131620586, -0.012636570259928703, -0.00026892375899478793, -0.0033726731780916452, -0.0017332021379843354, -0.006596502382308245, -0.002957981778308749, -0.00490341754630208, 0.008464588783681393, -0.0049870628863573074, -0.0015296604251489043, 0.0025664963759481907, -0.0010903055081143975, -0.009723340161144733, 0.0013777699787169695, 0.002259288914501667, 0.0010952175362035632, 0.0015827458119019866, 0.0007004613289609551, 0.001442143227905035, -0.0008884952985681593, 0.0016761026345193386, 0.0017007862916216254, 0.0007619149400852621, -0.009215690195560455, -0.0016487536486238241, 0.003096986096352339, -0.002059716498479247], [0.008887558244168758, 0.006185051053762436, -0.0034381889272481203, -0.002939757890999317, -0.0033794110640883446, 0.015222698450088501, -0.0006740082753822207, 0.004503735341131687, -0.009473550133407116, -0.0010120009537786245, 0.0047905463725328445, -0.001036842237226665, 0.0044279396533966064, 0.01667865924537182, 0.003339871997013688, 0.0003693497274070978, -0.007410511374473572, 0.00505319656804204, 0.002588598057627678, -0.00218258798122406, 0.004023022949695587, 0.02145881950855255, 0.003090018406510353, 0.0028965380042791367, 0.007827146910130978, -0.014509188942611217, 0.003497400786727667, -0.0023652706295251846, 0.003091267077252269, -0.00409073568880558, 0.0011687406804412603, 0.005927432328462601, -0.003528302302584052, -0.00645878491923213, 0.008800731040537357, 0.0026352754794061184, -0.0020523446146398783, 0.002956640673801303, 0.004185503348708153, -0.0027668175753206015, -0.0023542181588709354, 0.0019144625402987003, 0.01304529793560505, 0.0010187567677348852, -0.0019043844658881426, 0.009113572537899017, -0.0036336679477244616, 0.008718767203390598, 0.004038717597723007, -0.0013799133012071252, 0.0012360886903479695, 0.002332141622900963, 0.0022281049750745296, -0.012204928323626518, 0.0027170046232640743, -0.005123015493154526, -0.01329765748232603, -0.009107326157391071, -0.005383453797549009, -0.007198657374829054, 0.008516193367540836, -0.0006107680383138359, -0.0010320047149434686, -0.00088445347500965, -0.0017204552423208952, -0.003340956289321184, 0.0027464753948152065, 0.002666627522557974, 0.001592306885868311, 0.007123010698705912, 0.0015464811585843563, 0.0032398407347500324, -0.0048601082526147366, 0.00047898496268317103, 0.0024225041270256042, 0.0018850283231586218, 0.005037376191467047, -0.0036904446315020323, 0.005640656687319279, -0.0018179148901253939], [0.027563845738768578, 0.01209932565689087, 0.04103614017367363, 0.044983167201280594, 0.046049490571022034, 0.03387314826250076, 0.0612613707780838, -0.06560517102479935, -0.0002872563200071454, 0.009228131733834743, -0.04713507369160652, 0.06119564175605774, 0.04864048957824707, 0.06650309264659882, -0.07108934968709946, 0.016829490661621094, -0.01313833612948656, 0.011922058649361134, -0.06935999542474747, 0.05294923484325409, 0.010686097666621208, -0.0047659967094659805, -0.06996772438287735, 0.009818708524107933, 0.012974532321095467, 0.01528844702988863, -0.04339772090315819, 0.014382874593138695, 0.0067442902363836765, 0.05494137853384018, -0.0040548695251345634, -0.00599413039162755, 0.04768196493387222, -0.011958625167608261, -0.05428633838891983, -0.05543425679206848, -0.017281295731663704, -0.04572916030883789, -0.05993292108178139, 0.05990172550082207, 0.007050999905914068, -0.056819405406713486, 0.0315985232591629, -0.05278658866882324, -0.018721505999565125, 0.028983701020479202, 0.07360254228115082, 0.00801400002092123, -0.03802863880991936, -0.016158228740096092, -0.03798556700348854, -0.054145533591508865, -0.04284713417291641, -0.03502777963876724, 0.003708683652803302, 0.06758881360292435, -0.00544352363795042, -0.010458666831254959, 0.07681842893362045, -0.02719012275338173, 0.00735932681709528, -0.022504979744553566, -0.011701973155140877, 0.006625114940106869, -0.0056788926012814045, -0.030618946999311447, -0.060744758695364, 0.00457244087010622, -0.08161597698926926, 0.008365793153643608, -0.041208088397979736, -0.05054003372788429, -0.024953709915280342, -0.012385120615363121, -0.051656026393175125, 0.005684833973646164, 0.007323895581066608, 0.05094248801469803, -0.06508941948413849, 0.06872955709695816], [0.01970728486776352, 0.002162868855521083, 0.03493404760956764, 0.028534982353448868, 0.03174763545393944, 0.0018757900688797235, 0.03950739651918411, -0.048593778163194656, -0.008608183823525906, -0.004230566322803497, -0.03590390831232071, 0.05158096179366112, 0.021487543359398842, 0.029024196788668633, -0.037949997931718826, -0.0019507539691403508, -0.003551953937858343, 0.00163636589422822, -0.0398927666246891, 0.027722487226128578, 0.002249321900308132, 0.0173519104719162, -0.03838591277599335, 0.00022785771579947323, 0.005238943733274937, -0.015317300334572792, -0.025683484971523285, -0.00404008012264967, 0.0010532522574067116, 0.039398714900016785, 0.001024813624098897, 0.004063399508595467, 0.024070441722869873, -0.003799599362537265, -0.041916437447071075, -0.032835185527801514, 0.0109420046210289, -0.04150652512907982, -0.032920319586992264, 0.04307512566447258, -0.0013865487417206168, -0.033116281032562256, 0.00290022068656981, -0.034907858818769455, -0.007228259928524494, 0.010765924118459225, 0.031425364315509796, 0.005512668751180172, -0.02366856299340725, -0.011577049270272255, -0.018516475334763527, -0.03653062507510185, -0.0250641331076622, -0.0029350374825298786, 0.0011880474630743265, 0.03924037516117096, -0.007950657047331333, -0.005727924406528473, 0.0350508838891983, -0.0041604298166930676, 0.006846543867141008, 0.001208450528793037, -0.00030760146910324693, -0.001976467901840806, -0.0008216305286623538, -0.0012580645270645618, -0.04639749228954315, 0.0008278169552795589, -0.03838920220732689, 0.0032218992710113525, -0.024316659197211266, -0.047298211604356766, -0.010581081733107567, 0.0026366834063082933, -0.035340916365385056, 0.0010184936691075563, 0.009370076470077038, 0.03094167821109295, -0.03751438483595848, 0.040293432772159576], [0.0009938862640410662, -0.001851639710366726, -0.004071590956300497, 0.004829844459891319, 0.0036178422160446644, 0.009007674641907215, 0.011616179719567299, -0.004003582522273064, 0.008687497116625309, 