{"model_data": {"model": "SimpleRNN", "input_size": 1, "skip": 1, "output_size": 1, "unit_type": "LSTM", "num_layers": 1, "hidden_size": 80, "bias_fl": true}, "state_dict": {"rec.weight_ih_l0": [[-0.02130366489291191], [-0.044829919934272766], [0.03052801638841629], [0.0005756304017268121], [0.016204798594117165], [-0.003384373150765896], [0.020695138722658157], [0.01608249545097351], [0.035259097814559937], [-0.12309279292821884], [0.018767278641462326], [0.011984087526798248], [0.051519375294446945], [0.30949023365974426], [0.0183445792645216], [-0.1167856827378273], [-0.023712459951639175], [-0.04988155514001846], [0.002481090370565653], [0.020320789888501167], [-0.0101874815300107], [-0.08715709298849106], [0.02359994314610958], [-0.08179868012666702], [0.02213272452354431], [-0.1892842948436737], [0.025899339467287064], [-0.003342718118801713], [-0.06029831990599632], [0.0205640010535717], [0.027587901800870895], [-0.1141209527850151], [0.016936350613832474], [-0.0035375512670725584], [0.03181353583931923], [-0.002723508281633258], [0.06637945771217346], [0.024858716875314713], [0.02204950898885727], [0.03346017748117447], [-0.00422629714012146], [0.007070679217576981], [0.0072945840656757355], [0.0014871918829157948], [-0.011461703106760979], [0.04396979138255119], [0.0168133694678545], [0.01877637393772602], [0.014243640936911106], [-0.0076707471162080765], [0.0054376921616494656], [-0.0022631522733718157], [0.0008029626915231347], [0.028714079409837723], [-0.010580617003142834], [0.023500856012105942], [0.018770841881632805], [0.0223825853317976], [0.028645429760217667], [0.06039903685450554], [0.04473958536982536], [-0.01951032318174839], [-0.028241802006959915], [-0.11633097380399704], [-0.006484048441052437], [0.03969758749008179], [0.00909685343503952], [-0.024521710351109505], [0.0009716355125419796], [-0.009577973745763302], [-0.007039704825729132], [0.016060184687376022], [-0.045472659170627594], [0.04313737526535988], [0.02470589429140091], [-0.012439286336302757], [-0.025015829131007195], [0.01627674512565136], [0.024571267887949944], [0.025307292118668556], [-0.009160470217466354], [-0.04097890853881836], [0.033258453011512756], [0.01283248420804739], [0.021666547283530235], [-0.20819146931171417], [0.07639434933662415], [0.025897087529301643], [0.1027684435248375], [-0.09512221068143845], [0.03690841421484947], [0.011437559500336647], [0.14430347084999084], [-0.15174707770347595], [0.02252860739827156], [-0.1703723520040512], [-0.019629504531621933], [-0.046039827167987823], [0.008016426116228104], [0.02156543917953968], [-0.009224945679306984], [0.1401403248310089], [0.025184163823723793], [-0.07899347692728043], [0.02386506088078022], [-0.32692408561706543], [0.02876890078186989], [0.017391173169016838], [-0.04373079165816307], [0.0527072548866272], [0.041994135826826096], [-0.16371990740299225], [0.021125564351677895], [-0.0024257842451334], [0.0963466465473175], [0.004221430979669094], [-0.10082825273275375], [0.026983877643942833], [0.027854902669787407], [0.03479368984699249], [-0.001956838183104992], [0.011769648641347885], [-0.05962545424699783], [-0.0003686519048642367], [0.011786600574851036], [0.20890767872333527], [0.026679115369915962], [0.020009877160191536], [0.020394328981637955], [0.0028239476960152388], [0.00829687062650919], [0.013415214605629444], [0.006398098077625036], [-0.2878584563732147], [-0.011829362250864506], [0.040260884910821915], [0.021437667310237885], [0.024550078436732292], [0.05148668214678764], [0.16490338742733002], [0.07671067863702774], [-0.008283820934593678], [-0.0300595760345459], [-0.14249351620674133], [-0.0058914730325341225], [0.07249762862920761], [0.025406423956155777], [-0.022733744233846664], [0.005718562286347151], [-0.008450713008642197], [0.00011979870760114864], [0.020520588383078575], [-0.029540274292230606], [0.39651358127593994], [0.026117287576198578], [-0.012492547743022442], [-0.02458798512816429], [0.02303949184715748], [0.045192353427410126], [0.02651681937277317], [0.3013135492801666], [0.11482709646224976], [-0.033447980880737305], [0.024882197380065918], [-0.002273539314046502], [0.5359301567077637], [0.05090395361185074], [0.016221778467297554], [-0.01552589051425457], [-0.3403499126434326], [0.006646340247243643], [0.008168975822627544], [0.1908423900604248], [0.3263316750526428], [0.01038587186485529], [0.06591755896806717], [-0.11603262275457382], [0.08094282448291779], [0.006718284450471401], [0.00567318219691515], [0.013659616932272911], [0.49702224135398865], [0.016062922775745392], [0.10750563442707062], [0.08220918476581573], [-0.0006497452850453556], [0.02226969785988331], [-0.03377004712820053], [0.1495920866727829], [-0.00020457245409488678], [-0.3810337483882904], [0.023868855088949203], [-0.016252461820840836], [-0.07044196128845215], [0.016778064891695976], [0.008269527927041054], [-0.4908793866634369], [0.014102493412792683], [0.021445851773023605], [-0.042903169989585876], [-0.031471945345401764], [-0.012134851887822151], [0.2607729136943817], [-0.014777329750359058], [-0.21370500326156616], [0.47087836265563965], [0.025129500776529312], [0.08013954758644104], [0.002049641218036413], [-0.20133748650550842], [-0.059315845370292664], [-0.00412742467597127], [-0.03393115475773811], [-0.44348272681236267], [0.05479111522436142], [0.02481839805841446], [-0.09163111448287964], [-0.09720943123102188], [-0.009255894459784031], [-0.3784309923648834], [0.06288888305425644], [0.0006765399593859911], [-0.026013027876615524], [0.04746789485216141], [-0.008449729532003403], [-0.39442622661590576], [-0.01907029002904892], [0.056145504117012024], [0.003165952395647764], [0.034063443541526794], [-0.03540484979748726], [0.018580123782157898], [-0.22595568001270294], [-0.17425693571567535], [0.013548191636800766], [0.01282430998980999], [-1.1346232891082764], [-0.012790141627192497], [0.019071631133556366], [-0.01346083264797926], [-0.018755150958895683], [-0.03960619121789932], [0.04317253828048706], [0.013693349435925484], [0.030934860929846764], [-0.31280991435050964], [0.06039651855826378], [0.04096594825387001], [0.08559638261795044], [-0.10698819160461426], [0.04457111284136772], [0.02230711281299591], [0.07899443060159683], [-0.14530156552791595], [0.031813766807317734], [-0.1333760917186737], [-0.018962467089295387], [-0.04861394315958023], [0.01282596681267023], [0.030210666358470917], [-0.012425818480551243], [-0.02122560329735279], [0.03816971927881241], [-0.08092638105154037], [0.025121252983808517], [-0.29877138137817383], [0.041903167963027954], [-0.004771340172737837], [-0.05878397449851036], [0.05910486727952957], [0.0585593543946743], [-0.12347559630870819], [0.0279738400131464], [-0.0018638793844729662], [0.11515435576438904], [0.005169913172721863], [-0.20944112539291382], [0.040373895317316055], [0.038773734122514725], [0.04179203137755394], [-0.005720390938222408], [0.016747521236538887], [-0.2006462812423706], [0.011341430246829987], [0.0053362250328063965], [0.090764120221138], [0.040674738585948944], [0.021028030663728714], [0.029887456446886063], [-0.013940525241196156], [0.008265143260359764], [0.015031779184937477], [0.007567657623440027], [-0.18772417306900024], [-0.010460569523274899], [0.060376621782779694], [0.021126670762896538], [0.027570370584726334], [0.06515850871801376], [0.08020481467247009], [0.07172714918851852], [-0.027121061459183693], [-0.030843447893857956], [-0.12135084718465805], [-0.007478863000869751], [0.06122266873717308], [0.03003896400332451], [-0.021332748234272003], [0.011485550552606583], [-0.0069554876536130905], [-0.0023791175335645676], [0.028153657913208008], [-0.04312247782945633], [0.19444219768047333], [0.03439733013510704], [-0.013573605567216873], [-0.03494385629892349], [0.03129780665040016], [0.06626218557357788], [0.03507120907306671]], "rec.weight_hh_l0": [[0.06516090035438538, -0.009795749559998512, 0.07939732074737549, 0.09242536127567291, 0.060341525822877884, 0.008284680545330048, 0.08418205380439758, -0.08805861324071884, 0.013146324083209038, -0.008833620697259903, -0.063653863966465, 0.07663582265377045, 0.05232035741209984, 0.009212658740580082, -0.0755099356174469, -0.007629459723830223, 0.009870355948805809, -0.008143579587340355, -0.08461663126945496, 0.06434262543916702, -0.005509016569703817, -0.01828688569366932, -0.10880569368600845, -0.005496099125593901, -0.01020623929798603, -0.011652102693915367, -0.06726870685815811, -0.0006435291143134236, 0.001077640918083489, 0.10299254953861237, 0.007160533219575882, 0.00030353537295013666, 0.09205637127161026, 0.009160145185887814, -0.09452875703573227, -0.08785787224769592, 0.004724548663944006, -0.08380033820867538, -0.10368796437978745, 0.09360707551240921, 0.002139439107850194, -0.10143022984266281, -0.006202814169228077, -0.07436289638280869, -0.02910182625055313, 0.03251739591360092, 0.11913152039051056, -0.008595110848546028, -0.06321117281913757, -0.02609453909099102, -0.04402469843626022, -0.07706820964813232, -0.05346943810582161, 0.005930574610829353, -0.007266083266586065, 0.09965197741985321, 0.011358595453202724, 0.010569129139184952, 0.10453642159700394, -0.02463333122432232, -0.013256654143333435, 0.004084973130375147, 0.006641891784965992, -0.004159570671617985, 0.0023064599372446537, -0.0004203163261990994, -0.08359174430370331, -0.004615599289536476, -0.09473603963851929, -0.00707694236189127, -0.0868038535118103, -0.08649573475122452, -0.035681940615177155, -0.007614136207848787, -0.07304386794567108, -0.0047989413142204285, 0.008718551136553288, 0.08929343521595001, -0.06778554618358612, 0.09069154411554337], [0.0013027997920289636, 0.014735929667949677, -0.0055760350078344345, -0.012337766587734222, -0.013523890636861324, 0.0181364044547081, -0.019791966304183006, 0.014330454170703888, -0.02385009080171585, 0.008631411008536816, 0.014603625051677227, -0.007507980801165104, -0.017455941066145897, -0.06711282581090927, 0.01226319745182991, -0.00785696879029274, -0.013075320050120354, 0.007852689363062382, 0.012575053609907627, -0.010096114128828049, 0.0020579956471920013, -0.0030380082316696644, 0.01333705335855484, 0.004962185397744179, 0.01362519059330225, -0.03011307120323181, 0.011582117527723312, -6.125331128714606e-05, -0.003353199688717723, -0.018574390560388565, -0.009827345609664917, 0.00859833788126707, -0.009808553382754326, -0.009263166226446629, 0.015579555183649063, 0.012007469311356544, -0.022088291123509407, 0.012166597880423069, 0.013546295464038849, -0.00637031439691782, 0.0022727723699063063, 0.01444318052381277, 0.020033780485391617, 0.0061833830550313, 0.013599258847534657, -0.0033155037090182304, -0.018243107944726944, 0.010197713971138, 0.01406355295330286, 0.008382441475987434, 0.008399296551942825, 0.01478204783052206, 0.01083853654563427, -0.018407253548502922, -0.011283149011433125, -0.018359823152422905, -0.006947086192667484, -0.014820541255176067, -0.01821666583418846, 0.0024752593599259853, 0.020865261554718018, 0.008949444629251957, 0.013221070170402527, -0.0008274813881143928, 0.0032499602530151606, 0.02069631777703762, 0.016679951921105385, 0.0057077850215137005, 0.012439957819879055, 0.0017772405408322811, 0.0097514558583498, 0.011510465294122696, 0.004300657659769058, 0.023705584928393364, 0.006579147651791573, -0.006066943518817425, 0.0265541709959507, -0.012937340885400772, 0.015817349776625633, -0.008690380491316319], [0.0070669217966496944, 0.014169572852551937, -0.009170840494334698, -0.003068752819672227, -0.0059842802584171295, 0.028229134157299995, -0.002953956136479974, 0.007436361163854599, -0.011040481738746166, 0.006991246715188026, 0.007145192474126816, -0.005879447795450687, -0.00036388461012393236, 0.042424485087394714, 0.00543155986815691, 0.0103394640609622, -0.013532988727092743, 0.010061250068247318, 0.004995456896722317, -0.006916141603142023, 0.006769220810383558, 0.00517916027456522, 0.008414285257458687, 0.008143610320985317, 0.015049101784825325, 0.0223732627928257, 0.008959999307990074, 0.004102048929780722, 0.0032388935796916485, -0.007257059216499329, -0.00966842845082283, -0.0031995319295674562, -0.004181111231446266, -0.011592024005949497, 0.02150554209947586, 0.003196471370756626, -0.026212887838482857, 0.009228922426700592, 0.007381414994597435, -0.007927068509161472, 0.0006669973954558372, 0.004149491433054209, 0.02775190770626068, 0.006816754583269358, -0.0007650696206837893, 0.009236980229616165, -0.007086517289280891, 0.007971405051648617, 0.007715935353189707, 0.0024613228160887957, 0.002921923529356718, 0.0033866288140416145, 0.002601256128400564, -0.02718184143304825, 0.0018341654213145375, -0.010153965093195438, -0.007115744054317474, -0.012165447697043419, -0.01028523687273264, -0.005737714935094118, 0.01468974631279707, -0.009397425688803196, -0.004567429888993502, 0.005462610628455877, -0.002010093769058585, -0.014528081752359867, 0.00395999988541007, 0.004493766464293003, 0.002994373207911849, 0.005450255703181028, 0.0018728660652413964, 0.005269796587526798, -0.004077466670423746, 0.0031451168470084667, 0.007119903806596994, 0.003230371279641986, -0.0009482802706770599, -0.0056475624442100525, 0.01100296713411808, -0.0074600824154913425], [0.0020242733880877495, -0.0009272380266338587, -0.0026911296881735325, 0.002266988391056657, 0.0018506168853491545, 0.0030766024719923735, 0.007606817409396172, -0.0019124280661344528, 0.006175357382744551, -0.0009767377050593495, -0.004170908592641354, -0.0016512146685272455, 0.011198893189430237, 0.014947337098419666, -0.0009213517187163234, -0.002621833700686693, -0.0007128273136913776, 0.0006964861531741917, -0.0015365604776889086, -0.0012502687750384212, 0.0018769620219245553, 0.014589072205126286, 4.713310408988036e-05, -0.0013820040039718151, -0.00016004701319616288, -0.029629431664943695, -2.9451801310642622e-05, 0.002370100934058428, 0.0005620725569315255, 0.00528973201289773, 0.007755922619253397, 0.004368719644844532, 0.0008186668856069446, -0.0005709642427973449, -0.005132762249559164, -0.0018920868169516325, 0.01361739169806242, 0.0004626190348062664, -0.0012824154691770673, -0.001708981697447598, 0.0018780548125505447, -0.0019728252664208412, 0.001313141081482172, 0.001672406797297299, -0.0047114938497543335, 0.009196702390909195, 0.0027343733236193657, 0.0011988773476332426, -0.0013031004928052425, 0.004031118005514145, 0.0011978019028902054, -0.0036104482132941484, -0.0005932720960117877, -0.001647010212764144, 0.0012463058810681105, 0.003563973819836974, -0.0033281901851296425, -0.0003058114380110055, 0.004755857400596142, -0.01116226427257061, -0.004517790395766497, -0.0017427568091079593, -0.0013840349856764078, -0.0037163235247135162, -0.0023279343731701374, -0.0012885913019999862, -0.003042224794626236, -0.0011965029407292604, -0.001637833658605814, 0.002551714889705181, -0.0009176311432383955, -0.0008530971826985478, -0.002362449886277318, -0.012737187556922436, 0.0019709705375134945, 0.00029255636036396027, 0.011571313254535198, 0.0014956425875425339, -0.0036573070101439953, -0.0014135134406387806], [0.006335856858640909, 0.005301032681018114, -0.003457937389612198, -0.0016228138701990247, -0.002342693042010069, 0.013743827119469643, 0.0017799679189920425, 0.002947850152850151, -0.00547582795843482, 0.0004996105562895536, 0.002257692161947489, -0.0014804028905928135, 0.005632488522678614, 0.009536697529256344, 0.002398703945800662, 0.0017619580030441284, -0.006098608020693064, 0.004320675972849131, 0.0018661990761756897, -0.002423221245408058, 0.003451296826824546, 0.016825178638100624, 0.0027538309805095196, 0.0027377798687666655, 0.006606488022953272, -0.009101508185267448, 0.0031681626569479704, 4.404197170515545e-05, 0.0019990948494523764, -0.0014783047372475266, -4.1688690544106066e-05, 0.0033174732234328985, -0.0024154239799827337, -0.0052968706004321575, 0.004518045578151941, 0.0015530220698565245, -0.002070516813546419, 0.0028430826496332884, 0.0029815230518579483, -0.0026176481042057276, -0.0006454564863815904, 0.0013475138694047928, 0.011010629124939442, 0.001616645255126059, -0.002135093556717038, 0.009542047046124935, -0.0023951008915901184, 0.007005912717431784, 0.0031359174754470587, 0.0006411636713892221, 0.001497601275332272, 0.0008723693899810314, 0.0016531607834622264, -0.010248559527099133, 0.002034315373748541, -0.002883266657590866, -0.009817339479923248, -0.007571065332740545, -0.0024847250897437334, -0.008426826447248459, 0.005681081209331751, -0.0019165151752531528, -0.001969431061297655, 8.831590093905106e-06, -0.0015409165062010288, -0.00581215089187026, 0.001260582939721644, 0.0019732618238776922, 0.001018534298054874, 0.005296675954014063, 0.0010457076132297516, 0.002280723536387086, -0.002871202304959297, -0.004189640283584595, 0.0024762810207903385, 0.0018335517961531878, 0.0010603201808407903, -0.002435363130643964, 0.0030721949879080057, -0.0022530776914209127], [-0.02539609745144844, 0.002242856193333864, -0.048776883631944656, -0.060098595917224884, -0.055373355746269226, 0.014024493284523487, -0.0606747567653656, 0.06242809072136879, -0.005787532310932875, 0.017643852159380913, 0.044460415840148926, -0.07612232863903046, -0.054056230932474136, 0.0027900426648557186, 0.050472766160964966, -0.0030162367038428783, -0.0015682337107136846, -0.0002389543951721862, 0.05257464945316315, -0.04689169302582741, -0.002849035430699587, -0.012593589723110199, 0.05123819783329964, -0.00045368121936917305, 0.0011054555652663112, 0.006887224968522787, 0.0466737300157547, -0.005183979868888855, -0.0030025371816009283, -0.053308453410863876, 0.00135930092073977, 0.0020744421053677797, -0.05563750118017197, 0.0001098142602131702, 0.06044381111860275, 0.059102777391672134, -0.031073421239852905, 0.06369443237781525, 0.04441189393401146, -0.061456646770238876, -0.00212458404712379, 0.0672047957777977, 0.03548869863152504, 0.06265482306480408, 0.021883996203541756, -0.01789933256804943, -0.055082131177186966, 0.001496335375122726, 0.042046792805194855, 0.020078854635357857, 0.031279582530260086, 0.05171794816851616, 0.04556446522474289, -0.022492093965411186, -0.001060881419107318, -0.07497946172952652, -0.0026963946875184774, -0.0025878010783344507, -0.05642978101968765, 0.007564544677734375, 0.004442660138010979, 0.006890085060149431, 0.004200093913823366, -0.0005888044252060354, 0.0017288299277424812, 0.007884262129664421, 0.061652183532714844, -2.014166602748446e-05, 0.06600114703178406, 0.0001628330792300403, 0.04622853919863701, 0.04694962128996849, 0.02368508279323578, 0.008094005286693573, 0.06599792838096619, -0.0023412788286805153, 0.0041197557002305984, -0.06472636759281158, 0.049024008214473724, -0.06470446288585663], [-0.012597854249179363, -0.010364416986703873, -0.003379958448931575, 0.009861516766250134, 0.008274028077721596, 0.010866123251616955, 0.01744145154953003, -0.008361231535673141, 0.014515946619212627, 0.007883546873927116, -0.01489801425486803, -0.004120240453630686, 0.023615382611751556, 0.003910521045327187, -0.006036491598933935, -0.009767645969986916, 0.008107680827379227, -0.0054948097094893456, -0.006078002043068409, -0.0013883869396522641, -0.00410452438518405, -0.0019784849137067795, -0.002661516424268484, -0.008422277867794037, -0.014921746216714382, -0.05054076761007309, -0.0036380260717123747, 0.008111710660159588, 0.0006549061508849263, 0.014325035735964775, 0.014957725070416927, 0.005812799092382193, 0.006891324184834957, 0.010342076420783997, -0.0137378741055727, -0.007944943383336067, 0.004005942493677139, -0.0014186565531417727, -0.007781854830682278, -0.0018400648841634393, 0.008117079734802246, -0.0069351415149867535, 0.007768608164042234, 0.004805366508662701, -0.010345770977437496, 0.01581820845603943, 0.008061137050390244, -0.012175391428172588, -0.006064202636480331, 0.017135245725512505, 0.0025625377893447876, -0.011143668554723263, -0.004640510771423578, -0.01684846170246601, -0.0008420213125646114, 0.0103362537920475, 0.008855792693793774, 0.013995759189128876, 0.014237217605113983, -0.024303093552589417, -0.01005776971578598, -0.0011997134424746037, -0.0014611942460760474, -0.009176447987556458, -0.0033254465088248253, -0.000424368103267625, -0.009746705181896687, -0.007928098551928997, -0.005971415899693966, -0.0029257629066705704, -0.0051420824602246284, -0.006252624094486237, -0.004517207853496075, -0.046501800417900085, 0.002938193967565894, -0.0029191586654633284, 0.009445209056138992, 0.008386557921767235, -0.012221978046000004, -0.002267206087708473], [0.00728386826813221, 0.005522259511053562, -0.003926169592887163, 0.0001693409139988944, -0.00102230382617563, 0.01208861917257309, 0.006940712686628103, 0.0014818214112892747, -0.0023271101526916027, 0.0010074685560539365, -0.0003658701607491821, -0.0021798231173306704, 0.013490385375916958, 0.011146853677928448, 0.0012964016059413552, 0.0019113114103674889, -0.006349238567054272, 0.005184318404644728, 0.0005628660437650979, -0.0026786094531416893, 0.004214263986796141, 0.01729980856180191, 0.0023746017832309008, 0.0032255006954073906, 0.006227577570825815, -0.008312738500535488, 0.0026157486718147993, 0.003213911782950163, 0.0042244610376656055, 0.001554284943267703, 0.0026507102884352207, 0.0035453769378364086, -0.0012513456167653203, -0.005431110970675945, 0.0028986185789108276, -2.8337567528069485e-06, -0.0004586605355143547, 0.0025210001040250063, 0.0016888031968846917, -0.0023857224732637405, 0.0002732266148086637, 1.8627264580572955e-05, 0.010172681882977486, 0.002759815426543355, -0.006051249336451292, 0.012101058848202229, -0.0007954301545396447, 0.007375607267022133, 0.0021988770458847284, 0.002512620761990547, 0.001515890471637249, -0.0015457728877663612, 0.0007791705429553986, -0.009222067892551422, 0.0033381867688149214, -0.000874788558576256, -0.010998612269759178, -0.007477620616555214, 0.00015124156197998673, -0.012322664260864258, 0.003665763884782791, -0.003437535371631384, -0.003266718704253435, 0.00035278344876132905, -0.0025187854189425707, -0.004416166339069605, -0.0009804887231439352, 0.0021635768935084343, -0.00037394650280475616, 0.006846069823950529, -0.00012565148063004017, 0.0009974339045584202, -0.00601511774584651, -0.010836953297257423, 0.002654400421306491, 0.0023207003250718117, 0.0026239899452775717, -0.0009893222013488412, 0.001011742977425456, -0.0025377394631505013], [0.00893369223922491, 0.02426394447684288, -0.010409414768218994, -0.004812709055840969, -0.008621463552117348, -0.0318823903799057, -0.0011093651410192251, 0.00768026988953352, -0.005270455032587051, 0.015741903334856033, 0.0020908585283905268, -0.013745044358074665, 0.007125455420464277, -0.039699722081422806, 0.007001765072345734, 0.023584140464663506, -0.022170396521687508, 0.02186746336519718, 0.008400621823966503, -0.013423152267932892, 0.010143525898456573, 0.006979367695748806, 0.011675424873828888, 0.017763972282409668, 0.015240228734910488, 0.0420919731259346, 0.011434895917773247, 0.016936197876930237, 0.007807011716067791, -0.005097633693367243, -0.028313230723142624, -0.0035679773427546024, -0.003895273432135582, -0.015897642821073532, -0.005710445810109377, 0.005156128667294979, 0.023612387478351593, 0.011543169617652893, 0.007403029128909111, -0.006109051872044802, 0.013626092113554478, 0.00833976361900568, -0.021991973742842674, 0.016290847212076187, 0.0011343086371198297, 0.028898872435092926, -0.011281987652182579, 0.011158459819853306, 0.012181728146970272, 0.025509264320135117, 0.011544311419129372, 0.004041525535285473, 0.007721540983766317, 0.017141977325081825, -0.0069375722669065, -0.00823212694376707, -0.0141148017719388, -0.015647420659661293, -0.00543691823258996, -0.0335346944630146, 0.010806328617036343, -0.01630592718720436, 0.0032873607706278563, 0.013939406722784042, -0.003119049593806267, -0.02597676031291485, 0.006000349298119545, 0.009778458625078201, 0.0063057285733520985, 0.013459840789437294, 0.004963091108947992, 0.004864444490522146, -0.010443837381899357, 0.015960298478603363, 0.009556177072227001, -0.002773766638711095, -0.02415252849459648, -0.0056783598847687244, 0.0040755500085651875, -0.012806779704988003], [0.03402404859662056, 0.014631560072302818, 0.05551406368613243, 0.05115140974521637, 0.042020343244075775, 0.045720424503088, 0.07311490923166275, -0.0560726597905159, -0.006639032159000635, -0.023127783089876175, -0.05125484615564346, 0.06617192924022675, 0.044603131711483, 0.0679365023970604, -0.04992678761482239, 0.031197572126984596, -0.01580822467803955, 0.01580873131752014, -0.06709446012973785, 0.044214650988578796, 0.013911965303122997, 0.012676851823925972, -0.07051462680101395, 0.015763413161039352, 0.013900350779294968, 0.03220972791314125, -0.048373620957136154, 0.01889108680188656, 0.009430116042494774, 0.06073678657412529, 0.0025256515946239233, -0.012581516057252884, 0.04313686490058899, -0.015995636582374573, -0.05260604992508888, -0.06944631785154343, -0.014839394018054008, -0.04533851891756058, -0.037105098366737366, 0.05116754025220871, -0.005267425440251827, -0.06852646917104721, 0.04882286116480827, -0.05633707344532013, -0.011416913941502571, 0.023941397666931152, 0.06946214288473129, 0.009132737293839455, -0.04681066796183586, -0.011581235565245152, -0.032423362135887146, -0.058705586940050125, -0.036368753761053085, -0.058390818536281586, 0.00982625875622034, 0.07002407312393188, -0.006326719187200069, -0.011372354812920094, 0.07335001975297928, -0.02334003336727619, 0.01578385941684246, -0.04544354975223541, -0.022450188174843788, 0.013387486338615417, -0.005231941118836403, -0.027871867641806602, -0.08217795938253403, 0.009738306514918804, -0.06622078269720078, 0.01335160806775093, -0.04382237792015076, -0.0544288195669651, -0.019505780190229416, -0.019388537853956223, -0.049220871180295944, 0.013243562541902065, 0.06674310564994812, 0.05374317243695259, -0.05467279627919197, 0.06483598798513412], [0.005569592583924532, 0.005395947489887476, -0.006542267743498087, 0.005426628980785608, 0.0024158295709639788, 0.015601048246026039, 0.018082354217767715, -0.0027233134023845196, 0.008969404734671116, 0.007839309982955456, -0.008374908939003944, -0.006155386101454496, 0.02545727603137493, 0.010452068410813808, -0.001586611964739859, 0.006280589383095503, -0.0058849165216088295, 0.006715396884828806, -0.0021440228447318077, -0.004834095947444439, 0.005863931030035019, 0.004396052565425634, 0.0021727026905864477, 0.0051047950983047485, 0.0038132253102958202, -0.004959359765052795, 0.002194399945437908, 0.014565324410796165, 0.006322699598968029, 0.010063777677714825, 0.0025466864462941885, -0.002066107001155615, 0.0023937609512358904, -0.004585833754390478, -0.0039059079717844725, -0.004275105427950621, -0.00536754447966814, 0.002991863526403904, -0.0019244024297222495, -0.003216013079509139, 0.007086887024343014, -0.0028271859046071768, 0.01279379427433014, 0.008104103617370129, -0.011857856996357441, 0.01907304860651493, 0.003210813505575061, 0.004312051925808191, 2.319735722267069e-05, 0.012057289481163025, 0.003285373095422983, -0.00783669762313366, -0.0012071800883859396, -0.012512238696217537, 0.0033904260490089655, 0.004867625888437033, -0.005271361209452152, -0.004257936961948872, 0.008135205134749413, -0.02238352783024311, -0.002886086469516158, -0.010269814170897007, -0.007431630976498127, 0.0033681027125567198, -0.005133526399731636, -0.01015130802989006, -0.007090960629284382, 0.0019244919531047344, -0.0032893323805183172, 0.00676181772723794, -0.002616254612803459, -0.002339511178433895, -0.008610468357801437, -0.02439100667834282, 0.004774727392941713, 0.003577431198209524, -0.0025646609719842672, 0.003217729041352868, -0.005238605663180351, -0.005268688313663006], [0.006177037954330444, 0.009276319295167923, -0.007502157706767321, -0.0019402761245146394, -0.004206974059343338, 0.02095659449696541, -0.0015465408796444535, 0.005303151439875364, -0.006592623423784971, 0.007179779000580311, 0.005036849994212389, -0.0047672949731349945, 0.0005861356039531529, 0.04099695011973381, 0.0038166260346770287, 0.010873399674892426, -0.009195181541144848, 0.008017267100512981, 0.0035309570375829935, -0.004929333459585905, 0.005990094970911741, -0.0025125013198703527, 0.005506585352122784, 0.007049581967294216, 0.009644090197980404, 0.01627257652580738, 0.0063746627420187, 0.006603654474020004, 0.0032706994097679853, -0.0050146994180977345, -0.00526527501642704, -0.0036870823241770267, -0.0029683627653867006, -0.008506927639245987, 0.014607785269618034, 0.0020506270229816437, -0.016251839697360992, 0.006294893100857735, 0.005115982610732317, -0.005849811248481274, 0.0012711496092379093, 0.0025798012502491474, 0.018572168424725533, 0.006317440420389175, -0.0012895333347842097, 0.009726460091769695, -0.004794632084667683, 0.006206441204994917, 0.005551520269364119, 0.0028936753515154123, 0.0021490282379090786, 0.001980219269171357, 0.0017984674777835608, -0.018840791657567024, 0.002240061527118087, -0.007137807551771402, -0.005348081700503826, -0.008168422617018223, -0.007189806085079908, -0.0069672102108597755, 0.008875790052115917, -0.011708671227097511, -0.005393160041421652, 0.004985709208995104, -0.0021546853240579367, -0.016078224405646324, 0.0022433623671531677, 0.0035614753141999245, 0.0017439372604712844, 0.004959453362971544, 0.0010919823544099927, 0.003608778351917863, -0.004268863704055548, 0.000683826394379139, 0.0055090454407036304, 0.003196930279955268, 0.006895902566611767, -0.0039140768349170685, 0.00783716980367899, -0.005555635318160057], [-0.02238417975604534, -0.030141083523631096, 0.012471310794353485, 0.022434893995523453, 0.01958087645471096, -0.004605983849614859, 0.03575592860579491, -0.028493376448750496, 0.03167031332850456, 0.0035453003365546465, -0.03535975515842438, 0.009731774218380451, 0.03296151012182236, 0.0068939183838665485, -0.021440157666802406, -0.018994582816958427, 0.027310408651828766, -0.023812104016542435, -0.02067013829946518, 0.014007843099534512, -0.017143240198493004, -0.01938040368258953, -0.02239725925028324, -0.02539268136024475, -0.033349841833114624, -0.0494375117123127, -0.01581520214676857, 0.002907890360802412, -0.004107745364308357, 0.04056178405880928, 0.03210970386862755, 0.008113938383758068, 0.017516041174530983, 0.02830331213772297, -0.05186186730861664, -0.023136338219046593, 0.015823667868971825, -0.016572212800383568, -0.024841388687491417, 0.0200654286891222, 0.004959325306117535, -0.0220028068870306, -0.007406650576740503, -0.012645133771002293, -0.016163449734449387, 0.00880354456603527, 0.028788363561034203, -0.025969702750444412, -0.01989837735891342, 0.012544809840619564, -0.004190915264189243, -0.028191572055220604, -0.017758753150701523, -0.0063480837270617485, -0.0022664638236165047, 0.03598291799426079, 0.021538374945521355, 0.03178839385509491, 0.041586849838495255, -0.020221199840307236, -0.026952775195240974, 0.0012543099001049995, 0.0007244529551826417, -0.02047726884484291, 0.0011117687681689858, 0.0013537824852392077, -0.03322334960103035, -0.01995440572500229, -0.024959715083241463, -0.018137434497475624, -0.012737768702208996, -0.02096441388130188, -0.0012187365209683776, -0.0713837519288063, -0.016441572457551956, -0.00679133040830493, -0.0015304491389542818, 0.022475065663456917, -0.03921183943748474, 0.009922763332724571], [-0.03621000796556473, -0.04010320454835892, -0.07196012139320374, -0.06592872738838196, -0.03605326637625694, -0.1811157613992691, -0.04240002483129501, 0.049284353852272034, 0.10385457426309586, -0.07597719877958298, 0.03514480963349342, -0.08649259060621262, -0.02875908464193344, -0.029681889340281487, 0.04947517439723015, -0.019305627793073654, 0.0377897284924984, -0.02575838379561901, 0.05354894697666168, -0.06376355141401291, -0.015926742926239967, 0.04516249895095825, 0.09501189738512039, -0.017930110916495323, -0.02841995097696781, -0.05306448042392731, 0.053894393146038055, -0.010487430728971958, 0.021098868921399117, -0.06220708414912224, 0.03739454969763756, 0.008530357852578163, -0.0676724836230278, 0.018381590023636818, 0.05097784847021103, 0.07486609369516373, 0.20510126650333405, 0.07520220428705215, 0.070623978972435, -0.10611622035503387, -0.010464276187121868, 0.07180415838956833, -0.17707349359989166, 0.0831170529127121, -0.015661925077438354, -0.007844197563827038, -0.057029444724321365, -0.003828355111181736, 0.053728215396404266, 0.013839343562722206, 0.019200704991817474, 0.04306184872984886, 0.05313846841454506, 0.09535454213619232, 0.03555275499820709, -0.048899415880441666, 0.004254554398357868, 0.004714021924883127, -0.0455494225025177, 0.0031088811811059713, -0.09951584041118622, 0.005747661925852299, -0.029605451971292496, -0.016200866550207138, -0.0008388941641896963, -0.070001520216465, 0.07518795132637024, -0.004079711623489857, 0.06807040423154831, -0.0017461313400417566, 0.060784321278333664, 0.07095503062009811, 0.016830697655677795, -0.1001409962773323, 0.0897926315665245, 0.0034094343427568674, -0.1972738802433014, -0.08574385195970535, 0.03683179244399071, -0.0950944721698761], [0.0053967759013175964, 0.005712669808417559, -0.0034913537092506886, -0.0013180923415347934, -0.002184696728363633, 0.009669073857367039, 0.0016771083464846015, 0.0027265294920653105, -0.004659306723624468, 0.0012115301797166467, 0.0021342188119888306, -0.0017740490147843957, 0.0047163893468678, 0.011215168051421642, 0.0021831300109624863, 0.0033927159383893013, -0.006274756509810686, 0.004766735713928938, 0.0017915804637596011, -0.002489658771082759, 0.003881654003635049, 0.015269076451659203, 0.0026285648345947266, 0.003489599796012044, 0.006846798583865166, -0.004490850493311882, 0.0031209345906972885, 0.0020572091452777386, 0.002043807879090309, -0.0013764009345322847, -0.001549883745610714, 0.0011057201772928238, -0.0020378604531288147, -0.005599715746939182, 0.004291552118957043, 0.0012642575893551111, -0.0003935268905479461, 0.00289529818110168, 0.002734584966674447, -0.002550287637859583, 0.00032191682839766145, 0.001263545942492783, 0.008268297649919987, 0.002009959891438484, -0.0017723341006785631, 0.00895069632679224, -0.002263279166072607, 0.00646632956340909, 0.0030476206447929144, 0.0011245328933000565, 0.0015284259570762515, 0.0007133687031455338, 0.0014573716325685382, -0.007565471343696117, 0.0018891145009547472, -0.0028502170462161303, -0.007980944588780403, -0.007383075077086687, -0.002492503495886922, -0.0080609992146492, 0.005434154532849789, -0.0037168089766055346, -0.0031594543252140284, 0.001245988649316132, -0.0017791634891182184, -0.007678261958062649, 0.0009823422878980637, 0.002183192642405629, 0.0008960531558841467, 0.004725246224552393, 0.0009295498603023589, 0.0020036911591887474, -0.002630573231726885, -0.005545306019484997, 0.0025228788144886494, 0.0022664156276732683, -0.0013703977456316352, -0.002154560759663582, 0.003155534155666828, -0.002426896709948778], [-0.011243761517107487, -0.005534953437745571, -0.006415284238755703, 0.003675773274153471, 0.0009508676012046635, 0.01613321714103222, 0.015048075467348099, -0.0038275383412837982, 0.024131493642926216, 0.018338367342948914, -0.010610834695398808, -0.009254461154341698, 0.01248957496136427, -0.01882542297244072, 0.00046516949078068137, -0.005045928992331028, 0.003108890727162361, -0.0009970301762223244, 0.00021124804334249347, -0.005913646426051855, 0.004725208971649408, -0.049251966178417206, 0.0037256323266774416, -0.005083450581878424, -0.004011413548141718, -0.08936925232410431, 0.003054568776860833, 0.03115895949304104, -0.010927301831543446, 0.012646576389670372, 0.013248701579868793, -0.0014656316488981247, 0.0005670233513228595, 0.0019339300924912095, -0.011642196215689182, -0.0026873110327869654, 0.015541131608188152, 0.004411277826875448, -0.0015463032759726048, -0.007102127652615309, 0.017272796481847763, -0.00040325152804143727, 0.008064355701208115, 0.010861920192837715, 0.0015378004172816873, 0.005074709188193083, 0.0037920980248600245, -0.007507896050810814, -0.0006394908996298909, 0.0185471810400486, 0.009156778454780579, -0.00681552616879344, 0.0027203664649277925, -0.007150996942073107, -0.010800434276461601, 0.007549469359219074, 0.017006205394864082, 0.0067977760918438435, 0.011858697980642319, -0.010582690127193928, -0.016191313043236732, -0.020048268139362335, -0.0020331216510385275, -0.005178076680749655, -0.006026385352015495, -0.014711625874042511, -0.005495323333889246, -0.0037299110554158688, 0.0010107937268912792, -0.0030052552465349436, 0.003034026362001896, 0.0007049047853797674, 0.00790857058018446, -0.05312196910381317, 0.007695735897868872, -0.0036620935425162315, 0.046494822949171066, 0.0018266456900164485, -0.008673358708620071, -0.006908828858286142], [0.0006104088970459998, 0.012608792632818222, -0.0028432877734303474, -0.006426127627491951, -0.00773578230291605, 0.008468301966786385, -0.011778322048485279, 0.008092300035059452, -0.017089970409870148, 0.004258946981281042, 0.00836095865815878, -0.00453169783577323, -0.010160335339605808, -0.05249142646789551, 0.0066039771772921085, -0.0029360365588217974, -0.010810134932398796, 0.006771575193852186, 0.0065998793579638, -0.005126113072037697, 0.0007675171946175396, -0.0008899574750103056, 0.008100615814328194, 0.0048643904738128185, 0.010956360958516598, -0.015031767077744007, 0.006468604784458876, -0.0018798225792124867, -0.0014810796128585935, -0.011133290827274323, -0.009007519111037254, 0.004667670000344515, -0.005545974243432283, -0.0076103187166154385, 0.010304181836545467, 0.006742430385202169, -0.021353645250201225, 0.006990657187998295, 0.008194412104785442, -0.004093249328434467, 0.00014409991854336113, 0.008041128516197205, 0.012057408690452576, 0.0030824316199868917, 0.007545837666839361, -0.00234045903198421, -0.010795745067298412, 0.0079292431473732, 0.008045699447393417, 0.0033667718525975943, 0.0036973319947719574, 0.008380153216421604, 0.005268629174679518, -0.012644325383007526, -0.006569328717887402, -0.01169724203646183, -0.00616463040933013, -0.011982070282101631, -0.011633987538516521, 0.002354735741391778, 0.01487712375819683, 0.0069657969288527966, 0.00868802610784769, 0.000849296513479203, 0.002611484145745635, 0.015435785986483097, 0.009810658171772957, 0.004449667874723673, 0.0068698120303452015, 0.001332667306996882, 0.004937639459967613, 0.006380765698850155, 0.002427463186904788, 0.019584525376558304, 0.0030272528529167175, -0.003830472705885768, 0.01213711779564619, -0.007413721177726984, 0.00987914577126503, -0.004386968910694122], [-0.002492002910003066, 0.0026395961176604033, -0.0036846555303782225, -0.006500965915620327, -0.006697738077491522, 0.0014304460491985083, -0.010550699196755886, 0.006289500743150711, -0.006925304885953665, 0.006124983076006174, 0.005769236478954554, -0.005219051148742437, -0.01075631845742464, -0.0356338731944561, 0.006303069181740284, -0.007020244374871254, -0.002297070575878024, 0.0009772023186087608, 0.006876569241285324, -0.006104512605816126, 0.0006301766843535006, -0.010004938580095768, 0.006928565911948681, -0.00016836720169521868, 0.003274972317740321, -0.031081505119800568, 0.0059754494577646255, 0.001618498470634222, -0.003275851486250758, -0.007942280732095242, -0.0023646478075534105, 0.005352247040718794, -0.005017800722271204, -0.0017566517926752567, 0.0022393681574612856, 0.006522404961287975, 0.0010759152937680483, 0.006592926569283009, 0.006371553521603346, -0.0043623000383377075, 0.002259764587506652, 0.008019101805984974, 0.0024096311535686255, 0.0043516275472939014, 0.009260517545044422, -0.004778812639415264, -0.00857815332710743, 0.002739508170634508, 0.006499261595308781, 0.0074455467984080315, 0.0058315410278737545, 0.00777770159766078, 0.006334397476166487, -0.0008743436192162335, -0.008299075998365879, -0.007262382190674543, 6.526217475766316e-05, -0.003480423241853714, -0.0067454189993441105, 0.002740890020504594, 0.005719403736293316, 0.003878012066707015, 0.007573706563562155, -0.0023203305900096893, 0.002007744275033474, 0.012377372942864895, 0.008700117468833923, 0.001683104783296585, 0.007332954090088606, -0.0005560776335187256, 0.006021504756063223, 0.00623110169544816, 0.0038233899977058172, 0.012830986641347408, 0.004477480426430702, -0.004117888398468494, 0.02465629205107689, -0.006481367163360119, 0.0054824198596179485, -0.005612795241177082], [0.005776878912001848, 0.003266182728111744, -0.003791101509705186, -0.0014945627190172672, -0.0020917379297316074, 0.010191328823566437, 0.00201577041298151, 0.002570594660937786, -0.003484731772914529, 7.490057760151103e-05, 0.0019474794389680028, -0.0017966770101338625, 0.005604297388345003, 0.028200380504131317, 0.002230450976639986, 0.0007958814385347068, -0.004674137104302645, 0.0032331454567611217, 0.001740088453516364, -0.0024607996456325054, 0.003572713350877166, 0.019366666674613953, 0.0025489868130534887, 0.001314904191531241, 0.005133626516908407, -0.01195652037858963, 0.003027979051694274, -0.0003885905898641795, 0.0013905875384807587, -0.0008650017553009093, 0.00269693392328918, 0.004325957503169775, -0.0023247655481100082, -0.004446043167263269, 0.0035961975809186697, 0.001457478036172688, 0.009670873172581196, 0.002780232345685363, 0.0027306347619742155, -0.0030637045856565237, -0.00019061578495893627, 0.0010448881657794118, 0.007346746511757374, 0.0018841587007045746, -0.001933170948177576, 0.008500768803060055, -0.0015681860968470573, 0.005473738070577383, 0.0026427654083818197, 0.0006842437433078885, 0.001545471022836864, 0.000652873597573489, 0.0015683862147852778, -0.005278781522065401, 0.0015122414333745837, -0.0020796966273337603, -0.008230249397456646, -0.005473130848258734, -0.0018638952169567347, -0.007617134600877762, 0.0036927058827131987, -0.0026164946611970663, -0.001493048039264977, -0.001574064022861421, -0.002035195007920265, -0.0054552494548261166, 0.0009296233183704317, 0.0010744754690676928, 0.000968227453995496, 0.004734362475574017, 0.0011218924773856997, 0.002291679149493575, -0.0027782567776739597, -0.0027489273343235254, 0.00288012926466763, 0.0015704113757237792, 0.01037182379513979, -0.0023130944464355707, 0.0025327468756586313, -0.0024231658317148685], [0.00640943692997098, 0.00849369540810585, -0.005556574556976557, -0.003219343489035964, -0.004764028359204531, 0.01597369834780693, -0.0032076488714665174, 0.006037383805960417, -0.011641866527497768, 0.0011711405823007226, 0.006455585826188326, -0.0024030685890465975, -0.0004059856873936951, 0.03674936294555664, 0.004430851433426142, 0.00461836950853467, -0.009177607484161854, 0.006271665915846825, 0.003942962270230055, -0.0038047893904149532, 0.004721207078546286, 0.01229251828044653, 0.00503009045496583, 0.004509931430220604, 0.011299989186227322, -0.0010637501254677773, 0.005853430368006229, 3.6584915505954996e-05, 0.0022542523220181465, -0.0063086021691560745, -0.005460962187498808, 0.0014741583727300167, -0.003938690759241581, -0.008524320088326931, 0.013654553331434727, 0.0031321293208748102, -0.005062482785433531, 0.0053828866221010685, 0.005869290791451931, -0.004931784234941006, -0.0012391965137794614, 0.0031898394227027893, 0.014502184465527534, 0.002501297276467085, -0.0004618317761924118, 0.008036261424422264, -0.005242710933089256, 0.008396412245929241, 0.005722350440919399, 6.00786333961878e-05, 0.001780932885594666, 0.003336376743391156, 0.0023804446682333946, -0.013432704843580723, 0.0019067287212237716, -0.007529142778366804, -0.009491185657680035, -0.010888725519180298, -0.008206366561353207, -0.004684948828071356, 0.011859306134283543, -0.0046877567656338215, -0.0022134517785161734, 0.0015009759226813912, -0.0011396583868190646, -0.010626292787492275, 0.0037249079905450344, 0.002755930181592703, 0.0024896464310586452, 0.004662948660552502, 0.0018129836535081267, 0.00442170538008213, -0.0033248462714254856, 0.004066244699060917, 0.004145054612308741, 0.002093205228447914, 0.005342285148799419, -0.004848525393754244, 0.008419034071266651, -0.00395930465310812], [-0.00017334948643110693, 0.002725121797993779, -0.0021282497327774763, -0.00039938223198987544, -0.001129118842072785, 0.002961797174066305, -0.0006389048066921532, 0.0011817197082564235, -0.0013389894738793373, 0.006240286864340305, 0.0004281634755898267, -0.002227684948593378, -2.6579464247333817e-05, 0.004674042575061321, 0.0010128894355148077, 0.0037993520963937044, -0.0024020925629884005, 0.0023574160877615213, 0.0012077605351805687, -0.001961042173206806, 0.0017759158508852124, -0.007241563871502876, 0.00193819182459265, 0.002173978602513671, 0.002128223655745387, 0.009197911247611046, 0.0019193051848560572, 0.002808400895446539, 0.0004235856467857957, -0.0009323452832177281, -0.002473339904099703, -0.0020381025969982147, -0.0004442559729795903, -0.0020806360989809036, 0.0009818433318287134, 0.000539633329026401, -0.0033529717475175858, 0.0021817407105118036, 0.0011969628976657987, -0.00151227752212435, 0.0009137906599789858, 0.001097058760933578, 0.003137872787192464, 0.0031873215921223164, -6.805839802836999e-05, 0.0017896551871672273, -0.0015373450005427003, 0.00054105871822685, 0.0015831245109438896, 0.003605710109695792, 0.0012386656599119306, 0.0005653502885252237, 0.0007077844347804785, -0.0031165091786533594, -7.793158874846995e-05, -0.0015756388893350959, 0.00045878469245508313, -0.001183140673674643, -0.0012013912200927734, -0.0028871127869933844, 0.0020163862500339746, -0.003976690582931042, -0.0012286461424082518, 0.001904452103190124, -0.00046325556468218565, -0.0023799703922122717, 0.0007621981203556061, 0.0010364989284425974, 0.000854113488458097, 0.0005881792167201638, 0.000533025711774826, 0.0009662820375524461, -0.0004254792584106326, 0.007706847973167896, 0.001816312549635768, 0.0005000084056518972, 0.002081652171909809, -0.0009715418564155698, 0.001202907762490213, -0.0020693389233201742], [0.04359622672200203, 0.03571188822388649, 0.04333470016717911, 0.031551461666822433, 0.03594764694571495, 0.036033425480127335, 0.08661234378814697, -0.05890874192118645, -0.010721253231167793, 0.04439207911491394, -0.043367501348257065, 0.06699533015489578, 0.033079031854867935, 0.09277762472629547, -0.05991743505001068, 0.07025071978569031, -0.03281999006867409, 0.03726174309849739, -0.04129907488822937, 0.059116896241903305, 0.029512908309698105, 0.05799012631177902, -0.06047152355313301, 0.03498925641179085, 0.031181173399090767, 0.09542304277420044, -0.02417055331170559, 0.04912519454956055, 0.00404189620167017, 0.07934196293354034, -0.018654998391866684, -0.05636013299226761, 0.03575873002409935, -0.034737419337034225, -0.054981183260679245, -0.05285844951868057, -0.0811256468296051, -0.04774976894259453, -0.027501273900270462, 0.07567432522773743, 0.011374873109161854, -0.0702788382768631, 0.02921193838119507, -0.034191180020570755, -0.0014768963446840644, 0.0357498824596405, 0.06903231143951416, 0.013972538523375988, -0.02327030338346958, 0.004390752874314785, -0.03282541409134865, -0.05145249515771866, -0.03539598733186722, -0.06119048595428467, 0.0026368398685008287, 0.0699630007147789, 0.007157887332141399, -0.02339702472090721, 0.055682484060525894, -0.03752363845705986, 0.0275946743786335, -0.07824670523405075, -0.03898957744240761, 0.04395950585603714, -0.016273358836770058, -0.027454601600766182, -0.0670643076300621, 0.028662368655204773, -0.08194192498922348, 0.012740081176161766, -0.033460915088653564, -0.04844047874212265, -0.0201273150742054, -0.02620684541761875, -0.04759325459599495, 0.024782730266451836, 0.05518963560461998, 0.04308134317398071, -0.05631528049707413, 0.05946242809295654], [0.00932177435606718, 0.00957412924617529, -0.005229638423770666, -0.0030911951325833797, -0.004470227286219597, 0.01596190221607685, -0.002009573159739375, 0.005712274461984634, -0.009983097203075886, 0.0003055343113373965, 0.006178113166242838, -0.001759748556651175, 0.0014323015930131078, 0.01567627489566803, 0.004236568231135607, 0.0053850142285227776, -0.00997905246913433, 0.00740696769207716, 0.0035941163077950478, -0.003316628746688366, 0.005213803146034479, 0.01639634743332863, 0.004484153818339109, 0.006225754506886005, 0.011508443392813206, -0.0030873646028339863, 0.0054361275397241116, 4.0368566260440275e-05, 0.003752346383407712, -0.00554515840485692, -0.00643235445022583, 0.0016127795679494739, -0.004045908804982901, -0.009248661808669567, 0.011744678020477295, 0.0029637415427714586, -0.011596931144595146, 0.004761208780109882, 0.005558693315833807, -0.004415539093315601, -0.001888709724880755, 0.002784094074741006, 0.013887422159314156, 0.001847855164669454, -0.0013158653164282441, 0.012117920443415642, -0.00483280373737216, 0.00984139647334814, 0.005494032986462116, -0.0010178607190027833, 0.0014246476348489523, 0.0029588122852146626, 0.0022572288289666176, -0.013803320936858654, 0.0028704293072223663, -0.006746294442564249, -0.011850977316498756, -0.011912357993423939, -0.007225164212286472, -0.008110173977911472, 0.010452291928231716, -0.004399970639497042, -0.002510880818590522, 0.002772917505353689, -0.0013378913281485438, -0.010711750015616417, 0.0032239730935543776, 0.0037095029838383198, 0.0020676152780652046, 0.006517445202916861, 0.001526855630800128, 0.0041305311024188995, -0.004705950152128935, -0.00013096957991365343, 0.003611934371292591, 0.0027985682245343924, 0.002497986191883683, -0.004591956268996, 0.0076790680177509785, -0.003328812075778842], [-0.0042706821113824844, -0.00673168059438467, 7.389132952084765e-05, -0.003333848901093006, -0.0027937835548073053, -0.012117616832256317, -0.007434630300849676, 0.0008865562849678099, -0.0014114707009866834, 0.0007217884995043278, -0.0002835943887475878, -0.00043039675801992416, -0.009361590258777142, -0.039855360984802246, 0.002660647965967655, -0.020543644204735756, 0.0054884557612240314, -0.006699268706142902, 0.0032419166527688503, -0.003442196175456047, -0.002598272869363427, -0.010810697451233864, 0.0010990966111421585, -0.009058353491127491, -0.003546382999047637, -0.059866368770599365, 0.0016728495247662067, 0.0027267474215477705, -0.00953340157866478, -0.003174207406118512, 0.005353364162147045, 0.013431109488010406, -0.0023725302889943123, 0.0050466665998101234, -0.010481894947588444, 0.0038988881278783083, 0.024942481890320778, 0.001887372462078929, 0.0010355912381783128, 0.0004796902649104595, 0.005354182794690132, 0.0042956010438501835, -0.007965208031237125, -0.0005212543765082955, 0.01223544031381607, -0.004477100446820259, -0.003293008543550968, -0.002183660864830017, 0.0040295016951859, 0.0056806025095283985, 0.004527120850980282, 0.0024886729661375284, 0.004131705034524202, 0.008067301474511623, -0.01661597192287445, -0.0007705144234932959, 0.006442805752158165, 0.0033540395088493824, -0.00122670060954988, 0.0039873672649264336, 0.00045730825513601303, 0.008812838234007359, 0.014317686669528484, -0.0117647098377347, 0.0030077577102929354, 0.019149241968989372, 0.0020413415040820837, -0.0033876930829137564, 0.004721757490187883, -0.004921748302876949, 0.004310662858188152, 0.0022235021460801363, 0.007414254359900951, 0.0053207771852612495, 0.00017290690448135138, -0.00932808592915535, 0.0445871502161026, -0.0014823199016973376, -0.00075464544352144, -9.235799552698154e-06], [0.0033714782912284136, 0.014843187294900417, -0.004035348072648048, -0.004104339983314276, -0.005895109847187996, 0.01653210073709488, -0.0073426212184131145, 0.006883508991450071, -0.017357034608721733, 0.007033145986497402, 0.007152590900659561, -0.0033960824366658926, -0.004982402082532644, -0.009606372565031052, 0.004966781008988619, 0.005529049318283796, -0.013554509729146957, 0.008803298696875572, 0.00499721011146903, -0.004529756493866444, 0.003573645604774356, 0.0038203634321689606, 0.006247230805456638, 0.006732927169650793, 0.013612368144094944, 0.012095505371689796, 0.0061707464046776295, 0.000425611506216228, 0.00040362589061260223, -0.008796513080596924, -0.012875069864094257, -0.000551177654415369, -0.003664950840175152, -0.01003850158303976, 0.013877730816602707, 0.003984454553574324, -0.025913618505001068, 0.00628534983843565, 0.006292802281677723, -0.0031803634483367205, 0.0002427831059321761, 0.004948506597429514, 0.017835000529885292, 0.004170857835561037, 0.0027019730769097805, 0.004990911111235619, -0.008215327747166157, 0.007704215589910746, 0.007268576882779598, 0.0023364468943327665, 0.0023362552747130394, 0.00517853070050478, 0.0032322604674845934, -0.01818731054663658, -0.0006072053220123053, -0.010020341724157333, -0.0056841312907636166, -0.013157032430171967, -0.010117785073816776, -0.003308502957224846, 0.017100458964705467, -0.0022319252602756023, 0.0003007033665198833, 0.0031076553277671337, -0.00030335341580212116, -0.006106493528932333, 0.005789106246083975, 0.00391842145472765, 0.0038186656311154366, 0.0023703649640083313, 0.0025683785788714886, 0.004502832889556885, -0.0005344373639672995, 0.01604149118065834, 0.0033061299473047256, 0.00044390151742845774, -0.011134492233395576, -0.005333651788532734, 0.009557323530316353, -0.00403602933511138], [-0.009493422694504261, 0.00028851800016127527, -0.005083776079118252, 0.004709848202764988, -0.0006408895715139806, 0.0639747828245163, 0.02587016299366951, 0.005962241441011429, 0.024489808827638626, 0.05923822894692421, -0.01147623173892498, -0.011298423632979393, 0.045500654727220535, 0.039638444781303406, 0.00028151727747172117, 0.012360287830233574, 0.0029705048073083162, 0.011374164372682571, 0.009376942180097103, -0.00873489212244749, 0.022164398804306984, -0.10791989415884018, 0.0020642047747969627, 0.00327651621773839, 0.006672885734587908, -0.06979057192802429, 0.007980967871844769, 0.08295019716024399, 0.006075037643313408, 0.004060395993292332, 0.02506217174232006, -0.04822995513677597, 0.006195143796503544, -0.008955873548984528, 0.008673823438584805, -0.0012665364192798734, -0.030559631064534187, 0.007432102225720882, -0.0033300546929240227, 0.0031672045588493347, 0.02463032677769661, -0.0016297432594001293, 0.05199747905135155, 0.025062840431928635, -0.014588979072868824, 0.03571990132331848, -0.0010281200520694256, 0.001189072267152369, 0.009842855855822563, 0.022173628211021423, 0.005738039966672659, -0.0042124176397919655, 0.0006040026200935245, -0.055019959807395935, 0.01303445640951395, -0.008460167795419693, 0.01857176050543785, -0.003159123472869396, 0.002072816016152501, -0.04304781183600426, -0.007615768816322088, -0.06022655963897705, -0.03208322077989578, 0.030714983120560646, -0.028145672753453255, -0.04516402631998062, -0.004767939914017916, 0.006065303925424814, -0.0006665709661319852, 0.01944345235824585, -0.0007784433546476066, -0.005951079074293375, -0.009547900408506393, -0.12925566732883453, 0.0061964066699147224, 0.019897107034921646, 0.10421611368656158, 0.005074084736406803, 0.0042115263640880585, -0.010523528791964054], [0.00894997175782919, 0.009176823310554028, -0.005898471921682358, -0.0037262355908751488, -0.005424777045845985, 0.016673805192112923, -0.002475718967616558, 0.006816310808062553, -0.012096074409782887, 0.0014946908922865987, 0.007353262510150671, -0.0028030239045619965, 0.0013949398417025805, 0.032204627990722656, 0.005069979000836611, 0.005413325969129801, -0.009826939553022385, 0.0071492064744234085, 0.0044606029987335205, -0.0041907248087227345, 0.005459154956042767, 0.01639319397509098, 0.005522150080651045, 0.00552082434296608, 0.011064736172556877, 0.003479776205495, 0.006355813704431057, 0.0005934126675128937, 0.002690225141122937, -0.0068092914298176765, -0.0053643109276890755, 0.0011878673685714602, -0.004732636734843254, -0.008965941146016121, 0.014347183518111706, 0.0036635820288211107, -0.004398069344460964, 0.005797612946480513, 0.0065795620903372765, -0.005144030321389437, -0.00117784203030169, 0.0035188838373869658, 0.015125012956559658, 0.0029797623865306377, -0.0009281680686399341, 0.009922661818563938, -0.005875362083315849, 0.009260503575205803, 0.0064559816382825375, -0.0007020243210718036, 0.0019514282466843724, 0.0036811577156186104, 0.0028237944934517145, -0.013878067024052143, 0.0023344517685472965, -0.008276448585093021, -0.010749421082437038, -0.011288243345916271, -0.008904507383704185, -0.006583315320312977, 0.012254617176949978, -0.005133872851729393, -0.003216301556676626, 0.0022867596708238125, -0.0016831404063850641, -0.01070629432797432, 0.004010586999356747, 0.0036719751078635454, 0.0027813855558633804, 0.00619545578956604, 0.002106153406202793, 0.005000391509383917, -0.003856839844956994, 0.0006693035247735679, 0.004443814512342215, 0.002727190963923931, -0.0007372161489911377, -0.0055168610997498035, 0.009264419786632061, -0.0041879224590957165], [-0.0038295863196253777, 0.010944246314466, -0.012276939116418362, 0.000630922382697463, -0.0051049585454165936, 0.031130630522966385, 0.009822708554565907, 0.0038921318482607603, 0.013397909700870514, 0.0366431288421154, -0.004187519196420908, -0.015504494309425354, 0.010075634345412254, 0.04401193931698799, 0.005059766583144665, 0.029574627056717873, -0.009902720339596272, 0.012274348177015781, 0.006396347191184759, -0.012906883843243122, 0.010248019360005856, -0.05557730048894882, 0.010745285078883171, 0.012919021770358086, 0.005675114691257477, 0.05908935144543648, 0.010470652021467686, 0.027771787717938423, 0.002756905509158969, 0.0039322394877672195, -0.01158951222896576, -0.0222379919141531, -0.0012461313745006919, -0.008234825916588306, 0.0019212078768759966, 0.000975743168964982, -0.03295966982841492, 0.011752757243812084, 0.004563165362924337, -0.010732641443610191, 0.014423440210521221, 0.005794626194983721, 0.02599172852933407, 0.019769351929426193, 0.0003449592331890017, 0.016299499198794365, -0.005582716315984726, -0.0015485187759622931, 0.007693400606513023, 0.029097359627485275, 0.01245130319148302, -0.001713528879918158, 0.00534496596083045, -0.032923705875873566, -0.0039852992631495, -0.003292793408036232, 0.013941708020865917, -0.001479222089983523, 0.0018128531519323587, -0.023057637736201286, -0.0007682255236431956, -0.032282281666994095, -0.01515165250748396, 0.015414186753332615, -0.007266912143677473, -0.046278685331344604, -0.0010478778276592493, 0.006307492032647133, 0.004665598273277283, 0.002179040340706706, 0.00405831029638648, 0.0042470465414226055, -0.0022074789740145206, -0.016906479373574257, 0.012442621402442455, 0.00709485961124301, -0.005444078240543604, -0.0031008950900286436, 0.0013702163705602288, -0.013898545876145363], [0.019341424107551575, -0.009349796921014786, 0.03144047036767006, 0.03677516430616379, 0.037899699062108994, -0.01778426021337509, 0.04568881168961525, -0.055056381970644, 0.00291262986138463, -0.010272737592458725, -0.04051186889410019, 0.05692164972424507, 0.03419376164674759, -0.00975503958761692, -0.034769706428050995, -0.018414651975035667, 0.007240703795105219, -0.00810142420232296, -0.040736325085163116, 0.03863910585641861, -0.004007783718407154, 0.0026834427844733, -0.05756648629903793, -0.010386558249592781, -0.006533157546073198, -0.05607164278626442, -0.03448978438973427, -0.002111823996528983, -0.0054744575172662735, 0.05258660390973091, 0.011429579928517342, 0.011746776290237904, 0.0482516847550869, 0.006740375887602568, -0.0685281902551651, -0.041660699993371964, 0.044897135347127914, -0.04814557731151581, -0.05023382231593132, 0.05173011124134064, 0.0018920480506494641, -0.04194309934973717, -0.015249330550432205, -0.05246494337916374, -0.008092165924608707, 0.007722735870629549, 0.038973137736320496, -0.003464251523837447, -0.033564575016498566, -0.013359474949538708, -0.026877328753471375, -0.03556474298238754, -0.03354121372103691, 0.017413923516869545, -0.00838934350758791, 0.04715348407626152, 0.0038683388847857714, 0.005902326200157404, 0.04552765563130379, 0.00048450028407387435, -0.004863215610384941, 0.010151729919016361, 0.010378417558968067, -0.012238130904734135, 0.002021982567384839, 0.020025042816996574, -0.05520516261458397, -0.004667927976697683, -0.03981846570968628, -0.004182538017630577, -0.041296303272247314, -0.05008508265018463, -0.013709950260818005, -0.0013392100809141994, -0.03939638286828995, -0.006946021690964699, 0.0333460196852684, 0.05370360240340233, -0.0507618747651577, 0.052194833755493164], [0.004197865724563599, 0.0013743167510256171, -0.006641725078225136, 0.0071928491815924644, 0.0042829751037061214, 0.017657659947872162, 0.015436132438480854, -0.0033908269833773375, 0.008099038153886795, 0.006454454734921455, -0.009382233023643494, -0.006287130061537027, 0.024428829550743103, 0.009170597419142723, -0.0032740833703428507, 5.022775803809054e-05, -0.0028892892878502607, 0.004512576386332512, -0.0034961358178406954, -0.003939786925911903, 0.004618419799953699, 0.0072586750611662865, 0.0006191146094352007, 0.0019214254571124911, -0.0013283069711178541, -0.03090333379805088, 0.0003397650143597275, 0.015995647758245468, 0.006521269679069519, 0.008904479444026947, 0.00853551272302866, 0.0013975764159113169, 0.004350835457444191, -0.0010716853430494666, -0.0012096057180315256, -0.005817986559122801, -0.004786261357367039, 0.0015893731033429503, -0.0038133140187710524, -0.00303208502009511, 0.008385036140680313, -0.004856104496866465, 0.01536740642040968, 0.007958045229315758, -0.012227281928062439, 0.020651575177907944, 0.003663350362330675, -0.00022231267939787358, -0.001276461873203516, 0.013885867781937122, 0.002754783723503351, -0.008733346126973629, -0.002929678186774254, -0.01948751136660576, 0.002847878960892558, 0.0038333104457706213, -0.001872582477517426, 0.0005582295707426965, 0.007134363055229187, -0.025538085028529167, -0.0028405357152223587, -0.00818955060094595, -0.006165863014757633, -0.0004898039042018354, -0.006383756175637245, -0.00613707210868597, -0.007562873885035515, -0.00043172555160708725, -0.004914871882647276, 0.0068572391755878925, -0.004344360902905464, -0.004276530351489782, -0.010967504233121872, -0.023920927196741104, 0.004704624880105257, 0.001812614849768579, 0.007582137826830149, 0.0051592867821455, -0.0048227207735180855, -0.004447700455784798], [-0.027803152799606323, 0.024058382958173752, -0.06684482842683792, -0.04898702725768089, -0.05081932619214058, 0.09819535911083221, -0.07126542180776596, 0.07681946456432343, -0.031950898468494415, 0.042174506932497025, 0.04880058020353317, -0.06907492876052856, -0.04366246238350868, 0.09449178725481033, 0.05878613889217377, 0.021016031503677368, -0.023341473191976547, 0.018792565912008286, 0.048652030527591705, -0.05669069290161133, 0.013699072413146496, -0.014204303734004498, 0.09010791033506393, 0.01579993963241577, 0.022369973361492157, 0.08115096390247345, 0.06673887372016907, 0.00708395428955555, 0.0016271636122837663, -0.04837774857878685, -0.019729064777493477, -0.005888257175683975, -0.05750638246536255, -0.01989203691482544, 0.0868830606341362, 0.05049058422446251, -0.10886078327894211, 0.07100275903940201, 0.057809293270111084, -0.08883653581142426, 0.004126261454075575, 0.05516953393816948, 0.09028579294681549, 0.07966811209917068, 0.01972321793437004, -0.00829876959323883, -0.06449662148952484, 0.014181814156472683, 0.05662883073091507, 0.03120049647986889, 0.04400448873639107, 0.048279233276844025, 0.04843181371688843, -0.0914284884929657, -0.0018619825132191181, -0.07570948451757431, -0.011120610870420933, -0.019042616710066795, -0.07318833470344543, -0.003587629646062851, 0.03399655967950821, -0.01947997510433197, -0.006010019686073065, 0.010383153334259987, -0.0038855168968439102, -0.02613040804862976, 0.06282790750265121, 0.010746423155069351, 0.06854446977376938, 0.00829721987247467, 0.04878394305706024, 0.06615734845399857, 0.021430594846606255, 0.03194265812635422, 0.07307372242212296, 0.005562479142099619, 0.012199399061501026, -0.06770475208759308, 0.062296830117702484, -0.048042479902505875], [-0.008381780236959457, -0.011465857736766338, -0.011067111045122147, -0.0007432728889398277, -0.0024337286595255136, 0.011590150184929371, 0.0028225525747984648, 0.0008694663411006331, 0.006983790080994368, 0.008820426650345325, -0.0031650897581130266, -0.012427159585058689, 0.003320189192891121, -0.04117544740438461, 0.0036205598153173923, -0.0245528481900692, 0.007598928641527891, -0.0047496831975877285, 0.003650304861366749, -0.008504041470587254, 0.004745442885905504, -0.019125085324048996, 0.0063540698029100895, -0.01032039150595665, -0.007465988397598267, -0.11574089527130127, 0.005701764021068811, 0.014105918817222118, -0.01039431057870388, 0.002849970245733857, 0.016480352729558945, 0.01194022037088871, -0.0029159248806536198, 0.0045132883824408054, -0.0049026221968233585, 0.0017278369050472975, 0.02431523986160755, 0.007430721074342728, 0.0024709689896553755, -0.011883164756000042, 0.014570160768926144, 0.0027252023573964834, 0.006924489513039589, 0.011584442108869553, 0.003130580298602581, -0.0017162039875984192, -0.0011014010524377227, -0.007491838652640581, 0.002276061335578561, 0.01517744455486536, 0.009179546497762203, -0.0003836455871351063, 0.004472573287785053, -0.0036839761305600405, -0.008351570926606655, 0.0007832390838302672, 0.012271203100681305, 0.008731423877179623, 0.002818536479026079, -0.002225936623290181, -0.006038039922714233, -0.0012991972034797072, 0.0068045551888644695, -0.012822572141885757, -0.0061855255626142025, 0.011933534406125546, 0.001069817109964788, -0.004520578309893608, 0.00394357368350029, -0.005132182966917753, 0.0047069089487195015, 0.004472116474062204, 0.006545923184603453, -0.0112385842949152, 0.011487954296171665, -0.004958792589604855, 0.057978592813014984, -0.002542005153372884, -0.002094584284350276, -0.009959936141967773], [0.004256086423993111, 0.004743233788758516, -0.004392186179757118, -0.00020872212189715356, -0.0014406333211809397, 0.006116053089499474, 0.004320095293223858, 0.0016151693416759372, -0.0005388159188441932, 0.0036516368854790926, 3.447905692155473e-05, -0.002981161465868354, 0.0067072282545268536, 0.012811943888664246, 0.0015017669647932053, 0.004999437369406223, -0.005119220353662968, 0.004353552591055632, 0.0012915345141664147, -0.0031161573715507984, 0.0037307862658053637, 0.008682671003043652, 0.002763130236417055, 0.003433262463659048, 0.005228650290518999, -0.003982980735599995, 0.003257832257077098, 0.004997768439352512, 0.0012090421514585614, 0.0009282088722102344, -0.0024359687231481075, -0.0012777415104210377, -0.001224271603859961, -0.004539125598967075, 0.0013029234251007438, 0.000359374622348696, 0.0019804793410003185, 0.0032156503293663263, 0.001863966346718371, -0.0030393858905881643, 0.0017801029607653618, 0.0006467172061093152, 0.004975726827979088, 0.003782636485993862, -0.0021665317472070456, 0.009276822209358215, -0.0011299354955554008, 0.004003910347819328, 0.002422233344987035, 0.002865773858502507, 0.001798839308321476, -0.0007026625098660588, 0.0010362786706537008, -0.0044817328453063965, 0.0013440472539514303, -0.0010662691202014685, -0.0038408164400607347, -0.0049855588003993034, -0.0001142803521361202, -0.008761949837207794, 0.0027404192369431257, -0.0060945600271224976, -0.003875685390084982, 0.0019585960544645786, -0.0019125282997265458, -0.009904509410262108, -0.0005836491473019123, 0.0015778961824253201, 0.0003449541691225022, 0.003076390828937292, 0.000529021373949945, 0.0013334760442376137, -0.0013680843403562903, -0.007921455428004265, 0.003267014632001519, 0.002142519224435091, -0.004807364195585251, -0.0012105791829526424, 0.0011799483327195048, -0.0032947200816124678], [0.0005854797200299799, 0.008043354377150536, -0.001584440702572465, -0.003212520619854331, -0.003945402335375547, 0.00837030727416277, -0.006622754968702793, 0.004401238169521093, -0.011697009205818176, 0.004223422612994909, 0.004682243801653385, -0.0018728029681369662, -0.005771986674517393, -0.01730514131486416, 0.0033189733512699604, 0.00032296107383444905, -0.00706865917891264, 0.003747468115761876, 0.0034750315826386213, -0.002663189312443137, 0.0005068174214102328, -0.002275825245305896, 0.003941409755498171, 0.0023215003311634064, 0.00683042174205184, 0.0011195677798241377, 0.0035084548871964216, -0.0012450121575966477, -0.0005987652693875134, -0.00630973232910037, -0.0063747079111635685, 0.0014868114376440644, -0.00248111505061388, -0.004448621533811092, 0.00737729063257575, 0.0030894996598362923, -0.012561759911477566, 0.003693794598802924, 0.004018980078399181, -0.00161433732137084, -0.00026703387266024947, 0.0038105531129986048, 0.009373058564960957, 0.0020188484340906143, 0.0034612047020345926, -0.00034166406840085983, -0.0058260709047317505, 0.0033577452413737774, 0.004553884267807007, 0.0018088341457769275, 0.0017549264011904597, 0.0041648028418421745, 0.002540942747145891, -0.008765878155827522, -0.002122608944773674, -0.00660735322162509, -0.0019766567274928093, -0.006551387719810009, -0.0066761476919054985, 0.0004673741350416094, 0.010638461448252201, 0.001575151807628572, 0.0029525374993681908, 0.0001513507158961147, 0.0005693596322089434, 0.0036086251493543386, 0.0046531567350029945, 0.001470621908083558, 0.003103831084445119, 1.161921136372257e-05, 0.002229852369055152, 0.0030914354138076305, 0.0007176270009949803, 0.015857508406043053, 0.0016112737357616425, -0.0009710765443742275, 0.00037986066308803856, -0.0036441527772694826, 0.005832836963236332, -0.0021965759806334972], [0.017956657335162163, 0.013224522583186626, -0.011750838719308376, 0.004753547720611095, -0.0019127882551401854, 0.020851682871580124, 0.02326054312288761, 0.0037568272091448307, -0.0005992620135657489, 0.003735907142981887, -0.00214992742985487, -0.011701807379722595, 0.039224591106176376, 0.022824371233582497, 0.0011227972572669387, 0.008564232848584652, -0.012707631103694439, 0.014052714221179485, 0.0011158104753121734, -0.0101386159658432, 0.012898819521069527, 0.013701921328902245, 0.006787919905036688, 0.01265745423734188, 0.010356024838984013, 0.020008336752653122, 0.0068428125232458115, 0.024723006412386894, 0.0197299737483263, 0.001847441541031003, -0.0019315704703330994, -0.009292813017964363, 0.0015086786588653922, -0.011127710342407227, 0.008430622518062592, -0.0031631295569241047, -0.019956206902861595, 0.007482709363102913, 0.0022460785694420338, -0.005882184952497482, 0.018366679549217224, -0.00018705383990891278, 0.019144857302308083, 0.01182442158460617, -0.018772833049297333, 0.0186773668974638, -0.003998344298452139, 0.010244866833090782, 0.0064169662073254585, 0.015197143889963627, 0.005771529395133257, -0.006638416089117527, 0.0001483679807279259, -0.017981573939323425, 0.007342690136283636, -0.0064153242856264114, -0.009759081527590752, -0.011033575981855392, -0.003593956120312214, -0.020160989835858345, 0.009117051027715206, -0.010291801765561104, -0.014369386248290539, 0.01064081210643053, -0.012501528486609459, -0.007503613829612732, -0.005966636352241039, 0.008039399050176144, -0.0028501679189503193, 0.016770673915743828, -0.0032696714624762535, -0.0016184084815904498, -0.022129572927951813, -0.017773190513253212, 0.008486298844218254, 0.008905917406082153, 0.00043452027603052557, 0.0007488297414965928, 0.005732992198318243, -0.01029551774263382], [0.0030868793837726116, 4.123751932638697e-05, -0.0037375320680439472, 0.001580634736455977, 0.0008460282115265727, 0.006476263049989939, 0.0074045113287866116, -0.0010824162745848298, 0.004551941994577646, 0.0005662059993483126, -0.0032869873102754354, -0.002586989663541317, 0.010445639491081238, 0.02271130681037903, -0.00021428528998512775, -0.00026958194212056696, -0.001698099309578538, 0.0014207764761522412, -0.0006500299205072224, -0.0020948536694049835, 0.0028351787477731705, 0.012271829880774021, 0.0008987531182356179, -0.0005240798927843571, 0.0012475542025640607, -0.02675491012632847, 0.0012157774763181806, 0.003537334967404604, 0.0006998093449510634, 0.004685180261731148, 0.005625707563012838, 0.003342912532389164, 0.00014215199917089194, -0.0016681465785950422, -0.003313750959932804, -0.0012583540519699454, 0.01279984600841999, 0.00142998481169343, -0.0004337694845162332, -0.002471470506861806, 0.0022344973403960466, -0.0014168504858389497, 0.003366103395819664, 0.003070630831643939, -0.003881723852828145, 0.010280339047312737, 0.002180325100198388, 0.0017669174121692777, -0.00027420258265919983, 0.003960564266890287, 0.0016478768084198236, -0.0030582291074097157, 1.0389366252638865e-05, -0.0020938916131854057, 0.0011229324154555798, 0.002906086388975382, -0.0032324425410479307, -0.0011647712672129273, 0.004034650046378374, -0.011256593279540539, -0.002852678531780839, -0.004159401636570692, -0.0020811741705983877, -0.002871476113796234, -0.0024901493452489376, -0.006383923348039389, -0.0028139797504991293, -0.0007443720242008567, -0.001053536543622613, 0.0027283774688839912, -0.00036054212250746787, -0.00010724312596721575, -0.002354575786739588, -0.010583006776869297, 0.0028509441763162613, 0.0009287592838518322, 0.01168768759816885, 0.0007344498881138861, -0.002755908528342843, -0.002377202268689871], [-0.05049977824091911, -0.008551190607249737, -0.10526781529188156, -0.0722411572933197, -0.07956957817077637, -0.03890874981880188, -0.09004392474889755, 0.06701584160327911, 0.031446509063243866, -0.0019242430571466684, 0.06592007726430893, -0.1092434972524643, -0.07858389616012573, 0.014088534750044346, 0.09829425811767578, 0.05250517278909683, 0.01252514123916626, -0.004097744822502136, 0.09536634385585785, -0.06447271257638931, -0.0029474529437720776, -0.02690761722624302, 0.10488343983888626, 0.006160683464258909, -0.016253948211669922, 0.1277889460325241, 0.07877372950315475, 0.0033687979448586702, 0.007896809838712215, -0.08007943630218506, 0.004589299205690622, -0.03299805149435997, -0.08104759454727173, 0.012123480439186096, 0.07662215083837509, 0.11316313594579697, 0.04098246991634369, 0.07704295963048935, 0.08279740065336227, -0.08978158980607986, -0.00857594795525074, 0.09680691361427307, -0.033701341599226, 0.06675853580236435, 0.021913578733801842, -0.03030233457684517, -0.044416625052690506, -0.017141899093985558, 0.05334952101111412, 0.03644101321697235, 0.06001444533467293, 0.08811754733324051, 0.07299239188432693, -0.0318288579583168, 0.022651193663477898, -0.08411332219839096, 0.018015233799815178, 0.01632658764719963, -0.08511006832122803, 0.013858086429536343, -0.028008364140987396, -0.03570839762687683, -0.03171736001968384, 0.028748556971549988, -0.01377059705555439, -0.03941204771399498, 0.08366686850786209, -0.006477950606495142, 0.07361633330583572, -0.00020738686725962907, 0.0697328969836235, 0.08053360879421234, 0.030321622267365456, -0.012708857655525208, 0.07442940771579742, 0.020305149257183075, -0.03743252158164978, -0.08067655563354492, 0.08057023584842682, -0.11862479895353317], [0.008955263532698154, 0.010663352906703949, -0.006090223789215088, -0.0037937688175588846, -0.005587676074355841, 0.019293932244181633, -0.0030480639543384314, 0.006947919260710478, -0.012499027885496616, 0.0018430929630994797, 0.007645042147487402, -0.002796727931126952, 0.00035251781810075045, 0.03408365324139595, 0.005120846442878246, 0.006807277910411358, -0.011231699958443642, 0.008275734260678291, 0.004563566297292709, -0.0043521784245967865, 0.006165599916130304, 0.014654411002993584, 0.005635918118059635, 0.006592394318431616, 0.012869765982031822, 0.003516924101859331, 0.006651787087321281, 0.0014468570007011294, 0.0031546743120998144, -0.007097503170371056, -0.0069438680075109005, 0.0007778799626976252, -0.004674796015024185, -0.0103659238666296, 0.015798544511198997, 0.003640832845121622, -0.009078561328351498, 0.006058728788048029, 0.006676614750176668, -0.005072416737675667, -0.001235881121829152, 0.0035601742565631866, 0.01747061498463154, 0.0031482146587222815, -0.0006381795392371714, 0.010594934225082397, -0.006031875032931566, 0.010060214437544346, 0.006787510588765144, -0.0006161067867651582, 0.0020005523692816496, 0.003773416392505169, 0.0028470847755670547, -0.016595276072621346, 0.0026324293576180935, -0.008660804480314255, -0.011146735399961472, -0.01262910570949316, -0.009304201230406761, -0.006631546653807163, 0.01330764964222908, -0.006606528535485268, -0.003398001194000244, 0.002976749325171113, -0.0017361451173201203, -0.013089948333799839, 0.004018508363515139, 0.003993010614067316, 0.0027619905304163694, 0.006470475811511278, 0.0021287184208631516, 0.004971761722117662, -0.00413481192663312, 0.0011627250351011753, 0.004493876360356808, 0.0030361805111169815, 0.004047219641506672, -0.005527665372937918, 0.00980277732014656, -0.004328667186200619], [0.007378074340522289, 0.007087215315550566, -0.004724195227026939, -0.0013255529338493943, -0.002709783148020506, 0.01341154519468546, 0.0033288225531578064, 0.003361206501722336, -0.00509671401232481, 0.002605351386591792, 0.0021345990244299173, -0.002766817808151245, 0.00819266028702259, 0.01166832260787487, 0.0027146022766828537, 0.004358490463346243, -0.007620205171406269, 0.006031848955899477, 0.0021987324580550194, -0.0034756779205054045, 0.0047347224317491055, 0.015065846964716911, 0.00369494641199708, 0.00458413315936923, 0.007782794069498777, -0.004934938624501228, 0.004163323901593685, 0.003422925714403391, 0.0029866890981793404, -0.0012379150139167905, -0.0018918834393844008, 0.0008060681284405291, -0.002442252356559038, -0.006606133189052343, 0.0050772023387253284, 0.0014145380118861794, -0.0038362795021384954, 0.003906477242708206, 0.003409050405025482, -0.0033782452810555696, 0.0008489235187880695, 0.0015439291018992662, 0.011109643615782261, 0.0032978164963424206, -0.0033446750603616238, 0.012101464904844761, -0.0027976518031209707, 0.007454891689121723, 0.0038715426344424486, 0.0022608800791203976, 0.0020577351097017527, 0.0004850681289099157, 0.0017368789995089173, -0.01047024130821228, 0.002574512269347906, -0.003273815382272005, -0.009379124268889427, -0.008420987986028194, -0.002603913424536586, -0.011209351941943169, 0.006230066530406475, -0.004806064069271088, -0.004075186792761087, 0.0020161657594144344, -0.002423663856461644, -0.008943626657128334, 0.0008864480769261718, 0.002944215200841427, 0.000987010425888002, 0.006043996661901474, 0.0009145864169113338, 0.002430182881653309, -0.003947013057768345, -0.007319923955947161, 0.0034930913243442774, 0.0028915596194565296, -0.0031440379098057747, -0.0026036198250949383, 0.0034925073850899935, -0.0034259201493114233], [0.005724369082599878, 0.013288385234773159, -0.0050718653947114944, -0.0029460310470312834, -0.004584078676998615, 0.025138694792985916, -0.0027460549026727676, 0.005262493155896664, -0.013416099362075329, 0.005474722478538752, 0.005664605647325516, -0.002708152402192354, -0.000656199874356389, 0.03418749198317528, 0.003937846049666405, 0.008837795816361904, -0.013128204271197319, 0.00967150367796421, 0.0037060310132801533, -0.004161527846008539, 0.006816895678639412, 0.013144346885383129, 0.0045004915446043015, 0.0075327930971980095, 0.014885843731462955, 0.012780062854290009, 0.005624908022582531, 0.003499613143503666, 0.002917603589594364, -0.005598787218332291, -0.008929974399507046, -0.001627609133720398, -0.003388263052329421, -0.011597760953009129, 0.013115379959344864, 0.002622059313580394, -0.021740678697824478, 0.005439188797026873, 0.004825879354029894, -0.003253400791436434, 0.0004040905914735049, 0.002879997016862035, 0.024652745574712753, 0.003558147931471467, 0.00029907419229857624, 0.0076958429999649525, -0.005032982677221298, 0.009391417726874352, 0.0060035004280507565, 0.0014445196138694882, 0.002067627152428031, 0.0029567666351795197, 0.0023844277020543814, -0.02403552457690239, 0.0018768460722640157, -0.006989009212702513, -0.008580036461353302, -0.013120293617248535, -0.007137855980545282, -0.005416422616690397, 0.015844151377677917, -0.008290399797260761, -0.004017722327262163, 0.00450090691447258, -0.0019226637668907642, -0.014220169745385647, 0.002864626469090581, 0.004615460988134146, 0.0021359778475016356, 0.005813954398036003, 0.0018194084987044334, 0.0037052410189062357, -0.0025928805116564035, 0.0011199131840839982, 0.003585416590794921, 0.003287191968411207, -6.127396045485511e-05, -0.004108394496142864, 0.007935721427202225, -0.003897416638210416], [0.0006079612066969275, 0.005646148230880499, -0.004730073735117912, 0.0018042587907984853, 7.334692782023922e-06, 0.011550954543054104, 0.0063296775333583355, -0.0004534661420620978, 0.009547930210828781, 0.0163270290941, -0.0036407115403562784, -0.005240198224782944, 0.00715544493868947, 0.018078366294503212, 2.728978688537609e-05, 0.012007234618067741, -0.004933272488415241, 0.005883744917809963, 0.000407623389037326, -0.003983975853770971, 0.0050430698320269585, -0.02227645181119442, 0.002680011559277773, 0.005490408744663, 0.0028159404173493385, 0.014475388452410698, 0.0028129208367317915, 0.015086322091519833, 0.0015947659267112613, 0.003861785400658846, -0.0019913059659302235, -0.007320740260183811, 0.0010401252657175064, -0.0036627589724957943, -0.0024275952018797398, -0.0013245021691545844, -0.007816247642040253, 0.0034217569045722485, -0.00010502443910809234, -0.0024447310715913773, 0.00675935298204422, 5.8997393352910876e-05, 0.010467620566487312, 0.008016207255423069, -0.002352513140067458, 0.010890091769397259, -2.3051272364682518e-05, -0.0009419287089258432, 0.001337204361334443, 0.009757240302860737, 0.0027756462804973125, -0.0026011988520622253, 0.0002796244225464761, -0.011386592872440815, -0.0006610283744521439, 0.0009920770535245538, 0.005278406199067831, -0.00028479346656240523, 0.0030937499832361937, -0.01341564953327179, -0.002658722223713994, -0.01579059101641178, -0.006427452899515629, 0.0053392318077385426, -0.003144971327856183, -0.017817422747612, -0.0022780452854931355, 0.0018258164636790752, -0.00034276916994713247, 0.0016078674234449863, -0.0002576239639893174, -0.00027292725280858576, -0.001895833178423345, -0.010329993441700935, 0.003750852309167385, 0.002255491679534316, -0.0019011652329936624, 0.0006307900766842067, -0.0018013878725469112, -0.004319943021982908], [0.004999352619051933, 0.0018831868655979633, -0.0025833118706941605, -0.00071030791150406, -0.0008484614081680775, 0.01109512522816658, 0.002465449506416917, 0.001366547541692853, -0.002674250863492489, -0.0015542799374088645, 0.000616434495896101, -0.0007840151665732265, 0.0056860619224607944, 0.013774994760751724, 0.0012152654817327857, -0.002362525323405862, -0.0034488572273403406, 0.0018090461380779743, 0.0007302434532903135, -0.0012593106366693974, 0.0022706822492182255, 0.01827637292444706, 0.001253377995453775, -0.00016415784193668514, 0.003709514159709215, -0.030657203868031502, 0.0016438495367765427, -0.0020242908503860235, 0.0012033270904794335, 0.00019940879428759217, 0.003689079312607646, 0.006178729701787233, -0.00148796197026968, -0.0029702899046242237, 0.0020614811219274998, 0.0006766855949535966, 0.0038137410301715136, 0.0014045520219951868, 0.001456815400160849, -0.001999604282900691, -0.000783835886977613, 6.675321492366493e-05, 0.008183653466403484, 0.000578259234316647, -0.0020684057381004095, 0.009126082062721252, -0.0004909998388029635, 0.004800386261194944, 0.0013649883912876248, 0.0007254867232404649, 0.0010890994453802705, -0.0001815716823330149, 0.0009577461751177907, -0.008397149853408337, 0.0013148834696039557, -0.0007845155196264386, -0.00804036483168602, -0.00446240184828639, -0.00043849259964190423, -0.008292993530631065, 0.0026927615981549025, 0.00044651934877038, -7.715030369581655e-05, -0.00332842068746686, -0.0015889303758740425, -0.004419845994561911, 0.00014014169573783875, 0.0002652596158441156, 0.00021247324184514582, 0.0042376588098704815, 0.0005794019671157002, 0.0013284477172419429, -0.002746498677879572, -0.004819423891603947, 0.0018425100715830922, 0.0009036388946697116, 0.008507627993822098, -0.0011891605099663138, 0.0010203233687207103, -0.0012136007426306605], [-0.03358389437198639, 0.005963676143437624, -0.06688714772462845, -0.08494609594345093, -0.06422901898622513, 0.02999785915017128, -0.09717755019664764, 0.10819871723651886, -0.04419393092393875, 0.014167909510433674, 0.0718473568558693, -0.09437298029661179, -0.06501991301774979, -0.01902347430586815, 0.07434450834989548, -0.014028330333530903, -0.005982988514006138, -0.00023558511747978628, 0.08764437586069107, -0.07852503657341003, -0.006756549701094627, 0.012284149415791035, 0.08369970321655273, -0.003439786843955517, 0.005879778414964676, 0.017226124182343483, 0.08541884273290634, -0.029583347961306572, -0.006537127774208784, -0.09706469625234604, -0.008559116162359715, 0.015482435934245586, -0.0798911452293396, -0.0018500880105420947, 0.08440493792295456, 0.07986581325531006, -0.049265842884778976, 0.06886031478643417, 0.07779134064912796, -0.0688825473189354, -0.015260227955877781, 0.09417285025119781, 0.019264545291662216, 0.08615997433662415, 0.03966345265507698, -0.04180608317255974, -0.08905038982629776, 0.008505677804350853, 0.0772257149219513, 0.03134654462337494, 0.036140989512205124, 0.08326265960931778, 0.06253938376903534, -0.026798365637660027, -0.0012193525908514857, -0.08927887678146362, -0.018740903586149216, -0.009713524952530861, -0.08690879493951797, 0.026791887357831, 0.03054029494524002, 0.02978701889514923, 0.018649054691195488, -0.00706167658790946, 0.007467720657587051, 0.03459126502275467, 0.08637303858995438, 5.029113162891008e-05, 0.08127336204051971, 0.0011767151299864054, 0.06594754755496979, 0.09822425246238708, 0.040106095373630524, 0.0570872500538826, 0.08336253464221954, -0.008057025261223316, 0.0035346595104783773, -0.09343698620796204, 0.08362892270088196, -0.0775756984949112], [0.007642574608325958, 0.01161875482648611, -0.010062914341688156, -0.0016948237316682935, -0.004970574285835028, 0.030034471303224564, -0.00031492768903262913, 0.00612452020868659, -0.005777890328317881, 0.01648513786494732, 0.004683771636337042, -0.007870771922171116, 0.0025643580593168736, 0.054118573665618896, 0.00439281202852726, 0.018241625279188156, -0.011266892775893211, 0.011194657534360886, 0.004457731265574694, -0.006910750642418861, 0.009259352460503578, -0.017075149342417717, 0.006979797966778278, 0.010987049899995327, 0.010327128693461418, 0.035576943308115005, 0.007985479198396206, 0.013841805048286915, 0.005501277279108763, -0.004932570271193981, -0.006923384498804808, -0.008417155593633652, -0.0027928627096116543, -0.010374296456575394, 0.01563030667603016, 0.001972699537873268, -0.02668471448123455, 0.00792898889631033, 0.005703435279428959, -0.007401495240628719, 0.004042324144393206, 0.003277313429862261, 0.02606232278048992, 0.011188571341335773, -0.0019755035173147917, 0.014475831761956215, -0.0058645568788051605, 0.0062365042977035046, 0.006959456484764814, 0.008291120640933514, 0.0038649309426546097, 0.0016956937033683062, 0.0023651334922760725, -0.027207499369978905, 0.00264535378664732, -0.008239967748522758, -0.0039149136282503605, -0.00828003790229559, -0.00759467575699091, -0.013492628000676632, 0.009839518927037716, -0.020081324502825737, -0.009195877239108086, 0.009317301213741302, -0.003953116480261087, -0.02431277371942997, 0.0020043887197971344, 0.005497519858181477, 0.0020652655512094498, 0.007123567163944244, 0.0012642850633710623, 0.0038732574321329594, -0.006798957474529743, -0.0020391361322253942, 0.007787273731082678, 0.0052672880701720715, 0.012200983241200447, -0.004264106508344412, 0.008625537157058716, -0.0078019797801971436], [0.009193820878863335, -0.015686767175793648, 0.023254884406924248, 0.025132672861218452, 0.02481158822774887, -0.004791084676980972, 0.03877205401659012, -0.03392001986503601, 0.015437295660376549, -0.0066159251146018505, -0.03149039298295975, 0.030123941600322723, 0.029797332361340523, 0.027452146634459496, -0.026410754770040512, -0.01765548437833786, 0.012493173591792583, -0.012243534438312054, -0.031190555542707443, 0.021140996366739273, -0.0068197655491530895, 0.005882713943719864, -0.037644874304533005, -0.015043881721794605, -0.014008636586368084, -0.05608925223350525, -0.025444000959396362, -0.0011222569737583399, -0.004175874870270491, 0.0414460264146328, 0.021376943215727806, 0.01022274699062109, 0.02053695358335972, 0.01199678611010313, -0.04763837903738022, -0.03548620268702507, 0.02340935356914997, -0.031000889837741852, -0.04187801852822304, 0.039875853806734085, 0.0014135875971987844, -0.04236626997590065, -0.003981518093496561, -0.02521131932735443, -0.0093528525903821, 0.006004436872899532, 0.04421224072575569, -0.008996253833174706, -0.01927611045539379, -0.0052435495890676975, -0.016882020980119705, -0.04043754190206528, -0.023538561537861824, -0.001218862715177238, -0.0003566847008187324, 0.0435141921043396, 0.006486416328698397, 0.012850870378315449, 0.047637954354286194, -0.006821452174335718, -0.014866665937006474, 0.00551580497995019, 0.001134233083575964, -0.01573534496128559, -0.0004746869090013206, 0.011511237360537052, -0.048692189157009125, -0.009709452278912067, -0.03721880912780762, -0.0066787502728402615, -0.017579397186636925, -0.02796405740082264, -0.005417371168732643, -0.023166276514530182, -0.037410225719213486, -0.003520525526255369, 0.027893923223018646, 0.04099787399172783, -0.03526654094457626, 0.03096706233918667], [0.06359788775444031, -0.006831023376435041, 0.1157945767045021, 0.10167466104030609, 0.0926065668463707, 0.017414044588804245, 0.13689343631267548, -0.11858672648668289, 0.05875183269381523, -0.003610302461311221, -0.11811482161283493, 0.11862611770629883, 0.08331865072250366, 0.03636878728866577, -0.09956875443458557, 0.008509475737810135, 0.006101141683757305, -0.0033531510271131992, -0.11558937281370163, 0.07145034521818161, -0.003290590364485979, -0.04680304974317551, -0.10914726555347443, 0.003558493684977293, -0.013665580190718174, -0.00041760283056646585, -0.08592343330383301, 0.020917635411024094, 0.0051936376839876175, 0.13959702849388123, 0.019097067415714264, -0.015708554536104202, 0.10295701026916504, 0.01080376747995615, -0.10340646654367447, -0.10837806761264801, 0.006290411110967398, -0.09236012399196625, -0.11099240928888321, 0.10966227203607559, 0.010799036361277103, -0.11753014475107193, -0.00828775018453598, -0.12464304268360138, -0.03812897577881813, 0.07184755802154541, 0.1303790807723999, -0.017599862068891525, -0.11093293875455856, -0.028652023524045944, -0.08004116266965866, -0.09465757757425308, -0.10891503840684891, 0.0040564402006566525, -0.01914472132921219, 0.12568649649620056, 0.0298936665058136, 0.017508428543806076, 0.12740707397460938, -0.06926235556602478, -0.03909611329436302, -0.02200857736170292, -0.005677532870322466, 0.0029952579643577337, 0.0005567222251556814, -0.039279334247112274, -0.11844924092292786, -0.008088157512247562, -0.10353002697229385, -0.012389245443046093, -0.07787823677062988, -0.080864317715168, -0.04483338072896004, -0.07548131793737411, -0.08027645200490952, -0.003249702975153923, -0.005609925836324692, 0.11506154388189316, -0.124150849878788, 0.12051494419574738], [0.008101841434836388, 0.005688454490154982, -0.003517093602567911, -0.0009348432649858296, -0.001569807413034141, 0.016494950279593468, 0.0023091810289770365, 0.0028233316261321306, -0.0066134268417954445, 0.0012017720146104693, 0.0015277870697900653, -0.0018900787690654397, 0.008184855803847313, -0.0033042344730347395, 0.0017414528410881758, -0.0013671454507857561, -0.006946803070604801, 0.004955864977091551, 0.0012895158724859357, -0.002253014827147126, 0.003365672891959548, 0.017472628504037857, 0.002291844692081213, 0.0023968603927642107, 0.005508258007466793, -0.025425860658288002, 0.002494365908205509, 0.0019202675903216004, 0.0037321792915463448, -0.0016176474746316671, 0.0032283097971230745, 0.007092670071870089, -0.0016486628446727991, -0.004663918633013964, 0.007390135433524847, 0.0008718901081010699, -0.005289181135594845, 0.0023280566092580557, 0.0021850084885954857, -0.0019949013367295265, -0.0006658869097009301, 0.0004567092109937221, 0.014533596113324165, 0.002284243470057845, -0.003236285410821438, 0.013820953667163849, -0.0024952630046755075, 0.007117322646081448, 0.0029702307656407356, 0.0024156603030860424, 0.0016562850214540958, 6.121648038970307e-05, 0.0013328812783583999, -0.01605326123535633, 0.0020148889161646366, -0.0035407354589551687, -0.012092615477740765, -0.007101505063474178, -0.0027047963812947273, -0.013598770834505558, 0.006977899000048637, -0.0006516686989925802, -0.0001874209992820397, -0.0018472321098670363, -0.002038773614913225, -0.002840993460267782, 0.0008115192758850753, 0.0016405164496973157, 0.00020874591427855194, 0.007526075001806021, 0.0004264305462129414, 0.0013407072983682156, -0.00603092135861516, -0.005220726598054171, 0.0023983728606253862, 0.0009066505590453744, 0.007070187944918871, -0.0015093861147761345, 0.003408406861126423, -0.0019457417074590921], [0.002068591071292758, 0.008984587155282497, -0.002186955651268363, -0.0009498171275481582, -0.00200096657499671, 0.011078901588916779, -0.0008339087362401187, 0.002267579548060894, -0.0069531709887087345, 0.005909289699047804, 0.0018116558203473687, -0.0021568424999713898, 0.0004791287938132882, -0.002797583816573024, 0.0016539163189008832, 0.00563786830753088, -0.008292675949633121, 0.006092763505876064, 0.0016261328710243106, -0.0021771437022835016, 0.0029524562414735556, -0.00272619747556746, 0.002674207789823413, 0.004655066411942244, 0.007424125913530588, 0.013401204720139503, 0.0025840462185442448, 0.004921612795442343, 0.0006624850211665034, -0.0022213647607713938, -0.007141735404729843, -0.0021018211264163256, -0.0011139730922877789, -0.006043474189937115, 0.005105297546833754, 0.001057248329743743, -0.01571289636194706, 0.0026684647891670465, 0.002181069692596793, -0.0014637444401159883, 0.002164635341614485, 0.0016577672213315964, 0.011939150281250477, 0.0028637743089348078, 0.0002084099396597594, 0.005246652290225029, -0.0028639771044254303, 0.003716694423928857, 0.002800670452415943, 0.0023266258649528027, 0.0012328914599493146, 0.0010930077405646443, 0.0010923894587904215, -0.01267978921532631, -0.0003063782351091504, -0.003439971012994647, -0.001882383949123323, -0.00672291312366724, -0.00303120375610888, -0.004945339635014534, 0.008585634641349316, -0.00510927801951766, -0.001467392430640757, 0.0026003022212535143, -0.0010783582692965865, -0.00974817294627428, 0.0014419452054426074, 0.002342131221666932, 0.0011416063643991947, 0.0016663747373968363, 0.0007413907442241907, 0.0014941564295440912, -0.0008918630774132907, 0.0018044053576886654, 0.0017227589851245284, 0.0007405778742395341, -0.009352339431643486, -0.0017064334824681282, 0.00316522060893476, -0.0020853744354099035], [0.008911371231079102, 0.006197713781148195, -0.003405245952308178, -0.002962185302749276, -0.0033837633673101664, 0.015216857194900513, -0.0007124085677787662, 0.004511155188083649, -0.009515620768070221, -0.0010418676538392901, 0.0048029073514044285, -0.001006362377665937, 0.004409837070852518, 0.01662910170853138, 0.0033459821715950966, 0.0003132541314698756, -0.007422727067023516, 0.005053248722106218, 0.002589332638308406, -0.002163901459425688, 0.003999933134764433, 0.021445702761411667, 0.003083996009081602, 0.0028889188542962074, 0.007833455689251423, -0.014555331319570541, 0.0034842099994421005, -0.0024078264832496643, 0.0031106416136026382, -0.0041099064983427525, 0.0011904443381354213, 0.005997741129249334, -0.0035402323119342327, -0.0064628697000443935, 0.008790574036538601, 0.0026525496505200863, -0.0020624729804694653, 0.0029414372984319925, 0.004189252853393555, -0.002739447169005871, -0.002443591132760048, 0.001924616750329733, 0.013041315600275993, 0.0009837340330705047, -0.0018987931543961167, 0.009094148874282837, -0.003645169548690319, 0.008765910752117634, 0.004039466381072998, -0.0014067505253478885, 0.001228864537551999, 0.0023552938364446163, 0.002240516943857074, -0.012199895456433296, 0.0026992480270564556, -0.005130126606673002, -0.013422789052128792, -0.00913930032402277, -0.005393370520323515, -0.00718805193901062, 0.008536987006664276, -0.0006185041274875402, -0.0009513801778666675, -0.0009301496320404112, -0.0017252526013180614, -0.0032771024852991104, 0.0027728888671845198, 0.0026839410420507193, 0.0016030158149078488, 0.007173070218414068, 0.0015582377091050148, 0.003243968589231372, -0.004947876092046499, 0.0005592628731392324, 0.002395223593339324, 0.0018789295572787523, 0.005027140490710735, -0.003699258668348193, 0.005642424803227186, -0.0017906815046444535], [0.0277883131057024, 0.012005140073597431, 0.04156534746289253, 0.04541973024606705, 0.04649701714515686, 0.0337388776242733, 0.061653174459934235, -0.06614847481250763, -0.00032206560717895627, 0.008973467163741589, -0.04750581458210945, 0.06182904168963432, 0.048944685608148575, 0.06660370528697968, -0.071731798350811, 0.016734132543206215, -0.013063465245068073, 0.01183383259922266, -0.07000445574522018, 0.053546030074357986, 0.010635615326464176, -0.004928849171847105, -0.07057992368936539, 0.00976397655904293, 0.012917863205075264, 0.015157809481024742, -0.04387947544455528, 0.014152836054563522, 0.006762809120118618, 0.055328402668237686, -0.004046681337058544, -0.006025828421115875, 0.04815695807337761, -0.011915571987628937, -0.05462068319320679, -0.05594383925199509, -0.01717451773583889, -0.04620940238237381, -0.0604531466960907, 0.060479894280433655, 0.006844717543572187, -0.05732329934835434, 0.03149198740720749, -0.053415462374687195, -0.018908506259322166, 0.028853267431259155, 0.07416588813066483, 0.008026287890970707, -0.03845737501978874, -0.01669277437031269, -0.038539811968803406, -0.05459434911608696, -0.043332070112228394, -0.03492598235607147, 0.00384674989618361, 0.0680747851729393, -0.005487475078552961, -0.010432089678943157, 0.07733633369207382, -0.02699674293398857, 0.007361039984971285, -0.022417964413762093, -0.01179418433457613, 0.006554472725838423, -0.0057822042144834995, -0.03040260262787342, -0.06120229512453079, 0.004534828010946512, -0.08231999725103378, 0.008349846117198467, -0.041665710508823395, -0.051006980240345, -0.025218892842531204, -0.01227651908993721, -0.05222935602068901, 0.005854836665093899, 0.007217619102448225, 0.051398295909166336, -0.06557361036539078, 0.06942946463823318], [0.019890829920768738, 0.0021294564940035343, 0.03529772534966469, 0.028872782364487648, 0.03207744285464287, 0.0018179044127464294, 0.03986828774213791, -0.049019988626241684, -0.008617873303592205, -0.004300978500396013, -0.036258820444345474, 0.052058275789022446, 0.021736690774559975, 0.029026299715042114, -0.03833514451980591, -0.0020225055050104856, -0.003521102713420987, 0.0015936431009322405, -0.04030010849237442, 0.02802254632115364, 0.0022063145879656076, 0.01724706031382084, -0.038720812648534775, 0.00018483966414351016, 0.005206218454986811, -0.015394220128655434, -0.025955168530344963, -0.004119230434298515, 0.0010386866051703691, 0.03973972424864769, 0.0010674312943592668, 0.004077499266713858, 0.024366052821278572, -0.0037685935385525227, -0.04219859093427658, -0.03319714590907097, 0.010986068286001682, -0.041877128183841705, -0.03323733061552048, 0.043486081063747406, -0.0014664846239611506, -0.0334416888654232, 0.0028434223495423794, -0.035239141434431076, -0.007362239994108677, 0.010786334984004498, 0.031696759164333344, 0.005526223685592413, -0.023933181539177895, -0.01177210733294487, -0.01879703253507614, -0.03690067678689957, -0.02538551576435566, -0.0028837607242166996, 0.001209012232720852, 0.039550233632326126, -0.00804879330098629, -0.005720837041735649, 0.0353403314948082, -0.004129504784941673, 0.00682881660759449, 0.001233970164321363, -0.00028659001691266894, -0.00204242835752666, -0.000863118504639715, -0.0011832643067464232, -0.0468025766313076, 0.0008073188946582377, -0.038780659437179565, 0.0032210610806941986, -0.024638468399643898, -0.04775984585285187, -0.010771004483103752, 0.002711744047701359, -0.03570813313126564, 0.0010634391801431775, 0.009268185123801231, 0.031256064772605896, -0.03783271089196205, 0.040685638785362244], [0.00099117960780859, -0.0018525251653045416, -0.004047674592584372, 0.004837540909647942, 0.0036268876865506172, 0.008995827287435532, 0.011600913479924202, -0.004009414929896593, 0.008677434176206589, 0.0019180459203198552, 