{"model_data": {"model": "SimpleRNN", "input_size": 1, "skip": 1, "output_size": 1, "unit_type": "LSTM", "num_layers": 1, "hidden_size": 40, "bias_fl": true}, "state_dict": {"rec.weight_ih_l0": [[0.0999319851398468], [0.12489292025566101], [-0.005624483805149794], [0.042685139924287796], [-0.031193764880299568], [-0.04462502524256706], [0.04741248860955238], [0.20408503711223602], [0.030625496059656143], [0.03815241530537605], [-0.029066508635878563], [-0.01257133949548006], [0.014102443121373653], [0.01361627597361803], [-0.04494212567806244], [0.34851783514022827], [0.22159993648529053], [0.09691055864095688], [0.07915275543928146], [0.030420703813433647], [-0.1154104620218277], [0.012340224348008633], [0.02945571392774582], [0.053541284054517746], [0.00023893329489510506], [0.03877311944961548], [-0.006060139276087284], [0.010756580159068108], [0.4272368550300598], [0.0566939152777195], [-0.03900189697742462], [-0.14739127457141876], [-0.06588511914014816], [0.005510208662599325], [-0.0346996933221817], [0.03958997502923012], [0.10543467104434967], [0.011594287119805813], [0.16092026233673096], [0.13335514068603516], [0.05285101756453514], [-0.38306543231010437], [-0.03368670865893364], [0.4528772234916687], [-0.007674387190490961], [0.11705832183361053], [0.0379021093249321], [0.3312641978263855], [-0.12227828055620193], [0.02216203697025776], [-0.5230234265327454], [-0.007157141342759132], [0.045131534337997437], [0.006391329690814018], [0.044636957347393036], [0.9214480519294739], [-2.12994647026062], [0.765354335308075], [-0.14157505333423615], [0.025931665673851967], [-0.012121014297008514], [-0.002311927266418934], [0.02532222308218479], [-1.6914204359054565], [7.561681559309363e-05], [0.022408543154597282], [-0.020286759361624718], [-0.002096491865813732], [0.2667735815048218], [0.020458605140447617], [-0.024673717096447945], [-0.6439746618270874], [0.03578876331448555], [-0.0036558108404278755], [-0.1236969605088234], [0.02903468906879425], [-0.1986624002456665], [0.13990189135074615], [0.016186261549592018], [0.17263737320899963], [0.05812981352210045], [-1.0669087171554565], [-0.900632381439209], [-0.5565428137779236], [0.39848560094833374], [-0.5199052095413208], [0.19905725121498108], [0.7270059585571289], [-0.7219587564468384], [-0.006316241808235645], [-0.3996523320674896], [0.12260702252388], [0.7217766642570496], [-0.3698047995567322], [-0.43404603004455566], [0.4721851348876953], [0.8347119688987732], [0.4260265827178955], [-0.10116511583328247], [0.8063358664512634], [1.1349618434906006], [0.08452633768320084], [0.16530798375606537], [-0.7999943494796753], [-0.04122000187635422], [0.14695613086223602], [-0.25141891837120056], [-0.1459929198026657], [0.932284414768219], [-0.007854018360376358], [0.6741788387298584], [0.681635856628418], [0.3886123597621918], [0.06132134422659874], [-0.41658830642700195], [0.05669275298714638], [-0.2748669981956482], [0.8970418572425842], [0.3256215751171112], [0.03562447801232338], [0.08292245864868164], [0.004122950602322817], [-0.21529540419578552], [0.19386573135852814], [-0.04001939296722412], [0.012549352832138538], [0.07163824141025543], [0.35656389594078064], [0.07935702055692673], [0.02886277809739113], [-0.3412278890609741], [-0.0035002592485398054], [0.038017213344573975], [0.07800017297267914], [-0.24888914823532104], [0.6074098348617554], [-0.8073728680610657], [0.6352707147598267], [-0.17210794985294342], [-0.04138578474521637], [-0.14684058725833893], [0.01139741763472557], [0.12500403821468353], [-1.7100584506988525], [-0.0011496482184156775], [0.03844161704182625], [-0.012346594594419003], [0.00167751288972795], [1.7513748407363892], [0.08750779181718826], [0.00918480847030878], [-0.5371788740158081], [-0.01936459355056286], [-0.020498061552643776], [-0.1188269555568695], [0.032822102308273315], [-0.06484006345272064], [0.15169377624988556], [0.24341055750846863], [1.3276681900024414]], "rec.weight_hh_l0": [[0.022831449285149574, -0.0698828250169754, 0.0021900206338614225, -0.02716684527695179, -0.00524405250325799, -0.06604000926017761, 0.01754043810069561, 0.04216652736067772, -0.06445823609828949, 0.010069803334772587, -0.031160328537225723, -0.0009866568725556135, -0.0005711790290661156, -0.017069023102521896, -0.09588781744241714, 0.09797003120183945, 0.040181964635849, 0.1464889943599701, 0.014017057605087757, -0.0006754122441634536, 0.012788128107786179, -0.002111328300088644, 0.011810983531177044, -0.11311308294534683, 1.6096264516818337e-05, -0.006740373559296131, 0.004586684983223677, 0.005710216239094734, -0.18353450298309326, -0.00478198379278183, 0.01571284607052803, 0.1388508528470993, 0.05829352140426636, -0.009996517561376095, -0.001159994164481759, 0.017645716667175293, -0.0070074074901640415, 0.0029857922345399857, -0.01674920693039894, -0.06564651429653168], [0.00897156074643135, -0.0052152532152831554, 0.0038834649603813887, -0.019675487652420998, 0.017792480066418648, -0.1834346503019333, 0.05000176653265953, 0.04565973952412605, -0.054298125207424164, -0.005394110921770334, -0.136704683303833, 0.03075307048857212, 0.11046595126390457, -0.03410359099507332, -0.13802143931388855, 0.2626267075538635, -0.22891592979431152, 0.034576065838336945, -0.04187419265508652, 0.07704165577888489, 0.0541447214782238, 0.0009893475798889995, -0.018835846334695816, 0.5223581790924072, -0.03878951445221901, 0.013197041116654873, -0.02277458645403385, -0.005149215459823608, -0.08591030538082123, 0.07007084786891937, 0.027512112632393837, -0.00462371064350009, 0.1517655998468399, 0.008948754519224167, -0.010130651295185089, -0.005916055291891098, -0.06419385224580765, 0.008445207960903645, 0.014364372007548809, -0.17240452766418457], [0.015405051410198212, -0.01620609313249588, -0.03245671093463898, -0.018748067319393158, -0.008035770617425442, 0.03848646208643913, 0.0046401130966842175, 0.0345931351184845, 0.0018599824979901314, -0.00040056140278466046, -0.01185593195259571, -0.0051237610168755054, -0.0283920019865036, -0.0045112501829862595, 0.010618818923830986, -0.08817380666732788, 0.17129196226596832, -0.08130841702222824, -0.006395629607141018, -0.02295709028840065, 0.0655965656042099, -0.007626218255609274, 0.016759071499109268, 0.08473782241344452, -0.0003338244277983904, -0.00381004111841321, 0.01659281924366951, 0.008462674915790558, 0.2453388124704361, -0.007766442839056253, 0.0030375230126082897, 0.01925525814294815, -0.029961032792925835, -0.002898965962231159, -0.009537451900541782, 0.006017462816089392, -0.04621348902583122, -0.0076346611604094505, -0.03160083666443825, -0.29213759303092957], [-0.01895536296069622, 0.01881740614771843, 0.05662032216787338, 0.0398733951151371, -0.012693606317043304, -0.10979259014129639, -0.030691104009747505, 0.015580503270030022, 0.09033524245023727, -0.0134692108258605, -0.11003218591213226, 0.02369902841746807, -0.012670314870774746, -0.009523192420601845, -0.18028442561626434, 0.16351570188999176, -0.0033202744089066982, -0.018308492377400398, -0.029043564572930336, -0.052121713757514954, -0.01653449796140194, -0.013526981696486473, 0.0002236082509625703, 0.034720078110694885, -0.016349676996469498, 0.005847956985235214, 0.015964407473802567, 0.010408734902739525, 0.3659389317035675, 0.0467480905354023, 0.01230079960078001, 0.08688952773809433, 0.09478799998760223, 0.010462118312716484, -0.012177212163805962, -0.009557277895510197, -0.11420182138681412, -0.0492749884724617, -0.10683644562959671, -0.07287164777517319], [0.0013414290733635426, -0.009705289267003536, 0.0019360147416591644, -0.009630152955651283, 0.0006940914317965508, 0.02148985117673874, -0.0006281618261709809, 0.014033045619726181, -0.00763813266530633, 0.0005502591957338154, 0.0005618588766083121, -0.0010082701919600368, -0.000521423586178571, 0.0010269478661939502, 0.016322219744324684, -0.02596130780875683, 0.016633382067084312, -0.03181495890021324, -0.002678744960576296, 0.0019219806417822838, -0.0006439805729314685, -0.0018225411185994744, 0.012461207807064056, 0.0016642897389829159, -0.0007333859684877098, -0.000716049165930599, 0.00275326962582767, 0.0009806310990825295, 0.04731110483407974, -0.000663587125018239, -0.0036137476563453674, 0.003227440407499671, -0.006234543398022652, -0.0002786448167171329, 0.00023326869995798916, 0.0012820810079574585, -0.0016112265875563025, -0.0007840697653591633, 0.006879008375108242, 0.029596326872706413], [-0.025730706751346588, 0.10698994994163513, -0.006506559904664755, 0.10226418077945709, 0.046807024627923965, -0.1801491677761078, -0.043732013553380966, 0.01040586642920971, 0.13333351910114288, -0.01105599757283926, -0.0038028566632419825, 0.031580615788698196, 0.03596433624625206, -0.08016207069158554, -0.10930541157722473, 0.2712690830230713, -0.07134155184030533, 0.19247013330459595, -0.06115322560071945, -0.01453921664506197, 0.010439603589475155, -0.002689874032512307, -0.03365881368517876, -0.012293600477278233, -0.00620688172057271, 0.008004934526979923, 0.0008037863299250603, -0.0027735724579542875, 0.17849981784820557, 0.09343340247869492, 0.03511720150709152, -0.0005474747740663588, 0.10628406703472137, 0.033481717109680176, -0.009540900588035583, -0.019291363656520844, -0.15355828404426575, -0.010386000387370586, -0.15845681726932526, -0.09904704988002777], [0.00672052102163434, -0.005221130792051554, -0.0015586403897032142, -0.00272475928068161, -0.0005411859601736069, -0.010483233258128166, 0.009691045619547367, 0.0033876404631882906, -0.006542448420077562, 0.005899005103856325, 0.0002162669406970963, 0.0007045224774628878, 0.010044245049357414, -0.0026730154640972614, -0.02038859762251377, 0.028931792825460434, -0.01442861557006836, -0.0012589142424985766, 0.0074153789319098, 0.001526754698716104, -0.005586445797234774, -0.001427495270036161, -0.0017604539170861244, 0.027470311149954796, -0.0018981127068400383, -0.004736530594527721, 0.0009611797868274152, 0.0013145061675459146, -0.04472235590219498, 0.0015867353649809957, 0.0019771107472479343, 0.016744695603847504, 0.00945007149130106, -0.004445911385118961, 0.0068621523678302765, 0.005427159368991852, -0.0012731878086924553, 0.0109492102637887, 0.004859090317040682, -0.02531285211443901], [-0.0049433475360274315, 0.1085016280412674, -0.012865007854998112, 0.0002449707535561174, 0.017952749505639076, -0.16293777525424957, -0.009307640604674816, -0.0016510423738509417, 0.17215700447559357, -0.011233675293624401, -0.04487702623009682, 0.03250499069690704, 0.018594764173030853, -0.051897868514060974, -0.21206796169281006, 0.24292753636837006, -0.06454844772815704, 0.15492630004882812, -0.04011322557926178, 0.04390265420079231, -0.03224518895149231, -0.008772184140980244, 0.0025051261764019728, 0.21737661957740784, -0.017745571210980415, 0.010649651288986206, 0.006581100169569254, 0.008528757840394974, 0.21858970820903778, 0.06958843022584915, 0.035926058888435364, -0.004260255955159664, 0.12163816392421722, 0.01879125088453293, -0.01798442378640175, -0.0027363284025341272, -0.13154421746730804, -0.017726080492138863, -0.15051940083503723, -0.07954802364110947], [0.00012551118561532348, -0.002440412761643529, 0.0394095815718174, -0.0004794033302459866, -0.003010024782270193, -0.12055747210979462, 0.04325329139828682, 0.004523823969066143, -0.08493166416883469, 0.0032341403421014547, -0.0225101076066494, 0.015187813900411129, 0.06743232905864716, -0.0006439342978410423, -0.11886581778526306, 0.21649861335754395, -0.28442806005477905, 0.0843081921339035, 0.032214418053627014, 0.027187425643205643, -0.00282357819378376, 0.0013186205178499222, -0.029306871816515923, 0.28156936168670654, -0.018657896667718887, -0.00243495125323534, -0.012163402512669563, 0.0010751495137810707, -0.2443549633026123, 0.03987787663936615, 0.014219801872968674, -0.004576335195451975, 0.07687994092702866, -0.01480552926659584, 0.013951282948255539, -0.003012956352904439, 0.018625512719154358, 0.00884566456079483, 0.03544040396809578, -0.17263545095920563], [0.009276741184294224, -0.027593236416578293, -5.455201608128846e-05, -0.01594013161957264, -0.00010826411016751081, -0.012121091596782207, 0.007796156220138073, 0.023393383249640465, -0.03370770812034607, -0.001832244568504393, -0.01768561452627182, 0.0006102526094764471, -0.005542328115552664, -0.008549541234970093, -0.01922808773815632, 0.021882934495806694, 0.05813787132501602, -0.0008243785123340786, -0.009414303116500378, 0.008332272991538048, 0.01162809133529663, -0.0012592319399118423, 0.007842695340514183, -0.002130493987351656, -0.0014295530272647738, 0.0031616047490388155, 0.0018486074404790998, 0.0025897969026118517, 0.020686475560069084, -0.005450399126857519, 5.62391105631832e-05, 0.045460108667612076, 0.015795959159731865, 0.0006836576503701508, -0.00448539387434721, 0.005049995146691799, -0.011768734082579613, -0.007856398820877075, 0.003261362435296178, 0.01012054830789566], [-0.017118414863944054, 0.03517058119177818, -0.10489112138748169, 0.012814169749617577, 0.0045280554331839085, 0.009686733596026897, -0.013408627361059189, -0.011657514609396458, 0.01112058199942112, 0.002678541000932455, 0.07654460519552231, -0.008051344193518162, 0.0034676305949687958, 0.002552028512582183, 0.08588758856058121, -0.021493062376976013, -0.054072193801403046, 0.027905968949198723, 0.010778510011732578, 0.005612020380795002, 0.024410473182797432, 0.004657183773815632, -0.004834126215428114, 0.06156410649418831, 0.009152255952358246, -0.005138148553669453, -0.009089093655347824, -0.008592595346271992, -9.872814189293422e-06, -0.00876643881201744, -0.007498730905354023, -0.10841817408800125, -0.020115768536925316, -0.004205937031656504, -0.02066308818757534, -0.0028458174783736467, 0.031741607934236526, -0.0007625296129845083, 0.010884466581046581, -0.011614507995545864], [-0.002439713105559349, 0.006603531073778868, -0.0021380868274718523, 0.0022922721691429615, 6.71748275635764e-05, 0.027855854481458664, -0.0022381825838238, -0.004755079746246338, 0.006160888355225325, -9.621273056836799e-05, 0.007106604520231485, -0.0012901935260742903, -0.0005034267087467015, 0.004942742176353931, 0.03213585540652275, -0.05415533855557442, 0.001146111637353897, -0.054501667618751526, -0.0020369288977235556, -0.0009440355352126062, -0.0007634611101821065, 0.00014700289466418326, -0.0014657749561592937, 0.012300836853682995, 0.00014575889508705586, -5.19058303325437e-05, -0.0002361849183216691, -0.00022526716929860413, 0.03836575523018837, -0.001246084226295352, -0.006188035476952791, -0.01181580126285553, -0.01607850193977356, 0.0010971539886668324, 0.0006347576854750514, -0.0012807173188775778, 0.006428915541619062, 0.0008024604758247733, 0.005510585382580757, 0.023366739973425865], [0.002697990508750081, -0.02008172683417797, -0.009661542251706123, -0.013182233087718487, 0.0056840176694095135, -0.003229138208553195, 0.010963375680148602, 0.007073845248669386, -0.021092992275953293, 0.006524907425045967, 0.0036854420322924852, 0.002983196172863245, 0.01468198373913765, -0.009394660592079163, 0.00233053439296782, 0.015529986470937729, 0.07266801595687866, -0.010114314965903759, 0.005964091047644615, 0.00863653514534235, -1.784932283044327e-05, -0.0035107124131172895, 0.00884134229272604, 0.05586469545960426, -0.002792380517348647, -0.0037240395322442055, 0.001995343016460538, 0.003720866981893778, 0.0771796703338623, -0.001049501821398735, 0.008230050094425678, 0.024342402815818787, 0.0026353108696639538, -0.002845179522410035, 0.004807278513908386, 0.0037346198223531246, 0.01254984736442566, 0.021144451573491096, 0.010244902223348618, 0.015541031025350094], [-0.009881358593702316, 0.02132316119968891, 0.0010795608395710588, 0.0020030071027576923, -0.003494418226182461, 0.022212635725736618, -0.014577800408005714, 2.4021826902753673e-05, 0.03429006040096283, -0.0025838587898761034, 0.002925277454778552, 0.0013273288495838642, -0.009668849408626556, 0.0005088465404696763, -0.0064319041557610035, -0.006677574478089809, 0.030618328601121902, -0.0032710153609514236, 0.0028450856916606426, -0.02754051238298416, -0.001357545261271298, -0.00030168439843691885, -0.0018949514487758279, -0.023713454604148865, 0.00048479382530786097, 0.0001720717118587345, 0.0018693191232159734, -0.00033728088601492345, 0.07763347774744034, 0.005163983441889286, -0.004180410411208868, 0.03134223818778992, -0.008538399823009968, 0.0018921130103990436, -0.0008288723765872419, -0.005437780637294054, -0.0014798629563301802, 0.0009272045572288334, -0.017862550914287567, 0.008295664563775063], [-0.02493841014802456, 0.09424392133951187, 0.013514580205082893, 0.040334757417440414, 0.009459125809371471, -0.17757239937782288, -0.024981191381812096, -0.060662299394607544, 0.027400245890021324, -0.01406093779951334, -0.023836541920900345, 0.017713742330670357, -0.013798132538795471, -0.051117151975631714, -0.233133465051651, 0.22829459607601166, -0.037525925785303116, 0.2115326225757599, -0.04224322363734245, 0.018131056800484657, 0.028198717162013054, -0.0015428932383656502, -0.006748709827661514, -0.03510214015841484, -0.004351351410150528, 0.00955255702137947, 0.0035471157170832157, -0.00280951289460063, 0.013673637993633747, 0.06268948316574097, 0.03914504125714302, 8.978890400612727e-05, 0.0777478814125061, 0.008678057231009007, -0.015811054036021233, -0.01776854880154133, -0.05233563110232353, -0.03535929694771767, -0.07745766639709473, -0.10470771044492722], [-0.07547926157712936, -0.016401929780840874, -0.020989466458559036, -0.023852944374084473, 0.06581204384565353, -0.16205079853534698, -0.042348463088274, 0.09503653645515442, 0.04736269265413284, -0.00699625676497817, -0.020647671073675156, 0.042035188525915146, 0.08636368066072464, -0.09378734230995178, -0.1158703938126564, 0.3836316466331482, 0.014583928510546684, 0.5520941615104675, -0.02452021650969982, 0.050997763872146606, 0.016842449083924294, 0.01248837448656559, -0.008370977826416492, -0.04067116975784302, 0.005552150309085846, 0.006735552102327347, -0.031856290996074677, -0.02750702202320099, 0.14690552651882172, 0.0444553941488266, 0.08942387253046036, -0.0352155975997448, 0.17624206840991974, 0.03159705922007561, -0.006483487319201231, -0.037246037274599075, -0.03521210700273514, 0.04808359593153, -0.062200967222452164, -0.11609582602977753], [-0.025601301342248917, 0.10845430195331573, -0.424329936504364, 0.09535419940948486, 0.03835054486989975, -0.06278662383556366, -0.023932216688990593, -0.04751953110098839, 0.06207738816738129, -0.009811240248382092, -0.0173916257917881, 0.02948606014251709, 0.028537554666399956, -0.031871479004621506, -0.039334673434495926, 0.0160575769841671, -0.4326821267604828, -0.026723220944404602, -0.11694515496492386, 0.03166215866804123, 0.17663323879241943, 0.004688065033406019, -0.05852080136537552, 0.14801540970802307, -0.0049494593404233456, 0.007529017049819231, -0.009508735500276089, -0.00946732796728611, 0.13386383652687073, 0.1361788511276245, -0.006857315078377724, -0.06781972199678421, 0.009179987944662571, 0.0188957117497921, -0.11077750474214554, -0.01714678667485714, -0.030595015734434128, 0.012747155502438545, -0.039582982659339905, -0.07334297150373459], [-0.04971321299672127, 0.0258752703666687, -0.0003863900783471763, -0.035205643624067307, 0.03839050233364105, -0.15575653314590454, -0.07043041288852692, 0.10975349694490433, 0.08150849491357803, -0.00650645000860095, 0.004421900026500225, 0.01571812480688095, -0.023871326819062233, -0.05993230268359184, -0.12317412346601486, 0.28187522292137146, 0.11280564218759537, 0.5173942446708679, -0.010882430709898472, -0.11626436561346054, 0.0030361295212060213, 0.008716747164726257, 0.014390600845217705, -0.17990776896476746, 0.015804516151547432, -0.0035300045274198055, -0.008265664801001549, -0.01186305657029152, 0.12093301117420197, 0.02682187408208847, 0.0500822439789772, -0.013927599415183067, 0.06949418783187866, 0.023766284808516502, 0.006156132090836763, -0.025802018120884895, -0.06510432064533234, -0.021764645352959633, -0.051949530839920044, 0.004948167596012354], [0.0246142465621233, -0.07268110662698746, -0.1625259965658188, 0.06999452412128448, 0.005258415825664997, -0.03415215015411377, -0.003856197465211153, -0.061487190425395966, 0.04069134593009949, 0.014295486733317375, -0.05556817352771759, -0.008074280805885792, -0.003279515076428652, -0.023656943812966347, -0.1504792422056198, 0.10808590799570084, 0.21033693850040436, 0.18039661645889282, -0.10224117338657379, 0.014726622961461544, 0.043832145631313324, -0.005904162302613258, 0.026873543858528137, -0.16221408545970917, 0.0013448839308694005, -0.016608018428087234, 0.004808408208191395, 0.003897978225722909, -0.19056487083435059, -0.00250299833714962, 0.02898724190890789, 0.05853606387972832, 0.054713618010282516, -0.004306533373892307, -0.026549911126494408, 0.020097482949495316, -0.10339978337287903, -0.005603306461125612, -0.12389010190963745, 0.032803986221551895], [0.0028430656529963017, 0.012170428410172462, -0.016685834154486656, 0.05421743169426918, 0.013693234883248806, -0.05747974291443825, 0.01578550972044468, -0.06437137722969055, -0.03528591990470886, 0.0065994844771921635, -0.004153478424996138, 0.011486959643661976, 0.017318937927484512, -0.049592308700084686, -0.132355198264122, 0.23262982070446014, 0.04059600830078125, 0.20178183913230896, 0.005236572120338678, 0.011804572306573391, 0.015777619555592537, -0.0006754450150765479, 0.006273726001381874, 0.009558474645018578, 0.0014552391367033124, -0.008234989829361439, -0.00040718450327403843, 0.0006655934848822653, -0.15348781645298004, 0.02025236375629902, 0.040140170603990555, -0.026575854048132896, 0.10838033258914948, -0.0008186824852600694, 0.004229159094393253, 0.006869049277156591, -0.055962398648262024, 0.012268180027604103, -0.026421116665005684, -0.09736555814743042], [0.014301102608442307, 0.07082507759332657, -0.025133831426501274, -0.010238466784358025, 0.033550724387168884, 0.07361423224210739, 0.016915790736675262, -0.013443690724670887, 0.02339165098965168, 0.003256766591221094, -0.01697486639022827, 0.001102649373933673, 0.034003403037786484, 0.018310002982616425, 0.01202202308923006, -0.02455097809433937, 0.06475617736577988, -0.058319348841905594, -0.017642131075263023, 0.0032480163499712944, -0.006094751413911581, -0.0013731959043070674, -0.07955913990736008, -0.043364137411117554, -0.004121754318475723, 0.0009916910203173757, -0.0012389359762892127, 0.003249123226851225, 0.10273636132478714, 0.006209150888025761, -0.0022738659754395485, -0.03534363955259323, -0.07065387815237045, -0.0029387162066996098, -0.04568777233362198, 0.008164385333657265, -0.014105789363384247, 0.01345805637538433, -0.035423047840595245, 0.21261398494243622], [0.002029002644121647, -0.0061831166967749596, 0.0019150893203914165, 0.0013184985145926476, -0.0012953407131135464, -0.005741456989198923, 8.519342372892424e-05, 0.0029801384080201387, -0.008599882014095783, 0.0010174629278481007, -0.006425758823752403, -0.00046284470590762794, -0.0024431392084807158, -0.0010783709585666656, -0.01100231520831585, 0.009618071839213371, 0.005900270771235228, 0.015326728112995625, 0.0003362414427101612, -0.0038923255633562803, 0.0020902063697576523, -1.9507200704538263e-05, 0.0014707442605867982, -0.015500634908676147, 0.000249551550950855, -0.0014154495438560843, 0.0006887803901918232, 0.0006662607192993164, -0.023440798744559288, -0.00040780918789096177, 0.00010650051990523934, 0.010478106327354908, 0.005256706848740578, -6.72999449307099e-05, 0.00013918770127929747, 0.0016286406898871064, -0.006081138271838427, -0.002620080253109336, -0.0016441242769360542, -0.014750460162758827], [-0.004224798176437616, -0.000599553226493299, -0.004632060416042805, 7.608239684486762e-05, 0.003717009909451008, 0.022375158965587616, 0.0040289550088346004, -0.0041930112056434155, 0.0007277680560946465, -0.0014433438191190362, -0.005717697087675333, 0.00041314863483421504, 0.0016176116187125444, 0.0018774790223687887, 0.019435102120041847, -0.05206223204731941, 0.03987336903810501, -0.06131843104958534, -0.004257163032889366, -0.00012617904576472938, 0.0035519618541002274, 0.000664479797706008, 0.01149006187915802, 0.06296227127313614, -0.0005280061741359532, 0.001013048691675067, -0.0020137967076152563, -0.0002681500918697566, 0.02611762471497059, -0.0015651989961043, -0.002116256160661578, 0.0077252937480807304, -0.00935755018144846, 0.0023358475882560015, -0.0008786204853095114, -0.002613855991512537, -0.0002626610512379557, -0.0002864892885554582, 0.00619127182289958, 0.023323096334934235], [0.08618681132793427, -0.3659074306488037, -0.10297880321741104, -0.16287091374397278, -0.08808306604623795, 0.02709135226905346, -0.1940646916627884, 0.4246635138988495, -0.485696941614151, -0.0019959278870373964, -0.19012968242168427, -0.07190507650375366, -0.2739819884300232, -0.002292747376486659, -0.1969214379787445, 0.46816015243530273, 0.6537022590637207, 0.7289172410964966, -0.1575280874967575, -0.09534849971532822, 0.5559507012367249, -0.005033393390476704, 0.20576773583889008, -0.25820988416671753, 0.047992803156375885, -0.0024014029186218977, 0.08927295356988907, 0.021734507754445076, -0.011347657069563866, -0.13920290768146515, -0.020171690732240677, 0.4022378921508789, 0.11046905070543289, 0.022045239806175232, -0.09281463176012039, 0.04970039799809456, -0.2182409167289734, -0.23141294717788696, -0.023650063201785088, 0.1093449518084526], [0.00037019216688349843, -0.001093528000637889, 0.000592185533605516, -0.00015748757869005203, 0.00012987579975742847, -0.003642507130280137, 4.812586595903667e-08, 0.0006090201786719263, 0.0004245450545568019, 0.0008493713103234768, 8.136784890666604e-05, 0.00015014370728749782, 0.0007560907979495823, -0.0009643249795772135, -0.004175292793661356, 0.00855572335422039, -0.0025302364956587553, 0.009105130098760128, 0.002033540513366461, -0.000165516888955608, -0.001035402761772275, -0.00011871266906382516, 0.00024561185273341835, -0.004250980447977781, -0.00018060651200357825, -0.0009948418010026217, -0.00010639850370353088, -1.7969156033359468e-05, -0.007946988567709923, 0.00021355468197725713, 0.0014475834323093295, 0.001452050288207829, 0.0024145327042788267, -0.0006686917040497065, 0.0004431206325534731, 0.0005217794678173959, -0.0005097340908832848, 0.0010483663063496351, -0.0006932271644473076, -0.0030809466261416674], [0.0032907973509281874, -0.0333297960460186, 0.00402932520955801, -0.02293769083917141, -0.0008619435830041766, -0.016881082206964493, 0.0018808945314958692, 0.039544858038425446, -0.038285158574581146, -0.004233803600072861, -0.02705231122672558, 0.002886126283556223, -0.005734081845730543, -0.0033333611208945513, -0.02640601620078087, 0.03758115693926811, 0.044911839067935944, -0.028972202911973, -0.014805566519498825, 0.0061767795123159885, 0.014164142310619354, -0.0010814855340868235, 0.006827824283391237, -0.0019670333713293076, -0.0018223869847133756, 0.005199266131967306, 0.0016542553203180432, 0.001397353713400662, 0.06344057619571686, -0.0015859085833653808, -0.0027849331963807344, 0.040313057601451874, 0.02073422074317932, 0.001792910392396152, -0.005428590811789036, 0.0010450013214722276, -0.01976015791296959, -0.013723619282245636, 0.0004768965009134263, 0.021728461608290672], [0.003920710179954767, 0.004906339570879936, 0.002775019034743309, 0.0044278413988649845, -0.0036490261554718018, -0.0018544442718848586, -0.00027439772384241223, -0.002065759850665927, 0.006056593731045723, 0.0019477118039503694, 0.0007916579488664865, -0.0028789446223527193, -0.0028763681184500456, 0.003751367097720504, -0.0008323373040184379, -0.009374509565532207, -0.006546452641487122, -0.007255579344928265, 0.0008967879111878574, -0.004465394653379917, -0.003110097488388419, -0.0018502837046980858, -0.00022598930809181184, -0.01390098500996828, 5.363653690437786e-05, -0.002713447902351618, 0.0035988762974739075, 0.001733464072458446, -0.020857203751802444, -0.00048071893979795277, -0.004840841982513666, 0.0013328406494110823, 0.00396794592961669, -0.0027124378830194473, 0.0019467277452349663, 0.0037787631154060364, -0.005351821426302195, -0.0034244409762322903, -0.006876508239656687, -0.0004329735820647329], [0.0024396413937211037, -0.0006435298128053546, 0.0008597651030868292, 0.001501762424595654, -0.0011353729059919715, -0.0015676915645599365, 0.0010299219284206629, -0.0005457470542751253, 0.00046189039130695164, 0.0011121199931949377, -0.001922966563142836, -0.001150623895227909, -0.001758713973686099, 0.0013198967790231109, -0.001541786827147007, -0.003147685434669256, 0.001989917829632759, -0.000588929804507643, -0.0008039781823754311, -0.0004457595059648156, 0.0005178221617825329, -0.0006785532459616661, 0.0010483708465471864, -0.0019490272970870137, -0.00022489849652629346, -0.0011103828437626362, 0.0013559142826125026, 0.0007096839835867286, -0.011615249328315258, -0.0011734126601368189, -0.0017129919724538922, 0.003609871258959174, 0.0023479259107261896, -0.0011745294323191047, 0.00013212068006396294, 0.002010887721553445, -0.002394795883446932, -0.0019420459866523743, -0.0018554030684754252, 0.0004231301718391478], [0.3362157642841339, -0.18247810006141663, -0.04052285477519035, 0.2156909853219986, 0.0025871049147099257, 0.3493430018424988, 0.22269384562969208, -0.09940500557422638, -0.2805194854736328, 0.05699532479047775, 0.043723978102207184, -0.052791107445955276, 0.11015394330024719, 0.15997451543807983, 0.663539469242096, -1.2322931289672852, -0.3532393276691437, -1.392138957977295, -0.11945173889398575, 0.5327757596969604, 0.04853207990527153, -0.025931943207979202, 0.06757707893848419, 0.31021013855934143, -0.02835659869015217, -0.003883529454469681, 0.0643996000289917, 0.04284719377756119, -0.30902084708213806, -0.13999685645103455, -0.17055216431617737, -0.46151021122932434, -0.2757793962955475, -0.02371292933821678, 0.015609587542712688, 0.159599170088768, -0.04360874369740486, 0.09538475424051285, 0.43096643686294556, -0.05709131807088852], [0.007418997120112181, -0.04660617187619209, -0.017701346427202225, -0.030125871300697327, 0.004942401312291622, 0.06884203851222992, 0.004697028081864119, 0.04383329674601555, -0.04721856489777565, 0.0010354382684454322, -0.008442679420113564, 0.0013831425458192825, -0.004544422961771488, -0.0033798841759562492, 0.03765903785824776, -0.09093575924634933, 0.13710927963256836, -0.07451530545949936, -0.009897987358272076, -0.020778466016054153, 0.008933781646192074, -0.001558135380037129, 0.013490778394043446, 0.02122936211526394, -0.0015936909476295114, 0.00032220620778389275, 0.0027073377277702093, 0.0023209762293845415, 0.05752178281545639, -0.0224616639316082, -0.0034155119210481644, 0.06364750862121582, -0.050737395882606506, 0.003357121953740716, -0.002524280222132802, 0.0033963241148740053, 0.01524339709430933, 0.00016000305186025798, 0.04776806756854057, 0.036940768361091614], [-0.012886500917375088, 0.03206200897693634, 0.005272013135254383, 0.009830583818256855, -0.005522090010344982, 0.013914061710238457, -0.016501080244779587, -0.00984262302517891, 0.0454496406018734, -0.0016962464433163404, 0.0100637748837471, -0.00048623690963722765, -0.009549993090331554, 0.005072909407317638, -0.003983868286013603, -0.008682789281010628, 0.018303342163562775, 0.0027668573893606663, 0.004726431332528591, -0.02378745563328266, -0.00901752058416605, -0.0005663608317263424, -0.004784465301781893, -0.025379851460456848, 0.0013628749875351787, -0.001238279975950718, 0.0027471596840769053, -0.0005000117816962302, 0.05465034767985344, 0.005203877575695515, -0.006816814187914133, 0.0017861746018752456, -0.01080350112169981, 0.00013478760956786573, 0.0018429694464430213, -0.006847423035651445, -0.0017574424855411053, -0.0007446337840519845, -0.019761821255087852, 0.011855400167405605], [0.007595938630402088, 0.07487564533948898, 0.0011672917753458023, 0.09690779447555542, 0.04512534663081169, -0.24036267399787903, 0.027938688173890114, -0.1306019425392151, 0.10736674815416336, -0.002302741166204214, -0.07564086467027664, 0.04921998456120491, 0.09606243669986725, -0.1095115914940834, -0.2242780178785324, 0.33987486362457275, -0.11892544478178024, 0.2752842307090759, -0.03678688779473305, -0.005547092761844397, 0.06382870674133301, -0.0025163362734019756, -0.057496972382068634, 0.24381543695926666, -0.02831254154443741, 0.0003285278216935694, 0.003017900977283716, 0.014754400588572025, -0.3395143747329712, 0.11710242927074432, 0.08577600121498108, 0.05290818214416504, 0.19144649803638458, 0.02863020822405815, -0.025068458169698715, -0.005917850881814957, -0.06710410118103027, 0.012804812751710415, -0.14908091723918915, -0.24841433763504028], [-0.014246322214603424, 0.001868494669906795, -0.015729408711194992, -0.009551054798066616, 0.017540590837597847, -0.07556688785552979, -0.028175566345453262, -0.03491480275988579, 0.04629399627447128, -0.00842684879899025, -0.022251524031162262, 0.011298768222332, -0.008607737720012665, -0.047346580773591995, -0.18141676485538483, 0.18139079213142395, -0.047182004898786545, 0.16627569496631622, -0.021625174209475517, 0.002289682161062956, 0.03349971026182175, -0.0003224110114388168, -0.01249261386692524, -0.05095061659812927, -0.0019405147759243846, 0.008505968376994133, 8.955942030297592e-05, -0.0013562204549089074, 0.15650461614131927, 0.06741122901439667, 0.026298334822058678, -0.05342372506856918, 0.09311625361442566, 0.018622063100337982, -0.008196997456252575, -0.011574908159673214, -0.12036784738302231, -0.022798173129558563, -0.05168467015028, -0.03558158129453659], [0.003333107801154256, -0.004850733559578657, -0.001434266334399581, -0.0031125321984291077, 0.0020392711739987135, 0.010113376192748547, 0.002063912572339177, 0.005707899108529091, -0.02227761223912239, 0.0014684408670291305, -0.00023313501151278615, -0.0018486337503418326, 0.0013728364137932658, 0.004643237218260765, 0.02881036140024662, -0.04668450355529785, -0.00015857815742492676, -0.05899912863969803, -0.010192831978201866, 0.01572333462536335, 0.0034046454820781946, 7.407508383039385e-05, 0.0022270334884524345, 0.025417381897568703, -0.0007863989449106157, -0.000819291512016207, 0.0005055018700659275, 0.0003640374925453216, 0.02519000694155693, -0.0038960794918239117, -0.004777044523507357, -0.015330822207033634, -0.0056642042472958565, -5.4475451179314405e-05, -7.316323899431154e-05, 0.0032110800966620445, -0.007150320801883936, -0.0020294373389333487, 0.008519023656845093, 0.02355499565601349], [0.0011524484725669026, 0.009083662182092667, -0.006326202768832445, 0.011475607752799988, -0.0002891112817451358, 0.008560161106288433, -0.0018549204105511308, -0.01586288958787918, 0.00978076457977295, 0.0016423937631770968, 0.00020650083024520427, -0.0024355011992156506, -0.003275074530392885, 0.0015328152803704143, 0.011208316311240196, -0.024142753332853317, -0.051266565918922424, 0.0006374918157234788, -0.0005167775088921189, -0.0026517254300415516, -0.0005615006666630507, -0.00015451980289071798, -0.0009562377235852182, -0.006689091213047504, 0.0013752668164670467, -0.0020078502129763365, 0.0004402809718158096, 0.00054687459487468, -0.02340133674442768, -0.0015205790987238288, 0.00015222006186377257, -0.010069328360259533, -0.007420586887747049, -0.0008424015250056982, -0.00029048716532997787, 0.00211212201975286, 0.0004156037175562233, 0.0002814062754623592, -0.0033721495419740677, -0.0024576913565397263], [0.021685458719730377, -0.05661346763372421, 0.0001537591015221551, -0.01801414228975773, -0.00403415085747838, -0.03506865352392197, 0.017031554132699966, 0.026480089873075485, -0.06196872144937515, 0.006583226844668388, -0.023037876933813095, -0.0027951111551374197, -0.0023534654174000025, -0.006047937553375959, -0.05433902144432068, 0.04562735557556152, 0.02326529286801815, 0.06237570568919182, 0.0022787097841501236, 0.00418391078710556, 0.016666196286678314, -0.0022486650850623846, 0.010627686977386475, -0.06947613507509232, -0.0010983201209455729, -0.0036627843510359526, 0.005371405743062496, 0.005218476057052612, -0.1304815411567688, -0.006957068108022213, 0.0031731256749480963, 0.10505997389554977, 0.035717740654945374, -0.008666756562888622, -0.0012154026189818978, 0.012277387082576752, -0.0003699589578900486, -0.003261196194216609, -0.004420508164912462, -0.026513220742344856], [-0.0008312281570397317, -0.0923164039850235, 0.03247091546654701, 0.08791980892419815, -0.01596444472670555, -0.12290126085281372, -0.022617289796471596, -0.06859386712312698, -0.016371505334973335, 0.01724303513765335, -0.08176128566265106, -0.00837384071201086, -0.0037898302543908358, -0.014066264033317566, -0.26290151476860046, 0.272161066532135, 0.03589995577931404, 0.4114167094230652, 0.07785177230834961, -0.00882925745099783, -0.0017404318787157536, -0.00880179088562727, -0.004598235711455345, -0.4648604989051819, 0.014220966957509518, -0.029050875455141068, 0.0020449061412364244, -0.0010123341344296932, -0.5944485068321228, 0.011960325762629509, 0.03474675863981247, 0.125458225607872, 0.09513479471206665, -0.0586928091943264, 0.015665564686059952, 0.0030594945419579744, 0.009768146090209484, 0.004546837415546179, -0.13246285915374756, -0.28635531663894653], [-0.030731920152902603, -0.11400537192821503, -0.19975228607654572, -0.13692766427993774, 0.12728552520275116, 0.1513354778289795, 0.006425360683351755, 0.16031530499458313, -0.14671602845191956, -0.0077189612202346325, -0.007697113323956728, 0.07552503794431686, -0.0037168883718550205, -0.13927021622657776, 0.22891198098659515, -0.10581711679697037, 0.1585879921913147, -0.1422867774963379, -0.14413580298423767, -0.07487122714519501, 0.08871028572320938, 0.01058452483266592, 0.08022136986255646, 0.21611011028289795, 0.00024351695901714265, 0.04373115673661232, -0.0029074857011437416, 0.0008024722919799387, -0.08854079991579056, -0.16462400555610657, 0.010958634316921234, 0.0999935194849968, -0.11526456475257874, 0.08948323130607605, -0.04172997549176216, -0.01656429097056389, -0.04618757218122482, 0.025187892839312553, 0.09043284505605698, 0.15543018281459808], [-0.0009909000946208835, -0.061820387840270996, 0.015719441697001457, 0.008185379207134247, -0.004600713029503822, -0.11262050271034241, 0.006652903743088245, -0.024674396961927414, 0.004375710152089596, -0.0017701456090435386, -0.06348597258329391, 0.0075397067703306675, -0.009057298302650452, -0.022549353539943695, -0.14810922741889954, 0.22678254544734955, 0.056065332144498825, 0.2537575662136078, 0.012852775864303112, 0.0027259360067546368, 0.018927400931715965, 0.0013155678752809763, 0.003228015499189496, -0.14988844096660614, 0.005022517871111631, -0.003979757893830538, 0.0022696552332490683, -0.00015997073205653578, -0.2771953344345093, 0.02668951079249382, 0.02788509801030159, 0.12077826261520386, 0.09761559963226318, -0.0034536030143499374, 0.0004585060232784599, -0.00297892140224576, -0.03450603410601616, -0.01660001091659069, -0.09019063413143158, -0.15029148757457733], [-0.022653203457593918, -0.004438428208231926, 0.14767679572105408, -0.029779739677906036, -0.004596971906721592, -0.06664697825908661, -0.01854497753083706, 0.03335856646299362, -0.005519676022231579, -0.0024933391250669956, -0.03630085662007332, 0.018510539084672928, 0.021516170352697372, -0.04130753502249718, -0.16772513091564178, 0.2868306636810303, 0.09886856377124786, 0.3359365165233612, 0.050848525017499924, -0.0551588200032711, -0.061732109636068344, 0.005091693717986345, 0.02690778858959675, -0.26255369186401367, 0.0031516957096755505, 0.003023751312866807, -0.009246747940778732, -0.00967198796570301, -0.04111780226230621, 0.022493157535791397, 0.03637636452913284, 0.1178986057639122, 0.04448125511407852, -0.004148751962929964, -0.0039495076052844524, -0.018256619572639465, 0.04330830276012421, 0.06850139796733856, -0.03901848569512367, 0.10676456242799759], [0.008998679928481579, -0.032796185463666916, -0.00835169292986393, -0.019682075828313828, 0.0008513298816978931, -0.0053482758812606335, 0.013759700581431389, 0.02102535404264927, -0.030406225472688675, 0.006588777527213097, -0.005633872468024492, -0.005653006490319967, 0.007888393476605415, 0.004998026415705681, 0.004244376439601183, -0.04889395833015442, -0.017005203291773796, -0.024454675614833832, -0.004235818982124329, 0.0298471562564373, 0.011256336234509945, -0.0005063134012743831, 0.0058185504749417305, -0.0123983733355999, -0.0021468542981892824, -0.002570938318967819, -0.000356539647327736, 0.002703682519495487, -0.04339642822742462, -0.007308304775506258, -0.008701580576598644, 0.04740438237786293, 0.010510806925594807, -0.0031087989918887615, -0.0009519268060103059, 0.011203307658433914, 0.007145342882722616, 0.0067236595787107944, 0.01599433645606041, 0.01674598641693592], [-0.029484136030077934, 0.31780046224594116, -0.0765366405248642, 0.02773892693221569, 0.033568453043699265, -0.03676681965589523, 0.010533129796385765, -0.06019525229930878, 0.11169572174549103, -0.017702918499708176, 0.06630008667707443, 0.053469154983758926, 0.09693147987127304, -0.10134008526802063, -0.05197301506996155, 0.16655735671520233, -0.29272541403770447, 0.006193414330482483, -0.05584710091352463, -0.009378877468407154, -0.03287627175450325, 0.010940063744783401, -0.04627269506454468, 0.8069807887077332, -0.02339172177016735, 0.018631355836987495, -0.020069478079676628, -0.016697317361831665, 0.11196103692054749, 0.09590721130371094, 0.05698375403881073, -0.26589661836624146, 0.052495479583740234, 0.03816990554332733, -0.02341172844171524, -0.03871624544262886, -0.10761845856904984, 0.06729323416948318, -0.06879789382219315, -0.03880912438035011], [0.0005621820455417037, -0.04798755794763565, 0.0239058006554842, -0.026446780189871788, 0.003368828445672989, 0.0015333928167819977, 0.005197318736463785, 0.05082530900835991, -0.04286474734544754, -0.0035021633375436068, -0.012994554825127125, 0.0019817890133708715, 0.0004939102218486369, -0.002539311535656452, 0.001843355828896165, -0.0039055144879966974, 0.1392774134874344, 0.0009764351998455822, -0.004469950217753649, -0.006307193078100681, -0.06339038163423538, 0.0013353698886930943, 0.009207138791680336, 0.004043468739837408, -0.0004285544855520129, 0.0025650598108768463, -0.0017290435498580337, 5.342224903870374e-05, 0.22573599219322205, -0.010283894836902618, 0.0034077742602676153, 0.034955237060785294, -0.005043421406298876, 0.001527144224382937, -0.015383201651275158, -0.00039680031477473676, 0.011483823880553246, -0.0050890170969069, 0.034377600997686386, 0.2488003522157669], [-0.03613145649433136, -0.001077091321349144, 0.00526903523132205, -0.08027383685112, 0.021972130984067917, -0.16566309332847595, -0.047799088060855865, 0.06761378049850464, 0.0742591917514801, -0.015920372679829597, -0.04411040619015694, 0.02989998087286949, 0.014479082077741623, -0.04318476840853691, -0.11460793018341064, 0.21560955047607422, 0.058881763368844986, 0.1407029926776886, -0.013830088078975677, 0.025568170472979546, -0.00764145003631711, -0.0020385864190757275, 0.006303217262029648, -0.014442023821175098, -0.006942067760974169, 0.0151780741289258, -0.00978813599795103, -0.004305655136704445, 0.5605873465538025, 0.029976069927215576, 0.03480812534689903, 0.016638245433568954, 0.08163709938526154, 0.018421011045575142, -0.023057840764522552, -0.02431136555969715, -0.07201351970434189, 0.010643759742379189, -0.10096870362758636, 0.019888564944267273], [0.0007212086929939687, -0.013449035584926605, 0.0018947338685393333, -0.010354452766478062, 0.0017262097680941224, 0.011826274916529655, -0.0007157082436606288, 0.015970513224601746, -0.011497893370687962, 0.00016849080566316843, -0.00023809859703760594, 0.00016659199900459498, -0.0007881193305365741, -0.0008979149861261249, 0.004738679155707359, 0.007277983706444502, 0.012042265385389328, 0.00794911663979292, -0.001907319761812687, -0.00033071337384171784, 0.00036405777791514993, -0.0006607852992601693, 0.01918073371052742, -0.006986487191170454, -0.00032559424289502203, -0.00026767741655930877, 0.0009880384895950556, 5.435865750769153e-05, 0.008436735719442368, -0.0008029135642573237, -2.3011129087535664e-05, 0.011165223084390163, -0.00020279728050809354, -0.00011777084728237242, -0.00015306627028621733, 0.00030167654040269554, -0.0003792310308199376, -0.0009914673864841461, 0.005118834786117077, 0.01842103898525238], [-0.02700010873377323, 0.03977879136800766, -0.027707785367965698, 0.036058276891708374, 0.07094030827283859, -0.168381467461586, -0.06098904460668564, -0.1605892777442932, 0.09215791523456573, -0.010452227666974068, 4.118057404411957e-05, 0.04014775529503822, 0.050060927867889404, -0.15480980277061462, -0.14312443137168884, 0.24409647285938263, -0.10024768859148026, 0.27963951230049133, -0.02667018212378025, 0.03551975265145302, 0.04320450872182846, -0.0011918063974007964, -0.0972999632358551, 0.10578832775354385, -0.016980603337287903, 0.007936011999845505, -0.009395035915076733, -0.006517521571367979, 0.1686975061893463, 0.06496357172727585, 0.07695566862821579, -0.06571661680936813, 0.07932547479867935, 0.06006252393126488, -0.01349496841430664, -0.019924836233258247, -0.04306887462735176, 0.007076180540025234, -0.22727817296981812, -0.12412514537572861], [0.00511529203504324, -0.008841197937726974, -0.0012818400282412767, -0.005830834154039621, 0.0003591614658944309, -0.010967213660478592, 0.007899605669081211, 0.006647941656410694, -0.010911228135228157, 0.004910869989544153, -0.0003275591880083084, 0.0018012748332694173, 0.008240391500294209, -0.0041186753660440445, -0.022952169179916382, 0.03725592792034149, -0.007870260626077652, 0.011517847888171673, 0.006139490753412247, 0.0005284080398268998, -0.004549608565866947, -0.000809336022939533, -0.0006595122395083308, 0.023173969238996506, -0.0014748505782335997, -0.0035628124605864286, -4.871574219578179e-07, 0.00035167226451449096, -0.0420118123292923, 0.0013853482669219375, 0.004028614144772291, 0.021994266659021378, 0.008654674515128136, -0.0032459599897265434, 0.005354924127459526, 0.0036786317359656096, -0.00029219049611128867, 0.010652012191712856, 0.004850456956773996, -0.02187441475689411], [-0.039240896701812744, 0.049218811094760895, -0.010973706841468811, -0.10477010905742645, 0.0338699035346508, -0.2682383060455322, -0.036904651671648026, 0.010429002344608307, 0.09231121838092804, -0.01719232089817524, -0.03536364808678627, 0.04473961144685745, 0.05241695046424866, -0.08281756937503815, -0.2010532021522522, 0.3060069978237152, -0.06083730608224869, 0.2480459213256836, -0.05557241290807724, 0.08500761538743973, -0.023444365710020065, 0.0043586366809904575, -0.007877417840063572, 0.060770608484745026, -0.005571827758103609, 0.01782008819282055, -0.020042749121785164, -0.007610500790178776, 0.39050108194351196, 0.05361119657754898, 0.07610978931188583, -0.009733323007822037, 0.11857409030199051, 0.04107189550995827, -0.02065691351890564, -0.024793274700641632, -0.1175849437713623, 0.03564820438623428, -0.13876885175704956, -0.1938214898109436], [-0.0011968649923801422, 0.13553695380687714, 0.007728789001703262, 0.015353051014244556, 0.0009325165883637965, -0.007232666015625, 0.018102118745446205, -0.03913531452417374, 0.06397094577550888, -0.0005566123872995377, 0.0511995330452919, 0.017363669350743294, 0.03475186601281166, -0.023177845403552055, 0.01826002635061741, -0.00929584726691246, -0.1063244491815567, -0.10226329416036606, -0.007787886541336775, -0.01142876036465168, -0.03567612171173096, -0.002217379165813327, -0.01794775202870369, 0.43966197967529297, -0.01216818019747734, -0.001653018407523632, 0.001536008552648127, 0.0012920330045744777, 0.03252159431576729, 0.02738223224878311, 0.0226981770247221, -0.1287432760000229, -0.0030417621601372957, 0.00997200421988964, 0.01050227414816618, -0.006821170449256897, -0.08456767350435257, 0.0258033387362957, -0.05041113868355751, -0.029432836920022964], [0.005179674364626408, -0.016391171142458916, -0.001051253406330943, -0.011119699105620384, 0.0008054723148234189, -0.0027934384997934103, 0.005180503241717815, 0.01394936628639698, -0.01935671642422676, -0.001642444753088057, -0.00808663759380579, -0.00031792459776625037, -0.001917379442602396, 0.0015367984306067228, -0.0014386179391294718, -0.005754292476922274, 0.009951925836503506, -0.023234007880091667, -0.007582785561680794, 0.010725531727075577, 0.006332080345600843, -0.000609905575402081, 0.003769688308238983, 0.00750981830060482, -0.0012258411152288318, 0.00278082606382668, 0.00013968543498776853, 0.0012544136261567473, 0.008738753385841846, -0.00341037823818624, -0.0018306472338736057, 0.01864655688405037, 0.0060448856092989445, -6.679155922029167e-05, -0.0015294390032067895, 0.002712814137339592, -0.005528878886252642, -0.003112213918939233, 0.007231219671666622, 0.011141403578221798], [-0.016851147636771202, 0.3069513738155365, 0.032768238335847855, 0.03573262318968773, -0.007288291584700346, 0.0013638896634802222, -0.025243176147341728, -0.04720452427864075, 0.153196319937706, 0.006101248785853386, 0.2502772808074951, -0.007907731458544731, -0.0032593526411801577, 0.003860157448798418, 0.07521481066942215, 0.025394823402166367, -0.5648646354675293, 0.09269954264163971, 0.032969262450933456, -0.021548373624682426, -0.1133299469947815, 0.000964110775385052, -0.022361518815159798, 0.053144246339797974, 0.009993774816393852, -0.01258164644241333, -0.0014131361385807395, -0.005209573078900576, -0.10323189944028854, 0.0338163822889328, -0.026329169049859047, -0.3694000840187073, -0.015067796222865582, -0.0114991320297122, 0.006275593303143978, -0.003145290073007345, 0.04021678492426872, 0.0005081443232484162, -0.017300400882959366, -0.04227930307388306], [-0.0017789709381759167, 0.003763439366593957, -0.00011375158646842465, 0.002249122131615877, -0.000627651927061379, 0.009022870101034641, -0.001985609997063875, -0.002669209148734808, 0.002925235079601407, 0.00021654475131072104, 0.003850654698908329, -6.913091783644632e-05, -0.0008890574099496007, 0.0005616974667645991, 0.00458577461540699, -0.005646927282214165, 0.0006121859769336879, -0.0009711025631986558, 0.0020477930083870888, -0.0056495931930840015, -0.0012137222802266479, 0.00016638041415717453, -0.0010902503272518516, -0.005401263013482094, 0.0005177757702767849, -0.0007537650526501238, -0.00012119055463699624, -0.00017323170322924852, 0.0007002301281318069, 3.895723421010189e-05, -0.0008286437951028347, 0.002841587644070387, -0.003998975269496441, -0.00023444271937478334, 0.0009772316552698612, -0.0008888528682291508, 0.005490400828421116, 0.0004799676244147122, -0.00020158760889898986, 0.00031949952244758606], [0.009810195304453373, -0.018592925742268562, -0.00017703688354231417, -0.011435260996222496, 0.001342152594588697, -0.01855619251728058, 0.01222268771380186, 0.011038793250918388, -0.017802326008677483, 0.00661165826022625, 0.0026567820459604263, 0.001606798847205937, 0.01114907767623663, -0.004724545404314995, -0.016801873221993446, 0.03815796971321106, -0.019651595503091812, 0.02084929868578911, 0.0037441719323396683, 0.01069528516381979, -0.003956461325287819, -0.0035937863867729902, 0.0007200551335699856, 0.036659155040979385, -0.0025960817001760006, -0.004701702855527401, 0.0021533952094614506, 0.0032969533931463957, -0.02908799797296524, -4.817286389879882e-05, 0.008319291286170483, 0.019524473696947098, 0.012339255772531033, -0.0048467302694916725, 0.005664038937538862, 0.006940172985196114, 0.0012157553574070334, 0.009283588267862797, 0.00917565543204546, -0.006751693785190582], [-0.011020761914551258, 0.004621496889740229, -0.0011862916871905327, -0.0031833432149142027, -0.0011465215357020497, 0.004906364716589451, -0.011602881364524364, 0.005868175532668829, 0.013113037683069706, -0.0021078288555145264, 0.002887244801968336, 0.0023531923070549965, -0.0044132196344435215, -0.000869865296408534, -0.017587319016456604, 0.02057627961039543, 0.018822770565748215, 0.03154171630740166, 0.005676731932908297, -0.02274196222424507, 0.0013464820804074407, 0.0018840453121811152, -0.001509521622210741, -0.03286918252706528, 0.00132212252356112, 0.0003566171508282423, -0.0013905371306464076, -0.0020575777161866426, 0.035374484956264496, 0.004648131784051657, -0.00028411546372808516, 0.033869244158267975, -0.003397697117179632, 0.0011491896584630013, -0.0004364465712569654, -0.004955953918397427, 0.009123370982706547, 0.0026406904216855764, -0.007157054729759693, -0.007094115950167179], [-0.039040595293045044, 0.016059299930930138, 0.00914282537996769, 0.04166081175208092, 0.029801037162542343, -0.18932749330997467, -0.04333347827196121, 0.005731747951358557, 0.025576192885637283, -0.013310303911566734, -0.03949686139822006, 0.037184905260801315, 0.010150311514735222, -0.13319246470928192, -0.253909170627594, 0.2760136127471924, -0.02553107962012291, 0.415172815322876, -0.03063190169632435, 0.006807353347539902, 0.0371430367231369, 0.0019012729171663523, -0.0509621687233448, -0.08364807069301605, -0.002457584021613002, 0.006632552016526461, -0.00549667002633214, -0.009685678407549858, -0.15730686485767365, 0.09518352150917053, 0.09747865051031113, -0.04449142515659332, 0.1996815949678421, 0.03187089413404465, -0.017678169533610344, -0.023617366328835487, -0.03565525636076927, -0.0216933935880661, -0.12675784528255463, -0.23346421122550964], [-0.09747175127267838, -0.10507334768772125, -0.01767866685986519, -0.1640416532754898, 0.09458091109991074, -0.3486231565475464, -0.05608891323208809, 0.12517698109149933, 0.002954678377136588, -0.010291955433785915, 0.0017868132563307881, 0.051848433911800385, 0.13996769487857819, -0.15973693132400513, -0.21707168221473694, 0.6220578551292419, -0.04859941080212593, 0.781193196773529, -0.04061523452401161, 0.15287509560585022, 0.005579790100455284, 0.015211987309157848, -0.026079686358571053, 0.15102392435073853, -0.003429291769862175, 0.011490186676383018, -0.04691688343882561, -0.04179587960243225, 0.3188968896865845, 0.049534790217876434, 0.13758452236652374, -0.08140603452920914, 0.29757261276245117, 0.03675408288836479, -0.00577543256804347, -0.04691672325134277, -0.03954412415623665, 0.06583558022975922, 0.0050473902374506, -0.2218615859746933], [-0.043066177517175674, 0.6186206936836243, 1.046549916267395, 0.3163374066352844, 0.014211107045412064, -0.062420256435871124, -0.11228346079587936, -0.3756592869758606, 0.22901161015033722, -0.0013961332151666284, 0.3648475706577301, 0.057872969657182693, -0.02042672224342823, -0.08062739670276642, -0.009600773453712463, 0.1756751537322998, -1.1293880939483643, 0.39362749457359314, 0.10941504687070847, 0.025378979742527008, -0.36538931727409363, 0.010482605546712875, -0.5783293843269348, 0.3313193619251251, -0.004417687654495239, -0.013911167159676552, -0.020117172971367836, -0.017408357933163643, -1.0937942266464233, 0.4330332577228546, -0.038891732692718506, -0.5161172747612, 0.04319213330745697, -0.00809300784021616, 0.46371108293533325, -0.023765938356518745, 0.02107854373753071, 0.016575107350945473, -0.14098118245601654, -0.555215060710907], [-0.05855698138475418, -0.0023448944557458162, 0.016041066497564316, -0.10982569307088852, 0.020484574139118195, -0.30317923426628113, -0.1047029197216034, 0.09496800601482391, 0.13421288132667542, 0.01678362675011158, 0.003947236109524965, 0.05375491827726364, 0.004971256013959646, -0.24768029153347015, -0.46352940797805786, 0.8411409854888916, 0.04253821447491646, 1.284023642539978, 0.0957251787185669, -0.0022356959525495768, -0.1089046522974968, 0.00984776671975851, -0.010432983748614788, -0.36287370324134827, 0.025818239897489548, -0.03450661152601242, -0.018836969509720802, -0.021324478089809418, -0.2900856137275696, 0.06588893383741379, 0.21132740378379822, -0.023167012259364128, 0.20983949303627014, 0.008564602583646774, 0.03855101764202118, -0.022691478952765465, -0.013221574947237968, 0.030276140198111534, -0.09714251011610031, -0.3133338391780853], [0.011883529834449291, 0.04431303218007088, -0.02666928805410862, 0.07974803447723389, 0.0035482042003422976, -0.04743979126214981, -0.0034956710878759623, -0.0694395899772644, 0.06735216826200485, 0.0065984888933598995, -0.011456681415438652, -0.006640690378844738, 0.0014276565052568913, -0.005453766789287329, -0.05942520126700401, 0.026157110929489136, -0.04826263338327408, 0.023202288895845413, -0.2133251279592514, 0.0183176938444376, 0.0128127820789814, -0.0032459695357829332, -0.009261634200811386, -0.036486875265836716, -0.0008839995134621859, -0.007077062036842108, 0.0020506426226347685, 0.003077263245359063, -0.05221385881304741, 0.014596645720303059, 0.004118070006370544, -0.008759903721511364, 0.02873104251921177, 0.000730050029233098, -0.001916419598273933, 0.00948097463697195, -0.05333247035741806, -0.0032166128512471914, -0.06015981733798981, 0.02002234011888504], [0.013641227968037128, 0.04706777259707451, -0.005410003941506147, 0.05425615236163139, 0.022386258468031883, -0.1459282487630844, 0.023282669484615326, -0.0146422628313303, -0.029902849346399307, 0.005018372554332018, -0.0005211189854890108, 0.006350518669933081, 0.024714497849345207, -0.06047283858060837, -0.13496051728725433, 0.15666943788528442, -0.08211324363946915, 0.13221509754657745, -0.026762140914797783, 0.0599723756313324, 0.02460268884897232, 0.0005323260556906462, 0.0021895882673561573, 0.05527783930301666, 0.0002245835930807516, -0.0004486551624722779, -0.00010676379315555096, 0.003614276647567749, -0.07163936644792557, 0.004935863893479109, 0.022675171494483948, -0.05057511106133461, 0.10231764614582062, 0.007856668904423714, -0.003284333273768425, 0.014297106303274632, -0.09734726697206497, 0.007704069837927818, -0.08115743100643158, -0.06321004778146744], [0.016394343227148056, -0.0018046586774289608, 0.004707186948508024, -0.007950224913656712, -0.00044491025619208813, -0.02342144399881363, 0.01340106688439846, 0.010541285388171673, -0.019483203068375587, 0.00424202810972929, -0.023393992334604263, 0.004086130298674107, 0.009212077595293522, -0.010477538220584393, -0.03843633458018303, 0.055200666189193726, -0.048108115792274475, 0.047756075859069824, -2.01115217350889e-05, 0.017885515466332436, 0.05789265036582947, -0.0006381950806826353, -0.02029654197394848, -0.033564597368240356, -0.0027942219749093056, -0.00037623094976879656, -0.0016451285919174552, 0.0015083340695127845, -0.0524635836482048, -0.0019102132646366954, 0.01266646757721901, 0.006016219034790993, 0.021815171465277672, -0.002397247590124607, -0.0014188338536769152, 0.007574304938316345, -0.005134919658303261, 0.005457318853586912, 0.007256849203258753, -0.05251065269112587], [0.0008826818666420877, 0.0005771023570559919, -0.0003931639948859811, 0.0019219225505366921, -0.00027281884104013443, 0.0058547211810946465, 0.00013344765466172248, -0.0015191688435152173, -0.0005451278411783278, 0.0005659034941345453, -0.001707680057734251, -0.0012840338749811053, -0.0010874673025682569, 0.0029867130797356367, 0.00997086614370346, -0.020970717072486877, -0.0004102921229787171, -0.021095100790262222, -0.0030052545480430126, 0.003784163622185588, 0.0008429698646068573, 2.2110072677605785e-05, 0.0007729075732640922, 0.002768973121419549, -0.00011389840074116364, -0.0004905047826468945, 0.0005903285345993936, 0.0005017595831304789, 0.009636111557483673, -0.0013533448800444603, -0.0036449714098125696, -0.006395576521754265, -0.003141665132716298, 0.0010410855757072568, 7.485872629331425e-05, 0.0010577014181762934, -0.0037508804816752672, -0.001168372342363, 0.001780773513019085, 0.006808158475905657], [-0.004020199179649353, -0.004879883956164122, -0.0006821394199505448, -0.002592789474874735, 0.004355288110673428, 0.007979809306561947, 0.0023823976516723633, 0.0005913579952903092, -0.0009414698579348624, -0.0011908644810318947, -0.006538174580782652, 0.00160824169870466, -0.0009394459193572402, -0.0020778379403054714, -0.00330561981536448, -0.008670052513480186, 0.03142201527953148, -0.010274031199514866, -0.0010298207635059953, -0.005400263238698244, 0.0009135305299423635, 0.0002396961790509522, 0.019843118265271187, 0.036992963403463364, -4.515420368988998e-05, 0.0002038897800957784, -0.000873385404702276, -6.32482988294214e-05, 0.001426503760740161, -0.000197443034267053, 0.003055909415706992, 0.017174983397126198, -0.0018965087365359068, 0.0013094996102154255, -0.0005410454468801618, -0.002682902617380023, -0.0004266881151124835, -0.0007465860689990222, 0.002594420686364174, 0.013983075506985188], [0.1612200289964676, 0.873058557510376, 0.14772237837314606, 0.34305539727211, -0.07630708813667297, -0.034885238856077194, -0.05471734330058098, -0.3999917507171631, 0.7386569380760193, 0.11331431567668915, 0.6122754812240601, -0.08682990074157715, 0.05012884736061096, 0.1379294991493225, 0.20960935950279236, -0.15272466838359833, -1.3202271461486816, 0.17892159521579742, 0.3164617717266083, 0.014441967010498047, -0.5982415080070496, -0.037533994764089584, -0.13702328503131866, 0.3930482864379883, -0.0037075465079396963, -0.1303667575120926, 0.013493653386831284, 0.03813580423593521, -1.3251055479049683, 0.2176300436258316, -0.0991448238492012, -1.0143119096755981, -0.03333739936351776, -0.1505945473909378, 0.16345319151878357, 0.11150991171598434, 0.10794512927532196, -0.12096243351697922, -0.1484653800725937, -0.37404558062553406], [0.0010928924893960357, 0.0014227819629013538, -0.00010881211346713826, 0.0012502263998612761, 0.00012220657663419843, 0.0007660710834898055, 2.0544261133181863e-05, -0.0015453565865755081, 0.0026248435024172068, 0.0008259541355073452, 0.0010958892526105046, -0.0005673270206898451, 0.000612899661064148, 0.0008522864081896842, 0.003920525778084993, -0.0052360473200678825, -0.004511397797614336, -0.005416871048510075, 0.00028832792304456234, 0.002062207320705056, -0.0007662755087949336, -0.0002410385786788538, -0.00042262152419425547, 0.0034665425773710012, -0.0002335322933504358, -0.0007893573492765427, 0.00015927034837659448, 0.00012514798436313868, -0.0014180295402184129, -0.00034851187956519425, -0.0005528434994630516, -0.0055727832950651646, -0.0005297755124047399, -0.0003607515536714345, 0.0005030201864428818, 0.0007570137386210263, -0.0008493305649608374, 0.000694168615154922, -0.000363136496162042, 0.0007046410464681685], [0.0033285142853856087, -0.015706177800893784, 0.0009206533432006836, -0.01620730385184288, 0.00032810616539791226, -0.0035476915072649717, 0.0015846827300265431, 0.0237905140966177, -0.017575832083821297, -0.002879705047234893, -0.012894047424197197, 0.0013415331486612558, -0.002534789964556694, -0.0006778406095691025, -0.0028480608016252518, 0.0016006238292902708, 0.019241830334067345, -0.03517107665538788, -0.010796531103551388, 0.010101801715791225, 0.00648703845217824, -0.0008620650041848421, 0.0032980535179376602, 0.00554163521155715, -0.0015392933273687959, 0.004355716984719038, 0.0004997476353310049, 0.0006845745956525207, 0.050881385803222656, -0.0018735660705715418, -0.0022828869987279177, 0.012210461311042309, 0.00808128621429205, 0.0010925541864708066, -0.002514400752261281, 0.0009927395731210709, -0.011906186118721962, -0.005146643612533808, 0.0017183853778988123, 0.024601824581623077], [-0.0006442357553169131, 0.001103568240068853, 0.0003889345971401781, 0.00026087427977472544, -0.001662904629483819, 0.001841081539168954, -0.0015431302599608898, 0.0014324558433145285, 0.0009731263853609562, 0.0005730873090215027, 0.0023182984441518784, -0.0017377922777086496, -0.0014661645982414484, 0.0024040834978222847, 0.0020806600805372, -0.008641211315989494, -0.004922002553939819, -0.0062883528880774975, 0.00031281847623176873, -0.0008321854984387755, -0.0016436956357210875, -0.0004592609475366771, -0.00045811705058440566, -0.013444053940474987, 0.00036152786924503744, -0.000984189216978848, 0.0010667805327102542, 0.0003312826156616211, 0.0004239354166202247, -0.0004388646630104631, -0.004428272135555744, 0.0008686812361702323, -0.0007851265836507082, -0.0011889091692864895, 0.001242568250745535, 0.0007055179448798299, 0.0022351208608597517, -0.0008029960445128381, -5.609243999060709e-06, 0.005783515982329845], [0.0004674103984143585, -0.001995110884308815, -0.0006284807459451258, -0.00045630941167473793, -3.6499939142231597e-06, -0.0006157548050396144, 0.0005081555573269725, 0.0007633974310010672, -0.0014697769656777382, 0.0005385347758419812, 0.00012196336319902912, -0.00047292333329096437, -0.00010579790250631049, 0.0008590187062509358, 0.0018366742879152298, -0.005803870968520641, -0.0013722797157242894, -0.00348241301253438, -0.0002193814143538475, 0.0011504238937050104, 0.0004338107828516513, -8.880010136635974e-05, 0.0005151798250153661, -0.0011460250243544579, -3.065072087338194e-05, -0.0004400117904879153, 3.2899286452447996e-05, 2.4925027901190333e-05, -0.002775294240564108, -0.0005809739814139903, -0.0013144175754860044, 0.0008669295348227024, 0.0004086181870661676, -0.0005761845968663692, 0.00012976647121831775, 0.0004971869057044387, 0.0015898827696219087, 3.536346412147395e-05, 0.0006380723789334297, 0.0011784671805799007], [-0.043429333716630936, -0.2335083931684494, 0.0661676749587059, -0.1411525011062622, 0.014438007026910782, -0.4444339871406555, -0.018606560304760933, 0.23363743722438812, -0.3036437928676605, -0.024487966671586037, -0.08256012946367264, 0.045082442462444305, -0.06519252061843872, -0.10410697758197784, -0.6158721446990967, 1.1935198307037354, 0.11734072864055634, 1.4569698572158813, 0.03202636167407036, -0.14077886939048767, 0.062091827392578125, 0.017166487872600555, 0.02849690429866314, -0.4599134922027588, 0.01415464747697115, 0.02818864770233631, 0.0014916842337697744, -0.014201806858181953, -0.08541248738765717, 0.028625285252928734, 0.12200398743152618, 0.4437203109264374, 0.305519700050354, 0.020720448344945908, -0.03238825127482414, -0.01744772121310234, -0.0627564862370491, -0.06544326990842819, -0.028728578239679337, -0.479787141084671], [0.0014611571095883846, -0.04754233732819557, -0.009730827063322067, -0.023754751309752464, 0.0014814852038398385, 0.05003669857978821, 0.0033388477750122547, 0.02002628520131111, -0.0507458858191967, 2.988233245559968e-05, -0.01428902056068182, 0.003101686015725136, -0.002743063261732459, -0.006721431389451027, 0.018621161580085754, 0.001305580255575478, 0.08714087307453156, 0.010166323743760586, 0.005942887626588345, -0.018662096932530403, 0.00700074527412653, 0.00021699938224628568, 0.005042145028710365, -0.022920818999409676, -0.00042822540854103863, 0.00086678855586797, 4.835482104681432e-05, 0.0007038890034891665, -0.001007314887829125, -0.015365736559033394, 0.003306898521259427, 0.05819597467780113, -0.01741720177233219, 0.0007812770782038569, -0.0036634563002735376, 0.0001422012283001095, 0.03417612984776497, -0.00039550746441818774, 0.02833080105483532, 0.002898463746532798], [-0.014295265078544617, 0.015592304058372974, 0.0006568733369931579, 0.002766283927485347, -0.0020743929781019688, 0.01100592315196991, -0.014520566910505295, -0.0033145102206617594, 0.026694202795624733, -0.0020814219024032354, 0.009417354129254818, 7.01208264217712e-05, -0.004899298306554556, 0.004048873204737902, 0.0013578215148299932, -0.007305699400603771, 0.016803579404950142, 0.01842370815575123, 0.0036170948296785355, -0.01583661139011383, -0.0016137507045641541, 0.0013172056060284376, -0.004205803386867046, -0.018493350595235825, 0.0016309574712067842, 1.3510907592717558e-06, -0.0009576354641467333, -0.002001485787332058, 0.048511404544115067, 0.0036331554874777794, -0.0043683890253305435, 0.0018033810192719102, -0.011711792089045048, 0.0012199606280773878, 0.0007211941410787404, -0.007049313746392727, 0.006353631615638733, 0.0009429214405827224, -0.005364112090319395, 0.008336268365383148], [-0.019137617200613022, 0.31511273980140686, 0.018155189231038094, 0.17894978821277618, 0.05594456568360329, -0.17768633365631104, -0.0036899535916745663, -0.20772525668144226, 0.08076577633619308, -0.014388917945325375, 0.04540116712450981, 0.0644369050860405, 0.0651894211769104, -0.1025986596941948, -0.2125457376241684, 0.3187373876571655, -0.1814182996749878, 0.25873950123786926, -0.054883453994989395, 0.0015346446307376027, 0.008457056246697903, 0.00452277809381485, -0.13016362488269806, 0.3084836006164551, -0.028518186882138252, 0.0027571609243750572, -0.009506258182227612, 0.0043934606947004795, -0.4590092897415161, 0.21493245661258698, 0.07829276472330093, -0.043184373527765274, 0.0880313292145729, 0.03698277100920677, -0.038959015160799026, -0.02599777653813362, -0.06394189596176147, 0.04441982880234718, -0.1764606386423111, -0.26508885622024536], [-0.011023802682757378, 0.11430581659078598, -0.014029646292328835, 0.06740869581699371, 0.02682369202375412, -0.10490106046199799, -0.029514461755752563, -0.08072818070650101, 0.033553797751665115, -0.0060068764723837376, -0.018858563154935837, 0.01699967496097088, 0.01617729850113392, -0.05374758690595627, -0.12417003512382507, 0.24493408203125, -0.06428184360265732, 0.2407267987728119, -0.011693092063069344, 0.06053219735622406, 0.03690654784440994, -0.00023533747298642993, -0.029024340212345123, -0.058612216264009476, -0.0015501148300245404, 0.00637307483702898, -0.003573860041797161, -0.002741775708273053, 0.13916614651679993, 0.025603026151657104, 0.02989385835826397, -0.09445182234048843, 0.13619184494018555, 0.014528891071677208, -0.008223611861467361, -0.008060585707426071, -0.08766570687294006, -0.00621060049161315, -0.09261172264814377, -0.06061159819364548], [0.0021967804059386253, -0.008250235579907894, 0.0009246456902474165, -0.00254291039891541, 0.0006697162170894444, -0.00394436763599515, 0.001035090652294457, 0.006845185998827219, -0.020560309290885925, 0.0011635659029707313, -0.002505161799490452, 0.0001291832741117105, -9.767436131369323e-05, -0.0009807907044887543, -0.0031514293514192104, 0.011466417461633682, 0.0033824064303189516, 0.009378368966281414, -0.0026758841704577208, 0.0033489991910755634, 0.0017341942293569446, -0.00018669063865672797, 0.0022804413456469774, -0.0028122093062847853, -0.00010356846905779094, -0.0011496645165607333, 0.0004633492499124259, 0.0001955218758666888, -0.013155200518667698, -0.0020074532367289066, 0.0016915872693061829, 0.006364516913890839, 0.004420061595737934, -0.0009895762195810676, 0.0003692038299050182, 0.0019474487053230405, -0.004771634470671415, -0.0016529262065887451, 0.0013975606998428702, -0.003451680066064], [-0.0002573374949861318, 0.009089987725019455, 0.09482765942811966, 0.006479077041149139, 0.00028229429153725505, 0.003932411316782236, -0.0015430550556629896, -0.010091228410601616, 0.001587296137586236, 0.001138826017268002, 0.003188780276104808, -0.0016853503184393048, -0.0017065148567780852, 0.0008146102190949023, 0.00663746939972043, -0.015157553367316723, -0.11094171553850174, 0.004572974052280188, -8.605476614320651e-05, -0.0030132289975881577, 0.0004570625605992973, 0.0001292320084758103, -0.0029084403067827225, -0.007008499000221491, 0.0011786108370870352, -0.0013965419493615627, -0.0002498725079931319, 0.00014629244105890393, -0.03531468287110329, -7.801709580235183e-05, 0.0006527340156026185, -0.010547745041549206, -0.00452412711456418, -0.0006814597290940583, 0.002410606946796179, 0.0013004845241084695, 0.0034548444673419, -0.0001872856228146702, 0.00012101682659704238, -0.005199052393436432], [0.012241366319358349, -0.025604531168937683, -0.00384902092628181, -0.010021518915891647, -0.0008226930513046682, -0.007990071550011635, 0.01078060269355774, 0.010526583530008793, -0.02770399861037731, 0.0036527623888105154, -0.007508420385420322, -0.0048046107403934, 0.0014077884843572974, 4.2930547351716086e-05, -0.005639505106955767, -0.013210450299084187, -0.006510967388749123, -0.002011524746194482, -0.005245311185717583, 0.013436288572847843, 0.010651365853846073, -0.0016056845197454095, 0.005709877237677574, -0.010241557843983173, -0.0018200003542006016, -0.0014235660200938582, 0.0024486929178237915, 0.0028679724782705307, -0.0367443710565567, -0.006604569498449564, -0.007428149227052927, 0.04107469692826271, 0.011241746135056019, -0.003549301763996482, -0.0004528026911430061, 0.007027024403214455, 0.0028044735081493855, 0.0002614856930449605, 0.010318811051547527, 0.014707883819937706], [-9.041382145369425e-05, 0.08057215809822083, -0.01325068436563015, 0.10709351301193237, 0.016765350475907326, -0.05690554901957512, -0.024833552539348602, -0.04191272333264351, 0.08519956469535828, 0.005737068131566048, 0.000653006078209728, -0.022360797971487045, 0.0013776234118267894, 0.014217855408787727, 0.018350396305322647, -0.11981664597988129, 0.039700865745544434, -0.16139090061187744, -0.033196449279785156, 0.04512312635779381, -0.002211084356531501, -0.01392873004078865, -0.0011055337963625789, -0.013706756755709648, 0.0010663234861567616, -0.009913858957588673, 0.005987829063087702, 0.002543303882703185, 0.09692545235157013, 0.002960508456453681, -0.02997978962957859, -0.08108390867710114, -0.004265249706804752, 0.03272704780101776, -0.00014943534915801138, 0.007558941375464201, -0.1769193857908249, -0.0067354487255215645, -0.11790914833545685, 0.027077361941337585], [0.010513853281736374, -0.05349504575133324, 0.019162900745868683, -0.019836988300085068, -0.005324544385075569, -0.038452718406915665, 0.020818036049604416, 0.016972310841083527, -0.06706096976995468, 0.0006099815363995731, -0.007837322540581226, 0.003400465240702033, -0.00984718557447195, 0.0054887039586901665, -0.06411053240299225, 0.04826834052801132, -0.012269796803593636, 0.042131245136260986, 0.01781102828681469, 0.023064330220222473, 0.006922822445631027, -0.0004325458430685103, 0.002910929499194026, 0.03765803575515747, -0.002578345127403736, 0.0036028847098350525, 6.511278479592875e-05, 0.0029157912358641624, -0.12173989415168762, 0.021358689293265343, 0.016573168337345123, 0.06391829997301102, 0.02189766801893711, -0.0010690640192478895, -0.0022668924648314714, 0.004561505280435085, 0.03292784094810486, -0.07914721220731735, 0.02493445761501789, -0.03836195915937424], [-0.02337712049484253, 0.03628384694457054, -0.00656800577417016, 0.03480232134461403, 0.022498253732919693, -0.11202488094568253, -0.0070805917493999004, -0.0528733916580677, 0.06178727000951767, -0.007483843248337507, -0.030688853934407234, 0.00765527319163084, 0.0018403258873149753, -0.03268495947122574, -0.14355161786079407, 0.04496763274073601, 0.036930590867996216, 0.04616011306643486, -0.0119449058547616, -0.0024530221708118916, 0.009993462823331356, 0.004966363776475191, -0.013667966239154339, -0.06569147855043411, 0.005987027194350958, 0.002208071295171976, -0.0025681217666715384, -0.0016331046354025602, 0.02894113026559353, 0.03099619783461094, 0.015386614948511124, -0.008978860452771187, 0.07107819616794586, 0.010760804638266563, -0.0009354539215564728, -0.01671588607132435, -0.07890930771827698, 0.0005979262641631067, -0.06357967108488083, -0.025234252214431763], [-0.05136728286743164, -0.04515289142727852, -0.019353965297341347, -0.07710856944322586, 0.004458528012037277, -0.09801990538835526, -0.04132271930575371, 0.09231094270944595, -0.021161526441574097, -0.006227501668035984, -0.044625069946050644, 0.037773601710796356, 0.015925249084830284, -0.07930412888526917, -0.3020193874835968, 0.4949648678302765, 0.25322383642196655, 0.5725578665733337, 0.06599165499210358, -0.09870695322751999, -0.009291348047554493, 0.009284294210374355, 0.019352545961737633, -0.41892313957214355, 0.0068143815733492374, 0.00817413255572319, -0.019694644957780838, -0.019408049061894417, 0.011874034069478512, 0.05115070194005966, 0.07879521697759628, 0.21732155978679657, 0.0570564828813076, -0.004872781690210104, -0.042619023472070694, -0.03992177173495293, 0.08176589012145996, 0.046053946018218994, -0.06321858614683151, 0.16295835375785828], [-0.006297024432569742, -0.3646925389766693, -0.13461725413799286, -0.12432689964771271, -0.10290222615003586, 0.2423691600561142, 0.17028506100177765, 0.21708908677101135, -0.40295466780662537, -0.01791570335626602, -0.09085508435964584, -0.05978313460946083, -0.03315583989024162, 0.11441224813461304, 0.22980481386184692, -0.23942971229553223, 0.3015049397945404, -0.2503633201122284, 0.11912305653095245, -0.048586517572402954, -0.006363966967910528, 0.06641045957803726, 0.19859251379966736, -0.2599138021469116, 0.07074125856161118, 0.047699738293886185, -0.008636653423309326, -0.010313169099390507, 0.0010132741881534457, -0.08660823106765747, -0.022808058187365532, 0.23370294272899628, -0.1728665828704834, -0.0562305711209774, 0.01932012476027012, 0.01577729545533657, 0.2396966964006424, -0.012651643715798855, 0.3777105510234833, 0.21055947244167328], [-0.22093628346920013, -0.04124730825424194, 0.23064196109771729, -0.2228253036737442, -0.14852674305438995, 0.3121015131473541, -0.007044864818453789, 0.19729028642177582, -0.04683519899845123, -0.14249402284622192, -0.26592886447906494, -0.1697598397731781, -0.37263134121894836, 0.2979784309864044, 0.12063254415988922, -0.0028179925866425037, 0.12220738083124161, -0.22918517887592316, 0.12912318110466003, -0.3649502098560333, -0.41407084465026855, 0.09851168841123581, 0.4048530161380768, -0.3821732699871063, 0.18151099979877472, 0.08091510087251663, -0.011473270133137703, -0.05984797328710556, 0.6438829898834229, -0.2466202974319458, -0.14811637997627258, 0.12130771577358246, -0.2616901397705078, -0.08269505947828293, 0.04788127541542053, -0.13885343074798584, 0.1392931044101715, -0.4045608341693878, 0.20937000215053558, 0.30742165446281433], [-0.1359989047050476, -0.5357219576835632, -0.2849140763282776, -0.3394692838191986, 0.14812901616096497, 0.2542056143283844, -0.06251576542854309, 0.3610551357269287, -0.5347594618797302, -0.17996476590633392, -0.1810486912727356, 0.0686710923910141, 0.06776818633079529, -0.1657363921403885, 0.17776839435100555, -0.17141294479370117, 0.5486238598823547, -0.12084048241376877, 0.23330672085285187, -0.2035854309797287, -0.19885821640491486, 0.1191827803850174, 0.23813240230083466, -0.1619720160961151, 0.05103154107928276, 0.08326222747564316, -0.08326196670532227, -0.020899485796689987, 0.4608912467956543, -0.023060906678438187, 0.08316970616579056, 0.37918397784233093, -0.22561843693256378, 0.08446378260850906, -0.10651393234729767, -0.1485656350851059, 0.3059212267398834, -0.0036135625559836626, 0.39102596044540405, 0.007262375671416521], [-0.1748945266008377, -0.07611015439033508, 0.2101060152053833, -0.2005762755870819, -0.22708721458911896, 0.2248670756816864, 0.13778425753116608, 0.05092276260256767, -0.27690428495407104, -0.06863204389810562, -0.24869734048843384, -0.09155436605215073, -0.24442584812641144, 0.11407037824392319, 0.16171449422836304, -0.24902521073818207, 0.1957046240568161, -0.3238477110862732, 0.3455135226249695, -0.3805978298187256, -0.4434911906719208, 0.10057249665260315, 0.21184369921684265, -0.3581233322620392, 0.13824301958084106, 0.06271505355834961, 0.004104036837816238, -0.05719611793756485, 0.20719581842422485, -0.23209647834300995, -0.06870485097169876, 0.06183505058288574, -0.24915622174739838, -0.11168123781681061, 0.05835467576980591, -0.11304508149623871, 0.3454042375087738, -0.21389861404895782, 0.19965244829654694, 0.260823130607605], [0.02070309780538082, 0.1409960240125656, 0.11207655817270279, 0.19826184213161469, -0.05051703006029129, -0.2302376627922058, -0.0350949801504612, -0.2666704058647156, 0.25698593258857727, 0.006269487086683512, 0.04943045601248741, -0.00510528776794672, 0.011601909063756466, -0.021018529310822487, -0.19043602049350739, 0.20587515830993652, -0.2596648335456848, 0.11661914736032486, -0.03620808199048042, 0.1416008472442627, -0.01866305060684681, -0.019808880984783173, -0.13736900687217712, 0.11744185537099838, -0.02769600972533226, -0.003505408065393567, 0.00113878573756665, 0.0028954159934073687, -0.05943252891302109, 0.10275108367204666, -0.029003527015447617, -0.29102861881256104, 0.22202397882938385, 0.011114218272268772, 0.02970794588327408, -0.00116565334610641, -0.10525314509868622, 0.1012408584356308, -0.20686554908752441, -0.09769123792648315], [0.09801218658685684, 0.21456454694271088, -0.18516023457050323, 0.1661924570798874, 0.18520885705947876, -0.08477865159511566, -0.04101340472698212, -0.2925685942173004, 0.3212911784648895, 0.026599213480949402, 0.10596082359552383, 0.12308333814144135, 0.30428701639175415, -0.0776415541768074, -0.2643914222717285, -0.04547291249036789, -0.22370202839374542, -0.10406947135925293, -0.09910306334495544, 0.17615680396556854, 0.12086470425128937, -0.020582400262355804, -0.09144165366888046, 0.032890234142541885, -0.15857422351837158, 0.008414095267653465, -0.02984022907912731, 0.012712494470179081, -0.04805389791727066, 0.3040301501750946, 0.19399628043174744, -0.22656381130218506, 0.09339509904384613, 0.1657363474369049, -0.07029052823781967, 0.03530902415513992, -0.2889792323112488, 0.08315183222293854, -0.20874828100204468, -0.09020853787660599], [0.061476930975914, -0.15733730792999268, -0.01083434745669365, -0.16564734280109406, 0.06845524907112122, 0.05163804441690445, 0.005284191109240055, 0.16463418304920197, -0.19192847609519958, 0.013866015709936619, 0.0026997565291821957, 0.07840441167354584, 0.019945446401834488, -0.027323201298713684, 0.1733158975839615, -0.16625092923641205, 0.05805445834994316, -0.16581211984157562, 0.079050712287426, -0.11983507871627808, 0.005155371967703104, -0.00911121815443039, -0.05665655434131622, 0.15973307192325592, -0.01604820415377617, -0.011852573603391647, 0.016248339787125587, 0.018016336485743523, -0.29042214155197144, 0.0006174221634864807, -0.009573129005730152, 0.2312912940979004, -0.12792569398880005, -0.028141364455223083, -0.005378390662372112, 0.03755985200405121, 0.12057430297136307, 0.1370828002691269, 0.15576918423175812, -0.03948596864938736], [0.15397559106349945, -0.0425611212849617, -0.14928892254829407, 0.06515392661094666, 0.24777504801750183, -0.14498646557331085, -0.16910453140735626, -0.0555272251367569, 0.198439821600914, 0.044620513916015625, 0.222846120595932, 0.08180122822523117, 0.14909447729587555, -0.18779437243938446, -0.1592489629983902, 0.28556931018829346, -0.30048078298568726, 0.3160226047039032, -0.22700071334838867, 0.19673265516757965, 0.3656327724456787, -0.07374554127454758, -0.409265398979187, 0.19899043440818787, -0.17349274456501007, -0.02700885199010372, -0.07464726269245148, 0.038764093071222305, -0.13735990226268768, 0.13469167053699493, 0.11340246349573135, -0.047938890755176544, 0.13969214260578156, 0.24247364699840546, -0.0029071441385895014, 0.08595864474773407, -0.32011678814888, 0.24712154269218445, -0.08876094967126846, -0.29471051692962646], [-0.2376316785812378, 0.09968673437833786, 0.21654169261455536, -0.1001901775598526, -0.08761937916278839, 0.3223932385444641, -0.1258680373430252, 0.061606649309396744, -0.011037290096282959, -0.08650524914264679, 0.09691784530878067, 0.022953730076551437, -0.23465725779533386, 0.09037630259990692, 0.16013498604297638, -0.04165935143828392, 0.06281352043151855, -0.0521068274974823, 0.21714644134044647, -0.36038434505462646, -0.3823122978210449, 0.10676180571317673, 0.22454990446567535, -0.4609040319919586, 0.07231802493333817, 0.03622119501233101, -0.08209057152271271, -0.06700057536363602, 0.8938382863998413, -0.07966887950897217, -0.09824704378843307, -0.041688960045576096, -0.17867645621299744, -0.11580116301774979, 0.09761049598455429, -0.15235310792922974, 0.24976524710655212, -0.3698362112045288, 0.14407099783420563, 0.3232254981994629], [-0.010223944671452045, -0.21601556241512299, -0.018764233216643333, -0.21484972536563873, -0.03616368770599365, 0.27004513144493103, 0.03166961669921875, 0.12341076880693436, -0.20951293408870697, -0.028506411239504814, -0.02531558834016323, -0.007923896424472332, -0.002062353305518627, 0.12155157327651978, 0.20487047731876373, -0.18001821637153625, 0.05490979924798012, -0.16752929985523224, 0.09776601940393448, -0.13065186142921448, -0.06202228367328644, 0.017022885382175446, 0.14027348160743713, -0.14916808903217316, 0.015335251577198505, 0.018883032724261284, 0.0021322648972272873, -0.01221536286175251, -0.014444769360125065, -0.044617265462875366, -0.14552195370197296, 0.1290884017944336, -0.1733807623386383, -0.034700267016887665, 0.011686590500175953, -0.016504526138305664, 0.13897989690303802, 0.12493032217025757, 0.20162774622440338, 0.1021956279873848], [0.009035716764628887, 0.4580407440662384, 0.07368183135986328, 0.1924438625574112, -0.022359421476721764, -0.048989251255989075, -0.015933260321617126, -0.2924440801143646, 0.37808719277381897, 0.019566526636481285, -0.1432177573442459, -0.04651271551847458, -0.03163188695907593, 0.005658267065882683, -0.16619287431240082, -0.032400306314229965, -0.27620112895965576, 0.08206628262996674, -0.016505099833011627, 0.14981605112552643, 0.005962148774415255, -0.005139811895787716, -0.0063129146583378315, 0.4786953330039978, -0.017705468460917473, -0.03268616646528244, 0.03754108399152756, 0.006086365785449743, -0.07356636226177216, -0.07653725892305374, -0.02983749657869339, -0.4200521409511566, 0.011546242982149124, -0.01581934653222561, -0.08638862520456314, 0.0026071942411363125, -0.15466885268688202, -0.08698435127735138, -0.1377568244934082, -0.034973327070474625], [-0.0040947324596345425, 0.14314375817775726, 0.02558293379843235, 0.14084544777870178, -0.08104553818702698, -0.29273706674575806, -0.009377406910061836, -0.16481029987335205, 0.19648192822933197, -0.0022539652418345213, 0.05135559290647507, -0.048153962939977646, -0.022672144696116447, 4.400179022923112e-05, -0.3149205148220062, 0.21835660934448242, -0.1563989818096161, 0.12729226052761078, -0.10109595209360123, 0.23928943276405334, -0.1169217973947525, -0.00800999067723751, 0.016467712819576263, 0.15870550274848938, -0.0071811978705227375, -0.0020292410627007484, 0.003207684960216284, 0.0018784183776006103, -0.046011265367269516, 0.10977993905544281, 0.02846786379814148, -0.1965203732252121, 0.23684222996234894, 0.028474094346165657, 0.013946613296866417, -0.012299615889787674, -0.18346267938613892, -0.03958258405327797, -0.11659236252307892, -0.08232446759939194], [0.12680551409721375, 0.24757187068462372, 0.10313728451728821, 0.2499903440475464, -0.06851287931203842, -0.15105761587619781, 0.05785786360502243, -0.21506761014461517, 0.2071976363658905, 0.07366389781236649, -0.038935620337724686, -0.03960706293582916, 0.16279086470603943, 0.08859121799468994, -0.15685465931892395, -0.021990517154335976, -0.3307006061077118, -0.17430707812309265, -0.045854516327381134, 0.21378913521766663, -0.0770682841539383, -0.033398374915122986, -0.08398784697055817, 0.23873871564865112, -0.038929540663957596, -0.02061503566801548, 0.009351207874715328, 0.017075128853321075, -0.017965806648135185, 0.05012092739343643, -0.05289963260293007, -0.17939676344394684, 0.14697912335395813, -0.031211625784635544, 0.004718495067209005, 0.07190093398094177, -0.1780061274766922, 0.17740020155906677, -0.18767297267913818, -0.14213721454143524], [0.01738091930747032, -0.2548716068267822, 0.029814355075359344, -0.08898525685071945, 0.04902595654129982, 0.21812310814857483, 0.025328533723950386, 0.09438157081604004, -0.2863819897174835, -0.003238833276554942, -0.03484247252345085, 0.04480958729982376, 0.00930446945130825, -0.0668000653386116, 0.24919287860393524, -0.22178319096565247, 0.0895615741610527, -0.4291580319404602, 0.01707649603486061, -0.08148082345724106, 0.059457194060087204, 0.006914007477462292, -0.1967453956604004, -0.2024206519126892, 0.011771741323173046, 0.011573749594390392, 0.0001885018136817962, -0.0020591283682733774, 0.15527112782001495, 0.05468558520078659, -0.03504316881299019, 0.06908433884382248, -0.18047499656677246, -0.018292292952537537, -0.008962254039943218, 0.00922977551817894, 0.22183814644813538, 0.11948172748088837, 0.0778784230351448, 0.015625908970832825], [0.04902438074350357, 0.23396100103855133, 0.128352552652359, 0.20918630063533783, 0.26512670516967773, -0.03064383566379547, -0.16798022389411926, -0.12602460384368896, 0.3547208309173584, 0.03203738108277321, 0.1827806532382965, 0.1759355664253235, 0.2656227946281433, -0.12583830952644348, -0.18167273700237274, -0.017491575330495834, -0.39262664318084717, -0.12978264689445496, -0.052624039351940155, 0.25040775537490845, -0.1184287890791893, -0.030163107439875603, -0.24278579652309418, 0.153006911277771, -0.09169381111860275, -0.005834029987454414, -0.040479496121406555, 0.0036351766902953386, 0.014576716348528862, 0.3379018306732178, 0.22689548134803772, -0.42146074771881104, 0.198983296751976, 0.1458064764738083, 0.004474929068237543, -0.0007259260164573789, -0.2933247983455658, 0.2317674607038498, -0.0929880440235138, -0.040658075362443924], [-0.11975482106208801, -0.17571581900119781, -0.08611800521612167, -0.5003300905227661, -0.09648456424474716, 0.022718915715813637, 0.04223840311169624, 0.38021573424339294, -0.26155799627304077, -0.08406420052051544, -0.28602275252342224, -0.08936057984828949, -0.12676136195659637, 0.15006890892982483, 0.05948922783136368, 0.22033140063285828, 0.3187313377857208, 0.30079564452171326, 0.06988988071680069, -0.17430827021598816, -0.17362533509731293, 0.08088050037622452, 0.2736854553222656, -0.40483999252319336, 0.06531708687543869, 0.08416925370693207, -0.014388804323971272, -0.059408534318208694, 0.4965346157550812, -0.17411863803863525, -0.06457004696130753, 0.2504705786705017, -0.0630759745836258, -0.18572098016738892, -0.11416180431842804, -0.06112205237150192, 0.1519966721534729, -0.2901861369609833, 0.3512488007545471, 0.2652686834335327], [0.003303166711702943, -0.027020780369639397, -0.5508286952972412, 0.1457667499780655, 0.11888482421636581, -0.20711839199066162, 0.03335418924689293, 0.03837614879012108, 0.03591421991586685, -0.026670198887586594, -0.1452742964029312, 0.013099328614771366, 0.07105283439159393, -0.32689446210861206, -0.5437523722648621, 0.41274407505989075, 0.4862372577190399, 0.7164685130119324, -0.236368328332901, -0.005498326849192381, 0.5545122027397156, -0.02935934066772461, 0.06953656673431396, -0.20846311748027802, 0.04288339987397194, 0.01251047383993864, -0.031541258096694946, 0.0006980616017244756, 0.10003472119569778, -0.09569747745990753, 0.4487747251987457, 0.21064507961273193, 0.19176998734474182, 0.12948185205459595, -0.36524060368537903, 0.008265963755548, -0.27124229073524475, -0.0012296608183532953, -0.06530109792947769, -0.03869042173027992], [-0.16004660725593567, -0.14155776798725128, -0.01827002502977848, -0.4375121593475342, -0.2810724675655365, 0.1594812124967575, 0.09905552864074707, 0.37029504776000977, -0.14799141883850098, -0.08477353304624557, -0.22609011828899384, -0.05054647848010063, -0.4031612277030945, 0.145758256316185, 0.09453918784856796, 0.10843036323785782, 0.38135239481925964, 0.25406765937805176, 0.28968027234077454, -0.33291003108024597, -0.15299955010414124, 0.0866672694683075, 0.22147724032402039, -0.5482771396636963, 0.12680035829544067, 0.018391480669379234, 0.04491305723786354, -0.028000641614198685, 0.027686329558491707, -0.19737699627876282, -0.08610481023788452, 0.13370166718959808, -0.13661375641822815, -0.06424477696418762, -0.007830016314983368, -0.04384763538837433, 0.16902261972427368, -0.22155389189720154, 0.3203541040420532, 0.24465204775333405], [0.07429409772157669, 0.5089532136917114, 0.20107880234718323, 0.36074474453926086, 0.10388309508562088, -0.21730495989322662, -0.296410471200943, -0.49393266439437866, 0.28378891944885254, 0.05437122657895088, 0.3259020745754242, 0.11007429659366608, 0.07708942145109177, -0.11167637258768082, -0.2117806226015091, 0.19494342803955078, -0.5027589201927185, 0.09080739319324493, -0.05483502522110939, 0.2716345191001892, -0.08650996536016464, -0.04517575725913048, -0.4301969110965729, 0.3909396231174469, -0.16474679112434387, -0.011754581704735756, -0.03354500234127045, 0.0036892294883728027, -0.3737401068210602, 0.3615536093711853, 0.007359595969319344, -0.4729408323764801, 0.2611766755580902, 0.036083392798900604, 0.0691385269165039, 0.005750158801674843, -0.11133326590061188, -0.17744193971157074, -0.25835683941841125, -0.5109445452690125], [-0.018637068569660187, -0.19071292877197266, -0.05138995125889778, -0.11349871754646301, -0.22013047337532043, 0.2271263748407364, 0.25892171263694763, 0.16505418717861176, -0.3515668511390686, -0.008873350918293, -0.26713067293167114, -0.11618389934301376, -0.09590937942266464, 0.24241679906845093, 0.25052186846733093, -0.2864621877670288, 0.12918587028980255, -0.20515255630016327, 0.10994692891836166, -0.24651850759983063, -0.07486189901828766, 0.03219110518693924, 0.20232173800468445, -0.05404254049062729, 0.20617762207984924, 0.039752524346113205, 0.03682585433125496, 0.02889842353761196, 0.346215158700943, -0.35870087146759033, -0.1428103893995285, 0.1341962367296219, -0.14311927556991577, -0.274868369102478, 0.00328862969763577, 0.02830902487039566, 0.08128765225410461, -0.02109203115105629, 0.32884475588798523, 0.2516140043735504], [0.18076831102371216, 0.17994676530361176, 0.8372283577919006, 0.3439467251300812, -0.08399781584739685, -0.1135115772485733, 0.03991645202040672, -0.17909960448741913, 0.31878042221069336, 0.3228396475315094, -0.23012924194335938, -0.07351726293563843, -0.08049735426902771, 0.0474090501666069, -0.29558366537094116, 0.2678769528865814, -0.07332774251699448, 0.19574479758739471, -0.2901553511619568, 0.2379758059978485, -0.46087098121643066, -0.09158618003129959, -0.01417249720543623, 0.11387775838375092, -0.06027001887559891, -0.05211523175239563, 0.15378446877002716, 0.014506654813885689, -0.5729192495346069, -0.323853999376297, -0.016378309577703476, -0.05098957568407059, 0.24239741265773773, -0.05054958909749985, 0.11701033264398575, 0.1462218016386032, -0.3536979556083679, -0.25424638390541077, -0.5034598112106323, -0.050165195018053055], [0.023069322109222412, 0.18272553384304047, -0.014661358669400215, 0.12536625564098358, 0.014996107667684555, -0.1973307728767395, -0.041721444576978683, -0.11141566187143326, 0.22113165259361267, 0.022376511245965958, 0.03157009556889534, 0.002851540921255946, 0.010277533903717995, -0.02503681182861328, -0.15895439684391022, 0.06759444624185562, -0.16709567606449127, 0.13691116869449615, -0.062042124569416046, 0.07293707132339478, 0.018213652074337006, -0.052480604499578476, -0.07695480436086655, 0.054726969450712204, -0.020010266453027725, -0.029206400737166405, 0.01565323956310749, 0.0070851584896445274, -0.15094031393527985, 0.023632124066352844, 0.0053721265867352486, -0.1609460860490799, 0.12465047836303711, 0.039822809398174286, -0.003222332103177905, 0.019536085426807404, -0.16232255101203918, 0.03320246934890747, -0.14967170357704163, -0.10318770259618759], [0.011307863518595695, -0.21631327271461487, -0.043821532279253006, -0.23198345303535461, 0.027663134038448334, 0.07464678585529327, 0.00901908427476883, 0.3231145143508911, -0.27330419421195984, 0.006825627759099007, 0.002708080457523465, -0.01844657212495804, 0.02143396995961666, 0.02217152528464794, 0.07232026755809784, -0.17907491326332092, 0.20484603941440582, 0.0066616530530154705, 0.045111075043678284, -0.036274254322052, 0.05922061204910278, -0.0027020734269171953, -0.04967673495411873, -0.10890933871269226, -0.0019476973684504628, -0.0069501143880188465, 0.0022951713763177395, -0.0036222951021045446, -0.10394825786352158, -0.07799404114484787, 0.033665385097265244, 0.1068415641784668, -0.08693312853574753, -0.037974871695041656, -0.0030476360116153955, 0.011814512312412262, 0.10827377438545227, 0.06772279739379883, 0.17819838225841522, -0.09620166569948196], [-0.056109920144081116, -0.26786282658576965, 0.06876359134912491, -0.295157253742218, -0.1472100019454956, 0.32916057109832764, 0.265510618686676, 0.19353340566158295, -0.20007365942001343, -0.04114323481917381, 0.22991110384464264, -0.16343456506729126, -0.13012222945690155, 0.25676828622817993, 0.3043650984764099, -0.3176904022693634, 0.09541349858045578, -0.5101786851882935, 0.16723154485225677, -0.20871490240097046, -0.39681145548820496, 0.05211832374334335, 0.3014197051525116, 0.6551459431648254, 0.08093525469303131, 0.08672022074460983, 0.10011659562587738, -0.015716318041086197, 0.4317868649959564, -0.1949581354856491, -0.3162177801132202, 0.12199617177248001, -0.410556435585022, -0.12699733674526215, 0.07527907937765121, 0.01887226291000843, 0.20900268852710724, -0.12989895045757294, 0.3267904818058014, 0.49248170852661133], [0.012506923638284206, 0.0721254050731659, 0.003613195149227977, 0.025607038289308548, 0.01389615423977375, -0.015798194333910942, -0.02721751481294632, -0.014259382151067257, 0.10628969222307205, 0.009160938672721386, 0.03232213854789734, -0.00793772004544735, -0.00024979005684144795, 0.007738676853477955, -0.006762505043298006, 0.03962394967675209, -0.029987024143338203, 0.08672580868005753, -0.01194749865680933, -0.0019459337927401066, -0.003622381715103984, -0.011878393590450287, -0.009662536904215813, -0.032757215201854706, -0.053690750151872635, -0.01250748336315155, 0.008741272613406181, 0.000986018218100071, -0.09097293019294739, 0.00532252574339509, 0.0004839611938223243, -0.0836639478802681, 0.01219527143985033, -0.004120682366192341, 0.003694242099300027, 0.011186636053025723, -0.06999889761209488, -0.0017250134842470288, -0.050588786602020264, -0.05657905712723732], [0.03324596956372261, 0.15584729611873627, -0.04667787626385689, 0.05305759236216545, 0.07298894971609116, -0.15827779471874237, -0.01053588092327118, -0.15191128849983215, 0.18314708769321442, 0.029706109315156937, 0.05345423147082329, 0.011305725201964378, 0.06512723118066788, -0.178138867020607, -0.28735989332199097, 0.17982733249664307, -0.17139774560928345, 0.21707911789417267, -0.1499262899160385, 0.21698792278766632, 0.0744931623339653, -0.030132604762911797, -0.06405625492334366, 0.2037993222475052, -0.006621544249355793, -0.04497426003217697, 0.01371109951287508, 0.015627672895789146, -0.08464174717664719, 0.11363745480775833, 0.09924054145812988, -0.18296411633491516, 0.2319643795490265, 0.026711413636803627, 0.01513303816318512, 0.02433985285460949, -0.2466455101966858, 0.07673004269599915, -0.17768742144107819, -0.09785884618759155], [-0.015199482440948486, -0.23854736983776093, -0.10876233130693436, -0.19349636137485504, 0.038973528891801834, 0.11866489052772522, 0.03831850364804268, 0.19408266246318817, -0.3486567735671997, -0.04440329596400261, 0.0050877770408988, 0.028455927968025208, 0.0001875225716503337, 0.0118314940482378, 0.2940566837787628, -0.1031222715973854, 0.26345914602279663, -0.10363058745861053, 0.09343860298395157, -0.20281758904457092, 0.010489320382475853, 0.024611160159111023, 0.03955359756946564, -0.056366898119449615, 0.0342489629983902, 0.026748143136501312, -0.04061096906661987, -0.0004063818196300417, 0.07728845626115799, -0.07551023364067078, -0.004908412229269743, 0.19600550830364227, -0.16702207922935486, -0.020892823114991188, -0.0392799973487854, -0.004054082091897726, 0.1296267956495285, -0.04761483520269394, 0.29183250665664673, 0.12350805848836899], [-0.010617177002131939, -0.2060348391532898, -0.02267914079129696, -0.12520746886730194, -0.004203555174171925, 0.08823594450950623, 0.051589131355285645, 0.11904790252447128, -0.2085139900445938, -0.0170318353921175, -0.032402243465185165, -0.03957171365618706, -0.000723176053725183, 0.023004913702607155, 0.1384430080652237, -0.1585068255662918, 0.17740845680236816, -0.1046331524848938, 0.012732119299471378, -0.07938406616449356, 0.021583758294582367, 0.010853508487343788, 0.1352156102657318, -0.011997124180197716, 0.006144409999251366, 0.020031776279211044, -0.007814259268343449, -0.02933657541871071, 0.03696342557668686, -0.15430176258087158, 0.03258955106139183, 0.16039760410785675, -0.04393754526972771, -0.004664350766688585, -0.01726299524307251, -0.007997089996933937, 0.09975738078355789, -0.0002550625940784812, 0.12462388724088669, 0.0037706114817410707], [-0.1466212421655655, 0.013893844559788704, -0.2142685353755951, -0.1638486236333847, 0.13980939984321594, -0.38201311230659485, -0.10751482099294662, 0.3480537533760071, -0.02180948294699192, 